
\data\
ngram 1=15398
ngram 2=111577

\1-grams:
-2.416675	!	-2.198643
-4.174571	&	-0.215931
-3.152901	'	-1.026709
-3.52299	''	-1.843155
-4.890518	'16	-0.1365436
-4.890518	'45	-0.1365436
-4.890518	'55	-0.1365436
-4.890518	'60	-0.1365436
-4.890518	'77	-0.1365436
-4.890518	'82	-0.1365436
-4.772944	'83	-0.2153897
-4.772944	'84	-0.1365436
-4.772944	'85	-0.2153897
-4.655835	'87	-0.1365436
-4.772944	'89	-0.1365436
-4.890518	'90	-0.1365436
-4.655835	'95	-0.1365436
-4.890518	'97	-0.1365436
-4.507926	'A	-0.1587318
-4.890518	'About	-0.1365436
-4.890518	'Absolute	-0.1365436
-4.890518	'Absolutely	-0.1365436
-4.890518	'After	-0.1365436
-4.890518	'Ah	-0.6824844
-4.890518	'Alas	-0.1365436
-4.772944	'All	-0.2153897
-4.890518	'Almost	-0.1365436
-4.890518	'American	-0.1365436
-4.890518	'Ample	-0.1365436
-4.772944	'And	-0.2503466
-4.890518	'Answer	-0.1365436
-4.890518	'Any	-0.1365436
-4.890518	'Anybody	-0.1365436
-4.890518	'Anything	-0.260924
-4.890518	'Apoplexy	-0.1365436
-4.772944	'Are	-0.1365436
-4.890518	'Arms	-0.1365436
-4.772944	'Arthur	-0.1365436
-4.890518	'As	-0.1365436
-4.890518	'Ask	-0.1365436
-4.890518	'At	-0.260924
-4.890518	'Ay	-0.1365436
-4.890518	'Baron	-0.1365436
-4.890518	'Be	-0.1365436
-4.890518	'Because	-0.1365436
-4.890518	'Beddoes	-0.1365436
-4.890518	'Bless	-0.1365436
-4.890518	'Breckinridge	-0.1365436
-4.890518	'British	-0.1365436
-4.772944	'Brunton	-0.1365436
-4.772944	'But	-0.1942962
-4.772944	'By	-0.2627299
-4.890518	'C.P.R	-0.1365436
-4.890518	'COME	-0.1365436
-4.890518	'Can	-0.2153897
-4.890518	'Catullus	-0.1365436
-4.890518	'Certainly	-0.260924
-4.890518	'Co	-0.1365436
-4.890518	'Colonel	-0.1365436
-4.655835	'Come	-0.2834198
-4.890518	'Company	-0.1365436
-4.397796	'Cooee	-0.371456
-4.890518	'Crime	-0.1365436
-4.890518	'D'you	-0.1365436
-4.890518	'DEAR	-0.1365436
-4.890518	'Danger	-0.1365436
-4.890518	'Dear	-0.260924
-4.890518	'Dearest	-0.1365436
-4.890518	'Death	-0.1365436
-4.890518	'December	-0.1365436
-4.890518	'Did	-0.1365436
-4.890518	'Do	-0.371456
-4.890518	'Done	-0.1365436
-4.890518	'Drive	-0.1365436
-4.890518	'E.B	-0.1365436
-4.890518	'ELSIE	-0.1365436
-4.890518	'Eg	-0.1365436
-4.890518	'Elrige	-0.1365436
-4.772944	'Elsie	-0.1365436
-4.890518	'Encyclopaedia	-0.1365436
-4.890518	'Entirely	-0.1365436
-4.890518	'Fire	-0.1365436
-4.890518	'Five	-0.1365436
-4.507926	'For	-0.1644606
-4.890518	'Found	-0.1365436
-4.772944	'Frisco	-0.260924
-4.890518	'Fritz	-0.1365436
-4.772944	'From	-0.1365436
-4.890518	'G	-0.1365436
-4.890518	'Gesellschaft	-0.1365436
-4.890518	'Go	-0.1365436
-4.890518	'Gone	-0.1365436
-4.890518	'Good	-0.1365436
-4.890518	'Good-evening	-0.1365436
-4.890518	'H	-0.1365436
-4.890518	'Ha	-0.1365436
-4.890518	'Hampshire	-0.1365436
-4.890518	'Harold	-0.1365436
-4.890518	'Have	-0.5363564
-4.772944	'He	-0.1566672
-4.890518	'Head-keeper	-0.1365436
-4.890518	'Heavy	-0.1365436
-4.772944	'Here	-0.1365436
-4.890518	'His	-0.1365436
-4.890518	'Holdernesse	-0.1365436
-4.890518	'Homer	-0.1365436
-4.890518	'Hosmer	-0.1365436
-4.772944	'How	-0.1365436
-4.890518	'Hudson	-0.1365436
-4.890518	'Hullo	-0.260924
-4.890518	'Huxtable	-0.1365436
-4.890518	'Hyams	-0.1365436
-4.310019	'I	-0.3965335
-4.772944	'If	-0.3925642
-4.890518	'Impossible	-0.1365436
-4.890518	'In	-0.1365436
-4.890518	'Inspector	-0.1365436
-4.655835	'Is	-0.1365436
-4.655835	'It	-0.5803502
-4.772944	'J.H.N	-0.260924
-4.890518	'Jack	-0.1365436
-4.890518	'Jephro	-0.1365436
-4.772944	'K	-0.260924
-4.890518	'Keep	-0.1365436
-4.890518	'Ku	-0.1365436
-4.890518	'L'homme	-0.1365436
-4.890518	'Lately	-0.1365436
-4.655835	'Let	-0.234389
-4.890518	'Letters	-0.1365436
-4.507926	'Lone	-0.4394464
-4.890518	'Look	-0.1365436
-4.772944	'Lord	-0.1365436
-4.890518	'Lost	-0.1365436
-4.890518	'MY	-0.1365436
-4.890518	'Made	-0.1365436
-4.890518	'Mawson	-0.1365436
-4.772944	'May	-0.260924
-4.890518	'Most	-0.1365436
-4.890518	'Mother	-0.1365436
-4.772944	'Mr	-0.5363564
-4.890518	'Mrs	-0.1365436
-4.772944	'My	-0.1821149
-4.890518	'Mysterious	-0.1365436
-4.890518	'Neither	-0.1365436
-4.772944	'Never	-0.1821149
-4.890518	'Next	-0.1365436
-4.890518	'No	-0.579349
-4.890518	'Norbury	-0.1365436
-4.890518	'North	-0.1365436
-4.772944	'Not	-0.2041138
-4.890518	'Nothing	-0.1365436
-4.772944	'Now	-0.260924
-4.890518	'Oct	-0.1365436
-4.890518	'Of	-0.2153897
-4.655835	'Oh	-1.003093
-4.890518	'Omne	-0.1365436
-4.772944	'On	-0.234389
-4.890518	'One	-0.1365436
-4.890518	'Only	-0.234389
-4.890518	'Or	-0.260924
-4.890518	'Over	-0.1365436
-4.890518	'P	-0.1365436
-4.772944	'P.C	-0.260924
-4.890518	'Papier	-0.1365436
-4.890518	'Perfectly	-0.1365436
-4.772944	'Perhaps	-0.1365436
-4.890518	'Photography	-0.1365436
-4.890518	'Pink	-0.1365436
-4.772944	'Pon	-0.3145076
-4.890518	'Pondicherry	-0.1365436
-4.890518	'Pooh	-0.1365436
-4.890518	'Pray	-0.1365436
-4.890518	'Precisely	-0.1942962
-4.890518	'Pretty	-0.1365436
-4.772944	'Put	-0.260924
-4.890518	'Quite	-0.216473
-4.890518	'Ragged	-0.1365436
-4.890518	'Really	-0.260924
-4.890518	'Remarkable	-0.1365436
-4.890518	'Remember	-0.1365436
-4.890518	'Right	-0.260924
-4.890518	'Rome	-0.1365436
-4.772944	'S	-0.1365436
-4.890518	'See	-0.1365436
-4.890518	'Seven	-0.1365436
-4.890518	'She	-0.1365436
-4.890518	'Show	-0.1365436
-4.890518	'Singular	-0.1365436
-4.890518	'Sir	-0.1365436
-4.772944	'So	-0.2627299
-4.890518	'Sold	-0.1365436
-4.772944	'Some	-0.1365436
-4.890518	'Sophy	-0.1365436
-4.890518	'Ss	-0.1365436
-4.890518	'Stand	-0.1365436
-4.890518	'Stolen	-0.1365436
-4.890518	'Such	-0.1365436
-4.890518	'Sumner	-0.1365436
-4.890518	'Surely	-0.1365436
-4.772944	'Tell	-0.4388212
-4.890518	'Ten	-0.1365436
-4.890518	'Thank	-0.26273
-4.772944	'That	-0.3509509
-4.397796	'The	-0.1597143
-4.772944	'Then	-0.1942962
-4.507926	'There	-0.4386428
-4.890518	'These	-0.1365436
-4.772944	'They	-0.1365436
-4.655835	'This	-0.3590157
-4.890518	'Three	-0.1365436
-4.772944	'To	-0.1365436
-4.890518	'Tragedy	-0.1365436
-4.772944	'Trust	-0.260924
-4.890518	'Tut	-0.4394464
-4.890518	'US	-0.1365436
-4.890518	'Under	-0.1365436
-4.890518	'Undoubtedly	-0.1365436
-4.890518	'Until	-0.1365436
-4.772944	'Varsity	-0.1365436
-4.890518	'Very	-0.2621271
-4.890518	'Wandsworth	-0.1365436
-4.772944	'We	-0.2488586
-4.772944	'Well	-0.9667827
-4.655835	'What	-0.2429673
-4.890518	'Whatever	-0.1365436
-4.772944	'When	-0.1365436
-4.772944	'Where	-0.1999481
-4.890518	'Whereas	-0.1365436
-4.772944	'Which	-0.1365436
-4.772944	'Who	-0.1365436
-4.890518	'Whose	-0.1365436
-4.655835	'Why	-0.579349
-4.890518	'Within	-0.1365436
-4.890518	'Wonderful	-0.1365436
-4.890518	'Yes	-0.8585756
-4.655835	'You	-0.4015131
-4.772944	'Your	-0.1365436
-4.890518	'a	-0.1365436
-4.890518	'actually	-0.1365436
-4.655835	'and	-0.2087896
-4.890518	'are	-0.1365436
-4.655835	'at	-0.2627299
-4.890518	'band	-0.1365436
-4.772944	'bus	-0.1365436
-4.772944	'but	-0.2041137
-4.890518	'can	-0.1365436
-4.310019	'd	-0.24854
-4.890518	'death	-0.1365436
-4.890518	'did	-0.1365436
-4.890518	'e	-0.1365436
-4.772944	'em	-0.1365436
-4.890518	'first	-0.1365436
-4.890518	'fly-paper	-0.1365436
-4.772944	'for	-0.1365436
-4.890518	'get	-0.1365436
-4.890518	'has	-0.1365436
-4.890518	'have	-0.1365436
-4.890518	'he	-0.1365436
-4.890518	'hen-pheasant	-0.1365436
-4.890518	'here	-0.1365436
-4.890518	'his	-0.1365436
-4.655835	'idee	-0.3145076
-4.890518	'if	-0.1365436
-4.890518	'in	-0.1365436
-4.890518	'is	-0.1365436
-4.772944	'it	-0.2153897
-4.890518	'journeys	-0.1365436
-4.890518	'jumping	-0.1365436
-4.890518	'learn	-0.1365436
-4.890518	'lever	-0.1365436
-4.890518	'life	-0.1365436
-3.988217	'll	-0.3722652
-4.772944	'm	-0.2752089
-4.890518	'maybe	-0.1365436
-4.890518	'my	-0.1365436
-4.890518	'neither	-0.1365436
-4.890518	'never	-0.1365436
-4.890518	'only	-0.1365436
-4.890518	'other	-0.1365436
-4.890518	'please	-0.1365436
-4.890518	'pology	-0.1365436
-4.772944	'quarter	-0.260924
-4.890518	'r	-0.1365436
-4.397796	're	-0.1947012
-4.890518	'remember	-0.1365436
-2.519346	's	-0.3798251
-4.890518	'seeing	-0.1365436
-4.890518	'sent	-0.1365436
-4.890518	'sever	-0.1365436
-4.890518	'sir	-0.1365436
-4.890518	'suicide	-0.1365436
-4.890518	'supply	-0.1365436
-4.890518	't	-0.1365436
-4.890518	'take	-0.1365436
-4.890518	'that	-0.1644606
-4.655835	'the	-0.1365436
-4.890518	'there	-0.2153898
-4.890518	'this	-0.1365436
-4.655835	'to	-0.1821149
-4.772944	'tween-decks	-0.1365436
-4.655835	'twelve	-0.2153898
-4.890518	'un	-0.1365436
-4.071474	've	-0.4185887
-4.772944	'we	-0.1821149
-4.890518	'were	-0.1365436
-4.890518	'what	-0.1365436
-4.890518	'when	-0.1365436
-4.890518	'which	-0.1365436
-4.890518	'wilful	-0.1365436
-4.772944	'with	-0.1365436
-4.890518	'would	-0.1365436
-4.890518	'ye	-0.1365436
-4.655835	'you	-0.1535099
-4.027853	(	-0.200518
-4.071474	)	-0.3032618
-4.890518	*****	-0.9165676
-1.340817	,	-1.069764
-4.890518	-	-0.1365436
-2.327858	--	-0.5572605
-1.396058	.	-3.395648
-4.772944	...	-0.1365436
-4.890518	..E	-0.1365436
-4.890518	.ERE	-0.1365436
-4.890518	.M	-0.1365436
-4.890518	.RE.ARE	-0.1365436
-4.772944	1	-0.1365436
-4.890518	1/2	-0.1365436
-4.890518	10	-0.1365436
-4.655835	100	-0.3145076
-4.174571	1000	-0.4896615
-4.890518	10s	-0.1365436
-4.890518	10s.	-0.1365436
-4.890518	10th	-0.1365436
-4.890518	11.10	-0.1365436
-4.890518	1100	-0.1365436
-4.890518	117	-0.260924
-4.772944	117th	-0.1365436
-4.655835	11:15	-0.3145076
-4.890518	11:30	-0.1365436
-4.890518	12.22	-0.1365436
-4.772944	120	-0.260924
-4.655835	126b	-0.2153897
-4.890518	12s	-0.1365436
-4.890518	12th	-0.1365436
-4.772944	131	-0.1365436
-4.890518	13th	-0.1365436
-4.890518	14	-0.1365436
-4.890518	14,000	-0.1365436
-4.890518	140	-0.1365436
-4.890518	14th	-0.1365436
-4.890518	15	-0.260924
-4.890518	150	-0.1365436
-4.772944	16	-0.1365436
-4.890518	1607	-0.1365436
-4.890518	16A	-0.1365436
-4.890518	17	-0.1365436
-4.890518	1840	-0.1365436
-4.890518	1846	-0.1365436
-4.890518	1855	-0.1365436
-4.890518	1858	-0.1365436
-4.655835	1869	-0.2153897
-4.890518	1870	-0.1365436
-4.890518	1872	-0.1365436
-4.890518	1875	-0.1365436
-4.890518	1878	-0.1365436
-4.890518	1881	-0.1365436
-4.507926	1883	-0.2041138
-4.772944	1884	-0.1365436
-4.890518	1887	-0.1365436
-4.890518	1888	-0.1365436
-4.772944	1890	-0.2153897
-4.772944	1891	-0.260924
-4.655835	1894	-0.1365436
-4.890518	1895	-0.1365436
-4.890518	18th	-0.1365436
-4.890518	1900	-0.1365436
-4.890518	1901	-0.1365436
-4.890518	1903	-0.3145076
-4.890518	1904	-0.8373864
-4.890518	19th	-0.1365436
-4.890518	1s.	-0.1365436
-4.772944	1st	-0.1365436
-4.507926	2	-0.2330348
-4.890518	2,000	-0.1365436
-4.890518	2.40	-0.1365436
-4.890518	20	-0.1365436
-4.890518	200	-0.1365436
-4.890518	20th	-0.1365436
-4.890518	220	-0.1365436
-4.890518	221	-0.1365436
-4.890518	221B	-0.1365436
-4.890518	226	-0.1365436
-4.655835	22nd	-0.1365436
-4.772944	23d	-0.1365436
-4.890518	23rd	-0.1365436
-4.890518	2473	-0.1365436
-4.890518	249	-0.1365436
-4.890518	24th	-0.1365436
-4.655835	25	-0.2153897
-4.890518	250	-0.1365436
-4.772944	26	-0.1365436
-4.890518	26s	-0.1365436
-4.655835	27	-0.1365436
-4.890518	270	-0.1365436
-4.890518	28	-0.1365436
-4.890518	2nd	-0.1365436
-4.772944	2s	-0.260924
-4.890518	3	-0.1365436
-4.890518	3.30	-0.1365436
-4.890518	3.36	-0.1365436
-4.655835	30	-0.2153897
-4.772944	30,000	-0.1365436
-4.890518	30th	-0.1365436
-4.890518	31	-0.1365436
-4.890518	3d	-0.1365436
-4.655835	3rd	-0.1365436
-4.310019	4	-0.3290739
-4.890518	40	-0.1365436
-4.890518	4000	-0.1365436
-4.890518	403	-0.1365436
-4.890518	421	-0.1365436
-4.890518	426	-0.1365436
-4.772944	427	-0.3145076
-4.890518	46	-0.1365436
-4.890518	4700	-0.1365436
-4.890518	4:35	-0.1365436
-4.890518	4d	-0.1365436
-4.655835	4th	-0.1365436
-4.890518	5	-0.1365436
-4.890518	50	-0.1365436
-4.890518	50,000	-0.1365436
-4.890518	5:14	-0.1365436
-4.890518	5:15	-0.1365436
-4.890518	6	-0.1365436
-4.890518	6.30	-0.1365436
-4.890518	60	-0.1365436
-4.890518	6:30	-0.1365436
-4.890518	6d	-0.1365436
-4.890518	6d.	-0.260924
-4.655835	6th	-0.1365436
-4.890518	7	-0.1365436
-4.890518	700	-0.1365436
-4.890518	750	-0.1365436
-4.890518	7s	-0.1365436
-4.772944	7th	-0.1365436
-4.890518	88	-0.1365436
-4.890518	8d	-0.1365436
-4.890518	8s.	-0.1365436
-4.890518	8th	-0.1365436
-4.890518	9	-0.1365436
-4.890518	9.13	-0.1365436
-4.890518	9.50	-0.1365436
-4.890518	90	-0.1365436
-4.772944	9th	-0.1365436
-3.199604	:	-0.4774418
-2.507916	;	-0.810056
-4.310019	</s>
-99	<s>	-1.341119
-2.115373	?	-2.592676
-4.027853	A	-0.2695703
-4.655835	A.	-0.1942962
-4.890518	A.E	-0.1365436
-4.890518	ABANDON	-0.1365436
-4.890518	ABE	-0.1365436
-4.890518	ADLER	-0.1365436
-4.655835	ADVENTURE	-0.3131023
-4.890518	ADVENTURES	-0.1365436
-4.890518	ADVISE	-0.1365436
-4.890518	AFTER	-0.1365436
-4.890518	AGENT	-0.1365436
-4.772944	ALIBI	-0.1365436
-4.772944	AM	-0.2153897
-4.890518	APPLEDORE	-0.1365436
-4.890518	APRIL	-0.1365436
-4.890518	ARAT	-0.1365436
-4.890518	ARMSTRONG	-0.1365436
-4.772944	ARTHUR	-0.9835144
-4.890518	AT	-0.1365436
-4.890518	AUGUST	-0.1365436
-4.890518	AUGUSTUS	-0.1365436
-4.507926	Abbey	-0.5768117
-4.890518	Abbots	-0.1365436
-4.397796	Abe	-0.505768
-4.772944	Aberdeen	-0.1365436
-4.890518	Abergavenny	-0.1365436
-4.890518	Abernetty	-0.1365436
-4.772944	About	-0.2108217
-4.890518	Above	-0.3135702
-4.890518	Absolute	-0.1365436
-4.772944	Absolutely	-0.2041138
-4.890518	Accepting	-0.1365436
-4.890518	According	-0.1365436
-4.890518	Accustomed	-0.260924
-4.890518	Across	-0.1365436
-4.237036	Acton	-0.2714296
-4.310019	Adair	-0.2225513
-4.890518	Adams	-0.1365436
-4.890518	Add	-0.1365436
-4.890518	Addleton	-0.1365436
-4.890518	Address	-0.260924
-4.890518	Adelaide	-0.260924
-4.890518	Adelaide-Southampton	-0.1365436
-4.772944	Adler	-0.3132151
-4.890518	Admirable	-0.1365436
-4.890518	Admiralty	-0.1365436
-4.507926	Adventure	-0.713084
-4.890518	Affair	-0.1365436
-4.772944	Affairs	-0.1365436
-4.772944	Afghan	-0.1365436
-4.890518	Afghanistan	-0.2627299
-4.890518	Afghans	-0.1365436
-4.655835	Africa	-0.1685994
-4.655835	African	-0.1365436
-4.772944	After	-0.3558448
-4.890518	Afterwards	-0.1365436
-4.890518	Again	-0.4212744
-4.772944	Agatha	-0.1365436
-4.772944	Agent	-0.260924
-4.890518	Ages	-0.1365436
-4.890518	Agra	-0.1365436
-4.507926	Ah	-1.263355
-4.890518	Aha	-0.1365436
-4.890518	Air	-0.1365436
-4.890518	Alas	-0.3145076
-4.655835	Albert	-0.2153897
-4.890518	Aldersgate	-0.1365436
-4.310019	Aldershot	-0.1874866
-4.071474	Alec	-0.4153357
-4.890518	Alexander	-0.1365436
-4.890518	Alexandria	-0.1365436
-4.890518	Alexandrian	-0.1365436
-4.655835	Alexis	-0.1365436
-4.11997	Alice	-0.1549541
-4.890518	Alicia	-0.1365436
-4.890518	Alighting	-0.1365436
-4.772944	All	-0.3639208
-4.890518	Allardyce	-0.1365436
-4.890518	Allegro	-0.1365436
-4.890518	Alliance	-0.1365436
-4.890518	Allow	-0.1365436
-4.890518	Almighty	-0.1365436
-4.890518	Almost	-0.1365436
-4.890518	Along	-0.1365436
-4.772944	Aloysius	-0.5363564
-4.890518	Alpha	-0.240822
-4.890518	Alpine	-0.1365436
-4.507926	Alpine-stock	-0.1365436
-4.772944	Already	-0.1365436
-4.890518	Also	-0.1365436
-4.890518	Altogether	-0.1365436
-4.890518	Always	-0.1365436
-4.890518	Am	-0.1365436
-4.772944	Amateur	-0.1365436
-4.890518	Amazement	-0.1365436
-4.237036	America	-0.3410606
-4.174571	American	-0.2204921
-4.890518	Americans	-0.1365436
-4.890518	Amid	-0.2153898
-4.772944	Among	-0.1365436
-4.890518	Amoy	-0.1365436
-4.890518	Ample	-0.1365436
-4.655835	An	-0.3103424
-4.890518	Anarchist	-0.1365436
-4.655835	And	-0.6685073
-4.890518	Andaman	-0.1365436
-4.890518	Anderson	-0.1365436
-4.890518	Andover	-0.1365436
-4.890518	Anerley	-0.1365436
-4.655835	Angel	-0.3134364
-4.890518	Anglia	-0.1365436
-4.890518	Anglo-Indian	-0.1365436
-4.890518	Anna	-0.260924
-4.890518	Anne	-0.1365436
-4.397796	Annie	-0.1821149
-4.890518	Annoyed	-0.1365436
-4.772944	Another	-0.1365436
-4.890518	Anstruther	-0.1365436
-4.890518	Answer	-0.1365436
-4.772944	Any	-0.2104204
-4.890518	Anybody	-0.1365436
-4.772944	Anyhow	-0.5637599
-4.772944	Anyone	-0.1365436
-4.772944	Anything	-0.3132582
-4.890518	Anyway	-0.1365436
-4.890518	Apache	-0.1365436
-4.890518	Apaches	-0.1365436
-4.890518	Apparently	-0.1365436
-4.772944	Appledore	-0.2153897
-4.890518	Apply	-0.1365436
-4.890518	Appreciation	-0.1365436
-4.655835	April	-0.1685994
-4.890518	Arab	-0.1365436
-4.890518	Arabian	-0.1365436
-4.772944	Arcade	-0.3145076
-4.890518	Arcadia	-0.1365436
-4.890518	Archery	-0.1365436
-4.772944	Archie	-0.1365436
-4.890518	Architecture	-0.1365436
-4.772944	Arctic	-0.1365436
-4.772944	Are	-0.7398512
-4.890518	Argentine	-0.1365436
-4.890518	Arizona	-0.1365436
-4.310019	Armitage	-0.1741798
-4.890518	Armour	-0.1365436
-4.772944	Arms	-0.1365436
-4.397796	Armstrong	-0.2212789
-4.772944	Army	-0.1365436
-4.890518	Arnsworth	-0.1365436
-4.772944	Arrest	-0.1365436
-4.890518	Arson	-0.1365436
-4.890518	Art	-0.1365436
-3.62491	Arthur	-0.2240471
-4.772944	Artillery	-0.1365436
-4.655835	As	-0.8783252
-4.772944	Ask	-0.2153898
-4.772944	Assizes	-0.380517
-4.890518	Assure	-0.1365436
-4.890518	Astonishment	-0.1365436
-4.772944	At	-0.6241986
-4.890518	Athene	-0.1365436
-4.397796	Athens	-0.234389
-4.890518	Atkinson	-0.1365436
-4.772944	Atlanta	-0.1942962
-4.890518	Atlantic	-0.1365436
-4.890518	Attica	-0.1365436
-4.890518	Auckland	-0.1365436
-4.655835	August	-0.1365436
-4.890518	Augustine	-0.1365436
-4.772944	Augustus	-0.35964
-4.890518	Austerlitz	-0.1365436
-4.310019	Australia	-0.234389
-4.507926	Australian	-0.1365436
-4.890518	Australians	-0.1365436
-4.890518	Author	-0.1365436
-4.890518	Aveling	-0.1365436
-4.655835	Avenue	-0.2621271
-4.890518	Awake	-0.1365436
-4.890518	Away	-0.1365436
-4.890518	Ay	-0.1365436
-4.890518	Aye	-0.1365436
-4.890518	Ayrshires	-0.1365436
-4.890518	Azure	-0.1365436
-4.397796	B	-0.2032111
-4.890518	BACHELOR	-0.1365436
-4.890518	BALLARAT	-0.1365436
-4.890518	BAND	-0.1365436
-4.890518	BASS	-0.1365436
-4.890518	BEECHES	-0.1365436
-4.890518	BERYL	-0.1365436
-4.890518	BLUE	-0.1365436
-4.890518	BOHEMIA	-0.1365436
-4.890518	BOSCOMBE	-0.1365436
-4.890518	BOTH	-0.1365436
-4.890518	Bachelor	-0.1365436
-4.890518	Back	-0.1365436
-4.890518	Backwater	-0.2330348
-4.772944	Bad	-0.2153897
-4.890518	Bagatelle	-0.1365436
-3.736572	Baker	-1.013614
-4.772944	Bakers	-0.1365436
-4.890518	Baldwin	-0.1365436
-4.655835	Ballarat	-0.1365436
-4.772944	Balmoral	-0.240822
-4.890518	Balzac	-0.1365436
-4.890518	Band	-0.1365436
-4.890518	Bangor	-0.1365436
-4.655835	Bank	-0.2153897
-4.890518	Bankers	-0.1365436
-4.027853	Bannister	-0.3525578
-4.772944	Bar	-0.1365436
-4.11997	Barclay	-0.3569576
-4.890518	Barclays	-0.1365436
-4.890518	Barnicot	-0.2462223
-4.890518	Baron	-0.1365436
-4.890518	Barons	-0.1365436
-4.890518	Barque	-0.1365436
-4.890518	Barrett	-0.1365436
-4.890518	Barton	-0.1365436
-4.772944	Basil	-0.1942962
-4.890518	Basle	-0.1365436
-4.890518	Bathsheba	-0.1365436
-4.772944	Baxter	-0.1365436
-4.890518	Bay	-0.1365436
-4.772944	Bayard	-0.1365436
-4.890518	Bayswater	-0.1365436
-4.772944	Be	-0.1365436
-4.890518	Beacons	-0.1365436
-4.772944	Because	-0.3436463
-4.772944	Becher	-0.1365436
-4.655835	Beckenham	-0.1821149
-4.772944	Beddington	-0.1365436
-4.310019	Beddoes	-0.2241092
-4.655835	Beecher	-0.1365436
-4.890518	Beeches	-0.2621057
-4.772944	Before	-0.1783102
-4.890518	Beg	-0.1365436
-4.890518	Behind	-0.1365436
-4.890518	Being	-0.1365436
-4.890518	Belgrade	-0.1365436
-4.890518	Bellinger	-0.2153897
-4.890518	Belminster	-0.1365436
-4.890518	Bengal	-0.1365436
-4.890518	Bengalore	-0.1365436
-4.890518	Bentinck	-0.1365436
-4.890518	Bentley	-0.1365436
-4.071474	Beppo	-0.1948117
-4.507926	Berkshire	-0.1365436
-4.890518	Bermondsey	-0.1365436
-4.890518	Bermuda	-0.1365436
-4.890518	Bert	-0.1365436
-4.890518	Bertillon	-0.1365436
-4.890518	Beryl	-0.260924
-4.890518	Beside	-0.2830841
-4.772944	Besides	-0.8641871
-4.772944	Better	-0.1365436
-4.772944	Between	-0.2462223
-4.890518	Beverley	-0.1365436
-4.772944	Beyond	-0.216473
-4.655835	Bhurtee	-0.1365436
-4.890518	Bible	-0.1365436
-4.890518	Biddle	-0.1365436
-4.890518	Bill	-0.1365436
-4.890518	Binomial	-0.1365436
-4.890518	Birchmoor	-0.1365436
-4.890518	Birds	-0.1365436
-4.507926	Birmingham	-0.1821149
-4.890518	Bite	-0.1365436
-4.027853	Black	-0.4659891
-4.655835	Blackheath	-0.2418064
-4.890518	Blackwater	-0.1365436
-4.890518	Blandford	-0.1365436
-4.890518	Blaze	-0.2092817
-4.772944	Bless	-0.1365436
-3.831024	Blessington	-0.3012968
-4.890518	Block	-0.1365436
-4.890518	Blood	-0.1365436
-4.890518	Bloomsbury	-0.1365436
-4.655835	Blue	-0.1365436
-4.890518	Blues	-0.1365436
-4.772944	Bob	-0.2153897
-4.772944	Bohemia	-0.3032618
-4.507926	Bohemian	-0.1365436
-4.890518	Bohemianism	-0.1365436
-4.890518	Bond	-0.1365436
-4.397796	Boone	-0.2271665
-4.772944	Boots	-0.2627299
-4.890518	Bordeaux	-0.1365436
-4.890518	Borgia	-0.1365436
-4.890518	Borgias	-0.1365436
-4.890518	Born	-0.2153897
-4.237036	Boscombe	-0.7124476
-4.890518	Boswell	-0.1365436
-4.890518	Botany	-0.1365436
-4.772944	Both	-0.1825159
-4.890518	Bought	-0.1365436
-4.890518	Boulevard	-0.1365436
-4.772944	Bow	-0.260924
-4.890518	Boxer	-0.1365436
-4.772944	Brackenstall	-0.1988501
-4.890518	Brackwell	-0.1365436
-4.772944	Bradshaw	-0.1365436
-4.310019	Bradstreet	-0.3135702
-4.890518	Brambletye	-0.260924
-4.310019	Breckinridge	-0.216473
-4.397796	Briarbrae	-0.2032111
-4.655835	Bridge	-0.3129786
-4.890518	Briefly	-0.1365436
-4.772944	Bring	-0.2153898
-4.174571	Briony	-0.8787791
-4.507926	Bristol	-0.1741798
-4.655835	Britain	-0.1741798
-4.772944	Britannica	-0.260924
-4.071474	British	-0.1615871
-4.310019	Brixton	-0.4793788
-4.890518	Broads	-0.1365436
-4.890518	Broken	-0.1365436
-4.890518	Brooding	-0.1365436
-4.397796	Brook	-0.7404763
-4.890518	Brotherhood	-0.1365436
-4.890518	Brothers	-0.35964
-4.655835	Brown	-0.3132582
-4.890518	Bruce	-0.1365436
-3.831024	Brunton	-0.2687028
-4.772944	Brussels	-0.1365436
-4.890518	Buda-Pesth	-0.1365436
-4.772944	Builder	-0.3145076
-4.890518	Buildings	-0.1365436
-4.890518	Bull	-0.1365436
-4.890518	Bunsen	-0.1365436
-4.890518	Bureau	-0.1365436
-4.890518	Burglary	-0.260924
-4.890518	Burnwell	-0.1365436
-4.890518	Busybody	-0.1365436
-4.655835	But	-0.7336751
-4.655835	By	-0.5736917
-4.890518	By-the-way	-0.1365436
-4.655835	C	-0.1365436
-4.772944	C.	-0.1365436
-4.890518	C.A.M.	-0.1365436
-4.890518	C.B.	-0.1365436
-4.890518	C.P.R.	-0.1365436
-4.772944	CA	-0.260924
-4.655835	CAN	-0.1365436
-4.890518	CARBUNCLE	-0.1365436
-4.772944	CASE	-0.1365436
-4.890518	CHARLES	-0.1365436
-4.890518	COLONEL	-0.1365436
-4.890518	CONAN	-0.9835144
-4.890518	COPPER	-0.1365436
-4.890518	CORONET	-0.1365436
-4.772944	COULD	-0.1365436
-4.890518	COUPLE	-0.1365436
-4.507926	Cabinet	-0.1365436
-4.890518	Cabul	-0.1365436
-4.890518	Cairns	-0.1365436
-4.890518	Cal.	-0.1365436
-4.890518	Calcutta	-0.1365436
-4.772944	Calhoun	-0.1365436
-4.655835	California	-0.1365436
-4.890518	Californian	-0.1365436
-4.890518	Cam	-0.1365436
-4.772944	Camberwell	-0.1365436
-4.397796	Cambridge	-0.2623137
-4.890518	Cambridgeshire	-0.1365436
-4.890518	Camden	-0.1365436
-4.772944	Campaign	-0.260924
-4.890518	Campden	-0.1365436
-4.772944	Can	-0.6818593
-4.890518	Canadian	-0.1365436
-4.890518	Canal	-0.1365436
-4.890518	Cannon	-0.1365436
-4.772944	Canterbury	-0.1365436
-4.890518	Cape	-0.1365436
-4.507926	Capital	-0.4963947
-4.890518	Capsules	-0.1365436
-4.071474	Captain	-0.4139976
-4.890518	Capture	-0.1365436
-4.890518	Carbuncle	-0.1365436
-4.890518	Card	-0.1365436
-4.890518	Cardinal	-0.1365436
-4.890518	Carefully	-0.1365436
-4.655835	Carey	-0.3412998
-4.890518	Carlo	-0.1365436
-4.890518	Carlsbad	-0.1365436
-4.772944	Carlton	-0.1365436
-4.890518	Carolinas	-0.1365436
-4.890518	Carried	-0.1365436
-4.071474	Carruthers	-0.3849371
-4.890518	Carstairs	-0.1365436
-4.772944	Carston	-0.1365436
-4.772944	Cartwright	-0.1365436
-4.772944	Case	-0.1365436
-4.890518	Cassel-Felstein	-0.1365436
-4.772944	Castle	-0.1365436
-4.890518	Cathcart	-0.1365436
-4.772944	Catherine	-0.260924
-4.772944	Catholic	-0.1365436
-4.890518	Cattle	-0.1365436
-4.890518	Caunter	-0.1365436
-4.890518	Cavalier	-0.1365436
-4.655835	Cavendish	-0.260924
-4.890518	Cedars	-0.1365436
-4.890518	Celtic	-0.1365436
-4.890518	Central	-0.260924
-4.772944	Certainly	-0.6913923
-4.890518	Chair	-0.1365436
-4.890518	Chamber	-0.1365436
-4.890518	Chance	-0.1365436
-4.890518	Chancelleries	-0.1365436
-4.890518	Chapel	-0.1365436
-4.890518	Charasiab	-0.1365436
-4.397796	Charing	-0.8373864
-3.951898	Charles	-0.3456829
-4.027853	Charlington	-0.3292605
-4.890518	Charming	-0.1365436
-4.890518	Charybdis	-0.1365436
-4.655835	Chatham	-0.1741798
-4.890518	Check	-0.1365436
-4.507926	Chesterfield	-0.1821149
-4.890518	Chesterton	-0.1365436
-4.772944	Chicago	-0.1365436
-4.890518	Chief	-0.1365436
-4.890518	Children	-0.1365436
-4.772944	Chiltern	-0.260924
-4.397796	China	-0.1741798
-4.772944	Chinese	-0.1365436
-4.655835	Chislehurst	-0.1365436
-4.507926	Chiswick	-0.1365436
-4.890518	Christ	-0.1365436
-4.174571	Christmas	-0.2074659
-4.655835	Chronicle	-0.1365436
-4.772944	Chubb	-0.1365436
-4.310019	Church	-0.2418064
-4.890518	Cinnamon	-0.1365436
-4.772944	Circumstantial	-0.260924
-4.772944	Circus	-0.260924
-4.507926	City	-0.3211893
-4.890518	Civil	-0.3145076
-4.890518	Clair	-0.3512795
-4.655835	Clapham	-0.3145076
-4.890518	Clara	-0.1365436
-4.890518	Clark	-0.1365436
-4.772944	Clay	-0.2834198
-4.890518	Clearly	-0.1365436
-4.890518	Clerk	-0.1365436
-4.890518	Close	-0.1365436
-4.890518	Clotilde	-0.1365436
-4.655835	Club	-0.2032111
-4.890518	Clubs	-0.1365436
-4.890518	Clue	-0.1365436
-4.772944	Co.	-0.505768
-4.890518	Coarse	-0.1365436
-4.890518	Cobb	-0.1365436
-4.772944	Coburg	-0.2153897
-4.890518	Cock	-0.2153897
-4.890518	Cocksure	-0.1365436
-4.890518	Coldstream	-0.1365436
-4.890518	Collar	-0.1365436
-4.507926	College	-0.1821149
-3.715853	Colonel	-0.5512994
-4.890518	Colonial	-0.1365436
-4.890518	Colonies	-0.1365436
-4.890518	Colonna	-0.1365436
-4.890518	Colony	-0.1365436
-4.772944	Come	-0.5026534
-4.890518	Coming	-0.1365436
-4.890518	Common	-0.1365436
-4.890518	Commons	-0.1365436
-4.507926	Company	-0.3870659
-4.890518	Conan	-0.260924
-4.890518	Concealment	-0.1365436
-4.890518	Conduit	-0.1365436
-4.890518	Confess	-0.1365436
-4.890518	Conk-Singleton	-0.1365436
-4.890518	Conquest	-0.1365436
-4.772944	Consider	-0.2153897
-4.890518	Considering	-0.1365436
-4.772944	Constable	-0.1365436
-4.890518	Constabulary	-0.1365436
-4.890518	Contents	-0.1365436
-4.890518	Continent	-0.260924
-4.772944	Continental	-0.1365436
-4.890518	Contralto	-0.1365436
-4.772944	Convinced	-0.260924
-4.890518	Cooee	-0.1365436
-4.890518	Cook	-0.1365436
-4.655835	Copper	-0.7404764
-4.890518	Coptic	-0.1365436
-4.890518	Coram	-0.2783191
-4.772944	Cornelius	-0.1821149
-4.772944	Cornwall	-0.1365436
-4.890518	Coroner	-0.7404764
-4.890518	Coronet	-0.1365436
-4.890518	Corporal	-0.1365436
-4.772944	Corporation	-0.3145076
-4.890518	Cosmopolitan	-0.1365436
-4.890518	Costa	-0.1365436
-4.772944	Could	-0.3671987
-4.772944	Count	-0.2153897
-4.890518	Countess	-0.2618691
-4.890518	Counties	-0.260924
-4.890518	County	-0.260924
-4.507926	Court	-0.278319
-4.655835	Covent	-0.3145076
-4.890518	Coventry	-0.1365436
-4.655835	Coxon	-0.2621271
-4.890518	Crane	-0.1365436
-4.890518	Creina	-0.1365436
-4.890518	Creole	-0.1365436
-4.890518	Crewe	-0.1365436
-4.890518	Crime	-0.1365436
-4.890518	Crimea	-0.1365436
-4.772944	Crimean	-0.1365436
-4.890518	Criminal	-0.260924
-4.890518	Criminals	-0.1365436
-4.772944	Croker	-0.371456
-4.890518	Crooked	-0.1365436
-4.772944	Crooksbury	-0.260924
-4.890518	Crosby	-0.1365436
-4.772944	Cross	-0.216473
-4.890518	Crowder	-0.3145076
-4.772944	Crown	-0.1821149
-4.890518	Crystal	-0.1365436
-4.772944	Cubitt	-0.2620125
-4.174571	Cunningham	-0.3733708
-4.655835	Cunninghams	-0.1741798
-4.772944	Cup	-0.2330348
-4.890518	Curse	-0.1365436
-4.772944	Cusack	-0.1365436
-4.890518	Cuvier	-0.1365436
-4.890518	Cyclist	-0.260924
-4.071474	Cyril	-0.3240765
-4.655835	D	-0.1365436
-4.772944	D'you	-0.1365436
-4.890518	D.D.	-0.1365436
-4.890518	DAILY	-0.260924
-4.890518	DE	-0.1365436
-4.655835	DEAR	-0.4394464
-4.890518	DEAREST	-0.1365436
-4.890518	DEBUTANTE	-0.1365436
-4.772944	DECEMBER	-0.260924
-4.890518	DEFINITELY	-0.1365436
-4.890518	DETOUR	-0.1365436
-4.890518	DID	-0.1365436
-4.890518	DISSOLVED	-0.1365436
-4.890518	DO	-0.1365436
-4.890518	DOES	-0.1365436
-4.890518	DOYLE	-0.681547
-4.890518	Dacre	-0.1365436
-4.890518	Daily	-0.1365436
-4.890518	Damp	-0.1365436
-4.890518	Dancing	-0.260924
-4.890518	Dane	-0.1365436
-4.890518	Danger	-0.1365436
-4.890518	Dantzig	-0.1365436
-4.890518	Darjeeling	-0.1365436
-4.772944	Dark	-0.1365436
-4.890518	Darlington	-0.1365436
-4.310019	Dartmoor	-0.1874866
-4.890518	Data	-0.1365436
-4.890518	Daubensee	-0.1365436
-4.772944	Daulat	-0.260924
-4.890518	Davenport	-0.1365436
-4.507926	David	-0.1365436
-4.890518	Davos	-0.1365436
-4.655835	Dawson	-0.1365436
-4.890518	Day	-0.1365436
-4.890518	De	-0.1365436
-4.772944	Dear	-0.9159425
-4.772944	December	-0.1365436
-4.655835	Deep	-0.3145076
-4.890518	Deeply	-0.1365436
-4.890518	Dei	-0.1365436
-4.890518	Dene	-0.3145076
-4.890518	Depend	-0.1365436
-4.397796	Derbyshire	-0.1821149
-4.397796	Desborough	-0.1821149
-4.890518	Describe	-0.1365436
-4.890518	Deserted	-0.1365436
-4.890518	Desiring	-0.1365436
-4.890518	Detective	-0.260924
-4.772944	Devine	-0.2153897
-4.507926	Devonshire	-0.1365436
-4.890518	Devoy	-0.260924
-4.655835	Did	-0.6106097
-4.890518	Dieppe	-0.1365436
-4.890518	Dinner	-0.1365436
-4.772944	Diogenes	-0.5363564
-4.890518	Dirty	-0.1365436
-4.772944	Disappearance	-0.1365436
-4.890518	Disease	-0.1365436
-4.890518	Disgraceful	-0.1365436
-4.890518	Disregarding	-0.1365436
-4.890518	Division	-0.1365436
-4.772944	Dixon	-0.3145076
-4.772944	Do	-1.023035
-4.890518	Dock	-0.1365436
-4.890518	Dockyard	-0.1365436
-4.655835	Doctor	-0.6904547
-4.890518	Doctors	-0.1365436
-4.890518	Documents	-0.1365436
-4.772944	Does	-0.1741798
-4.890518	Don	-0.1365436
-4.890518	Doncaster	-0.1365436
-4.890518	Done	-0.1365436
-4.507926	Donnithorpe	-0.1942962
-4.890518	Dook	-0.1365436
-4.507926	Doran	-0.3709214
-4.890518	Dorking	-0.1365436
-4.890518	Dovercourt	-0.1365436
-4.890518	Down	-0.1365436
-4.890518	Downing	-0.1365436
-4.890518	Downs	-0.1365436
-4.890518	Doyle	-0.1365436
-4.772944	Dr	-0.4394464
-3.485704	Dr.	-0.7760445
-4.890518	Draper	-0.1365436
-4.890518	Draw	-0.1365436
-4.890518	Drink	-0.1365436
-4.890518	Drive	-0.1365436
-4.772944	Drop	-0.1365436
-4.890518	Dubugue	-0.1365436
-4.772944	Duchess	-0.1644606
-4.310019	Duke	-0.4170968
-4.890518	Dulong	-0.1365436
-4.772944	Duncan	-0.6824844
-4.890518	Dundas	-0.1365436
-4.174571	Dundee	-0.3138825
-4.655835	Dunlop	-0.1821149
-4.772944	During	-0.2621271
-4.890518	Dutch	-0.1365436
-4.310019	E	-0.2032111
-4.507926	E.	-0.1365436
-4.890518	E.C	-0.1365436
-4.890518	ELRI.ES	-0.1365436
-4.890518	ELSIE	-0.1365436
-4.890518	EMPLOYEE	-0.1365436
-4.890518	ENGINEER	-0.1365436
-4.890518	ESTABLISHED	-0.1365436
-4.890518	EVIDENCE	-0.1365436
-4.772944	Each	-0.1950698
-4.772944	Earl	-0.3870658
-4.890518	Early	-0.1365436
-4.890518	Easier	-0.1365436
-4.310019	East	-0.1741798
-4.890518	East-End	-0.1365436
-4.890518	East-end	-0.1365436
-4.655835	Eastern	-0.1365436
-4.890518	Eat	-0.1365436
-4.890518	Echo	-0.1365436
-4.890518	Edgeware	-0.260924
-4.507926	Edith	-0.1942962
-4.397796	Eduardo	-0.7404764
-4.890518	Educated	-0.1365436
-4.655835	Edward	-0.1365436
-4.655835	Effie	-0.1821149
-4.890518	Eglonitz	-0.1365436
-4.890518	Eglow	-0.1365436
-4.890518	Egria	-0.1365436
-4.890518	Egypt	-0.1365436
-4.772944	Eh	-0.2153897
-4.772944	Eight	-0.1365436
-4.890518	Either	-0.2153897
-4.890518	Electrical	-0.1365436
-4.890518	Elementary	-0.1365436
-4.890518	Eley	-0.1365436
-4.772944	Elias	-0.1365436
-4.890518	Elise	-0.1365436
-4.890518	Elizabethan	-0.1365436
-4.655835	Elrige	-0.3145076
-4.11997	Elsie	-0.1365436
-4.890518	Embankment	-0.1365436
-4.890518	Embassies	-0.1365436
-4.772944	Embassy	-0.2153897
-4.772944	Emperor	-0.1365436
-4.890518	Empire	-0.1365436
-4.890518	Empty	-0.260924
-4.772944	Encyclopaedia	-0.1365436
-4.890518	End	-0.1365436
-4.890518	Endell	-0.1365436
-4.890518	Engage	-0.1365436
-4.890518	Engaged	-0.1365436
-4.890518	Engineer	-0.1365436
-3.988217	England	-0.4743957
-4.890518	Englischer	-0.1365436
-3.805417	English	-0.1989791
-4.237036	Englishman	-0.2459827
-4.890518	Englishmen	-0.1365436
-4.890518	Englishwoman	-0.1365436
-4.890518	Enough	-0.1365436
-4.890518	Enter	-0.1365436
-4.890518	Entirely	-0.260924
-4.890518	Escott	-0.1365436
-4.890518	Esq	-0.1365436
-4.890518	Esq.	-0.1365436
-4.890518	Etherege	-0.1365436
-4.655835	Eton	-0.2153897
-4.397796	Europe	-0.3506109
-4.174571	European	-0.2715821
-4.772944	Eustace	-0.206829
-4.890518	Euston	-0.1365436
-4.890518	Eva	-0.1365436
-4.655835	Evans	-0.2153897
-4.772944	Even	-0.3411609
-4.772944	Evening	-0.1365436
-4.890518	Eventually	-0.1365436
-4.772944	Every	-0.1745079
-4.890518	Everybody	-0.1365436
-4.890518	Everything	-0.2153897
-4.890518	Evidence	-0.1365436
-4.772944	Evidently	-0.2041137
-4.890518	Evil	-0.1365436
-4.890518	Ex-President	-0.1365436
-4.890518	Exactly	-0.6992679
-4.890518	Examine	-0.1365436
-4.890518	Exceedingly	-0.1365436
-4.772944	Excellent	-0.8074232
-4.772944	Except	-0.1365436
-4.890518	Exchange	-0.1365436
-4.772944	Excuse	-0.7916288
-4.890518	Exeter	-0.1365436
-4.890518	Exit	-0.1365436
-4.890518	Experience	-0.1365436
-4.890518	Extremely	-0.1365436
-4.237036	Eyford	-0.2161116
-4.772944	Ezekiah	-0.260924
-4.890518	F.H.M	-0.1365436
-4.890518	FEBRUARY	-0.1365436
-4.890518	FIANCEE	-0.1365436
-4.890518	FIVE	-0.1365436
-4.890518	FRESH	-0.1365436
-4.890518	FRIESLAND	-0.1365436
-4.772944	FROM	-0.260924
-4.890518	Faber	-0.1365436
-4.890518	Face	-0.1365436
-4.890518	Faces	-0.1365436
-4.890518	Failing	-0.1365436
-4.890518	Failure	-0.1365436
-4.772944	Fairbank	-0.1365436
-4.890518	Fall	-0.3145076
-4.772944	Falmouth	-0.1365436
-4.890518	Familiar	-0.1365436
-4.890518	Family	-0.1365436
-4.890518	Fancy	-0.1365436
-4.890518	Far	-0.3933137
-4.890518	Fareham	-0.1365436
-4.890518	Farewell	-0.1365436
-4.772944	Farintosh	-0.260924
-4.772944	Farm	-0.2271665
-4.890518	Farm-house	-0.1365436
-4.310019	Farnham	-0.278895
-4.890518	Farquhar	-0.1365436
-4.890518	Farrington	-0.1365436
-4.890518	Fashionable	-0.1365436
-4.890518	Fate	-0.1365436
-4.890518	Father	-0.1365436
-4.507926	February	-0.1942962
-4.890518	Feeling	-0.1365436
-4.890518	Fenchurch	-0.260924
-4.772944	Ferguson	-0.1365436
-4.890518	Ferrers	-0.1365436
-4.890518	Ferrier	-0.1365436
-4.890518	Few	-0.1365436
-4.890518	Fifty	-0.1365436
-4.772944	Fighting	-0.6155376
-4.890518	Filled	-0.1365436
-4.890518	Final	-0.1365436
-4.772944	Finally	-0.66067
-4.890518	Financial	-0.1365436
-4.890518	Find	-0.1365436
-4.890518	Finding	-0.2153897
-4.890518	Fine	-0.1365436
-4.890518	Finns	-0.1365436
-4.890518	Fire	-0.5363564
-4.655835	First	-0.3870659
-4.237036	Fitzroy	-0.6824844
-4.655835	Five	-0.2757817
-4.890518	Flaubert	-0.1365436
-4.655835	Fleet	-0.3145076
-4.237036	Flora	-0.3414117
-4.890518	Florence	-0.1365436
-4.655835	Florida	-0.1365436
-4.890518	Flowers	-0.1365436
-4.890518	Fly	-0.1365436
-4.890518	Folk	-0.1365436
-4.890518	Follow	-0.1365436
-4.890518	Following	-0.2153897
-4.890518	Fool	-0.1365436
-4.890518	Footmarks	-0.1365436
-4.890518	Footsteps	-0.1365436
-4.655835	For	-0.478532
-4.237036	Forbes	-0.3138825
-4.890518	Force	-0.1365436
-4.655835	Fordham	-0.1365436
-4.890518	Fordingbridge	-0.1365436
-4.772944	Fordingham	-0.1365436
-4.655835	Foreign	-0.6606699
-4.507926	Forest	-0.2627299
-4.890518	Forgery	-0.1365436
-4.890518	Forgive	-0.1365436
-4.890518	Formerly	-0.1365436
-4.890518	Forrester	-0.1365436
-4.890518	Fortescue	-0.1365436
-4.890518	Fortunately	-0.1365436
-4.890518	Fortune	-0.1365436
-4.890518	Found	-0.1365436
-4.772944	Four	-0.1821149
-4.772944	Fournaye	-0.234389
-4.772944	Fowler	-0.1365436
-4.507926	France	-0.2805433
-4.655835	Francis	-0.1365436
-4.890518	Francisco	-0.260924
-4.890518	Franco-Midland	-0.5363564
-4.890518	Franco-Prussian	-0.1365436
-3.951898	Frank	-0.2253939
-4.890518	Frankly	-0.260924
-4.772944	Fraser	-0.1942962
-4.890518	Freebody	-0.1365436
-4.890518	Freemason	-0.260924
-4.890518	Freemasonry	-0.1365436
-3.918382	French	-0.1987063
-4.890518	Frenchman	-0.1365436
-4.890518	Frequently	-0.1365436
-4.890518	Fresh	-0.1365436
-4.890518	Fresno	-0.260924
-4.310019	Friday	-0.216473
-4.772944	Fritz	-0.1365436
-4.772944	From	-0.3672343
-4.772944	G	-0.1365436
-4.890518	GIBRALTAR	-0.1365436
-4.890518	GLOBE	-0.1365436
-4.890518	GO	-0.1365436
-4.772944	GRAPHIC	-0.4390711
-4.890518	GUILT	-0.1365436
-4.772944	Game	-0.1365436
-4.890518	Gang	-0.1365436
-4.890518	Garden	-0.2153897
-4.890518	Gardens	-0.1365436
-4.890518	Gate	-0.1365436
-4.890518	Gazetteer	-0.1365436
-4.397796	Gelder	-0.505768
-4.890518	Gemmi	-0.1365436
-4.655835	General	-0.2153897
-4.890518	Geneva	-0.1365436
-4.890518	Geneve	-0.1365436
-4.890518	Gentlemen	-0.1365436
-4.310019	George	-0.4587661
-4.890518	Georgia	-0.1365436
-3.918382	German	-0.2563956
-4.890518	German-speaking	-0.1365436
-4.890518	Germans	-0.1365436
-4.772944	Get	-0.2271665
-4.890518	Getting	-0.1365436
-4.890518	Gigantic	-0.1365436
-4.11997	Gilchrist	-0.4079971
-4.890518	Gill	-0.260924
-4.772944	Give	-0.3481224
-4.890518	Giving	-0.1365436
-4.772944	Gladstone	-0.260924
-4.890518	Glancing	-0.1365436
-4.890518	Globe	-0.1365436
-4.655835	Gloria	-0.4394464
-4.890518	Gloves	-0.1365436
-4.772944	Go	-0.1365436
-3.659037	God	-0.5973278
-3.659037	Godfrey	-0.4707909
-4.174571	Godolphin	-0.8373864
-4.890518	Gold	-0.1365436
-4.890518	Golden	-0.260924
-4.655835	Gone	-0.1365436
-4.655835	Good	-0.5722429
-4.890518	Good-afternoon	-0.260924
-4.890518	Good-by	-0.1365436
-4.890518	Good-bye	-0.3290739
-4.772944	Good-day	-0.2627299
-4.890518	Good-evening	-0.2627299
-4.890518	Good-morning	-0.3145076
-4.772944	Good-night	-0.1942962
-4.890518	Goodge	-0.260924
-4.890518	Goodwins	-0.1365436
-4.507926	Gordon	-0.1942962
-4.655835	Gorot	-0.2153898
-4.772944	Got	-0.1365436
-4.890518	Gothic	-0.1365436
-4.890518	Gottsreich	-0.1365436
-4.772944	Government	-0.260924
-4.890518	Governor	-0.1365436
-4.507926	Grace	-0.4254889
-4.890518	Gradually	-0.1365436
-4.890518	Graham	-0.1365436
-4.890518	Grand	-0.1365436
-4.772944	Grange	-0.1777687
-4.397796	Grant	-0.6824844
-4.890518	Granting	-0.1365436
-4.890518	Grave	-0.1365436
-4.507926	Gravesend	-0.1365436
-4.890518	Gray	-0.1365436
-4.507926	Great	-0.2161116
-4.655835	Grecian	-0.1365436
-4.772944	Greece	-0.1365436
-4.027853	Greek	-0.1821149
-4.890518	Greenwich	-0.1365436
-4.310019	Gregory	-0.3509509
-4.890518	Gregson	-0.1365436
-4.890518	Grenoble	-0.1365436
-4.890518	Gresham	-0.1365436
-4.890518	Grice	-0.1365436
-4.890518	Grimesby	-0.7404764
-4.890518	Grit	-0.1365436
-4.890518	Groat	-0.1365436
-4.890518	Gross	-0.1365436
-4.655835	Grosvenor	-0.1365436
-4.890518	Grove	-0.1365436
-4.772944	Guards	-0.1365436
-4.890518	Guild	-0.1365436
-4.890518	Gustave	-0.1365436
-4.507926	H	-0.1365436
-4.397796	H.	-0.1365436
-4.655835	HAD	-0.1365436
-4.890518	HAMPSTEAD	-0.1365436
-4.890518	HAND	-0.1365436
-4.772944	HAVE	-0.1365436
-4.890518	HE	-0.1365436
-4.890518	HERE	-0.1365436
-4.890518	HIM	-0.1365436
-4.655835	HOLMES	-0.5294879
-4.890518	HOPKINS	-0.1365436
-4.655835	HUNTER	-0.2153897
-4.655835	Ha	-0.8980842
-4.772944	Had	-0.3511035
-4.890518	Hafiz	-0.1365436
-4.890518	Hague	-0.1365436
-4.772944	Half	-0.2271665
-4.772944	Half-past	-0.1365436
-4.890518	Halfway	-0.1365436
-4.890518	Halifax	-0.1365436
-3.887269	Hall	-0.5861387
-4.772944	Hallamshire	-0.1365436
-4.772944	Halloa	-0.7398512
-4.890518	Ham	-0.1365436
-4.655835	Hammersmith	-0.1365436
-4.507926	Hampshire	-0.1741798
-4.397796	Hampstead	-0.216473
-4.890518	Handsome	-0.1365436
-4.890518	Hankey	-0.1365436
-4.890518	Hanover	-0.260924
-4.890518	Harden	-0.1365436
-4.507926	Harding	-0.3132582
-4.890518	Hardly	-0.2153897
-4.890518	Hardware	-0.5363564
-4.655835	Hardy	-0.4394464
-4.890518	Hare	-0.1365436
-4.890518	Hargreave	-0.1365436
-4.310019	Harker	-0.2387004
-4.772944	Harley	-0.260924
-4.655835	Harold	-0.2153897
-4.890518	Harpooner	-0.1365436
-4.655835	Harris	-0.1365436
-4.655835	Harrison	-0.2074659
-4.772944	Harrow	-0.2153897
-4.507926	Harry	-0.2627299
-4.772944	Has	-0.2087896
-3.918382	Hatherley	-0.3925642
-4.890518	Hatty	-0.3145076
-4.890518	Havana	-0.1365436
-4.772944	Have	-0.8770781
-4.772944	Having	-0.2242239
-4.890518	Hay	-0.1365436
-4.174571	Hayes	-0.1648216
-4.890518	Hayling	-0.1365436
-4.655835	Hayter	-0.1365436
-4.890518	Hayward	-0.1365436
-4.397796	He	-0.614531
-4.890518	Head	-0.1365436
-4.890518	Head-keeper	-0.1365436
-4.507926	Heath	-0.2041138
-3.951898	Heaven	-0.3035112
-4.772944	Heavens	-0.2153897
-4.890518	Heavy	-0.1365436
-4.890518	Hebrew	-0.1365436
-4.655835	Hebron	-0.2153897
-4.890518	Hector	-0.4394464
-4.890518	Heh	-0.1365436
-4.397796	Heidegger	-0.2621271
-4.890518	Heir	-0.1365436
-4.507926	Helen	-0.1942962
-4.772944	Help	-0.1942962
-4.890518	Hence	-0.1365436
-4.772944	Henri	-0.3145076
-4.174571	Henry	-0.4383551
-4.655835	Her	-0.1536542
-4.890518	Hercules	-0.260924
-4.890518	Herder	-0.1365436
-4.772944	Here	-0.64658
-4.772944	Hereford	-0.1365436
-4.772944	Herefordshire	-0.1365436
-4.890518	Herr	-0.1365436
-4.890518	Hers	-0.1365436
-4.890518	High	-0.3145076
-4.890518	Highness	-0.1365436
-4.890518	Highway	-0.1365436
-4.655835	Hilda	-0.3128926
-4.310019	Hill	-0.1685994
-4.890518	Hills	-0.1365436
-4.11997	Hilton	-0.8819159
-4.890518	Himalayas	-0.1365436
-4.397796	His	-0.2661149
-4.890518	Histon	-0.1365436
-4.890518	Hitherto	-0.1365436
-4.890518	Hof	-0.1365436
-4.772944	Holborn	-0.1365436
-4.772944	Hold	-0.234389
-4.310019	Holder	-0.5176407
-4.11997	Holdernesse	-0.4891935
-4.890518	Holdhurst	-0.3056472
-4.890518	Holiness	-0.1365436
-4.890518	Holland	-0.1365436
-4.890518	Hollows	-0.1365436
-4.890518	Holly	-0.1365436
-2.949054	Holmes	-0.8254741
-4.890518	Holy	-0.1365436
-4.890518	Honoria	-0.1365436
-4.890518	Honour	-0.1365436
-4.655835	Honourable	-0.3290739
-4.890518	Hood	-0.1365436
-4.890518	Hooliganism	-0.1365436
-4.507926	Hope	-0.2753137
-3.75833	Hopkins	-0.5324632
-4.890518	Hopley	-0.1365436
-4.655835	Horace	-0.438509
-4.027853	Horner	-0.2730687
-4.890518	Horrified	-0.1365436
-4.397796	Horsham	-0.3596399
-4.174571	Hosmer	-0.5763437
-4.890518	Hospital	-0.1365436
-4.237036	Hotel	-0.2074659
-4.11997	House	-0.2920781
-4.890518	Houses	-0.1365436
-4.655835	How	-0.5381518
-4.655835	Howells	-0.216473
-4.772944	However	-1.006523
-3.781236	Hudson	-0.3671843
-4.507926	Hugh	-0.35964
-4.890518	Huguenot	-0.1365436
-4.655835	Hullo	-0.371456
-4.772944	Hum	-1.092659
-4.890518	Human	-0.1365436
-4.890518	Hungarian	-0.1365436
-4.174571	Hunter	-0.3217281
-4.890518	Huret	-0.1365436
-4.655835	Hurlstone	-0.1874866
-4.890518	Hurrah	-0.1365436
-4.655835	Huxtable	-0.4160453
-4.890518	Hyde	-0.1365436
-2.286049	I	-1.056271
-4.772944	I.	-0.1365436
-4.890518	IDENTITY	-0.1365436
-4.507926	II	-0.4394464
-4.890518	II.	-0.1365436
-4.507926	III	-0.4394464
-4.890518	III.	-0.1365436
-4.890518	IMPORTANT	-0.1365436
-4.772944	IN	-0.1365436
-4.890518	IRENE	-0.1365436
-4.507926	IS	-0.1365436
-4.890518	IT	-0.2627299
-4.655835	IV	-0.3145076
-4.890518	IV.	-0.1365436
-4.655835	IX	-0.3145076
-4.890518	IX.	-0.1365436
-4.890518	Identity	-0.1365436
-4.890518	Idiot	-0.1365436
-4.772944	If	-0.7474334
-4.890518	Imagine	-0.2153897
-4.890518	Imitated	-0.1365436
-4.890518	Immediately	-0.1365436
-4.772944	Imperial	-0.1365436
-4.772944	Important	-0.1365436
-4.772944	Impossible	-0.2922747
-4.507926	In	-0.5849686
-4.890518	Incidentally	-0.1365436
-4.890518	Incredible	-0.1365436
-4.772944	Indeed	-0.7396259
-4.397796	India	-0.2730687
-4.027853	Indian	-0.1978874
-4.772944	Indians	-0.1365436
-4.890518	Indirectly	-0.1365436
-4.890518	Inference	-0.1365436
-4.507926	Inn	-0.2834198
-4.890518	Inner	-0.1365436
-4.772944	Inquiries	-0.1365436
-4.890518	Inquiry	-0.1365436
-4.890518	Insensibly	-0.1365436
-4.890518	Inside	-0.2153897
-3.781236	Inspector	-0.3821054
-4.772944	Instead	-0.3145076
-4.890518	Interlaken	-0.1365436
-4.890518	International	-0.1365436
-4.890518	Internationals	-0.1365436
-4.772944	Interpreter	-0.1365436
-4.890518	Into	-0.26273
-4.890518	Ionides	-0.1365436
-4.11997	Irene	-0.739539
-4.890518	Iris	-0.1365436
-4.890518	Irish	-0.1365436
-4.890518	Irish-setter	-0.1365436
-4.772944	Is	-0.5172333
-4.507926	Isa	-0.2627299
-4.890518	Islander	-0.1365436
-4.890518	Isle	-0.1365436
-4.174571	It	-1.093548
-4.071474	Italian	-0.1989791
-4.772944	Italians	-0.1365436
-4.772944	Italy	-0.1365436
-4.890518	Its	-0.1365436
-4.772944	Ivy	-0.1365436
-4.310019	J	-0.3135702
-4.890518	J.	-0.1365436
-4.890518	J.H.N	-0.1365436
-4.655835	J.P.	-0.2153897
-4.890518	JABEZ	-0.1365436
-4.890518	JANUARY	-0.1365436
-4.890518	JEPHRO	-0.1365436
-4.890518	JULY	-0.1365436
-4.890518	JUNE	-0.1365436
-4.655835	Jabez	-0.5933048
-4.174571	Jack	-0.3316958
-4.890518	Jack-in-office	-0.1365436
-4.772944	Jackson	-0.1365436
-4.655835	Jacobs	-0.2153898
-3.59327	James	-0.3441992
-4.655835	Jane	-0.2153897
-4.890518	Janet	-0.1365436
-4.655835	January	-0.2621271
-4.890518	Japan	-0.1365436
-4.772944	Japanese	-0.1821149
-4.772944	Jem	-0.1365436
-4.890518	Jeremiah	-0.1365436
-4.772944	Jeremy	-0.260924
-4.890518	Jersey	-0.1365436
-4.890518	Jew	-0.1365436
-4.890518	Jewel	-0.1365436
-4.890518	Jezail	-0.1365436
-4.890518	Jingo	-0.1365436
-4.772944	Johann	-0.1365436
-4.772944	Johannesburg	-0.1365436
-3.696077	John	-0.3975038
-4.890518	Johnnie	-0.1365436
-4.890518	Johnson	-0.1365436
-4.890518	Joint	-0.1365436
-4.507926	Jonas	-0.9513297
-4.237036	Jones	-0.2488586
-3.831024	Joseph	-0.2866472
-4.890518	Josiah	-0.260924
-4.772944	Journal	-0.1365436
-4.655835	Jove	-0.6155376
-4.890518	Jowaki	-0.1365436
-4.890518	Juan	-0.1365436
-4.890518	Jubilee	-0.1365436
-4.772944	Julia	-0.2153897
-4.655835	July	-0.1365436
-4.890518	Jump	-0.1365436
-4.890518	Junction	-0.2153897
-4.237036	June	-0.278319
-4.890518	Jungle	-0.1365436
-4.890518	Juryman	-0.1365436
-4.655835	Just	-0.1945493
-4.890518	Justice	-0.1365436
-4.655835	K	-0.1365436
-4.310019	K.	-0.4379604
-4.890518	K.G.	-0.1365436
-4.890518	KILLED	-0.1365436
-4.890518	KNEW	-0.1365436
-4.772944	KNOW	-0.1365436
-4.507926	Kate	-0.1365436
-4.890518	Keep	-0.1365436
-4.890518	Kemp	-0.1365436
-4.890518	Kennedy	-0.1365436
-4.507926	Kennington	-0.4388212
-4.397796	Kensington	-0.2161116
-4.890518	Kensington.	-0.1365436
-4.655835	Kent	-0.3290739
-4.890518	Kentish	-0.1365436
-4.890518	Khalifa	-0.1365436
-4.890518	Khartoum	-0.1365436
-4.890518	Kilburn	-0.2153897
-4.890518	Kill	-0.1365436
-4.890518	Kimberley	-0.1365436
-4.772944	Kindly	-0.1566672
-3.988217	King	-0.4380799
-4.890518	Kirwan	-0.1741798
-4.890518	Klan	-0.1365436
-4.772944	Klux	-0.260924
-4.890518	Knowing	-0.1365436
-4.890518	Known	-0.1365436
-4.890518	Kramm	-0.1365436
-4.655835	Kratides	-0.2153897
-4.890518	Ku	-0.1365436
-4.655835	L	-0.2153897
-4.890518	L.	-0.1365436
-4.890518	L10	-0.1365436
-4.890518	L200	-0.1365436
-4.890518	L300	-0.1365436
-4.890518	L500	-0.1365436
-4.890518	LATER.	-0.1365436
-4.890518	LEAGUE	-0.1365436
-4.890518	LESLIE	-0.1365436
-4.890518	LESTRADE	-0.1365436
-4.890518	LIP	-0.1365436
-4.890518	LOUD	-0.1365436
-4.772944	La	-0.1365436
-4.655835	Laburnum	-0.1365436
-4.655835	Lachine	-0.1942962
-3.918382	Lady	-0.602678
-4.890518	Lady-day	-0.1365436
-4.890518	Lancashire	-0.1365436
-4.655835	Lancaster	-0.1942962
-4.507926	Lane	-0.3067262
-4.890518	Langham	-0.1365436
-4.890518	Langmere	-0.1365436
-4.772944	Lanner	-0.1365436
-4.890518	Large	-0.1365436
-4.310019	Lascar	-0.2383066
-4.772944	Last	-0.1741798
-4.772944	Lat	-0.260924
-4.772944	Late	-0.1365436
-4.655835	Latimer	-0.2041138
-4.890518	Lattice-paned	-0.1365436
-4.890518	Lauder	-0.1365436
-4.507926	Leadenhall	-0.5363563
-4.655835	League	-0.2506931
-4.890518	Leaning	-0.1365436
-4.655835	Leatherhead	-0.1942962
-4.772944	Leave	-0.1365436
-4.890518	Leaving	-0.1365436
-4.890518	Lebanon	-0.1365436
-4.397796	Lee	-0.4010326
-4.890518	Left	-0.1365436
-4.890518	Legation	-0.1365436
-4.890518	Legion	-0.1365436
-4.890518	Leone	-0.1365436
-4.772944	Leslie	-0.6155376
-3.510202	Lestrade	-0.5850505
-4.890518	Lesurier	-0.1365436
-4.772944	Let	-0.8299464
-4.890518	Letter	-0.1365436
-4.890518	Leuk	-0.1365436
-4.890518	Leverstoke	-0.1365436
-4.890518	Lewisham	-0.1365436
-4.890518	Lexington	-0.1365436
-4.890518	Lhassa	-0.1365436
-4.890518	Liberal	-0.1365436
-4.890518	Lie	-0.1365436
-4.772944	Lieutenant	-0.1365436
-4.772944	Light	-0.1365436
-4.890518	Light-houses	-0.1365436
-4.890518	Like	-0.1365436
-4.890518	Limited	-0.2627299
-4.890518	Lip	-0.1365436
-4.772944	Listen	-0.3596399
-4.890518	Little	-0.1365436
-4.772944	Liverpool	-0.234389
-4.890518	Living	-0.1365436
-4.890518	Llama	-0.1365436
-4.890518	Lloyd	-0.1365436
-4.890518	Local	-0.1365436
-4.655835	Lodge	-0.3483323
-4.890518	Logic	-0.1365436
-4.890518	Lombard	-0.1365436
-3.36215	London	-0.5041784
-4.772944	Londoners	-0.1365436
-4.890518	Lone	-0.260924
-4.772944	Long	-0.1365436
-4.772944	Look	-0.6146002
-4.890518	Looking	-0.1942962
-3.510202	Lord	-0.6605747
-4.890518	Lordship	-0.1365436
-4.890518	Lothman	-0.1365436
-4.890518	Louisiana	-0.1365436
-4.397796	Lower	-0.3246525
-4.890518	Lowther	-0.260924
-4.071474	Lucas	-0.2072459
-4.890518	Lucerne	-0.1365436
-4.890518	Lucky	-0.1365436
-4.890518	Lucretia	-0.1365436
-4.507926	Lucy	-0.1942962
-4.890518	Luke	-0.3145076
-4.890518	Luxembourg	-0.1365436
-4.890518	Lyon	-0.1365436
-4.890518	Lyons	-0.1365436
-4.772944	Lysander	-0.6824844
-4.772944	M	-0.1365436
-4.655835	M.	-0.2153897
-4.890518	M.A.	-0.1365436
-4.890518	MAGAZINE	-0.9513297
-4.890518	MAGNUM	-0.1365436
-4.890518	MAN	-0.1365436
-4.890518	MARCH	-0.1365436
-4.890518	MARY	-0.1365436
-4.890518	MAY	-0.1365436
-4.890518	MCFARLANE	-0.1365436
-4.890518	MEET	-0.1365436
-4.890518	MEMOIRS	-0.1365436
-4.890518	MENAGE	-0.1365436
-4.890518	MILVERTON	-0.1365436
-4.890518	MISS	-0.1365436
-4.890518	MORAN	-0.1365436
-4.890518	MORNING	-0.1365436
-4.890518	MR.	-0.260924
-4.890518	MURDER	-0.1365436
-4.890518	MUST	-0.1365436
-4.772944	MY	-0.2153897
-4.890518	MYSTERY	-0.1365436
-4.772944	MacPherson	-0.1365436
-4.655835	Mackleton	-0.1821149
-4.890518	Madam	-0.2153897
-4.772944	Madame	-0.1365436
-4.890518	Mademoiselle	-0.1365436
-4.890518	Madman	-0.1365436
-4.890518	Madness	-0.1365436
-4.890518	Madrid	-0.1365436
-4.890518	Mafia	-0.1365436
-4.890518	Maggie	-0.1365436
-4.507926	Majesty	-0.2546453
-4.237036	Major	-0.3290739
-4.890518	Major-General	-0.1365436
-4.890518	Make	-0.260924
-4.890518	Making	-0.1365436
-4.890518	Malay	-0.1365436
-4.890518	Male	-0.1365436
-4.890518	Mall	-0.4896615
-4.890518	Malplaquet	-0.1365436
-4.507926	Man	-0.1942962
-4.890518	Manchester	-0.1365436
-4.507926	Manor	-0.3421611
-4.890518	Mansions	-0.1365436
-4.772944	Many	-0.2032111
-4.397796	Mapleton	-0.4069936
-4.890518	Marbank	-0.260924
-4.507926	March	-0.216473
-4.890518	Marengo	-0.1365436
-4.890518	Margate	-0.1365436
-4.890518	Mark	-0.1365436
-4.890518	Marker	-0.216473
-4.890518	Market	-0.1365436
-4.772944	Married	-0.1365436
-4.890518	Marseilles	-0.1365436
-4.890518	Marsham	-0.1365436
-4.655835	Martin	-0.3131023
-3.858237	Mary	-0.2574383
-4.890518	Marylebone	-0.1365436
-4.507926	Master	-0.1365436
-4.890518	Mathematical	-0.1365436
-4.890518	Matheson	-0.1365436
-4.890518	Mathews	-0.1365436
-4.890518	Matters	-0.1365436
-4.890518	Maudsley	-0.1365436
-4.890518	Maupertuis	-0.1365436
-4.890518	Mauritius	-0.1365436
-4.174571	Mawson	-0.6695201
-4.310019	May	-0.3331053
-4.772944	Maybe	-0.234389
-4.772944	Maynooth	-0.1365436
-3.831024	McCarthy	-0.3251574
-4.772944	McCarthys	-0.2153897
-4.772944	McCauley	-0.1365436
-3.988217	McFarlane	-0.2920388
-4.890518	McLaren	-0.1365436
-4.890518	McQuire	-0.1365436
-4.890518	Meaning	-0.1365436
-4.890518	Meanwhile	-0.5007437
-4.890518	Mecca	-0.1365436
-4.890518	Medical	-0.1365436
-4.890518	Mediterranean	-0.1365436
-4.507926	Meiringen	-0.234389
-4.655835	Melas	-0.3943841
-4.890518	Melbourne	-0.1365436
-4.890518	Memoirs	-0.1365436
-4.655835	Men	-0.216473
-4.890518	Mendicant	-0.1365436
-4.890518	Meredith	-0.1365436
-4.890518	Mereer	-0.1365436
-4.890518	Merridew	-0.1365436
-4.890518	Merrow	-0.1365436
-4.772944	Merryweather	-0.3410504
-4.890518	Metropolitan	-0.1365436
-4.890518	Meunier	-0.1365436
-4.890518	Mexico	-0.1365436
-4.890518	Middle	-0.1365436
-4.890518	Middlesex	-0.1365436
-4.890518	Midland	-0.1365436
-4.890518	Midlands	-0.1365436
-4.890518	Might	-0.6493623
-4.772944	Miles	-0.1365436
-4.890518	Millar	-0.234389
-4.890518	Milner	-0.1365436
-3.677162	Milverton	-0.3431943
-4.890518	Mind	-0.1365436
-4.890518	Minerals	-0.1365436
-4.507926	Minister	-0.1741798
-4.890518	Ministers	-0.1365436
-4.890518	Misfortunes	-0.1365436
-3.36215	Miss	-0.5793117
-4.772944	Missing	-0.2153897
-4.890518	Mission	-0.1365436
-4.890518	Mister	-0.1365436
-4.890518	Mistress	-0.1365436
-4.397796	Mitton	-0.216473
-4.507926	Mme	-0.4394464
-4.890518	Moffat	-0.1365436
-4.890518	Molesey	-0.1365436
-3.781236	Monday	-0.487233
-4.890518	Monica	-0.2153898
-4.890518	Monsieur	-0.1365436
-4.772944	Montague	-0.2153897
-4.890518	Montana	-0.1365436
-4.772944	Months	-0.1365436
-4.890518	Montpelier	-0.1365436
-4.890518	Moor	-0.1365436
-4.890518	Moorhouse	-0.1365436
-4.890518	Morally	-0.1365436
-4.071474	Moran	-0.2875116
-4.890518	Morcar	-0.1942961
-4.772944	More	-0.380517
-4.890518	Morgan	-0.1365436
-3.831024	Moriarty	-0.2899306
-4.772944	Morning	-0.2153897
-4.890518	Morris	-0.1365436
-4.772944	Morrison	-0.2271665
-4.237036	Morse	-0.7916289
-4.397796	Mortimer	-0.1821149
-4.655835	Morton	-0.1942962
-4.772944	Most	-0.2330348
-4.890518	Mother	-0.1365436
-4.507926	Moulton	-0.2627299
-4.890518	Mount-James	-0.3714559
-4.310019	Mr	-1.600814
-3.016309	Mr.	-0.7941412
-4.655835	Mrs	-0.4394464
-3.419548	Mrs.	-0.5718932
-4.890518	Munich	-0.1365436
-4.655835	Munro	-0.1821149
-4.890518	Munsters	-0.1365436
-4.507926	Murder	-0.2041137
-4.890518	Murdered	-0.1365436
-4.890518	Murillo	-0.1365436
-4.890518	Murphy	-0.1942961
-4.890518	Murray	-0.1365436
-4.655835	Museum	-0.1942962
-3.918382	Musgrave	-0.4221937
-4.772944	Musgraves	-0.1365436
-4.890518	Music	-0.1365436
-4.890518	Must	-0.1365436
-4.890518	Mutiny	-0.2153897
-4.772944	My	-0.4416009
-3.951898	Mycroft	-0.3539128
-4.890518	Myrtles	-0.1365436
-4.507926	Mystery	-0.234389
-4.772944	N	-0.260924
-4.890518	N'T	-0.1365436
-4.890518	N.	-0.1365436
-4.890518	NEVILLE	-0.1365436
-4.772944	NN	-0.1365436
-4.890518	NOBLE	-0.1365436
-4.890518	NORTON	-0.1365436
-4.772944	NOT	-0.1365436
-4.890518	NOVEMBER	-0.1365436
-4.890518	NOVO	-0.1365436
-4.890518	Name	-0.1365436
-4.310019	Nancy	-0.1741798
-4.890518	Naples	-0.1365436
-4.397796	Napoleon	-0.2521892
-4.772944	Napoleonic	-0.1365436
-4.890518	Napoleons	-0.260924
-4.890518	Narbonne	-0.1365436
-4.772944	Naturally	-0.216473
-4.655835	Nature	-0.1365436
-4.655835	Naval	-0.3145076
-4.890518	Nay	-0.260924
-4.655835	Near	-0.216473
-4.890518	Nearer	-0.1365436
-4.772944	Nearly	-0.1821149
-4.772944	Ned	-0.1365436
-4.890518	Negro	-0.1365436
-4.772944	Neill	-0.1365436
-4.772944	Neither	-0.1685994
-4.397796	Neligan	-0.1612686
-4.890518	Nepaul	-0.1365436
-4.890518	Nervous	-0.1365436
-4.890518	Netherland-Sumatra	-0.1365436
-4.772944	Never	-0.2684826
-4.11997	Neville	-0.7906915
-4.397796	New	-0.2239229
-4.772944	Newhaven	-0.2153897
-4.772944	News	-0.260924
-4.890518	Newton	-0.1365436
-4.772944	Next	-0.216473
-4.890518	Night	-0.1365436
-4.890518	Nights	-0.1365436
-4.890518	Nihilist	-0.1365436
-4.890518	Nihilists	-0.1365436
-4.890518	Nimes	-0.1365436
-4.237036	No	-0.8395215
-4.890518	Noble	-0.1365436
-4.890518	Nonconformist	-0.1365436
-4.772944	None	-0.3925642
-4.772944	Nor	-0.1644606
-4.890518	Norah	-0.1365436
-4.655835	Norbury	-0.234389
-4.174571	Norfolk	-0.2619742
-4.890518	Norman	-0.1365436
-4.655835	North	-0.2337114
-4.890518	Northern	-0.1365436
-4.655835	Northumberland	-0.2153897
-4.772944	Norton	-0.216473
-4.655835	Norway	-0.1365436
-4.772944	Norwegian	-0.1365436
-4.655835	Norwich	-0.1365436
-4.027853	Norwood	-0.3365995
-4.890518	Nos	-0.1365436
-4.772944	Not	-0.3541875
-4.655835	Nothing	-0.289371
-4.890518	Noticed	-0.1365436
-4.890518	Nous	-0.1365436
-4.890518	Nov	-0.1365436
-4.890518	Nova	-0.1365436
-4.890518	November	-0.1365436
-4.655835	Now	-0.8113163
-4.890518	Nursed	-0.1365436
-4.772944	O	-0.2627299
-4.890518	OCTOBER	-0.1365436
-4.310019	OF	-0.7225925
-4.890518	ONCE	-0.1365436
-4.890518	OPUS	-0.1365436
-4.890518	ORANGE	-0.1365436
-4.890518	OVERTON	-0.1365436
-4.890518	Oakington	-0.1365436
-4.655835	Oakshott	-0.2834198
-4.890518	Oberstein	-0.1365436
-4.772944	Obviously	-0.1942962
-4.890518	Occasionally	-0.1365436
-4.890518	Occurrence	-0.1365436
-4.890518	Ocean	-0.1365436
-4.655835	October	-0.1365436
-4.890518	Odd	-0.1365436
-4.890518	Odessa	-0.1365436
-4.655835	Of	-0.7555271
-4.890518	Off	-0.1365436
-4.772944	Office	-0.3967084
-4.890518	Officer	-0.1365436
-4.890518	Often	-0.1365436
-4.507926	Oh	-1.403104
-4.655835	Old	-0.312841
-4.071474	Oldacre	-0.2969825
-4.397796	On	-0.6597077
-4.772944	Once	-0.2506931
-4.507926	One	-0.4478408
-4.655835	Only	-0.2871657
-4.890518	Open	-0.1365436
-4.890518	Opening	-0.1365436
-4.174571	Openshaw	-0.1794956
-4.890518	Opera	-0.1365436
-4.890518	Oporto	-0.1365436
-4.890518	Opposite	-0.1365436
-4.772944	Or	-0.1746721
-4.890518	Orange	-0.1365436
-4.890518	Order	-0.1365436
-4.890518	Ordering	-0.1365436
-4.890518	Oriental	-0.1365436
-4.890518	Orientals	-0.1365436
-4.890518	Origin	-0.1365436
-4.772944	Ormstein	-0.260924
-4.890518	Oscar	-0.1365436
-4.890518	Oscillation	-0.1365436
-4.772944	Other	-0.1365436
-4.890518	Others	-0.1365436
-4.890518	Otherwise	-0.1365436
-4.772944	Our	-0.2661282
-4.890518	Out	-0.438509
-4.890518	Outrage	-0.1365436
-4.890518	Outside	-0.2330348
-4.890518	Over	-0.2627299
-4.310019	Overton	-0.2828778
-4.890518	Owe	-0.1365436
-4.890518	Owns	-0.1365436
-3.988217	Oxford	-0.5357312
-4.890518	Oxfordshire	-0.1365436
-4.655835	P	-0.1365436
-4.772944	P.	-0.1365436
-4.890518	P.C	-0.1365436
-4.890518	PIPS	-0.1365436
-4.890518	PORTIERE	-0.1365436
-4.890518	POST	-0.1365436
-4.890518	Pa	-0.1365436
-4.772944	Pacific	-0.1365436
-4.397796	Paddington	-0.1821149
-4.890518	Paisley	-0.1365436
-4.890518	Palace	-0.1365436
-4.310019	Pall	-0.7916289
-4.890518	Palladio	-0.1365436
-4.655835	Palmer	-0.1821149
-4.890518	Palmer-tyred	-0.1365436
-4.890518	Pals	-0.1365436
-4.890518	Panama	-0.1365436
-4.890518	Pancras	-0.1365436
-4.890518	Paradol	-0.1365436
-4.772944	Paramore	-0.1365436
-4.237036	Paris	-0.1900413
-4.890518	Parisian	-0.1365436
-4.397796	Park	-0.4385959
-4.507926	Parker	-0.1942962
-4.772944	Parliament	-0.1365436
-4.890518	Parr	-0.260924
-4.890518	Pass	-0.1365436
-4.890518	Passing	-0.1365436
-4.890518	Patersons	-0.1365436
-4.890518	Patience	-0.1365436
-4.890518	Patient	-0.1365436
-4.237036	Patrick	-0.3290739
-4.890518	Patterson	-0.1365436
-4.890518	Pattins	-0.1365436
-4.507926	Paul	-0.1942962
-4.890518	Paulo	-0.1365436
-4.890518	Peace	-0.1365436
-4.890518	Peak	-0.1365436
-4.890518	Peculiar	-0.1365436
-4.890518	Peeping	-0.1365436
-4.890518	Peering	-0.1365436
-4.890518	Penang-lawyer	-0.1365436
-4.890518	Pencils	-0.1365436
-4.890518	Pending	-0.1365436
-4.890518	Pennsylvania	-0.1365436
-4.890518	Pentonville	-0.1365436
-4.890518	People	-0.1365436
-4.890518	Perceiving	-0.1365436
-4.027853	Percy	-0.3839974
-4.890518	Perfectly	-0.1365436
-4.772944	Perhaps	-0.4164614
-4.772944	Persia	-0.1365436
-4.655835	Persian	-0.26273
-4.890518	Personally	-0.1365436
-3.831024	Peter	-0.6079022
-4.890518	Petersfield	-0.1365436
-4.310019	Peterson	-0.3333725
-4.890518	Petrarch	-0.1365436
-4.890518	Petrified	-0.1365436
-4.890518	Petty	-0.1365436
-4.890518	Ph.D.	-0.1365436
-3.988217	Phelps	-0.4166605
-4.772944	Philadelphia	-0.1365436
-4.890518	Philosophy	-0.1365436
-4.890518	Pickwick	-0.1365436
-4.310019	Pietro	-0.1365436
-4.890518	Pince-Nez	-0.260924
-4.890518	Pink	-0.1365436
-4.890518	Pinkerton	-0.1365436
-4.237036	Pinner	-0.2970758
-4.890518	Pioneers	-0.1365436
-4.890518	Pipes	-0.1365436
-4.890518	Pips	-0.1365436
-4.507926	Pitt	-0.4394464
-4.655835	Place	-0.2271665
-4.890518	Plant	-0.1365436
-4.890518	Plantagenet	-0.1365436
-4.890518	Plate	-0.1365436
-4.890518	Platz	-0.1365436
-4.890518	Play	-0.1365436
-4.890518	Please	-0.1365436
-4.890518	Plumb	-0.1365436
-4.890518	Plural	-0.1365436
-4.890518	Plymouth	-0.1365436
-4.890518	Poe	-0.1365436
-4.655835	Police	-0.2153897
-4.890518	Police-Constable	-0.1365436
-4.890518	Police-constable	-0.1365436
-4.890518	Pollock	-0.1365436
-4.237036	Pompey	-0.1644606
-4.655835	Pondicherry	-0.260924
-4.890518	Pooh	-0.1365436
-4.890518	Pool	-0.3246525
-4.890518	Poor	-0.1365436
-4.397796	Pope	-0.3596399
-4.890518	Portsdown	-0.1365436
-4.890518	Portsmouth	-0.1365436
-4.890518	Portuguese	-0.1365436
-4.772944	Possibly	-0.1365436
-4.772944	Post	-0.1365436
-4.890518	Posted	-0.1365436
-4.890518	Potter	-0.1365436
-4.890518	Powdered	-0.1365436
-4.890518	Prague	-0.1365436
-4.772944	Pray	-0.3893647
-4.890518	Precisely	-0.6431912
-4.655835	Premier	-0.1821149
-4.237036	Prendergast	-0.1999481
-4.890518	Presently	-0.2922748
-4.890518	President	-0.1365436
-4.655835	Press	-0.1942962
-4.772944	Presuming	-0.260924
-4.772944	Price	-0.1365436
-4.890518	Prima	-0.1365436
-4.772944	Prime	-0.7916289
-4.772944	Prince	-0.1365436
-4.890518	Princess	-0.1365436
-4.890518	Principal	-0.1365436
-4.890518	Pringle	-0.1365436
-4.772944	Priory	-0.371456
-4.890518	Pritchard	-0.1365436
-4.890518	Private	-0.1365436
-4.890518	Probably	-0.1821149
-4.890518	Problem	-0.1365436
-4.890518	Problems	-0.1365436
-4.890518	Proceed	-0.1365436
-3.805417	Professor	-0.4953091
-4.890518	Promise	-0.1365436
-4.890518	Proosia	-0.1365436
-4.890518	Prosper	-0.1365436
-4.890518	Providence	-0.1365436
-4.890518	Pshaw	-0.1365436
-4.890518	Public	-0.1365436
-4.890518	Pugilist	-0.1365436
-4.772944	Pull	-0.2153897
-4.890518	Pullman	-0.1365436
-4.890518	Punjab	-0.1365436
-4.890518	Purely	-0.1365436
-4.890518	Puritan	-0.1365436
-4.890518	Purple	-0.1365436
-4.772944	Put	-0.1942962
-4.890518	Putting	-0.1365436
-4.772944	Puzzle	-0.1365436
-4.310019	Pycroft	-0.4197136
-4.890518	Pyland	-0.3331328
-4.890518	Queen	-0.1365436
-4.890518	Queer	-0.1365436
-4.772944	Quick	-0.5057681
-4.890518	Quiet	-0.1365436
-4.890518	Quincey	-0.1365436
-4.890518	Quite	-0.8154382
-4.890518	R	-0.1365436
-4.772944	R.	-0.1365436
-4.890518	RED-HEADED	-0.3145076
-4.890518	RETURN	-0.9835144
-4.772944	ROCK	-0.2153897
-4.890518	RUCASTLE	-0.1365436
-4.397796	Rachel	-0.3596399
-4.772944	Ragged	-0.3145076
-4.890518	Railway	-0.1365436
-4.890518	Rain	-0.1365436
-4.310019	Ralph	-0.3135702
-4.507926	Randall	-0.1365436
-4.772944	Randalls	-0.1365436
-4.890518	Ras	-0.260924
-4.890518	Rasper	-0.1365436
-4.890518	Ratcliff	-0.1365436
-4.772944	Rather	-0.1365436
-4.772944	Read	-0.260924
-4.071474	Reading	-0.3292605
-4.890518	Really	-0.2922747
-4.890518	Recently	-0.1365436
-4.772944	Red	-0.1365436
-4.772944	Red-headed	-0.371456
-4.890518	Regency	-0.1365436
-4.655835	Regent	-0.1942962
-4.890518	Reginald	-0.3145076
-4.772944	Reichenbach	-0.216473
-4.772944	Reigate	-0.1365436
-4.890518	Relations	-0.1365436
-4.890518	Relieved	-0.1365436
-4.772944	Remember	-0.1821149
-4.890518	Remo	-0.1365436
-4.772944	Republican	-0.1365436
-4.772944	Resident	-0.260924
-4.890518	Restaurant	-0.1365436
-4.890518	Results	-0.1365436
-4.890518	Retired	-0.1365436
-4.890518	Return	-0.1365436
-4.890518	Returning	-0.1365436
-4.655835	Reuben	-0.6155376
-4.890518	Reuter	-0.1365436
-4.890518	Rhodesia	-0.1365436
-4.890518	Rhodesian	-0.1365436
-4.890518	Rhone	-0.1365436
-4.890518	Rica	-0.1365436
-4.890518	Richard	-0.1365436
-4.890518	Ricoletti	-0.1365436
-4.890518	Riding	-0.1365436
-4.507926	Ridling	-0.4394464
-4.655835	Right	-0.1942962
-4.890518	Ripley	-0.1365436
-4.772944	Ritual	-0.2295739
-4.890518	River	-0.1365436
-4.027853	Road	-0.632329
-4.890518	Roaring	-0.1365436
-4.655835	Robbery	-0.2153897
-4.655835	Robert	-0.2621271
-4.890518	Robinson	-0.1365436
-4.890518	Rockies	-0.1365436
-4.890518	Roman	-0.1365436
-4.397796	Ronald	-0.5637599
-4.890518	Room	-0.1365436
-4.890518	Rooms	-0.1365436
-4.772944	Rosenlaui	-0.2153897
-4.237036	Ross	-0.4099074
-4.890518	Rothiere	-0.1365436
-4.890518	Rotterdam	-0.1365436
-4.890518	Roughly	-0.1365436
-4.890518	Round	-0.1365436
-4.772944	Row	-0.1365436
-4.655835	Royal	-0.2627299
-4.507926	Roylott	-0.3131691
-4.890518	Roylotts	-0.260924
-4.237036	Rucastle	-0.265729
-4.772944	Rucastles	-0.1365436
-4.890518	Rue	-0.1365436
-4.890518	Rugby	-0.1365436
-4.890518	Rugger	-0.1365436
-4.890518	Run	-0.1365436
-4.890518	Running	-0.1365436
-4.890518	Rushing	-0.1365436
-4.772944	Russell	-0.1365436
-4.890518	Russia	-0.1365436
-4.310019	Russian	-0.1855605
-4.890518	Russo-German	-0.1365436
-4.890518	Ruston	-0.1365436
-4.310019	Ryder	-0.2383066
-4.772944	S	-0.2153897
-4.655835	S.	-0.1365436
-4.890518	SAW	-0.1365436
-4.890518	SCANDAL	-0.1365436
-4.655835	SEA	-0.6824844
-4.890518	SEBASTIAN	-0.1365436
-4.890518	SEPTEMBER	-0.1365436
-4.772944	SHERLOCK	-1.092659
-4.890518	SIMON	-0.1365436
-4.890518	SIR	-0.1365436
-4.890518	SL.NE	-0.1365436
-4.890518	SLANE	-0.1365436
-4.890518	SLANEY	-0.1365436
-4.890518	SPECKLED	-0.1365436
-4.890518	ST	-0.1365436
-4.890518	STANLEY	-0.1365436
-4.890518	STRAND	-0.9513297
-4.890518	Saddle	-0.1365436
-4.890518	Saffron	-0.1365436
-4.772944	Saltire	-0.1827166
-4.890518	Same	-0.1365436
-4.890518	Samuel	-0.1365436
-4.507926	San	-0.1942962
-4.890518	Sand	-0.1365436
-4.890518	Sandeford	-0.234389
-4.890518	Sarasate	-0.1365436
-4.027853	Saturday	-0.1859936
-4.890518	Saturdays	-0.1365436
-4.772944	Saunders	-0.260924
-4.507926	Savannah	-0.1821149
-4.772944	Save	-0.1942962
-4.890518	Saviour	-0.1365436
-4.507926	Saxe-Coburg	-0.6155376
-4.890518	Saxe-Meningen	-0.1365436
-4.772944	Saxon	-0.1365436
-4.890518	Say	-0.1365436
-4.890518	Scala	-0.1365436
-4.890518	Scandal	-0.1365436
-4.890518	Scandinavia	-0.2153897
-4.890518	Scarlet	-0.6155376
-4.890518	Scholarship	-0.1365436
-4.890518	School	-0.2627299
-4.890518	Scot	-0.1365436
-4.655835	Scotch	-0.1942962
-4.890518	Scotch-woman	-0.1365436
-4.890518	Scotia	-0.1365436
-3.951898	Scotland	-1.053933
-4.772944	Scott	-0.1821149
-4.890518	Scott_	-0.216473
-4.890518	Scoundrel	-0.1365436
-4.890518	Scylla	-0.1365436
-4.890518	Sea	-0.1365436
-4.890518	Seated	-0.1365436
-4.890518	Sebastian	-0.260924
-4.772944	Second	-0.3290739
-4.397796	Secretary	-0.1587318
-4.772944	See	-0.3630688
-4.772944	Seeing	-0.2153897
-4.890518	Seems	-0.1365436
-4.890518	Seen	-0.1365436
-4.890518	Seizing	-0.1365436
-4.890518	Seldom	-0.2153897
-4.772944	Send	-0.1365436
-4.890518	September	-0.1365436
-4.507926	Sergeant	-0.1942962
-4.890518	Sergius	-0.1365436
-4.655835	Serpentine	-0.216473
-4.772944	Serpentine-mews	-0.260924
-4.890518	Serve	-0.1365436
-4.772944	Served	-0.260924
-4.890518	Set	-0.1365436
-4.890518	Seven	-0.1365436
-4.772944	Several	-0.1950698
-4.890518	Severn	-0.1365436
-4.890518	Shaftesbury	-0.1365436
-4.772944	Shall	-0.2834198
-4.890518	Sharp	-0.1365436
-4.772944	Shaw	-0.2627299
-4.655835	She	-0.4248812
-4.890518	Sheeny	-0.1365436
-4.890518	Sheep-marks	-0.1365436
-3.409439	Sherlock	-1.374268
-4.890518	Sherpur	-0.1365436
-4.890518	Shetland	-0.1365436
-4.890518	Shillings	-0.1365436
-4.772944	Shipping	-0.1365436
-4.890518	Sholto	-0.1365436
-4.890518	Sholtos	-0.1365436
-4.772944	Shortly	-0.4394464
-4.890518	Shot	-0.1365436
-4.772944	Should	-0.2834198
-4.890518	Show	-0.1365436
-4.890518	Showing	-0.1365436
-4.772944	Siberia	-0.1365436
-4.890518	Sidelights	-0.1365436
-4.890518	Sierra	-0.1365436
-4.890518	Sigerson	-0.1365436
-4.890518	Sigismond	-0.1365436
-4.890518	Sign	-0.3145076
-4.890518	Sikhs	-0.1365436
-4.310019	Silas	-0.6155376
-4.071474	Silver	-0.9513297
-4.772944	Simon	-0.3300498
-4.890518	Simply	-0.1365436
-4.11997	Simpson	-0.1768479
-4.772944	Since	-0.1644606
-4.890518	Singleford	-0.1365436
-4.890518	Singularity	-0.1365436
-3.805417	Sir	-0.4524502
-4.772944	Sit	-0.5363563
-4.655835	Six	-0.1821149
-4.507926	Slaney	-0.3129785
-4.890518	Slater	-0.1365436
-4.890518	Sleepy	-0.1365436
-4.890518	Slipping	-0.1365436
-4.890518	Slowly	-0.1365436
-4.890518	Smack	-0.1365436
-4.890518	Small	-0.1365436
-4.890518	Smart	-0.1365436
-4.174571	Smith	-0.3256765
-4.890518	Smith-Mortimer	-0.1365436
-4.890518	Snake-catcher	-0.1365436
-4.890518	Snapping	-0.1365436
-4.655835	So	-0.4698466
-4.071474	Soames	-0.3709103
-4.890518	Society	-0.1365436
-4.890518	Sold	-0.1365436
-4.890518	Solitary	-0.260924
-4.655835	Some	-0.2387207
-4.890518	Somebody	-0.1365436
-4.772944	Someone	-0.2041138
-4.772944	Something	-0.1685994
-4.772944	Sometimes	-0.2459826
-4.890518	Somomy	-0.1365436
-4.890518	Son	-0.1365436
-4.890518	Sooner	-0.1365436
-4.507926	Sophy	-0.1365436
-4.772944	Sorry	-0.3145076
-4.890518	Sound	-0.1365436
-4.174571	South	-0.3134303
-4.655835	Southampton	-0.1365436
-4.772944	Southern	-0.2153897
-4.890518	Southerton	-0.1365436
-4.890518	Southsea	-0.1365436
-4.890518	Sovereign	-0.1365436
-4.890518	Spare	-0.1365436
-4.507926	Spaulding	-0.1644606
-4.890518	Speak	-0.1365436
-4.772944	Speaking	-0.1365436
-4.890518	Speckled	-0.260924
-4.890518	Spence	-0.260924
-4.890518	Spies	-0.1365436
-4.890518	Splendid	-0.1365436
-4.11997	Square	-0.3925642
-4.890518	Squatted	-0.1365436
-4.772944	St	-0.260924
-3.887269	St.	-0.8050387
-4.890518	Stain	-0.1942962
-4.890518	Stamford	-0.1365436
-4.890518	Stand	-0.1365436
-4.772944	Standard	-0.1365436
-4.890518	Standing	-0.1365436
-3.951898	Stanley	-1.26875
-4.655835	Star	-0.2418064
-4.772944	Stark	-0.1365436
-4.890518	Stars	-0.1365436
-4.890518	Starving	-0.1365436
-4.772944	State	-0.1365436
-4.772944	States	-0.1365436
-4.027853	Station	-0.4135813
-4.174571	Staunton	-0.28567
-4.890518	Stay	-0.1365436
-4.655835	Steiler	-0.1365436
-4.890518	Step	-0.1365436
-4.772944	Stepney	-0.2627299
-4.890518	Stepping	-0.1365436
-4.890518	Stevens	-0.1365436
-4.772944	Stevenson	-0.1365436
-4.772944	Stewart	-0.3145076
-4.890518	Stick	-0.1365436
-4.772944	Still	-0.534951
-4.772944	Stock	-0.260924
-4.890518	Stock-Broker	-0.1365436
-4.507926	Stoke	-0.8787791
-4.890518	Stolen	-0.1365436
-4.507926	Stoner	-0.3548515
-4.772944	Stop	-0.1365436
-4.890518	Stoper	-0.216473
-3.918382	Straker	-0.3192179
-4.772944	Strand	-0.234389
-4.890518	Strange	-0.1365436
-4.890518	Stranger	-0.1365436
-4.772944	Strasburg	-0.1365436
-4.655835	Streatham	-0.1365436
-3.419548	Street	-0.5762007
-4.890518	Striding	-0.1365436
-4.890518	Stripes	-0.1365436
-4.890518	Strong	-0.260924
-4.890518	Stroud	-0.1365436
-4.890518	Stuarts	-0.1365436
-4.890518	Students	-0.260924
-4.507926	Study	-0.6155376
-4.890518	Subtle	-0.1365436
-4.890518	Suburban	-0.260924
-4.772944	Such	-0.3636391
-4.772944	Suddenly	-0.4961981
-4.890518	Suez	-0.1365436
-4.890518	Summer	-0.1365436
-4.890518	Sunday	-0.1365436
-4.772944	Sunday-school	-0.1365436
-4.890518	Suppose	-0.1942961
-4.890518	Supposing	-0.1365436
-4.890518	Sure	-0.1365436
-4.655835	Surely	-0.2877948
-4.890518	Surprise	-0.1365436
-4.310019	Surrey	-0.1777687
-4.237036	Susan	-0.1644606
-4.890518	Suspicion	-0.1365436
-4.397796	Sussex	-0.2041137
-4.772944	Sutherland	-0.275104
-4.772944	Sutton	-0.1365436
-4.890518	Swain	-0.1365436
-4.890518	Swan	-0.1365436
-4.397796	Swandam	-0.7404764
-4.890518	Sweet	-0.1365436
-4.890518	Swiftly	-0.1365436
-4.890518	Swindon	-0.1365436
-4.655835	Swiss	-0.1365436
-4.772944	Switzerland	-0.1365436
-4.655835	Sydenham	-0.2153897
-4.890518	Sydney	-0.1365436
-4.890518	Syndicate	-0.260924
-4.890518	Syria	-0.1365436
-4.507926	T	-0.1942962
-4.890518	T.	-0.1365436
-4.890518	TELEGRAPH	-0.260924
-4.772944	THAT	-0.1365436
-4.027853	THE	-0.5052328
-4.890518	THIS	-0.1365436
-4.890518	THUMB	-0.1365436
-4.890518	THY	-0.1365436
-4.890518	TIMES	-0.1365436
-4.507926	TO	-0.1365436
-4.890518	TOWERS	-0.1365436
-4.890518	TRUE	-0.1365436
-4.890518	TWISTED	-0.1365436
-4.890518	TWO	-0.1365436
-4.890518	Taciturn	-0.1365436
-4.890518	Tadpole	-0.1365436
-4.772944	Take	-0.2834198
-4.890518	Taking	-0.1365436
-4.890518	Tall	-0.1365436
-4.772944	Tangey	-0.1365436
-4.890518	Tankerville	-0.1365436
-4.890518	Tarleton	-0.1365436
-4.890518	Tarlton	-0.1365436
-4.237036	Tavistock	-0.2271665
-4.890518	Technically	-0.1365436
-4.655835	Teddy	-0.1365436
-4.772944	Telegraph	-0.1365436
-4.772944	Tell	-0.4385959
-4.772944	Temple	-0.1942962
-4.772944	Ten	-0.1942962
-4.890518	Tennessee	-0.1365436
-4.890518	Terai	-0.1365436
-4.655835	Terrace	-0.216473
-4.772944	Terrible	-0.1365436
-4.890518	Terror	-0.1365436
-4.890518	Terse	-0.1365436
-4.772944	Testament	-0.260924
-4.890518	Teutonic	-0.1365436
-4.890518	Texas	-0.1365436
-4.890518	Thames	-0.2153897
-4.772944	Thank	-1.040881
-4.890518	Thanks	-0.1365436
-4.507926	That	-0.6912359
-3.918382	The	-0.3552613
-4.890518	Theatre	-0.1365436
-4.772944	Their	-0.1365436
-4.655835	Then	-0.7449358
-4.890518	Thence	-0.1365436
-4.890518	Theological	-0.1365436
-4.890518	Theorem	-0.1365436
-4.890518	Theories	-0.1365436
-4.772944	There	-1.101915
-4.890518	Therefore	-0.2525145
-4.890518	Therein	-0.1365436
-4.237036	Theresa	-0.215931
-4.772944	These	-0.2781921
-4.772944	They	-0.4550883
-4.890518	Thick	-0.1365436
-4.890518	Things	-0.1365436
-4.772944	Think	-0.3135702
-4.772944	Third	-0.1365436
-4.890518	Thirty	-0.1365436
-4.655835	This	-0.4047835
-4.890518	Thoreau	-0.1365436
-4.772944	Thorneycroft	-0.260924
-4.772944	Thorpe	-0.35964
-4.772944	Those	-0.4386428
-4.890518	Though	-0.1365436
-4.772944	Threadneedle	-0.260924
-4.890518	Threatens	-0.1365436
-4.655835	Three	-0.187825
-4.890518	Three-Quarter	-0.260924
-4.890518	Three-forty	-0.1365436
-4.772944	Through	-0.5057679
-4.890518	Throw	-0.1365436
-4.890518	Thrust	-0.1365436
-4.890518	Thucydides	-0.1365436
-4.890518	Thumb	-0.1365436
-4.507926	Thursday	-0.2153897
-4.772944	Thurston	-0.1365436
-4.890518	Thus	-0.1365436
-4.890518	Tibet	-0.1365436
-4.890518	Time	-0.1365436
-4.890518	Times	-0.1365436
-4.890518	Tingling	-0.1365436
-4.890518	Tiptoes	-0.1365436
-4.890518	Tired	-0.1365436
-4.890518	Tired-looking	-0.1365436
-4.890518	Title	-0.1365436
-4.655835	To	-0.2968622
-4.772944	To-day	-0.1741798
-4.772944	To-morrow	-0.2418064
-4.890518	To-night	-0.1365436
-4.772944	Tobacco	-0.260924
-4.890518	Tobin	-0.1365436
-4.890518	Together	-0.260924
-4.11997	Toller	-0.1989791
-4.890518	Tollers	-0.1365436
-4.772944	Too	-0.2834198
-4.890518	Torrington	-0.1365436
-4.890518	Tosca	-0.1365436
-4.507926	Tottenham	-0.4394464
-4.890518	Tottering	-0.1365436
-4.890518	Tower	-0.1365436
-4.890518	Towers	-0.1365436
-4.890518	Trafalgar	-0.1365436
-4.890518	Tragic	-0.1365436
-4.890518	Treasury	-0.1365436
-4.890518	Treaty	-0.1365436
-4.890518	Tree	-0.1365436
-4.890518	Tregellis	-0.1365436
-4.655835	Trelawney	-0.6824844
-4.890518	Trepoff	-0.1365436
-4.507926	Trevelyan	-0.2105446
-3.887269	Trevor	-0.2314586
-4.890518	Trincomalee	-0.1365436
-4.772944	Trinity	-0.260924
-4.890518	Triple	-0.1365436
-4.772944	Trumpington	-0.1365436
-4.890518	Trust	-0.1365436
-4.772944	Try	-0.2153897
-4.772944	Tudor	-0.1365436
-4.174571	Tuesday	-0.3509509
-4.890518	Tunbridge	-0.1365436
-4.890518	Turkish	-0.1365436
-4.890518	Turn	-0.1365436
-4.071474	Turner	-0.4002686
-4.890518	Turning	-0.1365436
-4.890518	Tuson	-0.1365436
-4.772944	Tut	-0.35964
-4.890518	Tut-tut	-0.1365436
-4.890518	Twelve	-0.1365436
-4.890518	Twenty	-0.1365436
-4.890518	Twenty-four	-0.1365436
-4.890518	Twenty-nine	-0.1365436
-4.890518	Twenty-six	-0.1365436
-4.890518	Twenty-two	-0.1365436
-4.890518	Twice	-0.1685994
-4.890518	Twisted	-0.1365436
-4.772944	Two	-0.2459643
-4.890518	U.	-0.1365436
-4.890518	U.S.A.	-0.1365436
-4.890518	UNCLE	-0.1365436
-4.890518	UNICORN	-0.380517
-4.890518	Uffa	-0.1365436
-4.890518	Uncle	-0.1365436
-4.772944	Under	-0.1365436
-4.890518	Under-Secretary	-0.1365436
-4.890518	Underground	-0.1365436
-4.772944	Underneath	-0.1365436
-4.772944	Undoubtedly	-0.4382184
-4.890518	Unemployed	-0.1365436
-4.890518	Unfolding	-0.1365436
-4.772944	Unfortunately	-0.2153897
-4.890518	Union	-0.1365436
-4.890518	United	-0.1365436
-4.890518	Universities	-0.1365436
-4.310019	University	-0.1827165
-4.772944	Unless	-0.1365436
-4.890518	Until	-0.1821149
-4.772944	Up	-0.4388212
-4.772944	Upon	-0.3290739
-4.655835	Upper	-0.3145076
-4.890518	Uppingham	-0.1365436
-4.890518	Uriah	-0.1365436
-4.890518	V	-0.1365436
-4.397796	V.	-0.1821149
-4.890518	VALLEY	-0.1365436
-4.890518	VERY	-0.1365436
-4.655835	VI	-0.3145076
-4.890518	VI.	-0.1365436
-4.655835	VII	-0.3145076
-4.890518	VII.	-0.1365436
-4.655835	VIII	-0.3145076
-4.890518	VIII.	-0.1365436
-4.890518	VIOLET	-0.1365436
-4.890518	Vale	-0.1365436
-4.655835	Valley	-0.1365436
-4.890518	Vamberry	-0.1365436
-4.890518	Vast	-0.1365436
-4.890518	Vegetarian	-0.1365436
-4.890518	Venezuelan	-0.1365436
-4.890518	Venner	-0.1365436
-4.772944	Venucci	-0.260924
-4.890518	Verdes	-0.1365436
-4.772944	Vere	-0.1365436
-4.772944	Verner	-0.1365436
-4.890518	Vernet	-0.1365436
-4.507926	Very	-0.4228914
-4.397796	Victor	-0.2153897
-4.310019	Victoria	-0.2239229
-4.890518	Villa	-0.1365436
-4.890518	Villain	-0.1365436
-4.397796	Vincent	-0.4388212
-4.890518	Violence	-0.1365436
-4.890518	Violet	-0.3135702
-4.890518	Visited	-0.1365436
-4.890518	Vitus	-0.260924
-4.890518	Voil	-0.1365436
-4.890518	Vol	-0.9513297
-4.890518	Volume	-0.1365436
-4.655835	Von	-0.260924
-4.890518	Vox	-0.1365436
-4.890518	W.	-0.1365436
-4.772944	WAS	-0.1365436
-4.772944	WE	-0.1365436
-4.890518	WERE	-0.1365436
-4.890518	WESTMINSTER	-0.1365436
-4.890518	WHEN	-0.1365436
-4.890518	WILSON	-0.1365436
-4.890518	WITH	-0.1365436
-4.772944	Wait	-0.380517
-4.890518	Waldbaum	-0.1365436
-4.655835	Wales	-0.2153897
-4.890518	Walk	-0.1365436
-4.890518	Wallenstein	-0.1365436
-4.890518	Walsall	-0.1365436
-4.890518	Walsham	-0.1365436
-4.890518	Walsingham	-0.1365436
-4.890518	Want	-0.1365436
-4.890518	Wanted	-0.1365436
-4.655835	War	-0.234389
-4.890518	Warburton	-0.1365436
-4.890518	Ward	-0.1365436
-4.890518	Wardlaw	-0.1365436
-4.890518	Warm	-0.1365436
-4.772944	Warsaw	-0.1365436
-4.772944	Was	-0.494793
-4.890518	Water	-0.1365436
-4.890518	Waterbeach	-0.1365436
-4.071474	Waterloo	-0.3360047
-3.858237	Watson	-1.204193
-4.890518	Watt	-0.260924
-4.507926	We	-0.6507646
-4.890518	Wedding	-0.1365436
-4.890518	Wedlock	-0.1365436
-4.310019	Wednesday	-0.1950698
-4.890518	Weiss	-0.1365436
-4.890518	Welbeck	-0.1365436
-4.310019	Well	-1.757302
-4.890518	Well-known	-0.1365436
-4.890518	Wellington	-0.1365436
-4.890518	Wells	-0.1365436
-4.772944	Welsh	-0.1365436
-4.772944	Were	-0.275104
-4.772944	Wessex	-0.35964
-4.890518	West	-0.3145076
-4.890518	West-End	-0.1365436
-4.890518	West-country	-0.1365436
-4.890518	West-end	-0.1365436
-4.772944	Westaway	-0.1365436
-4.890518	Westbury	-0.1365436
-4.890518	Western	-0.1365436
-4.772944	Westhouse	-0.260924
-4.507926	Westminster	-0.216473
-4.890518	Westphail	-0.1365436
-4.890518	Wharf	-0.1365436
-4.507926	What	-0.6235769
-4.772944	Whatever	-0.1365436
-4.655835	When	-0.6285425
-4.655835	Where	-0.4977165
-4.890518	Whether	-0.1942962
-4.772944	Which	-0.1549541
-4.890518	While	-0.1821149
-4.890518	Whip	-0.1365436
-4.397796	Whitehall	-0.2834198
-4.310019	Whitney	-0.2997984
-4.890518	Whittington	-0.1365436
-4.772944	Who	-0.3770502
-4.890518	Whoa	-0.1365436
-4.890518	Whoever	-0.1365436
-4.890518	Whole	-0.1365436
-4.772944	Whom	-0.1942962
-4.772944	Whose	-0.1365436
-4.772944	Why	-0.8064361
-4.890518	Wight	-0.1365436
-4.890518	Wigmore	-0.1365436
-4.507926	Wilder	-0.2951381
-4.890518	Wilful	-0.1365436
-4.890518	Wilhelm	-0.1365436
-4.772944	Will	-0.4797144
-3.831024	William	-0.2919429
-4.890518	Williams	-0.2153897
-4.310019	Williamson	-0.200518
-4.310019	Willoughby	-0.7916289
-4.890518	Willows	-0.1365436
-4.237036	Wilson	-0.4072554
-4.890518	Wilton	-0.1365436
-4.890518	Wimpole	-0.1365436
-4.237036	Winchester	-0.2486613
-4.507926	Windibank	-0.3237888
-4.772944	Windigate	-0.1365436
-4.890518	Wire	-0.1365436
-4.772944	With	-0.4199972
-4.890518	Within	-0.1365436
-4.772944	Without	-0.2041138
-4.890518	Witness	-0.6149125
-4.890518	Wo	-0.260924
-4.174571	Woking	-0.1859936
-4.890518	Women	-0.1365436
-4.890518	Wonderful	-0.6824844
-4.397796	Wood	-0.2418064
-4.890518	Wooden-leg	-0.1365436
-4.890518	Woodhouse	-0.260924
-3.887269	Woodley	-0.2733539
-4.655835	Woodman	-0.4394464
-4.890518	Work	-0.1365436
-4.890518	Working	-0.1365436
-4.890518	Worship	-0.1365436
-4.772944	Worthingdon	-0.260924
-4.772944	Would	-0.2617586
-4.890518	Wright	-0.1365436
-4.890518	Written	-0.1365436
-4.655835	X	-0.26273
-4.890518	X.	-0.1365436
-4.655835	XI	-0.3145076
-4.890518	XI.	-0.1365436
-4.772944	XII	-0.260924
-4.890518	XII.	-0.1365436
-4.890518	XIII.	-0.1365436
-4.655835	XXX	-0.1365436
-4.507926	YOU	-0.1365436
-4.890518	Yard	-0.4242527
-4.772944	Yellow	-0.1365436
-4.772944	Yes	-1.686114
-4.772944	Yesterday	-0.1365436
-4.772944	Yet	-0.2876123
-4.890518	York	-0.1365436
-4.507926	You	-0.7546672
-4.890518	Young	-0.1365436
-4.772944	Your	-0.1898246
-4.772944	Yours	-0.505768
-4.397796	Yoxley	-0.505768
-4.890518	Zealand	-0.1365436
-4.890518	Zoo	-0.1365436
-4.655835	[	-0.2153898
-4.655835	]	-0.1942962
-4.655835	_Gloria	-0.6155376
-4.772944	_Hotspur_	-0.1365436
-3.380453	``	-1.010042
-2.110325	a	-0.5215696
-4.890518	a-lying	-0.1365436
-4.890518	a-stampin	-0.1365436
-4.890518	a-walkin	-0.1365436
-4.890518	a.m.	-0.1365436
-4.772944	aback	-0.1942962
-4.507926	abandon	-0.1821149
-4.507926	abandoned	-0.1365436
-4.890518	abandoning	-0.1365436
-4.890518	abandons	-0.1365436
-4.507926	abduction	-0.1365436
-4.890518	abductor	-0.1365436
-4.890518	aberration	-0.1365436
-4.890518	abetted	-0.1365436
-4.655835	abhorrent	-0.2153897
-4.890518	abhors	-0.1365436
-4.890518	abide	-0.1365436
-4.890518	abilities	-0.1365436
-4.397796	ability	-0.2271665
-4.890518	abjure	-0.1365436
-3.887269	able	-1.156856
-4.890518	able-bodied	-0.1365436
-4.772944	abnormal	-0.1365436
-4.772944	abnormally	-0.1365436
-4.772944	aboard	-0.1365436
-4.772944	abode	-0.260924
-4.655835	abominable	-0.1365436
-4.890518	abomination	-0.1365436
-4.890518	abortive	-0.1365436
-4.890518	abound	-0.1365436
-2.623568	about	-0.6364235
-3.36215	above	-0.4659331
-4.890518	abrasion	-0.1365436
-4.890518	abreast	-0.1365436
-4.397796	abroad	-0.1821149
-4.310019	abrupt	-0.1365436
-4.655835	abruptly	-0.1365436
-4.890518	abruptness	-0.1365436
-4.890518	absconding	-0.1365436
-3.988217	absence	-0.2802179
-4.237036	absent	-0.200518
-4.890518	absentees	-0.1365436
-3.831024	absolute	-0.1876558
-3.677162	absolutely	-0.1839831
-4.772944	absolved	-0.260924
-4.890518	absorb	-0.1365436
-4.174571	absorbed	-0.2462223
-4.890518	absorbing	-0.1365436
-4.890518	abstract	-0.1365436
-4.237036	abstracted	-0.1365436
-4.772944	abstruse	-0.3145076
-3.918382	absurd	-0.2050607
-4.507926	absurdly	-0.234389
-4.772944	abundant	-0.1365436
-4.772944	abuse	-0.1365436
-4.890518	abusive	-0.1365436
-4.772944	abutted	-0.260924
-4.507926	abyss	-0.234389
-4.890518	academic	-0.1365436
-4.890518	acceding	-0.1365436
-4.507926	accent	-0.5363564
-4.890518	accentuated	-0.1365436
-4.310019	accept	-0.1644606
-4.890518	acceptable	-0.1365436
-4.890518	acceptance	-0.260924
-4.507926	accepted	-0.1365436
-4.890518	accepting	-0.1365436
-4.772944	access	-0.260924
-4.890518	accessories	-0.1365436
-4.890518	accessory	-0.1365436
-3.988217	accident	-0.3018001
-4.655835	accidental	-0.2153897
-4.772944	accidentally	-0.1365436
-4.772944	accidents	-0.1365436
-4.772944	accommodate	-0.1365436
-4.890518	accommodating	-0.1365436
-4.397796	accompanied	-0.234389
-4.890518	accompaniments	-0.1365436
-4.655835	accompany	-0.1821149
-4.772944	accompanying	-0.1365436
-4.890518	accompli	-0.1365436
-4.507926	accomplice	-0.2834198
-4.772944	accomplish	-0.1365436
-4.655835	accomplished	-0.1365436
-4.890518	accomplishment	-0.1365436
-4.772944	accomplishments	-0.1365436
-4.890518	accord	-0.1365436
-4.890518	accordance	-0.1365436
-4.655835	according	-0.6155376
-4.772944	accordingly	-0.1365436
-3.4405	account	-0.785755
-4.890518	accountant	-0.1365436
-4.890518	accounted	-0.260924
-4.11997	accounts	-0.1881635
-4.655835	accumulated	-0.1365436
-4.890518	accumulating	-0.1365436
-4.890518	accumulation	-0.1365436
-4.655835	accuracy	-0.1365436
-4.655835	accurate	-0.1365436
-4.772944	accurately	-0.1365436
-4.772944	accursed	-0.1365436
-4.890518	accusation	-0.1365436
-4.655835	accuse	-0.1365436
-4.397796	accused	-0.2041137
-4.890518	accuser	-0.1365436
-4.11997	accustomed	-0.4680711
-4.890518	acetones	-0.1365436
-4.890518	achieved	-0.1365436
-4.890518	achievements	-0.1365436
-4.772944	acid	-0.1365436
-4.890518	acid-faced	-0.1365436
-4.890518	acid-stained	-0.1365436
-4.310019	acknowledge	-0.4385089
-4.890518	acknowledged	-0.1365436
-4.772944	acknowledges	-0.1365436
-3.918382	acquaintance	-0.3456829
-4.890518	acquaintances	-0.1365436
-4.772944	acquainted	-0.3145076
-4.890518	acquiesce	-0.1365436
-4.890518	acquiesced	-0.1365436
-4.772944	acquiescence	-0.1365436
-4.890518	acquire	-0.1365436
-4.655835	acquired	-0.2153897
-4.890518	acquirement	-0.1365436
-4.772944	acquiring	-0.1365436
-4.772944	acquitted	-0.1365436
-4.772944	acres	-0.2153897
-4.890518	acrobat	-0.1365436
-3.126073	across	-0.780857
-3.988217	act	-0.2893044
-3.918382	acted	-0.2679438
-4.11997	acting	-0.2337113
-3.75833	action	-0.3263466
-4.772944	actionable	-0.1365436
-4.310019	actions	-0.1874866
-3.988217	active	-0.2162561
-4.772944	activity	-0.1365436
-4.772944	actor	-0.1365436
-4.772944	actors	-0.2153897
-4.890518	actress	-0.1365436
-4.772944	acts	-0.1365436
-4.655835	actual	-0.1365436
-4.071474	actually	-0.1794956
-4.890518	acumen	-0.1365436
-4.772944	acute	-0.1365436
-4.890518	acutely	-0.1365436
-4.890518	adapt	-0.1365436
-4.890518	adaptable	-0.1365436
-4.507926	adapted	-0.1942962
-4.397796	add	-0.2717696
-4.174571	added	-0.2295739
-4.890518	adder	-0.1365436
-4.890518	addicted	-0.1365436
-4.655835	adding	-0.1365436
-4.507926	addition	-0.2032111
-4.890518	additional	-0.1365436
-3.831024	address	-0.3870487
-4.237036	addressed	-0.2510672
-4.890518	addresses	-0.1365436
-4.507926	addressing	-0.1365436
-4.890518	adds	-0.1365436
-4.772944	adequate	-0.1365436
-4.890518	adhere	-0.1365436
-4.890518	adhesive	-0.1365436
-4.890518	adjective	-0.1365436
-4.890518	adjectives	-0.1365436
-4.890518	adjoining	-0.1365436
-4.655835	adjusted	-0.1365436
-4.890518	administered	-0.1365436
-4.655835	administration	-0.1365436
-4.174571	admirable	-0.1663871
-4.310019	admirably	-0.2418064
-4.11997	admiration	-0.2492989
-4.655835	admire	-0.2153897
-4.890518	admired	-0.1365436
-4.772944	admirer	-0.1365436
-4.772944	admirers	-0.1365436
-4.655835	admiring	-0.2153897
-4.174571	admit	-0.3797535
-4.772944	admits	-0.1365436
-4.890518	admittance	-0.1365436
-4.237036	admitted	-0.1685994
-4.890518	admitting	-0.1365436
-4.890518	ado	-0.1365436
-4.890518	adopt	-0.1365436
-4.772944	adopted	-0.1365436
-4.890518	adorn	-0.1365436
-4.772944	adorned	-0.1365436
-4.890518	adrift	-0.1365436
-4.11997	advance	-0.1741798
-4.071474	advanced	-0.1685994
-4.890518	advances	-0.1365436
-4.772944	advancing	-0.1365436
-4.027853	advantage	-0.3511035
-4.507926	advantages	-0.1741798
-4.890518	advent	-0.1365436
-3.951898	adventure	-0.352945
-4.237036	adventures	-0.2623137
-4.890518	adventuress	-0.1365436
-4.890518	adventurous	-0.1365436
-4.890518	advertise	-0.1365436
-4.772944	advertised	-0.1365436
-3.887269	advertisement	-0.3747901
-4.655835	advertisements	-0.1365436
-4.772944	advertising	-0.1365436
-3.736572	advice	-0.4381266
-4.237036	advise	-0.3722315
-4.507926	advised	-0.1365436
-4.772944	adviser	-0.1365436
-4.890518	advises	-0.1365436
-4.890518	advocate	-0.1365436
-4.890518	affably	-0.1365436
-3.677162	affair	-0.3709583
-4.890518	affaire	-0.1365436
-3.988217	affairs	-0.2978529
-4.772944	affect	-0.1365436
-4.890518	affectation	-0.1365436
-4.310019	affected	-0.216473
-4.890518	affecting	-0.1365436
-4.397796	affection	-0.1821149
-4.397796	affectionate	-0.1365436
-4.890518	affectionately	-0.1365436
-4.890518	affections	-0.1365436
-4.772944	affliction	-0.1365436
-4.890518	affluent	-0.1365436
-4.174571	afford	-0.2488586
-4.655835	afforded	-0.1365436
-4.772944	afoot	-0.1365436
-3.988217	afraid	-0.5881174
-4.890518	afresh	-0.1365436
-4.890518	aft	-0.1365436
-2.89083	after	-0.517742
-4.890518	after-hold	-0.1365436
-4.890518	after-taste	-0.1365436
-3.951898	afternoon	-0.3228499
-3.473954	afterwards	-0.2807613
-2.959564	again	-0.6089129
-2.981381	against	-0.6786095
-3.918382	age	-0.5351653
-4.772944	aged	-0.1365436
-4.890518	agencies	-0.1365436
-4.397796	agency	-0.2330348
-4.027853	agent	-0.1946828
-4.027853	agents	-0.2615989
-4.890518	aggregate	-0.1365436
-4.890518	aggressive	-0.1365436
-4.890518	aggressively	-0.1365436
-4.890518	agile	-0.1365436
-4.11997	agitated	-0.1821149
-4.027853	agitation	-0.4389774
-3.918382	ago	-0.5323424
-4.890518	agonies	-0.1365436
-4.397796	agony	-0.2452094
-4.397796	agree	-0.7020627
-4.890518	agreeable	-0.1365436
-4.071474	agreed	-0.3331328
-4.772944	agreement	-0.2153897
-4.890518	agrees	-0.1365436
-4.772944	agricultural	-0.1365436
-4.890518	ah	-0.1365436
-4.397796	ahead	-0.234389
-3.988217	aid	-0.3684296
-4.655835	aided	-0.1365436
-4.890518	ails	-0.1365436
-4.772944	aim	-0.1365436
-4.890518	aimed	-0.3145076
-4.772944	aimless	-0.1365436
-4.890518	aims	-0.1365436
-3.578275	air	-0.6144387
-4.655835	air-gun	-0.1365436
-4.772944	air-guns	-0.1365436
-4.890518	airs	-0.1365436
-4.890518	airy	-0.1365436
-4.890518	aisle	-0.1365436
-4.772944	ajar	-0.2153897
-4.772944	akimbo	-0.260924
-4.655835	akin	-0.4394464
-4.11997	alarm	-0.3262036
-4.507926	alarmed	-0.1942962
-4.890518	alas	-0.1365436
-4.174571	alert	-0.295004
-4.890518	alertness	-0.1365436
-4.890518	alias	-0.1365436
-4.890518	alight	-0.1365436
-4.397796	alighted	-0.2153898
-4.890518	alighting	-0.1365436
-4.655835	alike	-0.1365436
-3.831024	alive	-0.3737159
-2.601248	all	-0.5821675
-4.890518	all-comprehensive	-0.1365436
-4.772944	all-important	-0.1365436
-4.772944	all-night	-0.2153897
-4.890518	alleging	-0.1365436
-4.772944	alley	-0.1365436
-4.890518	alleys	-0.1365436
-4.890518	alliance	-0.1365436
-4.890518	allied	-0.1365436
-4.890518	allotment	-0.1365436
-4.071474	allow	-0.2335825
-4.397796	allowance	-0.216473
-3.918382	allowed	-0.282809
-4.772944	allowing	-0.1365436
-4.772944	allows	-0.1365436
-4.655835	allude	-0.4394464
-4.397796	alluded	-0.2153897
-4.237036	allusion	-0.7916289
-4.655835	allusions	-0.3145076
-4.772944	ally	-0.260924
-3.641639	almost	-0.2458538
-3.409439	alone	-0.4304805
-3.409439	along	-0.4569182
-4.237036	aloud	-0.3246525
-4.772944	alphabet	-0.1365436
-3.608802	already	-0.2306722
-3.199604	also	-0.4089597
-4.890518	altar	-0.1741798
-4.890518	alter	-0.1365436
-4.890518	alteration	-0.1365436
-4.772944	alterations	-0.1365436
-4.772944	altercation	-0.1365436
-4.655835	altered	-0.1365436
-4.772944	alternate	-0.260924
-4.772944	alternately	-0.1365436
-4.890518	alternating	-0.1365436
-4.890518	alternation	-0.1365436
-4.237036	alternative	-0.2525145
-4.890518	alternatives	-0.1365436
-4.397796	although	-0.2463206
-4.071474	altogether	-0.1821149
-4.890518	aluminium	-0.1365436
-4.890518	aluminum	-0.1365436
-3.380453	always	-0.2755038
-4.174571	am	-0.552132
-4.890518	amalgam	-0.1365436
-4.890518	amassed	-0.1365436
-4.890518	amassing	-0.1365436
-4.507926	amateur	-0.1365436
-4.772944	amaze	-0.1365436
-4.507926	amazed	-0.1365436
-3.988217	amazement	-0.4546982
-4.310019	amazing	-0.1685994
-4.890518	ambassador	-0.1365436
-4.397796	amber	-0.234389
-4.890518	ambiguous	-0.1365436
-4.772944	ambition	-0.1365436
-4.890518	ambitions	-0.1365436
-4.890518	ambitious	-0.1365436
-4.890518	ambuscade	-0.1365436
-4.772944	amends	-0.1365436
-4.890518	amethyst	-0.1365436
-4.890518	amiability	-0.1365436
-4.237036	amiable	-0.1365436
-3.951898	amid	-0.5470127
-4.890518	amidst	-0.1365436
-4.397796	amiss	-0.216473
-4.890518	ammonia	-0.1365436
-4.890518	ammunition	-0.1365436
-4.890518	amnesty	-0.1365436
-3.175625	among	-0.7730708
-4.890518	amongst	-0.1365436
-4.11997	amount	-0.3758124
-4.655835	amounted	-0.2153897
-4.890518	amounts	-0.1365436
-4.772944	ample	-0.1365436
-4.890518	amplifying	-0.1365436
-4.772944	amply	-0.1365436
-4.890518	amuse	-0.1365436
-4.237036	amused	-0.1612686
-4.310019	amusement	-0.260924
-4.507926	amusing	-0.1365436
-4.890518	amyl	-0.1365436
-2.675649	an	-0.45455
-4.890518	anaemic	-0.1365436
-4.310019	analysis	-0.3240765
-4.655835	analytical	-0.1365436
-4.772944	analyze	-0.1365436
-4.890518	anatomy	-0.1365436
-4.772944	ancestor	-0.1365436
-4.772944	ancestors	-0.1365436
-4.890518	ancestral	-0.1365436
-4.890518	ancestry	-0.1365436
-4.507926	ancient	-0.1365436
-1.778888	and	-0.651634
-4.890518	angel	-0.1365436
-4.11997	anger	-0.3370514
-4.310019	angle	-0.4032578
-4.890518	angles	-0.1365436
-4.890518	angrily	-0.1365436
-4.027853	angry	-0.2250444
-4.890518	anguish	-0.1365436
-4.890518	angular	-0.1365436
-4.027853	animal	-0.1549541
-4.772944	animals	-0.1365436
-4.772944	animated	-0.1365436
-4.890518	animosity	-0.1365436
-4.772944	aniseed	-0.1365436
-4.655835	ankle	-0.1365436
-4.890518	ankle-deep	-0.1365436
-4.655835	ankles	-0.1365436
-4.890518	annals	-0.1365436
-4.890518	announce	-0.2153897
-4.11997	announced	-0.2074659
-4.655835	announcement	-0.1365436
-4.310019	annoyance	-0.3132582
-4.507926	annoyed	-0.1942962
-4.890518	annoying	-0.1365436
-4.890518	annoys	-0.1365436
-4.890518	annual	-0.1365436
-4.890518	anoints	-0.1365436
-4.890518	anomaly	-0.1365436
-3.231568	another	-0.272518
-3.677162	answer	-0.4641224
-4.890518	answerable	-0.1365436
-3.608802	answered	-0.7004623
-4.310019	answering	-0.1685994
-4.507926	answers	-0.1612686
-4.772944	antagonist	-0.1365436
-4.890518	ante-room	-0.1365436
-4.772944	antecedents	-0.1365436
-4.890518	anteroom	-0.1365436
-4.772944	anticipate	-0.1365436
-4.655835	anticipated	-0.1365436
-4.772944	antics	-0.260924
-4.890518	antidote	-0.1365436
-4.890518	antiquity	-0.1365436
-4.890518	anxieties	-0.1365436
-4.071474	anxiety	-0.3288446
-3.858237	anxious	-0.535107
-4.772944	anxiously	-0.1365436
-2.884817	any	-0.3396193
-4.772944	anybody	-0.1365436
-4.772944	anyhow	-0.3933136
-3.52299	anyone	-0.2970864
-3.164114	anything	-0.4574107
-4.237036	anywhere	-0.2032111
-4.507926	apart	-0.2621271
-4.397796	apartment	-0.3516318
-4.772944	ape	-0.1365436
-4.890518	aperture	-0.1942962
-4.655835	apiece	-0.35964
-4.772944	apologies	-0.1942962
-4.890518	apologise	-0.1365436
-4.655835	apologize	-0.2627299
-4.890518	apologized	-0.1365436
-4.890518	apologizing	-0.1365436
-4.310019	apology	-0.2239229
-4.890518	apoplexy	-0.1365436
-4.890518	appalled	-0.1365436
-4.890518	apparelled	-0.1365436
-4.655835	apparent	-0.1365436
-4.174571	apparently	-0.1667739
-4.772944	apparition	-0.1365436
-4.071474	appeal	-0.2966599
-4.655835	appealed	-0.4394464
-4.890518	appealing	-0.1365436
-4.655835	appeals	-0.2153897
-3.781236	appear	-0.5565033
-3.641639	appearance	-0.5286666
-4.772944	appearances	-0.1365436
-3.4405	appeared	-0.5489967
-4.890518	appearing	-0.1365436
-3.805417	appears	-0.631529
-4.507926	appetite	-0.1942962
-4.772944	applause	-0.1365436
-4.655835	apple	-0.1365436
-4.772944	applicant	-0.1365436
-4.655835	application	-0.1365436
-4.310019	applied	-0.1365436
-4.397796	apply	-0.2783191
-4.772944	applying	-0.1365436
-4.772944	appointed	-0.1365436
-4.027853	appointment	-0.2893044
-4.890518	appreciable	-0.1365436
-4.397796	appreciate	-0.1741798
-4.507926	appreciated	-0.1365436
-4.890518	apprehended	-0.1365436
-4.890518	apprehension	-0.1365436
-4.890518	apprenticed	-0.1365436
-4.237036	approach	-0.2618691
-4.027853	approached	-0.3692742
-4.174571	approaching	-0.1644606
-4.772944	appropriate	-0.1365436
-4.890518	approve	-0.1365436
-4.655835	approvingly	-0.2153897
-4.890518	apron	-0.1365436
-4.890518	apt	-0.1365436
-4.890518	aptitudes	-0.1365436
-4.655835	aquiline	-0.2330347
-4.890518	arable	-0.1365436
-4.772944	arbitrary	-0.1365436
-4.890518	arc-and-compass	-0.1365436
-4.890518	archaeologist	-0.1365436
-4.772944	arched	-0.1365436
-4.890518	architects	-0.1365436
-4.890518	architectural	-0.1365436
-4.772944	architecture	-0.1365436
-4.890518	archways	-0.1365436
-4.655835	ardent	-0.1365436
-4.890518	arduous	-0.1365436
-2.745537	are	-0.4803413
-4.772944	area	-0.1365436
-4.772944	argue	-0.260924
-4.890518	argued	-0.260924
-4.890518	argues	-0.1365436
-4.772944	arguing	-0.1365436
-4.071474	argument	-0.206829
-4.772944	arguments	-0.1365436
-4.772944	aright	-0.2153897
-4.655835	arise	-0.2153897
-4.890518	aristocrat	-0.1365436
-4.310019	aristocratic	-0.1365436
-3.858237	arm	-0.371356
-4.507926	arm-chair	-0.2832519
-4.310019	armchair	-0.3356104
-4.890518	armchairs	-0.1365436
-4.397796	armed	-0.1365436
-4.890518	armor	-0.1365436
-4.890518	armory	-0.1365436
-4.071474	arms	-0.2248539
-4.397796	army	-0.1365436
-4.772944	arose	-0.1365436
-3.951898	around	-0.3050768
-4.507926	arouse	-0.1942962
-3.988217	aroused	-0.319947
-4.397796	arrange	-0.1644606
-3.988217	arranged	-0.222226
-4.772944	arrangement	-0.1365436
-4.507926	arrangements	-0.1365436
-4.890518	arranges	-0.1365436
-4.890518	arranging	-0.1365436
-4.772944	array	-0.260924
-4.890518	arrears	-0.1365436
-4.071474	arrest	-0.2936438
-3.858237	arrested	-0.3009132
-4.507926	arresting	-0.1365436
-4.397796	arrival	-0.2734625
-4.174571	arrive	-0.2618691
-3.696077	arrived	-0.333729
-4.890518	arrives	-0.1365436
-4.890518	arriving	-0.1365436
-4.890518	arrows	-0.1365436
-4.174571	art	-0.3292605
-4.890518	arteries	-0.1365436
-4.890518	artery	-0.1365436
-4.174571	article	-0.1874866
-4.071474	articles	-0.23813
-4.655835	artificial	-0.1365436
-4.772944	artillery	-0.1365436
-4.655835	artist	-0.1365436
-4.772944	artistic	-0.260924
-4.890518	artists	-0.1365436
-2.191169	as	-0.8299394
-4.772944	ascend	-0.2153897
-4.772944	ascendancy	-0.260924
-4.071474	ascended	-0.3415494
-4.890518	ascending	-0.1365436
-4.772944	ascertain	-0.1365436
-4.397796	ascertained	-0.216473
-4.655835	ascertaining	-0.1365436
-4.655835	ascetic	-0.1942961
-4.890518	ascetic-looking	-0.1365436
-4.507926	ash	-0.1741798
-4.174571	ashamed	-0.6606699
-4.890518	ashen	-0.2153897
-4.310019	ashes	-0.2462223
-4.890518	ashore	-0.1365436
-4.890518	ashy	-0.1365436
-4.071474	aside	-0.215931
-3.608802	ask	-0.5093242
-4.507926	askance	-0.26273
-3.677162	asked	-0.7448158
-3.858237	asking	-0.2019128
-4.772944	asks	-0.1365436
-4.027853	asleep	-0.4386428
-4.655835	aspect	-0.2153897
-4.890518	asperities	-0.1365436
-4.772944	asperity	-0.1365436
-4.772944	asphalt	-0.1365436
-4.890518	aspired	-0.1365436
-4.890518	ass	-0.1365436
-4.772944	assailant	-0.1365436
-4.890518	assailants	-0.1365436
-4.655835	assassin	-0.1365436
-4.397796	assault	-0.1365436
-4.772944	assaulted	-0.1365436
-4.890518	assaults	-0.1365436
-4.772944	assembled	-0.1365436
-4.655835	assent	-0.1365436
-4.890518	assented	-0.1365436
-4.655835	assert	-0.2153897
-4.772944	asserted	-0.1365436
-4.890518	assertion	-0.1365436
-4.890518	assiduous	-0.1365436
-4.890518	assiduously	-0.1365436
-4.655835	assist	-0.1365436
-3.951898	assistance	-0.4731312
-4.027853	assistant	-0.1849695
-4.890518	assistants	-0.1365436
-4.890518	assisted	-0.1365436
-4.655835	assisting	-0.1365436
-4.890518	assizes	-0.1365436
-4.237036	associate	-0.1644606
-4.071474	associated	-0.4100123
-4.655835	associates	-0.1365436
-4.890518	associating	-0.1365436
-4.890518	association	-0.1365436
-4.655835	associations	-0.2153897
-4.890518	assortment	-0.1365436
-4.655835	assume	-0.1942962
-4.507926	assumed	-0.1821149
-4.890518	assuming	-0.260924
-4.507926	assurance	-0.1741798
-4.310019	assure	-0.7252828
-3.831024	assured	-0.2766635
-4.890518	assuredly	-0.1365436
-4.507926	assures	-0.4394464
-4.772944	assuring	-0.1365436
-4.890518	asthmatic	-0.1365436
-4.890518	astir	-0.1365436
-4.890518	astonish	-0.1365436
-4.071474	astonished	-0.1999481
-4.772944	astonishing	-0.1365436
-4.890518	astonishingly	-0.1365436
-3.887269	astonishment	-0.4503054
-4.890518	astounding	-0.1365436
-4.772944	astrachan	-0.1365436
-4.890518	astrakhan	-0.1365436
-4.890518	astray	-0.1365436
-4.890518	astronomers	-0.1365436
-4.890518	astronomy	-0.1365436
-4.890518	astute	-0.260924
-4.772944	astuteness	-0.1365436
-4.890518	asunder	-0.1365436
-4.890518	asylum	-0.1365436
-2.113852	at	-0.9105026
-4.890518	atavism	-0.1365436
-4.655835	ate	-0.1942962
-4.772944	athlete	-0.1365436
-4.890518	athletes	-0.1365436
-4.655835	athletic	-0.1942962
-4.310019	atmosphere	-0.2621271
-4.890518	atoms	-0.1365436
-4.890518	atone	-0.1365436
-4.890518	atonement	-0.1365436
-4.890518	atones	-0.1365436
-4.027853	attached	-0.6146002
-4.890518	attaches	-0.1365436
-3.951898	attack	-0.2336254
-4.507926	attacked	-0.2408221
-4.397796	attacks	-0.1741798
-4.772944	attain	-0.1942962
-4.397796	attained	-0.1365436
-4.890518	attainments	-0.1365436
-3.831024	attempt	-0.5195859
-4.071474	attempted	-0.2074659
-4.772944	attempting	-0.260924
-4.397796	attempts	-0.1741798
-4.655835	attend	-0.2627299
-4.507926	attendant	-0.1365436
-4.772944	attended	-0.1365436
-4.772944	attends	-0.1365436
-3.473954	attention	-0.5238839
-4.397796	attentions	-0.1821149
-4.890518	attentive	-0.1365436
-4.890518	attic	-0.2153897
-4.772944	attics	-0.1365436
-4.772944	attire	-0.260924
-4.772944	attired	-0.1365436
-4.174571	attitude	-0.1566672
