
\data\
ngram 1=15398
ngram 2=111577

\1-grams:
-2.416131	!	-2.495281
-4.144485	&	-0.3125959
-3.149947	'	-0.9557043
-3.516096	''	-1.857572
-5.047575	'16	-0.1365358
-5.047575	'45	-0.1344953
-5.047575	'55	-0.1352767
-5.047575	'60	-0.135226
-5.047575	'77	-0.1162614
-5.047575	'82	-0.1292547
-4.746544	'83	-0.2907223
-4.746544	'84	-0.1149339
-4.746544	'85	-0.2736731
-4.570453	'87	-0.1151916
-4.746544	'89	-0.114115
-5.047575	'90	-0.1162614
-4.570453	'95	-0.08903403
-5.047575	'97	-0.1326062
-4.445515	'A	-0.1814361
-5.047575	'About	-0.1312805
-5.047575	'Absolute	-0.1292547
-5.047575	'Absolutely	-0.1187341
-5.047575	'After	-0.1364696
-5.047575	'Ah	-0.9596104
-5.047575	'Alas	-0.1162614
-4.746544	'All	-0.3084146
-5.047575	'Almost	-0.1364735
-5.047575	'American	-0.1365358
-5.047575	'Ample	-0.1187341
-4.746544	'And	-0.3510822
-5.047575	'Answer	-0.1349995
-5.047575	'Any	-0.1364073
-5.047575	'Anybody	-0.1365319
-5.047575	'Anything	-0.4374763
-5.047575	'Apoplexy	-0.1187341
-4.746544	'Are	-0.1324687
-5.047575	'Arms	-0.1362672
-4.746544	'Arthur	-0.1348471
-5.047575	'As	-0.1365319
-5.047575	'Ask	-0.1336615
-5.047575	'At	-0.4375386
-5.047575	'Ay	-0.1162614
-5.047575	'Baron	-0.1365397
-5.047575	'Be	-0.1294407
-5.047575	'Because	-0.1362477
-5.047575	'Beddoes	-0.1365319
-5.047575	'Bless	-0.1346439
-5.047575	'Breckinridge	-0.1162614
-5.047575	'British	-0.1365397
-4.746544	'Brunton	-0.1158248
-4.746544	'But	-0.2207329
-4.746544	'By	-0.4322987
-5.047575	'C.P.R	-0.1187341
-5.047575	'COME	-0.1187341
-5.047575	'Can	-0.3084696
-5.047575	'Catullus	-0.1162614
-5.047575	'Certainly	-0.4167241
-5.047575	'Co	-0.1187341
-5.047575	'Colonel	-0.1365358
-4.570453	'Come	-0.3556503
-5.047575	'Company	-0.1187341
-4.348605	'Cooee	-0.6116869
-5.047575	'Crime	-0.1294407
-5.047575	'D'you	-0.1364502
-5.047575	'DEAR	-0.1365397
-5.047575	'Danger	-0.1343897
-5.047575	'Dear	-0.4360295
-5.047575	'Dearest	-0.1361737
-5.047575	'Death	-0.1162614
-5.047575	'December	-0.1365319
-5.047575	'Did	-0.1350425
-5.047575	'Do	-0.6116791
-5.047575	'Done	-0.1348745
-5.047575	'Drive	-0.1360295
-5.047575	'E.B	-0.1187341
-5.047575	'ELSIE	-0.1187341
-5.047575	'Eg	-0.1187341
-5.047575	'Elrige	-0.135226
-4.746544	'Elsie	-0.09758185
-5.047575	'Encyclopaedia	-0.1162533
-5.047575	'Entirely	-0.1187341
-5.047575	'Fire	-0.1348745
-5.047575	'Five	-0.1364813
-4.445515	'For	-0.1870883
-5.047575	'Found	-0.1331872
-4.746544	'Frisco	-0.3986118
-5.047575	'Fritz	-0.1348745
-4.746544	'From	-0.1312293
-5.047575	'G	-0.136236
-5.047575	'Gesellschaft	-0.1162614
-5.047575	'Go	-0.1352533
-5.047575	'Gone	-0.13018
-5.047575	'Good	-0.1348745
-5.047575	'Good-evening	-0.1162614
-5.047575	'H	-0.1187341
-5.047575	'Ha	-0.1162614
-5.047575	'Hampshire	-0.1187341
-5.047575	'Harold	-0.1162614
-5.047575	'Have	-0.8336139
-4.746544	'He	-0.1715173
-5.047575	'Head-keeper	-0.1364696
-5.047575	'Heavy	-0.1365358
-4.746544	'Here	-0.132724
-5.047575	'His	-0.1356903
-5.047575	'Holdernesse	-0.1162614
-5.047575	'Homer	-0.1162614
-5.047575	'Hosmer	-0.1365319
-4.746544	'How	-0.1294051
-5.047575	'Hudson	-0.1334499
-5.047575	'Hullo	-0.4359045
-5.047575	'Huxtable	-0.135226
-5.047575	'Hyams	-0.1162614
-4.269423	'I	-0.5248998
-4.746544	'If	-0.4811403
-5.047575	'Impossible	-0.1348745
-5.047575	'In	-0.1258971
-5.047575	'Inspector	-0.136493
-4.570453	'Is	-0.1232564
-4.570453	'It	-0.680284
-4.746544	'J.H.N	-0.419764
-5.047575	'Jack	-0.1162614
-5.047575	'Jephro	-0.1162614
-4.746544	'K	-0.419764
-5.047575	'Keep	-0.1354173
-5.047575	'Ku	-0.1365358
-5.047575	'L'homme	-0.1365358
-5.047575	'Lately	-0.1364657
-4.570453	'Let	-0.3531135
-5.047575	'Letters	-0.1162614
-4.445515	'Lone	-0.7385919
-5.047575	'Look	-0.1288429
-4.746544	'Lord	-0.1365241
-5.047575	'Lost	-0.1162614
-5.047575	'MY	-0.136528
-5.047575	'Made	-0.1354524
-5.047575	'Mawson	-0.1360957
-4.746544	'May	-0.435318
-5.047575	'Most	-0.1365203
-5.047575	'Mother	-0.1162614
-4.746544	'Mr	-0.8177041
-5.047575	'Mrs	-0.1187341
-4.746544	'My	-0.2327914
-5.047575	'Mysterious	-0.1365397
-5.047575	'Neither	-0.1346947
-4.746544	'Never	-0.192546
-5.047575	'Next	-0.1364696
-5.047575	'No	-0.6707658
-5.047575	'Norbury	-0.136236
-5.047575	'North	-0.1344406
-4.746544	'Not	-0.2752086
-5.047575	'Nothing	-0.1187341
-4.746544	'Now	-0.4336362
-5.047575	'Oct	-0.1187341
-5.047575	'Of	-0.3122221
-4.570453	'Oh	-1.155905
-5.047575	'Omne	-0.1365397
-4.746544	'On	-0.3525063
-5.047575	'One	-0.1279188
-5.047575	'Only	-0.3473867
-5.047575	'Or	-0.4312099
-5.047575	'Over	-0.1312805
-5.047575	'P	-0.1162614
-4.746544	'P.C	-0.419764
-5.047575	'Papier	-0.1187341
-5.047575	'Perfectly	-0.1187341
-4.746544	'Perhaps	-0.1337673
-5.047575	'Photography	-0.1343897
-5.047575	'Pink	-0.1365397
-4.746544	'Pon	-0.611816
-5.047575	'Pondicherry	-0.136528
-5.047575	'Pooh	-0.1145123
-5.047575	'Pray	-0.1162614
-5.047575	'Precisely	-0.2419622
-5.047575	'Pretty	-0.1364813
-4.746544	'Put	-0.4323105
-5.047575	'Quite	-0.3112079
-5.047575	'Ragged	-0.1365358
-5.047575	'Really	-0.4172914
-5.047575	'Remarkable	-0.133736
-5.047575	'Remember	-0.1162614
-5.047575	'Right	-0.4370946
-5.047575	'Rome	-0.1333519
-4.746544	'S	-0.1365358
-5.047575	'See	-0.1326062
-5.047575	'Seven	-0.13018
-5.047575	'She	-0.1357488
-5.047575	'Show	-0.1351479
-5.047575	'Singular	-0.1365397
-5.047575	'Sir	-0.1162614
-4.746544	'So	-0.4140492
-5.047575	'Sold	-0.13018
-4.746544	'Some	-0.1357527
-5.047575	'Sophy	-0.1348745
-5.047575	'Ss	-0.1187341
-5.047575	'Stand	-0.1344406
-5.047575	'Stolen	-0.1348745
-5.047575	'Such	-0.1162614
-5.047575	'Sumner	-0.1162614
-5.047575	'Surely	-0.1323901
-4.746544	'Tell	-0.6120583
-5.047575	'Ten	-0.13018
-5.047575	'Thank	-0.4355761
-4.746544	'That	-0.4781155
-4.348605	'The	-0.1819943
-4.746544	'Then	-0.227886
-4.445515	'There	-0.5594946
-5.047575	'These	-0.1357605
-4.746544	'They	-0.1354485
-4.570453	'This	-0.4112213
-5.047575	'Three	-0.1365358
-4.746544	'To	-0.1364696
-5.047575	'Tragedy	-0.1365319
-4.746544	'Trust	-0.4360295
-5.047575	'Tut	-0.7183214
-5.047575	'US	-0.1162614
-5.047575	'Under	-0.1312805
-5.047575	'Undoubtedly	-0.135585
-5.047575	'Until	-0.1346439
-4.746544	'Varsity	-0.1151057
-5.047575	'Very	-0.4369894
-5.047575	'Wandsworth	-0.1365397
-4.746544	'We	-0.3270469
-4.746544	'Well	-1.069638
-4.570453	'What	-0.3030022
-5.047575	'Whatever	-0.1351831
-4.746544	'When	-0.1319341
-4.746544	'Where	-0.2530361
-5.047575	'Whereas	-0.1162614
-4.746544	'Which	-0.1340649
-4.746544	'Who	-0.1349761
-5.047575	'Whose	-0.1333519
-4.570453	'Why	-0.6670188
-5.047575	'Within	-0.1312805
-5.047575	'Wonderful	-0.1348745
-5.047575	'Yes	-1.118771
-4.570453	'You	-0.4994685
-4.746544	'Your	-0.1356864
-5.047575	'a	-0.1365125
-5.047575	'actually	-0.1362477
-4.570453	'and	-0.2824674
-5.047575	'are	-0.13018
-4.570453	'at	-0.4372309
-5.047575	'band	-0.1162614
-4.746544	'bus	-0.1282521
-4.746544	'but	-0.271654
-5.047575	'can	-0.1346439
-4.269423	'd	-0.3207333
-5.047575	'death	-0.1340649
-5.047575	'did	-0.1335126
-5.047575	'e	-0.1148807
-4.746544	'em	-0.1152365
-5.047575	'first	-0.13018
-5.047575	'fly-paper	-0.136236
-4.746544	'for	-0.1345461
-5.047575	'get	-0.1359788
-5.047575	'has	-0.1360022
-5.047575	'have	-0.1346439
-5.047575	'he	-0.1333519
-5.047575	'hen-pheasant	-0.136236
-5.047575	'here	-0.135226
-5.047575	'his	-0.1363723
-4.570453	'idee	-0.613661
-5.047575	'if	-0.1346439
-5.047575	'in	-0.1364502
-5.047575	'is	-0.1308548
-4.746544	'it	-0.3093882
-5.047575	'journeys	-0.1363723
-5.047575	'jumping	-0.1331597
-5.047575	'learn	-0.136236
-5.047575	'lever	-0.1162614
-5.047575	'life	-0.1365319
-3.968393	'll	-0.4645175
-4.746544	'm	-0.3547153
-5.047575	'maybe	-0.136236
-5.047575	'my	-0.1362048
-5.047575	'neither	-0.1365358
-5.047575	'never	-0.1187341
-5.047575	'only	-0.135265
-5.047575	'other	-0.136384
-5.047575	'please	-0.1187341
-5.047575	'pology	-0.1162614
-4.746544	'quarter	-0.437266
-5.047575	'r	-0.1173612
-4.348605	're	-0.2141817
-5.047575	'remember	-0.1354173
-2.518658	's	-0.2533706
-5.047575	'seeing	-0.1346947
-5.047575	'sent	-0.1312805
-5.047575	'sever	-0.1162614
-5.047575	'sir	-0.136236
-5.047575	'suicide	-0.1187341
-5.047575	'supply	-0.1364696
-5.047575	't	-0.136236
-5.047575	'take	-0.1346947
-5.047575	'that	-0.174604
-4.570453	'the	-0.1278552
-5.047575	'there	-0.3094902
-5.047575	'this	-0.1343897
-4.570453	'to	-0.2127634
-4.746544	'tween-decks	-0.1207368
-4.570453	'twelve	-0.2920304
-5.047575	'un	-0.136236
-4.047575	've	-0.507674
-4.746544	'we	-0.2317923
-5.047575	'were	-0.1334499
-5.047575	'what	-0.136236
-5.047575	'when	-0.1337673
-5.047575	'which	-0.134597
-5.047575	'wilful	-0.1364268
-4.746544	'with	-0.1301404
-5.047575	'would	-0.1361737
-5.047575	'ye	-0.1362866
-4.570453	'you	-0.1656879
-4.006182	(	-0.2580575
-4.047575	)	-0.3576954
-5.047575	*****	-1.215682
-1.340772	,	-0.8796106
-5.047575	-	-0.1364112
-2.327415	--	-0.4760162
-1.396006	.	-3.672147
-4.746544	...	-0.1343154
-5.047575	..E	-0.1365397
-5.047575	.ERE	-0.1365397
-5.047575	.M	-0.1365397
-5.047575	.RE.ARE	-0.136528
-4.746544	1	-0.1111374
-5.047575	1/2	-0.1365319
-5.047575	10	-0.1162614
-4.570453	100	-0.6135286
-4.144485	1000	-0.6135052
-5.047575	10s	-0.1187341
-5.047575	10s.	-0.1162614
-5.047575	10th	-0.1187341
-5.047575	11.10	-0.1340649
-5.047575	1100	-0.1364073
-5.047575	117	-0.4172914
-4.746544	117th	-0.1364229
-4.570453	11:15	-0.5958554
-5.047575	11:30	-0.1187341
-5.047575	12.22	-0.13018
-4.746544	120	-0.4374373
-4.570453	126b	-0.3094353
-5.047575	12s	-0.1187341
-5.047575	12th	-0.1187341
-4.746544	131	-0.1129165
-5.047575	13th	-0.1344953
-5.047575	14	-0.136236
-5.047575	14,000	-0.1364073
-5.047575	140	-0.1364852
-5.047575	14th	-0.1270961
-5.047575	15	-0.437558
-5.047575	150	-0.1365008
-4.746544	16	-0.1129165
-5.047575	1607	-0.1162614
-5.047575	16A	-0.1162614
-5.047575	17	-0.136493
-5.047575	1840	-0.1187341
-5.047575	1846	-0.1187341
-5.047575	1855	-0.1162614
-5.047575	1858	-0.1187341
-4.570453	1869	-0.2913074
-5.047575	1870	-0.1350425
-5.047575	1872	-0.1351909
-5.047575	1875	-0.1187341
-5.047575	1878	-0.1162614
-5.047575	1881	-0.1351909
-4.445515	1883	-0.2395989
-4.746544	1884	-0.09534082
-5.047575	1887	-0.11717
-5.047575	1888	-0.1165998
-4.746544	1890	-0.293729
-4.746544	1891	-0.4172914
-4.570453	1894	-0.1055259
-5.047575	1895	-0.134288
-5.047575	18th	-0.1187341
-5.047575	1900	-0.1187341
-5.047575	1901	-0.1365397
-5.047575	1903	-0.6136221
-5.047575	1904	-1.136501
-5.047575	19th	-0.1187341
-5.047575	1s.	-0.1162614
-4.746544	1st	-0.1312766
-4.445515	2	-0.3381958
-5.047575	2,000	-0.1365358
-5.047575	2.40	-0.1364852
-5.047575	20	-0.136236
-5.047575	200	-0.1364073
-5.047575	20th	-0.1187341
-5.047575	220	-0.1364073
-5.047575	221	-0.1365241
-5.047575	221B	-0.1162614
-5.047575	226	-0.136528
-4.570453	22nd	-0.09757335
-4.746544	23d	-0.1079855
-5.047575	23rd	-0.1281688
-5.047575	2473	-0.1187341
-5.047575	249	-0.1162614
-5.047575	24th	-0.1187341
-4.570453	25	-0.312483
-5.047575	250	-0.1364073
-4.746544	26	-0.1162451
-5.047575	26s	-0.1187341
-4.570453	27	-0.1160942
-5.047575	270	-0.1365358
-5.047575	28	-0.1365241
-5.047575	2nd	-0.1187341
-4.746544	2s	-0.419764
-5.047575	3	-0.118101
-5.047575	3.30	-0.1365397
-5.047575	3.36	-0.1162614
-4.570453	30	-0.2922099
-4.746544	30,000	-0.1363996
-5.047575	30th	-0.1281688
-5.047575	31	-0.1365397
-5.047575	3d	-0.1281688
-4.570453	3rd	-0.08834308
-4.269423	4	-0.4865648
-5.047575	40	-0.1364073
-5.047575	4000	-0.1364073
-5.047575	403	-0.1365241
-5.047575	421	-0.1365319
-5.047575	426	-0.1162614
-4.746544	427	-0.5933827
-5.047575	46	-0.1162614
-5.047575	4700	-0.1364073
-5.047575	4:35	-0.1364852
-5.047575	4d	-0.1187341
-4.570453	4th	-0.08743751
-5.047575	5	-0.1187341
-5.047575	50	-0.1365358
-5.047575	50,000	-0.1364073
-5.047575	5:14	-0.1340649
-5.047575	5:15	-0.1364112
-5.047575	6	-0.1187341
-5.047575	6.30	-0.1344953
-5.047575	60	-0.1364073
-5.047575	6:30	-0.1352416
-5.047575	6d	-0.1187341
-5.047575	6d.	-0.4172914
-4.570453	6th	-0.09755632
-5.047575	7	-0.1365241
-5.047575	700	-0.1364073
-5.047575	750	-0.1364073
-5.047575	7s	-0.1187341
-4.746544	7th	-0.09758185
-5.047575	88	-0.1364073
-5.047575	8d	-0.1187341
-5.047575	8s.	-0.1162614
-5.047575	8th	-0.1365319
-5.047575	9	-0.1162614
-5.047575	9.13	-0.1187341
-5.047575	9.50	-0.1162614
-5.047575	90	-0.1333519
-4.746544	9th	-0.1187259
-3.196316	:	-0.5195485
-2.507245	;	-0.8239936
-4.269423	</s>
-99	<s>	-1.396723
-2.115101	?	-2.861769
-4.006182	A	-0.2691601
-4.570453	A.	-0.2389225
-5.047575	A.E	-0.1365397
-5.047575	ABANDON	-0.1365358
-5.047575	ABE	-0.1365397
-5.047575	ADLER	-0.1187341
-4.570453	ADVENTURE	-0.3682733
-5.047575	ADVENTURES	-0.1365203
-5.047575	ADVISE	-0.136528
-5.047575	AFTER	-0.1312805
-5.047575	AGENT	-0.1187341
-4.746544	ALIBI	-0.1154082
-4.746544	AM	-0.3126232
-5.047575	APPLEDORE	-0.1365397
-5.047575	APRIL	-0.1162614
-5.047575	ARAT	-0.1162614
-5.047575	ARMSTRONG	-0.1187341
-4.746544	ARTHUR	-1.282668
-5.047575	AT	-0.1365397
-5.047575	AUGUST	-0.1162614
-5.047575	AUGUSTUS	-0.1365397
-4.445515	Abbey	-0.679144
-5.047575	Abbots	-0.1292547
-4.348605	Abe	-0.6784421
-4.746544	Aberdeen	-0.1357137
-5.047575	Abergavenny	-0.1364268
-5.047575	Abernetty	-0.1364424
-4.746544	About	-0.2881135
-5.047575	Above	-0.4298253
-5.047575	Absolute	-0.1365397
-4.746544	Absolutely	-0.2589253
-5.047575	Accepting	-0.1334499
-5.047575	According	-0.13018
-5.047575	Accustomed	-0.4347659
-5.047575	Across	-0.1290884
-4.202477	Acton	-0.3087847
-4.269423	Adair	-0.2762307
-5.047575	Adams	-0.09758185
-5.047575	Add	-0.13018
-5.047575	Addleton	-0.136493
-5.047575	Address	-0.4372971
-5.047575	Adelaide	-0.4172914
-5.047575	Adelaide-Southampton	-0.1363645
-4.746544	Adler	-0.4221584
-5.047575	Admirable	-0.1348745
-5.047575	Admiralty	-0.1133191
-4.445515	Adventure	-0.7367483
-5.047575	Affair	-0.1331872
-4.746544	Affairs	-0.09758185
-4.746544	Afghan	-0.1365202
-5.047575	Afghanistan	-0.4150179
-5.047575	Afghans	-0.1187341
-4.570453	Africa	-0.1505715
-4.570453	African	-0.1363684
-4.746544	After	-0.4231129
-5.047575	Afterwards	-0.1142461
-5.047575	Again	-0.5293969
-4.746544	Agatha	-0.1343975
-4.746544	Agent	-0.4172914
-5.047575	Ages	-0.1187341
-5.047575	Agra	-0.1365163
-4.445515	Ah	-1.54046
-5.047575	Aha	-0.1348745
-5.047575	Air	-0.1292547
-5.047575	Alas	-0.6119958
-4.570453	Albert	-0.3125726
-5.047575	Aldersgate	-0.1351909
-4.269423	Aldershot	-0.1922809
-4.047575	Alec	-0.5251016
-5.047575	Alexander	-0.1365203
-5.047575	Alexandria	-0.1187341
-5.047575	Alexandrian	-0.1365125
-4.570453	Alexis	-0.09408935
-4.093332	Alice	-0.1157888
-5.047575	Alicia	-0.1365397
-5.047575	Alighting	-0.1331872
-4.746544	All	-0.426595
-5.047575	Allardyce	-0.135226
-5.047575	Allegro	-0.09758185
-5.047575	Alliance	-0.1162614
-5.047575	Allow	-0.1349995
-5.047575	Almighty	-0.1365397
-5.047575	Almost	-0.1331872
-5.047575	Along	-0.1352416
-4.746544	Aloysius	-0.835498
-5.047575	Alpha	-0.3391144
-5.047575	Alpine	-0.1365203
-4.445515	Alpine-stock	-0.1309771
-4.746544	Already	-0.09907797
-5.047575	Also	-0.1162614
-5.047575	Altogether	-0.1151588
-5.047575	Always	-0.1187341
-5.047575	Am	-0.134288
-4.746544	Amateur	-0.1365202
-5.047575	Amazement	-0.1292547
-4.202477	America	-0.4251707
-4.144485	American	-0.2410562
-5.047575	Americans	-0.1294407
-5.047575	Amid	-0.3039465
-4.746544	Among	-0.133544
-5.047575	Amoy	-0.1365397
-5.047575	Ample	-0.1187341
-4.570453	An	-0.3635334
-5.047575	Anarchist	-0.1355577
-4.570453	And	-0.6894306
-5.047575	Andaman	-0.1365397
-5.047575	Anderson	-0.1364112
-5.047575	Andover	-0.1294407
-5.047575	Anerley	-0.1365358
-4.570453	Angel	-0.3686257
-5.047575	Anglia	-0.1187341
-5.047575	Anglo-Indian	-0.1162614
-5.047575	Anna	-0.4155423
-5.047575	Anne	-0.1363567
-4.348605	Annie	-0.2272321
-5.047575	Annoyed	-0.1331872
-4.746544	Another	-0.1156656
-5.047575	Anstruther	-0.1355577
-5.047575	Answer	-0.1349995
-4.746544	Any	-0.2982031
-5.047575	Anybody	-0.1365203
-4.746544	Anyhow	-0.7150792
-4.746544	Anyone	-0.1289538
-4.746544	Anything	-0.3880005
-5.047575	Anyway	-0.1162614
-5.047575	Apache	-0.1365358
-5.047575	Apaches	-0.1162614
-5.047575	Apparently	-0.1162614
-4.746544	Appledore	-0.2923486
-5.047575	Apply	-0.1294367
-5.047575	Appreciation	-0.1281688
-4.570453	April	-0.1713635
-5.047575	Arab	-0.1162614
-5.047575	Arabian	-0.1365397
-4.746544	Arcade	-0.5933827
-5.047575	Arcadia	-0.1365163
-5.047575	Archery	-0.1292547
-4.746544	Archie	-0.1162573
-5.047575	Architecture	-0.1292547
-4.746544	Arctic	-0.136493
-4.746544	Are	-0.9122787
-5.047575	Argentine	-0.1162614
-5.047575	Arizona	-0.1162614
-4.269423	Armitage	-0.180063
-5.047575	Armour	-0.1292547
-4.746544	Arms	-0.1158126
-4.348605	Armstrong	-0.2642906
-4.746544	Army	-0.1162573
-5.047575	Arnsworth	-0.1365358
-4.746544	Arrest	-0.132728
-5.047575	Arson	-0.1187341
-5.047575	Art	-0.1294407
-3.616211	Arthur	-0.2107166
-4.746544	Artillery	-0.09758185
-4.570453	As	-0.9965463
-4.746544	Ask	-0.3111845
-4.746544	Assizes	-0.4631978
-5.047575	Assure	-0.1351479
-5.047575	Astonishment	-0.1331872
-4.746544	At	-0.7364532
-5.047575	Athene	-0.1343858
-4.348605	Athens	-0.3193412
-5.047575	Atkinson	-0.1365358
-4.746544	Atlanta	-0.2217066
-5.047575	Atlantic	-0.1121061
-5.047575	Attica	-0.1162614
-5.047575	Auckland	-0.1187341
-4.570453	August	-0.1074489
-5.047575	Augustine	-0.1187341
-4.746544	Augustus	-0.5343512
-5.047575	Austerlitz	-0.1162614
-4.269423	Australia	-0.3003698
-4.445515	Australian	-0.1339514
-5.047575	Australians	-0.1187341
-5.047575	Author	-0.1281688
-5.047575	Aveling	-0.1162614
-4.570453	Avenue	-0.3985949
-5.047575	Awake	-0.1162614
-5.047575	Away	-0.1351557
-5.047575	Ay	-0.1162614
-5.047575	Aye	-0.1162614
-5.047575	Ayrshires	-0.1331989
-5.047575	Azure	-0.1162614
-4.348605	B	-0.2421616
-5.047575	BACHELOR	-0.1364891
-5.047575	BALLARAT	-0.1187341
-5.047575	BAND	-0.1365241
-5.047575	BASS	-0.1365358
-5.047575	BEECHES	-0.1363606
-5.047575	BERYL	-0.1365397
-5.047575	BLUE	-0.1365397
-5.047575	BOHEMIA	-0.134288
-5.047575	BOSCOMBE	-0.1365397
-5.047575	BOTH	-0.13018
-5.047575	Bachelor	-0.1365319
-5.047575	Back	-0.1336772
-5.047575	Backwater	-0.3367009
-4.746544	Bad	-0.2906036
-5.047575	Bagatelle	-0.1364969
-3.725355	Baker	-1.081255
-4.746544	Bakers	-0.108816
-5.047575	Baldwin	-0.1162614
-4.570453	Ballarat	-0.1049947
-4.746544	Balmoral	-0.3380663
-5.047575	Balzac	-0.1362048
-5.047575	Band	-0.1187219
-5.047575	Bangor	-0.1162614
-4.570453	Bank	-0.2644952
-5.047575	Bankers	-0.136236
-4.006182	Bannister	-0.3995985
-4.746544	Bar	-0.1281648
-4.093332	Barclay	-0.3972716
-5.047575	Barclays	-0.1323155
-5.047575	Barnicot	-0.2823774
-5.047575	Baron	-0.1365397
-5.047575	Barons	-0.1281688
-5.047575	Barque	-0.136528
-5.047575	Barrett	-0.1162614
-5.047575	Barton	-0.1162614
-4.746544	Basil	-0.2412369
-5.047575	Basle	-0.1187341
-5.047575	Bathsheba	-0.1331989
-4.746544	Baxter	-0.1115251
-5.047575	Bay	-0.1354914
-4.746544	Bayard	-0.1180685
-5.047575	Bayswater	-0.1365358
-4.746544	Be	-0.1149462
-5.047575	Beacons	-0.1281688
-4.746544	Because	-0.4292932
-4.746544	Becher	-0.1296543
-4.570453	Beckenham	-0.1914069
-4.746544	Beddington	-0.1139879
-4.269423	Beddoes	-0.2294895
-4.570453	Beecher	-0.1112612
-5.047575	Beeches	-0.2973543
-4.746544	Before	-0.2143338
-5.047575	Beg	-0.136528
-5.047575	Behind	-0.1342097
-5.047575	Being	-0.135624
-5.047575	Belgrade	-0.1162614
-5.047575	Bellinger	-0.2906036
-5.047575	Belminster	-0.1162614
-5.047575	Bengal	-0.1365358
-5.047575	Bengalore	-0.1365397
-5.047575	Bentinck	-0.1363762
-5.047575	Bentley	-0.135226
-4.047575	Beppo	-0.2086821
-4.445515	Berkshire	-0.1112942
-5.047575	Bermondsey	-0.1162614
-5.047575	Bermuda	-0.1365397
-5.047575	Bert	-0.1365397
-5.047575	Bertillon	-0.1365086
-5.047575	Beryl	-0.4375697
-5.047575	Beside	-0.4965224
-4.746544	Besides	-1.012453
-4.746544	Better	-0.1361893
-4.746544	Between	-0.3018168
-5.047575	Beverley	-0.1162614
-4.746544	Beyond	-0.3027615
-4.570453	Bhurtee	-0.09408935
-5.047575	Bible	-0.1187341
-5.047575	Biddle	-0.1162614
-5.047575	Bill	-0.1162614
-5.047575	Binomial	-0.1365397
-5.047575	Birchmoor	-0.1162614
-5.047575	Birds	-0.1162614
-4.445515	Birmingham	-0.1685481
-5.047575	Bite	-0.1343858
-4.006182	Black	-0.562341
-4.570453	Blackheath	-0.3367023
-5.047575	Blackwater	-0.1162614
-5.047575	Blandford	-0.1363762
-5.047575	Blaze	-0.2374739
-4.746544	Bless	-0.1293576
-3.817126	Blessington	-0.3253394
-5.047575	Block	-0.1312805
-5.047575	Blood	-0.1187341
-5.047575	Bloomsbury	-0.1331872
-4.570453	Blue	-0.1263197
-5.047575	Blues	-0.1360919
-4.746544	Bob	-0.2923119
-4.746544	Bohemia	-0.3447638
-4.445515	Bohemian	-0.1362165
-5.047575	Bohemianism	-0.1281688
-5.047575	Bond	-0.1363762
-4.348605	Boone	-0.2969671
-4.746544	Boots	-0.4324366
-5.047575	Bordeaux	-0.1162614
-5.047575	Borgia	-0.1365241
-5.047575	Borgias	-0.1187341
-5.047575	Born	-0.3053381
-4.202477	Boscombe	-1.011589
-5.047575	Boswell	-0.1187341
-5.047575	Botany	-0.1365358
-4.746544	Both	-0.212796
-5.047575	Bought	-0.1187341
-5.047575	Boulevard	-0.1365319
-4.746544	Bow	-0.4374062
-5.047575	Boxer	-0.1365358
-4.746544	Brackenstall	-0.2037572
-5.047575	Brackwell	-0.1162614
-4.746544	Bradshaw	-0.09758185
-4.269423	Bradstreet	-0.3920396
-5.047575	Brambletye	-0.4375463
-4.269423	Breckinridge	-0.2860675
-4.348605	Briarbrae	-0.2388977
-4.570453	Bridge	-0.4496707
-5.047575	Briefly	-0.1157227
-4.746544	Bring	-0.3096901
-4.144485	Briony	-1.177925
-4.445515	Bristol	-0.1618156
-4.570453	Britain	-0.194017
-4.746544	Britannica	-0.419764
-4.047575	British	-0.1874041
-4.269423	Brixton	-0.6618065
-5.047575	Broads	-0.0898063
-5.047575	Broken	-0.1365397
-5.047575	Brooding	-0.1354563
-4.348605	Brook	-1.039466
-5.047575	Brotherhood	-0.1185799
-5.047575	Brothers	-0.5131398
-4.570453	Brown	-0.338805
-5.047575	Bruce	-0.1365397
-3.817126	Brunton	-0.3119278
-4.746544	Brussels	-0.1252504
-5.047575	Buda-Pesth	-0.1187341
-4.746544	Builder	-0.5958554
-5.047575	Buildings	-0.1162614
-5.047575	Bull	-0.1162614
-5.047575	Bunsen	-0.1365397
-5.047575	Bureau	-0.1162614
-5.047575	Burglary	-0.4359045
-5.047575	Burnwell	-0.08550686
-5.047575	Busybody	-0.1360529
-4.570453	But	-0.7582583
-4.570453	By	-0.6841884
-5.047575	By-the-way	-0.1162614
-4.570453	C	-0.1125917
-4.746544	C.	-0.1343662
-5.047575	C.A.M.	-0.1162614
-5.047575	C.B.	-0.1162614
-5.047575	C.P.R.	-0.1162614
-4.746544	CA	-0.4375697
-4.570453	CAN	-0.1353041
-5.047575	CARBUNCLE	-0.134288
-4.746544	CASE	-0.1187097
-5.047575	CHARLES	-0.1365397
-5.047575	COLONEL	-0.1187341
-5.047575	CONAN	-1.282668
-5.047575	COPPER	-0.1365397
-5.047575	CORONET	-0.1363606
-4.746544	COULD	-0.1356318
-5.047575	COUPLE	-0.1343741
-4.445515	Cabinet	-0.1106873
-5.047575	Cabul	-0.1187341
-5.047575	Cairns	-0.09725817
-5.047575	Cal.	-0.1162614
-5.047575	Calcutta	-0.1162614
-4.746544	Calhoun	-0.1127562
-4.570453	California	-0.1125876
-5.047575	Californian	-0.1365358
-5.047575	Cam	-0.1355421
-4.746544	Camberwell	-0.11873
-4.348605	Cambridge	-0.3199183
-5.047575	Cambridgeshire	-0.136528
-5.047575	Camden	-0.1365086
-4.746544	Campaign	-0.4172914
-5.047575	Campden	-0.1365086
-4.746544	Can	-0.8485265
-5.047575	Canadian	-0.1365358
-5.047575	Canal	-0.1187341
-5.047575	Cannon	-0.1363762
-4.746544	Canterbury	-0.09610194
-5.047575	Cape	-0.1365163
-4.445515	Capital	-0.7296173
-5.047575	Capsules	-0.1330498
-4.047575	Captain	-0.5708208
-5.047575	Capture	-0.1281688
-5.047575	Carbuncle	-0.1365319
-5.047575	Card	-0.1365319
-5.047575	Cardinal	-0.1365397
-5.047575	Carefully	-0.1332421
-4.570453	Carey	-0.4212987
-5.047575	Carlo	-0.1162614
-5.047575	Carlsbad	-0.1187341
-4.746544	Carlton	-0.1162247
-5.047575	Carolinas	-0.1162614
-5.047575	Carried	-0.1360568
-4.047575	Carruthers	-0.3942628
-5.047575	Carstairs	-0.1162614
-4.746544	Carston	-0.1362282
-4.746544	Cartwright	-0.1154082
-4.746544	Case	-0.1275136
-5.047575	Cassel-Felstein	-0.1162614
-4.746544	Castle	-0.1159677
-5.047575	Cathcart	-0.1365047
-4.746544	Catherine	-0.4375658
-4.746544	Catholic	-0.1365163
-5.047575	Cattle	-0.1343858
-5.047575	Caunter	-0.1162614
-5.047575	Cavalier	-0.1292547
-4.570453	Cavendish	-0.4172547
-5.047575	Cedars	-0.1104807
-5.047575	Celtic	-0.13631
-5.047575	Central	-0.4375619
-4.746544	Certainly	-0.837326
-5.047575	Chair	-0.1331872
-5.047575	Chamber	-0.1162614
-5.047575	Chance	-0.1355304
-5.047575	Chancelleries	-0.1281688
-5.047575	Chapel	-0.1336615
-5.047575	Charasiab	-0.1365008
-4.348605	Charing	-1.136536
-3.933631	Charles	-0.4346423
-4.006182	Charlington	-0.4160784
-5.047575	Charming	-0.1365397
-5.047575	Charybdis	-0.133591
-4.570453	Chatham	-0.1866218
-5.047575	Check	-0.1365047
-4.445515	Chesterfield	-0.1920411
-5.047575	Chesterton	-0.1162614
-4.746544	Chicago	-0.09752226
-5.047575	Chief	-0.1365241
-5.047575	Children	-0.1162614
-4.746544	Chiltern	-0.4375658
-4.348605	China	-0.1650513
-4.746544	Chinese	-0.1365358
-4.570453	Chislehurst	-0.1363645
-4.445515	Chiswick	-0.09505399
-5.047575	Christ	-0.135226
-4.144485	Christmas	-0.2515632
-4.570453	Chronicle	-0.1066365
-4.746544	Chubb	-0.1351713
-4.269423	Church	-0.3503329
-5.047575	Cinnamon	-0.1365008
-4.746544	Circumstantial	-0.4374256
-4.746544	Circus	-0.419764
-4.445515	City	-0.2966233
-5.047575	Civil	-0.6136532
-5.047575	Clair	-0.4272735
-4.570453	Clapham	-0.613661
-5.047575	Clara	-0.1364852
-5.047575	Clark	-0.1365358
-4.746544	Clay	-0.3391656
-5.047575	Clearly	-0.1158207
-5.047575	Clerk	-0.1365358
-5.047575	Close	-0.1310125
-5.047575	Clotilde	-0.1365397
-4.570453	Club	-0.2377726
-5.047575	Clubs	-0.1362672
-5.047575	Clue	-0.13018
-4.746544	Co.	-0.6603172
-5.047575	Coarse	-0.1364424
-5.047575	Cobb	-0.1162614
-4.746544	Coburg	-0.3125687
-5.047575	Cock	-0.2666901
-5.047575	Cocksure	-0.1162614
-5.047575	Coldstream	-0.1365358
-5.047575	Collar	-0.1292547
-4.445515	College	-0.1853183
-3.705152	Colonel	-0.6063891
-5.047575	Colonial	-0.1365047
-5.047575	Colonies	-0.1187341
-5.047575	Colonna	-0.135226
-5.047575	Colony	-0.1281688
-4.746544	Come	-0.5626304
-5.047575	Coming	-0.1343858
-5.047575	Common	-0.1162614
-5.047575	Commons	-0.1162614
-4.445515	Company	-0.5155712
-5.047575	Conan	-0.4375697
-5.047575	Concealment	-0.1360646
-5.047575	Conduit	-0.1363762
-5.047575	Confess	-0.1162614
-5.047575	Conk-Singleton	-0.136528
-5.047575	Conquest	-0.1294407
-4.746544	Consider	-0.3066818
-5.047575	Considering	-0.136236
-4.746544	Constable	-0.1365319
-5.047575	Constabulary	-0.1162614
-5.047575	Contents	-0.1362672
-5.047575	Continent	-0.4161234
-4.746544	Continental	-0.1365086
-5.047575	Contralto	-0.1344953
-4.746544	Convinced	-0.4336362
-5.047575	Cooee	-0.1348745
-5.047575	Cook	-0.1162614
-4.570453	Copper	-1.03963
-5.047575	Coptic	-0.1365397
-5.047575	Coram	-0.3478183
-4.746544	Cornelius	-0.1935798
-4.746544	Cornwall	-0.1107451
-5.047575	Coroner	-1.039357
-5.047575	Coronet	-0.1331911
-5.047575	Corporal	-0.1365125
-4.746544	Corporation	-0.6134974
-5.047575	Cosmopolitan	-0.09757761
-5.047575	Costa	-0.1365397
-4.746544	Could	-0.4552261
-4.746544	Count	-0.3125648
-5.047575	Countess	-0.3166928
-5.047575	Counties	-0.4375619
-5.047575	County	-0.4291988
-4.445515	Court	-0.3524924
-4.570453	Covent	-0.613661
-5.047575	Coventry	-0.09758185
-4.570453	Coxon	-0.4360647
-5.047575	Crane	-0.1365397
-5.047575	Creina	-0.1162614
-5.047575	Creole	-0.136528
-5.047575	Crewe	-0.1187341
-5.047575	Crime	-0.1343897
-5.047575	Crimea	-0.1292547
-4.746544	Crimean	-0.1357371
-5.047575	Criminal	-0.419764
-5.047575	Criminals	-0.1348745
-4.746544	Croker	-0.5747032
-5.047575	Crooked	-0.136528
-4.746544	Crooksbury	-0.4375502
-5.047575	Crosby	-0.1312805
-4.746544	Cross	-0.252856
-5.047575	Crowder	-0.5933827
-4.746544	Crown	-0.2138805
-5.047575	Crystal	-0.1365397
-4.746544	Cubitt	-0.3081686
-4.144485	Cunningham	-0.4469587
-4.570453	Cunninghams	-0.1728584
-4.746544	Cup	-0.3171896
-5.047575	Curse	-0.1312805
-4.746544	Cusack	-0.1132164
-5.047575	Cuvier	-0.1359048
-5.047575	Cyclist	-0.419764
-4.047575	Cyril	-0.4164504
-4.570453	D	-0.1162166
-4.746544	D'you	-0.1362009
-5.047575	D.D.	-0.1162614
-5.047575	DAILY	-0.4375697
-5.047575	DE	-0.1365397
-4.570453	DEAR	-0.7385997
-5.047575	DEAREST	-0.1365397
-5.047575	DEBUTANTE	-0.1281688
-4.746544	DECEMBER	-0.4172914
-5.047575	DEFINITELY	-0.1365397
-5.047575	DETOUR	-0.1355304
-5.047575	DID	-0.134288
-5.047575	DISSOLVED	-0.1187341
-5.047575	DO	-0.1363256
-5.047575	DOES	-0.136528
-5.047575	DOYLE	-0.7853865
-5.047575	Dacre	-0.1365163
-5.047575	Daily	-0.136528
-5.047575	Damp	-0.1355577
-5.047575	Dancing	-0.4375619
-5.047575	Dane	-0.1162614
-5.047575	Danger	-0.1348745
-5.047575	Dantzig	-0.1162614
-5.047575	Darjeeling	-0.1187341
-4.746544	Dark	-0.1361853
-5.047575	Darlington	-0.1365397
-4.269423	Dartmoor	-0.2178734
-5.047575	Data	-0.1348745
-5.047575	Daubensee	-0.1162614
-4.746544	Daulat	-0.4375697
-5.047575	Davenport	-0.1187341
-4.445515	David	-0.1127151
-5.047575	Davos	-0.1365397
-4.570453	Dawson	-0.1253423
-5.047575	Day	-0.135226
-5.047575	De	-0.1365397
-4.746544	Dear	-1.068886
-4.746544	December	-0.1344836
-4.570453	Deep	-0.613661
-5.047575	Deeply	-0.133736
-5.047575	Dei	-0.1187341
-5.047575	Dene	-0.6136298
-5.047575	Depend	-0.1340806
-4.348605	Derbyshire	-0.1886064
-4.348605	Desborough	-0.1912182
-5.047575	Describe	-0.1334499
-5.047575	Deserted	-0.1346439
-5.047575	Desiring	-0.13018
-5.047575	Detective	-0.4359045
-4.746544	Devine	-0.2934525
-4.445515	Devonshire	-0.1123613
-5.047575	Devoy	-0.4172914
-4.570453	Did	-0.7827086
-5.047575	Dieppe	-0.1187341
-5.047575	Dinner	-0.1333519
-4.746544	Diogenes	-0.8355019
-5.047575	Dirty	-0.1331989
-4.746544	Disappearance	-0.1281609
-5.047575	Disease	-0.1331989
-5.047575	Disgraceful	-0.1162614
-5.047575	Disregarding	-0.1346947
-5.047575	Division	-0.1162614
-4.746544	Dixon	-0.5933827
-4.746544	Do	-1.210257
-5.047575	Dock	-0.1292547
-5.047575	Dockyard	-0.1162614
-4.570453	Doctor	-0.7927759
-5.047575	Doctors	-0.136236
-5.047575	Documents	-0.1162614
-4.746544	Does	-0.2068339
-5.047575	Don	-0.1365397
-5.047575	Doncaster	-0.1331989
-5.047575	Done	-0.135507
-4.445515	Donnithorpe	-0.2385288
-5.047575	Dook	-0.1160044
-4.445515	Doran	-0.4702905
-5.047575	Dorking	-0.1331989
-5.047575	Dovercourt	-0.1177069
-5.047575	Down	-0.127283
-5.047575	Downing	-0.1363762
-5.047575	Downs	-0.1162614
-5.047575	Doyle	-0.1187178
-4.746544	Dr	-0.7207941
-3.479373	Dr.	-0.9901976
-5.047575	Draper	-0.135226
-5.047575	Draw	-0.134198
-5.047575	Drink	-0.1352416
-5.047575	Drive	-0.1343858
-4.746544	Drop	-0.1294842
-5.047575	Dubugue	-0.1281688
-4.746544	Duchess	-0.159182
-4.269423	Duke	-0.461309
-5.047575	Dulong	-0.1187341
-4.746544	Duncan	-0.9816144
-5.047575	Dundas	-0.1365358
-4.144485	Dundee	-0.4463362
-4.570453	Dunlop	-0.1906559
-4.746544	During	-0.4240334
-5.047575	Dutch	-0.134061
-4.269423	E	-0.2552302
-4.445515	E.	-0.1364813
-5.047575	E.C	-0.1187341
-5.047575	ELRI.ES	-0.1187341
-5.047575	ELSIE	-0.1365397
-5.047575	EMPLOYEE	-0.1162614
-5.047575	ENGINEER	-0.1365358
-5.047575	ESTABLISHED	-0.1187341
-5.047575	EVIDENCE	-0.136528
-4.746544	Each	-0.2519394
-4.746544	Earl	-0.5333718
-5.047575	Early	-0.1261842
-5.047575	Easier	-0.1312805
-4.269423	East	-0.1976638
-5.047575	East-End	-0.1281688
-5.047575	East-end	-0.1162614
-4.570453	Eastern	-0.1364813
-5.047575	Eat	-0.1331597
-5.047575	Echo	-0.1162614
-5.047575	Edgeware	-0.4375308
-4.445515	Edith	-0.2411308
-4.348605	Eduardo	-1.039595
-5.047575	Educated	-0.1365319
-4.570453	Edward	-0.1292666
-4.570453	Effie	-0.2082413
-5.047575	Eglonitz	-0.1344953
-5.047575	Eglow	-0.1162614
-5.047575	Egria	-0.1187341
-5.047575	Egypt	-0.1162614
-4.746544	Eh	-0.2888474
-4.746544	Eight	-0.1279386
-5.047575	Either	-0.3050886
-5.047575	Electrical	-0.136528
-5.047575	Elementary	-0.1162614
-5.047575	Eley	-0.135226
-4.746544	Elias	-0.129227
-5.047575	Elise	-0.1348745
-5.047575	Elizabethan	-0.1365241
-4.570453	Elrige	-0.6123472
-4.093332	Elsie	-0.08923376
-5.047575	Embankment	-0.1343897
-5.047575	Embassies	-0.1357605
-4.746544	Embassy	-0.2874225
-4.746544	Emperor	-0.09709196
-5.047575	Empire	-0.1355304
-5.047575	Empty	-0.4375386
-4.746544	Encyclopaedia	-0.1360957
-5.047575	End	-0.09744135
-5.047575	Endell	-0.1363762
-5.047575	Engage	-0.1331597
-5.047575	Engaged	-0.1187341
-5.047575	Engineer	-0.135226
-3.968393	England	-0.4474198
-5.047575	Englischer	-0.1365397
-3.792302	English	-0.19684
-4.202477	Englishman	-0.3475468
-5.047575	Englishmen	-0.1335165
-5.047575	Englishwoman	-0.1294407
-5.047575	Enough	-0.1281688
-5.047575	Enter	-0.1312805
-5.047575	Entirely	-0.419764
-5.047575	Escott	-0.1344406
-5.047575	Esq	-0.1187341
-5.047575	Esq.	-0.1162614
-5.047575	Etherege	-0.1162614
-4.570453	Eton	-0.3053024
-4.348605	Europe	-0.3745307
-4.144485	European	-0.3124246
-4.746544	Eustace	-0.27349
-5.047575	Euston	-0.1187341
-5.047575	Eva	-0.1127356
-4.570453	Evans	-0.2847123
-4.746544	Even	-0.4452014
-4.746544	Evening	-0.136528
-5.047575	Eventually	-0.1162614
-4.746544	Every	-0.213023
-5.047575	Everybody	-0.1323076
-5.047575	Everything	-0.3075136
-5.047575	Evidence	-0.1281688
-4.746544	Evidently	-0.2542922
-5.047575	Evil	-0.136528
-5.047575	Ex-President	-0.1365397
-5.047575	Exactly	-0.8041596
-5.047575	Examine	-0.1351479
-5.047575	Exceedingly	-0.135585
-4.746544	Excellent	-1.065793
-4.746544	Except	-0.132618
-5.047575	Exchange	-0.1365008
-4.746544	Excuse	-1.089242
-5.047575	Exeter	-0.1162614
-5.047575	Exit	-0.1312805
-5.047575	Experience	-0.1162614
-5.047575	Extremely	-0.135585
-4.202477	Eyford	-0.2665992
-4.746544	Ezekiah	-0.4374957
-5.047575	F.H.M	-0.1187341
-5.047575	FEBRUARY	-0.1162614
-5.047575	FIANCEE	-0.1344953
-5.047575	FIVE	-0.1365397
-5.047575	FRESH	-0.1365397
-5.047575	FRIESLAND	-0.1162614
-4.746544	FROM	-0.4323105
-5.047575	Faber	-0.1343897
-5.047575	Face	-0.1365319
-5.047575	Faces	-0.13018
-5.047575	Failing	-0.1359749
-5.047575	Failure	-0.1162614
-4.746544	Fairbank	-0.1129165
-5.047575	Fall	-0.5958554
-4.746544	Falmouth	-0.1164857
-5.047575	Familiar	-0.133736
-5.047575	Family	-0.1363606
-5.047575	Fancy	-0.134378
-5.047575	Far	-0.6104261
-5.047575	Fareham	-0.1294407
-5.047575	Farewell	-0.1162614
-4.746544	Farintosh	-0.4172914
-4.746544	Farm	-0.2909643
-5.047575	Farm-house	-0.13018
-4.269423	Farnham	-0.4482374
-5.047575	Farquhar	-0.1162614
-5.047575	Farrington	-0.1363762
-5.047575	Fashionable	-0.1365397
-5.047575	Fate	-0.1343741
-5.047575	Father	-0.1333519
-4.445515	February	-0.2518836
-5.047575	Feeling	-0.136458
-5.047575	Fenchurch	-0.4374062
-4.746544	Ferguson	-0.1108649
-5.047575	Ferrers	-0.1365397
-5.047575	Ferrier	-0.1139879
-5.047575	Few	-0.1279306
-5.047575	Fifty	-0.1364073
-4.746544	Fighting	-0.914691
-5.047575	Filled	-0.1330498
-5.047575	Final	-0.1365397
-4.746544	Finally	-0.8107424
-5.047575	Financial	-0.1365358
-5.047575	Find	-0.1358619
-5.047575	Finding	-0.3081512
-5.047575	Fine	-0.1365163
-5.047575	Finns	-0.1292547
-5.047575	Fire	-0.8338445
-4.570453	First	-0.5292397
-4.202477	Fitzroy	-0.9816066
-4.570453	Five	-0.3926188
-5.047575	Flaubert	-0.1364735
-4.570453	Fleet	-0.6134974
-4.202477	Flora	-0.433369
-5.047575	Florence	-0.1330498
-4.570453	Florida	-0.09442829
-5.047575	Flowers	-0.1344953
-5.047575	Fly	-0.1336615
-5.047575	Folk	-0.1356903
-5.047575	Follow	-0.1349995
-5.047575	Following	-0.3051797
-5.047575	Fool	-0.1326062
-5.047575	Footmarks	-0.1281688
-5.047575	Footsteps	-0.1361932
-4.570453	For	-0.6233355
-4.202477	Forbes	-0.4482973
-5.047575	Force	-0.1187341
-4.570453	Fordham	-0.1155757
-5.047575	Fordingbridge	-0.1365358
-4.746544	Fordingham	-0.1299824
-4.570453	Foreign	-0.835498
-4.445515	Forest	-0.4365682
-5.047575	Forgery	-0.1187341
-5.047575	Forgive	-0.1352416
-5.047575	Formerly	-0.1365358
-5.047575	Forrester	-0.1162614
-5.047575	Fortescue	-0.1365397
-5.047575	Fortunately	-0.1162614
-5.047575	Fortune	-0.1355304
-5.047575	Found	-0.1331597
-4.746544	Four	-0.1932895
-4.746544	Fournaye	-0.3299921
-4.746544	Fowler	-0.1039092
-4.445515	France	-0.3312408
-4.570453	Francis	-0.1365163
-5.047575	Francisco	-0.4172914
-5.047575	Franco-Midland	-0.8355097
-5.047575	Franco-Prussian	-0.1365319
-3.933631	Frank	-0.263349
-5.047575	Frankly	-0.4172914
-4.746544	Fraser	-0.2327662
-5.047575	Freebody	-0.1162614
-5.047575	Freemason	-0.4172914
-5.047575	Freemasonry	-0.1331989
-3.901447	French	-0.2095643
-5.047575	Frenchman	-0.135546
-5.047575	Frequently	-0.1187341
-5.047575	Fresh	-0.1365163
-5.047575	Fresno	-0.4374062
-4.269423	Friday	-0.2712437
-4.746544	Fritz	-0.1348628
-4.746544	From	-0.4212309
-4.746544	G	-0.1335283
-5.047575	GIBRALTAR	-0.09758185
-5.047575	GLOBE	-0.1362165
-5.047575	GO	-0.1187341
-4.746544	GRAPHIC	-0.6587095
-5.047575	GUILT	-0.1365397
-4.746544	Game	-0.1252304
-5.047575	Gang	-0.1187341
-5.047575	Garden	-0.2948213
-5.047575	Gardens	-0.1162614
-5.047575	Gate	-0.1131671
-5.047575	Gazetteer	-0.1187341
-4.348605	Gelder	-0.6717962
-5.047575	Gemmi	-0.1162573
-4.570453	General	-0.3126115
-5.047575	Geneva	-0.1187341
-5.047575	Geneve	-0.1343858
-5.047575	Gentlemen	-0.1162614
-4.269423	George	-0.6027419
-5.047575	Georgia	-0.09758185
-3.901447	German	-0.2822428
-5.047575	German-speaking	-0.1364151
-5.047575	Germans	-0.1187341
-4.746544	Get	-0.3342327
-5.047575	Getting	-0.132618
-5.047575	Gigantic	-0.1365047
-4.093332	Gilchrist	-0.4582553
-5.047575	Gill	-0.4375697
-4.746544	Give	-0.5429398
-5.047575	Giving	-0.1365008
-4.746544	Gladstone	-0.4375308
-5.047575	Glancing	-0.1326455
-5.047575	Globe	-0.1162614
-4.570453	Gloria	-0.7385958
-5.047575	Gloves	-0.1162614
-4.746544	Go	-0.1338339
-3.649635	God	-0.6841172
-3.649635	Godfrey	-0.5171755
-4.144485	Godolphin	-1.136376
-5.047575	Gold	-0.1162614
-5.047575	Golden	-0.4375697
-4.570453	Gone	-0.1039428
-4.570453	Good	-0.7413465
-5.047575	Good-afternoon	-0.4172914
-5.047575	Good-by	-0.1148439
-5.047575	Good-bye	-0.4640787
-4.746544	Good-day	-0.4106212
-5.047575	Good-evening	-0.3986118
-5.047575	Good-morning	-0.5933827
-4.746544	Good-night	-0.2210407
-5.047575	Goodge	-0.4374062
-5.047575	Goodwins	-0.1292547
-4.445515	Gordon	-0.2397826
-4.570453	Gorot	-0.291291
-4.746544	Got	-0.1349643
-5.047575	Gothic	-0.1365358
-5.047575	Gottsreich	-0.1365397
-4.746544	Government	-0.4172914
-5.047575	Governor	-0.1281688
-4.445515	Grace	-0.4813755
-5.047575	Gradually	-0.1162614
-5.047575	Graham	-0.1292547
-5.047575	Grand	-0.1365203
-4.746544	Grange	-0.1677748
-4.348605	Grant	-0.98163
-5.047575	Granting	-0.1326062
-5.047575	Grave	-0.1361932
-4.445515	Gravesend	-0.1088907
-5.047575	Gray	-0.135226
-4.445515	Great	-0.3124051
-4.570453	Grecian	-0.1361464
-4.746544	Greece	-0.1110301
-4.006182	Greek	-0.1783927
-5.047575	Greenwich	-0.1187341
-4.269423	Gregory	-0.4462676
-5.047575	Gregson	-0.108621
-5.047575	Grenoble	-0.1162614
-5.047575	Gresham	-0.1365397
-5.047575	Grice	-0.1365397
-5.047575	Grimesby	-1.039618
-5.047575	Grit	-0.1294407
-5.047575	Groat	-0.135226
-5.047575	Gross	-0.1365125
-4.570453	Grosvenor	-0.1364502
-5.047575	Grove	-0.1365008
-4.746544	Guards	-0.1150934
-5.047575	Guild	-0.1259569
-5.047575	Gustave	-0.1365397
-4.445515	H	-0.09505825
-4.348605	H.	-0.1303181
-4.570453	HAD	-0.1278274
-5.047575	HAMPSTEAD	-0.1187341
-5.047575	HAND	-0.1187341
-4.746544	HAVE	-0.1343662
-5.047575	HE	-0.136162
-5.047575	HERE	-0.1365358
-5.047575	HIM	-0.1187341
-4.570453	HOLMES	-0.6366439
-5.047575	HOPKINS	-0.1187341
-4.570453	HUNTER	-0.2945373
-4.570453	Ha	-1.17521
-4.746544	Had	-0.4202383
-5.047575	Hafiz	-0.133736
-5.047575	Hague	-0.1362165
-4.746544	Half	-0.3288147
-4.746544	Half-past	-0.135936
-5.047575	Halfway	-0.1355811
-5.047575	Halifax	-0.1162614
-3.871484	Hall	-0.6288469
-4.746544	Hallamshire	-0.1350034
-4.746544	Halloa	-0.8926635
-5.047575	Ham	-0.1292547
-4.570453	Hammersmith	-0.1146188
-4.445515	Hampshire	-0.168671
-4.348605	Hampstead	-0.2733111
-5.047575	Handsome	-0.1331989
-5.047575	Hankey	-0.135226
-5.047575	Hanover	-0.4375386
-5.047575	Harden	-0.1162614
-4.445515	Harding	-0.3684356
-5.047575	Hardly	-0.3083949
-5.047575	Hardware	-0.835498
-4.570453	Hardy	-0.7183214
-5.047575	Hare	-0.1363723
-5.047575	Hargreave	-0.1162614
-4.269423	Harker	-0.3135863
-4.746544	Harley	-0.4374062
-4.570453	Harold	-0.3070644
-5.047575	Harpooner	-0.1331989
-4.570453	Harris	-0.1127398
-4.570453	Harrison	-0.2299929
-4.746544	Harrow	-0.2736731
-4.445515	Harry	-0.4375269
-4.746544	Has	-0.2779683
-3.901447	Hatherley	-0.4432915
-5.047575	Hatty	-0.6136493
-5.047575	Havana	-0.1162614
-4.746544	Have	-0.938902
-4.746544	Having	-0.3305787
-5.047575	Hay	-0.136528
-4.144485	Hayes	-0.144238
-5.047575	Hayling	-0.1162614
-4.570453	Hayter	-0.1052165
-5.047575	Hayward	-0.1162614
-4.348605	He	-0.6764684
-5.047575	Head	-0.136528
-5.047575	Head-keeper	-0.1364696
-4.445515	Heath	-0.2395215
-3.933631	Heaven	-0.4043094
-4.746544	Heavens	-0.2906036
-5.047575	Heavy	-0.1365241
-5.047575	Hebrew	-0.1365397
-4.570453	Hebron	-0.2736731
-5.047575	Hector	-0.7385569
-5.047575	Heh	-0.1331989
-4.348605	Heidegger	-0.4157512
-5.047575	Heir	-0.1292547
-4.445515	Helen	-0.2394347
-4.746544	Help	-0.2550476
-5.047575	Hence	-0.1136023
-4.746544	Henri	-0.6136571
-4.144485	Henry	-0.5684082
-4.570453	Her	-0.1676118
-5.047575	Hercules	-0.419764
-5.047575	Herder	-0.115588
-4.746544	Here	-0.7827041
-4.746544	Hereford	-0.1292468
-4.746544	Herefordshire	-0.1185556
-5.047575	Herr	-0.1365241
-5.047575	Hers	-0.1343741
-5.047575	High	-0.6134974
-5.047575	Highness	-0.13018
-5.047575	Highway	-0.1187341
-4.570453	Hilda	-0.4109441
-4.269423	Hill	-0.1701548
-5.047575	Hills	-0.1331989
-4.093332	Hilton	-1.037031
-5.047575	Himalayas	-0.1162614
-4.348605	His	-0.3222249
-5.047575	Histon	-0.1162614
-5.047575	Hitherto	-0.132111
-5.047575	Hof	-0.1162614
-4.746544	Holborn	-0.09758185
-4.746544	Hold	-0.3487578
-4.269423	Holder	-0.642142
-4.093332	Holdernesse	-0.4924517
-5.047575	Holdhurst	-0.3862872
-5.047575	Holiness	-0.1312805
-5.047575	Holland	-0.09758185
-5.047575	Hollows	-0.1187341
-5.047575	Holly	-0.1355304
-2.947204	Holmes	-0.7659763
-5.047575	Holy	-0.1365319
-5.047575	Honoria	-0.1365397
-5.047575	Honour	-0.1187341
-4.570453	Honourable	-0.5042984
-5.047575	Hood	-0.1162614
-5.047575	Hooliganism	-0.133591
-4.445515	Hope	-0.2956271
-3.746545	Hopkins	-0.5905813
-5.047575	Hopley	-0.1365241
-4.570453	Horace	-0.5418833
-4.006182	Horner	-0.307907
-5.047575	Horrified	-0.1310677
-4.348605	Horsham	-0.4954367
-4.144485	Hosmer	-0.6093484
-5.047575	Hospital	-0.1162614
-4.202477	Hotel	-0.2385355
-4.093332	House	-0.3599373
-5.047575	Houses	-0.1281688
-4.570453	How	-0.6582525
-4.570453	Howells	-0.2702021
-4.746544	However	-1.077114
-3.768821	Hudson	-0.4005427
-4.445515	Hugh	-0.5344602
-5.047575	Huguenot	-0.1365358
-4.570453	Hullo	-0.5916336
-4.746544	Hum	-1.390147
-5.047575	Human	-0.1364424
-5.047575	Hungarian	-0.1364619
-4.144485	Hunter	-0.3501645
-5.047575	Huret	-0.1162614
-4.570453	Hurlstone	-0.199726
-5.047575	Hurrah	-0.1348745
-4.570453	Huxtable	-0.4606974
-5.047575	Hyde	-0.1365241
-2.285647	I	-1.029259
-4.746544	I.	-0.132229
-5.047575	IDENTITY	-0.1363606
-4.445515	II	-0.7207941
-5.047575	II.	-0.1344953
-4.445515	III	-0.7207941
-5.047575	III.	-0.1344953
-5.047575	IMPORTANT	-0.1365397
-4.746544	IN	-0.1365358
-5.047575	IRENE	-0.1365397
-4.445515	IS	-0.1323194
-5.047575	IT	-0.432212
-4.570453	IV	-0.5958554
-5.047575	IV.	-0.1344953
-4.570453	IX	-0.5958554
-5.047575	IX.	-0.1344953
-5.047575	Identity	-0.1365319
-5.047575	Idiot	-0.1326062
-4.746544	If	-0.8643155
-5.047575	Imagine	-0.2904152
-5.047575	Imitated	-0.1187341
-5.047575	Immediately	-0.136458
-4.746544	Imperial	-0.1365358
-4.746544	Important	-0.1169949
-4.746544	Impossible	-0.5124524
-4.445515	In	-0.6361954
-5.047575	Incidentally	-0.134288
-5.047575	Incredible	-0.1365397
-4.746544	Indeed	-0.9049935
-4.348605	India	-0.3016209
-4.006182	Indian	-0.2214207
-4.746544	Indians	-0.1154409
-5.047575	Indirectly	-0.1334499
-5.047575	Inference	-0.1344953
-4.445515	Inn	-0.3336065
-5.047575	Inner	-0.1365358
-4.746544	Inquiries	-0.1349682
-5.047575	Inquiry	-0.1333519
-5.047575	Insensibly	-0.135265
-5.047575	Inside	-0.3091176
-3.768821	Inspector	-0.4057544
-4.746544	Instead	-0.6052901
-5.047575	Interlaken	-0.1162614
-5.047575	International	-0.1162614
-5.047575	Internationals	-0.1187341
-4.746544	Interpreter	-0.1162533
-5.047575	Into	-0.4351419
-5.047575	Ionides	-0.1281688
-4.093332	Irene	-0.8418713
-5.047575	Iris	-0.1186448
-5.047575	Irish	-0.1365358
-5.047575	Irish-setter	-0.1162614
-4.746544	Is	-0.6403511
-4.445515	Isa	-0.4197397
-5.047575	Islander	-0.1294407
-5.047575	Isle	-0.1281688
-4.144485	It	-1.194123
-4.047575	Italian	-0.2003826
-4.746544	Italians	-0.1272472
-4.746544	Italy	-0.1209265
-5.047575	Its	-0.1362438
-4.746544	Ivy	-0.1365241
-4.269423	J	-0.4197154
-5.047575	J.	-0.1365358
-5.047575	J.H.N	-0.1187341
-4.570453	J.P.	-0.2913074
-5.047575	JABEZ	-0.1365397
-5.047575	JANUARY	-0.1162614
-5.047575	JEPHRO	-0.1365397
-5.047575	JULY	-0.1162614
-5.047575	JUNE	-0.1162614
-4.570453	Jabez	-0.8354513
-4.144485	Jack	-0.3797601
-5.047575	Jack-in-office	-0.1348745
-4.746544	Jackson	-0.1342371
-4.570453	Jacobs	-0.2909352
-3.585177	James	-0.3967485
-4.570453	Jane	-0.2923445
-5.047575	Janet	-0.1365397
-4.570453	January	-0.4007143
-5.047575	Japan	-0.1187341
-4.746544	Japanese	-0.2333952
-4.746544	Jem	-0.1124395
-5.047575	Jeremiah	-0.1365397
-4.746544	Jeremy	-0.4375658
-5.047575	Jersey	-0.1294407
-5.047575	Jew	-0.135226
-5.047575	Jewel	-0.1365319
-5.047575	Jezail	-0.1365008
-5.047575	Jingo	-0.1348745
-4.746544	Johann	-0.133195
-4.746544	Johannesburg	-0.09758185
-3.685847	John	-0.4949503
-5.047575	Johnnie	-0.134288
-5.047575	Johnson	-0.1162614
-5.047575	Joint	-0.117845
-4.445515	Jonas	-1.250448
-4.202477	Jones	-0.2756113
-3.817126	Joseph	-0.3056625
-5.047575	Josiah	-0.4375619
-4.746544	Journal	-0.1359555
-4.570453	Jove	-0.8926636
-5.047575	Jowaki	-0.1365358
-5.047575	Juan	-0.1162614
-5.047575	Jubilee	-0.1162614
-4.746544	Julia	-0.3051559
-4.570453	July	-0.1137172
-5.047575	Jump	-0.1075196
-5.047575	Junction	-0.2736731
-4.202477	June	-0.3597353
-5.047575	Jungle	-0.1162614
-5.047575	Juryman	-0.1362672
-4.570453	Just	-0.2257939
-5.047575	Justice	-0.1281688
-4.570453	K	-0.1065406
-4.269423	K.	-0.5120631
-5.047575	K.G.	-0.1162614
-5.047575	KILLED	-0.1364774
-5.047575	KNEW	-0.1326062
-4.746544	KNOW	-0.1293853
-4.445515	Kate	-0.1148275
-5.047575	Keep	-0.1326062
-5.047575	Kemp	-0.1344953
-5.047575	Kennedy	-0.1162614
-4.445515	Kennington	-0.6063324
-4.348605	Kensington	-0.2630709
-5.047575	Kensington.	-0.1344953
-4.570453	Kent	-0.4652008
-5.047575	Kentish	-0.1363879
-5.047575	Khalifa	-0.1331872
-5.047575	Khartoum	-0.1162614
-5.047575	Kilburn	-0.2736731
-5.047575	Kill	-0.1334499
-5.047575	Kimberley	-0.13018
-4.746544	Kindly	-0.1766031
-3.968393	King	-0.4529141
-5.047575	Kirwan	-0.1694468
-5.047575	Klan	-0.1152488
-4.746544	Klux	-0.4375697
-5.047575	Knowing	-0.1290805
-5.047575	Known	-0.13018
-5.047575	Kramm	-0.09758185
-4.570453	Kratides	-0.2736731
-5.047575	Ku	-0.1365358
-4.570453	L	-0.2915322
-5.047575	L.	-0.1365319
-5.047575	L10	-0.1365008
-5.047575	L200	-0.1187341
-5.047575	L300	-0.1187341
-5.047575	L500	-0.1187341
-5.047575	LATER.	-0.1344953
-5.047575	LEAGUE	-0.1339944
-5.047575	LESLIE	-0.1365397
-5.047575	LESTRADE	-0.1187341
-5.047575	LIP	-0.136528
-5.047575	LOUD	-0.1365319
-4.746544	La	-0.1365358
-4.570453	Laburnum	-0.1365241
-4.570453	Lachine	-0.2220179
-3.901447	Lady	-0.7774166
-5.047575	Lady-day	-0.1162614
-5.047575	Lancashire	-0.1292547
-4.570453	Lancaster	-0.2225163
-4.445515	Lane	-0.4078817
-5.047575	Langham	-0.1361308
-5.047575	Langmere	-0.1162614
-4.746544	Lanner	-0.09758185
-5.047575	Large	-0.1162043
-4.269423	Lascar	-0.2844465
-4.746544	Last	-0.2152653
-4.746544	Lat	-0.419764
-4.746544	Late	-0.1256936
-4.570453	Latimer	-0.235518
-5.047575	Lattice-paned	-0.1162614
-5.047575	Lauder	-0.1162614
-4.445515	Leadenhall	-0.8353462
-4.570453	League	-0.2873053
-5.047575	Leaning	-0.1343858
-4.570453	Leatherhead	-0.2188478
-4.746544	Leave	-0.1310441
-5.047575	Leaving	-0.1365163
-5.047575	Lebanon	-0.1162614
-4.348605	Lee	-0.5330786
-5.047575	Left	-0.134378
-5.047575	Legation	-0.1331989
-5.047575	Legion	-0.1281688
-5.047575	Leone	-0.136162
-4.746544	Leslie	-0.9146754
-3.503507	Lestrade	-0.6221143
-5.047575	Lesurier	-0.1162614
-4.746544	Let	-0.9578587
-5.047575	Letter	-0.1340649
-5.047575	Leuk	-0.1162614
-5.047575	Leverstoke	-0.1162614
-5.047575	Lewisham	-0.1364891
-5.047575	Lexington	-0.1140043
-5.047575	Lhassa	-0.1292547
-5.047575	Liberal	-0.133736
-5.047575	Lie	-0.1365047
-4.746544	Lieutenant	-0.1281569
-4.746544	Light	-0.1331558
-5.047575	Light-houses	-0.1162614
-5.047575	Like	-0.1320599
-5.047575	Limited	-0.3986118
-5.047575	Lip	-0.1365319
-4.746544	Listen	-0.5075312
-5.047575	Little	-0.1361269
-4.746544	Liverpool	-0.3192475
-5.047575	Living	-0.1294407
-5.047575	Llama	-0.1187341
-5.047575	Lloyd	-0.135226
-5.047575	Local	-0.1364969
-4.570453	Lodge	-0.4142954
-5.047575	Logic	-0.1343897
-5.047575	Lombard	-0.1363762
-3.357378	London	-0.4682503
-4.746544	Londoners	-0.1148357
-5.047575	Lone	-0.4375619
-4.746544	Long	-0.1187219
-4.746544	Look	-0.7085047
-5.047575	Looking	-0.2588901
-3.503507	Lord	-0.8001179
-5.047575	Lordship	-0.1187341
-5.047575	Lothman	-0.1365319
-5.047575	Louisiana	-0.1162614
-4.348605	Lower	-0.5344096
-5.047575	Lowther	-0.4375658
-4.047575	Lucas	-0.1995676
-5.047575	Lucerne	-0.1162614
-5.047575	Lucky	-0.1356708
-5.047575	Lucretia	-0.1365358
-4.445515	Lucy	-0.2389389
-5.047575	Luke	-0.6123472
-5.047575	Luxembourg	-0.1292547
-5.047575	Lyon	-0.1365319
-5.047575	Lyons	-0.1327123
-4.746544	Lysander	-0.9816338
-4.746544	M	-0.1148807
-4.570453	M.	-0.2923445
-5.047575	M.A.	-0.1162614
-5.047575	MAGAZINE	-1.250483
-5.047575	MAGNUM	-0.1365397
-5.047575	MAN	-0.1365397
-5.047575	MARCH	-0.1162614
-5.047575	MARY	-0.1187341
-5.047575	MAY	-0.1162614
-5.047575	MCFARLANE	-0.1365358
-5.047575	MEET	-0.1365397
-5.047575	MEMOIRS	-0.1365203
-5.047575	MENAGE	-0.1343897
-5.047575	MILVERTON	-0.1162614
-5.047575	MISS	-0.1365319
-5.047575	MORAN	-0.1162614
-5.047575	MORNING	-0.1365397
-5.047575	MR.	-0.4375541
-5.047575	MURDER	-0.1365358
-5.047575	MUST	-0.1361737
-4.746544	MY	-0.3118479
-5.047575	MYSTERY	-0.136528
-4.746544	MacPherson	-0.09758185
-4.570453	Mackleton	-0.2064184
-5.047575	Madam	-0.2923323
-4.746544	Madame	-0.1162573
-5.047575	Mademoiselle	-0.135226
-5.047575	Madman	-0.1162614
-5.047575	Madness	-0.1162614
-5.047575	Madrid	-0.1162614
-5.047575	Mafia	-0.09687878
-5.047575	Maggie	-0.1127562
-4.445515	Majesty	-0.3191572
-4.202477	Major	-0.5044853
-5.047575	Major-General	-0.136528
-5.047575	Make	-0.4341897
-5.047575	Making	-0.1357605
-5.047575	Malay	-0.136528
-5.047575	Male	-0.1365241
-5.047575	Mall	-0.571631
-5.047575	Malplaquet	-0.1340806
-4.445515	Man	-0.2375222
-5.047575	Manchester	-0.1363762
-4.445515	Manor	-0.5386468
-5.047575	Mansions	-0.1162614
-4.746544	Many	-0.2821575
-4.348605	Mapleton	-0.6094226
-5.047575	Marbank	-0.4172914
-4.445515	March	-0.2899725
-5.047575	Marengo	-0.1162614
-5.047575	Margate	-0.1363606
-5.047575	Mark	-0.1326062
-5.047575	Marker	-0.2872245
-5.047575	Market	-0.1187341
-4.746544	Married	-0.1348588
-5.047575	Marseilles	-0.1162614
-5.047575	Marsham	-0.1162614
-4.570453	Martin	-0.3369884
-3.843455	Mary	-0.2789576
-5.047575	Marylebone	-0.136528
-4.445515	Master	-0.1359243
-5.047575	Mathematical	-0.1365397
-5.047575	Matheson	-0.1162614
-5.047575	Mathews	-0.1162614
-5.047575	Matters	-0.1343897
-5.047575	Maudsley	-0.1162614
-5.047575	Maupertuis	-0.1357605
-5.047575	Mauritius	-0.1187341
-4.144485	Mawson	-0.8863618
-4.269423	May	-0.3334573
-4.746544	Maybe	-0.3506559
-4.746544	Maynooth	-0.108621
-3.817126	McCarthy	-0.3352655
-4.746544	McCarthys	-0.3112665
-4.746544	McCauley	-0.1161717
-3.968393	McFarlane	-0.3206569
-5.047575	McLaren	-0.1187341
-5.047575	McQuire	-0.135226
-5.047575	Meaning	-0.1326062
-5.047575	Meanwhile	-0.6826522
-5.047575	Mecca	-0.1162614
-5.047575	Medical	-0.1365358
-5.047575	Mediterranean	-0.1187341
-4.445515	Meiringen	-0.3159381
-4.570453	Melas	-0.4030677
-5.047575	Melbourne	-0.1162614
-5.047575	Memoirs	-0.1330498
-4.570453	Men	-0.2869107
-5.047575	Mendicant	-0.1365397
-5.047575	Meredith	-0.1162614
-5.047575	Mereer	-0.1162614
-5.047575	Merridew	-0.1281688
-5.047575	Merrow	-0.1162614
-4.746544	Merryweather	-0.4119899
-5.047575	Metropolitan	-0.1365008
-5.047575	Meunier	-0.1162614
-5.047575	Mexico	-0.1187341
-5.047575	Middle	-0.1365397
-5.047575	Middlesex	-0.09758185
-5.047575	Midland	-0.1365397
-5.047575	Midlands	-0.1152284
-5.047575	Might	-0.7652686
-4.746544	Miles	-0.1292507
-5.047575	Millar	-0.311655
-5.047575	Milner	-0.1292547
-3.667363	Milverton	-0.3344723
-5.047575	Mind	-0.1346439
-5.047575	Minerals	-0.1294407
-4.445515	Minister	-0.1610614
-5.047575	Ministers	-0.1342762
-5.047575	Misfortunes	-0.1362672
-3.357378	Miss	-0.7702975
-4.746544	Missing	-0.2923486
-5.047575	Mission	-0.135507
-5.047575	Mister	-0.1363723
-5.047575	Mistress	-0.1292547
-4.348605	Mitton	-0.2844257
-4.445515	Mme	-0.7207941
-5.047575	Moffat	-0.1187341
-5.047575	Molesey	-0.136528
-3.768821	Monday	-0.5705278
-5.047575	Monica	-0.2849073
-5.047575	Monsieur	-0.1365358
-4.746544	Montague	-0.3124558
-5.047575	Montana	-0.1162614
-4.746544	Months	-0.1292903
-5.047575	Montpelier	-0.1162614
-5.047575	Moor	-0.1121349
-5.047575	Moorhouse	-0.1162614
-5.047575	Morally	-0.1162614
-4.047575	Moran	-0.2777953
-5.047575	Morcar	-0.2523848
-4.746544	More	-0.4966057
-5.047575	Morgan	-0.1312805
-3.817126	Moriarty	-0.2778413
-4.746544	Morning	-0.3126154
-5.047575	Morris	-0.1176947
-4.746544	Morrison	-0.2932452
-4.202477	Morse	-1.090712
-4.348605	Mortimer	-0.2060786
-4.570453	Morton	-0.2401221
-4.746544	Most	-0.349835
-5.047575	Mother	-0.1331715
-4.445515	Moulton	-0.3986118
-5.047575	Mount-James	-0.5686665
-4.269423	Mr	-1.882162
-3.014151	Mr.	-0.9828539
-4.570453	Mrs	-0.7207941
-3.414106	Mrs.	-0.7462217
-5.047575	Munich	-0.1312805
-4.570453	Munro	-0.1846568
-5.047575	Munsters	-0.1139592
-4.445515	Murder	-0.2471027
-5.047575	Murdered	-0.1331989
-5.047575	Murillo	-0.1162614
-5.047575	Murphy	-0.2312582
-5.047575	Murray	-0.1162614
-4.570453	Museum	-0.2389102
-3.901447	Musgrave	-0.469452
-4.746544	Musgraves	-0.1335479
-5.047575	Music	-0.1364852
-5.047575	Must	-0.134288
-5.047575	Mutiny	-0.292214
-4.746544	My	-0.5052329
-3.933631	Mycroft	-0.3874202
-5.047575	Myrtles	-0.114115
-4.445515	Mystery	-0.3344281
-4.746544	N	-0.4172914
-5.047575	N'T	-0.136049
-5.047575	N.	-0.1365358
-5.047575	NEVILLE	-0.1187341
-4.746544	NN	-0.1288785
-5.047575	NOBLE	-0.1365397
-5.047575	NORTON	-0.1162614
-4.746544	NOT	-0.1362282
-5.047575	NOVEMBER	-0.1162614
-5.047575	NOVO	-0.1292547
-5.047575	Name	-0.1312805
-4.269423	Nancy	-0.1859804
-5.047575	Naples	-0.1162614
-4.348605	Napoleon	-0.2467429
-4.746544	Napoleonic	-0.136493
-5.047575	Napoleons	-0.419764
-5.047575	Narbonne	-0.1292547
-4.746544	Naturally	-0.2712651
-4.570453	Nature	-0.1101665
-4.570453	Naval	-0.613661
-5.047575	Nay	-0.4172914
-4.570453	Near	-0.3059946
-5.047575	Nearer	-0.1312805
-4.746544	Nearly	-0.2293787
-4.746544	Ned	-0.129409
-5.047575	Negro	-0.1187341
-4.746544	Neill	-0.1266503
-4.746544	Neither	-0.1751691
-4.348605	Neligan	-0.1338574
-5.047575	Nepaul	-0.1362944
-5.047575	Nervous	-0.1365086
-5.047575	Netherland-Sumatra	-0.136528
-4.746544	Never	-0.287057
-4.093332	Neville	-0.9124119
-4.348605	New	-0.3325891
-4.746544	Newhaven	-0.2736731
-4.746544	News	-0.4172914
-5.047575	Newton	-0.135226
-4.746544	Next	-0.3117816
-5.047575	Night	-0.1286844
-5.047575	Nights	-0.1162614
-5.047575	Nihilist	-0.1365086
-5.047575	Nihilists	-0.1162614
-5.047575	Nimes	-0.1162614
-4.202477	No	-0.8550831
-5.047575	Noble	-0.1365397
-5.047575	Nonconformist	-0.1365241
-4.746544	None	-0.447763
-4.746544	Nor	-0.1851437
-5.047575	Norah	-0.1365397
-4.570453	Norbury	-0.3171296
-4.144485	Norfolk	-0.2953272
-5.047575	Norman	-0.1365397
-4.570453	North	-0.3270694
-5.047575	Northern	-0.136528
-4.570453	Northumberland	-0.3123078
-4.746544	Norton	-0.2695105
-4.570453	Norway	-0.1162003
-4.746544	Norwegian	-0.1364657
-4.570453	Norwich	-0.1137788
-4.006182	Norwood	-0.4024178
-5.047575	Nos	-0.1187341
-4.746544	Not	-0.4150897
-4.570453	Nothing	-0.3580894
-5.047575	Noticed	-0.1362438
-5.047575	Nous	-0.1365397
-5.047575	Nov	-0.1187341
-5.047575	Nova	-0.1365397
-5.047575	November	-0.1187341
-4.570453	Now	-0.8842154
-5.047575	Nursed	-0.1352807
-4.746544	O	-0.3986118
-5.047575	OCTOBER	-0.1162614
-4.269423	OF	-0.9323652
-5.047575	ONCE	-0.1162614
-5.047575	OPUS	-0.1344953
-5.047575	ORANGE	-0.1365397
-5.047575	OVERTON	-0.1187341
-5.047575	Oakington	-0.1357527
-4.570453	Oakshott	-0.355494
-5.047575	Oberstein	-0.1162614
-4.746544	Obviously	-0.2553793
-5.047575	Occasionally	-0.1334499
-5.047575	Occurrence	-0.1331872
-5.047575	Ocean	-0.136384
-4.570453	October	-0.09757761
-5.047575	Odd	-0.1162614
-5.047575	Odessa	-0.1294407
-4.570453	Of	-0.8639011
-5.047575	Off	-0.134288
-4.746544	Office	-0.4874731
-5.047575	Officer	-0.1294407
-5.047575	Often	-0.1334499
-4.445515	Oh	-1.525493
-4.570453	Old	-0.406106
-4.047575	Oldacre	-0.3770795
-4.348605	On	-0.7391763
-4.746544	Once	-0.3086991
-4.445515	One	-0.4956688
-4.570453	Only	-0.3348207
-5.047575	Open	-0.1334499
-5.047575	Opening	-0.128149
-4.144485	Openshaw	-0.1705444
-5.047575	Opera	-0.1281688
-5.047575	Oporto	-0.1187341
-5.047575	Opposite	-0.1320796
-4.746544	Or	-0.1871625
-5.047575	Orange	-0.1365397
-5.047575	Order	-0.1270961
-5.047575	Ordering	-0.1346947
-5.047575	Oriental	-0.1365047
-5.047575	Orientals	-0.1356903
-5.047575	Origin	-0.1281688
-4.746544	Ormstein	-0.4172914
-5.047575	Oscar	-0.1365397
-5.047575	Oscillation	-0.1340806
-4.746544	Other	-0.1362165
-5.047575	Others	-0.1351831
-5.047575	Otherwise	-0.1296187
-4.746544	Our	-0.3186935
-5.047575	Out	-0.5521728
-5.047575	Outrage	-0.1187341
-5.047575	Outside	-0.3292061
-5.047575	Over	-0.4301184
-4.269423	Overton	-0.3259235
-5.047575	Owe	-0.1348745
-5.047575	Owns	-0.135507
-3.968393	Oxford	-0.6925504
-5.047575	Oxfordshire	-0.1162614
-4.570453	P	-0.1086168
-4.746544	P.	-0.1364813
-5.047575	P.C	-0.1187341
-5.047575	PIPS	-0.1365319
-5.047575	PORTIERE	-0.1331872
-5.047575	POST	-0.13018
-5.047575	Pa	-0.1363178
-4.746544	Pacific	-0.136528
-4.348605	Paddington	-0.1776099
-5.047575	Paisley	-0.1365358
-5.047575	Palace	-0.1162614
-4.269423	Pall	-1.090782
-5.047575	Palladio	-0.1187341
-4.570453	Palmer	-0.2041133
-5.047575	Palmer-tyred	-0.1162614
-5.047575	Pals	-0.1281688
-5.047575	Panama	-0.1364463
-5.047575	Pancras	-0.1365163
-5.047575	Paradol	-0.1365397
-4.746544	Paramore	-0.09758185
-4.202477	Paris	-0.1992838
-5.047575	Parisian	-0.1364619
-4.348605	Park	-0.6016723
-4.445515	Parker	-0.2389266
-4.746544	Parliament	-0.1164735
-5.047575	Parr	-0.4172914
-5.047575	Pass	-0.1162614
-5.047575	Passing	-0.1355811
-5.047575	Patersons	-0.1294407
-5.047575	Patience	-0.1365047
-5.047575	Patient	-0.1292389
-4.202477	Patrick	-0.4833809
-5.047575	Patterson	-0.1326062
-5.047575	Pattins	-0.1187341
-4.445515	Paul	-0.2584788
-5.047575	Paulo	-0.1162614
-5.047575	Peace	-0.1364852
-5.047575	Peak	-0.1364151
-5.047575	Peculiar	-0.1344953
-5.047575	Peeping	-0.1352533
-5.047575	Peering	-0.1287953
-5.047575	Penang-lawyer	-0.1365319
-5.047575	Pencils	-0.1162614
-5.047575	Pending	-0.1312805
-5.047575	Pennsylvania	-0.1162614
-5.047575	Pentonville	-0.1187341
-5.047575	People	-0.136384
-5.047575	Perceiving	-0.1331597
-4.006182	Percy	-0.5278552
-5.047575	Perfectly	-0.135585
-4.746544	Perhaps	-0.4869051
-4.746544	Persia	-0.09758185
-4.570453	Persian	-0.4375113
-5.047575	Personally	-0.134288
-3.817126	Peter	-0.6560154
-5.047575	Petersfield	-0.1187341
-4.269423	Peterson	-0.3695025
-5.047575	Petrarch	-0.1162614
-5.047575	Petrified	-0.1330498
-5.047575	Petty	-0.1365397
-5.047575	Ph.D.	-0.1162614
-3.968393	Phelps	-0.4135988
-4.746544	Philadelphia	-0.1186935
-5.047575	Philosophy	-0.1162614
-5.047575	Pickwick	-0.135226
-4.269423	Pietro	-0.1039848
-5.047575	Pince-Nez	-0.419764
-5.047575	Pink	-0.1365008
-5.047575	Pinkerton	-0.1365203
-4.202477	Pinner	-0.3469926
-5.047575	Pioneers	-0.1187341
-5.047575	Pipes	-0.1357605
-5.047575	Pips	-0.1365319
-4.445515	Pitt	-0.7384362
-4.570453	Place	-0.294801
-5.047575	Plant	-0.1336615
-5.047575	Plantagenet	-0.1364502
-5.047575	Plate	-0.1365319
-5.047575	Platz	-0.1162614
-5.047575	Play	-0.1365125
-5.047575	Please	-0.136162
-5.047575	Plumb	-0.1294407
-5.047575	Plural	-0.1348745
-5.047575	Plymouth	-0.1331872
-5.047575	Poe	-0.135226
-4.570453	Police	-0.2923486
-5.047575	Police-Constable	-0.1365397
-5.047575	Police-constable	-0.1365397
-5.047575	Pollock	-0.1364852
-4.202477	Pompey	-0.1663597
-4.570453	Pondicherry	-0.409846
-5.047575	Pooh	-0.1145123
-5.047575	Pool	-0.4896537
-5.047575	Poor	-0.1358697
-4.348605	Pope	-0.5311115
-5.047575	Portsdown	-0.1365203
-5.047575	Portsmouth	-0.1364112
-5.047575	Portuguese	-0.1365163
-4.746544	Possibly	-0.08869085
-4.746544	Post	-0.1095829
-5.047575	Posted	-0.1364463
-5.047575	Potter	-0.135226
-5.047575	Powdered	-0.1365125
-5.047575	Prague	-0.1336615
-4.746544	Pray	-0.5335971
-5.047575	Precisely	-0.8235319
-4.570453	Premier	-0.2050659
-4.202477	Prendergast	-0.2224064
-5.047575	Presently	-0.5324275
-5.047575	President	-0.1292547
-4.570453	Press	-0.2397335
-4.746544	Presuming	-0.4336362
-4.746544	Price	-0.1127562
-5.047575	Prima	-0.1365397
-4.746544	Prime	-1.09077
-4.746544	Prince	-0.1278711
-5.047575	Princess	-0.1162614
-5.047575	Principal	-0.1281688
-5.047575	Pringle	-0.1162614
-4.746544	Priory	-0.6115071
-5.047575	Pritchard	-0.1351831
-5.047575	Private	-0.1365358
-5.047575	Probably	-0.222831
-5.047575	Problem	-0.1365125
-5.047575	Problems	-0.1360919
-5.047575	Proceed	-0.1162614
-3.792302	Professor	-0.584504
-5.047575	Promise	-0.1284861
-5.047575	Proosia	-0.1162614
-5.047575	Prosper	-0.1187341
-5.047575	Providence	-0.1364151
-5.047575	Pshaw	-0.1145123
-5.047575	Public	-0.1365086
-5.047575	Pugilist	-0.1187341
-4.746544	Pull	-0.311165
-5.047575	Pullman	-0.1365397
-5.047575	Punjab	-0.1162614
-5.047575	Purely	-0.1365319
-5.047575	Puritan	-0.1344953
-5.047575	Purple	-0.1365008
-4.746544	Put	-0.2537776
-5.047575	Putting	-0.1329596
-4.746544	Puzzle	-0.1337046
-4.269423	Pycroft	-0.4489953
-5.047575	Pyland	-0.4388449
-5.047575	Queen	-0.1365397
-5.047575	Queer	-0.1363762
-4.746544	Quick	-0.6585804
-5.047575	Quiet	-0.1162614
-5.047575	Quincey	-0.135226
-5.047575	Quite	-0.9055178
-5.047575	R	-0.1162614
-4.746544	R.	-0.1361853
-5.047575	RED-HEADED	-0.613661
-5.047575	RETURN	-1.282648
-4.746544	ROCK	-0.2923282
-5.047575	RUCASTLE	-0.1187341
-4.348605	Rachel	-0.5324236
-4.746544	Ragged	-0.6136571
-5.047575	Railway	-0.1162614
-5.047575	Rain	-0.1343741
-4.269423	Ralph	-0.4172017
-4.445515	Randall	-0.1119455
-4.746544	Randalls	-0.1127562
-5.047575	Ras	-0.4172914
-5.047575	Rasper	-0.1187341
-5.047575	Ratcliff	-0.1365397
-4.746544	Rather	-0.1357137
-4.746544	Read	-0.4344799
-4.047575	Reading	-0.3795778
-5.047575	Really	-0.5124524
-5.047575	Recently	-0.1350425
-4.746544	Red	-0.1364502
-4.746544	Red-headed	-0.6136415
-5.047575	Regency	-0.1187341
-4.570453	Regent	-0.259989
-5.047575	Reginald	-0.6136104
-4.746544	Reichenbach	-0.2919773
-4.746544	Reigate	-0.1294328
-5.047575	Relations	-0.1351831
-5.047575	Relieved	-0.1162614
-4.746544	Remember	-0.2031794
-5.047575	Remo	-0.1187341
-4.746544	Republican	-0.1364579
-4.746544	Resident	-0.4375697
-5.047575	Restaurant	-0.1162614
-5.047575	Results	-0.1360568
-5.047575	Retired	-0.1340649
-5.047575	Return	-0.1365319
-5.047575	Returning	-0.13018
-4.570453	Reuben	-0.9146637
-5.047575	Reuter	-0.135226
-5.047575	Rhodesia	-0.1187341
-5.047575	Rhodesian	-0.1365319
-5.047575	Rhone	-0.1162614
-5.047575	Rica	-0.1162614
-5.047575	Richard	-0.1364774
-5.047575	Ricoletti	-0.1281688
-5.047575	Riding	-0.1365358
-4.445515	Ridling	-0.7385958
-4.570453	Right	-0.2528773
-5.047575	Ripley	-0.1162614
-4.746544	Ritual	-0.2464448
-5.047575	River	-0.1294407
-4.006182	Road	-0.7046165
-5.047575	Roaring	-0.1365125
-4.570453	Robbery	-0.2946185
-4.570453	Robert	-0.4172262
-5.047575	Robinson	-0.1162614
-5.047575	Rockies	-0.1162614
-5.047575	Roman	-0.1365358
-4.348605	Ronald	-0.7182969
-5.047575	Room	-0.1162614
-5.047575	Rooms	-0.1357527
-4.746544	Rosenlaui	-0.2736731
-4.202477	Ross	-0.442148
-5.047575	Rothiere	-0.1162614
-5.047575	Rotterdam	-0.1187341
-5.047575	Roughly	-0.1365397
-5.047575	Round	-0.1317806
-4.746544	Row	-0.08865177
-4.570453	Royal	-0.4375619
-4.445515	Roylott	-0.3382761
-5.047575	Roylotts	-0.4291988
-4.202477	Rucastle	-0.2675114
-4.746544	Rucastles	-0.1326848
-5.047575	Rue	-0.1365397
-5.047575	Rugby	-0.1365203
-5.047575	Rugger	-0.1365203
-5.047575	Run	-0.1355811
-5.047575	Running	-0.1353275
-5.047575	Rushing	-0.1354563
-4.746544	Russell	-0.1351908
-5.047575	Russia	-0.1162614
-4.269423	Russian	-0.1932828
-5.047575	Russo-German	-0.1365397
-5.047575	Ruston	-0.09758185
-4.269423	Ryder	-0.2716032
-4.746544	S	-0.292214
-4.570453	S.	-0.1363801
-5.047575	SAW	-0.1312805
-5.047575	SCANDAL	-0.1365358
-4.570453	SEA	-0.9816378
-5.047575	SEBASTIAN	-0.1162614
-5.047575	SEPTEMBER	-0.1162614
-4.746544	SHERLOCK	-1.391804
-5.047575	SIMON	-0.1187341
-5.047575	SIR	-0.1365358
-5.047575	SL.NE	-0.1187341
-5.047575	SLANE	-0.1187341
-5.047575	SLANEY	-0.1187341
-5.047575	SPECKLED	-0.1365397
-5.047575	ST	-0.1187341
-5.047575	STANLEY	-0.1365397
-5.047575	STRAND	-1.250483
-5.047575	Saddle	-0.1331597
-5.047575	Saffron	-0.1365203
-4.746544	Saltire	-0.1843301
-5.047575	Same	-0.1362711
-5.047575	Samuel	-0.1187341
-4.445515	San	-0.2614706
-5.047575	Sand	-0.1187341
-5.047575	Sandeford	-0.3179507
-5.047575	Sarasate	-0.1365319
-4.006182	Saturday	-0.1824237
-5.047575	Saturdays	-0.1187341
-4.746544	Saunders	-0.419764
-4.445515	Savannah	-0.1843649
-4.746544	Save	-0.230682
-5.047575	Saviour	-0.135226
-4.445515	Saxe-Coburg	-0.9146598
-5.047575	Saxe-Meningen	-0.1162614
-4.746544	Saxon	-0.1365047
-5.047575	Say	-0.1250666
-5.047575	Scala	-0.1162614
-5.047575	Scandal	-0.1294407
-5.047575	Scandinavia	-0.2736731
-5.047575	Scarlet	-0.8944127
-5.047575	Scholarship	-0.1187341
-5.047575	School	-0.3986118
-5.047575	Scot	-0.1348745
-4.570453	Scotch	-0.2612292
-5.047575	Scotch-woman	-0.1187341
-5.047575	Scotia	-0.1162614
-3.933631	Scotland	-1.173551
-4.746544	Scott	-0.2057634
-5.047575	Scott_	-0.2655463
-5.047575	Scoundrel	-0.1348745
-5.047575	Scylla	-0.1292547
-5.047575	Sea	-0.1187341
-5.047575	Seated	-0.1294407
-5.047575	Sebastian	-0.4375347
-4.746544	Second	-0.4767886
-4.348605	Secretary	-0.1476606
-4.746544	See	-0.4810968
-4.746544	Seeing	-0.3033862
-5.047575	Seems	-0.13018
-5.047575	Seen	-0.1312805
-5.047575	Seizing	-0.1346947
-5.047575	Seldom	-0.3117582
-4.746544	Send	-0.1295594
-5.047575	September	-0.1162614
-4.445515	Sergeant	-0.2613305
-5.047575	Sergius	-0.1127562
-4.570453	Serpentine	-0.2913155
-4.746544	Serpentine-mews	-0.4172914
-5.047575	Serve	-0.1349995
-4.746544	Served	-0.4304707
-5.047575	Set	-0.1312805
-5.047575	Seven	-0.1346283
-4.746544	Several	-0.2336095
-5.047575	Severn	-0.1162614
-5.047575	Shaftesbury	-0.1365319
-4.746544	Shall	-0.3707701
-5.047575	Sharp	-0.1331872
-4.746544	Shaw	-0.3986118
-4.570453	She	-0.4585559
-5.047575	Sheeny	-0.135507
-5.047575	Sheep-marks	-0.1354914
-3.404122	Sherlock	-1.450454
-5.047575	Sherpur	-0.1162614
-5.047575	Shetland	-0.1365203
-5.047575	Shillings	-0.1357527
-4.746544	Shipping	-0.1365202
-5.047575	Sholto	-0.1364268
-5.047575	Sholtos	-0.1187341
-4.746544	Shortly	-0.7380427
-5.047575	Shot	-0.1359087
-4.746544	Should	-0.3712227
-5.047575	Show	-0.1357722
-5.047575	Showing	-0.1326062
-4.746544	Siberia	-0.09511393
-5.047575	Sidelights	-0.1343858
-5.047575	Sierra	-0.1365397
-5.047575	Sigerson	-0.1162614
-5.047575	Sigismond	-0.1365319
-5.047575	Sign	-0.6052901
-5.047575	Sikhs	-0.1162614
-4.269423	Silas	-0.9146832
-4.047575	Silver	-1.250483
-4.746544	Simon	-0.3293127
-5.047575	Simply	-0.1344406
-4.093332	Simpson	-0.1463761
-4.746544	Since	-0.1878835
-5.047575	Singleford	-0.135226
-5.047575	Singularity	-0.1343897
-3.792302	Sir	-0.5658795
-4.746544	Sit	-0.8345511
-4.570453	Six	-0.2319251
-4.445515	Slaney	-0.4462075
-5.047575	Slater	-0.1162614
-5.047575	Sleepy	-0.1365397
-5.047575	Slipping	-0.1359087
-5.047575	Slowly	-0.1219984
-5.047575	Smack	-0.1348745
-5.047575	Small	-0.1162614
-5.047575	Smart	-0.1363412
-4.144485	Smith	-0.3856599
-5.047575	Smith-Mortimer	-0.1365125
-5.047575	Snake-catcher	-0.1343897
-5.047575	Snapping	-0.1359788
-4.570453	So	-0.5072328
-4.047575	Soames	-0.4143144
-5.047575	Society	-0.1162614
-5.047575	Sold	-0.1351323
-5.047575	Solitary	-0.4375697
-4.570453	Some	-0.2725016
-5.047575	Somebody	-0.1364696
-4.746544	Someone	-0.271634
-4.746544	Something	-0.1828369
-4.746544	Sometimes	-0.3790784
-5.047575	Somomy	-0.1365125
-5.047575	Son	-0.1281688
-5.047575	Sooner	-0.135546
-4.445515	Sophy	-0.1169786
-4.746544	Sorry	-0.6073012
-5.047575	Sound	-0.133736
-4.144485	South	-0.4404778
-4.570453	Southampton	-0.1131959
-4.746544	Southern	-0.3126076
-5.047575	Southerton	-0.135226
-5.047575	Southsea	-0.1187341
-5.047575	Sovereign	-0.1359009
-5.047575	Spare	-0.1349995
-4.445515	Spaulding	-0.1498652
-5.047575	Speak	-0.1351323
-4.746544	Speaking	-0.1365163
-5.047575	Speckled	-0.4375697
-5.047575	Spence	-0.4375619
-5.047575	Spies	-0.1292547
-5.047575	Splendid	-0.1348745
-4.093332	Square	-0.4457565
-5.047575	Squatted	-0.1343858
-4.746544	St	-0.419764
-3.871484	St.	-0.9895504
-5.047575	Stain	-0.2223758
-5.047575	Stamford	-0.1162614
-5.047575	Stand	-0.1331165
-4.746544	Standard	-0.09758185
-5.047575	Standing	-0.1272472
-3.933631	Stanley	-1.567829
-4.570453	Star	-0.3401385
-4.746544	Stark	-0.107973
-5.047575	Stars	-0.1292547
-5.047575	Starving	-0.1187341
-4.746544	State	-0.1334812
-4.746544	States	-0.1127356
-4.006182	Station	-0.4686325
-4.144485	Staunton	-0.2915753
-5.047575	Stay	-0.1361152
-4.570453	Steiler	-0.1279823
-5.047575	Step	-0.1339474
-4.746544	Stepney	-0.3986118
-5.047575	Stepping	-0.1351323
-5.047575	Stevens	-0.1162614
-4.746544	Stevenson	-0.1140043
-4.746544	Stewart	-0.5933827
-5.047575	Stick	-0.1331872
-4.746544	Still	-0.5574555
-4.746544	Stock	-0.4375697
-5.047575	Stock-Broker	-0.135226
-4.445515	Stoke	-1.177897
-5.047575	Stolen	-0.09758185
-4.445515	Stoner	-0.3553798
-4.746544	Stop	-0.1223162
-5.047575	Stoper	-0.2690632
-3.901447	Straker	-0.3938834
-4.746544	Strand	-0.3403962
-5.047575	Strange	-0.1162614
-5.047575	Stranger	-0.135226
-4.746544	Strasburg	-0.11873
-4.570453	Streatham	-0.108106
-3.414106	Street	-0.5384163
-5.047575	Striding	-0.1359087
-5.047575	Stripes	-0.1187341
-5.047575	Strong	-0.4347659
-5.047575	Stroud	-0.1365319
-5.047575	Stuarts	-0.1187341
-5.047575	Students	-0.419764
-4.445515	Study	-0.9075919
-5.047575	Subtle	-0.1361932
-5.047575	Suburban	-0.4375619
-4.746544	Such	-0.4827997
-4.746544	Suddenly	-0.5783367
-5.047575	Suez	-0.1365397
-5.047575	Summer	-0.1365397
-5.047575	Sunday	-0.134288
-4.746544	Sunday-school	-0.1361853
-5.047575	Suppose	-0.2518359
-5.047575	Supposing	-0.1326062
-5.047575	Sure	-0.1361932
-4.570453	Surely	-0.3460176
-5.047575	Surprise	-0.1333519
-4.269423	Surrey	-0.1805866
-4.202477	Susan	-0.1560717
-5.047575	Suspicion	-0.1280458
-4.348605	Sussex	-0.2398567
-4.746544	Sutherland	-0.3475208
-4.746544	Sutton	-0.09758185
-5.047575	Swain	-0.1161717
-5.047575	Swan	-0.1343623
-4.348605	Swandam	-1.039618
-5.047575	Sweet	-0.1364073
-5.047575	Swiftly	-0.1269608
-5.047575	Swindon	-0.1162614
-4.570453	Swiss	-0.1342332
-4.746544	Switzerland	-0.1146884
-4.570453	Sydenham	-0.2697813
-5.047575	Sydney	-0.1162614
-5.047575	Syndicate	-0.419764
-5.047575	Syria	-0.1292547
-4.445515	T	-0.2335514
-5.047575	T.	-0.1162614
-5.047575	TELEGRAPH	-0.4172914
-4.746544	THAT	-0.1330106
-4.006182	THE	-0.595948
-5.047575	THIS	-0.136458
-5.047575	THUMB	-0.1365319
-5.047575	THY	-0.1365397
-5.047575	TIMES	-0.116241
-4.445515	TO	-0.1364891
-5.047575	TOWERS	-0.1162614
-5.047575	TRUE	-0.136384
-5.047575	TWISTED	-0.1365397
-5.047575	TWO	-0.1365241
-5.047575	Taciturn	-0.1162614
-5.047575	Tadpole	-0.1364112
-4.746544	Take	-0.3629789
-5.047575	Taking	-0.1312805
-5.047575	Tall	-0.1331989
-4.746544	Tangey	-0.111521
-5.047575	Tankerville	-0.1162492
-5.047575	Tarleton	-0.1365241
-5.047575	Tarlton	-0.09758185
-4.202477	Tavistock	-0.2937702
-5.047575	Technically	-0.1162614
-4.570453	Teddy	-0.1104766
-4.746544	Telegraph	-0.108621
-4.746544	Tell	-0.6447802
-4.746544	Temple	-0.2155548
-4.746544	Ten	-0.2606525
-5.047575	Tennessee	-0.1162614
-5.047575	Terai	-0.1364969
-4.570453	Terrace	-0.2641864
-4.746544	Terrible	-0.134808
-5.047575	Terror	-0.1344953
-5.047575	Terse	-0.1292547
-4.746544	Testament	-0.4172914
-5.047575	Teutonic	-0.136236
-5.047575	Texas	-0.1162614
-5.047575	Thames	-0.2872286
-4.746544	Thank	-1.213645
-5.047575	Thanks	-0.13018
-4.445515	That	-0.692642
-3.901447	The	-0.4075734
-5.047575	Theatre	-0.1187341
-4.746544	Their	-0.1356357
-4.570453	Then	-0.799728
-5.047575	Thence	-0.1350425
-5.047575	Theological	-0.136528
-5.047575	Theorem	-0.1162614
-5.047575	Theories	-0.1357605
-4.746544	There	-1.237035
-5.047575	Therefore	-0.320689
-5.047575	Therein	-0.1364657
-4.202477	Theresa	-0.2684518
-4.746544	These	-0.2969713
-4.746544	They	-0.5274646
-5.047575	Thick	-0.1365241
-5.047575	Things	-0.1330067
-4.746544	Think	-0.4286866
-4.746544	Third	-0.1159677
-5.047575	Thirty	-0.1363762
-4.570453	This	-0.4165866
-5.047575	Thoreau	-0.135226
-4.746544	Thorneycroft	-0.4375619
-4.746544	Thorpe	-0.5315859
-4.746544	Those	-0.5575684
-5.047575	Though	-0.1338221
-4.746544	Threadneedle	-0.4374062
-5.047575	Threatens	-0.13018
-4.570453	Three	-0.2345347
-5.047575	Three-Quarter	-0.419764
-5.047575	Three-forty	-0.1343897
-4.746544	Through	-0.6719233
-5.047575	Throw	-0.1312805
-5.047575	Thrust	-0.1328811
-5.047575	Thucydides	-0.1187341
-5.047575	Thumb	-0.1365319
-4.445515	Thursday	-0.3046765
-4.746544	Thurston	-0.1164735
-5.047575	Thus	-0.1336928
-5.047575	Tibet	-0.1162614
-5.047575	Time	-0.1333519
-5.047575	Times	-0.1288746
-5.047575	Tingling	-0.1330498
-5.047575	Tiptoes	-0.1348745
-5.047575	Tired	-0.1365047
-5.047575	Tired-looking	-0.135546
-5.047575	Title	-0.1292547
-4.570453	To	-0.3383924
-4.746544	To-day	-0.1841215
-4.746544	To-morrow	-0.3729454
-5.047575	To-night	-0.134288
-4.746544	Tobacco	-0.4302847
-5.047575	Tobin	-0.1162614
-5.047575	Together	-0.4361857
-4.093332	Toller	-0.1855531
-5.047575	Tollers	-0.1363606
-4.746544	Too	-0.378857
-5.047575	Torrington	-0.1365319
-5.047575	Tosca	-0.1344953
-4.445515	Tottenham	-0.738588
-5.047575	Tottering	-0.1292547
-5.047575	Tower	-0.1281688
-5.047575	Towers	-0.1111374
-5.047575	Trafalgar	-0.1365086
-5.047575	Tragic	-0.1162614
-5.047575	Treasury	-0.1361503
-5.047575	Treaty	-0.1160656
-5.047575	Tree	-0.1365397
-5.047575	Tregellis	-0.1162614
-4.570453	Trelawney	-0.9816261
-5.047575	Trepoff	-0.1364268
-4.445515	Trevelyan	-0.194061
-3.871484	Trevor	-0.2284452
-5.047575	Trincomalee	-0.1162614
-4.746544	Trinity	-0.437558
-5.047575	Triple	-0.1365397
-4.746544	Trumpington	-0.112102
-5.047575	Trust	-0.1349995
-4.746544	Try	-0.3073679
-4.746544	Tudor	-0.1343701
-4.144485	Tuesday	-0.4391665
-5.047575	Tunbridge	-0.1365397
-5.047575	Turkish	-0.1365163
-5.047575	Turn	-0.1354563
-4.047575	Turner	-0.4762622
-5.047575	Turning	-0.1325709
-5.047575	Tuson	-0.09758185
-4.746544	Tut	-0.5124524
-5.047575	Tut-tut	-0.1348745
-5.047575	Twelve	-0.1364151
-5.047575	Twenty	-0.135546
-5.047575	Twenty-four	-0.1365047
-5.047575	Twenty-nine	-0.1162614
-5.047575	Twenty-six	-0.1365358
-5.047575	Twenty-two	-0.1365319
-5.047575	Twice	-0.1988376
-5.047575	Twisted	-0.1365397
-4.746544	Two	-0.3014655
-5.047575	U.	-0.1365319
-5.047575	U.S.A.	-0.136236
-5.047575	UNCLE	-0.1362672
-5.047575	UNICORN	-0.4577831
-5.047575	Uffa	-0.1162614
-5.047575	Uncle	-0.1365203
-4.746544	Under	-0.1294763
-5.047575	Under-Secretary	-0.1336615
-5.047575	Underground	-0.1263994
-4.746544	Underneath	-0.1291003
-4.746544	Undoubtedly	-0.5904239
-5.047575	Unemployed	-0.1187341
-5.047575	Unfolding	-0.1334499
-4.746544	Unfortunately	-0.2893323
-5.047575	Union	-0.1187016
-5.047575	United	-0.1365358
-5.047575	Universities	-0.133591
-4.269423	University	-0.1892404
-4.746544	Unless	-0.1267379
-5.047575	Until	-0.2297872
-4.746544	Up	-0.6071076
-4.746544	Upon	-0.4966928
-4.570453	Upper	-0.6136454
-5.047575	Uppingham	-0.135546
-5.047575	Uriah	-0.1292547
-5.047575	V	-0.1162614
-4.348605	V.	-0.2312997
-5.047575	VALLEY	-0.1365397
-5.047575	VERY	-0.1364502
-4.570453	VI	-0.5958554
-5.047575	VI.	-0.1344953
-4.570453	VII	-0.5958554
-5.047575	VII.	-0.1344953
-4.570453	VIII	-0.5958554
-5.047575	VIII.	-0.1344953
-5.047575	VIOLET	-0.1365319
-5.047575	Vale	-0.1162614
-4.570453	Valley	-0.0858963
-5.047575	Vamberry	-0.1162614
-5.047575	Vast	-0.1365358
-5.047575	Vegetarian	-0.1365397
-5.047575	Venezuelan	-0.1365397
-5.047575	Venner	-0.1365125
-4.746544	Venucci	-0.4172914
-5.047575	Verdes	-0.1351831
-4.746544	Vere	-0.1363178
-4.746544	Verner	-0.1129165
-5.047575	Vernet	-0.1162614
-4.445515	Very	-0.4530103
-4.348605	Victor	-0.2735496
-4.269423	Victoria	-0.2838324
-5.047575	Villa	-0.1364112
-5.047575	Villain	-0.1348745
-4.348605	Vincent	-0.6136454
-5.047575	Violence	-0.1279664
-5.047575	Violet	-0.4172262
-5.047575	Visited	-0.1365358
-5.047575	Vitus	-0.436256
-5.047575	Voil	-0.1365319
-5.047575	Vol	-1.232677
-5.047575	Volume	-0.1363606
-4.570453	Von	-0.4375658
-5.047575	Vox	-0.1365397
-5.047575	W.	-0.1365358
-4.746544	WAS	-0.1278552
-4.746544	WE	-0.1341706
-5.047575	WERE	-0.1364852
-5.047575	WESTMINSTER	-0.1187341
-5.047575	WHEN	-0.134288
-5.047575	WILSON	-0.1364112
-5.047575	WITH	-0.1365008
-4.746544	Wait	-0.493375
-5.047575	Waldbaum	-0.1162614
-4.570453	Wales	-0.2736731
-5.047575	Walk	-0.1363489
-5.047575	Wallenstein	-0.1162614
-5.047575	Walsall	-0.1162614
-5.047575	Walsham	-0.1160983
-5.047575	Walsingham	-0.1365163
-5.047575	Want	-0.1348745
-5.047575	Wanted	-0.1162614
-4.570453	War	-0.3190941
-5.047575	Warburton	-0.135226
-5.047575	Ward	-0.1365319
-5.047575	Wardlaw	-0.135226
-5.047575	Warm	-0.1348745
-4.746544	Warsaw	-0.114115
-4.746544	Was	-0.6191007
-5.047575	Water	-0.1162614
-5.047575	Waterbeach	-0.1162614
-4.047575	Waterloo	-0.4908259
-3.843455	Watson	-1.273565
-5.047575	Watt	-0.4374062
-4.445515	We	-0.7531593
-5.047575	Wedding	-0.136236
-5.047575	Wedlock	-0.1365241
-4.269423	Wednesday	-0.2183236
-5.047575	Weiss	-0.1365125
-5.047575	Welbeck	-0.1363762
-4.269423	Well	-1.915231
-5.047575	Well-known	-0.1365358
-5.047575	Wellington	-0.1363762
-5.047575	Wells	-0.1162614
-4.746544	Welsh	-0.1364385
-4.746544	Were	-0.3863051
-4.746544	Wessex	-0.5344719
-5.047575	West	-0.613661
-5.047575	West-End	-0.1364502
-5.047575	West-country	-0.1365319
-5.047575	West-end	-0.1187341
-4.746544	Westaway	-0.1320245
-5.047575	Westbury	-0.1365086
-5.047575	Western	-0.1365397
-4.746544	Westhouse	-0.4375424
-4.445515	Westminster	-0.2725733
-5.047575	Westphail	-0.1162614
-5.047575	Wharf	-0.1162614
-4.445515	What	-0.6825112
-4.746544	Whatever	-0.1248387
-4.570453	When	-0.674265
-4.570453	Where	-0.6264129
-5.047575	Whether	-0.2557502
-4.746544	Which	-0.1543598
-5.047575	While	-0.2282772
-5.047575	Whip	-0.1354173
-4.348605	Whitehall	-0.3401982
-4.269423	Whitney	-0.3936661
-5.047575	Whittington	-0.1187341
-4.746544	Who	-0.459342
-5.047575	Whoa	-0.1162614
-5.047575	Whoever	-0.1333323
-5.047575	Whole	-0.1364696
-4.746544	Whom	-0.2571205
-4.746544	Whose	-0.1127192
-4.746544	Why	-0.9367296
-5.047575	Wight	-0.1187341
-5.047575	Wigmore	-0.1363762
-4.445515	Wilder	-0.2859019
-5.047575	Wilful	-0.136528
-5.047575	Wilhelm	-0.1365397
-4.746544	Will	-0.570696
-3.817126	William	-0.3904705
-5.047575	Williams	-0.290972
-4.269423	Williamson	-0.2185154
-4.269423	Willoughby	-1.090755
-5.047575	Willows	-0.1364735
-4.202477	Wilson	-0.4716481
-5.047575	Wilton	-0.1365125
-5.047575	Wimpole	-0.1363762
-4.202477	Winchester	-0.3484987
-4.445515	Windibank	-0.3515365
-4.746544	Windigate	-0.1052332
-5.047575	Wire	-0.1359126
-4.746544	With	-0.5063825
-5.047575	Within	-0.1217528
-4.746544	Without	-0.2557979
-5.047575	Witness	-0.7894368
-5.047575	Wo	-0.4374879
-4.144485	Woking	-0.1913003
-5.047575	Women	-0.1357605
-5.047575	Wonderful	-0.9799725
-4.348605	Wood	-0.3340304
-5.047575	Wooden-leg	-0.1343741
-5.047575	Woodhouse	-0.436256
-3.871484	Woodley	-0.2822337
-4.570453	Woodman	-0.737286
-5.047575	Work	-0.1343897
-5.047575	Working	-0.1330498
-5.047575	Worship	-0.1162614
-4.746544	Worthingdon	-0.4375541
-4.746544	Would	-0.3046664
-5.047575	Wright	-0.1125794
-5.047575	Written	-0.1294407
-4.570453	X	-0.41976
-5.047575	X.	-0.1344953
-4.570453	XI	-0.5958554
-5.047575	XI.	-0.1344953
-4.746544	XII	-0.419764
-5.047575	XII.	-0.1344953
-5.047575	XIII.	-0.1344953
-4.570453	XXX	-0.1184014
-4.445515	YOU	-0.1153428
-5.047575	Yard	-0.4089123
-4.746544	Yellow	-0.1292072
-4.746544	Yes	-1.913615
-4.746544	Yesterday	-0.09269647
-4.746544	Yet	-0.3402288
-5.047575	York	-0.1352299
-4.445515	You	-0.8345926
-5.047575	Young	-0.1361581
-4.746544	Your	-0.2164143
-4.746544	Yours	-0.6798208
-4.348605	Yoxley	-0.6803352
-5.047575	Zealand	-0.1186976
-5.047575	Zoo	-0.1292547
-4.570453	[	-0.3095255
-4.570453	]	-0.2411716
-4.570453	_Gloria	-0.914691
-4.746544	_Hotspur_	-0.116241
-3.375477	``	-1.028472
-2.110057	a	-0.5618377
-5.047575	a-lying	-0.1294407
-5.047575	a-stampin	-0.136236
-5.047575	a-walkin	-0.136236
-5.047575	a.m.	-0.1363606
-4.746544	aback	-0.2386847
-4.445515	abandon	-0.2225398
-4.445515	abandoned	-0.1308075
-5.047575	abandoning	-0.1357605
-5.047575	abandons	-0.1359944
-4.445515	abduction	-0.09786703
-5.047575	abductor	-0.1333519
-5.047575	aberration	-0.1361698
-5.047575	abetted	-0.1344406
-4.570453	abhorrent	-0.2856824
-5.047575	abhors	-0.133736
-5.047575	abide	-0.1365397
-5.047575	abilities	-0.1111374
-4.348605	ability	-0.2883071
-5.047575	abjure	-0.134378
-3.871484	able	-1.179163
-5.047575	able-bodied	-0.13631
-4.746544	abnormal	-0.108816
-4.746544	abnormally	-0.1364774
-4.746544	aboard	-0.1070367
-4.746544	abode	-0.4291988
-4.570453	abominable	-0.1362749
-5.047575	abomination	-0.1187341
-5.047575	abortive	-0.1187341
-5.047575	abound	-0.1294407
-2.622693	about	-0.6216953
-3.357378	above	-0.5300808
-5.047575	abrasion	-0.1162614
-5.047575	abreast	-0.1281688
-4.348605	abroad	-0.1897141
-4.269423	abrupt	-0.1148398
-4.570453	abruptly	-0.09468554
-5.047575	abruptness	-0.1281688
-5.047575	absconding	-0.1365203
-3.968393	absence	-0.2806613
-4.202477	absent	-0.2249375
-5.047575	absentees	-0.1187341
-3.817126	absolute	-0.2377337
-3.667363	absolutely	-0.2277622
-4.746544	absolved	-0.4350949
-5.047575	absorb	-0.1354524
-4.144485	absorbed	-0.2887653
-5.047575	absorbing	-0.1187341
-5.047575	abstract	-0.1365241
-4.202477	abstracted	-0.1095622
-4.746544	abstruse	-0.606376
-3.901447	absurd	-0.1916267
-4.445515	absurdly	-0.3582405
-4.746544	abundant	-0.1364891
-4.746544	abuse	-0.1333087
-5.047575	abusive	-0.1365397
-4.746544	abutted	-0.4354158
-4.445515	abyss	-0.3157707
-5.047575	academic	-0.1365397
-5.047575	acceding	-0.13018
-4.445515	accent	-0.8177041
-5.047575	accentuated	-0.1351909
-4.269423	accept	-0.1719593
-5.047575	acceptable	-0.1365047
-5.047575	acceptance	-0.4291988
-4.445515	accepted	-0.1120731
-5.047575	accepting	-0.1162614
-4.746544	access	-0.4312099
-5.047575	accessories	-0.1162614
-5.047575	accessory	-0.1095912
-3.968393	accident	-0.3527761
-4.570453	accidental	-0.294805
-4.746544	accidentally	-0.1360295
-4.746544	accidents	-0.1158126
-4.746544	accommodate	-0.1342293
-5.047575	accommodating	-0.1365163
-4.348605	accompanied	-0.3531569
-5.047575	accompaniments	-0.1294407
-4.570453	accompany	-0.2285017
-4.746544	accompanying	-0.134726
-5.047575	accompli	-0.1331989
-4.445515	accomplice	-0.3493742
-4.746544	accomplish	-0.1168076
-4.570453	accomplished	-0.1342254
-5.047575	accomplishment	-0.1187341
-4.746544	accomplishments	-0.1127562
-5.047575	accord	-0.1162614
-5.047575	accordance	-0.1330498
-4.570453	according	-0.9083312
-4.746544	accordingly	-0.1185556
-3.434791	account	-0.8665076
-5.047575	accountant	-0.1161798
-5.047575	accounted	-0.4346915
-4.093332	accounts	-0.2129278
-4.570453	accumulated	-0.1107121
-5.047575	accumulating	-0.1162614
-5.047575	accumulation	-0.1281688
-4.570453	accuracy	-0.1239261
-4.570453	accurate	-0.1132575
-4.746544	accurately	-0.1311978
-4.746544	accursed	-0.1362048
-5.047575	accusation	-0.1331989
-4.570453	accuse	-0.1312687
-4.348605	accused	-0.2443268
-5.047575	accuser	-0.1187341
-4.093332	accustomed	-0.4817582
-5.047575	acetones	-0.1162614
-5.047575	achieved	-0.136123
-5.047575	achievements	-0.1355577
-4.746544	acid	-0.1136803
-5.047575	acid-faced	-0.1365203
-5.047575	acid-stained	-0.1162614
-4.269423	acknowledge	-0.5510513
-5.047575	acknowledged	-0.1326062
-4.746544	acknowledges	-0.131048
-3.901447	acquaintance	-0.3906137
-5.047575	acquaintances	-0.1362516
-4.746544	acquainted	-0.6101711
-5.047575	acquiesce	-0.1294407
-5.047575	acquiesced	-0.1187341
-4.746544	acquiescence	-0.09758185
-5.047575	acquire	-0.135585
-4.570453	acquired	-0.3085168
-5.047575	acquirement	-0.1281688
-4.746544	acquiring	-0.1270563
-4.746544	acquitted	-0.1127438
-4.746544	acres	-0.2860964
-5.047575	acrobat	-0.135546
-3.123295	across	-0.8526859
-3.968393	act	-0.3292935
-3.901447	acted	-0.2788108
-4.093332	acting	-0.3241395
-3.746545	action	-0.3203437
-4.746544	actionable	-0.1136639
-4.269423	actions	-0.1868106
-3.968393	active	-0.2842097
-4.746544	activity	-0.1130192
-4.746544	actor	-0.1138977
-4.746544	actors	-0.3047281
-5.047575	actress	-0.1361308
-4.746544	acts	-0.1253063
-4.570453	actual	-0.1361737
-4.047575	actually	-0.2180318
-5.047575	acumen	-0.134288
-4.746544	acute	-0.1251705
-5.047575	acutely	-0.1365125
-5.047575	adapt	-0.1359944
-5.047575	adaptable	-0.1365203
-4.445515	adapted	-0.2520985
-4.348605	add	-0.3676182
-4.144485	added	-0.2323321
-5.047575	adder	-0.1348745
-5.047575	addicted	-0.13018
-4.570453	adding	-0.1239742
-4.445515	addition	-0.2432456
-5.047575	additional	-0.1364969
-3.817126	address	-0.3849024
-4.202477	addressed	-0.3594182
-5.047575	addresses	-0.1187341
-4.445515	addressing	-0.1162737
-5.047575	adds	-0.1326062
-4.746544	adequate	-0.1185962
-5.047575	adhere	-0.13018
-5.047575	adhesive	-0.1162614
-5.047575	adjective	-0.133591
-5.047575	adjectives	-0.1351831
-5.047575	adjoining	-0.1364424
-4.570453	adjusted	-0.1146188
-5.047575	administered	-0.1364774
-4.570453	administration	-0.1084093
-4.144485	admirable	-0.1698631
-4.269423	admirably	-0.3615733
-4.093332	admiration	-0.3562349
-4.570453	admire	-0.3051797
-5.047575	admired	-0.1346947
-4.746544	admirer	-0.1100051
-4.746544	admirers	-0.132339
-4.570453	admiring	-0.3062317
-4.144485	admit	-0.4142392
-4.746544	admits	-0.1334264
-5.047575	admittance	-0.1187341
-4.202477	admitted	-0.1875625
-5.047575	admitting	-0.1331597
-5.047575	ado	-0.13018
-5.047575	adopt	-0.135585
-4.746544	adopted	-0.1318868
-5.047575	adorn	-0.1312805
-4.746544	adorned	-0.1174019
-5.047575	adrift	-0.1162614
-4.093332	advance	-0.1448531
-4.047575	advanced	-0.1363236
-5.047575	advances	-0.13018
-4.746544	advancing	-0.1339357
-4.006182	advantage	-0.3718855
-4.445515	advantages	-0.1678547
-5.047575	advent	-0.1333519
-3.933631	adventure	-0.381743
-4.202477	adventures	-0.3108569
-5.047575	adventuress	-0.1162614
-5.047575	adventurous	-0.1363528
-5.047575	advertise	-0.1152488
-4.746544	advertised	-0.1131795
-3.871484	advertisement	-0.388658
-4.570453	advertisements	-0.1099803
-4.746544	advertising	-0.1346751
-3.725355	advice	-0.4658061
-4.202477	advise	-0.5909328
-4.445515	advised	-0.1093924
-4.746544	adviser	-0.108621
-5.047575	advises	-0.1187341
-5.047575	advocate	-0.1359555
-5.047575	affably	-0.1187341
-3.667363	affair	-0.3664422
-5.047575	affaire	-0.1365163
-3.968393	affairs	-0.3058181
-4.746544	affect	-0.128724
-5.047575	affectation	-0.1162614
-4.269423	affected	-0.2882262
-5.047575	affecting	-0.13018
-4.348605	affection	-0.1996344
-4.348605	affectionate	-0.08939429
-5.047575	affectionately	-0.1292547
-5.047575	affections	-0.1340649
-4.746544	affliction	-0.127887
-5.047575	affluent	-0.1364774
-4.144485	afford	-0.2972862
-4.570453	afforded	-0.1294763
-4.746544	afoot	-0.1152488
-3.968393	afraid	-0.682051
-5.047575	afresh	-0.1187341
-5.047575	aft	-0.1363645
-2.889212	after	-0.5338464
-5.047575	after-hold	-0.1187341
-5.047575	after-taste	-0.1281688
-3.933631	afternoon	-0.3159132
-3.467791	afterwards	-0.2482565
-2.957669	again	-0.5854607
-2.979389	against	-0.7666953
-3.901447	age	-0.6114914
-4.746544	aged	-0.1362711
-5.047575	agencies	-0.1187341
-4.348605	agency	-0.3273956
-4.006182	agent	-0.1894543
-4.006182	agents	-0.3161651
-5.047575	aggregate	-0.13018
-5.047575	aggressive	-0.1364618
-5.047575	aggressively	-0.1363957
-5.047575	agile	-0.1162614
-4.093332	agitated	-0.1901659
-4.006182	agitation	-0.5891439
-3.901447	ago	-0.5442429
-5.047575	agonies	-0.134288
-4.348605	agony	-0.3377659
-4.348605	agree	-0.8709295
-5.047575	agreeable	-0.1187341
-4.047575	agreed	-0.4287037
-4.746544	agreement	-0.3069658
-5.047575	agrees	-0.1330498
-4.746544	agricultural	-0.1162492
-5.047575	ah	-0.1162614
-4.348605	ahead	-0.3283059
-3.968393	aid	-0.4028549
-4.570453	aided	-0.1197831
-5.047575	ails	-0.1346439
-4.746544	aim	-0.1364034
-5.047575	aimed	-0.6103084
-4.746544	aimless	-0.136528
-5.047575	aims	-0.1364619
-3.570453	air	-0.662995
-4.570453	air-gun	-0.1066907
-4.746544	air-guns	-0.1152488
-5.047575	airs	-0.1187341
-5.047575	airy	-0.1361815
-5.047575	aisle	-0.1360295
-4.746544	ajar	-0.2944155
-4.746544	akimbo	-0.4172914
-4.570453	akin	-0.73224
-4.093332	alarm	-0.3668438
-4.445515	alarmed	-0.2201511
-5.047575	alas	-0.1145123
-4.144485	alert	-0.3609155
-5.047575	alertness	-0.1281688
-5.047575	alias	-0.1187341
-5.047575	alight	-0.1350425
-4.348605	alighted	-0.2676193
-5.047575	alighting	-0.1354914
-4.570453	alike	-0.09392193
-3.817126	alive	-0.4723309
-2.600417	all	-0.4757794
-5.047575	all-comprehensive	-0.136528
-4.746544	all-important	-0.1113767
-4.746544	all-night	-0.3125336
-5.047575	alleging	-0.1326062
-4.746544	alley	-0.1162369
-5.047575	alleys	-0.1294407
-5.047575	alliance	-0.133591
-5.047575	allied	-0.1187341
-5.047575	allotment	-0.133736
-4.047575	allow	-0.2456867
-4.348605	allowance	-0.2681457
-3.901447	allowed	-0.2998515
-4.746544	allowing	-0.1299627
-4.746544	allows	-0.1315365
-4.570453	allude	-0.73224
-4.348605	alluded	-0.2658369
-4.202477	allusion	-1.084422
-4.570453	allusions	-0.6073012
-4.746544	ally	-0.4172914
-3.632601	almost	-0.2610489
-3.404122	alone	-0.4424571
-3.404122	along	-0.4632548
-4.202477	aloud	-0.5022268
-4.746544	alphabet	-0.1145123
-3.600417	already	-0.2207714
-3.196316	also	-0.3706057
-5.047575	altar	-0.1728927
-5.047575	alter	-0.1312805
-5.047575	alteration	-0.1294407
-4.746544	alterations	-0.108816
-4.746544	altercation	-0.1182553
-4.570453	altered	-0.1143321
-4.746544	alternate	-0.4374101
-4.746544	alternately	-0.1363801
-5.047575	alternating	-0.1340649
-5.047575	alternation	-0.1360841
-4.202477	alternative	-0.2964551
-5.047575	alternatives	-0.1331989
-4.348605	although	-0.3146595
-4.047575	altogether	-0.1874569
-5.047575	aluminium	-0.1365397
-5.047575	aluminum	-0.1365397
-3.375477	always	-0.219589
-4.144485	am	-0.543103
-5.047575	amalgam	-0.133591
-5.047575	amassed	-0.1364774
-5.047575	amassing	-0.136458
-4.445515	amateur	-0.1146065
-4.746544	amaze	-0.134374
-4.445515	amazed	-0.1240142
-3.968393	amazement	-0.5544083
-4.269423	amazing	-0.2030036
-5.047575	ambassador	-0.1162614
-4.348605	amber	-0.3318498
-5.047575	ambiguous	-0.1162614
-4.746544	ambition	-0.108621
-5.047575	ambitions	-0.1351831
-5.047575	ambitious	-0.1162614
-5.047575	ambuscade	-0.1187341
-4.746544	amends	-0.1308351
-5.047575	amethyst	-0.1294407
-5.047575	amiability	-0.1187341
-4.202477	amiable	-0.1076029
-3.933631	amid	-0.6806051
-5.047575	amidst	-0.1312805
-4.348605	amiss	-0.2870016
-5.047575	ammonia	-0.1292547
-5.047575	ammunition	-0.1364735
-5.047575	amnesty	-0.1294407
-3.172513	among	-0.8308035
-5.047575	amongst	-0.1312805
-4.093332	amount	-0.404455
-4.570453	amounted	-0.2856824
-5.047575	amounts	-0.13018
-4.746544	ample	-0.1291043
-5.047575	amplifying	-0.1352416
-4.746544	amply	-0.1365047
-5.047575	amuse	-0.1334538
-4.202477	amused	-0.1576264
-4.269423	amusement	-0.3870968
-4.445515	amusing	-0.1086501
-5.047575	amyl	-0.1162614
-2.674663	an	-0.5597121
-5.047575	anaemic	-0.1364891
-4.269423	analysis	-0.3801379
-4.570453	analytical	-0.1363684
-4.746544	analyze	-0.1334107
-5.047575	anatomy	-0.1365397
-4.746544	ancestor	-0.09758185
-4.746544	ancestors	-0.1148357
-5.047575	ancestral	-0.1363567
-5.047575	ancestry	-0.1292547
-4.445515	ancient	-0.1291003
-1.778763	and	-0.404003
-5.047575	angel	-0.1162614
-4.093332	anger	-0.4033479
-4.269423	angle	-0.4883754
-5.047575	angles	-0.1187341
-5.047575	angrily	-0.1187341
-4.006182	angry	-0.2394526
-5.047575	anguish	-0.1331872
-5.047575	angular	-0.1364969
-4.006182	animal	-0.1296359
-4.746544	animals	-0.1161962
-4.746544	animated	-0.1186529
-5.047575	animosity	-0.1331989
-4.746544	aniseed	-0.1329713
-4.570453	ankle	-0.1308588
-5.047575	ankle-deep	-0.1330498
-4.570453	ankles	-0.1256697
-5.047575	annals	-0.1162614
-5.047575	announce	-0.308505
-4.093332	announced	-0.2703592
-4.570453	announcement	-0.1039554
-4.269423	annoyance	-0.3467185
-4.445515	annoyed	-0.2356756
-5.047575	annoying	-0.1162614
-5.047575	annoys	-0.1346439
-5.047575	annual	-0.1364969
-5.047575	anoints	-0.1330498
-5.047575	anomaly	-0.133591
-3.228031	another	-0.2574036
-3.667363	answer	-0.4874661
-5.047575	answerable	-0.13018
-3.600417	answered	-0.7584399
-4.269423	answering	-0.1697511
-4.445515	answers	-0.1393782
-4.746544	antagonist	-0.13217
-5.047575	ante-room	-0.1281688
-4.746544	antecedents	-0.09758185
-5.047575	anteroom	-0.1162614
-4.746544	anticipate	-0.1308746
-4.570453	anticipated	-0.09419664
-4.746544	antics	-0.4291988
-5.047575	antidote	-0.13018
-5.047575	antiquity	-0.13018
-5.047575	anxieties	-0.1187341
-4.047575	anxiety	-0.346393
-3.843455	anxious	-0.5767462
-4.746544	anxiously	-0.1265109
-2.883222	any	-0.3527179
-4.746544	anybody	-0.1351284
-4.746544	anyhow	-0.572877
-3.516096	anyone	-0.3114915
-3.161084	anything	-0.4854227
-4.202477	anywhere	-0.2351056
-4.445515	apart	-0.3958998
-4.348605	apartment	-0.57088
-4.746544	ape	-0.1154695
-5.047575	aperture	-0.22215
-4.570453	apiece	-0.515716
-4.746544	apologies	-0.219367
-5.047575	apologise	-0.13018
-4.570453	apologize	-0.4142711
-5.047575	apologized	-0.13018
-5.047575	apologizing	-0.13018
-4.269423	apology	-0.275993
-5.047575	apoplexy	-0.1187341
-5.047575	appalled	-0.1331872
-5.047575	apparelled	-0.1162614
-4.570453	apparent	-0.1292626
-4.144485	apparently	-0.164405
-4.746544	apparition	-0.1152365
-4.047575	appeal	-0.304844
-4.570453	appealed	-0.73224
-5.047575	appealing	-0.13018
-4.570453	appeals	-0.3056546
-3.768821	appear	-0.6510971
-3.632601	appearance	-0.5938613
-4.746544	appearances	-0.1157881
-3.434791	appeared	-0.5920526
-5.047575	appearing	-0.13018
-3.792302	appears	-0.7138146
-4.445515	appetite	-0.2394388
-4.746544	applause	-0.09758185
-4.570453	apple	-0.08841267
-4.746544	applicant	-0.1299824
-4.570453	application	-0.107815
-4.269423	applied	-0.0989931
-4.348605	apply	-0.3367862
-4.746544	applying	-0.1325512
-4.746544	appointed	-0.1361074
-4.006182	appointment	-0.313261
-5.047575	appreciable	-0.1365358
-4.348605	appreciate	-0.2060227
-4.445515	appreciated	-0.123449
-5.047575	apprehended	-0.1187341
-5.047575	apprehension	-0.1162614
-5.047575	apprenticed	-0.13018
-4.202477	approach	-0.3173992
-4.006182	approached	-0.4519934
-4.144485	approaching	-0.1651536
-4.746544	appropriate	-0.1325041
-5.047575	approve	-0.1187341
-4.570453	approvingly	-0.2934158
-5.047575	apron	-0.1187341
-5.047575	apt	-0.13018
-5.047575	aptitudes	-0.1187341
-4.570453	aquiline	-0.3374122
-5.047575	arable	-0.1365047
-4.746544	arbitrary	-0.1279545
-5.047575	arc-and-compass	-0.1365397
-5.047575	archaeologist	-0.1162614
-4.746544	arched	-0.1362788
-5.047575	architects	-0.1162614
-5.047575	architectural	-0.1365358
-4.746544	architecture	-0.1278671
-5.047575	archways	-0.1292547
-4.570453	ardent	-0.1125876
-5.047575	arduous	-0.1363412
-2.744379	are	-0.3709704
-4.746544	area	-0.1280894
-4.746544	argue	-0.4330348
-5.047575	argued	-0.4336362
-5.047575	argues	-0.1312805
-4.746544	arguing	-0.1132493
-4.047575	argument	-0.2329468
-4.746544	arguments	-0.09758185
-4.746544	aright	-0.2899889
-4.570453	arise	-0.2922426
-5.047575	aristocrat	-0.1326062
-4.269423	aristocratic	-0.1361932
-3.843455	arm	-0.3904777
-4.445515	arm-chair	-0.3752322
-4.269423	armchair	-0.4131249
-5.047575	armchairs	-0.1187341
-4.348605	armed	-0.08293392
-5.047575	armor	-0.1331872
-5.047575	armory	-0.1281688
-4.047575	arms	-0.2222363
-4.348605	army	-0.09749241
-4.746544	arose	-0.09758185
-3.933631	around	-0.3994668
-4.445515	arouse	-0.2542964
-3.968393	aroused	-0.4445463
-4.348605	arrange	-0.179499
-3.968393	arranged	-0.2394957
-4.746544	arrangement	-0.1249147
-4.445515	arrangements	-0.09348805
-5.047575	arranges	-0.1326062
-5.047575	arranging	-0.134378
-4.746544	array	-0.4291988
-5.047575	arrears	-0.1281688
-4.047575	arrest	-0.2938929
-3.843455	arrested	-0.3380066
-4.445515	arresting	-0.1282799
-4.348605	arrival	-0.3427644
-4.144485	arrive	-0.3361481
-3.685847	arrived	-0.3701943
-5.047575	arrives	-0.1162614
-5.047575	arriving	-0.1354914
-5.047575	arrows	-0.1162614
-4.144485	art	-0.3973113
-5.047575	arteries	-0.133591
-5.047575	artery	-0.1187341
-4.144485	article	-0.189685
-4.047575	articles	-0.3079168
-4.570453	artificial	-0.1364541
-4.746544	artillery	-0.09758185
-4.570453	artist	-0.09478836
-4.746544	artistic	-0.419764
-5.047575	artists	-0.1162614
-2.190846	as	-0.7670861
-4.746544	ascend	-0.2893406
-4.746544	ascendancy	-0.4364863
-4.047575	ascended	-0.480209
-5.047575	ascending	-0.1312805
-4.746544	ascertain	-0.09322146
-4.348605	ascertained	-0.2800005
-4.570453	ascertaining	-0.1317649
-4.570453	ascetic	-0.2406411
-5.047575	ascetic-looking	-0.1162614
-4.445515	ash	-0.1823304
-4.144485	ashamed	-0.8206503
-5.047575	ashen	-0.3119805
-4.269423	ashes	-0.2618563
-5.047575	ashore	-0.1187341
-5.047575	ashy	-0.1364502
-4.047575	aside	-0.2928337
-3.600417	ask	-0.5693908
-4.445515	askance	-0.4268712
-3.667363	asked	-0.7752274
-3.843455	asking	-0.2567251
-4.746544	asks	-0.1157309
-4.006182	asleep	-0.5317051
-4.570453	aspect	-0.2736731
-5.047575	asperities	-0.1281688
-4.746544	asperity	-0.1113313
-4.746544	asphalt	-0.132229
-5.047575	aspired	-0.13018
-5.047575	ass	-0.134288
-4.746544	assailant	-0.09758185
-5.047575	assailants	-0.09561036
-4.570453	assassin	-0.1162288
-4.348605	assault	-0.09895064
-4.746544	assaulted	-0.1316428
-5.047575	assaults	-0.1162614
-4.746544	assembled	-0.1288508
-4.570453	assent	-0.115984
-5.047575	assented	-0.09758185
-4.570453	assert	-0.3065121
-4.746544	asserted	-0.1324687
-5.047575	assertion	-0.1326062
-5.047575	assiduous	-0.1294407
-5.047575	assiduously	-0.1330498
-4.570453	assist	-0.1282918
-3.933631	assistance	-0.5697786
-4.006182	assistant	-0.1699579
-5.047575	assistants	-0.1162614
-5.047575	assisted	-0.1312805
-4.570453	assisting	-0.1077443
-5.047575	assizes	-0.1331872
-4.202477	associate	-0.1477375
-4.047575	associated	-0.4304359
-4.570453	associates	-0.1117724
-5.047575	associating	-0.1351479
-5.047575	association	-0.1330498
-4.570453	associations	-0.2874225
-5.047575	assortment	-0.1348745
-4.570453	assume	-0.2404532
-4.445515	assumed	-0.184979
-5.047575	assuming	-0.419764
-4.445515	assurance	-0.1795514
-4.269423	assure	-0.7671538
-3.817126	assured	-0.3115596
-5.047575	assuredly	-0.1364385
-4.445515	assures	-0.7370595
-4.746544	assuring	-0.134507
-5.047575	asthmatic	-0.1162614
-5.047575	astir	-0.1162614
-5.047575	astonish	-0.1349995
-4.047575	astonished	-0.2203903
-4.746544	astonishing	-0.1159391
-5.047575	astonishingly	-0.1360724
-3.871484	astonishment	-0.5016423
-5.047575	astounding	-0.135265
-4.746544	astrachan	-0.1364502
-5.047575	astrakhan	-0.1351831
-5.047575	astray	-0.1187341
-5.047575	astronomers	-0.1357527
-5.047575	astronomy	-0.1162614
-5.047575	astute	-0.4341897
-4.746544	astuteness	-0.1187138
-5.047575	asunder	-0.1187341
-5.047575	asylum	-0.1162614
-2.113581	at	-0.9411993
-5.047575	atavism	-0.1292547
-4.570453	ate	-0.237884
-4.746544	athlete	-0.1147334
-5.047575	athletes	-0.1292547
-4.570453	athletic	-0.2611046
-4.269423	atmosphere	-0.4108572
-5.047575	atoms	-0.1361152
-5.047575	atone	-0.1336615
-5.047575	atonement	-0.1336615
-5.047575	atones	-0.1336615
-4.006182	attached	-0.7140508
-5.047575	attaches	-0.135585
-3.933631	attack	-0.2425826
-4.445515	attacked	-0.3547116
-4.348605	attacks	-0.162762
-4.746544	attain	-0.2535557
-4.348605	attained	-0.1085338
-5.047575	attainments	-0.1187341
-3.817126	attempt	-0.5765494
-4.047575	attempted	-0.2447213
-4.746544	attempting	-0.4312099
-4.348605	attempts	-0.1934765
-4.570453	attend	-0.4272142
-4.445515	attendant	-0.1107947
-4.746544	attended	-0.1266344
-4.746544	attends	-0.1298006
-3.467791	attention	-0.5363215
-4.348605	attentions	-0.1844042
-5.047575	attentive	-0.1352767
-5.047575	attic	-0.2921365
-4.746544	attics	-0.09758185
-4.746544	attire	-0.4172914
-4.746544	attired	-0.1289181
-4.144485	attitude	-0.1128545
-5.047575	attract	-0.131249
-4.144485	attracted	-0.251804
