
\data\
ngram 1=15398
ngram 2=111577

\1-grams:
-2.639106	!	-2.331082
-4.488951	&	-0.3979107
-2.552901	'	-0.762181
-1.798346	''	-1.617747
-5.301864	'16	-0.3010267
-5.301864	'45	-0.3001828
-5.301864	'55	-0.300223
-5.301864	'60	-0.29962
-5.301864	'77	-0.2774197
-5.301864	'82	-0.2923637
-5.000834	'83	-0.3729867
-5.125773	'84	-0.2765676
-5.000834	'85	-0.3541981
-5.000834	'87	-0.2795348
-5.125773	'89	-0.2765252
-5.301864	'90	-0.2774197
-4.824743	'95	-0.2417197
-5.301864	'97	-0.2953746
-4.561502	'A	-0.3235824
-5.301864	'About	-0.2837455
-5.301864	'Absolute	-0.2923637
-5.301864	'Absolutely	-0.2819873
-5.301864	'After	-0.300978
-4.426803	'Ah	-0.8784258
-5.301864	'Alas	-0.2774197
-5.000834	'All	-0.3920617
-5.301864	'Almost	-0.3010083
-5.301864	'American	-0.3010257
-5.301864	'Ample	-0.2819873
-4.204954	'And	-0.3812369
-5.301864	'Answer	-0.2990467
-5.125773	'Any	-0.3009444
-5.301864	'Anybody	-0.3010257
-5.125773	'Anything	-0.4770324
-5.301864	'Apoplexy	-0.2819873
-5.125773	'Are	-0.2934656
-5.301864	'Arms	-0.3008913
-5.125773	'Arthur	-0.3000167
-5.301864	'As	-0.3010246
-5.301864	'Ask	-0.2988703
-5.125773	'At	-0.4770183
-5.301864	'Ay	-0.2774197
-5.301864	'Baron	-0.3010278
-5.301864	'Be	-0.2956939
-5.301864	'Because	-0.3009194
-5.301864	'Beddoes	-0.3010257
-5.301864	'Bless	-0.2971604
-5.301864	'Breckinridge	-0.2774197
-5.301864	'British	-0.3010278
-5.125773	'Brunton	-0.2769538
-4.488951	'But	-0.3114069
-4.903924	'By	-0.4598221
-5.301864	'C.P.R	-0.2819873
-5.301864	'COME	-0.2819873
-5.000834	'Can	-0.3848939
-5.301864	'Catullus	-0.2774197
-4.903924	'Certainly	-0.4514224
-5.301864	'Co	-0.2819873
-5.301864	'Colonel	-0.3010213
-4.699804	'Come	-0.413382
-5.301864	'Company	-0.2819873
-4.757796	'Cooee	-0.5998415
-5.301864	'Crime	-0.2956939
-5.301864	'D'you	-0.3009595
-5.301864	'DEAR	-0.3010278
-5.301864	'Danger	-0.2978039
-5.125773	'Dear	-0.475138
-5.301864	'Dearest	-0.3001698
-5.301864	'Death	-0.2774197
-5.301864	'December	-0.3010257
-5.301864	'Did	-0.2971495
-4.757796	'Do	-0.5978042
-5.301864	'Done	-0.3000319
-5.301864	'Drive	-0.3007373
-5.301864	'E.B	-0.2819873
-5.301864	'ELSIE	-0.2819873
-5.301864	'Eg	-0.2819873
-5.301864	'Elrige	-0.29962
-5.125773	'Elsie	-0.2572881
-5.125773	'Encyclopaedia	-0.2774163
-5.301864	'Entirely	-0.2819873
-5.301864	'Fire	-0.3000319
-5.301864	'Five	-0.300953
-4.648652	'For	-0.3113885
-5.301864	'Found	-0.2988082
-4.903924	'Frisco	-0.4333794
-5.301864	'Fritz	-0.3000319
-5.000834	'From	-0.2837184
-5.301864	'G	-0.2998124
-5.301864	'Gesellschaft	-0.2774197
-5.301864	'Go	-0.3002186
-5.301864	'Gone	-0.2929007
-5.301864	'Good	-0.3000319
-5.301864	'Good-evening	-0.2774197
-5.301864	'H	-0.2819873
-5.301864	'Ha	-0.2774197
-5.301864	'Hampshire	-0.2819873
-5.301864	'Harold	-0.2774197
-4.824743	'Have	-0.7742817
-4.523713	'He	-0.3142589
-5.301864	'Head-keeper	-0.3009801
-5.301864	'Heavy	-0.3010267
-5.000834	'Here	-0.2952307
-5.301864	'His	-0.3002295
-5.301864	'Holdernesse	-0.2774197
-5.301864	'Homer	-0.2774197
-5.301864	'Hosmer	-0.3010061
-4.648652	'How	-0.2936993
-5.301864	'Hudson	-0.2969121
-5.125773	'Hullo	-0.4761232
-5.301864	'Huxtable	-0.29962
-5.301864	'Hyams	-0.2774197
-3.523713	'I	-0.5241047
-4.602894	'If	-0.4939601
-5.301864	'Impossible	-0.3000319
-4.903924	'In	-0.2727874
-5.301864	'Inspector	-0.3009996
-4.757796	'Is	-0.2815739
-3.959441	'It	-0.6474145
-5.125773	'J.H.N	-0.4580786
-5.301864	'Jack	-0.2774197
-5.301864	'Jephro	-0.2774197
-5.125773	'K	-0.4580786
-5.301864	'Keep	-0.2999113
-5.301864	'Ku	-0.3010267
-5.301864	'L'homme	-0.3010267
-5.301864	'Lately	-0.3009834
-4.824743	'Let	-0.4191018
-5.301864	'Letters	-0.2774197
-4.903924	'Lone	-0.6989614
-5.125773	'Look	-0.2953241
-5.125773	'Lord	-0.3010191
-5.301864	'Lost	-0.2774197
-5.125773	'MY	-0.3010224
-5.301864	'Made	-0.2999569
-5.301864	'Mawson	-0.3004911
-5.125773	'May	-0.468027
-5.301864	'Most	-0.3010213
-5.301864	'Mother	-0.2774197
-4.824743	'Mr	-0.7591086
-5.301864	'Mrs	-0.2819873
-4.561502	'My	-0.351496
-5.301864	'Mysterious	-0.3010278
-5.301864	'Neither	-0.2983767
-4.824743	'Never	-0.3071551
-5.301864	'Next	-0.300978
-4.324141	'No	-0.6372452
-5.301864	'Norbury	-0.2998124
-5.301864	'North	-0.2999634
-4.699804	'Not	-0.374378
-5.301864	'Nothing	-0.2819873
-5.125773	'Now	-0.4714659
-5.301864	'Oct	-0.2819873
-5.000834	'Of	-0.397451
-4.241166	'Oh	-1.054517
-5.301864	'Omne	-0.3010278
-4.824743	'On	-0.4076105
-5.000834	'One	-0.2924577
-4.824743	'Only	-0.4113676
-5.125773	'Or	-0.4689919
-5.301864	'Over	-0.2837455
-5.301864	'P	-0.2774197
-5.125773	'P.C	-0.4580786
-5.301864	'Papier	-0.2819873
-5.301864	'Perfectly	-0.2819873
-5.125773	'Perhaps	-0.2956149
-5.301864	'Photography	-0.2978039
-5.301864	'Pink	-0.3010278
-5.000834	'Pon	-0.5994067
-5.301864	'Pondicherry	-0.3010246
-5.125773	'Pooh	-0.2763658
-5.301864	'Pray	-0.2774197
-4.903924	'Precisely	-0.3469789
-5.301864	'Pretty	-0.3010029
-5.125773	'Put	-0.4598368
-4.757796	'Quite	-0.3963593
-5.301864	'Ragged	-0.3010246
-5.125773	'Really	-0.453511
-5.301864	'Remarkable	-0.2988409
-5.301864	'Remember	-0.2774197
-5.125773	'Right	-0.4768633
-5.301864	'Rome	-0.296001
-5.125773	'S	-0.3010257
-5.301864	'See	-0.2953746
-5.301864	'Seven	-0.2929007
-5.125773	'She	-0.3003641
-5.301864	'Show	-0.29957
-5.301864	'Singular	-0.3010278
-5.301864	'Sir	-0.2774197
-4.903924	'So	-0.4491619
-5.301864	'Sold	-0.2929007
-4.903924	'Some	-0.3001611
-5.301864	'Sophy	-0.3000319
-5.301864	'Ss	-0.2819873
-5.301864	'Stand	-0.2999634
-5.301864	'Stolen	-0.3000319
-5.301864	'Such	-0.2774197
-5.301864	'Sumner	-0.2774197
-5.125773	'Surely	-0.2958475
-4.757796	'Tell	-0.6000419
-5.301864	'Ten	-0.2929007
-4.903924	'Thank	-0.4731828
-4.324141	'That	-0.4959859
-4.125773	'The	-0.3232831
-4.488951	'Then	-0.3083534
-4.426803	'There	-0.5506774
-5.301864	'These	-0.3000112
-5.125773	'They	-0.2996613
-4.561502	'This	-0.4444045
-5.301864	'Three	-0.3010267
-5.125773	'To	-0.3009964
-5.301864	'Tragedy	-0.3010224
-5.125773	'Trust	-0.475138
-4.903924	'Tut	-0.6753598
-5.301864	'US	-0.2774197
-5.301864	'Under	-0.2837455
-5.301864	'Undoubtedly	-0.2998993
-5.301864	'Until	-0.2971604
-5.000834	'Varsity	-0.276282
-4.757796	'Very	-0.4764804
-5.301864	'Wandsworth	-0.3010278
-4.523713	'We	-0.4011421
-4.155736	'Well	-0.975611
-4.111533	'What	-0.3714679
-5.301864	'Whatever	-0.2998537
-4.903924	'When	-0.2933741
-4.523713	'Where	-0.3475853
-5.301864	'Whereas	-0.2774197
-5.000834	'Which	-0.2974063
-5.000834	'Who	-0.299346
-5.301864	'Whose	-0.296001
-4.324141	'Why	-0.6294296
-5.301864	'Within	-0.2837455
-5.301864	'Wonderful	-0.3000319
-4.260471	'Yes	-1.016956
-3.764045	'You	-0.5126333
-5.000834	'Your	-0.2999167
-5.301864	'a	-0.3010191
-5.301864	'actually	-0.3009118
-4.456766	'and	-0.3489569
-5.301864	'are	-0.2929007
-4.903924	'at	-0.4758004
-5.301864	'band	-0.2774197
-5.125773	'bus	-0.2912878
-4.699804	'but	-0.3469579
-5.301864	'can	-0.2971604
-4.241166	'd	-0.3896017
-5.301864	'death	-0.2995678
-5.125773	'did	-0.2960317
-5.125773	'e	-0.2759309
-5.125773	'em	-0.2796657
-5.301864	'first	-0.2929007
-5.301864	'fly-paper	-0.2998124
-5.125773	'for	-0.2970915
-5.301864	'get	-0.3007427
-5.301864	'has	-0.3000503
-5.301864	'have	-0.2971604
-5.301864	'he	-0.296001
-5.301864	'hen-pheasant	-0.2998124
-5.301864	'here	-0.29962
-5.301864	'his	-0.3008251
-5.000834	'idee	-0.6020557
-5.301864	'if	-0.2971604
-5.301864	'in	-0.3009541
-5.125773	'is	-0.2828334
-5.000834	'it	-0.3928913
-5.301864	'journeys	-0.3008446
-5.301864	'jumping	-0.2932914
-5.301864	'learn	-0.2998124
-5.301864	'lever	-0.2774197
-5.301864	'life	-0.3010257
-3.398774	'll	-0.4858775
-4.241166	'm	-0.419686
-5.301864	'maybe	-0.2998124
-5.301864	'my	-0.3005399
-5.301864	'neither	-0.3010267
-5.301864	'never	-0.2819873
-5.301864	'only	-0.2998189
-5.301864	'other	-0.300953
-5.301864	'please	-0.2819873
-5.301864	'pology	-0.2774197
-5.125773	'quarter	-0.4759037
-5.125773	'r	-0.280514
-4.280675	're	-0.3225407
-5.301864	'remember	-0.2999113
-2.489285	's	-0.2446619
-5.301864	'seeing	-0.2983767
-5.301864	'sent	-0.2837455
-5.301864	'sever	-0.2774197
-5.301864	'sir	-0.2998124
-5.301864	'suicide	-0.2819873
-5.301864	'supply	-0.3009942
-5.301864	't	-0.2998124
-5.301864	'take	-0.2983767
-4.648652	'that	-0.2898097
-4.757796	'the	-0.2922377
-5.000834	'there	-0.3936515
-5.301864	'this	-0.2978039
-4.824743	'to	-0.3272499
-5.125773	'tween-decks	-0.2838255
-5.000834	'twelve	-0.3730441
-5.301864	'un	-0.2998124
-3.78335	've	-0.5134289
-4.824743	'we	-0.3481183
-5.301864	'were	-0.2969121
-5.301864	'what	-0.2998124
-5.125773	'when	-0.2956149
-5.125773	'which	-0.2986982
-5.301864	'wilful	-0.3009758
-5.125773	'with	-0.2825813
-5.301864	'would	-0.2993133
-5.125773	'ye	-0.3002523
-4.456766	'you	-0.3073099
-4.523713	(	-0.3492214
-4.523713	)	-0.4057555
-4.488951	*****	-1.113889
-1.276435	,	-0.7159909
-5.301864	-	-0.2940651
-2.710243	--	-0.3676629
-1.367543	.	-3.505191
-5.125773	...	-0.2977679
-5.301864	..E	-0.3010278
-5.301864	.ERE	-0.3010278
-5.301864	.M	-0.3010278
-5.301864	.RE.ARE	-0.3010246
-5.125773	1	-0.2729285
-5.301864	1/2	-0.3010257
-5.301864	10	-0.2774197
-5.000834	100	-0.6019809
-4.602894	1000	-0.6019711
-5.301864	10s	-0.2819873
-5.301864	10s.	-0.2774197
-5.301864	10th	-0.2819873
-5.301864	11.10	-0.2995678
-5.301864	1100	-0.3009509
-5.125773	117	-0.453511
-5.125773	117th	-0.3009736
-5.000834	11:15	-0.5830173
-5.301864	11:30	-0.2819873
-5.301864	12.22	-0.2929007
-5.125773	120	-0.4770421
-5.000834	126b	-0.3929066
-5.301864	12s	-0.2819873
-5.301864	12th	-0.2819873
-5.125773	131	-0.272108
-5.301864	13th	-0.3001828
-5.301864	14	-0.2998124
-5.301864	14,000	-0.3009509
-5.301864	140	-0.3009899
-5.125773	14th	-0.291587
-5.125773	15	-0.4771126
-5.301864	150	-0.300991
-5.125773	16	-0.272108
-5.301864	1607	-0.2774197
-5.301864	16A	-0.2774197
-5.125773	17	-0.3009823
-5.301864	1840	-0.2819873
-5.301864	1846	-0.2819873
-5.301864	1855	-0.2774197
-5.301864	1858	-0.2819873
-5.000834	1869	-0.373716
-5.301864	1870	-0.2971495
-5.301864	1872	-0.300388
-5.301864	1875	-0.2819873
-5.301864	1878	-0.2774197
-5.301864	1881	-0.300388
-4.699804	1883	-0.331125
-5.000834	1884	-0.2563511
-5.125773	1887	-0.277932
-5.125773	1888	-0.2811021
-5.000834	1890	-0.3777954
-5.125773	1891	-0.453511
-4.903924	1894	-0.2576283
-5.301864	1895	-0.2919357
-5.301864	18th	-0.2819873
-5.301864	1900	-0.2819873
-5.301864	1901	-0.3010278
-5.000834	1903	-0.6020058
-4.561502	1904	-1.041338
-5.301864	19th	-0.2819873
-5.301864	1s.	-0.2774197
-5.125773	1st	-0.2837432
-4.824743	2	-0.4034714
-5.301864	2,000	-0.3010267
-5.301864	2.40	-0.3010072
-5.301864	20	-0.2998124
-5.301864	200	-0.3009509
-5.301864	20th	-0.2819873
-5.301864	220	-0.3009509
-5.301864	221	-0.3010213
-5.301864	221B	-0.2774197
-5.301864	226	-0.3010246
-5.000834	22nd	-0.2572845
-5.000834	23d	-0.269114
-5.301864	23rd	-0.2926621
-5.301864	2473	-0.2819873
-5.301864	249	-0.2774197
-5.301864	24th	-0.2819873
-5.000834	25	-0.3978522
-5.301864	250	-0.3009509
-4.903924	26	-0.2774117
-5.301864	26s	-0.2819873
-4.648652	27	-0.2773224
-5.301864	270	-0.3010267
-4.903924	28	-0.3010202
-5.301864	2nd	-0.2819873
-5.125773	2s	-0.4580786
-5.125773	3	-0.2814877
-5.301864	3.30	-0.3010278
-5.301864	3.36	-0.2774197
-5.000834	30	-0.3742462
-5.125773	30,000	-0.3009476
-5.301864	30th	-0.2926621
-5.301864	31	-0.3010278
-5.301864	3d	-0.2926621
-4.903924	3rd	-0.2479211
-4.699804	4	-0.5037511
-5.301864	40	-0.3009509
-5.301864	4000	-0.3009509
-5.301864	403	-0.3010202
-5.301864	421	-0.3010257
-5.301864	426	-0.2774197
-5.000834	427	-0.5784498
-5.301864	46	-0.2774197
-5.301864	4700	-0.3009509
-5.301864	4:35	-0.3009931
-5.301864	4d	-0.2819873
-4.903924	4th	-0.246293
-5.301864	5	-0.2819873
-5.301864	50	-0.3010267
-5.301864	50,000	-0.3009509
-5.301864	5:14	-0.2995678
-5.301864	5:15	-0.3009433
-5.301864	6	-0.2819873
-5.301864	6.30	-0.3001828
-5.301864	60	-0.3009509
-5.301864	6:30	-0.2995559
-5.301864	6d	-0.2819873
-5.125773	6d.	-0.453511
-5.000834	6th	-0.257239
-5.301864	7	-0.3010235
-5.301864	700	-0.3009509
-5.301864	750	-0.3009509
-5.301864	7s	-0.2819873
-5.125773	7th	-0.2572881
-5.301864	88	-0.3009509
-5.301864	8d	-0.2819873
-5.301864	8s.	-0.2774197
-5.301864	8th	-0.3010257
-5.301864	9	-0.2774197
-5.301864	9.13	-0.2819873
-5.301864	9.50	-0.2774197
-5.301864	90	-0.296001
-5.125773	9th	-0.2819839
-3.495684	:	-0.4816971
-2.830572	;	-0.6997136
-1.296684	</s>
-99	<s>	-1.211599
-2.272887	?	-2.696495
-3.077849	A	-0.3411586
-4.903924	A.	-0.3411705
-5.301864	A.E	-0.3010278
-5.301864	ABANDON	-0.3010267
-5.301864	ABE	-0.3010278
-5.301864	ADLER	-0.2819873
-4.488951	ADVENTURE	-0.4245059
-5.301864	ADVENTURES	-0.3010018
-5.301864	ADVISE	-0.3010235
-5.301864	AFTER	-0.2837455
-5.301864	AGENT	-0.2819873
-5.125773	ALIBI	-0.2767315
-5.000834	AM	-0.3979324
-5.301864	APPLEDORE	-0.3010278
-5.301864	APRIL	-0.2774197
-5.301864	ARAT	-0.2774197
-5.301864	ARMSTRONG	-0.2819873
-4.426803	ARTHUR	-1.176075
-5.301864	AT	-0.3010278
-5.301864	AUGUST	-0.2774197
-5.301864	AUGUSTUS	-0.3010278
-4.523713	Abbey	-0.6438939
-5.301864	Abbots	-0.2923637
-4.699804	Abe	-0.6499755
-5.125773	Aberdeen	-0.300223
-5.301864	Abergavenny	-0.3009758
-5.301864	Abernetty	-0.3009628
-4.372445	About	-0.362222
-4.757796	Above	-0.4574928
-5.301864	Absolute	-0.3010278
-4.699804	Absolutely	-0.3565884
-5.301864	Accepting	-0.2969121
-5.301864	According	-0.2929007
-5.125773	Accustomed	-0.4749322
-5.125773	Across	-0.2799343
-4.398774	Acton	-0.3699959
-4.426803	Adair	-0.3485488
-5.125773	Adams	-0.2572881
-5.301864	Add	-0.2929007
-5.301864	Addleton	-0.3009942
-5.125773	Address	-0.4769825
-5.125773	Adelaide	-0.453511
-5.125773	Adelaide-Southampton	-0.3009216
-4.398774	Adler	-0.4471388
-5.301864	Admirable	-0.3000319
-5.125773	Admiralty	-0.275108
-3.903924	Adventure	-0.6884568
-5.301864	Affair	-0.2988082
-5.125773	Affairs	-0.2572881
-5.125773	Afghan	-0.3010213
-4.903924	Afghanistan	-0.4503173
-5.301864	Afghans	-0.2819873
-4.699804	Africa	-0.2822471
-4.824743	African	-0.3009487
-4.204954	After	-0.447694
-5.000834	Afterwards	-0.2723871
-4.187921	Again	-0.4923941
-5.125773	Agatha	-0.3000949
-5.125773	Agent	-0.453511
-5.301864	Ages	-0.2819873
-5.301864	Agra	-0.3010202
-3.694409	Ah	-1.417235
-5.301864	Aha	-0.3000319
-5.301864	Air	-0.2923637
-5.000834	Alas	-0.6010619
-5.000834	Albert	-0.3979107
-5.301864	Aldersgate	-0.300388
-4.602894	Aldershot	-0.2985511
-4.301864	Alec	-0.5169783
-5.301864	Alexander	-0.3010094
-5.301864	Alexandria	-0.2819873
-5.301864	Alexandrian	-0.3010191
-5.000834	Alexis	-0.2517228
-4.488951	Alice	-0.2397079
-5.301864	Alicia	-0.3010278
-5.301864	Alighting	-0.2988082
-3.824743	All	-0.4269222
-5.301864	Allardyce	-0.29962
-5.125773	Allegro	-0.2572881
-5.301864	Alliance	-0.2774197
-5.301864	Allow	-0.2990467
-5.301864	Almighty	-0.3010278
-5.301864	Almost	-0.2988082
-5.301864	Along	-0.2995559
-4.824743	Aloysius	-0.7781372
-4.699804	Alpha	-0.3942801
-5.301864	Alpine	-0.3010224
-4.903924	Alpine-stock	-0.2954163
-4.757796	Already	-0.2332401
-5.301864	Also	-0.2774197
-5.125773	Altogether	-0.2763062
-5.301864	Always	-0.2819873
-5.301864	Am	-0.2919357
-5.125773	Amateur	-0.3010213
-5.301864	Amazement	-0.2923637
-4.280675	America	-0.4448768
-4.280675	American	-0.3261599
-5.301864	Americans	-0.2956939
-5.000834	Amid	-0.3725997
-5.000834	Among	-0.2973725
-5.301864	Amoy	-0.3010278
-5.301864	Ample	-0.2819873
-3.949682	An	-0.42883
-5.301864	Anarchist	-0.2999754
-3.011829	And	-0.5832811
-5.301864	Andaman	-0.3010278
-5.301864	Anderson	-0.2940651
-5.301864	Andover	-0.2956939
-5.301864	Anerley	-0.3010267
-4.260471	Angel	-0.4112921
-5.301864	Anglia	-0.2819873
-5.301864	Anglo-Indian	-0.2774197
-4.903924	Anna	-0.452457
-5.301864	Anne	-0.3006603
-4.824743	Annie	-0.3403307
-5.301864	Annoyed	-0.2988082
-4.757796	Another	-0.2770684
-5.301864	Anstruther	-0.2999754
-5.301864	Answer	-0.2990467
-4.372445	Any	-0.3890533
-5.301864	Anybody	-0.3010181
-4.648652	Anyhow	-0.6710107
-5.000834	Anyone	-0.2952626
-4.602894	Anything	-0.4440487
-5.301864	Anyway	-0.2774197
-5.301864	Apache	-0.3010267
-5.301864	Apaches	-0.2774197
-5.301864	Apparently	-0.2774197
-5.000834	Appledore	-0.3743263
-5.125773	Apply	-0.2956917
-5.301864	Appreciation	-0.2926621
-4.699804	April	-0.300322
-5.301864	Arab	-0.2774197
-5.301864	Arabian	-0.3010278
-5.000834	Arcade	-0.5784498
-5.301864	Arcadia	-0.3010213
-5.301864	Archery	-0.2923637
-5.125773	Archie	-0.2774175
-5.301864	Architecture	-0.2923637
-5.125773	Arctic	-0.3010126
-4.488951	Are	-0.8407362
-5.301864	Argentine	-0.2774197
-5.301864	Arizona	-0.2774197
-4.757796	Armitage	-0.2979983
-5.301864	Armour	-0.2923637
-5.125773	Arms	-0.2770706
-4.347621	Armstrong	-0.3374481
-5.125773	Army	-0.2774175
-5.301864	Arnsworth	-0.3010267
-5.000834	Arrest	-0.2948792
-5.301864	Arson	-0.2819873
-5.301864	Art	-0.2956939
-4.071415	Arthur	-0.2987164
-5.125773	Artillery	-0.2572881
-3.274514	As	-0.8748199
-5.000834	Ask	-0.3964409
-4.699804	Assizes	-0.4777648
-5.301864	Assure	-0.29957
-5.301864	Astonishment	-0.2988082
-3.469355	At	-0.6695732
-5.301864	Athene	-0.2997896
-4.824743	Athens	-0.3820602
-5.301864	Atkinson	-0.3010267
-4.903924	Atlanta	-0.3230817
-5.000834	Atlantic	-0.2714485
-5.301864	Attica	-0.2774197
-5.301864	Auckland	-0.2819873
-5.000834	August	-0.2685562
-5.301864	Augustine	-0.2819873
-4.824743	Augustus	-0.54399
-5.301864	Austerlitz	-0.2774197
-4.561502	Australia	-0.3604705
-4.903924	Australian	-0.299495
-5.301864	Australians	-0.2819873
-5.301864	Author	-0.2926621
-5.301864	Aveling	-0.2774197
-4.757796	Avenue	-0.4333734
-5.301864	Awake	-0.2774197
-5.125773	Away	-0.2990086
-5.301864	Ay	-0.2774197
-5.301864	Aye	-0.2774197
-5.301864	Ayrshires	-0.2987069
-5.301864	Azure	-0.2774197
-4.699804	B	-0.3348665
-5.301864	BACHELOR	-0.2997407
-5.301864	BALLARAT	-0.2819873
-5.301864	BAND	-0.3008772
-5.301864	BASS	-0.3010257
-5.301864	BEECHES	-0.2929106
-5.301864	BERYL	-0.3010278
-5.301864	BLUE	-0.3010278
-5.301864	BOHEMIA	-0.2919357
-5.301864	BOSCOMBE	-0.3010278
-5.301864	BOTH	-0.2929007
-5.301864	Bachelor	-0.3010257
-5.125773	Back	-0.2914474
-4.824743	Backwater	-0.4008604
-5.000834	Bad	-0.3732758
-5.125773	Bagatelle	-0.3009996
-3.699804	Baker	-0.9812582
-5.125773	Bakers	-0.2717836
-5.301864	Baldwin	-0.2774197
-4.824743	Ballarat	-0.2653729
-4.699804	Balmoral	-0.3930751
-5.301864	Balzac	-0.3007481
-5.125773	Band	-0.2819827
-5.301864	Bangor	-0.2774197
-4.757796	Bank	-0.3449303
-5.301864	Bankers	-0.2998124
-4.222682	Bannister	-0.4272888
-5.125773	Bar	-0.2926599
-4.058826	Barclay	-0.4174504
-5.125773	Barclays	-0.2971528
-4.602894	Barnicot	-0.3595675
-5.301864	Baron	-0.3010278
-5.301864	Barons	-0.2926621
-5.301864	Barque	-0.3010246
-5.301864	Barrett	-0.2774197
-5.301864	Barton	-0.2774197
-4.903924	Basil	-0.3477187
-5.301864	Basle	-0.2819873
-5.301864	Bathsheba	-0.2987069
-5.000834	Baxter	-0.2706009
-5.301864	Bay	-0.2999754
-5.125773	Bayard	-0.2809841
-5.301864	Bayswater	-0.3010267
-4.699804	Be	-0.2662413
-5.301864	Beacons	-0.2926621
-4.071415	Because	-0.423509
-5.000834	Becher	-0.2885608
-4.824743	Beckenham	-0.3060081
-5.125773	Beddington	-0.274226
-4.523713	Beddoes	-0.3268684
-4.903924	Beecher	-0.2732671
-4.648652	Beeches	-0.3670926
-4.523713	Before	-0.3175747
-5.301864	Beg	-0.3010235
-5.125773	Behind	-0.2987614
-5.301864	Being	-0.2998863
-5.301864	Belgrade	-0.2774197
-5.000834	Bellinger	-0.3732758
-5.301864	Belminster	-0.2774197
-5.301864	Bengal	-0.3010267
-5.301864	Bengalore	-0.3010278
-5.301864	Bentinck	-0.3008501
-5.301864	Bentley	-0.29962
-4.488951	Beppo	-0.308633
-4.903924	Berkshire	-0.2763819
-5.301864	Bermondsey	-0.2774197
-5.301864	Bermuda	-0.3010278
-5.301864	Bert	-0.3010278
-5.301864	Bertillon	-0.301017
-5.125773	Beryl	-0.477118
-4.699804	Beside	-0.5025354
-4.204954	Besides	-0.9107378
-5.000834	Better	-0.300669
-4.602894	Between	-0.3707231
-5.301864	Beverley	-0.2774197
-4.757796	Beyond	-0.374324
-5.000834	Bhurtee	-0.2517228
-5.301864	Bible	-0.2819873
-5.301864	Biddle	-0.2774197
-5.301864	Bill	-0.2774197
-5.301864	Binomial	-0.3010278
-5.301864	Birchmoor	-0.2774197
-5.301864	Birds	-0.2774197
-4.561502	Birmingham	-0.2827935
-5.301864	Bite	-0.2997896
-4.372445	Black	-0.5641804
-4.699804	Blackheath	-0.3926494
-5.301864	Blackwater	-0.2774197
-5.301864	Blandford	-0.3008501
-4.456766	Blaze	-0.3175256
-5.125773	Bless	-0.279718
-4.155736	Blessington	-0.3734504
-5.301864	Block	-0.2837455
-5.301864	Blood	-0.2819873
-5.301864	Bloomsbury	-0.2988082
-5.000834	Blue	-0.2901582
-5.301864	Blues	-0.3005171
-5.000834	Bob	-0.3742931
-4.523713	Bohemia	-0.3928159
-4.903924	Bohemian	-0.3007742
-5.301864	Bohemianism	-0.2926621
-5.301864	Bond	-0.3008501
-4.648652	Boone	-0.366899
-4.903924	Boots	-0.4717797
-5.301864	Bordeaux	-0.2774197
-5.301864	Borgia	-0.3010126
-5.301864	Borgias	-0.2819873
-5.000834	Born	-0.3924086
-4.398774	Boscombe	-0.9293983
-5.301864	Boswell	-0.2819873
-5.301864	Botany	-0.3010267
-4.398774	Both	-0.3110074
-5.301864	Bought	-0.2819873
-5.301864	Boulevard	-0.3010246
-5.125773	Bow	-0.4769413
-5.301864	Boxer	-0.3010267
-4.398774	Brackenstall	-0.2964761
-5.301864	Brackwell	-0.2774197
-5.125773	Bradshaw	-0.2572881
-4.488951	Bradstreet	-0.4263999
-5.125773	Brambletye	-0.4771093
-4.757796	Breckinridge	-0.3688651
-4.699804	Briarbrae	-0.3298381
-4.602894	Bridge	-0.4680887
-5.125773	Briefly	-0.2769045
-5.000834	Bring	-0.3944901
-4.523713	Briony	-1.079166
-4.757796	Bristol	-0.2840009
-4.757796	Britain	-0.3186739
-5.125773	Britannica	-0.4580786
-4.324141	British	-0.3271779
-4.523713	Brixton	-0.6252337
-5.000834	Broads	-0.2513828
-5.301864	Broken	-0.3010278
-5.301864	Brooding	-0.3004661
-4.648652	Brook	-0.9540626
-5.125773	Brotherhood	-0.2817823
-4.824743	Brothers	-0.5195484
-4.602894	Brown	-0.384751
-5.301864	Bruce	-0.3010278
-4.222682	Brunton	-0.344946
-5.125773	Brussels	-0.2865936
-5.301864	Buda-Pesth	-0.2819873
-5.000834	Builder	-0.5830173
-5.301864	Buildings	-0.2774197
-5.301864	Bull	-0.2774197
-5.301864	Bunsen	-0.3010278
-5.301864	Bureau	-0.2774197
-5.125773	Burglary	-0.4761232
-4.699804	Burnwell	-0.2422486
-5.301864	Busybody	-0.2993525
-2.878618	But	-0.6433274
-3.683816	By	-0.6292105
-5.301864	By-the-way	-0.2774197
-5.000834	C	-0.2708065
-5.125773	C.	-0.2974391
-5.301864	C.A.M.	-0.2774197
-5.301864	C.B.	-0.2774197
-5.301864	C.P.R.	-0.2774197
-5.125773	CA	-0.477118
-5.000834	CAN	-0.2978912
-5.301864	CARBUNCLE	-0.2919357
-5.125773	CASE	-0.2819578
-5.301864	CHARLES	-0.3010278
-5.301864	COLONEL	-0.2819873
-4.426803	CONAN	-1.176075
-5.301864	COPPER	-0.3010278
-5.301864	CORONET	-0.2929106
-5.125773	COULD	-0.2973277
-5.301864	COUPLE	-0.2980058
-4.757796	Cabinet	-0.2700333
-5.301864	Cabul	-0.2819873
-4.903924	Cairns	-0.257173
-5.301864	Cal.	-0.2774197
-5.301864	Calcutta	-0.2774197
-5.125773	Calhoun	-0.2749665
-5.000834	California	-0.2747191
-5.301864	Californian	-0.3010267
-5.301864	Cam	-0.3005149
-5.125773	Camberwell	-0.281985
-4.488951	Cambridge	-0.3771721
-5.301864	Cambridgeshire	-0.3010246
-5.301864	Camden	-0.3010126
-5.125773	Campaign	-0.453511
-5.301864	Campden	-0.3010126
-4.260471	Can	-0.7769957
-5.301864	Canadian	-0.3010267
-5.301864	Canal	-0.2819873
-5.301864	Cannon	-0.3008501
-5.000834	Canterbury	-0.256578
-5.301864	Cape	-0.3010202
-4.648652	Capital	-0.6892855
-5.301864	Capsules	-0.298477
-4.347621	Captain	-0.5644105
-5.301864	Capture	-0.2926621
-5.301864	Carbuncle	-0.3010257
-5.301864	Card	-0.3010213
-5.301864	Cardinal	-0.3010278
-5.125773	Carefully	-0.2971549
-4.204954	Carey	-0.4434035
-5.301864	Carlo	-0.2774197
-5.301864	Carlsbad	-0.2819873
-5.125773	Carlton	-0.2774014
-5.301864	Carolinas	-0.2774197
-5.301864	Carried	-0.3007872
-4.097744	Carruthers	-0.4129601
-5.301864	Carstairs	-0.2774197
-5.125773	Carston	-0.2998092
-5.125773	Cartwright	-0.2767315
-5.125773	Case	-0.2917907
-5.301864	Cassel-Felstein	-0.2774197
-5.125773	Castle	-0.2772355
-5.301864	Cathcart	-0.3009964
-5.125773	Catherine	-0.4771169
-5.125773	Catholic	-0.3010191
-5.301864	Cattle	-0.2997896
-5.301864	Caunter	-0.2774197
-5.301864	Cavalier	-0.2923637
-4.903924	Cavendish	-0.4534892
-5.000834	Cedars	-0.2715401
-5.301864	Celtic	-0.3008143
-5.125773	Central	-0.4771158
-4.058826	Certainly	-0.7448286
-5.301864	Chair	-0.2988082
-5.301864	Chamber	-0.2774197
-5.301864	Chance	-0.3001687
-5.301864	Chancelleries	-0.2926621
-5.301864	Chapel	-0.2988703
-5.301864	Charasiab	-0.301017
-4.561502	Charing	-1.041379
-4.260471	Charles	-0.4534494
-4.426803	Charlington	-0.4528331
-5.301864	Charming	-0.3010278
-5.301864	Charybdis	-0.2987287
-4.757796	Chatham	-0.3117971
-5.301864	Check	-0.3009953
-4.824743	Chesterfield	-0.3069965
-5.301864	Chesterton	-0.2774197
-5.000834	Chicago	-0.2572557
-5.301864	Chief	-0.3010181
-5.301864	Children	-0.2774197
-5.125773	Chiltern	-0.4771083
-4.757796	China	-0.286456
-5.125773	Chinese	-0.3010257
-5.000834	Chislehurst	-0.3009216
-4.903924	Chiswick	-0.2536535
-5.301864	Christ	-0.29962
-4.561502	Christmas	-0.3406167
-5.000834	Chronicle	-0.2655704
-5.125773	Chubb	-0.2995852
-4.699804	Church	-0.4066825
-5.301864	Cinnamon	-0.301017
-5.125773	Circumstantial	-0.4770443
-5.125773	Circus	-0.4580786
-4.17153	City	-0.3488227
-5.000834	Civil	-0.6020535
-4.155736	Clair	-0.4411217
-5.000834	Clapham	-0.6020557
-5.301864	Clara	-0.3009357
-5.301864	Clark	-0.3010267
-4.699804	Clay	-0.3940264
-5.125773	Clearly	-0.2770809
-5.301864	Clerk	-0.3010246
-5.125773	Close	-0.2975615
-5.301864	Clotilde	-0.3010278
-4.699804	Club	-0.327253
-5.301864	Clubs	-0.3008913
-5.301864	Clue	-0.2929007
-4.699804	Co.	-0.6295176
-5.301864	Coarse	-0.3009866
-5.301864	Cobb	-0.2774197
-5.000834	Coburg	-0.3979086
-4.757796	Cock	-0.3451886
-5.301864	Cocksure	-0.2774197
-5.301864	Coldstream	-0.3010267
-5.301864	Collar	-0.2923637
-4.824743	College	-0.2991741
-3.512989	Colonel	-0.5739161
-5.301864	Colonial	-0.3010137
-5.301864	Colonies	-0.2819873
-5.301864	Colonna	-0.29962
-5.301864	Colony	-0.2926621
-3.78335	Come	-0.549717
-5.301864	Coming	-0.2997896
-5.301864	Common	-0.2774197
-5.301864	Commons	-0.2774197
-4.648652	Company	-0.5109347
-5.125773	Conan	-0.477118
-5.301864	Concealment	-0.300772
-5.301864	Conduit	-0.3008501
-5.301864	Confess	-0.2774197
-5.301864	Conk-Singleton	-0.3010246
-5.301864	Conquest	-0.2956939
-5.000834	Consider	-0.3798869
-5.301864	Considering	-0.3007254
-5.125773	Constable	-0.3010246
-5.301864	Constabulary	-0.2774197
-5.301864	Contents	-0.3008913
-4.903924	Continent	-0.4554108
-5.125773	Continental	-0.3010126
-5.301864	Contralto	-0.3001828
-5.125773	Convinced	-0.4714659
-5.301864	Cooee	-0.3000319
-5.301864	Cook	-0.2774197
-4.648652	Copper	-0.9542328
-5.301864	Coptic	-0.3010278
-4.602894	Coram	-0.3962235
-4.824743	Cornelius	-0.3075
-5.125773	Cornwall	-0.259149
-4.648652	Coroner	-0.9541038
-5.125773	Coronet	-0.2987037
-5.301864	Corporal	-0.3010105
-5.000834	Corporation	-0.6018801
-5.000834	Cosmopolitan	-0.2572857
-5.301864	Costa	-0.3010278
-4.347621	Could	-0.4742011
-5.000834	Count	-0.3979042
-4.561502	Countess	-0.3756223
-5.125773	Counties	-0.4771137
-5.125773	County	-0.4687534
-4.602894	Court	-0.4031236
-5.000834	Covent	-0.6020557
-5.125773	Coventry	-0.2572881
-4.757796	Coxon	-0.4755623
-5.301864	Crane	-0.3010278
-5.301864	Creina	-0.2774197
-5.301864	Creole	-0.3010246
-5.301864	Crewe	-0.2819873
-5.301864	Crime	-0.2978039
-5.301864	Crimea	-0.2923637
-5.125773	Crimean	-0.2999504
-5.125773	Criminal	-0.4580786
-5.301864	Criminals	-0.3000319
-4.757796	Croker	-0.5583181
-5.301864	Crooked	-0.3010246
-5.125773	Crooksbury	-0.4771126
-5.301864	Crosby	-0.2837455
-4.488951	Cross	-0.3316333
-5.000834	Crowder	-0.5784498
-4.824743	Crown	-0.3320844
-5.301864	Crystal	-0.3010278
-4.204954	Cubitt	-0.3496017
-4.097744	Cunningham	-0.4519995
-4.757796	Cunninghams	-0.2940068
-4.824743	Cup	-0.3812898
-5.301864	Curse	-0.2837455
-5.000834	Cusack	-0.2756782
-5.301864	Cuvier	-0.3000699
-5.125773	Cyclist	-0.4580786
-4.561502	Cyril	-0.4535739
-5.000834	D	-0.2774037
-5.125773	D'you	-0.2998667
-5.301864	D.D.	-0.2774197
-5.125773	DAILY	-0.477118
-5.301864	DE	-0.3010278
-4.903924	DEAR	-0.6989646
-5.301864	DEAREST	-0.3010278
-5.301864	DEBUTANTE	-0.2926621
-5.125773	DECEMBER	-0.453511
-5.301864	DEFINITELY	-0.3010278
-5.301864	DETOUR	-0.3001687
-5.301864	DID	-0.2919357
-5.301864	DISSOLVED	-0.2819873
-5.301864	DO	-0.3005106
-5.301864	DOES	-0.3010246
-4.426803	DOYLE	-0.7247761
-5.301864	Dacre	-0.3010181
-5.125773	Daily	-0.3010235
-5.301864	Damp	-0.2999754
-5.125773	Dancing	-0.4771137
-5.301864	Dane	-0.2774197
-5.301864	Danger	-0.3000319
-5.301864	Dantzig	-0.2774197
-5.301864	Darjeeling	-0.2819873
-5.125773	Dark	-0.3008392
-5.301864	Darlington	-0.3010278
-4.602894	Dartmoor	-0.3324956
-5.301864	Data	-0.3000319
-5.301864	Daubensee	-0.2774197
-5.125773	Daulat	-0.477118
-5.301864	Davenport	-0.2819873
-4.903924	David	-0.2749516
-5.301864	Davos	-0.3010278
-5.000834	Dawson	-0.2882529
-5.301864	Day	-0.29962
-5.301864	De	-0.3010278
-4.324141	Dear	-0.9742954
-5.125773	December	-0.3001785
-5.000834	Deep	-0.6020557
-5.301864	Deeply	-0.2988409
-5.301864	Dei	-0.2819873
-5.000834	Dene	-0.6020427
-5.301864	Depend	-0.2997407
-4.824743	Derbyshire	-0.2994862
-4.824743	Desborough	-0.305773
-5.301864	Describe	-0.2969121
-5.301864	Deserted	-0.2971604
-5.301864	Desiring	-0.2929007
-5.125773	Detective	-0.4761232
-5.000834	Devine	-0.3774241
-4.903924	Devonshire	-0.2746223
-5.125773	Devoy	-0.453511
-3.854706	Did	-0.7070495
-5.301864	Dieppe	-0.2819873
-5.301864	Dinner	-0.296001
-4.824743	Diogenes	-0.7781426
-5.301864	Dirty	-0.2987069
-5.125773	Disappearance	-0.2926588
-5.301864	Disease	-0.2987069
-5.301864	Disgraceful	-0.2774197
-5.301864	Disregarding	-0.2983767
-5.301864	Division	-0.2774197
-5.000834	Dixon	-0.5784498
-3.616122	Do	-1.097742
-5.301864	Dock	-0.2923637
-5.301864	Dockyard	-0.2774197
-4.187921	Doctor	-0.7327415
-5.301864	Doctors	-0.2998124
-5.301864	Documents	-0.2774197
-4.757796	Does	-0.3293542
-5.301864	Don	-0.3010278
-5.301864	Doncaster	-0.2987069
-5.301864	Done	-0.3005139
-4.903924	Donnithorpe	-0.3408085
-5.125773	Dook	-0.2771107
-4.488951	Doran	-0.482213
-5.301864	Dorking	-0.2987069
-5.125773	Dovercourt	-0.2808854
-5.000834	Down	-0.2810511
-5.301864	Downing	-0.3008501
-5.301864	Downs	-0.2774197
-5.125773	Doyle	-0.2819307
-4.903924	Dr	-0.6799273
-3.598573	Dr.	-0.9101804
-5.301864	Draper	-0.29962
-5.125773	Draw	-0.2990598
-5.301864	Drink	-0.2995559
-5.301864	Drive	-0.2997896
-5.125773	Drop	-0.2912025
-5.301864	Dubugue	-0.2926621
-4.648652	Duchess	-0.2909365
-3.99011	Duke	-0.4726806
-5.301864	Dulong	-0.2819873
-4.699804	Duncan	-0.9030564
-5.301864	Dundas	-0.3010267
-4.602894	Dundee	-0.463568
-4.824743	Dunlop	-0.3056066
-4.488951	During	-0.4487341
-5.125773	Dutch	-0.2995657
-4.699804	E	-0.3387859
-4.903924	E.	-0.2995004
-5.301864	E.C	-0.2819873
-5.301864	ELRI.ES	-0.2819873
-5.301864	ELSIE	-0.3010278
-5.301864	EMPLOYEE	-0.2774197
-5.301864	ENGINEER	-0.3010267
-5.301864	ESTABLISHED	-0.2819873
-5.301864	EVIDENCE	-0.3010246
-4.648652	Each	-0.3581582
-4.648652	Earl	-0.5317883
-5.125773	Early	-0.2871377
-5.301864	Easier	-0.2837455
-4.757796	East	-0.3231501
-5.301864	East-End	-0.2926621
-5.301864	East-end	-0.2774197
-4.903924	Eastern	-0.3010051
-5.301864	Eat	-0.2932914
-5.301864	Echo	-0.2774197
-5.125773	Edgeware	-0.4770931
-4.903924	Edith	-0.3443311
-4.648652	Eduardo	-0.9542198
-5.301864	Educated	-0.3010257
-5.000834	Edward	-0.2955096
-4.824743	Effie	-0.3246102
-5.301864	Eglonitz	-0.3001828
-5.301864	Eglow	-0.2774197
-5.301864	Egria	-0.2819873
-5.301864	Egypt	-0.2774197
-5.000834	Eh	-0.3718766
-4.903924	Eight	-0.2925273
-5.000834	Either	-0.3711879
-5.301864	Electrical	-0.3010202
-5.301864	Elementary	-0.2774197
-5.301864	Eley	-0.29962
-5.000834	Elias	-0.2923516
-5.301864	Elise	-0.3000319
-5.301864	Elizabethan	-0.301017
-5.000834	Elrige	-0.6006501
-4.561502	Elsie	-0.2493393
-5.301864	Embankment	-0.2978039
-5.301864	Embassies	-0.3000112
-5.000834	Embassy	-0.3733205
-5.000834	Emperor	-0.2567269
-5.301864	Empire	-0.3001687
-5.125773	Empty	-0.4771039
-5.000834	Encyclopaedia	-0.2928245
-5.000834	End	-0.2572078
-5.301864	Endell	-0.3008501
-5.301864	Engage	-0.2932914
-5.301864	Engaged	-0.2819873
-5.301864	Engineer	-0.29962
-3.803554	England	-0.4463446
-5.301864	Englischer	-0.3010278
-4.111533	English	-0.3162489
-4.602894	Englishman	-0.3962333
-5.125773	Englishmen	-0.2971998
-5.301864	Englishwoman	-0.2956939
-5.301864	Enough	-0.2926621
-5.301864	Enter	-0.2837455
-5.125773	Entirely	-0.4580786
-5.301864	Escott	-0.2999634
-5.301864	Esq	-0.2819873
-5.301864	Esq.	-0.2774197
-5.301864	Etherege	-0.2774197
-5.000834	Eton	-0.3892605
-4.324141	Europe	-0.4036831
-4.398774	European	-0.3978251
-4.561502	Eustace	-0.3611864
-5.301864	Euston	-0.2819873
-4.824743	Eva	-0.2675145
-5.000834	Evans	-0.3651742
-4.140496	Even	-0.4574544
-5.125773	Evening	-0.3010235
-5.301864	Eventually	-0.2774197
-4.324141	Every	-0.3395807
-5.125773	Everybody	-0.2954789
-5.000834	Everything	-0.3923955
-5.301864	Evidence	-0.2926621
-4.699804	Evidently	-0.3357761
-5.301864	Evil	-0.3009303
-5.301864	Ex-President	-0.3010278
-4.097744	Exactly	-0.7422931
-5.301864	Examine	-0.29957
-5.301864	Exceedingly	-0.2998993
-4.140496	Excellent	-0.9693945
-4.903924	Except	-0.2976052
-5.125773	Exchange	-0.3010083
-4.602894	Excuse	-0.9980167
-5.301864	Exeter	-0.2774197
-5.301864	Exit	-0.2837455
-5.301864	Experience	-0.2774197
-5.301864	Extremely	-0.2998993
-4.602894	Eyford	-0.3492502
-5.125773	Ezekiah	-0.4770367
-5.301864	F.H.M	-0.2819873
-5.301864	FEBRUARY	-0.2774197
-5.301864	FIANCEE	-0.3001828
-5.301864	FIVE	-0.3010278
-5.301864	FRESH	-0.3010278
-5.301864	FRIESLAND	-0.2774197
-5.125773	FROM	-0.4598368
-5.301864	Faber	-0.2978039
-5.301864	Face	-0.3010257
-5.301864	Faces	-0.2929007
-5.301864	Failing	-0.3005551
-5.301864	Failure	-0.2774197
-5.125773	Fairbank	-0.272108
-5.000834	Fall	-0.5830173
-5.125773	Falmouth	-0.2806912
-5.301864	Familiar	-0.2988409
-5.301864	Family	-0.3008663
-5.301864	Fancy	-0.2973681
-4.602894	Far	-0.6002378
-5.301864	Fareham	-0.2956939
-5.301864	Farewell	-0.2774197
-5.125773	Farintosh	-0.453511
-4.648652	Farm	-0.3601737
-5.301864	Farm-house	-0.2929007
-4.602894	Farnham	-0.4674098
-5.301864	Farquhar	-0.2774197
-5.301864	Farrington	-0.3008501
-5.301864	Fashionable	-0.3010278
-5.301864	Fate	-0.2980058
-5.301864	Father	-0.296001
-4.903924	February	-0.3531347
-5.301864	Feeling	-0.3008858
-5.125773	Fenchurch	-0.4769413
-4.903924	Ferguson	-0.2727909
-5.301864	Ferrers	-0.3010278
-5.125773	Ferrier	-0.274226
-5.125773	Few	-0.292524
-5.301864	Fifty	-0.3009509
-4.757796	Fighting	-0.8450904
-5.301864	Filled	-0.298477
-5.301864	Final	-0.3010278
-4.280675	Finally	-0.7402107
-5.301864	Financial	-0.3010267
-5.301864	Find	-0.3002914
-5.000834	Finding	-0.3912921
-5.301864	Fine	-0.3010191
-5.301864	Finns	-0.2923637
-4.824743	Fire	-0.7771532
-4.648652	First	-0.5257237
-4.699804	Fitzroy	-0.9030705
-4.523713	Five	-0.4432763
-5.301864	Flaubert	-0.3009758
-5.000834	Fleet	-0.6018801
-4.648652	Flora	-0.4710122
-5.301864	Florence	-0.298477
-5.000834	Florida	-0.254899
-5.301864	Flowers	-0.3001828
-5.301864	Fly	-0.2988703
-5.301864	Folk	-0.3002295
-5.301864	Follow	-0.2990467
-5.000834	Following	-0.3768443
-5.301864	Fool	-0.2953746
-5.301864	Footmarks	-0.2926621
-5.301864	Footsteps	-0.3008425
-3.542196	For	-0.5787576
-4.602894	Forbes	-0.4664952
-5.301864	Force	-0.2819873
-5.000834	Fordham	-0.2768942
-5.301864	Fordingbridge	-0.3010267
-5.125773	Fordingham	-0.2936508
-4.561502	Foreign	-0.7781361
-4.903924	Forest	-0.4765346
-5.301864	Forgery	-0.2819873
-5.301864	Forgive	-0.2995559
-5.301864	Formerly	-0.3010267
-5.301864	Forrester	-0.2774197
-5.301864	Fortescue	-0.3010278
-5.301864	Fortunately	-0.2774197
-5.301864	Fortune	-0.3001687
-5.301864	Found	-0.2932914
-4.824743	Four	-0.3076741
-4.824743	Fournaye	-0.3926217
-4.824743	Fowler	-0.2649892
-4.372445	France	-0.3738607
-5.000834	Francis	-0.3010191
-5.125773	Francisco	-0.453511
-4.824743	Franco-Midland	-0.7781448
-5.301864	Franco-Prussian	-0.3010235
-4.301864	Frank	-0.3473713
-5.125773	Frankly	-0.453511
-4.903924	Fraser	-0.3392842
-5.301864	Freebody	-0.2774197
-5.125773	Freemason	-0.453511
-5.301864	Freemasonry	-0.2987069
-4.111533	French	-0.3159275
-5.301864	Frenchman	-0.3004487
-5.301864	Frequently	-0.2819873
-5.125773	Fresh	-0.3010202
-5.125773	Fresno	-0.4769413
-4.757796	Friday	-0.3530989
-5.125773	Fritz	-0.3000275
-3.803554	From	-0.4355054
-5.125773	G	-0.2918704
-5.125773	GIBRALTAR	-0.2572881
-5.301864	GLOBE	-0.300644
-5.301864	GO	-0.2819873
-4.561502	GRAPHIC	-0.6269813
-5.301864	GUILT	-0.3010278
-5.125773	Game	-0.2904603
-5.301864	Gang	-0.2819873
-5.000834	Garden	-0.378895
-5.301864	Gardens	-0.2774197
-5.125773	Gate	-0.2749895
-5.301864	Gazetteer	-0.2819873
-4.699804	Gelder	-0.6405872
-5.125773	Gemmi	-0.2774175
-5.000834	General	-0.3979303
-5.301864	Geneva	-0.2819873
-5.301864	Geneve	-0.2997896
-5.301864	Gentlemen	-0.2774197
-4.241166	George	-0.5819191
-5.125773	Georgia	-0.2572881
-4.155736	German	-0.3442513
-5.301864	German-speaking	-0.3009238
-5.301864	Germans	-0.2819873
-4.648652	Get	-0.4086411
-5.125773	Getting	-0.29283
-5.301864	Gigantic	-0.3010181
-4.426803	Gilchrist	-0.4706336
-5.125773	Gill	-0.477118
-4.456766	Give	-0.5466933
-5.301864	Giving	-0.3010137
-5.125773	Gladstone	-0.4770952
-5.125773	Glancing	-0.2983527
-5.301864	Globe	-0.2774197
-4.903924	Gloria	-0.6989635
-5.301864	Gloves	-0.2774197
-5.125773	Go	-0.2995146
-3.803554	God	-0.6353541
-3.979645	Godfrey	-0.5040585
-4.561502	Godolphin	-1.041213
-5.301864	Gold	-0.2774197
-5.125773	Golden	-0.477118
-4.824743	Gone	-0.2619633
-4.058826	Good	-0.6940601
-5.125773	Good-afternoon	-0.453511
-5.125773	Good-by	-0.2767418
-4.699804	Good-bye	-0.4784268
-4.903924	Good-day	-0.444923
-4.903924	Good-evening	-0.4333794
-5.000834	Good-morning	-0.5784498
-4.903924	Good-night	-0.3235249
-5.125773	Goodge	-0.4769413
-5.301864	Goodwins	-0.2923637
-4.903924	Gordon	-0.3428559
-5.000834	Gorot	-0.3734203
-5.125773	Got	-0.2994406
-5.301864	Gothic	-0.3010267
-5.301864	Gottsreich	-0.3010278
-5.125773	Government	-0.453511
-5.301864	Governor	-0.2926621
-4.071415	Grace	-0.4791597
-5.301864	Gradually	-0.2774197
-5.301864	Graham	-0.2923637
-5.301864	Grand	-0.3009855
-4.523713	Grange	-0.2770118
-4.699804	Grant	-0.9030781
-5.301864	Granting	-0.2953746
-5.301864	Grave	-0.3008425
-4.903924	Gravesend	-0.2717848
-5.301864	Gray	-0.29962
-4.602894	Great	-0.3977698
-4.903924	Grecian	-0.3006744
-5.000834	Greece	-0.2725723
-4.280675	Greek	-0.2917079
-5.301864	Greenwich	-0.2819873
-4.602894	Gregory	-0.4625738
-5.125773	Gregson	-0.2682641
-5.301864	Grenoble	-0.2774197
-5.301864	Gresham	-0.3010278
-5.301864	Grice	-0.3010278
-4.648652	Grimesby	-0.9542187
-5.301864	Grit	-0.2956939
-5.301864	Groat	-0.29962
-5.301864	Gross	-0.3010159
-4.903924	Grosvenor	-0.3009866
-5.301864	Grove	-0.3010018
-5.125773	Guards	-0.2793195
-5.125773	Guild	-0.2895789
-5.301864	Gustave	-0.3010278
-4.757796	H	-0.2459365
-4.824743	H.	-0.288805
-5.000834	HAD	-0.2756771
-5.301864	HAMPSTEAD	-0.2819873
-5.301864	HAND	-0.2819873
-5.125773	HAVE	-0.2968137
-5.301864	HE	-0.3006928
-5.125773	HERE	-0.3010257
-5.301864	HIM	-0.2819873
-4.260471	HOLMES	-0.6046802
-5.301864	HOPKINS	-0.2819873
-5.000834	HUNTER	-0.3787524
-4.222682	Ha	-1.072246
-4.324141	Had	-0.4338548
-5.301864	Hafiz	-0.2988409
-5.301864	Hague	-0.300644
-4.648652	Half	-0.4002052
-5.125773	Half-past	-0.3004867
-5.301864	Halfway	-0.3003837
-5.301864	Halifax	-0.2774197
-3.878618	Hall	-0.5837274
-5.125773	Hallamshire	-0.3002328
-4.488951	Halloa	-0.8204339
-5.301864	Ham	-0.2923637
-5.000834	Hammersmith	-0.2760652
-4.757796	Hampshire	-0.2925154
-4.757796	Hampstead	-0.3537556
-5.301864	Handsome	-0.2987069
-5.301864	Hankey	-0.29962
-5.125773	Hanover	-0.4771007
-5.301864	Harden	-0.2774197
-4.602894	Harding	-0.4200266
-5.000834	Hardly	-0.3921309
-4.824743	Hardware	-0.7781415
-4.903924	Hardy	-0.6753598
-5.301864	Hare	-0.300965
-5.301864	Hargreave	-0.2774197
-4.488951	Harker	-0.3689177
-5.125773	Harley	-0.4769413
-4.757796	Harold	-0.392559
-5.301864	Harpooner	-0.2987069
-5.000834	Harris	-0.2749608
-4.280675	Harrison	-0.319308
-5.000834	Harrow	-0.3541981
-4.903924	Harry	-0.4770974
-4.456766	Has	-0.3478239
-4.324141	Hatherley	-0.4631597
-5.000834	Hatty	-0.602046
-5.301864	Havana	-0.2774197
-3.776819	Have	-0.8364384
-4.241166	Having	-0.4074503
-5.301864	Hay	-0.3010246
-4.372445	Hayes	-0.2673358
-5.301864	Hayling	-0.2774197
-5.000834	Hayter	-0.2628386
-5.301864	Hayward	-0.2774197
-2.582947	He	-0.629163
-5.301864	Head	-0.3010246
-5.301864	Head-keeper	-0.3009801
-4.699804	Heath	-0.3343284
-4.241166	Heaven	-0.4304343
-5.000834	Heavens	-0.3732758
-5.301864	Heavy	-0.3010235
-5.301864	Hebrew	-0.3010278
-5.000834	Hebron	-0.3541981
-4.903924	Hector	-0.6989418
-5.301864	Heh	-0.2987069
-4.757796	Heidegger	-0.4519165
-5.301864	Heir	-0.2923637
-4.903924	Helen	-0.3432897
-4.903924	Help	-0.359927
-5.000834	Hence	-0.2676116
-5.000834	Henri	-0.6020535
-4.347621	Henry	-0.5598233
-4.000834	Her	-0.3153405
-5.125773	Hercules	-0.4580786
-5.125773	Herder	-0.2765172
-3.634411	Here	-0.6907216
-5.125773	Hereford	-0.2923604
-5.125773	Herefordshire	-0.281797
-5.301864	Herr	-0.3010224
-5.301864	Hers	-0.2980058
-5.000834	High	-0.6018801
-5.301864	Highness	-0.2929007
-5.301864	Highway	-0.2819873
-4.488951	Hilda	-0.447295
-4.699804	Hill	-0.2970881
-5.301864	Hills	-0.2987069
-4.187921	Hilton	-0.9463624
-5.301864	Himalayas	-0.2774197
-3.299698	His	-0.4008079
-5.301864	Histon	-0.2774197
-5.125773	Hitherto	-0.288196
-5.301864	Hof	-0.2774197
-5.125773	Holborn	-0.2572881
-4.824743	Hold	-0.4035057
-4.324141	Holder	-0.6067776
-4.324141	Holdernesse	-0.4947647
-4.426803	Holdhurst	-0.4216104
-5.301864	Holiness	-0.2837455
-5.125773	Holland	-0.2572881
-5.301864	Hollows	-0.2819873
-5.301864	Holly	-0.3001687
-2.413966	Holmes	-0.6619269
-5.301864	Holy	-0.3010235
-5.301864	Honoria	-0.3010278
-5.301864	Honour	-0.2819873
-4.699804	Honourable	-0.5227378
-5.301864	Hood	-0.2774197
-5.301864	Hooliganism	-0.2987287
-4.523713	Hope	-0.3671224
-3.7108	Hopkins	-0.5583866
-5.301864	Hopley	-0.3010191
-4.648652	Horace	-0.5393606
-4.456766	Horner	-0.3745837
-5.125773	Horrified	-0.2977362
-4.561502	Horsham	-0.500289
-4.241166	Hosmer	-0.5912422
-5.301864	Hospital	-0.2774197
-4.561502	Hotel	-0.3318058
-4.398774	House	-0.4045236
-5.301864	Houses	-0.2926621
-3.531012	How	-0.6148013
-4.757796	Howells	-0.3502044
-4.02311	However	-0.9799819
-3.940136	Hudson	-0.4188968
-4.824743	Hugh	-0.5440561
-5.301864	Huguenot	-0.3010267
-4.757796	Hullo	-0.5773958
-4.324141	Hum	-1.277755
-5.301864	Human	-0.3009769
-5.301864	Hungarian	-0.3008793
-4.17153	Hunter	-0.3935938
-5.301864	Huret	-0.2774197
-4.602894	Hurlstone	-0.3069161
-5.301864	Hurrah	-0.3000319
-4.301864	Huxtable	-0.4669775
-5.301864	Hyde	-0.3010148
-1.683554	I	-0.8906766
-5.125773	I.	-0.2910706
-5.301864	IDENTITY	-0.2929106
-4.903924	II	-0.6799273
-5.301864	II.	-0.3001828
-4.903924	III	-0.6799273
-5.301864	III.	-0.3001828
-5.301864	IMPORTANT	-0.3010278
-5.125773	IN	-0.3010257
-5.301864	IRENE	-0.3010278
-4.824743	IS	-0.2927008
-4.903924	IT	-0.4688285
-5.000834	IV	-0.5830173
-5.301864	IV.	-0.3001828
-5.000834	IX	-0.5830173
-5.301864	IX.	-0.3001828
-5.301864	Identity	-0.3010257
-5.301864	Idiot	-0.2953746
-3.243059	If	-0.7462798
-5.000834	Imagine	-0.3715278
-5.301864	Imitated	-0.2819873
-5.301864	Immediately	-0.3009953
-5.125773	Imperial	-0.3010257
-5.125773	Important	-0.2809444
-4.824743	Impossible	-0.5194039
-3.239282	In	-0.5818725
-5.301864	Incidentally	-0.2919357
-5.301864	Incredible	-0.3010278
-4.17153	Indeed	-0.8276387
-4.456766	India	-0.3653195
-4.301864	Indian	-0.3115687
-5.125773	Indians	-0.276344
-5.301864	Indirectly	-0.2969121
-5.301864	Inference	-0.3001828
-4.699804	Inn	-0.3865592
-5.301864	Inner	-0.3010246
-5.125773	Inquiries	-0.2972129
-5.301864	Inquiry	-0.296001
-5.301864	Insensibly	-0.2998189
-5.000834	Inside	-0.3926369
-3.694409	Inspector	-0.417735
-5.000834	Instead	-0.5936921
-5.301864	Interlaken	-0.2774197
-5.301864	International	-0.2774197
-5.301864	Internationals	-0.2819873
-5.125773	Interpreter	-0.2774048
-4.903924	Into	-0.4745246
-5.301864	Ionides	-0.2926621
-4.372445	Irene	-0.7765149
-5.125773	Iris	-0.2819273
-5.301864	Irish	-0.3010267
-5.301864	Irish-setter	-0.2774197
-3.862531	Is	-0.5924204
-4.903924	Isa	-0.4580683
-5.301864	Islander	-0.2956939
-5.301864	Isle	-0.2926621
-2.537314	It	-1.09081
-4.398774	Italian	-0.3160451
-5.125773	Italians	-0.2944382
-5.125773	Italy	-0.2872216
-4.648652	Its	-0.3008576
-5.125773	Ivy	-0.3010083
-4.757796	J	-0.4580514
-5.301864	J.	-0.3010267
-5.301864	J.H.N	-0.2819873
-5.000834	J.P.	-0.373716
-5.301864	JABEZ	-0.3010278
-5.301864	JANUARY	-0.2774197
-5.301864	JEPHRO	-0.3010278
-5.301864	JULY	-0.2774197
-5.301864	JUNE	-0.2774197
-4.561502	Jabez	-0.7781047
-4.324141	Jack	-0.4173871
-5.301864	Jack-in-office	-0.3000319
-5.125773	Jackson	-0.298562
-5.000834	Jacobs	-0.3736519
-3.832042	James	-0.4233228
-5.000834	Jane	-0.3743252
-5.301864	Janet	-0.3010278
-4.757796	January	-0.4353249
-5.301864	Japan	-0.2819873
-4.824743	Japanese	-0.3521576
-4.903924	Jem	-0.2774014
-5.301864	Jeremiah	-0.3010278
-5.125773	Jeremy	-0.4771169
-5.301864	Jersey	-0.2956939
-5.301864	Jew	-0.29962
-5.301864	Jewel	-0.3010257
-5.301864	Jezail	-0.3010072
-5.301864	Jingo	-0.3000319
-5.125773	Johann	-0.2987047
-5.125773	Johannesburg	-0.2572881
-3.886891	John	-0.5066741
-5.301864	Johnnie	-0.2919357
-5.301864	Johnson	-0.2774197
-5.125773	Joint	-0.2811509
-4.456766	Jonas	-1.146099
-4.523713	Jones	-0.35337
-4.204954	Joseph	-0.3573011
-5.125773	Josiah	-0.4771104
-5.125773	Journal	-0.3007145
-4.488951	Jove	-0.8204338
-5.301864	Jowaki	-0.3010267
-5.301864	Juan	-0.2774197
-5.301864	Jubilee	-0.2774197
-5.000834	Julia	-0.3890869
-5.000834	July	-0.2767946
-5.000834	Jump	-0.2708751
-5.000834	Junction	-0.3541981
-4.602894	June	-0.41234
-5.301864	Jungle	-0.2774197
-5.301864	Juryman	-0.3008913
-4.08438	Just	-0.3219293
-5.301864	Justice	-0.2926621
-4.903924	K	-0.2705358
-4.398774	K.	-0.5180794
-5.301864	K.G.	-0.2774197
-5.301864	KILLED	-0.300992
-5.301864	KNEW	-0.2953746
-5.000834	KNOW	-0.2911593
-4.903924	Kate	-0.2800469
-5.301864	Keep	-0.2953746
-5.301864	Kemp	-0.3001828
-5.301864	Kennedy	-0.2774197
-4.757796	Kennington	-0.593365
-4.602894	Kensington	-0.3342512
-5.301864	Kensington.	-0.3001828
-4.699804	Kent	-0.47871
-5.125773	Kentish	-0.3009292
-5.301864	Khalifa	-0.2988082
-5.301864	Khartoum	-0.2774197
-5.000834	Kilburn	-0.3541981
-5.301864	Kill	-0.2969121
-5.301864	Kimberley	-0.2929007
-4.523713	Kindly	-0.3208942
-3.979645	King	-0.4592252
-4.757796	Kirwan	-0.2911018
-5.125773	Klan	-0.2795598
-5.125773	Klux	-0.477118
-5.000834	Knowing	-0.2924046
-5.301864	Known	-0.2929007
-5.125773	Kramm	-0.2572881
-5.000834	Kratides	-0.3541981
-5.301864	Ku	-0.3010267
-5.000834	L	-0.373254
-5.301864	L.	-0.3010257
-5.301864	L10	-0.3010072
-5.301864	L200	-0.2819873
-5.301864	L300	-0.2819873
-5.301864	L500	-0.2819873
-5.301864	LATER.	-0.3001828
-5.000834	LEAGUE	-0.2917874
-5.301864	LESLIE	-0.3010278
-5.301864	LESTRADE	-0.2819873
-5.301864	LIP	-0.3010246
-5.301864	LOUD	-0.3010246
-5.125773	La	-0.3010257
-5.000834	Laburnum	-0.3010105
-4.903924	Lachine	-0.3240383
-4.046591	Lady	-0.7302355
-5.301864	Lady-day	-0.2774197
-5.301864	Lancashire	-0.2923637
-4.903924	Lancaster	-0.3242313
-4.347621	Lane	-0.4332755
-5.301864	Langham	-0.3008858
-5.301864	Langmere	-0.2774197
-5.125773	Lanner	-0.2572881
-5.000834	Large	-0.277382
-4.488951	Lascar	-0.3657324
-4.757796	Last	-0.3418935
-5.125773	Lat	-0.4580786
-5.000834	Late	-0.2930519
-4.699804	Latimer	-0.3267398
-5.301864	Lattice-paned	-0.2774197
-5.301864	Lauder	-0.2774197
-4.824743	Leadenhall	-0.7779713
-4.456766	League	-0.3500835
-5.301864	Leaning	-0.2997896
-4.903924	Leatherhead	-0.3217771
-5.000834	Leave	-0.2834307
-5.301864	Leaving	-0.3010202
-5.301864	Lebanon	-0.2774197
-4.523713	Lee	-0.5216247
-5.301864	Left	-0.2973681
-5.301864	Legation	-0.2987069
-5.301864	Legion	-0.2926621
-5.301864	Leone	-0.3006928
-4.757796	Leslie	-0.8450785
-3.444532	Lestrade	-0.5857295
-5.301864	Lesurier	-0.2774197
-3.757796	Let	-0.8626611
-5.301864	Letter	-0.2995678
-5.301864	Leuk	-0.2774197
-5.301864	Leverstoke	-0.2774197
-5.301864	Lewisham	-0.3010029
-5.125773	Lexington	-0.2740127
-5.301864	Lhassa	-0.2923637
-5.301864	Liberal	-0.2988409
-5.301864	Lie	-0.3009953
-5.125773	Lieutenant	-0.2926477
-5.125773	Light	-0.2932891
-5.301864	Light-houses	-0.2774197
-5.125773	Like	-0.292199
-4.903924	Limited	-0.4333794
-5.301864	Lip	-0.3010257
-4.824743	Listen	-0.5118698
-5.301864	Little	-0.3005887
-4.824743	Liverpool	-0.3820278
-5.301864	Living	-0.2956939
-5.301864	Llama	-0.2819873
-5.301864	Lloyd	-0.29962
-5.301864	Local	-0.301004
-4.456766	Lodge	-0.4319196
-5.301864	Logic	-0.2978039
-5.301864	Lombard	-0.3008501
-3.352474	London	-0.4292032
-5.125773	Londoners	-0.2761776
-5.125773	Lone	-0.4771126
-5.125773	Long	-0.2819827
-4.204954	Look	-0.6681885
-4.903924	Looking	-0.3663113
-3.620623	Lord	-0.7381113
-5.301864	Lordship	-0.2819873
-5.301864	Lothman	-0.3010257
-5.301864	Louisiana	-0.2774197
-4.561502	Lower	-0.5440279
-5.125773	Lowther	-0.4771169
-4.280675	Lucas	-0.2970262
-5.301864	Lucerne	-0.2774197
-5.301864	Lucky	-0.2994983
-5.301864	Lucretia	-0.3010267
-4.903924	Lucy	-0.3409561
-5.000834	Luke	-0.6006501
-5.301864	Luxembourg	-0.2923637
-5.301864	Lyon	-0.3010202
-5.125773	Lyons	-0.2971888
-4.699804	Lysander	-0.9030792
-5.125773	M	-0.2759309
-5.000834	M.	-0.3743252
-5.301864	M.A.	-0.2774197
-4.456766	MAGAZINE	-1.146113
-5.301864	MAGNUM	-0.3010278
-5.301864	MAN	-0.3010278
-5.301864	MARCH	-0.2774197
-5.301864	MARY	-0.2819873
-5.301864	MAY	-0.2774197
-5.301864	MCFARLANE	-0.3010267
-5.301864	MEET	-0.3010278
-5.301864	MEMOIRS	-0.3010018
-5.301864	MENAGE	-0.2978039
-5.301864	MILVERTON	-0.2774197
-5.301864	MISS	-0.3010257
-5.301864	MORAN	-0.2774197
-5.301864	MORNING	-0.3010278
-4.903924	MR.	-0.4770768
-5.301864	MURDER	-0.3010267
-5.301864	MUST	-0.2993133
-5.000834	MY	-0.3968681
-5.301864	MYSTERY	-0.3005974
-5.125773	MacPherson	-0.2572881
-4.824743	Mackleton	-0.3235605
-5.000834	Madam	-0.3743229
-5.125773	Madame	-0.2774175
-5.301864	Mademoiselle	-0.29962
-5.301864	Madman	-0.2774197
-5.301864	Madness	-0.2774197
-5.301864	Madrid	-0.2774197
-5.000834	Mafia	-0.2563426
-5.125773	Maggie	-0.2749665
-4.301864	Majesty	-0.3725866
-4.699804	Major	-0.5228581
-5.301864	Major-General	-0.3010083
-5.125773	Make	-0.4693826
-5.301864	Making	-0.3003088
-5.301864	Malay	-0.3010246
-5.301864	Male	-0.3010235
-4.602894	Mall	-0.5558965
-5.301864	Malplaquet	-0.2997407
-4.903924	Man	-0.3415646
-5.301864	Manchester	-0.3008501
-4.648652	Manor	-0.5324674
-5.301864	Mansions	-0.2774197
-4.699804	Many	-0.3799403
-4.456766	Mapleton	-0.5845954
-5.125773	Marbank	-0.453511
-4.757796	March	-0.3647147
-5.301864	Marengo	-0.2774197
-5.301864	Margate	-0.300901
-5.301864	Mark	-0.2953746
-4.757796	Marker	-0.3687353
-5.301864	Market	-0.2819873
-5.125773	Married	-0.3000264
-5.301864	Marseilles	-0.2774197
-5.301864	Marsham	-0.2774197
-4.488951	Martin	-0.3953872
-4.097744	Mary	-0.3407813
-5.301864	Marylebone	-0.3010105
-4.903924	Master	-0.2992959
-5.301864	Mathematical	-0.3010278
-5.301864	Matheson	-0.2774197
-5.301864	Mathews	-0.2774197
-5.125773	Matters	-0.2970544
-5.301864	Maudsley	-0.2774197
-5.301864	Maupertuis	-0.3000112
-5.301864	Mauritius	-0.2819873
-4.347621	Mawson	-0.819248
-4.241166	May	-0.38389
-4.824743	Maybe	-0.4025792
-5.125773	Maynooth	-0.2682641
-4.02311	McCarthy	-0.3620518
-5.000834	McCarthys	-0.3967605
-5.125773	McCauley	-0.2773831
-4.187921	McFarlane	-0.3737794
-5.301864	McLaren	-0.2819873
-5.301864	McQuire	-0.29962
-5.301864	Meaning	-0.2953746
-4.398774	Meanwhile	-0.6348066
-5.301864	Mecca	-0.2774197
-5.301864	Medical	-0.3010267
-5.301864	Mediterranean	-0.2819873
-4.824743	Meiringen	-0.3766615
-4.301864	Melas	-0.4282381
-5.301864	Melbourne	-0.2774197
-5.301864	Memoirs	-0.298477
-4.757796	Men	-0.3732896
-5.301864	Mendicant	-0.3010278
-5.301864	Meredith	-0.2774197
-5.301864	Mereer	-0.2774197
-5.301864	Merridew	-0.2926621
-5.301864	Merrow	-0.2774197
-4.488951	Merryweather	-0.4477253
-5.301864	Metropolitan	-0.3010105
-5.301864	Meunier	-0.2774197
-5.301864	Mexico	-0.2819873
-5.301864	Middle	-0.3010278
-5.125773	Middlesex	-0.2572881
-5.301864	Midland	-0.3010278
-5.125773	Midlands	-0.2763062
-4.456766	Might	-0.6981428
-5.125773	Miles	-0.2923615
-4.824743	Millar	-0.3763215
-5.301864	Milner	-0.2923637
-3.979645	Milverton	-0.3768538
-5.301864	Mind	-0.2971604
-5.301864	Minerals	-0.2956939
-4.488951	Minister	-0.2805883
-5.125773	Ministers	-0.2996624
-5.301864	Misfortunes	-0.3006863
-3.549816	Miss	-0.7245068
-5.000834	Missing	-0.3743263
-5.301864	Mission	-0.3005139
-5.301864	Mister	-0.3008045
-5.301864	Mistress	-0.2923637
-4.757796	Mitton	-0.364449
-4.903924	Mme	-0.6799273
-5.301864	Moffat	-0.2819873
-5.301864	Molesey	-0.3010235
-3.921653	Monday	-0.5320045
-5.000834	Monica	-0.3686936
-5.125773	Monsieur	-0.3010257
-5.000834	Montague	-0.3977503
-5.301864	Montana	-0.2774197
-5.125773	Months	-0.2956325
-5.301864	Montpelier	-0.2774197
-5.125773	Moor	-0.2714462
-5.301864	Moorhouse	-0.2774197
-5.301864	Morally	-0.2774197
-4.125773	Moran	-0.3406762
-4.903924	Morcar	-0.3478787
-4.699804	More	-0.5170805
-5.301864	Morgan	-0.2837455
-4.02311	Moriarty	-0.3292946
-5.000834	Morning	-0.3979313
-5.125773	Morris	-0.28138
-4.648652	Morrison	-0.361791
-4.602894	Morse	-0.9999502
-4.824743	Mortimer	-0.3085497
-4.903924	Morton	-0.343738
-4.824743	Most	-0.4174461
-5.125773	Mother	-0.2944074
-4.903924	Moulton	-0.4333794
-4.488951	Mount-James	-0.5521575
-3.832042	Mr	-1.751809
-2.695483	Mr.	-0.9010983
-4.903924	Mrs	-0.6799273
-3.57351	Mrs.	-0.7046263
-5.301864	Munich	-0.2837455
-4.561502	Munro	-0.2981321
-5.000834	Munsters	-0.2739989
-4.699804	Murder	-0.3428072
-5.301864	Murdered	-0.2987069
-5.301864	Murillo	-0.2774197
-4.903924	Murphy	-0.3338732
-5.301864	Murray	-0.2774197
-4.903924	Museum	-0.343417
-4.155736	Musgrave	-0.475517
-5.125773	Musgraves	-0.2971965
-5.301864	Music	-0.3009726
-5.301864	Must	-0.2919357
-5.000834	Mutiny	-0.3742794
-3.213728	My	-0.519924
-4.140496	Mycroft	-0.4179985
-5.125773	Myrtles	-0.2765252
-4.824743	Mystery	-0.3996555
-5.125773	N	-0.453511
-5.125773	N'T	-0.2991838
-5.301864	N.	-0.3010267
-5.301864	NEVILLE	-0.2819873
-5.125773	NN	-0.2906124
-5.301864	NOBLE	-0.3010278
-5.301864	NORTON	-0.2774197
-5.000834	NOT	-0.300837
-5.301864	NOVEMBER	-0.2774197
-5.301864	NOVO	-0.2923637
-5.301864	Name	-0.2837455
-4.757796	Nancy	-0.3085582
-5.301864	Naples	-0.2774197
-4.398774	Napoleon	-0.3102823
-5.125773	Napoleonic	-0.3010018
-5.125773	Napoleons	-0.4580786
-5.301864	Narbonne	-0.2923637
-4.757796	Naturally	-0.3510539
-4.824743	Nature	-0.2693834
-5.000834	Naval	-0.6020557
-5.125773	Nay	-0.453511
-4.757796	Near	-0.3790897
-5.301864	Nearer	-0.2837455
-4.824743	Nearly	-0.3438389
-5.125773	Ned	-0.2956643
-5.301864	Negro	-0.2819873
-5.000834	Neill	-0.291126
-4.699804	Neither	-0.2886017
-4.602894	Neligan	-0.2664831
-5.301864	Nepaul	-0.3007904
-5.301864	Nervous	-0.3010116
-5.301864	Netherland-Sumatra	-0.3010202
-4.222682	Never	-0.3469937
-4.324141	Neville	-0.8417224
-4.523713	New	-0.4097646
-5.000834	Newhaven	-0.3541981
-5.125773	News	-0.453511
-5.301864	Newton	-0.29962
-4.757796	Next	-0.3967431
-5.125773	Night	-0.2920519
-5.301864	Nights	-0.2774197
-5.301864	Nihilist	-0.301017
-5.301864	Nihilists	-0.2774197
-5.301864	Nimes	-0.2774197
-3.131603	No	-0.7849288
-5.301864	Noble	-0.3010278
-5.301864	Nonconformist	-0.3010181
-4.324141	None	-0.459379
-4.648652	Nor	-0.3186656
-5.301864	Norah	-0.3010278
-4.824743	Norbury	-0.3810471
-4.324141	Norfolk	-0.3557376
-5.301864	Norman	-0.3010278
-4.561502	North	-0.3925093
-5.301864	Northern	-0.3010235
-5.000834	Northumberland	-0.397541
-4.757796	Norton	-0.3480971
-5.000834	Norway	-0.2807843
-5.125773	Norwegian	-0.3009975
-5.000834	Norwich	-0.275831
-4.301864	Norwood	-0.427775
-5.301864	Nos	-0.2819873
-3.810502	Not	-0.4246988
-3.949682	Nothing	-0.3864952
-5.301864	Noticed	-0.3008783
-5.301864	Nous	-0.3010278
-5.301864	Nov	-0.2819873
-5.301864	Nova	-0.3010278
-5.301864	November	-0.2819873
-3.352474	Now	-0.7682931
-5.301864	Nursed	-0.299908
-4.903924	O	-0.4333794
-5.301864	OCTOBER	-0.2774197
-4.187921	OF	-0.8602579
-5.301864	ONCE	-0.2774197
-5.301864	OPUS	-0.3001828
-5.301864	ORANGE	-0.3010278
-5.301864	OVERTON	-0.2819873
-5.301864	Oakington	-0.2982382
-4.699804	Oakshott	-0.4129918
-5.301864	Oberstein	-0.2774197
-4.903924	Obviously	-0.3499802
-5.301864	Occasionally	-0.2969121
-5.301864	Occurrence	-0.2988082
-5.301864	Ocean	-0.300952
-5.000834	October	-0.2572857
-5.301864	Odd	-0.2774197
-5.301864	Odessa	-0.2956939
-3.678615	Of	-0.7848904
-5.301864	Off	-0.2919357
-4.561502	Office	-0.4940927
-5.301864	Officer	-0.2956939
-5.301864	Often	-0.2969121
-3.488951	Oh	-1.402343
-4.398774	Old	-0.4554642
-4.17153	Oldacre	-0.4100742
-3.453675	On	-0.6775103
-4.456766	Once	-0.3718483
-3.639106	One	-0.4968344
-4.125773	Only	-0.3938074
-5.301864	Open	-0.2969121
-5.125773	Opening	-0.2794596
-4.372445	Openshaw	-0.2855557
-5.301864	Opera	-0.2926621
-5.301864	Oporto	-0.2819873
-5.125773	Opposite	-0.294866
-4.488951	Or	-0.3071911
-5.301864	Orange	-0.3010278
-5.125773	Order	-0.291587
-5.301864	Ordering	-0.2983767
-5.301864	Oriental	-0.3009964
-5.301864	Orientals	-0.3002295
-5.301864	Origin	-0.2926621
-5.125773	Ormstein	-0.453511
-5.301864	Oscar	-0.3010278
-5.301864	Oscillation	-0.2997407
-5.125773	Other	-0.3008674
-5.301864	Others	-0.2998537
-5.000834	Otherwise	-0.2820722
-3.776819	Our	-0.39978
-4.648652	Out	-0.553263
-5.301864	Outrage	-0.2819873
-4.824743	Outside	-0.3785463
-4.903924	Over	-0.4560255
-4.426803	Overton	-0.3757004
-5.301864	Owe	-0.3000319
-5.301864	Owns	-0.3005139
-4.398774	Oxford	-0.657447
-5.301864	Oxfordshire	-0.2774197
-5.000834	P	-0.2682618
-5.125773	P.	-0.3009975
-5.301864	P.C	-0.2819873
-5.301864	PIPS	-0.3008425
-5.301864	PORTIERE	-0.2988082
-5.301864	POST	-0.2929007
-5.301864	Pa	-0.3007666
-5.125773	Pacific	-0.3010235
-4.561502	Paddington	-0.2924944
-5.301864	Paisley	-0.3010267
-5.301864	Palace	-0.2774197
-4.602894	Pall	-0.9999892
-5.301864	Palladio	-0.2819873
-4.824743	Palmer	-0.3178867
-5.301864	Palmer-tyred	-0.2774197
-5.301864	Pals	-0.2926621
-5.301864	Panama	-0.3009639
-5.301864	Pancras	-0.3010181
-5.301864	Paradol	-0.3010278
-5.125773	Paramore	-0.2572881
-4.456766	Paris	-0.3086937
-5.301864	Parisian	-0.3008793
-4.456766	Park	-0.5787199
-4.903924	Parker	-0.3431555
-5.125773	Parliament	-0.2788271
-5.125773	Parr	-0.453511
-5.301864	Pass	-0.2774197
-5.301864	Passing	-0.3003837
-5.301864	Patersons	-0.2956939
-5.301864	Patience	-0.3009975
-5.125773	Patient	-0.2921083
-4.699804	Patrick	-0.4985745
-5.301864	Patterson	-0.2953746
-5.301864	Pattins	-0.2819873
-4.903924	Paul	-0.3655612
-5.301864	Paulo	-0.2774197
-5.301864	Peace	-0.301004
-5.301864	Peak	-0.3009238
-5.301864	Peculiar	-0.3001828
-5.301864	Peeping	-0.3002186
-5.125773	Peering	-0.2954163
-5.301864	Penang-lawyer	-0.3010257
-5.301864	Pencils	-0.2774197
-5.301864	Pending	-0.2837455
-5.301864	Pennsylvania	-0.2774197
-5.301864	Pentonville	-0.2819873
-5.301864	People	-0.300721
-5.301864	Perceiving	-0.2932914
-4.398774	Percy	-0.5375577
-5.301864	Perfectly	-0.2998993
-4.000834	Perhaps	-0.4537313
-5.125773	Persia	-0.2572881
-4.903924	Persian	-0.4770898
-5.301864	Personally	-0.2919357
-4.058826	Peter	-0.6025224
-5.301864	Petersfield	-0.2819873
-4.523713	Peterson	-0.4159412
-5.301864	Petrarch	-0.2774197
-5.301864	Petrified	-0.298477
-5.301864	Petty	-0.3010278
-5.301864	Ph.D.	-0.2774197
-3.99011	Phelps	-0.4323161
-5.125773	Philadelphia	-0.2819737
-5.301864	Philosophy	-0.2774197
-5.301864	Pickwick	-0.29962
-4.757796	Pietro	-0.2623746
-5.125773	Pince-Nez	-0.4580786
-5.301864	Pink	-0.3010116
-5.301864	Pinkerton	-0.3010224
-4.456766	Pinner	-0.3949638
-5.301864	Pioneers	-0.2819873
-5.301864	Pipes	-0.3000112
-5.301864	Pips	-0.3010257
-4.903924	Pitt	-0.6987901
-4.648652	Place	-0.367141
-5.301864	Plant	-0.2988703
-5.301864	Plantagenet	-0.3009726
-5.301864	Plate	-0.3010257
-5.301864	Platz	-0.2774197
-5.301864	Play	-0.3010202
-5.125773	Please	-0.299309
-5.301864	Plumb	-0.2956939
-5.301864	Plural	-0.3000319
-5.301864	Plymouth	-0.2988082
-5.301864	Poe	-0.29962
-5.000834	Police	-0.3743275
-5.301864	Police-Constable	-0.3010278
-5.301864	Police-constable	-0.3010278
-5.301864	Pollock	-0.3010061
-4.648652	Pompey	-0.3006535
-4.903924	Pondicherry	-0.4478749
-5.125773	Pooh	-0.2763658
-4.561502	Pool	-0.4911453
-4.824743	Poor	-0.3003826
-4.824743	Pope	-0.5418082
-5.301864	Portsdown	-0.3010213
-5.301864	Portsmouth	-0.3009433
-5.301864	Portuguese	-0.3010202
-4.824743	Possibly	-0.2323194
-5.000834	Post	-0.2688189
-5.301864	Posted	-0.3009953
-5.301864	Potter	-0.29962
-5.301864	Powdered	-0.3010105
-5.301864	Prague	-0.2988703
-3.895324	Pray	-0.5314121
-4.372445	Precisely	-0.7566398
-4.561502	Premier	-0.3225395
-4.523713	Prendergast	-0.3149212
-4.824743	Presently	-0.5393481
-5.301864	President	-0.2923637
-4.903924	Press	-0.3428214
-5.125773	Presuming	-0.4714659
-5.125773	Price	-0.2749665
-5.301864	Prima	-0.3010278
-4.602894	Prime	-0.9999859
-5.125773	Prince	-0.2920419
-5.301864	Princess	-0.2774197
-5.301864	Principal	-0.2926621
-5.301864	Pringle	-0.2774197
-4.757796	Priory	-0.5988284
-5.301864	Pritchard	-0.2998537
-5.301864	Private	-0.3010267
-4.824743	Probably	-0.3257495
-5.301864	Problem	-0.2997679
-5.301864	Problems	-0.3005171
-5.301864	Proceed	-0.2774197
-3.839466	Professor	-0.5596291
-5.125773	Promise	-0.2918837
-5.301864	Proosia	-0.2774197
-5.301864	Prosper	-0.2819873
-5.301864	Providence	-0.3009465
-5.125773	Pshaw	-0.2763658
-5.301864	Public	-0.301017
-5.301864	Pugilist	-0.2819873
-5.000834	Pull	-0.3969854
-5.301864	Pullman	-0.3010278
-5.301864	Punjab	-0.2774197
-5.301864	Purely	-0.3010246
-5.301864	Puritan	-0.3001828
-5.301864	Purple	-0.3010116
-4.903924	Put	-0.3492917
-5.125773	Putting	-0.2964119
-5.125773	Puzzle	-0.2975724
-4.222682	Pycroft	-0.4613573
-4.523713	Pyland	-0.4607376
-5.301864	Queen	-0.3010278
-5.301864	Queer	-0.3008501
-4.699804	Quick	-0.6285484
-5.301864	Quiet	-0.2774197
-5.301864	Quincey	-0.29962
-4.097744	Quite	-0.827686
-5.301864	R	-0.2774197
-5.125773	R.	-0.2926654
-5.000834	RED-HEADED	-0.6020557
-4.426803	RETURN	-1.176063
-5.000834	ROCK	-0.3743
-5.301864	RUCASTLE	-0.2819873
-4.824743	Rachel	-0.5432133
-5.000834	Ragged	-0.6020546
-5.301864	Railway	-0.2774197
-5.301864	Rain	-0.2980058
-4.757796	Ralph	-0.4534469
-4.903924	Randall	-0.2698645
-5.125773	Randalls	-0.2749665
-5.125773	Ras	-0.453511
-5.301864	Rasper	-0.2819873
-5.301864	Ratcliff	-0.3010278
-5.000834	Rather	-0.3005377
-5.125773	Read	-0.4730034
-4.426803	Reading	-0.406278
-4.824743	Really	-0.5194039
-5.301864	Recently	-0.2971495
-4.903924	Red	-0.3009942
-4.757796	Red-headed	-0.6020372
-5.301864	Regency	-0.2819873
-4.903924	Regent	-0.3663831
-5.000834	Reginald	-0.6020297
-4.757796	Reichenbach	-0.3740184
-5.125773	Reigate	-0.2956907
-5.301864	Relations	-0.2998537
-5.301864	Relieved	-0.2774197
-4.824743	Remember	-0.3038938
-5.301864	Remo	-0.2819873
-5.125773	Republican	-0.3008403
-5.125773	Resident	-0.477118
-5.301864	Restaurant	-0.2774197
-5.301864	Results	-0.3008186
-5.301864	Retired	-0.2995678
-5.301864	Return	-0.3010257
-5.301864	Returning	-0.2929007
-4.757796	Reuben	-0.8450796
-5.301864	Reuter	-0.29962
-5.301864	Rhodesia	-0.2819873
-5.301864	Rhodesian	-0.3010257
-5.301864	Rhone	-0.2774197
-5.301864	Rica	-0.2774197
-5.301864	Richard	-0.301004
-5.301864	Ricoletti	-0.2926621
-5.301864	Riding	-0.3010235
-4.903924	Ridling	-0.6989635
-4.648652	Right	-0.3620238
-5.301864	Ripley	-0.2774197
-4.456766	Ritual	-0.3327653
-5.301864	River	-0.2956939
-4.187921	Road	-0.6449718
-5.301864	Roaring	-0.3010094
-5.000834	Robbery	-0.3787841
-4.757796	Robert	-0.4534092
-5.301864	Robinson	-0.2774197
-5.301864	Rockies	-0.2774197
-5.301864	Roman	-0.3010267
-4.648652	Ronald	-0.6753426
-5.301864	Room	-0.2774197
-5.301864	Rooms	-0.2982382
-5.000834	Rosenlaui	-0.3541981
-4.111533	Ross	-0.458724
-5.301864	Rothiere	-0.2774197
-5.301864	Rotterdam	-0.2819873
-5.301864	Roughly	-0.3010278
-5.000834	Round	-0.294656
-4.903924	Row	-0.2508041
-4.903924	Royal	-0.4771136
-4.260471	Roylott	-0.3921737
-5.125773	Roylotts	-0.4687534
-4.02311	Rucastle	-0.3278711
-4.903924	Rucastles	-0.2975047
-5.301864	Rue	-0.3010278
-5.301864	Rugby	-0.3010224
-5.301864	Rugger	-0.3010224
-5.301864	Run	-0.3003837
-5.301864	Running	-0.3001806
-5.301864	Rushing	-0.3004661
-5.125773	Russell	-0.2995994
-5.301864	Russia	-0.2774197
-4.426803	Russian	-0.3018337
-5.301864	Russo-German	-0.3010278
-5.125773	Ruston	-0.2572881
-4.488951	Ryder	-0.3522113
-5.000834	S	-0.3669724
-5.000834	S.	-0.294053
-5.301864	SAW	-0.2837455
-5.301864	SCANDAL	-0.3010267
-4.699804	SEA	-0.9030814
-5.301864	SEBASTIAN	-0.2774197
-5.301864	SEPTEMBER	-0.2774197
-4.324141	SHERLOCK	-1.27873
-5.301864	SIMON	-0.2819873
-5.301864	SIR	-0.3010137
-5.301864	SL.NE	-0.2819873
-5.301864	SLANE	-0.2819873
-5.301864	SLANEY	-0.2819873
-5.301864	SPECKLED	-0.3010278
-5.301864	ST	-0.2819873
-5.301864	STANLEY	-0.3010278
-4.456766	STRAND	-1.146113
-5.301864	Saddle	-0.2932914
-5.301864	Saffron	-0.3010213
-4.561502	Saltire	-0.297341
-5.301864	Same	-0.3007601
-5.301864	Samuel	-0.2819873
-4.903924	San	-0.3679692
-5.301864	Sand	-0.2819873
-4.824743	Sandeford	-0.3815168
-5.301864	Sarasate	-0.3010257
-4.426803	Saturday	-0.2688857
-5.301864	Saturdays	-0.2819873
-5.125773	Saunders	-0.4580786
-4.824743	Savannah	-0.2827401
-4.903924	Save	-0.3364199
-5.301864	Saviour	-0.29962
-4.757796	Saxe-Coburg	-0.8450775
-5.301864	Saxe-Meningen	-0.2774197
-5.125773	Saxon	-0.3010159
-5.000834	Say	-0.2896145
-5.301864	Scala	-0.2774197
-5.301864	Scandal	-0.2956939
-5.000834	Scandinavia	-0.3541981
-4.757796	Scarlet	-0.8214878
-5.301864	Scholarship	-0.2819873
-4.903924	School	-0.4333794
-5.301864	Scot	-0.3000319
-4.903924	Scotch	-0.3677514
-5.301864	Scotch-woman	-0.2819873
-5.301864	Scotia	-0.2774197
-4.071415	Scotland	-1.073806
-4.824743	Scott	-0.3189525
-4.757796	Scott_	-0.3367199
-5.301864	Scoundrel	-0.3000319
-5.301864	Scylla	-0.2923637
-5.301864	Sea	-0.2819873
-5.301864	Seated	-0.2956939
-5.125773	Sebastian	-0.4770887
-4.699804	Second	-0.4936266
-4.561502	Secretary	-0.2883289
-4.372445	See	-0.4889547
-5.000834	Seeing	-0.3747689
-5.301864	Seems	-0.2929007
-5.301864	Seen	-0.2837455
-5.301864	Seizing	-0.2983767
-5.000834	Seldom	-0.3951144
-5.000834	Send	-0.2819816
-5.301864	September	-0.2774197
-4.903924	Sergeant	-0.3678717
-5.125773	Sergius	-0.2749665
-4.757796	Serpentine	-0.3764573
-5.125773	Serpentine-mews	-0.453511
-5.301864	Serve	-0.2990467
-5.125773	Served	-0.4717852
-5.301864	Set	-0.2837455
-5.000834	Seven	-0.2998233
-4.648652	Several	-0.339504
-5.301864	Severn	-0.2774197
-5.301864	Shaftesbury	-0.3010224
-4.699804	Shall	-0.4091185
-5.301864	Sharp	-0.2988082
-4.903924	Shaw	-0.4333794
-3.184593	She	-0.4648267
-5.301864	Sheeny	-0.3005139
-5.301864	Sheep-marks	-0.2999754
-3.284831	Sherlock	-1.328153
-5.301864	Sherpur	-0.2774197
-5.301864	Shetland	-0.3010181
-5.301864	Shillings	-0.2982382
-5.125773	Shipping	-0.301017
-5.301864	Sholto	-0.3009758
-5.301864	Sholtos	-0.2819873
-4.903924	Shortly	-0.6986643
-5.301864	Shot	-0.3007557
-4.699804	Should	-0.420945
-5.301864	Show	-0.3004813
-5.301864	Showing	-0.2953746
-5.000834	Siberia	-0.2472189
-5.301864	Sidelights	-0.2997896
-5.301864	Sierra	-0.3010278
-5.301864	Sigerson	-0.2774197
-5.301864	Sigismond	-0.3010257
-5.000834	Sign	-0.5936921
-5.301864	Sikhs	-0.2774197
-4.757796	Silas	-0.8450872
-4.456766	Silver	-1.146113
-4.000834	Simon	-0.3669768
-5.301864	Simply	-0.2999634
-4.347621	Simpson	-0.2635901
-4.648652	Since	-0.3216819
-5.301864	Singleford	-0.29962
-5.301864	Singularity	-0.2978039
-4.097744	Sir	-0.5580496
-4.824743	Sit	-0.7775049
-4.824743	Six	-0.3511714
-4.602894	Slaney	-0.4625421
-5.301864	Slater	-0.2774197
-5.301864	Sleepy	-0.3010278
-5.301864	Slipping	-0.3007557
-5.000834	Slowly	-0.2719041
-5.301864	Smack	-0.3000319
-5.301864	Small	-0.2774197
-5.301864	Smart	-0.300862
-4.155736	Smith	-0.413235
-5.301864	Smith-Mortimer	-0.3010191
-5.301864	Snake-catcher	-0.2978039
-5.301864	Snapping	-0.3007427
-3.542196	So	-0.4898387
-4.111533	Soames	-0.4364451
-5.301864	Society	-0.2774197
-5.301864	Sold	-0.3000818
-5.125773	Solitary	-0.477118
-4.097744	Some	-0.3576726
-5.301864	Somebody	-0.300991
-4.699804	Someone	-0.370192
-4.699804	Something	-0.3154931
-4.602894	Sometimes	-0.410035
-5.301864	Somomy	-0.3010181
-5.301864	Son	-0.2926621
-5.301864	Sooner	-0.3004487
-4.903924	Sophy	-0.2809376
-5.000834	Sorry	-0.5939307
-5.301864	Sound	-0.2988409
-4.324141	South	-0.4587953
-4.903924	Southampton	-0.2638751
-5.000834	Southern	-0.3979292
-5.301864	Southerton	-0.29962
-5.301864	Southsea	-0.2819873
-5.301864	Sovereign	-0.3001752
-5.301864	Spare	-0.2990467
-4.648652	Spaulding	-0.2810409
-5.301864	Speak	-0.3000818
-5.125773	Speaking	-0.3010191
-5.125773	Speckled	-0.477118
-5.125773	Spence	-0.4771093
-5.301864	Spies	-0.2923637
-5.301864	Splendid	-0.3000319
-4.324141	Square	-0.463746
-5.301864	Squatted	-0.2997896
-5.125773	St	-0.4580786
-3.663375	St.	-0.9109598
-4.903924	Stain	-0.3165254
-5.301864	Stamford	-0.2774197
-5.000834	Stand	-0.2992285
-5.125773	Standard	-0.2572881
-5.125773	Standing	-0.2944382
-4.155736	Stanley	-1.447073
-4.699804	Star	-0.3865103
-4.602894	Stark	-0.2679766
-5.301864	Stars	-0.2923637
-5.301864	Starving	-0.2819873
-5.000834	State	-0.2987538
-5.000834	States	-0.2749585
-4.347621	Station	-0.4709361
-4.097744	Staunton	-0.3436107
-5.301864	Stay	-0.3006994
-5.000834	Steiler	-0.2784871
-5.125773	Step	-0.2987418
-4.903924	Stepney	-0.4333794
-5.301864	Stepping	-0.3000818
-5.301864	Stevens	-0.2774197
-5.125773	Stevenson	-0.2740127
-5.000834	Stewart	-0.5784498
-5.301864	Stick	-0.2988082
-4.280675	Still	-0.5462756
-5.125773	Stock	-0.477118
-5.301864	Stock-Broker	-0.29962
-4.523713	Stoke	-1.079149
-5.125773	Stolen	-0.2572881
-4.301864	Stoner	-0.3918301
-4.824743	Stop	-0.2689893
-4.757796	Stoper	-0.3476678
-4.011829	Straker	-0.418654
-4.824743	Strand	-0.406729
-5.301864	Strange	-0.2774197
-5.301864	Stranger	-0.29962
-5.125773	Strasburg	-0.281985
-4.903924	Streatham	-0.2679625
-3.382786	Street	-0.4847746
-5.301864	Striding	-0.3007557
-5.301864	Stripes	-0.2819873
-5.125773	Strong	-0.4749322
-5.301864	Stroud	-0.3010213
-5.301864	Stuarts	-0.2819873
-5.125773	Students	-0.4580786
-4.757796	Study	-0.839762
-5.301864	Subtle	-0.3008425
-5.125773	Suburban	-0.4771137
-4.372445	Such	-0.4978599
-4.204954	Suddenly	-0.5479593
-5.301864	Suez	-0.3010278
-5.301864	Summer	-0.3010278
-5.301864	Sunday	-0.2919357
-5.125773	Sunday-school	-0.3007481
-4.903924	Suppose	-0.3450959
-5.301864	Supposing	-0.2953746
-5.301864	Sure	-0.3008425
-4.125773	Surely	-0.3524508
-5.301864	Surprise	-0.296001
-4.523713	Surrey	-0.3000486
-4.648652	Susan	-0.2776602
-5.125773	Suspicion	-0.292587
-4.699804	Sussex	-0.3336233
-4.523713	Sutherland	-0.394348
-5.125773	Sutton	-0.2572881
-5.125773	Swain	-0.2773831
-5.125773	Swan	-0.2977919
-4.648652	Swandam	-0.954223
-5.301864	Sweet	-0.3009259
-5.125773	Swiftly	-0.2830842
-5.301864	Swindon	-0.2774197
-4.824743	Swiss	-0.2979306
-5.125773	Switzerland	-0.2733214
-4.757796	Sydenham	-0.3454222
-5.301864	Sydney	-0.2774197
-5.125773	Syndicate	-0.4580786
-5.301864	Syria	-0.2923637
-4.903924	T	-0.3352075
-5.301864	T.	-0.2774197
-5.125773	TELEGRAPH	-0.453511
-5.125773	THAT	-0.2985674
-3.903924	THE	-0.5887622
-5.301864	THIS	-0.3009151
-5.301864	THUMB	-0.3009389
-5.301864	THY	-0.3010278
-5.125773	TIMES	-0.2774129
-4.903924	TO	-0.3009693
-5.301864	TOWERS	-0.2774197
-5.301864	TRUE	-0.3009324
-5.301864	TWISTED	-0.3010278
-5.301864	TWO	-0.3010235
-5.301864	Taciturn	-0.2774197
-5.301864	Tadpole	-0.2940651
-4.426803	Take	-0.4144493
-5.301864	Taking	-0.2837455
-5.301864	Tall	-0.2987069
-4.903924	Tangey	-0.2705985
-5.125773	Tankerville	-0.2774106
-5.301864	Tarleton	-0.3010235
-5.125773	Tarlton	-0.2572881
-4.648652	Tavistock	-0.3652654
-5.301864	Technically	-0.2774197
-4.903924	Teddy	-0.2715378
-5.125773	Telegraph	-0.2682641
-4.456766	Tell	-0.6241081
-4.903924	Temple	-0.3152352
-4.903924	Ten	-0.3669288
-5.301864	Tennessee	-0.2774197
-5.301864	Terai	-0.3010116
-4.757796	Terrace	-0.3438773
-5.125773	Terrible	-0.3000091
-5.301864	Terror	-0.3001828
-5.301864	Terse	-0.2923637
-5.125773	Testament	-0.453511
-5.301864	Teutonic	-0.3007405
-5.301864	Texas	-0.2774197
-5.000834	Thames	-0.3698385
-3.912698	Thank	-1.109964
-5.301864	Thanks	-0.2929007
-3.204954	That	-0.6115456
-2.528078	The	-0.439257
-5.301864	Theatre	-0.2819873
-4.523713	Their	-0.300261
-3.088346	Then	-0.6895874
-5.301864	Thence	-0.2971495
-5.301864	Theological	-0.3010235
-5.301864	Theorem	-0.2774197
-5.301864	Theories	-0.3000112
-2.934508	There	-1.090205
-4.398774	Therefore	-0.3552517
-5.301864	Therein	-0.3009953
-4.488951	Theresa	-0.3475291
-3.940136	These	-0.3721026
-3.406995	They	-0.5287548
-5.301864	Thick	-0.3010213
-5.125773	Things	-0.2968213
-4.757796	Think	-0.4683433
-5.125773	Third	-0.2771874
-5.301864	Thirty	-0.3009216
-3.199774	This	-0.421028
-5.301864	Thoreau	-0.29962
-5.125773	Thorneycroft	-0.4770996
-4.824743	Thorpe	-0.5418985
-4.426803	Those	-0.5508987
-5.000834	Though	-0.2914485
-5.125773	Threadneedle	-0.4769413
-5.301864	Threatens	-0.2929007
-4.324141	Three	-0.3491823
-5.125773	Three-Quarter	-0.4580786
-5.301864	Three-forty	-0.2978039
-4.699804	Through	-0.6278723
-5.301864	Throw	-0.2837455
-5.125773	Thrust	-0.2966222
-5.301864	Thucydides	-0.2819873
-5.301864	Thumb	-0.3010246
-4.757796	Thursday	-0.3885081
-5.125773	Thurston	-0.2788271
-5.125773	Thus	-0.2988104
-5.301864	Tibet	-0.2774197
-5.301864	Time	-0.296001
-5.125773	Times	-0.2921348
-5.301864	Tingling	-0.298477
-5.301864	Tiptoes	-0.3000319
-5.301864	Tired	-0.3010105
-5.301864	Tired-looking	-0.3004487
-5.301864	Title	-0.2923637
-3.733662	To	-0.3758591
-4.757796	To-day	-0.286292
-4.699804	To-morrow	-0.4239115
-5.301864	To-night	-0.2919357
-5.125773	Tobacco	-0.468455
-5.301864	Tobin	-0.2774197
-4.903924	Together	-0.4750999
-4.398774	Toller	-0.298983
-5.301864	Tollers	-0.3008977
-4.699804	Too	-0.4384986
-5.301864	Torrington	-0.3010148
-5.301864	Tosca	-0.3001828
-4.903924	Tottenham	-0.6989592
-5.301864	Tottering	-0.2923637
-5.301864	Tower	-0.2926621
-5.125773	Towers	-0.2729285
-5.301864	Trafalgar	-0.3010094
-5.301864	Tragic	-0.2774197
-5.301864	Treasury	-0.300888
-5.000834	Treaty	-0.2686776
-5.301864	Tree	-0.3010278
-5.301864	Tregellis	-0.2774197
-4.699804	Trelawney	-0.903077
-5.301864	Trepoff	-0.3009758
-4.372445	Trevelyan	-0.2923684
-4.222682	Trevor	-0.3160643
-5.301864	Trincomalee	-0.2774197
-5.125773	Trinity	-0.4771148
-5.301864	Triple	-0.3010278
-5.125773	Trumpington	-0.27349
-5.301864	Trust	-0.2990467
-5.000834	Try	-0.3806532
-5.125773	Tudor	-0.2997842
-4.324141	Tuesday	-0.4573541
-5.301864	Tunbridge	-0.3010278
-5.301864	Turkish	-0.3010213
-5.301864	Turn	-0.3004661
-4.241166	Turner	-0.4811808
-5.000834	Turning	-0.296264
-5.125773	Tuson	-0.2572881
-4.824743	Tut	-0.5194039
-5.301864	Tut-tut	-0.3000319
-5.301864	Twelve	-0.3009465
-5.301864	Twenty	-0.3004487
-5.301864	Twenty-four	-0.3010105
-5.301864	Twenty-nine	-0.2774197
-5.301864	Twenty-six	-0.3010267
-5.301864	Twenty-two	-0.3010235
-4.699804	Twice	-0.3277202
-5.301864	Twisted	-0.3010278
-4.155736	Two	-0.3853905
-5.301864	U.	-0.3010257
-5.301864	U.S.A.	-0.2998124
-5.301864	UNCLE	-0.3008913
-4.699804	UNICORN	-0.4732315
-5.301864	Uffa	-0.2774197
-5.301864	Uncle	-0.3010224
-4.903924	Under	-0.2819295
-5.301864	Under-Secretary	-0.2988703
-5.125773	Underground	-0.2901304
-5.125773	Underneath	-0.2803879
-4.602894	Undoubtedly	-0.5775884
-5.301864	Unemployed	-0.2819873
-5.301864	Unfolding	-0.2969121
-5.000834	Unfortunately	-0.3720491
-5.125773	Union	-0.2819658
-5.301864	United	-0.3010257
-5.301864	Universities	-0.2987287
-4.561502	University	-0.3042328
-4.757796	Unless	-0.2758058
-4.824743	Until	-0.3458888
-4.757796	Up	-0.5938578
-4.699804	Upon	-0.5020593
-5.000834	Upper	-0.6020502
-5.301864	Uppingham	-0.3004487
-5.301864	Uriah	-0.2923637
-5.301864	V	-0.2774197
-4.824743	V.	-0.3499858
-5.301864	VALLEY	-0.3010278
-5.301864	VERY	-0.3009747
-5.000834	VI	-0.5830173
-5.301864	VI.	-0.3001828
-5.000834	VII	-0.5830173
-5.301864	VII.	-0.3001828
-5.000834	VIII	-0.5830173
-5.301864	VIII.	-0.3001828
-5.301864	VIOLET	-0.3010257
-5.301864	Vale	-0.2774197
-4.699804	Valley	-0.2443095
-5.301864	Vamberry	-0.2774197
-5.301864	Vast	-0.3010267
-5.301864	Vegetarian	-0.3010278
-5.301864	Venezuelan	-0.3010278
-5.301864	Venner	-0.3010159
-5.125773	Venucci	-0.453511
-5.301864	Verdes	-0.2998537
-5.125773	Vere	-0.3007557
-5.125773	Verner	-0.272108
-5.301864	Vernet	-0.2774197
-3.839466	Very	-0.4695017
-4.757796	Victor	-0.3541466
-4.523713	Victoria	-0.3591181
-5.301864	Villa	-0.2940651
-5.301864	Villain	-0.3000319
-4.757796	Vincent	-0.6020481
-5.125773	Violence	-0.2925516
-4.757796	Violet	-0.4534481
-5.301864	Visited	-0.3010267
-5.125773	Vitus	-0.4757113
-5.301864	Voil	-0.3010257
-4.456766	Vol	-1.127085
-5.301864	Volume	-0.2929106
-4.903924	Von	-0.4771147
-5.301864	Vox	-0.3010278
-5.301864	W.	-0.3010267
-5.125773	WAS	-0.2756897
-5.000834	WE	-0.2965302
-5.301864	WERE	-0.3009758
-5.301864	WESTMINSTER	-0.2819873
-5.301864	WHEN	-0.2919357
-5.301864	WILSON	-0.2940651
-5.301864	WITH	-0.3009758
-4.699804	Wait	-0.5093309
-5.301864	Waldbaum	-0.2774197
-5.000834	Wales	-0.3541981
-5.301864	Walk	-0.3009509
-5.301864	Wallenstein	-0.2774197
-5.301864	Walsall	-0.2774197
-5.125773	Walsham	-0.2773579
-5.301864	Walsingham	-0.3010202
-5.301864	Want	-0.3000319
-5.301864	Wanted	-0.2774197
-4.824743	War	-0.38088
-5.301864	Warburton	-0.29962
-5.301864	Ward	-0.3010246
-5.301864	Wardlaw	-0.29962
-5.301864	Warm	-0.3000319
-5.125773	Warsaw	-0.2765252
-3.979645	Was	-0.5779086
-5.301864	Water	-0.2774197
-5.301864	Waterbeach	-0.2774197
-4.398774	Waterloo	-0.4961305
-2.984846	Watson	-1.150495
-5.125773	Watt	-0.4769413
-3.001921	We	-0.7017807
-5.301864	Wedding	-0.2998124
-5.301864	Wedlock	-0.3010235
-4.648652	Wednesday	-0.3189317
-5.301864	Weiss	-0.3010159
-5.301864	Welbeck	-0.3008501
-3.079148	Well	-1.781846
-5.301864	Well-known	-0.3010257
-5.301864	Wellington	-0.3008501
-5.301864	Wells	-0.2774197
-5.125773	Welsh	-0.3009682
-4.523713	Were	-0.4208888
-4.824743	Wessex	-0.5440594
-5.000834	West	-0.6020557
-5.301864	West-End	-0.3009845
-5.301864	West-country	-0.3010257
-5.301864	West-end	-0.2819873
-5.125773	Westaway	-0.2945746
-5.301864	Westbury	-0.3010126
-5.301864	Western	-0.3010278
-5.125773	Westhouse	-0.4771072
-4.757796	Westminster	-0.353626
-5.301864	Westphail	-0.2774197
-5.301864	Wharf	-0.2774197
-3.066336	What	-0.5913681
-4.757796	Whatever	-0.2735801
-3.364848	When	-0.5904089
-3.854706	Where	-0.5832953
-4.903924	Whether	-0.3543921
-4.488951	Which	-0.2983375
-4.824743	While	-0.3422907
-5.301864	Whip	-0.2999113
-4.699804	Whitehall	-0.3953343
-4.648652	Whitney	-0.4262343
-5.301864	Whittington	-0.2819873
-3.8705	Who	-0.4805461
-5.301864	Whoa	-0.2774197
-5.000834	Whoever	-0.2968377
-5.301864	Whole	-0.3009845
-4.903924	Whom	-0.3592475
-5.000834	Whose	-0.2717129
-3.577588	Why	-0.8482718
-5.301864	Wight	-0.2819873
-5.301864	Wigmore	-0.3008501
-4.324141	Wilder	-0.3510234
-5.301864	Wilful	-0.3010213
-5.301864	Wilhelm	-0.3010278
-4.523713	Will	-0.5658677
-4.187921	William	-0.4188516
-5.000834	Williams	-0.3728409
-4.523713	Williamson	-0.3101402
-4.602894	Willoughby	-0.9999697
-5.301864	Willows	-0.300992
-4.155736	Wilson	-0.4791366
-5.301864	Wilton	-0.3009931
-5.301864	Wimpole	-0.3008501
-4.523713	Winchester	-0.3953066
-4.280675	Windibank	-0.4028487
-5.000834	Windigate	-0.2674302
-5.301864	Wire	-0.3003435
-3.751636	With	-0.4942653
-4.699804	Within	-0.2668912
-4.699804	Without	-0.3438525
-4.602894	Witness	-0.740211
-5.125773	Wo	-0.4767386
-4.426803	Woking	-0.3056287
-5.301864	Women	-0.3000112
-4.699804	Wonderful	-0.9020919
-4.699804	Wood	-0.3875725
-5.301864	Wooden-leg	-0.2980058
-5.125773	Woodhouse	-0.4757113
-4.17153	Woodley	-0.3471287
-4.903924	Woodman	-0.6975601
-5.301864	Work	-0.2978039
-5.301864	Working	-0.298477
-5.301864	Worship	-0.2774197
-5.125773	Worthingdon	-0.4771039
-4.426803	Would	-0.3592887
-5.000834	Wright	-0.2733295
-5.301864	Written	-0.2956939
-4.903924	X	-0.4580763
-5.301864	X.	-0.3001828
-5.000834	XI	-0.5830173
-5.301864	XI.	-0.3001828
-5.125773	XII	-0.4580786
-5.301864	XII.	-0.3001828
-5.301864	XIII.	-0.3001828
-5.000834	XXX	-0.2818083
-4.824743	YOU	-0.27618
-4.097744	Yard	-0.4276649
-5.000834	Yellow	-0.2923427
-3.178012	Yes	-1.780666
-4.824743	Yesterday	-0.2466666
-4.125773	Yet	-0.3639272
-5.125773	York	-0.2995515
-2.728412	You	-0.7595698
-4.824743	Young	-0.3007883
-3.705267	Your	-0.3403299
-4.699804	Yours	-0.6521851
-4.699804	Yoxley	-0.6528342
-5.000834	Zealand	-0.2819726
-5.301864	Zoo	-0.2923637
-5.000834	[	-0.3935694
-4.903924	]	-0.3205653
-4.757796	_Gloria	-0.8450904
-5.125773	_Hotspur_	-0.2774129
-1.732315	``	-0.8616987
-1.752984	a	-0.555244
-5.301864	a-lying	-0.2956939
-5.301864	a-stampin	-0.2998124
-5.301864	a-walkin	-0.2998124
-5.301864	a.m.	-0.2929106
-4.903924	aback	-0.3431233
-4.824743	abandon	-0.3262053
-4.903924	abandoned	-0.2929525
-5.301864	abandoning	-0.3003088
-5.301864	abandons	-0.3007948
-4.903924	abduction	-0.2581346
-5.301864	abductor	-0.296001
-5.301864	aberration	-0.3003022
-5.301864	abetted	-0.2999634
-5.000834	abhorrent	-0.3657417
-5.301864	abhors	-0.2988409
-5.301864	abide	-0.3010278
-5.125773	abilities	-0.2729285
-4.648652	ability	-0.3580182
-5.301864	abjure	-0.2973681
-3.648652	able	-1.072891
-5.301864	able-bodied	-0.3008945
-5.125773	abnormal	-0.2717836
-5.125773	abnormally	-0.3010061
-5.000834	aboard	-0.2563367
-5.125773	abode	-0.4687534
-5.000834	abominable	-0.300721
-5.301864	abomination	-0.2819873
-5.301864	abortive	-0.2819873
-5.301864	abound	-0.2956939
-2.925287	about	-0.5431039
-3.78335	above	-0.4941368
-5.301864	abrasion	-0.2774197
-5.301864	abreast	-0.2926621
-4.824743	abroad	-0.3049124
-4.757796	abrupt	-0.276009
-4.903924	abruptly	-0.2556792
-5.301864	abruptness	-0.2926621
-5.301864	absconding	-0.3010116
-4.372445	absence	-0.3390049
-4.523713	absent	-0.3159195
-5.301864	absentees	-0.2819873
-4.034693	absolute	-0.3499409
-3.832042	absolutely	-0.3456214
-5.125773	absolved	-0.4756591
-5.301864	absorb	-0.2999569
-4.602894	absorbed	-0.3639958
-5.301864	absorbing	-0.2819873
-5.301864	abstract	-0.3010235
-4.699804	abstracted	-0.2709436
-5.000834	abstruse	-0.5933937
-4.204954	absurd	-0.2903206
-4.824743	absurdly	-0.4258928
-5.125773	abundant	-0.301004
-5.125773	abuse	-0.298842
-5.301864	abusive	-0.3010278
-5.125773	abutted	-0.4758809
-4.824743	abyss	-0.3796569
-5.301864	academic	-0.3010278
-5.301864	acceding	-0.2929007
-4.824743	accent	-0.7591086
-5.301864	accentuated	-0.300388
-4.648652	accept	-0.2913024
-5.301864	acceptable	-0.3010051
-5.125773	acceptance	-0.4687534
-4.824743	accepted	-0.2715889
-5.301864	accepting	-0.2774197
-5.125773	access	-0.4689919
-5.301864	accessories	-0.2774197
-5.125773	accessory	-0.2688317
-4.301864	accident	-0.3956884
-5.000834	accidental	-0.3788894
-5.125773	accidentally	-0.3008067
-5.125773	accidents	-0.2770706
-5.125773	accommodate	-0.2969297
-5.301864	accommodating	-0.3010181
-4.824743	accompanied	-0.4211107
-5.301864	accompaniments	-0.2956939
-4.824743	accompany	-0.3459471
-5.000834	accompanying	-0.2988649
-5.301864	accompli	-0.2987069
-4.699804	accomplice	-0.4049982
-5.125773	accomplish	-0.2792147
-5.000834	accomplished	-0.2992535
-5.301864	accomplishment	-0.2819873
-5.125773	accomplishments	-0.2749665
-5.301864	accord	-0.2774197
-5.301864	accordance	-0.298477
-4.757796	according	-0.8369687
-5.125773	accordingly	-0.2818865
-3.648652	account	-0.7899604
-5.125773	accountant	-0.2773877
-5.125773	accounted	-0.4749616
-4.602894	accounts	-0.3227597
-5.000834	accumulated	-0.259137
-5.301864	accumulating	-0.2774197
-5.301864	accumulation	-0.2926621
-5.000834	accuracy	-0.290709
-5.000834	accurate	-0.2750816
-5.125773	accurately	-0.2836924
-5.000834	accursed	-0.3007091
-5.301864	accusation	-0.2987069
-5.000834	accuse	-0.2948099
-4.699804	accused	-0.3398396
-5.301864	accuser	-0.2819873
-4.398774	accustomed	-0.4830938
-5.301864	acetones	-0.2774197
-5.301864	achieved	-0.3007091
-5.301864	achievements	-0.2999754
-5.125773	acid	-0.2760583
-5.301864	acid-faced	-0.3010126
-5.301864	acid-stained	-0.2774197
-4.648652	acknowledge	-0.5372369
-5.301864	acknowledged	-0.2953746
-5.125773	acknowledges	-0.2933652
-4.260471	acquaintance	-0.4192574
-5.301864	acquaintances	-0.3009281
-5.000834	acquainted	-0.599507
-5.301864	acquiesce	-0.2956939
-5.301864	acquiesced	-0.2819873
-5.125773	acquiescence	-0.2572881
-5.301864	acquire	-0.2998993
-5.000834	acquired	-0.391754
-5.301864	acquirement	-0.2926621
-5.125773	acquiring	-0.2915681
-5.125773	acquitted	-0.2750735
-5.000834	acres	-0.3701506
-5.301864	acrobat	-0.3004487
-3.516534	across	-0.7481931
-4.241166	act	-0.3780324
-4.222682	acted	-0.367112
-4.561502	acting	-0.3917737
-3.979645	action	-0.3552321
-5.125773	actionable	-0.2758757
-4.602894	actions	-0.292974
-4.398774	active	-0.3647778
-5.125773	activity	-0.2730707
-5.125773	actor	-0.2678117
-5.000834	actors	-0.3897776
-5.301864	actress	-0.3008013
-5.125773	acts	-0.2904303
-4.757796	actual	-0.3007796
-4.372445	actually	-0.3399364
-5.301864	acumen	-0.2919357
-4.903924	acute	-0.2865611
-5.301864	acutely	-0.3010202
-5.301864	adapt	-0.3007948
-5.301864	adaptable	-0.3010213
-4.903924	adapted	-0.3576147
-4.398774	add	-0.3970683
-4.456766	added	-0.3152538
-5.301864	adder	-0.3000319
-5.301864	addicted	-0.2929007
-5.000834	adding	-0.2858569
-4.699804	addition	-0.328015
-5.301864	additional	-0.301004
-3.99011	address	-0.397516
-4.456766	addressed	-0.3916807
-5.301864	addresses	-0.2819873
-4.903924	addressing	-0.2780292
-5.301864	adds	-0.2953746
-5.125773	adequate	-0.2818775
-5.301864	adhere	-0.2929007
-5.301864	adhesive	-0.2774197
-5.301864	adjective	-0.2987287
-5.301864	adjectives	-0.2998537
-5.301864	adjoining	-0.3009617
-5.000834	adjusted	-0.2760721
-5.301864	administered	-0.3010007
-5.000834	administration	-0.2691024
-4.398774	admirable	-0.3035021
-4.699804	admirably	-0.4200318
-4.523713	admiration	-0.4004532
-5.000834	admire	-0.3768443
-5.301864	admired	-0.2983767
-5.125773	admirer	-0.2732405
-5.125773	admirers	-0.2979022
-5.000834	admiring	-0.3794913
-4.260471	admit	-0.4365091
-5.125773	admits	-0.2969045
-5.301864	admittance	-0.2819873
-4.699804	admitted	-0.317678
-5.301864	admitting	-0.2932914
-5.301864	ado	-0.2929007
-5.301864	adopt	-0.2998993
-5.125773	adopted	-0.2921492
-5.301864	adorn	-0.2837455
-5.125773	adorned	-0.2807219
-5.301864	adrift	-0.2774197
-4.488951	advance	-0.2647613
-4.426803	advanced	-0.2642542
-5.301864	advances	-0.2929007
-5.125773	advancing	-0.2996363
-4.324141	advantage	-0.4037588
-4.757796	advantages	-0.2921785
-5.301864	advent	-0.296001
-4.222682	adventure	-0.4124832
-4.488951	adventures	-0.3688624
-5.301864	adventuress	-0.2774197
-5.301864	adventurous	-0.3008566
-5.125773	advertise	-0.2795598
-5.000834	advertised	-0.2751126
-4.08438	advertisement	-0.4178123
-4.903924	advertisements	-0.2702706
-5.125773	advertising	-0.2983702
-3.940136	advice	-0.4652329
-4.488951	advise	-0.5756925
-4.903924	advised	-0.2605834
-5.125773	adviser	-0.2682641
-5.301864	advises	-0.2819873
-5.301864	advocate	-0.3006646
-5.301864	affably	-0.2819873
-3.817564	affair	-0.3949136
-5.301864	affaire	-0.3010202
-4.260471	affairs	-0.3610878
-5.000834	affect	-0.2810579
-5.301864	affectation	-0.2774197
-4.757796	affected	-0.3664356
-5.301864	affecting	-0.2929007
-4.824743	affection	-0.3160263
-4.824743	affectionate	-0.2475132
-5.301864	affectionately	-0.2923637
-5.301864	affections	-0.2995678
-5.125773	affliction	-0.2925019
-5.301864	affluent	-0.3009931
-4.523713	afford	-0.3630457
-5.000834	afforded	-0.2901815
-5.125773	afoot	-0.2795598
-3.912698	afraid	-0.6068206
-5.301864	afresh	-0.2819873
-5.301864	aft	-0.3008034
-3.152645	after	-0.471307
-5.301864	after-hold	-0.2819873
-5.301864	after-taste	-0.2926621
-4.071415	afternoon	-0.3456314
-3.854706	afterwards	-0.28066
-3.226317	again	-0.5029159
-3.396068	against	-0.6837751
-4.046591	age	-0.5819773
-4.903924	aged	-0.3008945
-5.301864	agencies	-0.2819873
-4.824743	agency	-0.3908735
-4.372445	agent	-0.28554
-4.426803	agents	-0.3588802
-5.301864	aggregate	-0.2929007
-5.125773	aggressive	-0.3009964
-5.301864	aggressively	-0.3009595
-5.301864	agile	-0.2774197
-4.561502	agitated	-0.3061045
-4.372445	agitation	-0.5663387
-3.7108	ago	-0.4872736
-5.301864	agonies	-0.2919357
-4.602894	agony	-0.3745584
-4.523713	agree	-0.8090634
-5.301864	agreeable	-0.2819873
-4.523713	agreed	-0.4498103
-5.000834	agreement	-0.3941393
-5.301864	agrees	-0.298477
-5.125773	agricultural	-0.2774152
-5.301864	ah	-0.2774197
-4.824743	ahead	-0.3922998
-4.222682	aid	-0.4285791
-4.824743	aided	-0.2716086
-5.301864	ails	-0.2971604
-5.125773	aim	-0.3009422
-5.000834	aimed	-0.5998383
-5.125773	aimless	-0.3010224
-5.301864	aims	-0.300965
-3.776819	air	-0.617074
-4.903924	air-gun	-0.2713882
-5.125773	air-guns	-0.2795598
-5.301864	airs	-0.2819873
-5.301864	airy	-0.3006852
-5.301864	aisle	-0.3007373
-5.000834	ajar	-0.378749
-5.125773	akimbo	-0.453511
-4.903924	akin	-0.6908407
-4.058826	alarm	-0.4034007
-4.903924	alarmed	-0.3201832
-5.125773	alas	-0.2763658
-4.324141	alert	-0.4113468
-5.301864	alertness	-0.2926621
-5.301864	alias	-0.2819873
-5.301864	alight	-0.2971495
-4.757796	alighted	-0.3503604
-5.301864	alighting	-0.2999754
-5.000834	alike	-0.2547182
-4.187921	alive	-0.4799612
-2.607698	all	-0.3939781
-5.301864	all-comprehensive	-0.3010224
-5.000834	all-important	-0.2717141
-5.000834	all-night	-0.3978782
-5.301864	alleging	-0.2953746
-5.125773	alley	-0.2774117
-5.301864	alleys	-0.2956939
-5.301864	alliance	-0.2987287
-5.301864	allied	-0.2819873
-5.301864	allotment	-0.2988409
-4.280675	allow	-0.3176205
-4.757796	allowance	-0.3482198
-4.260471	allowed	-0.3458456
-5.125773	allowing	-0.2822114
-5.125773	allows	-0.2930055
-4.903924	allude	-0.6908407
-4.757796	alluded	-0.3440479
-4.602894	allusion	-0.9918707
-5.000834	allusions	-0.5939307
-5.125773	ally	-0.453511
-3.940136	almost	-0.3599822
-3.824743	alone	-0.4495233
-3.751636	along	-0.4428067
-4.561502	aloud	-0.5106906
-5.125773	alphabet	-0.2763658
-3.49909	already	-0.2979643
-3.441526	also	-0.3360844
-4.757796	altar	-0.2958407
-5.301864	alter	-0.2837455
-5.301864	alteration	-0.2956939
-5.125773	alterations	-0.2717836
-5.125773	altercation	-0.2818016
-5.000834	altered	-0.2784038
-5.125773	alternate	-0.4770021
-5.125773	alternately	-0.3008305
-5.301864	alternating	-0.2995678
-5.301864	alternation	-0.3008522
-4.398774	alternative	-0.3531846
-5.301864	alternatives	-0.2987069
-4.155736	although	-0.3478788
-4.561502	altogether	-0.3010786
-5.301864	aluminium	-0.3010278
-5.301864	aluminum	-0.3010278
-3.456766	always	-0.2472183
-2.897031	am	-0.4846548
-5.301864	amalgam	-0.2987287
-5.301864	amassed	-0.3009758
-5.301864	amassing	-0.3009324
-4.903924	amateur	-0.2760675
-5.125773	amaze	-0.2983069
-4.903924	amazed	-0.2854977
-4.155736	amazement	-0.537864
-4.699804	amazing	-0.3355059
-5.301864	ambassador	-0.2774197
-4.824743	amber	-0.398177
-5.301864	ambiguous	-0.2774197
-5.125773	ambition	-0.2682641
-5.301864	ambitions	-0.2998537
-5.301864	ambitious	-0.2774197
-5.301864	ambuscade	-0.2819873
-5.125773	amends	-0.2966703
-5.301864	amethyst	-0.2956939
-5.301864	amiability	-0.2819873
-4.699804	amiable	-0.2703195
-4.324141	amid	-0.632223
-5.301864	amidst	-0.2837455
-4.757796	amiss	-0.3730613
-5.301864	ammonia	-0.2923637
-5.301864	ammunition	-0.3009996
-5.301864	amnesty	-0.2956939
-3.629766	among	-0.7519041
-5.301864	amongst	-0.2837455
-4.456766	amount	-0.4256099
-5.000834	amounted	-0.3657417
-5.301864	amounts	-0.2929007
-5.125773	ample	-0.2922852
-5.301864	amplifying	-0.2995559
-5.125773	amply	-0.3010105
-5.000834	amuse	-0.2963758
-4.602894	amused	-0.2955771
-4.648652	amusement	-0.4249824
-4.903924	amusing	-0.2679789
-5.301864	amyl	-0.2774197
-2.580054	an	-0.5629913
-5.301864	anaemic	-0.3010105
-4.561502	analysis	-0.4133157
-4.903924	analytical	-0.3009389
-5.125773	analyze	-0.2971582
-5.301864	anatomy	-0.3010278
-5.125773	ancestor	-0.2572881
-5.125773	ancestors	-0.2761776
-5.301864	ancestral	-0.3006603
-5.301864	ancestry	-0.2923637
-4.602894	ancient	-0.292283
-1.704279	and	-0.3190319
-5.301864	angel	-0.2774197
-4.301864	anger	-0.4317367
-4.488951	angle	-0.5053901
-5.301864	angles	-0.2819873
-5.301864	angrily	-0.2819873
-4.301864	angry	-0.3236104
-5.301864	anguish	-0.2988082
-5.301864	angular	-0.3009877
-4.488951	animal	-0.2724145
-5.125773	animals	-0.2773808
-5.125773	animated	-0.2819499
-5.301864	animosity	-0.2987069
-5.125773	aniseed	-0.2990021
-4.903924	ankle	-0.2968345
-5.301864	ankle-deep	-0.298477
-5.000834	ankles	-0.2897491
-5.301864	annals	-0.2774197
-5.000834	announce	-0.3921605
-4.561502	announced	-0.3418438
-4.903924	announcement	-0.2645239
-4.602894	annoyance	-0.3992749
-4.903924	annoyed	-0.3379113
-5.301864	annoying	-0.2774197
-5.301864	annoys	-0.2971604
-5.301864	annual	-0.3010007
-5.301864	anoints	-0.298477
-5.301864	anomaly	-0.2987287
-3.565468	another	-0.3249614
-3.757796	answer	-0.4502408
-5.301864	answerable	-0.2929007
-3.531012	answered	-0.6761156
-4.699804	answering	-0.2835604
-4.602894	answers	-0.2780784
-5.000834	antagonist	-0.2963495
-5.301864	ante-room	-0.2926621
-5.125773	antecedents	-0.2572881
-5.301864	anteroom	-0.2774197
-5.000834	anticipate	-0.2935395
-5.000834	anticipated	-0.2527316
-5.125773	antics	-0.4687534
-5.301864	antidote	-0.2929007
-5.301864	antiquity	-0.2929007
-5.301864	anxieties	-0.2819873
-4.426803	anxiety	-0.4053487
-4.111533	anxious	-0.5599032
-5.125773	anxiously	-0.2935075
-2.96142	any	-0.3992254
-5.125773	anybody	-0.2995309
-4.602894	anyhow	-0.5572141
-3.817564	anyone	-0.3563796
-3.456766	anything	-0.476546
-4.699804	anywhere	-0.3302128
-4.757796	apart	-0.431762
-4.602894	apartment	-0.5554937
-5.125773	ape	-0.2769538
-4.903924	aperture	-0.3239232
-4.824743	apiece	-0.5238304
-4.903924	apologies	-0.3218458
-5.301864	apologise	-0.2929007
-4.903924	apologize	-0.4512303
-5.301864	apologized	-0.2929007
-5.301864	apologizing	-0.2929007
-4.523713	apology	-0.3410587
-5.301864	apoplexy	-0.2819873
-5.301864	appalled	-0.2988082
-5.301864	apparelled	-0.2774197
-5.000834	apparent	-0.2955721
-4.398774	apparently	-0.2805159
-5.125773	apparition	-0.2796657
-4.456766	appeal	-0.3722095
-4.903924	appealed	-0.6908407
-5.301864	appealing	-0.2929007
-5.000834	appeals	-0.3893235
-3.969426	appear	-0.6113352
-3.912698	appearance	-0.5607079
-5.125773	appearances	-0.2768782
-3.745562	appeared	-0.5566435
-5.301864	appearing	-0.2929007
-4.000834	appears	-0.6616215
-4.903924	appetite	-0.3459643
-5.125773	applause	-0.2572881
-5.000834	apple	-0.248024
-5.125773	applicant	-0.2936508
-5.000834	application	-0.2677567
-4.757796	applied	-0.2494334
-4.602894	apply	-0.372297
-5.125773	applying	-0.2981182
-5.000834	appointed	-0.3003695
-4.241166	appointment	-0.3595986
-5.301864	appreciable	-0.3010267
-4.757796	appreciate	-0.3192539
-4.903924	appreciated	-0.2752208
-5.301864	apprehended	-0.2819873
-5.301864	apprehension	-0.2774197
-5.301864	apprenticed	-0.2929007
-4.561502	approach	-0.3668857
-4.125773	approached	-0.4436543
-4.648652	approaching	-0.2973934
-5.125773	appropriate	-0.2953252
-5.301864	approve	-0.2819873
-5.000834	approvingly	-0.3782265
-5.301864	apron	-0.2819873
-5.301864	apt	-0.2929007
-5.301864	aptitudes	-0.2819873
-4.824743	aquiline	-0.4018238
-5.301864	arable	-0.3010148
-5.125773	arbitrary	-0.2911282
-5.301864	arc-and-compass	-0.3010278
-5.301864	archaeologist	-0.2774197
-5.125773	arched	-0.3005529
-5.301864	architects	-0.2774197
-5.301864	architectural	-0.3010267
-5.125773	architecture	-0.2925417
-5.301864	archways	-0.2923637
-5.000834	ardent	-0.269184
-5.301864	arduous	-0.3008837
-2.630229	are	-0.3434102
-5.125773	area	-0.2926367
-4.903924	argue	-0.4740491
-5.125773	argued	-0.4714659
-5.301864	argues	-0.2837455
-5.125773	arguing	-0.2639117
-4.561502	argument	-0.3211913
-5.125773	arguments	-0.2572881
-5.000834	aright	-0.3647217
-5.000834	arise	-0.3773695
-5.301864	aristocrat	-0.2953746
-4.699804	aristocratic	-0.3008642
-3.969426	arm	-0.410882
-4.426803	arm-chair	-0.4122778
-4.398774	armchair	-0.4383831
-5.301864	armchairs	-0.2819873
-4.699804	armed	-0.2427483
-5.301864	armor	-0.2988082
-5.301864	armory	-0.2926621
-4.111533	arms	-0.3008929
-4.824743	army	-0.2572246
-5.125773	arose	-0.2572881
-4.426803	around	-0.4182306
-4.903924	arouse	-0.347906
-4.372445	aroused	-0.4632662
-4.648652	arrange	-0.3042422
-4.426803	arranged	-0.3180694
-5.125773	arrangement	-0.2875347
-4.903924	arrangements	-0.2536088
-5.301864	arranges	-0.2953746
-5.301864	arranging	-0.2973681
-5.125773	array	-0.4687534
-5.301864	arrears	-0.2926621
-4.140496	arrest	-0.3285268
-4.155736	arrested	-0.3674598
-4.903924	arresting	-0.2801446
-4.456766	arrival	-0.3880875
-4.561502	arrive	-0.4041101
-4.071415	arrived	-0.3815532
-5.301864	arrives	-0.2774197
-5.301864	arriving	-0.2999754
-5.301864	arrows	-0.2774197
-4.426803	art	-0.4364189
-5.301864	arteries	-0.2987287
-5.301864	artery	-0.2819873
-4.602894	article	-0.2979229
-4.488951	articles	-0.3665592
-5.000834	artificial	-0.3009747
-5.125773	artillery	-0.2572881
-4.824743	artist	-0.2537405
-5.125773	artistic	-0.4580786
-5.301864	artists	-0.2774197
-2.298619	as	-0.6449401
-5.000834	ascend	-0.3608217
-5.125773	ascendancy	-0.4765574
-4.488951	ascended	-0.4776481
-5.301864	ascending	-0.2837455
-4.824743	ascertain	-0.2485587
-4.757796	ascertained	-0.3481931
-5.000834	ascertaining	-0.2945361
-4.903924	ascetic	-0.3438846
-5.301864	ascetic-looking	-0.2774197
-4.757796	ash	-0.3071595
-4.561502	ashamed	-0.7614944
-5.000834	ashen	-0.3974185
-4.602894	ashes	-0.3429423
-5.301864	ashore	-0.2819873
-5.301864	ashy	-0.300978
-4.488951	aside	-0.3639314
-3.545989	ask	-0.5136565
-4.903924	askance	-0.4661883
-3.233678	asked	-0.6814701
-4.324141	asking	-0.3485532
-5.125773	asks	-0.2797306
-4.426803	asleep	-0.5269208
-5.000834	aspect	-0.3541981
-5.301864	asperities	-0.2926621
-5.125773	asperity	-0.2764105
-5.125773	asphalt	-0.2980833
-5.301864	aspired	-0.2929007
-5.301864	ass	-0.2919357
-5.125773	assailant	-0.2572881
-4.903924	assailants	-0.2560158
-4.903924	assassin	-0.2808649
-4.824743	assault	-0.2588851
-5.125773	assaulted	-0.296713
-5.301864	assaults	-0.2774197
-5.125773	assembled	-0.2954459
-5.000834	assent	-0.2721567
-5.125773	assented	-0.2572881
-5.000834	assert	-0.3885745
-5.125773	asserted	-0.2953219
-5.301864	assertion	-0.2953746
-5.301864	assiduous	-0.2956939
-5.301864	assiduously	-0.298477
-4.824743	assist	-0.291597
-4.17153	assistance	-0.5455222
-4.301864	assistant	-0.2750838
-5.301864	assistants	-0.2774197
-5.301864	assisted	-0.2837455
-5.000834	assisting	-0.2682163
-5.301864	assizes	-0.2988082
-4.648652	associate	-0.2801817
-4.398774	associated	-0.458265
-5.000834	associates	-0.2736412
-5.301864	associating	-0.29957
-5.301864	association	-0.298477
-5.000834	associations	-0.3733205
-5.301864	assortment	-0.3000319
-4.903924	assume	-0.3464269
-4.824743	assumed	-0.2803264
-5.125773	assuming	-0.4580786
-4.757796	assurance	-0.3020974
-4.097744	assure	-0.7023764
-4.280675	assured	-0.3756467
-5.301864	assuredly	-0.3008717
-4.903924	assures	-0.6969867
-5.125773	assuring	-0.299358
-5.301864	asthmatic	-0.2774197
-5.301864	astir	-0.2774197
-5.301864	astonish	-0.2990467
-4.523713	astonished	-0.315524
-5.125773	astonishing	-0.2770981
-5.301864	astonishingly	-0.3004325
-4.034693	astonishment	-0.4901649
-5.301864	astounding	-0.2998189
-5.125773	astrachan	-0.3009769
-5.301864	astrakhan	-0.2998537
-5.301864	astray	-0.2819873
-5.301864	astronomers	-0.2982382
-5.301864	astronomy	-0.2774197
-5.125773	astute	-0.4693826
-5.125773	astuteness	-0.2819805
-5.301864	asunder	-0.2819873
-5.301864	asylum	-0.2774197
-2.292201	at	-0.8254526
-5.301864	atavism	-0.2923637
-4.903924	ate	-0.3374105
-5.000834	athlete	-0.2797863
-5.301864	athletes	-0.2923637
-4.903924	athletic	-0.3676646
-4.757796	atmosphere	-0.4492556
-5.301864	atoms	-0.3006994
-5.301864	atone	-0.2988703
-5.301864	atonement	-0.2988703
-5.301864	atones	-0.2988703
-4.488951	attached	-0.6713873
-5.301864	attaches	-0.2998993
-4.398774	attack	-0.309899
-4.699804	attacked	-0.4127626
-4.757796	attacks	-0.2849507
-4.903924	attain	-0.3586622
-4.824743	attained	-0.2708495
-5.301864	attainments	-0.2819873
-4.046591	attempt	-0.5501529
-4.561502	attempted	-0.3318757
-5.125773	attempting	-0.4689919
-4.757796	attempts	-0.3181196
-4.903924	attend	-0.4632289
-4.903924	attendant	-0.275592
-5.125773	attended	-0.2902993
-5.125773	attends	-0.292672
-3.620623	attention	-0.4956992
-4.824743	attentions	-0.2969683
-5.301864	attentive	-0.300223
-5.000834	attic	-0.3742153
-5.125773	attics	-0.2572881
-5.125773	attire	-0.453511
-5.125773	attired	-0.2953976
-4.523713	attitude	-0.242408
-5.125773	attract	-0.2837297
-4.648652	attracted	-0.3463415
