
\data\
ngram 1=15398
ngram 2=111577

\1-grams:
-2.639106	!	0.006768985
-4.488951	&	-0.0005347958
-2.552901	'	0.2184902
-1.798346	''	0.07144646
-5.301864	'16	-5.31619e-05
-5.301864	'45	0.000790746
-5.301864	'55	0.0007505743
-5.301864	'60	0.001353538
-5.301864	'77	0.02355384
-5.301864	'82	0.008609845
-5.000834	'83	0.02481229
-5.125773	'84	0.02434954
-5.000834	'85	0.04360085
-5.000834	'87	0.02132597
-5.125773	'89	0.02439196
-5.301864	'90	0.02355384
-4.824743	'95	0.05902821
-5.301864	'97	0.005598991
-4.561502	'A	0.0003926939
-5.301864	'About	0.01722811
-5.301864	'Absolute	0.008609845
-5.301864	'Absolutely	0.01898628
-5.301864	'After	-4.394406e-06
-4.426803	'Ah	0.02421306
-5.301864	'Alas	0.02355384
-5.000834	'All	0.005737299
-5.301864	'Almost	-3.473927e-05
-5.301864	'American	-5.207824e-05
-5.301864	'Ample	0.01898628
-4.204954	'And	0.05134722
-5.301864	'Answer	0.001926859
-5.125773	'Any	-2.720872e-05
-5.301864	'Anybody	-5.207824e-05
-5.125773	'Anything	4.252077e-06
-5.301864	'Apoplexy	0.01898628
-5.125773	'Are	0.007451549
-5.301864	'Arms	8.231685e-05
-5.125773	'Arthur	0.0009004873
-5.301864	'As	-5.099457e-05
-5.301864	'Ask	0.00210325
-5.125773	'At	1.834268e-05
-5.301864	'Ay	0.02355384
-5.301864	'Baron	-5.424556e-05
-5.301864	'Be	0.005279631
-5.301864	'Because	5.413382e-05
-5.301864	'Beddoes	-5.207824e-05
-5.301864	'Bless	0.003813162
-5.301864	'Breckinridge	0.02355384
-5.301864	'British	-5.424556e-05
-5.125773	'Brunton	0.02396336
-4.488951	'But	0.05597762
-4.903924	'By	0.01712995
-5.301864	'C.P.R	0.01898628
-5.301864	'COME	0.01898628
-5.000834	'Can	0.0129051
-5.301864	'Catullus	0.02355384
-4.903924	'Certainly	0.02552962
-5.301864	'Co	0.01898628
-5.301864	'Colonel	-4.774356e-05
-4.699804	'Come	0.02564046
-5.301864	'Company	0.01898628
-4.757796	'Cooee	0.001992854
-5.301864	'Crime	0.005279631
-5.301864	'D'you	1.403029e-05
-5.301864	'DEAR	-5.424556e-05
-5.301864	'Danger	0.003169654
-5.125773	'Dear	0.001898656
-5.301864	'Dearest	0.0008037752
-5.301864	'Death	0.02355384
-5.301864	'December	-5.207824e-05
-5.301864	'Did	0.003824094
-4.757796	'Do	0.004030077
-5.301864	'Done	0.0009416939
-5.301864	'Drive	0.0002362721
-5.301864	'E.B	0.01898628
-5.301864	'ELSIE	0.01898628
-5.301864	'Eg	0.01898628
-5.301864	'Elrige	0.001353538
-5.125773	'Elsie	0.04362906
-5.125773	'Encyclopaedia	0.02350086
-5.301864	'Entirely	0.01898628
-5.301864	'Fire	0.0009416939
-5.301864	'Five	2.05333e-05
-4.648652	'For	0.01918156
-5.301864	'Found	0.002165331
-4.903924	'Frisco	0.04357265
-5.301864	'Fritz	0.0009416939
-5.000834	'From	0.01714234
-5.301864	'G	0.001161151
-5.301864	'Gesellschaft	0.02355384
-5.301864	'Go	0.000754917
-5.301864	'Gone	0.008072907
-5.301864	'Good	0.0009416939
-5.301864	'Good-evening	0.02355384
-5.301864	'H	0.01898628
-5.301864	'Ha	0.02355384
-5.301864	'Hampshire	0.01898628
-5.301864	'Harold	0.02355384
-4.824743	'Have	0.003700358
-4.523713	'He	0.007368105
-5.301864	'Head-keeper	-6.561968e-06
-5.301864	'Heavy	-5.31619e-05
-5.000834	'Here	0.005630008
-5.301864	'His	0.0007440601
-5.301864	'Holdernesse	0.02355384
-5.301864	'Homer	0.02355384
-5.301864	'Hosmer	-3.257185e-05
-4.648652	'How	0.006879362
-5.301864	'Hudson	0.004061421
-5.125773	'Hullo	0.0009134903
-5.301864	'Huxtable	0.001353538
-5.301864	'Hyams	0.02355384
-3.523713	'I	0.01923416
-4.602894	'If	0.01755661
-5.301864	'Impossible	0.0009416939
-4.903924	'In	0.0280169
-5.301864	'Inspector	-2.606952e-05
-4.757796	'Is	0.01911768
-3.959441	'It	0.0122172
-5.125773	'J.H.N	0.01895808
-5.301864	'Jack	0.02355384
-5.301864	'Jephro	0.02355384
-5.125773	'K	0.01895808
-5.301864	'Keep	0.001062273
-5.301864	'Ku	-5.31619e-05
-5.301864	'L'homme	-5.31619e-05
-5.301864	'Lately	-9.813299e-06
-4.824743	'Let	0.006641292
-5.301864	'Letters	0.02355384
-4.903924	'Lone	-0.0001323491
-5.125773	'Look	0.005593082
-5.125773	'Lord	-0.0001019891
-5.301864	'Lost	0.02355384
-5.125773	'MY	-0.0001052401
-5.301864	'Made	0.001016645
-5.301864	'Mawson	0.0004824967
-5.125773	'May	0.009009678
-5.301864	'Most	-4.774356e-05
-5.301864	'Mother	0.02355384
-4.824743	'Mr	0.01887348
-5.301864	'Mrs	0.01898628
-4.561502	'My	0.0001788115
-5.301864	'Mysterious	-5.424556e-05
-5.301864	'Neither	0.002596873
-4.824743	'Never	0.04477351
-5.301864	'Next	-4.394406e-06
-4.324141	'No	0.02486416
-5.301864	'Norbury	0.001161151
-5.301864	'North	0.001010126
-4.699804	'Not	0.005494837
-5.301864	'Nothing	0.01898628
-5.125773	'Now	0.005570787
-5.301864	'Oct	0.01898628
-5.000834	'Of	0.0003479751
-4.241166	'Oh	0.02398767
-5.301864	'Omne	-5.424556e-05
-4.824743	'On	0.0181326
-5.000834	'One	0.008403061
-4.824743	'Only	0.01437548
-5.125773	'Or	0.008044704
-5.301864	'Over	0.01722811
-5.301864	'P	0.02355384
-5.125773	'P.C	0.01895808
-5.301864	'Papier	0.01898628
-5.301864	'Perfectly	0.01898628
-5.125773	'Perhaps	0.005302215
-5.301864	'Photography	0.003169654
-5.301864	'Pink	-5.424556e-05
-5.000834	'Pon	0.002540467
-5.301864	'Pondicherry	-5.099457e-05
-5.125773	'Pooh	0.02455136
-5.301864	'Pray	0.02355384
-4.903924	'Precisely	0.02080047
-5.301864	'Pretty	-2.932071e-05
-5.125773	'Put	0.0171999
-4.757796	'Quite	0.001298625
-5.301864	'Ragged	-5.099457e-05
-5.125773	'Really	0.02352563
-5.301864	'Remarkable	0.002132656
-5.301864	'Remember	0.02355384
-5.125773	'Right	0.0001733694
-5.301864	'Rome	0.004972566
-5.125773	'S	-0.0001084911
-5.301864	'See	0.005598991
-5.301864	'Seven	0.008072907
-5.125773	'She	0.0005530472
-5.301864	'Show	0.001403551
-5.301864	'Singular	-5.424556e-05
-5.301864	'Sir	0.02355384
-4.903924	'So	0.02779008
-5.301864	'Sold	0.008072907
-4.903924	'Some	0.0006432231
-5.301864	'Sophy	0.0009416939
-5.301864	'Ss	0.01898628
-5.301864	'Stand	0.001010126
-5.301864	'Stolen	0.0009416939
-5.301864	'Such	0.02355384
-5.301864	'Sumner	0.02355384
-5.125773	'Surely	0.005069658
-4.757796	'Tell	0.001792487
-5.301864	'Ten	0.008072907
-4.903924	'Thank	0.003769234
-4.324141	'That	0.01516434
-4.125773	'The	0.0005550977
-4.488951	'Then	0.05903115
-4.426803	'There	0.02857036
-5.301864	'These	0.0009623311
-5.125773	'They	0.001255815
-4.561502	'This	0.03229372
-5.301864	'Three	-5.31619e-05
-5.125773	'To	-7.923123e-05
-5.301864	'Tragedy	-4.882724e-05
-5.125773	'Trust	0.001898656
-4.903924	'Tut	0.02346923
-5.301864	'US	0.02355384
-5.301864	'Under	0.01722811
-5.301864	'Undoubtedly	0.001074224
-5.301864	'Until	0.003813162
-5.000834	'Varsity	0.02457869
-4.757796	'Very	0.0003870784
-5.301864	'Wandsworth	-5.424556e-05
-4.523713	'We	0.008524681
-4.155736	'Well	0.02354347
-4.111532	'What	0.03859304
-5.301864	'Whatever	0.001119858
-4.903924	'When	0.007430257
-4.523713	'Where	0.02754249
-5.301864	'Whereas	0.02355384
-5.000834	'Which	0.003454401
-5.000834	'Who	0.001514768
-5.301864	'Whose	0.004972566
-4.324141	'Why	0.0326798
-5.301864	'Within	0.01722811
-5.301864	'Wonderful	0.0009416939
-4.260471	'Yes	0.04309353
-3.764045	'You	0.009007865
-5.000834	'Your	0.0009440148
-5.301864	'a	-4.557621e-05
-5.301864	'actually	6.172137e-05
-4.456766	'and	0.03860276
-5.301864	'are	0.008072907
-4.903924	'at	0.001151584
-5.301864	'band	0.02355384
-5.125773	'bus	0.009629305
-4.699804	'but	0.03291494
-5.301864	'can	0.003813162
-4.241166	'd	0.01955759
-5.301864	'death	0.001405726
-5.125773	'did	0.00488546
-5.125773	'e	0.02498628
-5.125773	'em	0.02125146
-5.301864	'first	0.008072907
-5.301864	'fly-paper	0.001161151
-5.125773	'for	0.003825636
-5.301864	'get	0.0002308502
-5.301864	'has	0.0009232298
-5.301864	'have	0.003813162
-5.301864	'he	0.004972566
-5.301864	'hen-pheasant	0.001161151
-5.301864	'here	0.001353538
-5.301864	'his	0.0001484459
-5.000834	'idee	-0.0001084838
-5.301864	'if	0.003813162
-5.301864	'in	1.944946e-05
-5.125773	'is	0.01808379
-5.000834	'it	0.004907685
-5.301864	'journeys	0.0001289313
-5.301864	'jumping	0.007682221
-5.301864	'learn	0.001161151
-5.301864	'lever	0.02355384
-5.301864	'life	-5.207824e-05
-3.398774	'll	0.0097619
-4.241166	'm	0.009451723
-5.301864	'maybe	0.001161151
-5.301864	'my	0.0004336748
-5.301864	'neither	-5.31619e-05
-5.301864	'never	0.01898628
-5.301864	'only	0.001154631
-5.301864	'other	2.05333e-05
-5.301864	'please	0.01898628
-5.301864	'pology	0.02355384
-5.125773	'quarter	0.001132947
-5.125773	'r	0.02040312
-4.280675	're	0.02862651
-5.301864	'remember	0.001062273
-2.489285	's	0.2009815
-5.301864	'seeing	0.002596873
-5.301864	'sent	0.01722811
-5.301864	'sever	0.02355384
-5.301864	'sir	0.001161151
-5.301864	'suicide	0.01898628
-5.301864	'supply	-2.065085e-05
-5.301864	't	0.001161151
-5.301864	'take	0.002596873
-4.648652	'that	0.0407604
-4.757796	'the	0.008453825
-5.000834	'there	0.004147502
-5.301864	'this	0.003169654
-4.824743	'to	0.02467881
-5.125773	'tween-decks	0.01709163
-5.000834	'twelve	0.02475491
-5.301864	'un	0.001161151
-3.78335	've	0.01640334
-4.824743	'we	0.003810385
-5.301864	'were	0.004061421
-5.301864	'what	0.001161151
-5.125773	'when	0.005302215
-5.125773	'which	0.002218942
-5.301864	'wilful	-2.226861e-06
-5.125773	'with	0.01833586
-5.301864	'would	0.001660231
-5.125773	'ye	0.0006648491
-4.456766	'you	0.0107437
-4.523713	(	0.02590633
-4.523713	)	0.04606273
-4.488951	*****	-0.0003123668
-1.276435	,	-0.06720123
-5.301864	-	0.00690851
-2.710243	--	0.2469324
-1.367543	.	-0.2944719
-5.125773	...	0.00314927
-5.301864	..E	-5.424556e-05
-5.301864	.ERE	-5.424556e-05
-5.301864	.M	-5.424556e-05
-5.301864	.RE.ARE	-5.099457e-05
-5.125773	1	0.02798865
-5.301864	1/2	-5.207824e-05
-5.301864	10	0.02355384
-5.000834	100	-3.370458e-05
-4.602894	1000	-0.0002495426
-5.301864	10s	0.01898628
-5.301864	10s.	0.02355384
-5.301864	10th	0.01898628
-5.301864	11.10	0.001405726
-5.301864	1100	2.270098e-05
-5.125773	117	0.02352563
-5.125773	117th	-5.647214e-05
-5.000834	11:15	0.01892987
-5.301864	11:30	0.01898628
-5.301864	12.22	0.008072907
-5.125773	120	-5.502705e-06
-5.000834	126b	0.004892337
-5.301864	12s	0.01898628
-5.301864	12th	0.01898628
-5.125773	131	0.02880909
-5.301864	13th	0.000790746
-5.301864	14	0.001161151
-5.301864	14,000	2.270098e-05
-5.301864	140	-1.631585e-05
-5.125773	14th	0.009330182
-5.125773	15	-7.594725e-05
-5.301864	150	-1.739963e-05
-5.125773	16	0.02880909
-5.301864	1607	0.02355384
-5.301864	16A	0.02355384
-5.125773	17	-6.514241e-05
-5.301864	1840	0.01898628
-5.301864	1846	0.01898628
-5.301864	1855	0.02355384
-5.301864	1858	0.01898628
-5.000834	1869	0.02408294
-5.301864	1870	0.003824094
-5.301864	1872	0.000585584
-5.301864	1875	0.01898628
-5.301864	1878	0.02355384
-5.301864	1881	0.000585584
-4.699804	1883	0.04874786
-5.000834	1884	0.04450967
-5.125773	1887	0.02298512
-5.125773	1888	0.01981504
-5.000834	1890	0.02000358
-5.125773	1891	0.02352563
-4.903924	1894	0.043176
-5.301864	1895	0.009037881
-5.301864	18th	0.01898628
-5.301864	1900	0.01898628
-5.301864	1901	-5.424556e-05
-5.000834	1903	-5.863242e-05
-4.561502	1904	-0.0002559942
-5.301864	19th	0.01898628
-5.301864	1s.	0.02355384
-5.125773	1st	0.01717395
-4.824743	2	0.02227159
-5.301864	2,000	-5.31619e-05
-5.301864	2.40	-3.365557e-05
-5.301864	20	0.001161151
-5.301864	200	2.270098e-05
-5.301864	20th	0.01898628
-5.301864	220	2.270098e-05
-5.301864	221	-4.774356e-05
-5.301864	221B	0.02355384
-5.301864	226	-5.099457e-05
-5.000834	22nd	0.04357624
-5.000834	23d	0.0317467
-5.301864	23rd	0.008311464
-5.301864	2473	0.01898628
-5.301864	249	0.02355384
-5.301864	24th	0.01898628
-5.000834	25	-5.324286e-05
-5.301864	250	2.270098e-05
-4.903924	26	0.02339261
-5.301864	26s	0.01898628
-4.648652	27	0.02325621
-5.301864	270	-5.31619e-05
-4.903924	28	-0.0002158985
-5.301864	2nd	0.01898628
-5.125773	2s	0.01895808
-5.125773	3	0.01942947
-5.301864	3.30	-5.424556e-05
-5.301864	3.36	0.02355384
-5.000834	30	0.02355275
-5.125773	30,000	-3.046035e-05
-5.301864	30th	0.008311464
-5.301864	31	-5.424556e-05
-5.301864	3d	0.008311464
-4.903924	3rd	0.0528832
-4.699804	4	0.01884559
-5.301864	40	2.270098e-05
-5.301864	4000	2.270098e-05
-5.301864	403	-4.665989e-05
-5.301864	421	-5.207824e-05
-5.301864	426	0.02355384
-5.000834	427	0.02349743
-5.301864	46	0.02355384
-5.301864	4700	2.270098e-05
-5.301864	4:35	-1.956713e-05
-5.301864	4d	0.01898628
-4.903924	4th	0.0545113
-5.301864	5	0.01898628
-5.301864	50	-5.31619e-05
-5.301864	50,000	2.270098e-05
-5.301864	5:14	0.001405726
-5.301864	5:15	3.028803e-05
-5.301864	6	0.01898628
-5.301864	6.30	0.000790746
-5.301864	60	2.270098e-05
-5.301864	6:30	0.001417687
-5.301864	6d	0.01898628
-5.125773	6d.	0.02352563
-5.000834	6th	0.04362178
-5.301864	7	-4.99109e-05
-5.301864	700	2.270098e-05
-5.301864	750	2.270098e-05
-5.301864	7s	0.01898628
-5.125773	7th	0.04362906
-5.301864	88	2.270098e-05
-5.301864	8d	0.01898628
-5.301864	8s.	0.02355384
-5.301864	8th	-5.207824e-05
-5.301864	9	0.02355384
-5.301864	9.13	0.01898628
-5.301864	9.50	0.02355384
-5.301864	90	0.004972566
-5.125773	9th	0.01893326
-3.495684	:	0.08185896
-2.830572	;	0.1320004
-1.296684	</s>
-99	<s>	-0.2313677
-2.272887	?	-0.02449832
-3.077849	A	0.05307903
-4.903924	A.	0.02660884
-5.301864	A.E	-5.424556e-05
-5.301864	ABANDON	-5.31619e-05
-5.301864	ABE	-5.424556e-05
-5.301864	ADLER	0.01898628
-4.488951	ADVENTURE	0.008613791
-5.301864	ADVENTURES	-2.823697e-05
-5.301864	ADVISE	-4.99109e-05
-5.301864	AFTER	0.01722811
-5.301864	AGENT	0.01898628
-5.125773	ALIBI	0.02418563
-5.000834	AM	-0.000133442
-5.301864	APPLEDORE	-5.424556e-05
-5.301864	APRIL	0.02355384
-5.301864	ARAT	0.02355384
-5.301864	ARMSTRONG	0.01898628
-4.426803	ARTHUR	-0.000406663
-5.301864	AT	-5.424556e-05
-5.301864	AUGUST	0.02355384
-5.301864	AUGUSTUS	-5.424556e-05
-4.523713	Abbey	0.0247181
-5.301864	Abbots	0.008609845
-4.699804	Abe	0.002983168
-5.125773	Aberdeen	0.0006941613
-5.301864	Abergavenny	-2.226861e-06
-5.301864	Abernetty	1.077879e-05
-4.372445	About	0.02698757
-4.757796	Above	0.01937462
-5.301864	Absolute	-5.424556e-05
-4.699804	Absolutely	0.02328438
-5.301864	Accepting	0.004061421
-5.301864	According	0.008072907
-5.125773	Accustomed	0.002104452
-5.125773	Across	0.02098291
-4.398774	Acton	0.05529603
-4.426803	Adair	0.05828788
-5.125773	Adams	0.04362906
-5.301864	Add	0.008072907
-5.301864	Addleton	-2.065085e-05
-5.125773	Address	5.411317e-05
-5.125773	Adelaide	0.02352563
-5.125773	Adelaide-Southampton	-4.446949e-06
-4.398774	Adler	0.04956538
-5.301864	Admirable	0.0009416939
-5.125773	Admiralty	0.02580912
-3.903924	Adventure	0.01597326
-5.301864	Affair	0.002165331
-5.125773	Affairs	0.04362906
-5.125773	Afghan	-0.0001041564
-4.903924	Afghanistan	0.02663475
-5.301864	Afghans	0.01898628
-4.699804	Africa	0.05317836
-4.824743	African	-0.0002007828
-4.204954	After	0.02841219
-5.000834	Afterwards	0.02847363
-4.187921	Again	0.08388383
-5.125773	Agatha	0.0008222892
-5.125773	Agent	0.02352563
-5.301864	Ages	0.01898628
-5.301864	Agra	-4.665989e-05
-3.694409	Ah	0.02238624
-5.301864	Aha	0.0009416939
-5.301864	Air	0.008609845
-5.000834	Alas	0.0008852883
-5.000834	Albert	-0.000111768
-5.301864	Aldersgate	0.000585584
-4.602894	Aldershot	0.06001954
-4.301864	Alec	0.05216396
-5.301864	Alexander	-3.582298e-05
-5.301864	Alexandria	0.01898628
-5.301864	Alexandrian	-4.557621e-05
-5.000834	Alexis	0.04913795
-4.488951	Alice	0.07997856
-5.301864	Alicia	-5.424556e-05
-5.301864	Alighting	0.002165331
-3.824743	All	0.06298748
-5.301864	Allardyce	0.001353538
-5.125773	Allegro	0.04362906
-5.301864	Alliance	0.02355384
-5.301864	Allow	0.001926859
-5.301864	Almighty	-5.424556e-05
-5.301864	Almost	0.002165331
-5.301864	Along	0.001417687
-4.824743	Aloysius	-0.0001551289
-4.699804	Alpha	0.04474236
-5.301864	Alpine	-4.882724e-05
-4.903924	Alpine-stock	0.005388035
-4.757796	Already	0.06745148
-5.301864	Also	0.02355384
-5.125773	Altogether	0.02461101
-5.301864	Always	0.01898628
-5.301864	Am	0.009037881
-5.125773	Amateur	-0.0001041564
-5.301864	Amazement	0.008609845
-4.280675	America	0.06246093
-4.280675	American	0.0582322
-5.301864	Americans	0.005279631
-5.000834	Amid	0.02519926
-5.000834	Among	0.003488277
-5.301864	Amoy	-5.424556e-05
-5.301864	Ample	0.01898628
-3.949682	An	-0.0006785743
-5.301864	Anarchist	0.0009981769
-3.01183	And	0.1717034
-5.301864	Andaman	-5.424556e-05
-5.301864	Anderson	0.00690851
-5.301864	Andover	0.005279631
-5.301864	Anerley	-5.31619e-05
-4.260471	Angel	0.05156286
-5.301864	Anglia	0.01898628
-5.301864	Anglo-Indian	0.02355384
-4.903924	Anna	0.02449496
-5.301864	Anne	0.0003132701
-4.824743	Annie	0.01159794
-5.301864	Annoyed	0.002165331
-4.757796	Another	0.02362318
-5.301864	Anstruther	0.0009981769
-5.301864	Answer	0.001926859
-4.372445	Any	0.0001562891
-5.301864	Anybody	-4.449253e-05
-4.648652	Anyhow	0.02767729
-5.000834	Anyone	0.00559816
-4.602894	Anything	0.002714428
-5.301864	Anyway	0.02355384
-5.301864	Apache	-5.31619e-05
-5.301864	Apaches	0.02355384
-5.301864	Apparently	0.02355384
-5.000834	Appledore	0.02347265
-5.125773	Apply	0.005225413
-5.301864	Appreciation	0.008311464
-4.699804	April	0.03510346
-5.301864	Arab	0.02355384
-5.301864	Arabian	-5.424556e-05
-5.000834	Arcade	0.02349743
-5.301864	Arcadia	-4.774356e-05
-5.301864	Archery	0.008609845
-5.125773	Archie	0.02349971
-5.301864	Architecture	0.008609845
-5.125773	Arctic	-9.548696e-05
-4.488951	Are	0.0039671
-5.301864	Argentine	0.02355384
-5.301864	Arizona	0.02355384
-4.757796	Armitage	0.04411409
-5.301864	Armour	0.008609845
-5.125773	Arms	0.02384654
-4.347621	Armstrong	0.06752761
-5.125773	Army	0.02349971
-5.301864	Arnsworth	-5.31619e-05
-5.000834	Arrest	0.005981582
-5.301864	Arson	0.01898628
-5.301864	Art	0.005279631
-4.071415	Arthur	0.08616477
-5.125773	Artillery	0.04362906
-3.274514	As	0.06551306
-5.000834	Ask	0.001358081
-4.699804	Assizes	0.04483189
-5.301864	Assure	0.001403551
-5.301864	Astonishment	0.002165331
-3.469355	At	0.04329846
-5.301864	Athene	0.001183972
-4.824743	Athens	0.04368287
-5.301864	Atkinson	-5.31619e-05
-4.903924	Atlanta	0.04469771
-5.000834	Atlantic	0.02941224
-5.301864	Attica	0.02355384
-5.301864	Auckland	0.01898628
-5.000834	August	0.03230454
-5.301864	Augustine	0.01898628
-4.824743	Augustus	-0.0001193958
-5.301864	Austerlitz	0.02355384
-4.561502	Australia	0.06504695
-4.903924	Australian	0.001309343
-5.301864	Australians	0.01898628
-5.301864	Author	0.008311464
-5.301864	Aveling	0.02355384
-4.757796	Avenue	0.04349404
-5.301864	Awake	0.02355384
-5.125773	Away	0.00190855
-5.301864	Ay	0.02355384
-5.301864	Aye	0.02355384
-5.301864	Ayrshires	0.002266638
-5.301864	Azure	0.02355384
-4.699804	B	0.04500636
-5.301864	BACHELOR	0.001232879
-5.301864	BALLARAT	0.01898628
-5.301864	BAND	9.640906e-05
-5.301864	BASS	-5.207824e-05
-5.301864	BEECHES	0.008062969
-5.301864	BERYL	-5.424556e-05
-5.301864	BLUE	-5.424556e-05
-5.301864	BOHEMIA	0.009037881
-5.301864	BOSCOMBE	-5.424556e-05
-5.301864	BOTH	0.008072907
-5.301864	Bachelor	-5.207824e-05
-5.125773	Back	0.009469746
-4.824743	Backwater	0.02488266
-5.000834	Bad	0.02452316
-5.125773	Bagatelle	-8.24824e-05
-3.699804	Baker	0.05272277
-5.125773	Bakers	0.02913353
-5.301864	Baldwin	0.02355384
-4.824743	Ballarat	0.03537507
-4.699804	Balmoral	0.04594734
-5.301864	Balzac	0.0002254283
-5.125773	Band	0.0189344
-5.301864	Bangor	0.02355384
-4.757796	Bank	0.05272762
-5.301864	Bankers	0.001161151
-4.222683	Bannister	0.06183885
-5.125773	Bar	0.00825726
-4.058826	Barclay	0.07599019
-5.125773	Barclays	0.003764402
-4.602894	Barnicot	0.03794939
-5.301864	Baron	-5.424556e-05
-5.301864	Barons	0.008311464
-5.301864	Barque	-5.099457e-05
-5.301864	Barrett	0.02355384
-5.301864	Barton	0.02355384
-4.903924	Basil	0.0200607
-5.301864	Basle	0.01898628
-5.301864	Bathsheba	0.002266638
-5.000834	Baxter	0.0302599
-5.301864	Bay	0.0009981769
-5.125773	Bayard	0.01993304
-5.301864	Bayswater	-5.31619e-05
-4.699804	Be	0.03439377
-5.301864	Beacons	0.008311464
-4.071415	Because	0.08028781
-5.000834	Becher	0.01229994
-4.824743	Beckenham	0.04592057
-5.125773	Beddington	0.02669115
-4.523713	Beddoes	0.04825934
-4.903924	Beecher	0.02753722
-4.648652	Beeches	0.04751408
-4.523713	Before	0.02864865
-5.301864	Beg	-4.99109e-05
-5.125773	Behind	0.002155756
-5.301864	Being	0.001087262
-5.301864	Belgrade	0.02355384
-5.000834	Bellinger	0.02452316
-5.301864	Belminster	0.02355384
-5.301864	Bengal	-5.31619e-05
-5.301864	Bengalore	-5.424556e-05
-5.301864	Bentinck	0.0001235108
-5.301864	Bentley	0.001353538
-4.488951	Beppo	0.05875154
-4.903924	Berkshire	0.02442248
-5.301864	Bermondsey	0.02355384
-5.301864	Bermuda	-5.424556e-05
-5.301864	Bert	-5.424556e-05
-5.301864	Bertillon	-4.340885e-05
-5.125773	Beryl	-8.136559e-05
-4.699804	Beside	0.02006128
-4.204954	Besides	0.0427436
-5.000834	Better	0.0001917678
-4.602894	Between	0.02679376
-5.301864	Beverley	0.02355384
-4.757796	Beyond	0.02333393
-5.000834	Bhurtee	0.04913795
-5.301864	Bible	0.01898628
-5.301864	Biddle	0.02355384
-5.301864	Bill	0.02355384
-5.301864	Binomial	-5.424556e-05
-5.301864	Birchmoor	0.02355384
-5.301864	Birds	0.02355384
-4.561502	Birmingham	0.06888129
-5.301864	Bite	0.001183972
-4.372445	Black	-0.0005293039
-4.699804	Blackheath	0.04637307
-5.301864	Blackwater	0.02355384
-5.301864	Blandford	0.0001235108
-4.456766	Blaze	0.07003411
-5.125773	Bless	0.02119911
-4.155736	Blessington	0.07252347
-5.301864	Block	0.01722811
-5.301864	Blood	0.01898628
-5.301864	Bloomsbury	0.002165331
-5.000834	Blue	0.01070254
-5.301864	Blues	0.0004564578
-5.000834	Bob	0.02350584
-4.523713	Bohemia	0.0590023
-4.903924	Bohemian	3.01659e-05
-5.301864	Bohemianism	0.008311464
-5.301864	Bond	0.0001235108
-4.648652	Boone	0.04770772
-4.903924	Boots	0.005172302
-5.301864	Bordeaux	0.02355384
-5.301864	Borgia	-3.907408e-05
-5.301864	Borgias	0.01898628
-5.000834	Born	0.005390335
-4.398774	Boscombe	-0.0004587173
-5.301864	Boswell	0.01898628
-5.301864	Botany	-5.31619e-05
-4.398774	Both	0.04041364
-5.301864	Bought	0.01898628
-5.301864	Boulevard	-5.099457e-05
-5.125773	Bow	9.530709e-05
-5.301864	Boxer	-5.31619e-05
-4.398774	Brackenstall	0.07637125
-5.301864	Brackwell	0.02355384
-5.125773	Bradshaw	0.04362906
-4.488951	Bradstreet	0.05021369
-5.125773	Brambletye	-7.269622e-05
-4.757796	Breckinridge	0.02879279
-4.699804	Briarbrae	0.05003467
-4.602894	Bridge	0.04342799
-5.125773	Briefly	0.02401262
-5.000834	Bring	0.003308902
-4.523713	Briony	-0.0003231959
-4.757796	Bristol	0.05811149
-4.757796	Britain	0.02343846
-5.125773	Britannica	0.01895808
-4.324141	British	-0.0007779491
-4.523713	Brixton	0.04337826
-5.000834	Broads	0.04947799
-5.301864	Broken	-5.424556e-05
-5.301864	Brooding	0.0005074524
-4.648652	Brook	-7.38766e-05
-5.125773	Brotherhood	0.01913485
-4.824743	Brothers	0.02432227
-4.602894	Brown	0.06201213
-5.301864	Bruce	-5.424556e-05
-4.222683	Brunton	0.09639802
-5.125773	Brussels	0.01432358
-5.301864	Buda-Pesth	0.01898628
-5.000834	Builder	0.01892987
-5.301864	Buildings	0.02355384
-5.301864	Bull	0.02355384
-5.301864	Bunsen	-5.424556e-05
-5.301864	Bureau	0.02355384
-5.125773	Burglary	0.0009134903
-4.699804	Burnwell	0.05838652
-5.301864	Busybody	0.001621066
-2.878618	But	0.1646783
-3.683816	By	0.04247238
-5.301864	By-the-way	0.02355384
-5.000834	C	0.03005422
-5.125773	C.	0.003478033
-5.301864	C.A.M.	0.02355384
-5.301864	C.B.	0.02355384
-5.301864	C.P.R.	0.02355384
-5.125773	CA	-8.136559e-05
-5.000834	CAN	0.002969499
-5.301864	CARBUNCLE	0.009037881
-5.125773	CASE	0.01895931
-5.301864	CHARLES	-5.424556e-05
-5.301864	COLONEL	0.01898628
-4.426803	CONAN	-0.000406663
-5.301864	COPPER	-5.424556e-05
-5.301864	CORONET	0.008062969
-5.125773	COULD	0.003589498
-5.301864	COUPLE	0.002967731
-4.757796	Cabinet	0.03065823
-5.301864	Cabul	0.01898628
-4.903924	Cairns	0.0436313
-5.301864	Cal.	0.02355384
-5.301864	Calcutta	0.02355384
-5.125773	Calhoun	0.02595063
-5.000834	California	0.02614168
-5.301864	Californian	-5.31619e-05
-5.301864	Cam	0.0004586274
-5.125773	Camberwell	0.01893213
-4.488951	Cambridge	0.05594765
-5.301864	Cambridgeshire	-5.099457e-05
-5.301864	Camden	-3.907408e-05
-5.125773	Campaign	0.02352563
-5.301864	Campden	-3.907408e-05
-4.260471	Can	0.01817944
-5.301864	Canadian	-5.31619e-05
-5.301864	Canal	0.01898628
-5.301864	Cannon	0.0001235108
-5.000834	Canterbury	0.04428272
-5.301864	Cape	-4.665989e-05
-4.648652	Capital	0.009402497
-5.301864	Capsules	0.002496577
-4.347621	Captain	0.01851761
-5.301864	Capture	0.008311464
-5.301864	Carbuncle	-5.207824e-05
-5.301864	Card	-4.774356e-05
-5.301864	Cardinal	-5.424556e-05
-5.125773	Carefully	0.003762215
-4.204954	Carey	0.05828495
-5.301864	Carlo	0.02355384
-5.301864	Carlsbad	0.01898628
-5.125773	Carlton	0.02351573
-5.301864	Carolinas	0.02355384
-5.301864	Carried	0.0001863932
-4.097744	Carruthers	0.07240956
-5.301864	Carstairs	0.02355384
-5.125773	Carston	0.001107998
-5.125773	Cartwright	0.02418563
-5.125773	Case	0.009126455
-5.301864	Cassel-Felstein	0.02355384
-5.125773	Castle	0.02368168
-5.301864	Cathcart	-2.281832e-05
-5.125773	Catherine	-8.028192e-05
-5.125773	Catholic	-0.0001019891
-5.301864	Cattle	0.001183972
-5.301864	Caunter	0.02355384
-5.301864	Cavalier	0.008609845
-4.903924	Cavendish	0.02346276
-5.000834	Cedars	0.02932061
-5.301864	Celtic	0.0001592876
-5.125773	Central	-7.919826e-05
-4.058826	Certainly	0.07795281
-5.301864	Chair	0.002165331
-5.301864	Chamber	0.02355384
-5.301864	Chance	0.0008048612
-5.301864	Chancelleries	0.008311464
-5.301864	Chapel	0.00210325
-5.301864	Charasiab	-4.340885e-05
-4.561502	Charing	-0.0002960925
-4.260471	Charles	0.03703813
-4.426803	Charlington	0.02369594
-5.301864	Charming	-5.424556e-05
-5.301864	Charybdis	0.00224485
-4.757796	Chatham	0.03031535
-5.301864	Check	-2.173458e-05
-4.824743	Chesterfield	0.04493221
-5.301864	Chesterton	0.02355384
-5.000834	Chicago	0.043605
-5.301864	Chief	-4.449253e-05
-5.301864	Children	0.02355384
-5.125773	Chiltern	-7.161254e-05
-4.757796	China	0.05565642
-5.125773	Chinese	-0.0001084911
-5.000834	Chislehurst	-6.085974e-05
-4.903924	Chiswick	0.04715082
-5.301864	Christ	0.001353538
-4.561502	Christmas	0.0442547
-5.000834	Chronicle	0.0352903
-5.125773	Chubb	0.001331917
-4.699804	Church	0.03233991
-5.301864	Cinnamon	-4.340885e-05
-5.125773	Circumstantial	-7.670387e-06
-5.125773	Circus	0.01895808
-4.17153	City	0.08671378
-5.000834	Civil	-0.0001063165
-4.155736	Clair	0.06966218
-5.000834	Clapham	-0.0001084838
-5.301864	Clara	3.787516e-05
-5.301864	Clark	-5.31619e-05
-4.699804	Clay	0.04499608
-5.125773	Clearly	0.02383624
-5.301864	Clerk	-5.099457e-05
-5.125773	Close	0.003355673
-5.301864	Clotilde	-5.424556e-05
-4.699804	Club	0.05261979
-5.301864	Clubs	8.231685e-05
-5.301864	Clue	0.008072907
-4.699804	Co.	0.02344111
-5.301864	Coarse	-1.306458e-05
-5.301864	Cobb	0.02355384
-5.000834	Coburg	-0.0001096005
-4.757796	Cock	0.05246937
-5.301864	Cocksure	0.02355384
-5.301864	Coldstream	-5.31619e-05
-5.301864	Collar	0.008609845
-4.824743	College	0.05275459
-3.512989	Colonel	0.07349946
-5.301864	Colonial	-4.015776e-05
-5.301864	Colonies	0.01898628
-5.301864	Colonna	0.001353538
-5.301864	Colony	0.008311464
-3.78335	Come	0.06013985
-5.301864	Coming	0.001183972
-5.301864	Common	0.02355384
-5.301864	Commons	0.02355384
-4.648652	Company	0.05302647
-5.125773	Conan	-8.136559e-05
-5.301864	Concealment	0.0002015731
-5.301864	Conduit	0.0001235108
-5.301864	Confess	0.02355384
-5.301864	Conk-Singleton	-5.099457e-05
-5.301864	Conquest	0.005279631
-5.000834	Consider	0.0179121
-5.301864	Considering	0.0002482003
-5.125773	Constable	-0.0001074075
-5.301864	Constabulary	0.02355384
-5.301864	Contents	8.231685e-05
-4.903924	Continent	0.02154124
-5.125773	Continental	-9.548697e-05
-5.301864	Contralto	0.000790746
-5.125773	Convinced	0.005570787
-5.301864	Cooee	0.0009416939
-5.301864	Cook	0.02355384
-4.648652	Copper	-0.0002440473
-5.301864	Coptic	-5.424556e-05
-4.602894	Coram	0.05053965
-4.824743	Cornelius	0.04442866
-5.125773	Cornwall	0.04176822
-4.648652	Coroner	-0.0001150705
-5.125773	Coronet	0.002213494
-5.301864	Corporal	-3.690667e-05
-5.000834	Corporation	6.710522e-05
-5.000834	Cosmopolitan	0.04357504
-5.301864	Costa	-5.424556e-05
-4.347621	Could	0.01994394
-5.000834	Count	-0.0001052656
-4.561502	Countess	0.04989511
-5.125773	Counties	-7.703093e-05
-5.125773	County	0.00828326
-4.602894	Court	0.04363957
-5.000834	Covent	-0.0001084838
-5.125773	Coventry	0.04362906
-4.757796	Coxon	0.001305087
-5.301864	Crane	-5.424556e-05
-5.301864	Creina	0.02355384
-5.301864	Creole	-5.099457e-05
-5.301864	Crewe	0.01898628
-5.301864	Crime	0.003169654
-5.301864	Crimea	0.008609845
-5.125773	Crimean	0.0009667495
-5.125773	Criminal	0.01895808
-5.301864	Criminals	0.0009416939
-4.757796	Croker	0.04351626
-5.301864	Crooked	-5.099457e-05
-5.125773	Crooksbury	-7.594725e-05
-5.301864	Crosby	0.01722811
-4.488951	Cross	0.06574259
-5.000834	Crowder	0.02349743
-4.824743	Crown	0.01984422
-5.301864	Crystal	-5.424556e-05
-4.204954	Cubitt	0.08298242
-4.097744	Cunningham	0.07626943
-4.757796	Cunninghams	0.0481056
-4.824743	Cup	0.04445327
-5.301864	Curse	0.01722811
-5.000834	Cusack	0.02518253
-5.301864	Cuvier	0.0009036805
-5.125773	Cyclist	0.01895808
-4.561502	Cyril	0.02312429
-5.000834	D	0.02345703
-5.125773	D'you	0.001050406
-5.301864	D.D.	0.02355384
-5.125773	DAILY	-8.136559e-05
-5.301864	DE	-5.424556e-05
-4.903924	DEAR	-0.0001356001
-5.301864	DEAREST	-5.424556e-05
-5.301864	DEBUTANTE	0.008311464
-5.125773	DECEMBER	0.02352563
-5.301864	DEFINITELY	-5.424556e-05
-5.301864	DETOUR	0.0008048612
-5.301864	DID	0.009037881
-5.301864	DISSOLVED	0.01898628
-5.301864	DO	0.0004629674
-5.301864	DOES	-5.099457e-05
-4.426803	DOYLE	0.02807209
-5.301864	Dacre	-4.449253e-05
-5.125773	Daily	-0.0001063238
-5.301864	Damp	0.0009981769
-5.125773	Dancing	-7.703093e-05
-5.301864	Dane	0.02355384
-5.301864	Danger	0.0009416939
-5.301864	Dantzig	0.02355384
-5.301864	Darjeeling	0.01898628
-5.125773	Dark	7.7939e-05
-5.301864	Darlington	-5.424556e-05
-4.602894	Dartmoor	0.026075
-5.301864	Data	0.0009416939
-5.301864	Daubensee	0.02355384
-5.125773	Daulat	-8.136559e-05
-5.301864	Davenport	0.01898628
-4.903924	David	0.02585276
-5.301864	Davos	-5.424556e-05
-5.000834	Dawson	0.01260785
-5.301864	Day	0.001353538
-5.301864	De	-5.424556e-05
-4.324141	Dear	0.02514076
-5.125773	December	0.0007386762
-5.000834	Deep	-0.0001084838
-5.301864	Deeply	0.002132656
-5.301864	Dei	0.01898628
-5.000834	Dene	-9.547964e-05
-5.301864	Depend	0.001232879
-4.824743	Derbyshire	0.0524425
-4.824743	Desborough	0.04615564
-5.301864	Describe	0.004061421
-5.301864	Deserted	0.003813162
-5.301864	Desiring	0.008072907
-5.125773	Detective	0.0009134903
-5.000834	Devine	0.02037492
-4.903924	Devonshire	0.02618199
-5.125773	Devoy	0.02352563
-3.854706	Did	0.03795679
-5.301864	Dieppe	0.01898628
-5.301864	Dinner	0.004972566
-4.824743	Diogenes	-0.0001605473
-5.301864	Dirty	0.002266638
-5.125773	Disappearance	0.008258364
-5.301864	Disease	0.002266638
-5.301864	Disgraceful	0.02355384
-5.301864	Disregarding	0.002596873
-5.301864	Division	0.02355384
-5.000834	Dixon	0.02349743
-3.616122	Do	0.01327595
-5.301864	Dock	0.008609845
-5.301864	Dockyard	0.02355384
-4.187921	Doctor	0.04456413
-5.301864	Doctors	0.001161151
-5.301864	Documents	0.02355384
-4.757796	Does	0.0127582
-5.301864	Don	-5.424556e-05
-5.301864	Doncaster	0.002266638
-5.301864	Done	0.0004597123
-4.903924	Donnithorpe	0.02697092
-5.125773	Dook	0.02380647
-4.488951	Doran	0.04878652
-5.301864	Dorking	0.002266638
-5.125773	Dovercourt	0.02003179
-5.000834	Down	0.01980969
-5.301864	Downing	0.0001235108
-5.301864	Downs	0.02355384
-5.125773	Doyle	0.01898648
-4.903924	Dr	0.01890167
-3.598573	Dr.	-0.002610175
-5.301864	Draper	0.001353538
-5.125773	Draw	0.001857383
-5.301864	Drink	0.001417687
-5.301864	Drive	0.001183972
-5.125773	Drop	0.009714645
-5.301864	Dubugue	0.008311464
-4.648652	Duchess	0.03963356
-3.99011	Duke	0.05113873
-5.301864	Dulong	0.01898628
-4.699804	Duncan	-0.000192013
-5.301864	Dundas	-5.31619e-05
-4.602894	Dundee	0.0479487
-4.824743	Dunlop	0.04632208
-4.488951	During	0.02787951
-5.125773	Dutch	0.001351488
-4.699804	E	0.04108696
-4.903924	E.	0.001303906
-5.301864	E.C	0.01898628
-5.301864	ELRI.ES	0.01898628
-5.301864	ELSIE	-5.424556e-05
-5.301864	EMPLOYEE	0.02355384
-5.301864	ENGINEER	-5.31619e-05
-5.301864	ESTABLISHED	0.01898628
-5.301864	EVIDENCE	-5.099457e-05
-4.648652	Each	0.00942374
-4.648652	Earl	0.0321729
-5.125773	Early	0.01377947
-5.301864	Easier	0.01722811
-4.757796	East	0.01896233
-5.301864	East-End	0.008311464
-5.301864	East-end	0.02355384
-4.903924	Eastern	-0.0002007267
-5.301864	Eat	0.007682221
-5.301864	Echo	0.02355384
-5.125773	Edgeware	-5.644065e-05
-4.903924	Edith	0.02344828
-4.648652	Eduardo	-0.0002310429
-5.301864	Educated	-5.207824e-05
-5.000834	Edward	0.005351149
-4.824743	Effie	0.02731846
-5.301864	Eglonitz	0.000790746
-5.301864	Eglow	0.02355384
-5.301864	Egria	0.01898628
-5.301864	Egypt	0.02355384
-5.000834	Eh	0.02592243
-4.903924	Eight	0.008277024
-5.000834	Either	0.02661108
-5.301864	Electrical	-4.665989e-05
-5.301864	Elementary	0.02355384
-5.301864	Eley	0.001353538
-5.000834	Elias	0.008509181
-5.301864	Elise	0.0009416939
-5.301864	Elizabethan	-4.340885e-05
-5.000834	Elrige	0.001297133
-4.561502	Elsie	0.05112649
-5.301864	Embankment	0.003169654
-5.301864	Embassies	0.0009623311
-5.000834	Embassy	0.02447843
-5.000834	Emperor	0.04413389
-5.301864	Empire	0.0008048612
-5.125773	Empty	-6.727777e-05
-5.000834	Encyclopaedia	0.008036273
-5.000834	End	0.04365295
-5.301864	Endell	0.0001235108
-5.301864	Engage	0.007682221
-5.301864	Engaged	0.01898628
-5.301864	Engineer	0.001353538
-3.803554	England	0.1055199
-5.301864	Englischer	-5.424556e-05
-4.111532	English	0.03441082
-4.602894	Englishman	0.0505299
-5.125773	Englishmen	0.00371739
-5.301864	Englishwoman	0.005279631
-5.301864	Enough	0.008311464
-5.301864	Enter	0.01722811
-5.125773	Entirely	0.01895808
-5.301864	Escott	0.001010126
-5.301864	Esq	0.01898628
-5.301864	Esq.	0.02355384
-5.301864	Etherege	0.02355384
-5.000834	Eton	0.008538498
-4.324141	Europe	0.07267675
-4.398774	European	-0.0005901642
-4.561502	Eustace	0.02368493
-5.301864	Euston	0.01898628
-4.824743	Eva	0.03323346
-5.000834	Evans	0.0326248
-4.140496	Even	0.04023017
-5.125773	Evening	-0.0001063238
-5.301864	Eventually	0.02355384
-4.324141	Every	0.001911225
-5.125773	Everybody	0.005438294
-5.000834	Everything	0.005403506
-5.301864	Evidence	0.008311464
-4.699804	Evidently	0.04409671
-5.301864	Evil	4.329464e-05
-5.301864	Ex-President	-5.424556e-05
-4.097744	Exactly	0.04671454
-5.301864	Examine	0.001403551
-5.301864	Exceedingly	0.001074224
-4.140496	Excellent	0.0439722
-4.903924	Except	0.003199156
-5.125773	Exchange	-9.115215e-05
-4.602894	Excuse	0.001701281
-5.301864	Exeter	0.02355384
-5.301864	Exit	0.01722811
-5.301864	Experience	0.02355384
-5.301864	Extremely	0.001074224
-4.602894	Eyford	0.04826668
-5.125773	Ezekiah	-8.338975e-08
-5.301864	F.H.M	0.01898628
-5.301864	FEBRUARY	0.02355384
-5.301864	FIANCEE	0.000790746
-5.301864	FIVE	-5.424556e-05
-5.301864	FRESH	-5.424556e-05
-5.301864	FRIESLAND	0.02355384
-5.125773	FROM	0.0171999
-5.301864	Faber	0.003169654
-5.301864	Face	-5.207824e-05
-5.301864	Faces	0.008072907
-5.301864	Failing	0.0004184866
-5.301864	Failure	0.02355384
-5.125773	Fairbank	0.02880909
-5.000834	Fall	0.01892987
-5.125773	Falmouth	0.02022593
-5.301864	Familiar	0.002132656
-5.301864	Family	0.0001072496
-5.301864	Fancy	0.003605473
-4.602894	Far	0.001483776
-5.301864	Fareham	0.005279631
-5.301864	Farewell	0.02355384
-5.125773	Farintosh	0.02352563
-4.648652	Farm	0.05443301
-5.301864	Farm-house	0.008072907
-4.602894	Farnham	0.04410695
-5.301864	Farquhar	0.02355384
-5.301864	Farrington	0.0001235108
-5.301864	Fashionable	-5.424556e-05
-5.301864	Fate	0.002967731
-5.301864	Father	0.004972566
-4.903924	February	0.0146447
-5.301864	Feeling	8.773686e-05
-5.125773	Fenchurch	9.530709e-05
-4.903924	Ferguson	0.02801342
-5.301864	Ferrers	-5.424556e-05
-5.125773	Ferrier	0.02669115
-5.125773	Few	0.008393164
-5.301864	Fifty	2.270098e-05
-4.757796	Fighting	-0.0001898273
-5.301864	Filled	0.002496577
-5.301864	Final	-5.424556e-05
-4.280675	Finally	0.03726399
-5.301864	Financial	-5.31619e-05
-5.301864	Find	0.0006821824
-5.000834	Finding	0.006506874
-5.301864	Fine	-4.557621e-05
-5.301864	Finns	0.008609845
-4.824743	Fire	0.0008288902
-4.648652	First	0.03823746
-4.699804	Fitzroy	-0.0002061013
-4.523713	Five	0.008541835
-5.301864	Flaubert	-2.226861e-06
-5.000834	Fleet	6.710522e-05
-4.648652	Flora	0.005770621
-5.301864	Florence	0.002496577
-5.000834	Florida	0.04596179
-5.301864	Flowers	0.000790746
-5.301864	Fly	0.00210325
-5.301864	Folk	0.0007440601
-5.301864	Follow	0.001926859
-5.000834	Following	0.02095471
-5.301864	Fool	0.005598991
-5.301864	Footmarks	0.008311464
-5.301864	Footsteps	0.0001310995
-3.542196	For	0.05586138
-4.602894	Forbes	0.04502149
-5.301864	Force	0.01898628
-5.000834	Fordham	0.02396652
-5.301864	Fordingbridge	-5.31619e-05
-5.125773	Fordingham	0.007266335
-4.561502	Foreign	-0.0003232179
-4.903924	Forest	0.0004174248
-5.301864	Forgery	0.01898628
-5.301864	Forgive	0.001417687
-5.301864	Formerly	-5.31619e-05
-5.301864	Forrester	0.02355384
-5.301864	Fortescue	-5.424556e-05
-5.301864	Fortunately	0.02355384
-5.301864	Fortune	0.0008048612
-5.301864	Found	0.007682221
-4.824743	Four	0.04425454
-4.824743	Fournaye	0.03312136
-4.824743	Fowler	0.03575873
-4.372445	France	0.06913172
-5.000834	Francis	-0.0001584019
-5.125773	Francisco	0.02352563
-4.824743	Franco-Midland	-0.0001627146
-5.301864	Franco-Prussian	-4.99109e-05
-4.301864	Frank	0.04293295
-5.125773	Frankly	0.02352563
-4.903924	Fraser	0.0284952
-5.301864	Freebody	0.02355384
-5.125773	Freemason	0.02352563
-5.301864	Freemasonry	0.002266638
-4.111532	French	0.04512597
-5.301864	Frenchman	0.0005248139
-5.301864	Frequently	0.01898628
-5.125773	Fresh	-0.0001030728
-5.125773	Fresno	9.530709e-05
-4.757796	Friday	0.04455904
-5.125773	Fritz	0.0008896256
-3.803554	From	0.04856889
-5.125773	G	0.009046763
-5.125773	GIBRALTAR	0.04362906
-5.301864	GLOBE	0.0003295391
-5.301864	GO	0.01898628
-4.561502	GRAPHIC	0.009474172
-5.301864	GUILT	-5.424556e-05
-5.125773	Game	0.01045683
-5.301864	Gang	0.01898628
-5.000834	Garden	0.01890393
-5.301864	Gardens	0.02355384
-5.125773	Gate	0.02592762
-5.301864	Gazetteer	0.01898628
-4.699804	Gelder	0.01237152
-5.125773	Gemmi	0.02349971
-5.000834	General	-0.0001312746
-5.301864	Geneva	0.01898628
-5.301864	Geneve	0.001183972
-5.301864	Gentlemen	0.02355384
-4.241166	George	0.03456318
-5.125773	Georgia	0.04362906
-4.155736	German	0.06751179
-5.301864	German-speaking	4.979808e-05
-5.301864	Germans	0.01898628
-4.648652	Get	0.005965561
-5.125773	Getting	0.008087164
-5.301864	Gigantic	-4.449253e-05
-4.426803	Gilchrist	0.05168115
-5.125773	Gill	-8.136559e-05
-4.456766	Give	0.009101577
-5.301864	Giving	-4.015776e-05
-5.125773	Gladstone	-5.860812e-05
-5.125773	Glancing	0.002564447
-5.301864	Globe	0.02355384
-4.903924	Gloria	-0.0001345164
-5.301864	Gloves	0.02355384
-5.125773	Go	0.001402594
-3.803554	God	0.05042368
-3.979645	Godfrey	0.06646009
-4.561502	Godolphin	-0.0001302565
-5.301864	Gold	0.02355384
-5.125773	Golden	-8.136559e-05
-4.824743	Gone	0.03878462
-4.058826	Good	0.02491546
-5.125773	Good-afternoon	0.02352563
-5.125773	Good-by	0.02417532
-4.699804	Good-bye	0.04416994
-4.903924	Good-day	0.03202904
-4.903924	Good-evening	0.04357265
-5.000834	Good-morning	0.02349743
-4.903924	Good-night	0.04425452
-5.125773	Goodge	9.530709e-05
-5.301864	Goodwins	0.008609845
-4.903924	Gordon	0.02492349
-5.000834	Gorot	0.02437866
-5.125773	Got	0.001476547
-5.301864	Gothic	-5.31619e-05
-5.301864	Gottsreich	-5.424556e-05
-5.125773	Government	0.02352563
-5.301864	Governor	0.008311464
-4.071415	Grace	0.06835812
-5.301864	Gradually	0.02355384
-5.301864	Graham	0.008609845
-5.301864	Grand	-1.198082e-05
-4.523713	Grange	0.06921155
-4.699804	Grant	-0.0002136872
-5.301864	Granting	0.005598991
-5.301864	Grave	0.0001310995
-4.903924	Gravesend	0.02901955
-5.301864	Gray	0.001353538
-4.602894	Great	-0.0002528885
-4.903924	Grecian	0.0001299322
-5.000834	Greece	0.02828846
-4.280675	Greek	0.05945925
-5.301864	Greenwich	0.01898628
-4.602894	Gregory	0.04894299
-5.125773	Gregson	0.032653
-5.301864	Grenoble	0.02355384
-5.301864	Gresham	-5.424556e-05
-5.301864	Grice	-5.424556e-05
-4.648652	Grimesby	-0.0002299592
-5.301864	Grit	0.005279631
-5.301864	Groat	0.001353538
-5.301864	Gross	-4.232515e-05
-4.903924	Grosvenor	-0.0001823032
-5.301864	Grove	-2.823697e-05
-5.125773	Guards	0.02159764
-5.125773	Guild	0.01133824
-5.301864	Gustave	-5.424556e-05
-4.757796	H	0.0547551
-4.824743	H.	0.01194295
-5.000834	HAD	0.02518368
-5.301864	HAMPSTEAD	0.01898628
-5.301864	HAND	0.01898628
-5.125773	HAVE	0.00410348
-5.301864	HE	0.0002807341
-5.125773	HERE	-0.0001084911
-5.301864	HIM	0.01898628
-4.260471	HOLMES	0.04777097
-5.301864	HOPKINS	0.01898628
-5.000834	HUNTER	0.01904661
-4.222683	Ha	0.02395951
-4.324141	Had	0.042505
-5.301864	Hafiz	0.002132656
-5.301864	Hague	0.0003295391
-4.648652	Half	0.01440149
-5.125773	Half-past	0.0004304239
-5.301864	Halfway	0.0005899249
-5.301864	Halifax	0.02355384
-3.878618	Hall	0.08782917
-5.125773	Hallamshire	0.0006843904
-4.488951	Halloa	0.02426943
-5.301864	Ham	0.008609845
-5.000834	Hammersmith	0.02479556
-4.757796	Hampshire	0.04959703
-4.757796	Hampstead	0.0439023
-5.301864	Handsome	0.002266638
-5.301864	Hankey	0.001353538
-5.125773	Hanover	-6.402667e-05
-5.301864	Harden	0.02355384
-4.602894	Harding	0.02673661
-5.000834	Hardly	0.005668104
-4.824743	Hardware	-0.0001594636
-4.903924	Hardy	0.02346923
-5.301864	Hare	8.611183e-06
-5.301864	Hargreave	0.02355384
-4.488951	Harker	0.06420195
-5.125773	Harley	9.530709e-05
-4.757796	Harold	0.00509898
-5.301864	Harpooner	0.002266638
-5.000834	Harris	0.02589997
-4.280675	Harrison	0.06508405
-5.000834	Harrow	0.04360085
-4.903924	Harry	-0.0001453866
-4.456766	Has	0.03973576
-4.324141	Hatherley	0.04799055
-5.000834	Hatty	-9.873071e-05
-5.301864	Havana	0.02355384
-3.776819	Have	0.04223534
-4.241166	Having	0.001708992
-5.301864	Hay	-5.099457e-05
-4.372445	Hayes	0.06281125
-5.301864	Hayling	0.02355384
-5.000834	Hayter	0.03802213
-5.301864	Hayward	0.02355384
-2.582947	He	0.04138158
-5.301864	Head	-5.099457e-05
-5.301864	Head-keeper	-6.561968e-06
-4.699804	Heath	0.04554439
-4.241166	Heaven	0.04575645
-5.000834	Heavens	0.02452316
-5.301864	Heavy	-4.99109e-05
-5.301864	Hebrew	-5.424556e-05
-5.000834	Hebron	0.04360085
-4.903924	Hector	-0.0001128425
-5.301864	Heh	0.002266638
-4.757796	Heidegger	0.02495092
-5.301864	Heir	0.008609845
-4.903924	Helen	0.02448969
-4.903924	Help	0.007852391
-5.000834	Hence	0.03324914
-5.000834	Henri	-0.0001063165
-4.347621	Henry	0.02310478
-4.000834	Her	0.001302974
-5.125773	Hercules	0.01895808
-5.125773	Herder	0.02439999
-3.634411	Here	0.09230322
-5.125773	Hereford	0.008556749
-5.125773	Herefordshire	0.01912012
-5.301864	Herr	-4.882724e-05
-5.301864	Hers	0.002967731
-5.000834	High	6.710522e-05
-5.301864	Highness	0.008072907
-5.301864	Highway	0.01898628
-4.488951	Hilda	0.0293187
-4.699804	Hill	0.03833736
-5.301864	Hills	0.002266638
-4.187921	Hilton	0.02288511
-5.301864	Himalayas	0.02355384
-3.299698	His	0.0007340806
-5.301864	Histon	0.02355384
-5.125773	Hitherto	0.01272118
-5.301864	Hof	0.02355384
-5.125773	Holborn	0.04362906
-4.824743	Hold	0.02223736
-4.324141	Holder	0.05533177
-4.324141	Holdernesse	0.05737234
-4.426803	Holdhurst	0.05491862
-5.301864	Holiness	0.01722811
-5.125773	Holland	0.04362906
-5.301864	Hollows	0.01898628
-5.301864	Holly	0.0008048612
-2.413966	Holmes	0.1657488
-5.301864	Holy	-4.99109e-05
-5.301864	Honoria	-5.424556e-05
-5.301864	Honour	0.01898628
-4.699804	Honourable	-0.00014113
-5.301864	Hood	0.02355384
-5.301864	Hooliganism	0.00224485
-4.523713	Hope	0.04254446
-3.710799	Hopkins	0.07706982
-5.301864	Hopley	-4.557621e-05
-4.648652	Horace	0.02460064
-4.456766	Horner	0.04395337
-5.125773	Horrified	0.003180934
-4.561502	Horsham	0.04338422
-4.241166	Hosmer	0.02524011
-5.301864	Hospital	0.02355384
-4.561502	Hotel	0.05306556
-4.398774	House	0.05346559
-5.301864	Houses	0.008311464
-3.531012	How	0.04904378
-4.757796	Howells	0.04745351
-4.02311	However	0.02958668
-3.940136	Hudson	0.07656771
-4.824743	Hugh	-0.0001855055
-5.301864	Huguenot	-5.31619e-05
-4.757796	Hullo	0.02443857
-4.324141	Hum	0.0004624802
-5.301864	Human	-3.310633e-06
-5.301864	Hungarian	9.424098e-05
-4.17153	Hunter	0.06121035
-5.301864	Huret	0.02355384
-4.602894	Hurlstone	0.05165455
-5.301864	Hurrah	0.0009416939
-4.301864	Huxtable	0.06053485
-5.301864	Hyde	-4.124147e-05
-1.683555	I	0.01963452
-5.125773	I.	0.009846572
-5.301864	IDENTITY	0.008062969
-4.903924	II	0.01890167
-5.301864	II.	0.000790746
-4.903924	III	0.01890167
-5.301864	III.	0.000790746
-5.301864	IMPORTANT	-5.424556e-05
-5.125773	IN	-0.0001084911
-5.301864	IRENE	-5.424556e-05
-4.824743	IS	0.008047149
-4.903924	IT	0.008123534
-5.000834	IV	0.01892987
-5.301864	IV.	0.000790746
-5.000834	IX	0.01892987
-5.301864	IX.	0.000790746
-5.301864	Identity	-5.207824e-05
-5.301864	Idiot	0.005598991
-3.243059	If	0.1116211
-5.000834	Imagine	0.02627122
-5.301864	Imitated	0.01898628
-5.301864	Immediately	-2.173458e-05
-5.125773	Imperial	-0.0001084911
-5.125773	Important	0.01997277
-4.824743	Impossible	0.02446676
-3.239282	In	0.06675938
-5.301864	Incidentally	0.009037881
-5.301864	Incredible	-5.424556e-05
-4.17153	Indeed	0.04657681
-4.456766	India	0.05321765
-4.301864	Indian	0.05988655
-5.125773	Indians	0.02457315
-5.301864	Indirectly	0.004061421
-5.301864	Inference	0.000790746
-4.699804	Inn	0.05246319
-5.301864	Inner	-5.099457e-05
-5.125773	Inquiries	0.003704271
-5.301864	Inquiry	0.004972566
-5.301864	Insensibly	0.001154631
-5.000834	Inside	0.005162107
-3.694409	Inspector	0.08715323
-5.000834	Instead	0.008255058
-5.301864	Interlaken	0.02355384
-5.301864	International	0.02355384
-5.301864	Internationals	0.01898628
-5.125773	Interpreter	0.0235123
-4.903924	Into	0.002427366
-5.301864	Ionides	0.008311464
-4.372445	Irene	0.02458178
-5.125773	Iris	0.01898988
-5.301864	Irish	-5.31619e-05
-5.301864	Irish-setter	0.02355384
-3.862531	Is	0.04658561
-4.903924	Isa	0.01888366
-5.301864	Islander	0.005279631
-5.301864	Isle	0.008311464
-2.537314	It	-0.003484676
-4.398774	Italian	0.03537586
-5.125773	Italians	0.00647896
-5.125773	Italy	0.01369556
-4.648652	Its	-0.000278968
-5.125773	Ivy	-9.115215e-05
-4.757796	J	0.01881603
-5.301864	J.	-5.31619e-05
-5.301864	J.H.N	0.01898628
-5.000834	J.P.	0.02408294
-5.301864	JABEZ	-5.424556e-05
-5.301864	JANUARY	0.02355384
-5.301864	JEPHRO	-5.424556e-05
-5.301864	JULY	0.02355384
-5.301864	JUNE	0.02355384
-4.561502	Jabez	-0.0002917897
-4.324141	Jack	0.05897272
-5.301864	Jack-in-office	0.0009416939
-5.125773	Jackson	0.002355149
-5.000834	Jacobs	0.02414711
-3.832042	James	0.06159424
-5.000834	Jane	0.0234738
-5.301864	Janet	-5.424556e-05
-4.757796	January	0.04154248
-5.301864	Japan	0.01898628
-4.824743	Japanese	-0.000228925
-4.903924	Jem	0.0234029
-5.301864	Jeremiah	-5.424556e-05
-5.125773	Jeremy	-8.028192e-05
-5.301864	Jersey	0.005279631
-5.301864	Jew	0.001353538
-5.301864	Jewel	-5.207824e-05
-5.301864	Jezail	-3.365557e-05
-5.301864	Jingo	0.0009416939
-5.125773	Johann	0.002212405
-5.125773	Johannesburg	0.04362906
-3.886891	John	0.0264103
-5.301864	Johnnie	0.009037881
-5.301864	Johnson	0.02355384
-5.125773	Joint	0.01976625
-4.456766	Jonas	-0.0003654767
-4.523713	Jones	0.05629684
-4.204954	Joseph	0.07528304
-5.125773	Josiah	-7.37799e-05
-5.125773	Journal	0.0002026317
-4.488951	Jove	0.02426943
-5.301864	Jowaki	-5.31619e-05
-5.301864	Juan	0.02355384
-5.301864	Jubilee	0.02355384
-5.000834	Julia	0.0087121
-5.000834	July	0.02406619
-5.000834	Jump	0.02998568
-5.000834	Junction	0.04360085
-4.602894	June	0.03442317
-5.301864	Jungle	0.02355384
-5.301864	Juryman	8.231685e-05
-4.08438	Just	0.03439808
-5.301864	Justice	0.008311464
-4.903924	K	0.03026857
-4.398774	K.	0.02539651
-5.301864	K.G.	0.02355384
-5.301864	KILLED	-1.848336e-05
-5.301864	KNEW	0.005598991
-5.000834	KNOW	0.009701464
-4.903924	Kate	0.02075748
-5.301864	Keep	0.005598991
-5.301864	Kemp	0.000790746
-5.301864	Kennedy	0.02355384
-4.757796	Kennington	0.00846938
-4.602894	Kensington	0.0632657
-5.301864	Kensington.	0.000790746
-4.699804	Kent	0.04388672
-5.125773	Kentish	-1.203433e-05
-5.301864	Khalifa	0.002165331
-5.301864	Khartoum	0.02355384
-5.000834	Kilburn	0.04360085
-5.301864	Kill	0.004061421
-5.301864	Kimberley	0.008072907
-4.523713	Kindly	0.0007328439
-3.979645	King	0.0721192
-4.757796	Kirwan	0.05101066
-5.125773	Klan	0.02135734
-5.125773	Klux	-8.136559e-05
-5.000834	Knowing	0.008456118
-5.301864	Known	0.008072907
-5.125773	Kramm	0.04362906
-5.000834	Kratides	0.04360085
-5.301864	Ku	-5.31619e-05
-5.000834	L	0.02454495
-5.301864	L.	-5.207824e-05
-5.301864	L10	-3.365557e-05
-5.301864	L200	0.01898628
-5.301864	L300	0.01898628
-5.301864	L500	0.01898628
-5.301864	LATER.	0.000790746
-5.000834	LEAGUE	0.009073363
-5.301864	LESLIE	-5.424556e-05
-5.301864	LESTRADE	0.01898628
-5.301864	LIP	-5.099457e-05
-5.301864	LOUD	-5.099457e-05
-5.125773	La	-0.0001084911
-5.000834	Laburnum	-0.0001497324
-4.903924	Lachine	0.04374104
-4.046592	Lady	-0.001068749
-5.301864	Lady-day	0.02355384
-5.301864	Lancashire	0.008609845
-4.903924	Lancaster	0.04354804
-4.347621	Lane	0.06086957
-5.301864	Langham	8.773686e-05
-5.301864	Langmere	0.02355384
-5.125773	Lanner	0.04362906
-5.000834	Large	0.02347877
-4.488951	Lascar	0.03164355
-4.757796	Last	0.0002188841
-5.125773	Lat	0.01895808
-5.000834	Late	0.007808842
-4.699804	Latimer	0.05313303
-5.301864	Lattice-paned	0.02355384
-5.301864	Lauder	0.02355384
-4.824743	Leadenhall	1.070705e-05
-4.456766	League	0.06845359
-5.301864	Leaning	0.001183972
-4.903924	Leatherhead	0.04600228
-5.000834	Leave	0.01743001
-5.301864	Leaving	-4.665989e-05
-5.301864	Lebanon	0.02355384
-4.523713	Lee	0.05198349
-5.301864	Left	0.003605473
-5.301864	Legation	0.002266638
-5.301864	Legion	0.008311464
-5.301864	Leone	0.0002807341
-4.757796	Leslie	-0.0001779068
-3.444532	Lestrade	0.08707743
-5.301864	Lesurier	0.02355384
-3.757796	Let	0.03274192
-5.301864	Letter	0.001405726
-5.301864	Leuk	0.02355384
-5.301864	Leverstoke	0.02355384
-5.301864	Lewisham	-2.932071e-05
-5.125773	Lexington	0.02690444
-5.301864	Lhassa	0.008609845
-5.301864	Liberal	0.002132656
-5.301864	Lie	-2.173458e-05
-5.125773	Lieutenant	0.008269412
-5.125773	Light	0.007628015
-5.301864	Light-houses	0.02355384
-5.125773	Like	0.008718182
-4.903924	Limited	0.04357265
-5.301864	Lip	-5.207824e-05
-4.824743	Listen	0.03200084
-5.301864	Little	0.0003848579
-4.824743	Liverpool	0.04371524
-5.301864	Living	0.005279631
-5.301864	Llama	0.01898628
-5.301864	Lloyd	0.001353538
-5.301864	Local	-3.040443e-05
-4.456766	Lodge	0.06814685
-5.301864	Logic	0.003169654
-5.301864	Lombard	0.0001235108
-3.352474	London	0.1500866
-5.125773	Londoners	0.02473951
-5.125773	Lone	-7.594725e-05
-5.125773	Long	0.0189344
-4.204954	Look	0.02993576
-4.903924	Looking	0.001468074
-3.620623	Lord	0.03683238
-5.301864	Lordship	0.01898628
-5.301864	Lothman	-5.207824e-05
-5.301864	Louisiana	0.02355384
-4.561502	Lower	-0.0003547162
-5.125773	Lowther	-8.028192e-05
-4.280675	Lucas	0.06996343
-5.301864	Lucerne	0.02355384
-5.301864	Lucky	0.00147532
-5.301864	Lucretia	-5.31619e-05
-4.903924	Lucy	0.02682329
-5.000834	Luke	0.001297133
-5.301864	Luxembourg	0.008609845
-5.301864	Lyon	-4.665989e-05
-5.125773	Lyons	0.003728322
-4.699804	Lysander	-0.0002147709
-5.125773	M	0.02498628
-5.000834	M.	0.0234738
-5.301864	M.A.	0.02355384
-4.456766	MAGAZINE	-0.0003795649
-5.301864	MAGNUM	-5.424556e-05
-5.301864	MAN	-5.424556e-05
-5.301864	MARCH	0.02355384
-5.301864	MARY	0.01898628
-5.301864	MAY	0.02355384
-5.301864	MCFARLANE	-5.31619e-05
-5.301864	MEET	-5.424556e-05
-5.301864	MEMOIRS	-2.823697e-05
-5.301864	MENAGE	0.003169654
-5.301864	MILVERTON	0.02355384
-5.301864	MISS	-5.207824e-05
-5.301864	MORAN	0.02355384
-5.301864	MORNING	-5.424556e-05
-4.903924	MR.	-0.0001247955
-5.301864	MURDER	-5.31619e-05
-5.301864	MUST	0.001660231
-5.000834	MY	0.0009309433
-5.301864	MYSTERY	0.00037618
-5.125773	MacPherson	0.04362906
-4.824743	Mackleton	0.02836818
-5.000834	Madam	0.02347609
-5.125773	Madame	0.02349971
-5.301864	Mademoiselle	0.001353538
-5.301864	Madman	0.02355384
-5.301864	Madness	0.02355384
-5.301864	Madrid	0.02355384
-5.000834	Mafia	0.04451808
-5.125773	Maggie	0.02595063
-4.301864	Majesty	0.06229603
-4.699804	Major	-0.0002614379
-5.301864	Major-General	-3.473927e-05
-5.125773	Make	0.007654017
-5.301864	Making	0.0006648148
-5.301864	Malay	-5.099457e-05
-5.301864	Male	-4.99109e-05
-4.602894	Mall	0.04582515
-5.301864	Malplaquet	0.001232879
-4.903924	Man	0.02621481
-5.301864	Manchester	0.0001235108
-4.648652	Manor	0.03149377
-5.301864	Mansions	0.02355384
-4.699804	Many	-6.74575e-05
-4.456766	Mapleton	0.04331405
-5.125773	Marbank	0.02352563
-4.757796	March	0.03294327
-5.301864	Marengo	0.02355384
-5.301864	Margate	7.256099e-05
-5.301864	Mark	0.005598991
-4.757796	Marker	0.02892259
-5.301864	Market	0.01898628
-5.125773	Married	0.0008907118
-5.301864	Marseilles	0.02355384
-5.301864	Marsham	0.02355384
-4.488951	Martin	0.03773246
-4.097744	Mary	0.07802533
-5.301864	Marylebone	-3.690667e-05
-4.903924	Master	0.001508399
-5.301864	Mathematical	-5.424556e-05
-5.301864	Matheson	0.02355384
-5.301864	Mathews	0.02355384
-5.125773	Matters	0.003862816
-5.301864	Maudsley	0.02355384
-5.301864	Maupertuis	0.0009623311
-5.301864	Mauritius	0.01898628
-4.347621	Mawson	0.004096915
-4.241166	May	0.04524774
-4.824743	Maybe	0.02316384
-5.125773	Maynooth	0.032653
-4.02311	McCarthy	0.09118614
-5.000834	McCarthys	0.001038503
-5.125773	McCauley	0.02353404
-4.187921	McFarlane	0.07005759
-5.301864	McLaren	0.01898628
-5.301864	McQuire	0.001353538
-5.301864	Meaning	0.005598991
-4.398774	Meanwhile	0.04135127
-5.301864	Mecca	0.02355384
-5.301864	Medical	-5.31619e-05
-5.301864	Mediterranean	0.01898628
-4.824743	Meiringen	0.04908155
-4.301864	Melas	0.06388789
-5.301864	Melbourne	0.02355384
-5.301864	Memoirs	0.002496577
-4.757796	Men	0.02436838
-5.301864	Mendicant	-5.424556e-05
-5.301864	Meredith	0.02355384
-5.301864	Mereer	0.02355384
-5.301864	Merridew	0.008311464
-5.301864	Merrow	0.02355384
-4.488951	Merryweather	0.0288883
-5.301864	Metropolitan	-3.690667e-05
-5.301864	Meunier	0.02355384
-5.301864	Mexico	0.01898628
-5.301864	Middle	-5.424556e-05
-5.125773	Middlesex	0.04362906
-5.301864	Midland	-5.424556e-05
-5.125773	Midlands	0.02461101
-4.456766	Might	0.02840475
-5.125773	Miles	0.008555643
-4.824743	Millar	0.04942159
-5.301864	Milner	0.008609845
-3.979645	Milverton	0.0782881
-5.301864	Mind	0.003813162
-5.301864	Minerals	0.005279631
-4.488951	Minister	0.06121384
-5.125773	Ministers	0.001254728
-5.301864	Misfortunes	0.0002872411
-3.549816	Miss	-0.003482706
-5.000834	Missing	0.02347265
-5.301864	Mission	0.0004597123
-5.301864	Mister	0.0001690454
-5.301864	Mistress	0.008609845
-4.757796	Mitton	0.0332089
-4.903924	Mme	0.01890167
-5.301864	Moffat	0.01898628
-5.301864	Molesey	-4.99109e-05
-3.921653	Monday	0.08254898
-5.000834	Monica	0.02910533
-5.125773	Monsieur	-0.0001084911
-5.000834	Montague	4.865306e-05
-5.301864	Montana	0.02355384
-5.125773	Months	0.005284658
-5.301864	Montpelier	0.02355384
-5.125773	Moor	0.02947097
-5.301864	Moorhouse	0.02355384
-5.301864	Morally	0.02355384
-4.125773	Moran	0.07482395
-4.903924	Morcar	0.01990064
-4.699804	More	0.00551612
-5.301864	Morgan	0.01722811
-4.02311	Moriarty	0.09747137
-5.000834	Morning	-0.0001323583
-5.125773	Morris	0.01953716
-4.648652	Morrison	0.05281569
-4.602894	Morse	-0.0002321403
-4.824743	Mortimer	0.04337899
-4.903924	Morton	0.02404143
-4.824743	Most	0.008296929
-5.125773	Mother	0.006509767
-4.903924	Moulton	0.04357265
-4.488951	Mount-James	0.04945124
-3.832042	Mr	0.01738159
-2.695483	Mr.	-0.01235756
-4.903924	Mrs	0.01890167
-3.57351	Mrs.	-0.002739412
-5.301864	Munich	0.01722811
-4.561502	Munro	0.05354269
-5.000834	Munsters	0.02686187
-4.699804	Murder	0.03706558
-5.301864	Murdered	0.002266638
-5.301864	Murillo	0.02355384
-4.903924	Murphy	0.03390612
-5.301864	Murray	0.02355384
-4.903924	Museum	0.02436239
-4.155736	Musgrave	0.0618026
-5.125773	Musgraves	0.00372067
-5.301864	Music	1.024531e-06
-5.301864	Must	0.009037881
-5.000834	Mutiny	0.02351957
-3.213728	My	0.0008368623
-4.140496	Mycroft	0.05793861
-5.125773	Myrtles	0.02439196
-4.824743	Mystery	0.02608759
-5.125773	N	0.02352563
-5.125773	N'T	0.001733303
-5.301864	N.	-5.31619e-05
-5.301864	NEVILLE	0.01898628
-5.125773	NN	0.01030475
-5.301864	NOBLE	-5.424556e-05
-5.301864	NORTON	0.02355384
-5.000834	NOT	2.369451e-05
-5.301864	NOVEMBER	0.02355384
-5.301864	NOVO	0.008609845
-5.301864	Name	0.01722811
-4.757796	Nancy	0.03355424
-5.301864	Naples	0.02355384
-4.398774	Napoleon	0.08695257
-5.125773	Napoleonic	-8.464987e-05
-5.125773	Napoleons	0.01895808
-5.301864	Narbonne	0.008609845
-4.757796	Naturally	0.04660403
-4.824743	Nature	0.03136455
-5.000834	Naval	-0.0001084838
-5.125773	Nay	0.02352563
-4.757796	Near	0.01856822
-5.301864	Nearer	0.01722811
-4.824743	Nearly	0.008089724
-5.125773	Ned	0.00525284
-5.301864	Negro	0.01898628
-5.000834	Neill	0.009734723
-4.699804	Neither	0.04682373
-4.602894	Neligan	0.06039632
-5.301864	Nepaul	0.0001831405
-5.301864	Nervous	-3.799038e-05
-5.301864	Netherland-Sumatra	-4.665989e-05
-4.222683	Never	0.07403664
-4.324141	Neville	0.002783613
-4.523713	New	-9.783584e-05
-5.000834	Newhaven	0.04360085
-5.125773	News	0.02352563
-5.301864	Newton	0.001353538
-4.757796	Next	0.0009148711
-5.125773	Night	0.008865294
-5.301864	Nights	0.02355384
-5.301864	Nihilist	-4.340885e-05
-5.301864	Nihilists	0.02355384
-5.301864	Nimes	0.02355384
-3.131603	No	0.0442655
-5.301864	Noble	-5.424556e-05
-5.301864	Nonconformist	-4.449253e-05
-4.324141	None	0.05177118
-4.648652	Nor	0.01190448
-5.301864	Norah	-5.424556e-05
-4.824743	Norbury	0.04469595
-4.324141	Norfolk	0.06444987
-5.301864	Norman	-5.424556e-05
-4.561502	North	0.0330081
-5.301864	Northern	-4.99109e-05
-5.000834	Northumberland	0.0002579397
-4.757796	Norton	0.04956082
-5.000834	Norway	0.02007641
-5.125773	Norwegian	-8.031496e-05
-5.000834	Norwich	0.02502977
-4.301864	Norwood	0.06435096
-5.301864	Nos	0.01898628
-3.810503	Not	0.06460973
-3.949682	Nothing	0.08876578
-5.301864	Noticed	9.532503e-05
-5.301864	Nous	-5.424556e-05
-5.301864	Nov	0.01898628
-5.301864	Nova	-5.424556e-05
-5.301864	November	0.01898628
-3.352474	Now	0.1042469
-5.301864	Nursed	0.001065532
-4.903924	O	0.04357265
-5.301864	OCTOBER	0.02355384
-4.187921	OF	-0.0007372319
-5.301864	ONCE	0.02355384
-5.301864	OPUS	0.000790746
-5.301864	ORANGE	-5.424556e-05
-5.301864	OVERTON	0.01898628
-5.301864	Oakington	0.002735362
-4.699804	Oakshott	0.02603062
-5.301864	Oberstein	0.02355384
-4.903924	Obviously	0.01779921
-5.301864	Occasionally	0.004061421
-5.301864	Occurrence	0.002165331
-5.301864	Ocean	2.161715e-05
-5.000834	October	0.04357504
-5.301864	Odd	0.02355384
-5.301864	Odessa	0.005279631
-3.678615	Of	0.02748622
-5.301864	Off	0.009037881
-4.561502	Office	0.04958056
-5.301864	Officer	0.005279631
-5.301864	Often	0.004061421
-3.488951	Oh	0.02202746
-4.398774	Old	0.002525066
-4.17153	Oldacre	0.06594745
-3.453675	On	0.03715901
-4.456766	Once	0.04668877
-3.639106	One	0.05592049
-4.125773	Only	0.03720451
-5.301864	Open	0.004061421
-5.125773	Opening	0.02145755
-4.372445	Openshaw	0.06208104
-5.301864	Opera	0.008311464
-5.301864	Oporto	0.01898628
-5.125773	Opposite	0.006051183
-4.488951	Or	0.03461099
-5.301864	Orange	-5.424556e-05
-5.125773	Order	0.009330182
-5.301864	Ordering	0.002596873
-5.301864	Oriental	-2.281832e-05
-5.301864	Orientals	0.0007440601
-5.301864	Origin	0.008311464
-5.125773	Ormstein	0.02352563
-5.301864	Oscar	-5.424556e-05
-5.301864	Oscillation	0.001232879
-5.125773	Other	4.975262e-05
-5.301864	Others	0.001119858
-5.000834	Otherwise	0.01878855
-3.776819	Our	0.001105789
-4.648652	Out	0.01069825
-5.301864	Outrage	0.01898628
-4.824743	Outside	0.04719676
-4.903924	Over	0.02092651
-4.426803	Overton	0.06301188
-5.301864	Owe	0.0009416939
-5.301864	Owns	0.0004597123
-4.398774	Oxford	0.01871081
-5.301864	Oxfordshire	0.02355384
-5.000834	P	0.03259892
-5.125773	P.	-8.031495e-05
-5.301864	P.C	0.01898628
-5.301864	PIPS	0.0001310995
-5.301864	PORTIERE	0.002165331
-5.301864	POST	0.008072907
-5.301864	Pa	0.0002069947
-5.125773	Pacific	-0.0001063238
-4.561502	Paddington	0.05918039
-5.301864	Paisley	-5.31619e-05
-5.301864	Palace	0.02355384
-4.602894	Pall	-0.0002711545
-5.301864	Palladio	0.01898628
-4.824743	Palmer	0.034042
-5.301864	Palmer-tyred	0.02355384
-5.301864	Pals	0.008311464
-5.301864	Panama	9.694988e-06
-5.301864	Pancras	-4.449253e-05
-5.301864	Paradol	-5.424556e-05
-5.125773	Paramore	0.04362906
-4.456766	Paris	0.05238547
-5.301864	Parisian	9.424098e-05
-4.456766	Park	0.04918973
-4.903924	Parker	0.02462391
-5.125773	Parliament	0.02209006
-5.125773	Parr	0.02352563
-5.301864	Pass	0.02355384
-5.301864	Passing	0.0005899249
-5.301864	Patersons	0.005279631
-5.301864	Patience	-2.390207e-05
-5.125773	Patient	0.008808877
-4.699804	Patrick	0.02402216
-5.301864	Patterson	0.005598991
-5.301864	Pattins	0.01898628
-4.903924	Paul	0.002218228
-5.301864	Paulo	0.02355384
-5.301864	Peace	-3.040443e-05
-5.301864	Peak	4.979808e-05
-5.301864	Peculiar	0.000790746
-5.301864	Peeping	0.000754917
-5.125773	Peering	0.005500861
-5.301864	Penang-lawyer	-5.207824e-05
-5.301864	Pencils	0.02355384
-5.301864	Pending	0.01722811
-5.301864	Pennsylvania	0.02355384
-5.301864	Pentonville	0.01898628
-5.301864	People	0.000252538
-5.301864	Perceiving	0.007682221
-4.398774	Percy	0.005918214
-5.301864	Perfectly	0.001074224
-4.000834	Perhaps	0.1010492
-5.125773	Persia	0.04362906
-4.903924	Persian	-0.0001378005
-5.301864	Personally	0.009037881
-4.058826	Peter	0.07549161
-5.301864	Petersfield	0.01898628
-4.523713	Peterson	0.03587703
-5.301864	Petrarch	0.02355384
-5.301864	Petrified	0.002496577
-5.301864	Petty	-5.424556e-05
-5.301864	Ph.D.	0.02355384
-3.99011	Phelps	0.07420456
-5.125773	Philadelphia	0.01894345
-5.301864	Philosophy	0.02355384
-5.301864	Pickwick	0.001353538
-4.757796	Pietro	0.03831698
-5.125773	Pince-Nez	0.01895808
-5.301864	Pink	-3.799038e-05
-5.301864	Pinkerton	-4.882724e-05
-4.456766	Pinner	0.06040405
-5.301864	Pioneers	0.01898628
-5.301864	Pipes	0.0009623311
-5.301864	Pips	-5.207824e-05
-4.903924	Pitt	3.890524e-05
-4.648652	Place	0.04746569
-5.301864	Plant	0.00210325
-5.301864	Plantagenet	1.024531e-06
-5.301864	Plate	-5.207824e-05
-5.301864	Platz	0.02355384
-5.301864	Play	-4.665989e-05
-5.125773	Please	0.00160817
-5.301864	Plumb	0.005279631
-5.301864	Plural	0.0009416939
-5.301864	Plymouth	0.002165331
-5.301864	Poe	0.001353538
-5.000834	Police	0.02347151
-5.301864	Police-Constable	-5.424556e-05
-5.301864	Police-constable	-5.424556e-05
-5.301864	Pollock	-3.257185e-05
-4.648652	Pompey	0.02991656
-4.903924	Pondicherry	0.02907713
-5.125773	Pooh	0.02455136
-4.561502	Pool	0.05252793
-4.824743	Poor	0.0003653587
-4.824743	Pope	0.002062442
-5.301864	Portsdown	-4.774356e-05
-5.301864	Portsmouth	3.028803e-05
-5.301864	Portuguese	-4.665989e-05
-4.824743	Possibly	0.06842852
-5.000834	Post	0.03204187
-5.301864	Posted	-2.173458e-05
-5.301864	Potter	0.001353538
-5.301864	Powdered	-3.690667e-05
-5.301864	Prague	0.00210325
-3.895324	Pray	0.02673909
-4.372445	Precisely	0.0444568
-4.561502	Premier	0.02913528
-4.523713	Prendergast	0.06020656
-4.824743	Presently	0.004522514
-5.301864	President	0.008609845
-4.903924	Press	0.02495793
-5.125773	Presuming	0.005570787
-5.125773	Price	0.02595063
-5.301864	Prima	-5.424556e-05
-4.602894	Prime	-0.0002679035
-5.125773	Prince	0.008875249
-5.301864	Princess	0.02355384
-5.301864	Principal	0.008311464
-5.301864	Pringle	0.02355384
-4.757796	Priory	0.003005903
-5.301864	Pritchard	0.001119858
-5.301864	Private	-5.31619e-05
-4.824743	Probably	0.02617913
-5.301864	Problem	0.001205708
-5.301864	Problems	0.0004564578
-5.301864	Proceed	0.02355384
-3.839466	Professor	0.05804673
-5.125773	Promise	0.009033483
-5.301864	Proosia	0.02355384
-5.301864	Prosper	0.01898628
-5.301864	Providence	2.70364e-05
-5.125773	Pshaw	0.02455136
-5.301864	Public	-4.340885e-05
-5.301864	Pugilist	0.01898628
-5.000834	Pull	0.0008136352
-5.301864	Pullman	-5.424556e-05
-5.301864	Punjab	0.02355384
-5.301864	Purely	-5.099457e-05
-5.301864	Puritan	0.000790746
-5.301864	Purple	-3.799038e-05
-4.903924	Put	0.01848762
-5.125773	Putting	0.004505245
-5.125773	Puzzle	0.00334475
-4.222683	Pycroft	0.05622621
-4.523713	Pyland	0.04396114
-5.301864	Queen	-5.424556e-05
-5.301864	Queer	0.0001235108
-4.699804	Quick	0.02441037
-5.301864	Quiet	0.02355384
-5.301864	Quincey	0.001353538
-4.097744	Quite	0.02863187
-5.301864	R	0.02355384
-5.125773	R.	0.008251736
-5.000834	RED-HEADED	-0.0001084838
-4.426803	RETURN	-0.0003947422
-5.000834	ROCK	0.02349897
-5.301864	RUCASTLE	0.01898628
-4.824743	Rachel	0.0006573334
-5.000834	Ragged	-0.0001074001
-5.301864	Railway	0.02355384
-5.301864	Rain	0.002967731
-4.757796	Ralph	0.0234205
-4.903924	Randall	0.03093984
-5.125773	Randalls	0.02595063
-5.125773	Ras	0.02352563
-5.301864	Rasper	0.01898628
-5.301864	Ratcliff	-5.424556e-05
-5.000834	Rather	0.0003230187
-5.125773	Read	0.004033218
-4.426803	Reading	0.07025113
-4.824743	Really	0.02446676
-5.301864	Recently	0.003824094
-4.903924	Red	-0.0001898895
-4.757796	Red-headed	-0.0002028649
-5.301864	Regency	0.01898628
-4.903924	Regent	0.001396284
-5.000834	Reginald	-8.247508e-05
-4.757796	Reichenbach	0.02363954
-5.125773	Reigate	0.00522651
-5.301864	Relations	0.001119858
-5.301864	Relieved	0.02355384
-4.824743	Remember	0.04803483
-5.301864	Remo	0.01898628
-5.125773	Republican	7.685495e-05
-5.125773	Resident	-8.136559e-05
-5.301864	Restaurant	0.02355384
-5.301864	Results	0.0001549509
-5.301864	Retired	0.001405726
-5.301864	Return	-5.207824e-05
-5.301864	Returning	0.008072907
-4.757796	Reuben	-0.0001789905
-5.301864	Reuter	0.001353538
-5.301864	Rhodesia	0.01898628
-5.301864	Rhodesian	-5.207824e-05
-5.301864	Rhone	0.02355384
-5.301864	Rica	0.02355384
-5.301864	Richard	-3.040443e-05
-5.301864	Ricoletti	0.008311464
-5.301864	Riding	-4.99109e-05
-4.903924	Ridling	-0.0001345164
-4.648652	Right	0.00555816
-5.301864	Ripley	0.02355384
-4.456766	Ritual	0.05479432
-5.301864	River	0.005279631
-4.187921	Road	0.06736475
-5.301864	Roaring	-3.582298e-05
-5.000834	Robbery	0.0190149
-4.757796	Robert	0.02345826
-5.301864	Robinson	0.02355384
-5.301864	Rockies	0.02355384
-5.301864	Roman	-5.31619e-05
-4.648652	Ronald	0.0233454
-5.301864	Room	0.02355384
-5.301864	Rooms	0.002735362
-5.000834	Rosenlaui	0.04360085
-4.111532	Ross	0.0595888
-5.301864	Rothiere	0.02355384
-5.301864	Rotterdam	0.01898628
-5.301864	Roughly	-5.424556e-05
-5.000834	Round	0.006204756
-4.903924	Row	0.05000025
-4.903924	Royal	-0.0001616419
-4.260471	Roylott	0.04622845
-5.125773	Roylotts	0.00828326
-4.02311	Rucastle	0.08686066
-4.903924	Rucastles	0.003299653
-5.301864	Rue	-5.424556e-05
-5.301864	Rugby	-4.882724e-05
-5.301864	Rugger	-4.882724e-05
-5.301864	Run	0.0005899249
-5.301864	Running	0.0007929172
-5.301864	Rushing	0.0005074524
-5.125773	Russell	0.001317782
-5.301864	Russia	0.02355384
-4.426803	Russian	0.05400851
-5.301864	Russo-German	-5.424556e-05
-5.125773	Ruston	0.04362906
-4.488951	Ryder	0.04516466
-5.000834	S	0.03082659
-5.000834	S.	0.006807798
-5.301864	SAW	0.01722811
-5.301864	SCANDAL	-5.31619e-05
-4.699804	SEA	-0.0002169382
-5.301864	SEBASTIAN	0.02355384
-5.301864	SEPTEMBER	0.02355384
-4.324141	SHERLOCK	-0.0005117856
-5.301864	SIMON	0.01898628
-5.301864	SIR	-4.015776e-05
-5.301864	SL.NE	0.01898628
-5.301864	SLANE	0.01898628
-5.301864	SLANEY	0.01898628
-5.301864	SPECKLED	-5.424556e-05
-5.301864	ST	0.01898628
-5.301864	STANLEY	-5.424556e-05
-4.456766	STRAND	-0.0003795649
-5.301864	Saddle	0.007682221
-5.301864	Saffron	-4.774356e-05
-4.561502	Saltire	0.05433377
-5.301864	Same	0.0002135005
-5.301864	Samuel	0.01898628
-4.903924	San	-0.000189853
-5.301864	Sand	0.01898628
-4.824743	Sandeford	0.04422633
-5.301864	Sarasate	-5.207824e-05
-4.426803	Saturday	0.08695651
-5.301864	Saturdays	0.01898628
-5.125773	Saunders	0.01895808
-4.824743	Savannah	0.06918853
-4.903924	Save	0.03135943
-5.301864	Saviour	0.001353538
-4.757796	Saxe-Coburg	-0.0001768231
-5.301864	Saxe-Meningen	0.02355384
-5.125773	Saxon	-9.873805e-05
-5.000834	Say	0.01124622
-5.301864	Scala	0.02355384
-5.301864	Scandal	0.005279631
-5.000834	Scandinavia	0.04360085
-4.757796	Scarlet	0.02341284
-5.301864	Scholarship	0.01898628
-4.903924	School	0.04357265
-5.301864	Scot	0.0009416939
-4.903924	Scotch	2.801964e-05
-5.301864	Scotch-woman	0.01898628
-5.301864	Scotia	0.02355384
-4.071415	Scotland	0.004361095
-4.824743	Scott	0.03297615
-4.757796	Scott_	0.06093799
-5.301864	Scoundrel	0.0009416939
-5.301864	Scylla	0.008609845
-5.301864	Sea	0.01898628
-5.301864	Seated	0.005279631
-5.125773	Sebastian	-5.210576e-05
-4.699804	Second	0.02897013
-4.561502	Secretary	0.0356462
-4.372445	See	0.02702654
-5.000834	Seeing	0.02303007
-5.301864	Seems	0.008072907
-5.301864	Seen	0.01722811
-5.301864	Seizing	0.002596873
-5.000834	Seldom	0.002684559
-5.000834	Send	0.01887912
-5.301864	September	0.02355384
-4.903924	Sergeant	-9.231157e-05
-5.125773	Sergius	0.02595063
-4.757796	Serpentine	0.02120064
-5.125773	Serpentine-mews	0.02352563
-5.301864	Serve	0.001926859
-5.125773	Served	0.005251428
-5.301864	Set	0.01722811
-5.000834	Seven	0.001037458
-4.648652	Several	0.02807788
-5.301864	Severn	0.02355384
-5.301864	Shaftesbury	-4.882724e-05
-4.699804	Shall	0.02990392
-5.301864	Sharp	0.002165331
-4.903924	Shaw	0.04357265
-3.184593	She	0.05274051
-5.301864	Sheeny	0.0004597123
-5.301864	Sheep-marks	0.0009981769
-3.284831	Sherlock	0.04600441
-5.301864	Sherpur	0.02355384
-5.301864	Shetland	-4.449253e-05
-5.301864	Shillings	0.002735362
-5.125773	Shipping	-9.982173e-05
-5.301864	Sholto	-2.226861e-06
-5.301864	Sholtos	0.01898628
-4.903924	Shortly	0.0001646792
-5.301864	Shot	0.0002178379
-4.699804	Should	0.01807739
-5.301864	Show	0.0004922619
-5.301864	Showing	0.005598991
-5.000834	Siberia	0.05364188
-5.301864	Sidelights	0.001183972
-5.301864	Sierra	-5.424556e-05
-5.301864	Sigerson	0.02355384
-5.301864	Sigismond	-5.207824e-05
-5.000834	Sign	0.008255058
-5.301864	Sikhs	0.02355384
-4.757796	Silas	-0.0001865763
-4.456766	Silver	-0.0003795649
-4.000834	Simon	0.08726367
-5.301864	Simply	0.001010126
-4.347621	Simpson	0.08076923
-4.648652	Since	0.008888156
-5.301864	Singleford	0.001353538
-5.301864	Singularity	0.003169654
-4.097744	Sir	0.02262319
-4.824743	Sit	0.0004771212
-4.824743	Six	0.0007572911
-4.602894	Slaney	0.04897456
-5.301864	Slater	0.02355384
-5.301864	Sleepy	-5.424556e-05
-5.301864	Slipping	0.0002178379
-5.000834	Slowly	0.02895659
-5.301864	Smack	0.0009416939
-5.301864	Small	0.02355384
-5.301864	Smart	0.0001115858
-4.155736	Smith	0.0737539
-5.301864	Smith-Mortimer	-4.557621e-05
-5.301864	Snake-catcher	0.003169654
-5.301864	Snapping	0.0002308502
-3.542196	So	0.07564668
-4.111532	Soames	0.05963911
-5.301864	Society	0.02355384
-5.301864	Sold	0.000891734
-5.125773	Solitary	-8.136559e-05
-4.097744	Some	0.03464519
-5.301864	Somebody	-1.739963e-05
-4.699804	Someone	0.009680822
-4.699804	Something	0.01993234
-4.602894	Sometimes	0.03672818
-5.301864	Somomy	-4.449253e-05
-5.301864	Son	0.008311464
-5.301864	Sooner	0.0005248139
-4.903924	Sophy	0.01986675
-5.000834	Sorry	0.008016502
-5.301864	Sound	0.002132656
-4.324141	South	0.0523549
-4.903924	Southampton	0.03692924
-5.000834	Southern	-0.0001301909
-5.301864	Southerton	0.001353538
-5.301864	Southsea	0.01898628
-5.301864	Sovereign	0.0007983461
-5.301864	Spare	0.001926859
-4.648652	Spaulding	0.04952919
-5.301864	Speak	0.000891734
-5.125773	Speaking	-0.0001019891
-5.125773	Speckled	-8.136559e-05
-5.125773	Spence	-7.269622e-05
-5.301864	Spies	0.008609845
-5.301864	Splendid	0.0009416939
-4.324141	Square	0.04740418
-5.301864	Squatted	0.001183972
-5.125773	St	0.01895808
-3.663375	St.	-0.001672606
-4.903924	Stain	0.051254
-5.301864	Stamford	0.02355384
-5.000834	Stand	0.001632273
-5.125773	Standard	0.04362906
-5.125773	Standing	0.00647896
-4.155736	Stanley	-0.0007045809
-4.699804	Star	0.05251214
-4.602894	Stark	0.03254567
-5.301864	Stars	0.008609845
-5.301864	Starving	0.01898628
-5.000834	State	0.002106969
-5.000834	States	0.02590227
-4.347621	Station	0.06350041
-4.097744	Staunton	0.08993133
-5.301864	Stay	0.0002742272
-5.000834	Steiler	0.02237365
-5.125773	Step	0.002175365
-4.903924	Stepney	0.04357265
-5.301864	Stepping	0.000891734
-5.301864	Stevens	0.02355384
-5.125773	Stevenson	0.02690444
-5.000834	Stewart	0.02349743
-5.301864	Stick	0.002165331
-4.280675	Still	0.03922885
-5.125773	Stock	-8.136559e-05
-5.301864	Stock-Broker	0.001353538
-4.523713	Stoke	-0.0003058565
-5.125773	Stolen	0.04362906
-4.301864	Stoner	0.06975013
-4.824743	Stop	0.03175868
-4.757796	Stoper	0.04999009
-4.011829	Straker	0.07268293
-4.824743	Strand	0.01901411
-5.301864	Strange	0.02355384
-5.301864	Stranger	0.001353538
-5.125773	Strasburg	0.01893213
-4.903924	Streatham	0.03284177
-3.382786	Street	0.1494294
-5.301864	Striding	0.0002178379
-5.301864	Stripes	0.01898628
-5.125773	Strong	0.002104452
-5.301864	Stroud	-4.774356e-05
-5.301864	Stuarts	0.01898628
-5.125773	Students	0.01895808
-4.757796	Study	0.005138631
-5.301864	Subtle	0.0001310995
-5.125773	Suburban	-7.703093e-05
-4.372445	Such	0.01812136
-4.204954	Suddenly	0.05319855
-5.301864	Suez	-5.424556e-05
-5.301864	Summer	-5.424556e-05
-5.301864	Sunday	0.009037881
-5.125773	Sunday-school	0.0001690154
-4.903924	Suppose	0.02268343
-5.301864	Supposing	0.005598991
-5.301864	Sure	0.0001310995
-4.125773	Surely	0.1136701
-5.301864	Surprise	0.004972566
-4.523713	Surrey	0.04617473
-4.648652	Susan	0.05290993
-5.125773	Suspicion	0.008330178
-4.699804	Sussex	0.04624955
-4.523713	Sutherland	0.05747025
-5.125773	Sutton	0.04362906
-5.125773	Swain	0.02353404
-5.125773	Swan	0.00312525
-4.648652	Swandam	-0.000234294
-5.301864	Sweet	4.763027e-05
-5.125773	Swiftly	0.017833
-5.301864	Swindon	0.02355384
-4.824743	Swiss	0.00281738
-5.125773	Switzerland	0.02759576
-4.757796	Sydenham	0.05223572
-5.301864	Sydney	0.02355384
-5.125773	Syndicate	0.01895808
-5.301864	Syria	0.008609845
-4.903924	T	0.03257189
-5.301864	T.	0.02355384
-5.125773	TELEGRAPH	0.02352563
-5.125773	THAT	0.002349699
-3.903924	THE	-0.001526886
-5.301864	THIS	5.846951e-05
-5.301864	THUMB	3.462351e-05
-5.301864	THY	-5.424556e-05
-5.125773	TIMES	0.02350429
-4.903924	TO	-0.0001649627
-5.301864	TOWERS	0.02355384
-5.301864	TRUE	4.112684e-05
-5.301864	TWISTED	-5.424556e-05
-5.301864	TWO	-4.99109e-05
-5.301864	Taciturn	0.02355384
-5.301864	Tadpole	0.00690851
-4.426803	Take	0.02426289
-5.301864	Taking	0.01722811
-5.301864	Tall	0.002266638
-4.903924	Tangey	0.03020581
-5.125773	Tankerville	0.02350658
-5.301864	Tarleton	-4.99109e-05
-5.125773	Tarlton	0.04362906
-4.648652	Tavistock	0.04934133
-5.301864	Technically	0.02355384
-4.903924	Teddy	0.02926651
-5.125773	Telegraph	0.032653
-4.456766	Tell	0.003801499
-4.903924	Temple	0.05254418
-4.903924	Ten	0.0008506335
-5.301864	Tennessee	0.02355384
-5.301864	Terai	-3.799038e-05
-4.757796	Terrace	0.0537806
-5.125773	Terrible	0.0009080906
-5.301864	Terror	0.000790746
-5.301864	Terse	0.008609845
-5.125773	Testament	0.02352563
-5.301864	Teutonic	0.0002330189
-5.301864	Texas	0.02355384
-5.000834	Thames	0.02796045
-3.912698	Thank	0.002514281
-5.301864	Thanks	0.008072907
-3.204954	That	0.1097231
-2.528078	The	-0.005439866
-5.301864	Theatre	0.01898628
-4.523713	Their	0.0001484488
-3.088346	Then	0.1336062
-5.301864	Thence	0.003824094
-5.301864	Theological	-4.99109e-05
-5.301864	Theorem	0.02355384
-5.301864	Theories	0.0009623311
-2.934508	There	0.08717594
-4.398774	Therefore	0.07004023
-5.301864	Therein	-2.173458e-05
-4.488951	Theresa	0.0498468
-3.940136	These	0.03264493
-3.406995	They	0.01627306
-5.301864	Thick	-4.774356e-05
-5.125773	Things	0.00409582
-4.757796	Think	0.008524094
-5.125773	Third	0.02372976
-5.301864	Thirty	5.196595e-05
-3.199774	This	0.07263379
-5.301864	Thoreau	0.001353538
-5.125773	Thorneycroft	-6.294296e-05
-4.824743	Thorpe	0.001972039
-4.426803	Those	0.02834909
-5.000834	Though	0.009412225
-5.125773	Threadneedle	9.530709e-05
-5.301864	Threatens	0.008072907
-4.324141	Three	0.008937176
-5.125773	Three-Quarter	0.01895808
-5.301864	Three-forty	0.003169654
-4.699804	Through	0.02508647
-5.301864	Throw	0.01722811
-5.125773	Thrust	0.00429501
-5.301864	Thucydides	0.01898628
-5.301864	Thumb	-5.099457e-05
-4.757796	Thursday	0.009149889
-5.125773	Thurston	0.02209006
-5.125773	Thus	0.002106739
-5.301864	Tibet	0.02355384
-5.301864	Time	0.004972566
-5.125773	Times	0.00878233
-5.301864	Tingling	0.002496577
-5.301864	Tiptoes	0.0009416939
-5.301864	Tired	-3.690667e-05
-5.301864	Tired-looking	0.0005248139
-5.301864	Title	0.008609845
-3.733662	To	0.05186171
-4.757796	To-day	0.05582041
-4.699804	To-morrow	0.01511089
-5.301864	To-night	0.009037881
-5.125773	Tobacco	0.008581642
-5.301864	Tobin	0.02355384
-4.903924	Together	0.001852148
-4.398774	Toller	0.05243798
-5.301864	Tollers	7.58129e-05
-4.699804	Too	0.0005238891
-5.301864	Torrington	-4.124147e-05
-5.301864	Tosca	0.000790746
-4.903924	Tottenham	-0.0001301817
-5.301864	Tottering	0.008609845
-5.301864	Tower	0.008311464
-5.125773	Towers	0.02798865
-5.301864	Trafalgar	-3.582298e-05
-5.301864	Tragic	0.02355384
-5.301864	Treasury	8.556884e-05
-5.000834	Treaty	0.03218311
-5.301864	Tree	-5.424556e-05
-5.301864	Tregellis	0.02355384
-4.699804	Trelawney	-0.0002126035
-5.301864	Trepoff	-2.226861e-06
-4.372445	Trevelyan	0.07481876
-4.222683	Trevor	0.06978052
-5.301864	Trincomalee	0.02355384
-5.125773	Trinity	-7.811459e-05
-5.301864	Triple	-5.424556e-05
-5.125773	Trumpington	0.02742715
-5.301864	Trust	0.001926859
-5.000834	Try	0.01714575
-5.125773	Tudor	0.001132993
-4.324141	Tuesday	0.05379614
-5.301864	Tunbridge	-5.424556e-05
-5.301864	Turkish	-4.774356e-05
-5.301864	Turn	0.0005074524
-4.241166	Turner	0.0550643
-5.000834	Turning	0.004596713
-5.125773	Tuson	0.04362906
-4.824743	Tut	0.02446676
-5.301864	Tut-tut	0.0009416939
-5.301864	Twelve	2.70364e-05
-5.301864	Twenty	0.0005248139
-5.301864	Twenty-four	-3.690667e-05
-5.301864	Twenty-nine	0.02355384
-5.301864	Twenty-six	-5.31619e-05
-5.301864	Twenty-two	-4.99109e-05
-4.699804	Twice	0.007705237
-5.301864	Twisted	-5.424556e-05
-4.155736	Two	0.01128056
-5.301864	U.	-5.207824e-05
-5.301864	U.S.A.	0.001161151
-5.301864	UNCLE	8.231685e-05
-4.699804	UNICORN	0.0493652
-5.301864	Uffa	0.02355384
-5.301864	Uncle	-4.882724e-05
-4.903924	Under	0.01887479
-5.301864	Under-Secretary	0.00210325
-5.125773	Underground	0.01078674
-5.125773	Underneath	0.02052925
-4.602894	Undoubtedly	0.02413313
-5.301864	Unemployed	0.01898628
-5.301864	Unfolding	0.004061421
-5.000834	Unfortunately	0.02574986
-5.125773	Union	0.01895138
-5.301864	United	-5.207824e-05
-5.301864	Universities	0.00224485
-4.561502	University	0.04744202
-4.757796	Unless	0.0248858
-4.824743	Until	0.006039877
-4.757796	Up	0.007976577
-4.699804	Upon	0.02053737
-5.000834	Upper	-0.0001030654
-5.301864	Uppingham	0.0005248139
-5.301864	Uriah	0.008609845
-5.301864	V	0.02355384
-4.824743	V.	0.001942843
-5.301864	VALLEY	-5.424556e-05
-5.301864	VERY	-1.143064e-06
-5.000834	VI	0.01892987
-5.301864	VI.	0.000790746
-5.000834	VII	0.01892987
-5.301864	VII.	0.000790746
-5.000834	VIII	0.01892987
-5.301864	VIII.	0.000790746
-5.301864	VIOLET	-5.207824e-05
-5.301864	Vale	0.02355384
-4.699804	Valley	0.05632563
-5.301864	Vamberry	0.02355384
-5.301864	Vast	-5.31619e-05
-5.301864	Vegetarian	-5.424556e-05
-5.301864	Venezuelan	-5.424556e-05
-5.301864	Venner	-4.232515e-05
-5.125773	Venucci	0.02352563
-5.301864	Verdes	0.001119858
-5.125773	Vere	0.000161425
-5.125773	Verner	0.02880909
-5.301864	Vernet	0.02355384
-3.839466	Very	0.04406158
-4.757796	Victor	0.04351138
-4.523713	Victoria	0.05054871
-5.301864	Villa	0.00690851
-5.301864	Villain	0.0009416939
-4.757796	Vincent	-0.0002137018
-5.125773	Violence	0.008365538
-4.757796	Violet	0.02341935
-5.301864	Visited	-5.31619e-05
-5.125773	Vitus	0.001325335
-5.301864	Voil	-5.207824e-05
-4.456766	Vol	0.01864796
-5.301864	Volume	0.008062969
-4.903924	Von	-0.0001627256
-5.301864	Vox	-5.424556e-05
-5.301864	W.	-5.31619e-05
-5.125773	WAS	0.02522746
-5.000834	WE	0.004330563
-5.301864	WERE	-2.226861e-06
-5.301864	WESTMINSTER	0.01898628
-5.301864	WHEN	0.009037881
-5.301864	WILSON	0.00690851
-5.301864	WITH	-2.226861e-06
-4.699804	Wait	0.01326579
-5.301864	Waldbaum	0.02355384
-5.000834	Wales	0.04360085
-5.301864	Walk	2.270098e-05
-5.301864	Wallenstein	0.02355384
-5.301864	Walsall	0.02355384
-5.125773	Walsham	0.02355921
-5.301864	Walsingham	-4.665989e-05
-5.301864	Want	0.0009416939
-5.301864	Wanted	0.02355384
-4.824743	War	0.04486303
-5.301864	Warburton	0.001353538
-5.301864	Ward	-5.099457e-05
-5.301864	Wardlaw	0.001353538
-5.301864	Warm	0.0009416939
-5.125773	Warsaw	0.02439196
-3.979645	Was	0.03902
-5.301864	Water	0.02355384
-5.301864	Waterbeach	0.02355384
-4.398774	Waterloo	0.04734544
-2.984846	Watson	0.08180024
-5.125773	Watt	9.530709e-05
-3.001921	We	0.01094119
-5.301864	Wedding	0.001161151
-5.301864	Wedlock	-4.99109e-05
-4.648652	Wednesday	0.04865019
-5.301864	Weiss	-4.232515e-05
-5.301864	Welbeck	0.0001235108
-3.079148	Well	0.03866733
-5.301864	Well-known	-5.207824e-05
-5.301864	Wellington	0.0001235108
-5.301864	Wells	0.02355384
-5.125773	Welsh	-5.105315e-05
-4.523713	Were	0.03092947
-4.824743	Wessex	-0.0001887565
-5.000834	West	-0.0001084838
-5.301864	West-End	-1.089706e-05
-5.301864	West-country	-5.207824e-05
-5.301864	West-end	0.01898628
-5.125773	Westaway	0.006342554
-5.301864	Westbury	-3.907408e-05
-5.301864	Western	-5.424556e-05
-5.125773	Westhouse	-7.052884e-05
-4.757796	Westminster	0.04403189
-5.301864	Westphail	0.02355384
-5.301864	Wharf	0.02355384
-3.066336	What	0.1245145
-4.757796	Whatever	0.02711146
-3.364848	When	0.1107447
-3.854706	Where	0.061843
-4.903924	Whether	0.01338727
-4.488951	Which	0.02134891
-4.824743	While	0.009637917
-5.301864	Whip	0.001062273
-4.699804	Whitehall	0.04368819
-4.648652	Whitney	0.05054854
-5.301864	Whittington	0.01898628
-3.8705	Who	0.02356348
-5.301864	Whoa	0.02355384
-5.000834	Whoever	0.004022993
-5.301864	Whole	-1.089706e-05
-4.903924	Whom	0.008531838
-5.000834	Whose	0.02914783
-3.577588	Why	0.05144317
-5.301864	Wight	0.01898628
-5.301864	Wigmore	0.0001235108
-4.324141	Wilder	0.06916405
-5.301864	Wilful	-4.774356e-05
-5.301864	Wilhelm	-5.424556e-05
-4.523713	Will	0.007740549
-4.187921	William	0.04591727
-5.000834	Williams	0.02495808
-4.523713	Williamson	0.06498753
-4.602894	Willoughby	-0.0002516478
-5.301864	Willows	-1.848336e-05
-4.155736	Wilson	0.05818309
-5.301864	Wilton	-1.956713e-05
-5.301864	Wimpole	0.0001235108
-4.523713	Winchester	0.0565116
-4.280675	Windibank	0.04624619
-5.000834	Windigate	0.03343058
-5.301864	Wire	0.0006300819
-3.751636	With	0.04704229
-4.699804	Within	0.03374384
-4.699804	Without	0.03602036
-4.602894	Witness	-0.0001584624
-5.125773	Wo	0.0002980814
-4.426803	Woking	0.05021355
-5.301864	Women	0.0009623311
-4.699804	Wonderful	0.0007724992
-4.699804	Wood	0.05144995
-5.301864	Wooden-leg	0.002967731
-5.125773	Woodhouse	0.001325335
-4.17153	Woodley	0.07081633
-4.903924	Woodman	0.001268933
-5.301864	Work	0.003169654
-5.301864	Working	0.002496577
-5.301864	Worship	0.02355384
-5.125773	Worthingdon	-6.727777e-05
-4.426803	Would	0.047548
-5.000834	Wright	0.02753126
-5.301864	Written	0.005279631
-4.903924	X	0.01887573
-5.301864	X.	0.000790746
-5.000834	XI	0.01892987
-5.301864	XI.	0.000790746
-5.125773	XII	0.01895808
-5.301864	XII.	0.000790746
-5.301864	XIII.	0.000790746
-5.000834	XXX	0.01905238
-4.824743	YOU	0.02456797
-4.097744	Yard	0.07815091
-5.000834	Yellow	0.008518024
-3.178012	Yes	0.03950218
-4.824743	Yesterday	0.05408138
-4.125773	Yet	0.0838965
-5.125773	York	0.001365623
-2.728412	You	0.03718486
-4.824743	Young	-4.034248e-05
-3.705267	Your	0.001774859
-4.699804	Yours	0.000773617
-4.699804	Yoxley	0.000124543
-5.000834	Zealand	0.01888817
-5.301864	Zoo	0.008609845
-5.000834	[	0.004229589
-4.903924	]	0.04721408
-4.757796	_Gloria	-0.0001898273
-5.125773	_Hotspur_	0.02350429
-1.732315	``	0.001782686
-1.752984	a	-0.1625638
-5.301864	a-lying	0.005279631
-5.301864	a-stampin	0.001161151
-5.301864	a-walkin	0.001161151
-5.301864	a.m.	0.008062969
-4.903924	aback	0.02465604
-4.824743	abandon	0.02572332
-4.903924	abandoned	0.007851778
-5.301864	abandoning	0.0006648148
-5.301864	abandons	0.0001788035
-4.903924	abduction	0.04266973
-5.301864	abductor	0.004972566
-5.301864	aberration	0.0006713275
-5.301864	abetted	0.001010126
-5.000834	abhorrent	0.03205724
-5.301864	abhors	0.002132656
-5.301864	abide	-5.424556e-05
-5.125773	abilities	0.02798865
-4.648652	ability	0.05658855
-5.301864	abjure	0.003605473
-3.648652	able	0.06158205
-5.301864	able-bodied	7.906488e-05
-5.125773	abnormal	0.02913353
-5.125773	abnormally	-8.898474e-05
-5.000834	aboard	0.04452408
-5.125773	abode	0.00828326
-5.000834	abominable	0.0001397124
-5.301864	abomination	0.01898628
-5.301864	abortive	0.01898628
-5.301864	abound	0.005279631
-2.925287	about	0.15995
-3.78335	above	0.1005092
-5.301864	abrasion	0.02355384
-5.301864	abreast	0.008311464
-4.824743	abroad	0.04701628
-4.757796	abrupt	0.02468257
-4.903924	abruptly	0.04512518
-5.301864	abruptness	0.008311464
-5.301864	absconding	-3.799038e-05
-4.372445	absence	0.0752352
-4.523713	absent	0.05920815
-5.301864	absentees	0.01898628
-4.034692	absolute	0.007276271
-3.832042	absolutely	0.005721761
-5.125773	absolved	0.001377522
-5.301864	absorb	0.001016645
-4.602894	absorbed	0.03352112
-5.301864	absorbing	0.01898628
-5.301864	abstract	-4.99109e-05
-4.699804	abstracted	0.0296915
-5.000834	abstruse	0.00855344
-4.204954	absurd	0.07647175
-4.824743	absurdly	-0.0001497745
-5.125773	abundant	-8.681731e-05
-5.125773	abuse	0.002075154
-5.301864	abusive	-5.424556e-05
-5.125773	abutted	0.001155768
-4.824743	abyss	0.04608619
-5.301864	academic	-5.424556e-05
-5.301864	acceding	0.008072907
-4.824743	accent	0.01887348
-5.301864	accentuated	0.000585584
-4.648652	accept	0.03926771
-5.301864	acceptable	-3.148813e-05
-5.125773	acceptance	0.00828326
-4.824743	accepted	0.02915907
-5.301864	accepting	0.02355384
-5.125773	access	0.008044704
-5.301864	accessories	0.02355384
-5.125773	accessory	0.03208544
-4.301864	accident	0.06589179
-5.000834	accidental	0.01890959
-5.125773	accidentally	0.0001104641
-5.125773	accidents	0.02384654
-5.125773	accommodate	0.003987508
-5.301864	accommodating	-4.449253e-05
-4.824743	accompanied	0.004632358
-5.301864	accompaniments	0.005279631
-4.824743	accompany	0.00598161
-5.000834	accompanying	0.001995869
-5.301864	accompli	0.002266638
-4.699804	accomplice	0.0340243
-5.125773	accomplish	0.02170246
-5.000834	accomplished	0.001607246
-5.301864	accomplishment	0.01898628
-5.125773	accomplishments	0.02595063
-5.301864	accord	0.02355384
-5.301864	accordance	0.002496577
-4.757796	according	0.007931907
-5.125773	accordingly	0.01903065
-3.648652	account	0.07385055
-5.125773	accountant	0.02352946
-5.125773	accounted	0.002075047
-4.602894	accounts	0.03581094
-5.000834	accumulated	0.04172373
-5.301864	accumulating	0.02355384
-5.301864	accumulation	0.008311464
-5.000834	accuracy	0.01015177
-5.000834	accurate	0.02577917
-5.125773	accurately	0.0172247
-5.000834	accursed	0.0001516413
-5.301864	accusation	0.002266638
-5.000834	accuse	0.006050831
-4.699804	accused	0.04003322
-5.301864	accuser	0.01898628
-4.398774	accustomed	0.06038215
-5.301864	acetones	0.02355384
-5.301864	achieved	0.0002644668
-5.301864	achievements	0.0009981769
-5.125773	acid	0.02485886
-5.301864	acid-faced	-3.907408e-05
-5.301864	acid-stained	0.02355384
-4.648652	acknowledge	0.02672434
-5.301864	acknowledged	0.005598991
-5.125773	acknowledges	0.007551906
-4.260471	acquaintance	0.07123014
-5.301864	acquaintances	4.546246e-05
-5.000834	acquainted	0.002440172
-5.301864	acquiesce	0.005279631
-5.301864	acquiesced	0.01898628
-5.125773	acquiescence	0.04362906
-5.301864	acquire	0.001074224
-5.000834	acquired	0.006044964
-5.301864	acquirement	0.008311464
-5.125773	acquiring	0.00934901
-5.125773	acquitted	0.02584363
-5.000834	acres	0.02764842
-5.301864	acrobat	0.0005248139
-3.516534	across	0.1152454
-4.241166	act	0.07330662
-4.222683	acted	0.03550883
-4.561502	acting	0.03374376
-3.979645	action	0.1131926
-5.125773	actionable	0.0250414
-4.602894	actions	0.06559665
-4.398774	active	0.03245711
-5.125773	activity	0.02784648
-5.125773	actor	0.03310547
-5.000834	actors	0.008021418
-5.301864	actress	0.0001722981
-5.125773	acts	0.01048682
-4.757796	actual	-8.808135e-05
-4.372445	actually	0.00770024
-5.301864	acumen	0.009037881
-4.903924	acute	0.01424325
-5.301864	acutely	-4.665989e-05
-5.301864	adapt	0.0001788035
-5.301864	adaptable	-4.774356e-05
-4.903924	adapted	0.01016464
-4.398774	add	0.06092094
-4.456766	added	0.0723059
-5.301864	adder	0.0009416939
-5.301864	addicted	0.008072907
-5.000834	adding	0.01500382
-4.699804	addition	0.0518578
-5.301864	additional	-3.040443e-05
-3.99011	address	0.1090047
-4.456766	addressed	0.06368726
-5.301864	addresses	0.01898628
-4.903924	addressing	0.02277517
-5.301864	adds	0.005598991
-5.125773	adequate	0.01903971
-5.301864	adhere	0.008072907
-5.301864	adhesive	0.02355384
-5.301864	adjective	0.00224485
-5.301864	adjectives	0.001119858
-5.301864	adjoining	1.186263e-05
-5.000834	adjusted	0.02478867
-5.301864	administered	-2.715325e-05
-5.000834	administration	0.03175836
-4.398774	admirable	0.02892285
-4.699804	admirably	0.01899068
-4.523713	admiration	0.05136501
-5.000834	admire	0.02095471
-5.301864	admired	0.002596873
-5.125773	admirer	0.02767662
-5.125773	admirers	0.003014996
-5.000834	admiring	0.01830766
-4.260471	admit	0.05397843
-5.125773	admits	0.004012667
-5.301864	admittance	0.01898628
-4.699804	admitted	0.01774746
-5.301864	admitting	0.007682221
-5.301864	ado	0.008072907
-5.301864	adopt	0.001074224
-5.125773	adopted	0.00876795
-5.301864	adorn	0.01722811
-5.125773	adorned	0.02019527
-5.301864	adrift	0.02355384
-4.488951	advance	0.07704087
-4.426803	advanced	0.07080452
-5.301864	advances	0.008072907
-5.125773	advancing	0.001280818
-4.324141	advantage	0.07260104
-4.757796	advantages	0.04993389
-5.301864	advent	0.004972566
-4.222683	adventure	0.07664442
-4.488951	adventures	0.0642573
-5.301864	adventuress	0.02355384
-5.301864	adventurous	0.0001170062
-5.125773	advertise	0.02135734
-5.000834	advertised	0.02574811
-4.08438	advertisement	0.07686932
-4.903924	advertisements	0.0305337
-5.125773	advertising	0.002547001
-3.940136	advice	0.09496263
-4.488951	advise	0.02591616
-4.903924	advised	0.04022095
-5.125773	adviser	0.032653
-5.301864	advises	0.01898628
-5.301864	advocate	0.0003089318
-5.301864	affably	0.01898628
-3.817564	affair	0.08957057
-5.301864	affaire	-4.665989e-05
-4.260471	affairs	0.07731435
-5.000834	affect	0.01980288
-5.301864	affectation	0.02355384
-4.757796	affected	0.03122238
-5.301864	affecting	0.008072907
-4.824743	affection	0.03590235
-4.824743	affectionate	0.05323477
-5.301864	affectionately	0.008609845
-5.301864	affections	0.001405726
-5.125773	affliction	0.008415266
-5.301864	affluent	-1.956713e-05
-4.523713	afford	0.04662114
-5.000834	afforded	0.01067921
-5.125773	afoot	0.02135734
-3.912698	afraid	0.09045902
-5.301864	afresh	0.01898628
-5.301864	aft	0.0001701297
-3.152645	after	0.1334239
-5.301864	after-hold	0.01898628
-5.301864	after-taste	0.008311464
-4.071415	afternoon	0.1052284
-3.854706	afterwards	0.1347424
-3.226317	again	0.1892225
-3.396068	against	0.07784668
-4.046592	age	0.06996688
-4.903924	aged	-9.017374e-05
-5.301864	agencies	0.01898628
-4.824743	agency	0.03486955
-4.372445	agent	0.08164711
-4.426803	agents	0.07983208
-5.301864	aggregate	0.008072907
-5.125773	aggressive	-7.923123e-05
-5.301864	aggressively	1.403029e-05
-5.301864	agile	0.02355384
-4.561502	agitated	0.04557033
-4.372445	agitation	0.0563186
-3.710799	ago	0.1339926
-5.301864	agonies	0.009037881
-4.602894	agony	0.07220479
-4.523713	agree	0.003483318
-5.301864	agreeable	0.01898628
-4.523713	agreed	0.05488848
-5.000834	agreement	0.00365967
-5.301864	agrees	0.002496577
-5.125773	agricultural	0.023502
-5.301864	ah	0.02355384
-4.824743	ahead	0.03344326
-4.222683	aid	0.06054846
-4.824743	aided	0.02913936
-5.301864	ails	0.003813162
-5.125773	aim	-2.504102e-05
-5.000834	aimed	0.002108925
-5.125773	aimless	-0.0001052401
-5.301864	aims	8.611183e-06
-3.776819	air	0.09031077
-4.903924	air-gun	0.02941615
-5.125773	air-guns	0.02135734
-5.301864	airs	0.01898628
-5.301864	airy	0.0002883255
-5.301864	aisle	0.0002362721
-5.000834	ajar	0.01905001
-5.125773	akimbo	0.02352563
-4.903924	akin	0.007988302
-4.058826	alarm	0.07228278
-4.903924	alarmed	0.04759618
-5.125773	alas	0.02455136
-4.324141	alert	0.03502169
-5.301864	alertness	0.008311464
-5.301864	alias	0.01898628
-5.301864	alight	0.003824094
-4.757796	alighted	0.04729751
-5.301864	alighting	0.0009981769
-5.000834	alike	0.04614259
-4.187921	alive	0.06312006
-2.607698	all	0.2282422
-5.301864	all-comprehensive	-4.882724e-05
-5.000834	all-important	0.02914667
-5.000834	all-night	-7.925498e-05
-5.301864	alleging	0.005598991
-5.125773	alley	0.02350543
-5.301864	alleys	0.005279631
-5.301864	alliance	0.00224485
-5.301864	allied	0.01898628
-5.301864	allotment	0.002132656
-4.280675	allow	0.0667716
-4.757796	allowance	0.04943808
-4.260471	allowed	0.07073115
-5.125773	allowing	0.01870575
-5.125773	allows	0.007911614
-4.903924	allude	0.007988302
-4.757796	alluded	0.05361004
-4.602894	allusion	0.007847329
-5.000834	allusions	0.008016502
-5.125773	ally	0.02352563
-3.940136	almost	0.01918762
-3.824743	alone	0.08700512
-3.751636	along	0.109869
-4.561502	aloud	0.03298261
-5.125773	alphabet	0.02455136
-3.49909	already	0.08790105
-3.441526	also	0.1896559
-4.757796	altar	0.0462717
-5.301864	alter	0.01722811
-5.301864	alteration	0.005279631
-5.125773	alterations	0.02913353
-5.125773	altercation	0.01911559
-5.000834	altered	0.02245697
-5.125773	alternate	3.46016e-05
-5.125773	alternately	8.661216e-05
-5.301864	alternating	0.001405726
-5.301864	alternation	0.0001213426
-4.398774	alternative	0.07210728
-5.301864	alternatives	0.002266638
-4.155736	although	0.08025721
-4.561502	altogether	0.05059621
-5.301864	aluminium	-5.424556e-05
-5.301864	aluminum	-5.424556e-05
-3.456766	always	0.1579325
-2.89703	am	0.1453691
-5.301864	amalgam	0.00224485
-5.301864	amassed	-2.226861e-06
-5.301864	amassing	4.112684e-05
-4.903924	amateur	0.02473685
-5.125773	amaze	0.002610244
-4.903924	amazed	0.01530665
-4.155736	amazement	0.06318115
-4.699804	amazing	-8.04931e-05
-5.301864	ambassador	0.02355384
-4.824743	amber	0.02756612
-5.301864	ambiguous	0.02355384
-5.125773	ambition	0.032653
-5.301864	ambitions	0.001119858
-5.301864	ambitious	0.02355384
-5.301864	ambuscade	0.01898628
-5.125773	amends	0.004246847
-5.301864	amethyst	0.005279631
-5.301864	amiability	0.01898628
-4.699804	amiable	0.03031561
-4.324141	amid	0.02988644
-5.301864	amidst	0.01722811
-4.757796	amiss	0.02459668
-5.301864	ammonia	0.008609845
-5.301864	ammunition	-2.606952e-05
-5.301864	amnesty	0.005279631
-3.629766	among	0.03502309
-5.301864	amongst	0.01722811
-4.456766	amount	0.07445658
-5.000834	amounted	0.03205724
-5.301864	amounts	0.008072907
-5.125773	ample	0.00863193
-5.301864	amplifying	0.001417687
-5.125773	amply	-9.331957e-05
-5.000834	amuse	0.004484978
-4.602894	amused	0.03130234
-4.648652	amusement	0.05180038
-4.903924	amusing	0.0328254
-5.301864	amyl	0.02355384
-2.580054	an	-0.03212489
-5.301864	anaemic	-3.690667e-05
-4.561502	analysis	0.06338244
-4.903924	analytical	-0.0001346151
-5.125773	analyze	0.003758935
-5.301864	anatomy	-5.424556e-05
-5.125773	ancestor	0.04362906
-5.125773	ancestors	0.02473951
-5.301864	ancestral	0.0003132701
-5.301864	ancestry	0.008609845
-4.602894	ancient	0.008239252
-1.704279	and	0.1495171
-5.301864	angel	0.02355384
-4.301864	anger	0.06038934
-4.488951	angle	0.02560937
-5.301864	angles	0.01898628
-5.301864	angrily	0.01898628
-4.301864	angry	0.06669377
-5.301864	anguish	0.002165331
-5.301864	angular	-1.414834e-05
-4.488951	animal	0.04727193
-5.125773	animals	0.02353633
-5.125773	animated	0.01896723
-5.301864	animosity	0.002266638
-5.125773	aniseed	0.001915081
-4.903924	ankle	0.003969863
-5.301864	ankle-deep	0.002496577
-5.000834	ankles	0.01111163
-5.301864	annals	0.02355384
-5.000834	announce	0.005638452
-4.561502	announced	0.04302758
-4.903924	announcement	0.03628048
-4.602894	annoyance	0.04748831
-4.903924	annoyed	0.02986805
-5.301864	annoying	0.02355384
-5.301864	annoys	0.003813162
-5.301864	annual	-2.715325e-05
-5.301864	anoints	0.002496577
-5.301864	anomaly	0.00224485
-3.565468	another	0.08308439
-3.757796	answer	0.1222994
-5.301864	answerable	0.008072907
-3.531012	answered	0.1043477
-4.699804	answering	0.05186502
-4.602894	answers	0.04880099
-5.000834	antagonist	0.004511265
-5.301864	ante-room	0.008311464
-5.125773	antecedents	0.04362906
-5.301864	anteroom	0.02355384
-5.000834	anticipate	0.007321262
-5.000834	anticipated	0.04812913
-5.125773	antics	0.00828326
-5.301864	antidote	0.008072907
-5.301864	antiquity	0.008072907
-5.301864	anxieties	0.01898628
-4.426803	anxiety	0.0333636
-4.111532	anxious	0.04102926
-5.125773	anxiously	0.007409648
-2.96142	any	0.04831174
-5.125773	anybody	0.001386283
-4.602894	anyhow	0.04450748
-3.817564	anyone	0.09096851
-3.456766	anything	0.1087953
-4.699804	anywhere	0.04966002
-4.757796	apart	0.04510541
-4.602894	apartment	0.04622787
-5.125773	ape	0.02396336
-4.903924	aperture	0.04385616
-4.824743	apiece	0.02004028
-4.903924	apologies	0.04593359
-5.301864	apologise	0.008072907
-4.903924	apologize	0.02572166
-5.301864	apologized	0.008072907
-5.301864	apologizing	0.008072907
-4.523713	apology	0.06860805
-5.301864	apoplexy	0.01898628
-5.301864	appalled	0.002165331
-5.301864	apparelled	0.02355384
-5.000834	apparent	0.005288595
-4.398774	apparently	0.05190907
-5.125773	apparition	0.02125146
-4.456766	appeal	0.04632764
-4.903924	appealed	0.007988302
-5.301864	appealing	0.008072907
-5.000834	appeals	0.008475486
-3.969426	appear	0.07005463
-3.912698	appearance	0.0838088
-5.125773	appearances	0.02403897
-3.745562	appeared	0.09880538
-5.301864	appearing	0.008072907
-4.000834	appears	0.06402466
-4.903924	appetite	0.02181502
-5.125773	applause	0.04362906
-5.000834	apple	0.05283675
-5.125773	applicant	0.007266335
-5.000834	application	0.03310404
-4.757796	applied	0.05125817
-4.602894	apply	0.07446621
-5.125773	applying	0.002798936
-5.000834	appointed	0.000491208
-4.241166	appointment	0.09174038
-5.301864	appreciable	-5.31619e-05
-4.757796	appreciate	0.02285856
-4.903924	appreciated	0.02558358
-5.301864	apprehended	0.01898628
-5.301864	apprehension	0.02355384
-5.301864	apprenticed	0.008072907
-4.561502	approach	0.05863176
-4.125773	approached	0.08879255
-4.648652	approaching	0.03317674
-5.125773	appropriate	0.005591984
-5.301864	approve	0.01898628
-5.000834	approvingly	0.01957246
-5.301864	apron	0.01898628
-5.301864	apt	0.008072907
-5.301864	aptitudes	0.01898628
-4.824743	aquiline	0.02391928
-5.301864	arable	-4.124147e-05
-5.125773	arbitrary	0.00978892
-5.301864	arc-and-compass	-5.424556e-05
-5.301864	archaeologist	0.02355384
-5.125773	arched	0.0003642435
-5.301864	architects	0.02355384
-5.301864	architectural	-5.31619e-05
-5.125773	architecture	0.008375483
-5.301864	archways	0.008609845
-5.000834	ardent	0.03167672
-5.301864	arduous	8.990489e-05
-2.630229	are	0.1952964
-5.125773	area	0.00828046
-4.903924	argue	0.002902932
-5.125773	argued	0.005570787
-5.301864	argues	0.01722811
-5.125773	arguing	0.03700547
-4.561502	argument	0.0636801
-5.125773	arguments	0.04362906
-5.000834	aright	0.03307727
-5.000834	arise	0.02042946
-5.301864	aristocrat	0.005598991
-4.699804	aristocratic	-0.0002290595
-3.969426	arm	0.09397492
-4.426803	arm-chair	0.06425126
-4.398774	armchair	0.05832111
-5.301864	armchairs	0.01898628
-4.699804	armed	0.0578868
-5.301864	armor	0.002165331
-5.301864	armory	0.008311464
-4.111532	arms	0.09563725
-4.824743	army	0.04352334
-5.125773	arose	0.04362906
-4.426803	around	0.05829841
-4.903924	arouse	0.0198734
-4.372445	aroused	0.05271509
-4.648652	arrange	0.02632787
-4.426803	arranged	0.06146495
-5.125773	arrangement	0.01338245
-4.903924	arrangements	0.04719554
-5.301864	arranges	0.005598991
-5.301864	arranging	0.003605473
-5.125773	array	0.00828326
-5.301864	arrears	0.008311464
-4.140496	arrest	0.1095653
-4.155736	arrested	0.09804004
-4.903924	arresting	0.02065968
-4.456766	arrival	0.06728042
-4.561502	arrive	0.02140734
-4.071415	arrived	0.1031416
-5.301864	arrives	0.02355384
-5.301864	arriving	0.0009981769
-5.301864	arrows	0.02355384
-4.426803	art	0.0401102
-5.301864	arteries	0.00224485
-5.301864	artery	0.01898628
-4.602894	article	0.06064775
-4.488951	articles	0.06656051
-5.000834	artificial	-0.0001139687
-5.125773	artillery	0.04362906
-4.824743	artist	0.0470074
-5.125773	artistic	0.01895808
-5.301864	artists	0.02355384
-2.298619	as	0.1507355
-5.000834	ascend	0.03697727
-5.125773	ascendancy	0.0004792487
-4.488951	ascended	0.05335135
-5.301864	ascending	0.01722811
-4.824743	ascertain	0.05218923
-4.757796	ascertained	0.04946482
-5.000834	ascertaining	0.006324639
-4.903924	ascetic	0.02389478
-5.301864	ascetic-looking	0.02355384
-4.757796	ash	0.03495296
