
\data\
ngram 1=15398
ngram 2=111577

\1-grams:
-2.622581	!	-1.749823
-4.50668	&	-0.2504712
-2.536292	'	-1.605451
-1.781417	''	-2.384467
-5.585464	'16	-0.02735424
-5.585464	'45	-0.02647662
-5.585464	'55	-0.0265184
-5.585464	'60	-0.0258913
-5.585464	'77	-0.002777938
-5.585464	'82	-0.01834188
-5.108632	'83	-0.05139006
-5.28465	'84	-0.02762916
-5.108632	'85	-0.03178726
-5.108632	'87	-0.05502346
-5.28465	'89	-0.02758495
-5.585464	'90	-0.002777938
-4.886841	'95	-0.06042357
-5.585464	'97	-0.02147498
-4.585854	'A	-0.2166447
-5.585464	'About	-0.009368807
-5.585464	'Absolute	-0.01834188
-5.585464	'Absolutely	-0.007537337
-5.585464	'After	-0.02730353
-4.439738	'Ah	-0.2552474
-5.585464	'Alas	-0.002777938
-5.108632	'All	-0.071255
-5.585464	'Almost	-0.02733508
-5.585464	'American	-0.02735311
-5.585464	'Ample	-0.007537337
-4.205668	'And	-0.3537919
-5.585464	'Answer	-0.02529501
-5.28465	'Any	-0.05300788
-5.585464	'Anybody	-0.02735311
-5.28465	'Anything	-0.05297517
-5.585464	'Apoplexy	-0.007537337
-5.28465	'Are	-0.04522792
-5.585464	'Arms	-0.02721335
-5.28465	'Arthur	-0.05204312
-5.585464	'As	-0.02735198
-5.585464	'Ask	-0.02511154
-5.28465	'At	-0.05296052
-5.585464	'Ay	-0.002777938
-5.585464	'Baron	-0.02735537
-5.585464	'Be	-0.02180725
-5.585464	'Because	-0.02724266
-5.585464	'Beddoes	-0.02735311
-5.585464	'Bless	-0.0233329
-5.585464	'Breckinridge	-0.002777938
-5.585464	'British	-0.02735537
-5.28465	'Brunton	-0.02803168
-4.50668	'But	-0.1915444
-4.983729	'By	-0.0823531
-5.585464	'C.P.R	-0.007537337
-5.585464	'COME	-0.007537337
-5.108632	'Can	-0.06379459
-5.585464	'Catullus	-0.002777938
-4.983729	'Certainly	-0.0736005
-5.585464	'Co	-0.007537337
-5.585464	'Colonel	-0.0273486
-4.740737	'Come	-0.135852
-5.585464	'Company	-0.007537337
-4.807674	'Cooee	-0.1406682
-5.585464	'Crime	-0.02180725
-5.585464	'D'you	-0.02728437
-5.585464	'DEAR	-0.02735537
-5.585464	'Danger	-0.0240023
-5.28465	'Dear	-0.05100497
-5.585464	'Dearest	-0.02646307
-5.585464	'Death	-0.002777938
-5.585464	'December	-0.02735311
-5.585464	'Did	-0.02332152
-4.807674	'Do	-0.1385491
-5.585464	'Done	-0.02631963
-5.585464	'Drive	-0.02705325
-5.585464	'E.B	-0.007537337
-5.585464	'ELSIE	-0.007537337
-5.585464	'Eg	-0.007537337
-5.585464	'Elrige	-0.0258913
-5.28465	'Elsie	-0.007514611
-5.28465	'Encyclopaedia	-0.02851372
-5.585464	'Entirely	-0.007537337
-5.585464	'Fire	-0.02631963
-5.585464	'Five	-0.0272776
-4.682753	'For	-0.161524
-5.585464	'Found	-0.02504697
-4.983729	'Frisco	-0.05477482
-5.585464	'Fritz	-0.02631963
-5.108632	'From	-0.05938198
-5.585464	'G	-0.02609139
-5.585464	'Gesellschaft	-0.002777938
-5.585464	'Go	-0.02651388
-5.585464	'Gone	-0.01890069
-5.585464	'Good	-0.02631963
-5.585464	'Good-evening	-0.002777938
-5.585464	'H	-0.007537337
-5.585464	'Ha	-0.002777938
-5.585464	'Hampshire	-0.007537337
-5.585464	'Harold	-0.002777938
-4.886841	'Have	-0.1181348
-4.544466	'He	-0.2261309
-5.585464	'Head-keeper	-0.02730578
-5.585464	'Heavy	-0.02735424
-5.108632	'Here	-0.07136662
-5.585464	'His	-0.02652517
-5.585464	'Holdernesse	-0.002777938
-5.585464	'Homer	-0.002777938
-5.585464	'Hosmer	-0.02733283
-4.682753	'How	-0.1743331
-5.585464	'Hudson	-0.02307463
-5.28465	'Hullo	-0.05202959
-5.585464	'Huxtable	-0.0258913
-5.585464	'Hyams	-0.002777938
-3.510347	'I	-0.9174499
-4.631607	'If	-0.1813637
-5.585464	'Impossible	-0.02631963
-4.983729	'In	-0.07100733
-5.585464	'Inspector	-0.02732607
-4.807674	'Is	-0.122842
-3.952419	'It	-0.5649814
-5.28465	'J.H.N	-0.0332473
-5.585464	'Jack	-0.002777938
-5.585464	'Jephro	-0.002777938
-5.28465	'K	-0.0332473
-5.585464	'Keep	-0.02619423
-5.585464	'Ku	-0.02735424
-5.585464	'L'homme	-0.02735424
-5.585464	'Lately	-0.02730916
-4.886841	'Let	-0.115075
-5.585464	'Letters	-0.002777938
-4.983729	'Lone	-0.1003188
-5.28465	'Look	-0.04716174
-5.28465	'Lord	-0.05308565
-5.585464	'Lost	-0.002777938
-5.28465	'MY	-0.05308903
-5.585464	'Made	-0.02624168
-5.585464	'Mawson	-0.02679719
-5.28465	'May	-0.04360636
-5.585464	'Most	-0.0273486
-5.585464	'Mother	-0.002777938
-4.886841	'Mr	-0.1023392
-5.585464	'Mrs	-0.007537337
-4.585854	'My	-0.2168671
-5.585464	'Mysterious	-0.02735537
-5.585464	'Neither	-0.02459811
-4.886841	'Never	-0.07532293
-5.585464	'Next	-0.02730353
-4.330601	'No	-0.3098557
-5.585464	'Norbury	-0.02609139
-5.585464	'North	-0.02624846
-4.740737	'Not	-0.1568328
-5.585464	'Nothing	-0.007537337
-5.28465	'Now	-0.04718494
-5.585464	'Oct	-0.007537337
-5.108632	'Of	-0.07686104
-4.243455	'Oh	-0.3597812
-5.585464	'Omne	-0.02735537
-4.886841	'On	-0.103111
-5.108632	'One	-0.06848098
-4.886841	'Only	-0.1070241
-5.28465	'Or	-0.04461065
-5.585464	'Over	-0.009368807
-5.585464	'P	-0.002777938
-5.28465	'P.C	-0.0332473
-5.585464	'Papier	-0.007537337
-5.585464	'Perfectly	-0.007537337
-5.28465	'Perhaps	-0.04746437
-5.585464	'Photography	-0.0240023
-5.585464	'Pink	-0.02735537
-5.108632	'Pon	-0.07458072
-5.585464	'Pondicherry	-0.02735198
-5.28465	'Pooh	-0.0274188
-5.585464	'Pray	-0.002777938
-4.983729	'Precisely	-0.07852921
-5.585464	'Pretty	-0.02732945
-5.28465	'Put	-0.03507877
-4.807674	'Quite	-0.1413902
-5.585464	'Ragged	-0.02735198
-5.28465	'Really	-0.0284879
-5.585464	'Remarkable	-0.02508096
-5.585464	'Remember	-0.002777938
-5.28465	'Right	-0.0527993
-5.585464	'Rome	-0.02212672
-5.28465	'S	-0.05309241
-5.585464	'See	-0.02147498
-5.585464	'Seven	-0.01890069
-5.28465	'She	-0.05240445
-5.585464	'Show	-0.02583929
-5.585464	'Singular	-0.02735537
-5.585464	'Sir	-0.002777938
-4.983729	'So	-0.07124384
-5.585464	'Sold	-0.01890069
-4.983729	'Some	-0.09951223
-5.585464	'Sophy	-0.02631963
-5.585464	'Ss	-0.007537337
-5.585464	'Stand	-0.02624846
-5.585464	'Stolen	-0.02631963
-5.585464	'Such	-0.002777938
-5.585464	'Sumner	-0.002777938
-5.28465	'Surely	-0.04770633
-4.807674	'Tell	-0.1408766
-5.585464	'Ten	-0.01890069
-4.983729	'Thank	-0.09626076
-4.330601	'That	-0.3199622
-4.123485	'The	-0.4584904
-4.50668	'Then	-0.1883508
-4.439738	'There	-0.2507047
-5.585464	'These	-0.02629817
-5.28465	'They	-0.05167357
-4.585854	'This	-0.1834183
-5.585464	'Three	-0.02735424
-5.28465	'To	-0.05306198
-5.585464	'Tragedy	-0.02734973
-5.28465	'Trust	-0.05100497
-4.983729	'Tut	-0.07574811
-5.585464	'US	-0.002777938
-5.585464	'Under	-0.009368807
-5.585464	'Undoubtedly	-0.0261818
-5.585464	'Until	-0.0233329
-5.108632	'Varsity	-0.05163356
-4.807674	'Very	-0.1423383
-5.585464	'Wandsworth	-0.02735537
-4.544466	'We	-0.2249272
-4.154518	'Well	-0.4145958
-4.108762	'What	-0.4285018
-5.585464	'Whatever	-0.02613434
-4.983729	'When	-0.0924516
-4.544466	'Where	-0.2051162
-5.585464	'Whereas	-0.002777938
-5.108632	'Which	-0.07363003
-5.108632	'Who	-0.07564755
-5.585464	'Whose	-0.02212672
-4.330601	'Why	-0.3017054
-5.585464	'Within	-0.009368807
-5.585464	'Wonderful	-0.02631963
-4.263658	'Yes	-0.3281058
-3.753382	'You	-0.7223508
-5.108632	'Your	-0.07624116
-5.585464	'a	-0.02734635
-5.585464	'actually	-0.02723477
-4.471921	'and	-0.2252367
-5.585464	'are	-0.01890069
-4.983729	'at	-0.09898353
-5.585464	'band	-0.002777938
-5.28465	'bus	-0.04296144
-4.740737	'but	-0.128266
-5.585464	'can	-0.0233329
-4.243455	'd	-0.3643979
-5.585464	'death	-0.02583703
-5.28465	'did	-0.04789797
-5.28465	'e	-0.02696545
-5.28465	'em	-0.03085785
-5.585464	'first	-0.01890069
-5.585464	'fly-paper	-0.02609139
-5.28465	'for	-0.04900054
-5.585464	'get	-0.02705889
-5.585464	'has	-0.02633883
-5.585464	'have	-0.0233329
-5.585464	'he	-0.02212672
-5.585464	'hen-pheasant	-0.02609139
-5.585464	'here	-0.0258913
-5.585464	'his	-0.02714458
-5.108632	'idee	-0.07733572
-5.585464	'if	-0.0233329
-5.585464	'in	-0.02727873
-5.28465	'is	-0.03415807
-5.108632	'it	-0.07211815
-5.585464	'journeys	-0.02716488
-5.585464	'jumping	-0.01930726
-5.585464	'learn	-0.02609139
-5.585464	'lever	-0.002777938
-5.585464	'life	-0.02735311
-3.384498	'll	-1.039302
-4.243455	'm	-0.3749219
-5.585464	'maybe	-0.02609139
-5.585464	'my	-0.02684796
-5.585464	'neither	-0.02735424
-5.585464	'never	-0.007537337
-5.585464	'only	-0.02609817
-5.585464	'other	-0.0272776
-5.585464	'please	-0.007537337
-5.585464	'pology	-0.002777938
-5.28465	'quarter	-0.05180136
-5.28465	'r	-0.03174178
-4.284846	're	-0.3311333
-5.585464	'remember	-0.02619423
-2.472622	's	-1.682125
-5.585464	'seeing	-0.02459811
-5.585464	'sent	-0.009368807
-5.585464	'sever	-0.002777938
-5.585464	'sir	-0.02609139
-5.585464	'suicide	-0.007537337
-5.585464	'supply	-0.02732043
-5.585464	't	-0.02609139
-5.585464	'take	-0.02459811
-4.682753	'that	-0.1390191
-4.807674	'the	-0.133946
-5.108632	'there	-0.07290901
-5.585464	'this	-0.0240023
-4.886841	'to	-0.09628969
-5.28465	'tween-decks	-0.03519154
-5.108632	'twelve	-0.05144988
-5.585464	'un	-0.02609139
-3.772977	've	-0.698827
-4.886841	'we	-0.1180203
-5.585464	'were	-0.02307463
-5.585464	'what	-0.02609139
-5.28465	'when	-0.04746437
-5.28465	'which	-0.05067184
-5.585464	'wilful	-0.02730127
-5.28465	'with	-0.03389549
-5.585464	'would	-0.02557233
-5.28465	'ye	-0.05228818
-4.471921	'you	-0.2542767
-4.544466	(	-0.2068221
-4.544466	)	-0.1857879
-4.50668	*****	-0.2502399
-1.259459	,	-2.812103
-5.585464	-	-0.0201124
-2.693802	--	-1.429671
-1.350571	.	-3.015822
-5.28465	...	-0.04970413
-5.585464	..E	-0.02735537
-5.585464	.ERE	-0.02735537
-5.585464	.M	-0.02735537
-5.585464	.RE.ARE	-0.02735198
-5.28465	1	-0.02383538
-5.585464	1/2	-0.02735311
-5.585464	10	-0.002777938
-5.108632	100	-0.07725796
-4.631607	1000	-0.1998959
-5.585464	10s	-0.007537337
-5.585464	10s.	-0.002777938
-5.585464	10th	-0.007537337
-5.585464	11.10	-0.02583703
-5.585464	1100	-0.02727535
-5.28465	117	-0.0284879
-5.28465	117th	-0.05303831
-5.108632	11:15	-0.05751995
-5.585464	11:30	-0.007537337
-5.585464	12.22	-0.01890069
-5.28465	120	-0.05298531
-5.108632	126b	-0.07213412
-5.585464	12s	-0.007537337
-5.585464	12th	-0.007537337
-5.28465	131	-0.02297988
-5.585464	13th	-0.02647662
-5.585464	14	-0.02609139
-5.585464	14,000	-0.02727535
-5.585464	140	-0.02731592
-5.28465	14th	-0.04327278
-5.28465	15	-0.05305857
-5.585464	150	-0.02731705
-5.28465	16	-0.02297988
-5.585464	1607	-0.002777938
-5.585464	16A	-0.002777938
-5.28465	17	-0.05304733
-5.585464	1840	-0.007537337
-5.585464	1846	-0.007537337
-5.585464	1855	-0.002777938
-5.585464	1858	-0.007537337
-5.108632	1869	-0.05215029
-5.585464	1870	-0.02332152
-5.585464	1872	-0.02668998
-5.585464	1875	-0.007537337
-5.585464	1878	-0.002777938
-5.585464	1881	-0.02668998
-4.740737	1883	-0.1117357
-5.108632	1884	-0.03083811
-5.28465	1887	-0.02905121
-5.28465	1888	-0.0323545
-5.108632	1890	-0.05640133
-5.28465	1891	-0.0284879
-4.983729	1894	-0.05518905
-5.585464	1895	-0.0178964
-5.585464	18th	-0.007537337
-5.585464	1900	-0.007537337
-5.585464	1901	-0.02735537
-5.108632	1903	-0.07728388
-4.585854	1904	-0.2173193
-5.585464	19th	-0.007537337
-5.585464	1s.	-0.002777938
-5.28465	1st	-0.0351058
-4.886841	2	-0.09879858
-5.585464	2,000	-0.02735424
-5.585464	2.40	-0.02733395
-5.585464	20	-0.02609139
-5.585464	200	-0.02727535
-5.585464	20th	-0.007537337
-5.585464	220	-0.02727535
-5.585464	221	-0.0273486
-5.585464	221B	-0.002777938
-5.585464	226	-0.02735198
-5.108632	22nd	-0.03181295
-5.108632	23d	-0.0441594
-5.585464	23rd	-0.01865242
-5.585464	2473	-0.007537337
-5.585464	249	-0.002777938
-5.585464	24th	-0.007537337
-5.108632	25	-0.07727828
-5.585464	250	-0.02727535
-4.983729	26	-0.07582797
-5.585464	26s	-0.007537337
-4.682753	27	-0.1572782
-5.585464	270	-0.02735424
-4.983729	28	-0.1004057
-5.585464	2nd	-0.007537337
-5.28465	2s	-0.0332473
-5.28465	3	-0.03275621
-5.585464	3.30	-0.02735537
-5.585464	3.36	-0.002777938
-5.108632	30	-0.05270289
-5.28465	30,000	-0.05301126
-5.585464	30th	-0.01865242
-5.585464	31	-0.02735537
-5.585464	3d	-0.01865242
-4.983729	3rd	-0.04504696
-4.740737	4	-0.1429331
-5.585464	40	-0.02727535
-5.585464	4000	-0.02727535
-5.585464	403	-0.02734748
-5.585464	421	-0.02735311
-5.585464	426	-0.002777938
-5.108632	427	-0.05276055
-5.585464	46	-0.002777938
-5.585464	4700	-0.02727535
-5.585464	4:35	-0.0273193
-5.585464	4d	-0.007537337
-4.983729	4th	-0.04334491
-5.585464	5	-0.007537337
-5.585464	50	-0.02735424
-5.585464	50,000	-0.02727535
-5.585464	5:14	-0.02583703
-5.585464	5:15	-0.02726746
-5.585464	6	-0.007537337
-5.585464	6.30	-0.02647662
-5.585464	60	-0.02727535
-5.585464	6:30	-0.02582459
-5.585464	6d	-0.007537337
-5.28465	6d.	-0.0284879
-5.108632	6th	-0.03176539
-5.585464	7	-0.02735086
-5.585464	700	-0.02727535
-5.585464	750	-0.02727535
-5.585464	7s	-0.007537337
-5.28465	7th	-0.007514611
-5.585464	88	-0.02727535
-5.585464	8d	-0.007537337
-5.585464	8s.	-0.002777938
-5.585464	8th	-0.02735311
-5.585464	9	-0.002777938
-5.585464	9.13	-0.007537337
-5.585464	9.50	-0.002777938
-5.585464	90	-0.02212672
-5.28465	9th	-0.03327315
-3.48209	:	-0.8768536
-2.814309	;	-1.439846
-1.279708	</s>
-99	<s>	-2.979722
-2.256093	?	-2.112216
-3.06215	A	-1.290797
-4.983729	A.	-0.0724754
-5.585464	A.E	-0.02735537
-5.585464	ABANDON	-0.02735424
-5.585464	ABE	-0.02735537
-5.585464	ADLER	-0.007537337
-4.50668	ADVENTURE	-0.2409536
-5.585464	ADVENTURES	-0.02732832
-5.585464	ADVISE	-0.02735086
-5.585464	AFTER	-0.009368807
-5.585464	AGENT	-0.007537337
-5.28465	ALIBI	-0.0278
-5.108632	AM	-0.07736167
-5.585464	APPLEDORE	-0.02735537
-5.585464	APRIL	-0.002777938
-5.585464	ARAT	-0.002777938
-5.585464	ARMSTRONG	-0.007537337
-4.439738	ARTHUR	-0.2808793
-5.585464	AT	-0.02735537
-5.585464	AUGUST	-0.002777938
-5.585464	AUGUSTUS	-0.02735537
-4.544466	Abbey	-0.2080607
-5.585464	Abbots	-0.01834188
-4.740737	Abe	-0.1594457
-5.28465	Aberdeen	-0.05225769
-5.585464	Abergavenny	-0.02730127
-5.585464	Abernetty	-0.02728775
-4.381751	About	-0.2808814
-4.807674	Above	-0.1225744
-5.585464	Absolute	-0.02735537
-4.740737	Absolutely	-0.1383079
-5.585464	Accepting	-0.02307463
-5.585464	According	-0.01890069
-5.28465	Accustomed	-0.05079092
-5.28465	Across	-0.03113768
-4.409777	Acton	-0.2372964
-4.439738	Adair	-0.2196693
-5.28465	Adams	-0.007514611
-5.585464	Add	-0.01890069
-5.585464	Addleton	-0.02732043
-5.28465	Address	-0.05292332
-5.28465	Adelaide	-0.0284879
-5.28465	Adelaide-Southampton	-0.05298422
-4.409777	Adler	-0.2432867
-5.585464	Admirable	-0.02631963
-5.28465	Admiralty	-0.02610771
-3.895693	Adventure	-0.6033692
-5.585464	Affair	-0.02504697
-5.28465	Affairs	-0.007514611
-5.28465	Afghan	-0.0530879
-4.983729	Afghanistan	-0.0724484
-5.585464	Afghans	-0.007537337
-4.740737	Africa	-0.1071053
-4.886841	African	-0.1221923
-4.205668	After	-0.377736
-5.108632	Afterwards	-0.04757292
-4.18794	Again	-0.3305812
-5.28465	Agatha	-0.05212444
-5.28465	Agent	-0.0284879
-5.585464	Ages	-0.007537337
-5.585464	Agra	-0.02734748
-3.682802	Ah	-0.7664487
-5.585464	Aha	-0.02631963
-5.585464	Air	-0.01834188
-5.108632	Alas	-0.07630225
-5.108632	Albert	-0.07733914
-5.585464	Aldersgate	-0.02668998
-4.631607	Aldershot	-0.1370387
-4.307121	Alec	-0.2941429
-5.585464	Alexander	-0.02733621
-5.585464	Alexandria	-0.007537337
-5.585464	Alexandrian	-0.02734635
-5.108632	Alexis	-0.02600309
-4.50668	Alice	-0.1664144
-5.585464	Alicia	-0.02735537
-5.585464	Alighting	-0.02504697
-3.815038	All	-0.6166798
-5.585464	Allardyce	-0.0258913
-5.28465	Allegro	-0.007514611
-5.585464	Alliance	-0.002777938
-5.585464	Allow	-0.02529501
-5.585464	Almighty	-0.02735537
-5.585464	Almost	-0.02504697
-5.585464	Along	-0.02582459
-4.886841	Aloysius	-0.1221449
-4.740737	Alpha	-0.1159201
-5.585464	Alpine	-0.02734973
-4.983729	Alpine-stock	-0.09457661
-4.807674	Already	-0.07236587
-5.585464	Also	-0.002777938
-5.28465	Altogether	-0.02735663
-5.585464	Always	-0.007537337
-5.585464	Am	-0.0178964
-5.28465	Amateur	-0.0530879
-5.585464	Amazement	-0.01834188
-4.284846	America	-0.29579
-4.284846	American	-0.3002141
-5.585464	Americans	-0.02180725
-5.108632	Amid	-0.0509867
-5.108632	Among	-0.07359479
-5.585464	Amoy	-0.02735537
-5.585464	Ample	-0.007537337
-3.942435	An	-0.5857453
-5.585464	Anarchist	-0.02626089
-2.995947	And	-1.227681
-5.585464	Andaman	-0.02735537
-5.585464	Anderson	-0.0201124
-5.585464	Andover	-0.02180725
-5.585464	Anerley	-0.02735424
-4.263658	Angel	-0.3192573
-5.585464	Anglia	-0.007537337
-5.585464	Anglo-Indian	-0.002777938
-4.983729	Anna	-0.07467901
-5.585464	Anne	-0.02697318
-4.886841	Annie	-0.1099161
-5.585464	Annoyed	-0.02504697
-4.807674	Another	-0.1181472
-5.585464	Anstruther	-0.02626089
-5.585464	Answer	-0.02529501
-4.381751	Any	-0.3088204
-5.585464	Anybody	-0.02734522
-4.682753	Anyhow	-0.1526694
-5.108632	Anyone	-0.07139976
-4.631607	Anything	-0.1968132
-5.585464	Anyway	-0.002777938
-5.585464	Apache	-0.02735424
-5.585464	Apaches	-0.002777938
-5.585464	Apparently	-0.002777938
-5.108632	Appledore	-0.05278637
-5.28465	Apply	-0.04754428
-5.585464	Appreciation	-0.01865242
-4.740737	April	-0.1259826
-5.585464	Arab	-0.002777938
-5.585464	Arabian	-0.02735537
-5.108632	Arcade	-0.05276055
-5.585464	Arcadia	-0.0273486
-5.585464	Archery	-0.01834188
-5.28465	Archie	-0.02851492
-5.585464	Architecture	-0.01834188
-5.28465	Arctic	-0.05307889
-4.50668	Are	-0.2457887
-5.585464	Argentine	-0.002777938
-5.585464	Arizona	-0.002777938
-4.807674	Armitage	-0.09676878
-5.585464	Armour	-0.01834188
-5.28465	Arms	-0.02815343
-4.355423	Armstrong	-0.2521135
-5.28465	Army	-0.02851492
-5.585464	Arnsworth	-0.02735424
-5.108632	Arrest	-0.07100081
-5.585464	Arson	-0.007537337
-5.585464	Art	-0.02180725
-4.06737	Arthur	-0.4064214
-5.28465	Artillery	-0.007514611
-3.25956	As	-1.094786
-5.108632	Ask	-0.07581052
-4.740737	Assizes	-0.1158266
-5.585464	Assure	-0.02583929
-5.585464	Astonishment	-0.02504697
-3.45556	At	-0.9407237
-5.585464	Athene	-0.02606766
-4.886841	Athens	-0.076462
-5.585464	Atkinson	-0.02735424
-4.983729	Atlanta	-0.05359983
-5.108632	Atlantic	-0.04659414
-5.585464	Attica	-0.002777938
-5.585464	Auckland	-0.007537337
-5.108632	August	-0.04357751
-5.585464	Augustine	-0.007537337
-4.886841	Augustus	-0.1221077
-5.585464	Austerlitz	-0.002777938
-4.585854	Australia	-0.1491945
-4.983729	Australian	-0.09881945
-5.585464	Australians	-0.007537337
-5.585464	Author	-0.01865242
-5.585464	Aveling	-0.002777938
-4.807674	Avenue	-0.09741634
-5.585464	Awake	-0.002777938
-5.28465	Away	-0.05099468
-5.585464	Ay	-0.002777938
-5.585464	Aye	-0.002777938
-5.585464	Ayrshires	-0.0249416
-5.585464	Azure	-0.002777938
-4.740737	B	-0.1156444
-5.585464	BACHELOR	-0.02601679
-5.585464	BALLARAT	-0.007537337
-5.585464	BAND	-0.0271987
-5.585464	BASS	-0.02735311
-5.585464	BEECHES	-0.01891103
-5.585464	BERYL	-0.02735537
-5.585464	BLUE	-0.02735537
-5.585464	BOHEMIA	-0.0178964
-5.585464	BOSCOMBE	-0.02735537
-5.585464	BOTH	-0.01890069
-5.585464	Bachelor	-0.02735311
-5.28465	Back	-0.04312751
-4.886841	Backwater	-0.09607721
-5.108632	Bad	-0.05169144
-5.28465	Bagatelle	-0.05306536
-3.688265	Baker	-0.7302327
-5.28465	Bakers	-0.02264156
-5.585464	Baldwin	-0.002777938
-4.886841	Ballarat	-0.08513449
-4.740737	Balmoral	-0.1146615
-5.585464	Balzac	-0.02706453
-5.28465	Band	-0.03327197
-5.585464	Bangor	-0.002777938
-4.807674	Bank	-0.08776894
-5.585464	Bankers	-0.02609139
-4.224151	Bannister	-0.3316834
-5.28465	Bar	-0.04438944
-4.054406	Barclay	-0.4259432
-5.28465	Barclays	-0.04906424
-4.631607	Barnicot	-0.1601004
-5.585464	Baron	-0.02735537
-5.585464	Barons	-0.01865242
-5.585464	Barque	-0.02735198
-5.585464	Barrett	-0.002777938
-5.585464	Barton	-0.002777938
-4.983729	Basil	-0.0793
-5.585464	Basle	-0.007537337
-5.585464	Bathsheba	-0.0249416
-5.108632	Baxter	-0.04571014
-5.585464	Bay	-0.02626089
-5.28465	Bayard	-0.03223156
-5.585464	Bayswater	-0.02735424
-4.740737	Be	-0.1267231
-5.585464	Beacons	-0.01865242
-4.06737	Because	-0.4125855
-5.108632	Becher	-0.06442464
-4.886841	Beckenham	-0.07412481
-5.28465	Beddington	-0.02518819
-4.544466	Beddoes	-0.183493
-4.983729	Beecher	-0.07150748
-4.682753	Beeches	-0.1319656
-4.544466	Before	-0.2039628
-5.585464	Beg	-0.02735086
-5.28465	Behind	-0.05073756
-5.585464	Being	-0.02616824
-5.585464	Belgrade	-0.002777938
-5.108632	Bellinger	-0.05169144
-5.585464	Belminster	-0.002777938
-5.585464	Bengal	-0.02735424
-5.585464	Bengalore	-0.02735537
-5.585464	Bentinck	-0.02717051
-5.585464	Bentley	-0.0258913
-4.50668	Beppo	-0.1886433
-4.983729	Berkshire	-0.07475456
-5.585464	Bermondsey	-0.002777938
-5.585464	Bermuda	-0.02735537
-5.585464	Bert	-0.02735537
-5.585464	Bertillon	-0.0273441
-5.28465	Beryl	-0.0530642
-4.740737	Beside	-0.1416665
-4.205668	Besides	-0.3627806
-5.108632	Better	-0.07702348
-4.631607	Between	-0.1717375
-5.585464	Beverley	-0.002777938
-4.807674	Beyond	-0.1184487
-5.108632	Bhurtee	-0.02600309
-5.585464	Bible	-0.007537337
-5.585464	Biddle	-0.002777938
-5.585464	Bill	-0.002777938
-5.585464	Binomial	-0.02735537
-5.585464	Birchmoor	-0.002777938
-5.585464	Birds	-0.002777938
-4.585854	Birmingham	-0.1451803
-5.585464	Bite	-0.02606766
-4.381751	Black	-0.3095334
-4.740737	Blackheath	-0.1142168
-5.585464	Blackwater	-0.002777938
-5.585464	Blandford	-0.02717051
-4.471921	Blaze	-0.1923745
-5.28465	Bless	-0.03091241
-4.154518	Blessington	-0.3634167
-5.585464	Block	-0.009368807
-5.585464	Blood	-0.007537337
-5.585464	Bloomsbury	-0.02504697
-5.108632	Blue	-0.06608758
-5.585464	Blues	-0.02682427
-5.108632	Bob	-0.05275179
-4.544466	Bohemia	-0.172262
-4.983729	Bohemian	-0.1001498
-5.585464	Bohemianism	-0.01865242
-5.585464	Bond	-0.02717051
-4.682753	Boone	-0.1317633
-4.983729	Boots	-0.09480107
-5.585464	Bordeaux	-0.002777938
-5.585464	Borgia	-0.02733959
-5.585464	Borgias	-0.007537337
-5.108632	Born	-0.07161599
-4.409777	Boscombe	-0.2954319
-5.585464	Boswell	-0.007537337
-5.585464	Botany	-0.02735424
-4.409777	Both	-0.2528458
-5.585464	Bought	-0.007537337
-5.585464	Boulevard	-0.02735198
-5.28465	Bow	-0.05288048
-5.585464	Boxer	-0.02735424
-4.409777	Brackenstall	-0.2152348
-5.585464	Brackwell	-0.002777938
-5.28465	Bradshaw	-0.007514611
-4.50668	Bradstreet	-0.1975698
-5.28465	Brambletye	-0.05305519
-4.807674	Breckinridge	-0.1127578
-4.740737	Briarbrae	-0.110391
-4.631607	Bridge	-0.1543805
-5.28465	Briefly	-0.02798034
-5.108632	Bring	-0.07378139
-4.544466	Briony	-0.234132
-4.807674	Bristol	-0.08213951
-4.807674	Britain	-0.1183397
-5.28465	Britannica	-0.0332473
-4.330601	British	-0.3365527
-4.544466	Brixton	-0.1885917
-5.108632	Broads	-0.02564777
-5.585464	Broken	-0.02735537
-5.585464	Brooding	-0.02677124
-4.682753	Brook	-0.1815663
-5.28465	Brotherhood	-0.03306314
-4.886841	Brothers	-0.09666134
-4.631607	Brown	-0.134954
-5.585464	Bruce	-0.02735537
-4.224151	Brunton	-0.2954528
-5.28465	Brussels	-0.03807432
-5.585464	Buda-Pesth	-0.007537337
-5.108632	Builder	-0.05751995
-5.585464	Buildings	-0.002777938
-5.585464	Bull	-0.002777938
-5.585464	Bunsen	-0.02735537
-5.585464	Bureau	-0.002777938
-5.28465	Burglary	-0.05202959
-4.740737	Burnwell	-0.1016593
-5.585464	Busybody	-0.02561306
-2.862441	But	-1.360177
-3.672078	By	-0.7544436
-5.585464	By-the-way	-0.002777938
-5.108632	C	-0.04592465
-5.28465	C.	-0.04936214
-5.585464	C.A.M.	-0.002777938
-5.585464	C.B.	-0.002777938
-5.585464	C.P.R.	-0.002777938
-5.28465	CA	-0.0530642
-5.108632	CAN	-0.07413443
-5.585464	CARBUNCLE	-0.0178964
-5.28465	CASE	-0.03324602
-5.585464	CHARLES	-0.02735537
-5.585464	COLONEL	-0.007537337
-4.439738	CONAN	-0.2808793
-5.585464	COPPER	-0.02735537
-5.585464	CORONET	-0.01891103
-5.28465	COULD	-0.04924619
-5.585464	COUPLE	-0.02421235
-4.807674	Cabinet	-0.1108123
-5.585464	Cabul	-0.007537337
-4.983729	Cairns	-0.05471358
-5.585464	Cal.	-0.002777938
-5.585464	Calcutta	-0.002777938
-5.28465	Calhoun	-0.02596019
-5.108632	California	-0.05000425
-5.585464	Californian	-0.02735424
-5.585464	Cam	-0.02682201
-5.28465	Camberwell	-0.03327433
-4.50668	Cambridge	-0.1915757
-5.585464	Cambridgeshire	-0.02735198
-5.585464	Camden	-0.02733959
-5.28465	Campaign	-0.0284879
-5.585464	Campden	-0.02733959
-4.263658	Can	-0.3540918
-5.585464	Canadian	-0.02735424
-5.585464	Canal	-0.007537337
-5.585464	Cannon	-0.02717051
-5.108632	Canterbury	-0.03107513
-5.585464	Cape	-0.02734748
-4.682753	Capital	-0.1717072
-5.585464	Capsules	-0.02470243
-4.355423	Captain	-0.3032961
-5.585464	Capture	-0.01865242
-5.585464	Carbuncle	-0.02735311
-5.585464	Card	-0.0273486
-5.585464	Cardinal	-0.02735537
-5.28465	Carefully	-0.04906652
-4.205668	Carey	-0.3465378
-5.585464	Carlo	-0.002777938
-5.585464	Carlsbad	-0.007537337
-5.28465	Carlton	-0.02849822
-5.585464	Carolinas	-0.002777938
-5.585464	Carried	-0.02710512
-4.094522	Carruthers	-0.4025728
-5.585464	Carstairs	-0.002777938
-5.28465	Carston	-0.0518273
-5.28465	Cartwright	-0.0278
-5.28465	Case	-0.04348482
-5.585464	Cassel-Felstein	-0.002777938
-5.28465	Castle	-0.02832526
-5.585464	Cathcart	-0.02732269
-5.28465	Catherine	-0.05306308
-5.28465	Catholic	-0.05308565
-5.585464	Cattle	-0.02606766
-5.585464	Caunter	-0.002777938
-5.585464	Cavalier	-0.01834188
-4.983729	Cavendish	-0.07575486
-5.108632	Cedars	-0.0466897
-5.585464	Celtic	-0.02713331
-5.28465	Central	-0.05306195
-4.054406	Certainly	-0.4238862
-5.585464	Chair	-0.02504697
-5.585464	Chamber	-0.002777938
-5.585464	Chance	-0.02646194
-5.585464	Chancelleries	-0.01865242
-5.585464	Chapel	-0.02511154
-5.585464	Charasiab	-0.0273441
-4.585854	Charing	-0.217361
-4.263658	Charles	-0.3344277
-4.439738	Charlington	-0.2557864
-5.585464	Charming	-0.02735537
-5.585464	Charybdis	-0.02496426
-4.807674	Chatham	-0.11117
-5.585464	Check	-0.02732156
-4.886841	Chesterfield	-0.07515718
-5.585464	Chesterton	-0.002777938
-5.108632	Chicago	-0.03178291
-5.585464	Chief	-0.02734522
-5.585464	Children	-0.002777938
-5.28465	Chiltern	-0.05305406
-4.807674	China	-0.08470695
-5.28465	Chinese	-0.05309241
-5.108632	Chislehurst	-0.07728618
-4.983729	Chiswick	-0.05103739
-5.585464	Christ	-0.0258913
-4.585854	Christmas	-0.1709337
-5.108632	Chronicle	-0.04046249
-5.28465	Chubb	-0.05159442
-4.740737	Church	-0.1288658
-5.585464	Cinnamon	-0.0273441
-5.28465	Circumstantial	-0.05298757
-5.28465	Circus	-0.0332473
-4.170907	City	-0.3382025
-5.108632	Civil	-0.07733347
-4.154518	Clair	-0.3664137
-5.108632	Clapham	-0.07733572
-5.585464	Clara	-0.02725957
-5.585464	Clark	-0.02735424
-4.740737	Clay	-0.1156551
-5.28465	Clearly	-0.02816417
-5.585464	Clerk	-0.02735198
-5.28465	Close	-0.04948942
-5.585464	Clotilde	-0.02735537
-4.740737	Club	-0.1076891
-5.585464	Clubs	-0.02721335
-5.585464	Clue	-0.01890069
-4.740737	Co.	-0.1381445
-5.585464	Coarse	-0.02731254
-5.585464	Cobb	-0.002777938
-5.108632	Coburg	-0.07733689
-4.807674	Cock	-0.08803891
-5.585464	Cocksure	-0.002777938
-5.585464	Coldstream	-0.02735424
-5.585464	Collar	-0.01834188
-4.886841	College	-0.06698363
-3.499534	Colonel	-0.8702419
-5.585464	Colonial	-0.02734072
-5.585464	Colonies	-0.007537337
-5.585464	Colonna	-0.0258913
-5.585464	Colony	-0.01865242
-3.772977	Come	-0.6531677
-5.585464	Coming	-0.02606766
-5.585464	Common	-0.002777938
-5.585464	Commons	-0.002777938
-4.682753	Company	-0.1262049
-5.28465	Conan	-0.0530642
-5.585464	Concealment	-0.02708934
-5.585464	Conduit	-0.02717051
-5.585464	Confess	-0.002777938
-5.585464	Conk-Singleton	-0.02735198
-5.585464	Conquest	-0.02180725
-5.108632	Consider	-0.05858019
-5.585464	Considering	-0.02704084
-5.28465	Constable	-0.05309128
-5.585464	Constabulary	-0.002777938
-5.585464	Contents	-0.02721335
-4.983729	Continent	-0.07775734
-5.28465	Continental	-0.05307889
-5.585464	Contralto	-0.02647662
-5.28465	Convinced	-0.04718494
-5.585464	Cooee	-0.02631963
-5.585464	Cook	-0.002777938
-4.682753	Copper	-0.1817433
-5.585464	Coptic	-0.02735537
-4.631607	Coram	-0.146951
-4.886841	Cornelius	-0.0756831
-5.28465	Cornwall	-0.009457756
-4.682753	Coroner	-0.1816091
-5.28465	Coronet	-0.0506775
-5.585464	Corporal	-0.02733734
-5.108632	Corporation	-0.07715312
-5.108632	Cosmopolitan	-0.03181421
-5.585464	Costa	-0.02735537
-4.355423	Could	-0.3018101
-5.108632	Count	-0.07733238
-4.585854	Countess	-0.1650411
-5.28465	Counties	-0.0530597
-5.28465	County	-0.04436238
-4.631607	Court	-0.1541596
-5.108632	Covent	-0.07733572
-5.28465	Coventry	-0.007514611
-4.807674	Coxon	-0.1413835
-5.585464	Crane	-0.02735537
-5.585464	Creina	-0.002777938
-5.585464	Creole	-0.02735198
-5.585464	Crewe	-0.007537337
-5.585464	Crime	-0.0240023
-5.585464	Crimea	-0.01834188
-5.28465	Crimean	-0.0519742
-5.28465	Criminal	-0.0332473
-5.585464	Criminals	-0.02631963
-4.807674	Croker	-0.09739314
-5.585464	Crooked	-0.02735198
-5.28465	Crooksbury	-0.05305857
-5.585464	Crosby	-0.009368807
-4.50668	Cross	-0.1813279
-5.108632	Crowder	-0.05276055
-4.886841	Crown	-0.1013279
-5.585464	Crystal	-0.02735537
-4.205668	Cubitt	-0.3206702
-4.094522	Cunningham	-0.3985284
-4.807674	Cunninghams	-0.09259925
-4.886841	Cup	-0.0756574
-5.585464	Curse	-0.009368807
-5.108632	Cusack	-0.05100413
-5.585464	Cuvier	-0.02635917
-5.28465	Cyclist	-0.0332473
-4.585854	Cyril	-0.1929792
-5.108632	D	-0.05280264
-5.28465	D'you	-0.0518872
-5.585464	D.D.	-0.002777938
-5.28465	DAILY	-0.0530642
-5.585464	DE	-0.02735537
-4.983729	DEAR	-0.1003222
-5.585464	DEAREST	-0.02735537
-5.585464	DEBUTANTE	-0.01865242
-5.28465	DECEMBER	-0.0284879
-5.585464	DEFINITELY	-0.02735537
-5.585464	DETOUR	-0.02646194
-5.585464	DID	-0.0178964
-5.585464	DISSOLVED	-0.007537337
-5.585464	DO	-0.0268175
-5.585464	DOES	-0.02735198
-4.439738	DOYLE	-0.2512243
-5.585464	Dacre	-0.02734522
-5.28465	Daily	-0.05309016
-5.585464	Damp	-0.02626089
-5.28465	Dancing	-0.0530597
-5.585464	Dane	-0.002777938
-5.585464	Danger	-0.02631963
-5.585464	Dantzig	-0.002777938
-5.585464	Darjeeling	-0.007537337
-5.28465	Dark	-0.05289854
-5.585464	Darlington	-0.02735537
-4.631607	Dartmoor	-0.1724868
-5.585464	Data	-0.02631963
-5.585464	Daubensee	-0.002777938
-5.28465	Daulat	-0.0530642
-5.585464	Davenport	-0.007537337
-4.983729	David	-0.07326363
-5.585464	Davos	-0.02735537
-5.108632	Dawson	-0.06410407
-5.585464	Day	-0.0258913
-5.585464	De	-0.02735537
-4.330601	Dear	-0.3095674
-5.28465	December	-0.0522114
-5.108632	Deep	-0.07733572
-5.585464	Deeply	-0.02508096
-5.585464	Dei	-0.007537337
-5.108632	Dene	-0.0773222
-5.585464	Depend	-0.02601679
-4.886841	Derbyshire	-0.06730986
-4.886841	Desborough	-0.07387926
-5.585464	Describe	-0.02307463
-5.585464	Deserted	-0.0233329
-5.585464	Desiring	-0.01890069
-5.28465	Detective	-0.05202959
-5.108632	Devine	-0.05601443
-4.983729	Devonshire	-0.07292041
-5.28465	Devoy	-0.0284879
-3.845527	Did	-0.6189588
-5.585464	Dieppe	-0.007537337
-5.585464	Dinner	-0.02212672
-4.886841	Diogenes	-0.1221505
-5.585464	Dirty	-0.0249416
-5.28465	Disappearance	-0.04438829
-5.585464	Disease	-0.0249416
-5.585464	Disgraceful	-0.002777938
-5.585464	Disregarding	-0.02459811
-5.585464	Division	-0.002777938
-5.108632	Dixon	-0.05276055
-3.603622	Do	-0.8428121
-5.585464	Dock	-0.01834188
-5.585464	Dockyard	-0.002777938
-4.18794	Doctor	-0.3717358
-5.585464	Doctors	-0.02609139
-5.585464	Documents	-0.002777938
-4.807674	Does	-0.1294653
-5.585464	Don	-0.02735537
-5.585464	Doncaster	-0.0249416
-5.585464	Done	-0.02682088
-4.983729	Donnithorpe	-0.07209791
-5.28465	Dook	-0.0281952
-4.50668	Doran	-0.1990612
-5.585464	Dorking	-0.0249416
-5.28465	Dovercourt	-0.03212868
-5.108632	Down	-0.05660334
-5.585464	Downing	-0.02717051
-5.585464	Downs	-0.002777938
-5.28465	Doyle	-0.03321771
-4.983729	Dr	-0.08050751
-3.585893	Dr.	-0.8745492
-5.585464	Draper	-0.0258913
-5.28465	Draw	-0.0510479
-5.585464	Drink	-0.02582459
-5.585464	Drive	-0.02606766
-5.28465	Drop	-0.04287261
-5.585464	Dubugue	-0.01865242
-4.682753	Duchess	-0.1401955
-3.983827	Duke	-0.5015622
-5.585464	Dulong	-0.007537337
-4.740737	Duncan	-0.1627481
-5.585464	Dundas	-0.02735424
-4.631607	Dundee	-0.1496584
-4.886841	Dunlop	-0.07370539
-4.50668	During	-0.2208839
-5.28465	Dutch	-0.05157407
-4.740737	E	-0.1197373
-4.983729	E.	-0.0988251
-5.585464	E.C	-0.007537337
-5.585464	ELRI.ES	-0.007537337
-5.585464	ELSIE	-0.02735537
-5.585464	EMPLOYEE	-0.002777938
-5.585464	ENGINEER	-0.02735424
-5.585464	ESTABLISHED	-0.007537337
-5.585464	EVIDENCE	-0.02735198
-4.682753	Each	-0.1716851
-4.682753	Earl	-0.147981
-5.28465	Early	-0.0386409
-5.585464	Easier	-0.009368807
-4.807674	East	-0.1230039
-5.585464	East-End	-0.01865242
-5.585464	East-end	-0.002777938
-4.983729	Eastern	-0.1003899
-5.585464	Eat	-0.01930726
-5.585464	Echo	-0.002777938
-5.28465	Edgeware	-0.05303828
-4.983729	Edith	-0.07576995
-4.682753	Eduardo	-0.1817297
-5.585464	Educated	-0.02735311
-5.108632	Edward	-0.07165676
-4.886841	Effie	-0.09353788
-5.585464	Eglonitz	-0.02647662
-5.585464	Eglow	-0.002777938
-5.585464	Egria	-0.007537337
-5.585464	Egypt	-0.002777938
-5.108632	Eh	-0.05023284
-4.983729	Eight	-0.09157038
-5.108632	Either	-0.0495149
-5.585464	Electrical	-0.02734748
-5.585464	Elementary	-0.002777938
-5.585464	Eley	-0.0258913
-5.108632	Elias	-0.06837054
-5.585464	Elise	-0.02631963
-5.585464	Elizabethan	-0.0273441
-5.108632	Elrige	-0.07587391
-4.585854	Elsie	-0.1637542
-5.585464	Embankment	-0.0240023
-5.585464	Embassies	-0.02629817
-5.108632	Embassy	-0.05173806
-5.108632	Emperor	-0.03123057
-5.585464	Empire	-0.02646194
-5.28465	Empty	-0.05304955
-5.108632	Encyclopaedia	-0.06886271
-5.108632	End	-0.03173285
-5.585464	Endell	-0.02717051
-5.585464	Engage	-0.01930726
-5.585464	Engaged	-0.007537337
-5.585464	Engineer	-0.0258913
-3.793499	England	-0.5891393
-5.585464	Englischer	-0.02735537
-4.108762	English	-0.4328665
-4.631607	Englishman	-0.1469611
-5.28465	Englishmen	-0.04911315
-5.585464	Englishwoman	-0.02180725
-5.585464	Enough	-0.01865242
-5.585464	Enter	-0.009368807
-5.28465	Entirely	-0.0332473
-5.585464	Escott	-0.02624846
-5.585464	Esq	-0.007537337
-5.585464	Esq.	-0.002777938
-5.585464	Etherege	-0.002777938
-5.108632	Eton	-0.06834005
-4.330601	Europe	-0.259894
-4.409777	European	-0.2955686
-4.585854	Eustace	-0.1923949
-5.585464	Euston	-0.007537337
-4.886841	Eva	-0.08736894
-5.108632	Evans	-0.04324345
-4.138724	Even	-0.407284
-5.28465	Evening	-0.05309016
-5.585464	Eventually	-0.002777938
-4.330601	Every	-0.3337559
-5.28465	Everybody	-0.04732279
-5.108632	Everything	-0.07160229
-5.585464	Evidence	-0.01865242
-4.740737	Evidently	-0.1165945
-5.585464	Evil	-0.02725393
-5.585464	Ex-President	-0.02735537
-4.094522	Exactly	-0.4294538
-5.585464	Examine	-0.02583929
-5.585464	Exceedingly	-0.0261818
-4.138724	Excellent	-0.4033764
-4.983729	Except	-0.09685379
-5.28465	Exchange	-0.05307438
-4.631607	Excuse	-0.197867
-5.585464	Exeter	-0.002777938
-5.585464	Exit	-0.009368807
-5.585464	Experience	-0.002777938
-5.585464	Extremely	-0.0261818
-4.631607	Eyford	-0.1493261
-5.28465	Ezekiah	-0.05297968
-5.585464	F.H.M	-0.007537337
-5.585464	FEBRUARY	-0.002777938
-5.585464	FIANCEE	-0.02647662
-5.585464	FIVE	-0.02735537
-5.585464	FRESH	-0.02735537
-5.585464	FRIESLAND	-0.002777938
-5.28465	FROM	-0.03507877
-5.585464	Faber	-0.0240023
-5.585464	Face	-0.02735311
-5.585464	Faces	-0.01890069
-5.585464	Failing	-0.02686376
-5.585464	Failure	-0.002777938
-5.28465	Fairbank	-0.02297988
-5.108632	Fall	-0.05751995
-5.28465	Falmouth	-0.0319264
-5.585464	Familiar	-0.02508096
-5.585464	Family	-0.02718742
-5.585464	Fancy	-0.02354895
-4.631607	Far	-0.1980933
-5.585464	Fareham	-0.02180725
-5.585464	Farewell	-0.002777938
-5.28465	Farintosh	-0.0284879
-4.682753	Farm	-0.1247345
-5.585464	Farm-house	-0.01890069
-4.631607	Farnham	-0.1536715
-5.585464	Farquhar	-0.002777938
-5.585464	Farrington	-0.02717051
-5.585464	Fashionable	-0.02735537
-5.585464	Fate	-0.02421235
-5.585464	Father	-0.02212672
-4.983729	February	-0.08494141
-5.585464	Feeling	-0.02720772
-5.28465	Fenchurch	-0.05288048
-4.983729	Ferguson	-0.07101095
-5.585464	Ferrers	-0.02735537
-5.28465	Ferrier	-0.02518819
-5.28465	Few	-0.044248
-5.585464	Fifty	-0.02727535
-4.807674	Fighting	-0.1429382
-5.585464	Filled	-0.02470243
-5.585464	Final	-0.02735537
-4.284846	Finally	-0.3221222
-5.585464	Financial	-0.02735424
-5.585464	Find	-0.02658952
-5.108632	Finding	-0.07045425
-5.585464	Fine	-0.02734635
-5.585464	Finns	-0.01834188
-4.886841	Fire	-0.1211215
-4.682753	First	-0.1416529
-4.740737	Fitzroy	-0.1627628
-4.544466	Five	-0.2249094
-5.585464	Flaubert	-0.02730127
-5.108632	Fleet	-0.07715312
-4.682753	Flora	-0.1754868
-5.585464	Florence	-0.02470243
-5.108632	Florida	-0.02932137
-5.585464	Flowers	-0.02647662
-5.585464	Fly	-0.02511154
-5.585464	Folk	-0.02652517
-5.585464	Follow	-0.02529501
-5.108632	Following	-0.05541033
-5.585464	Fool	-0.02147498
-5.585464	Footmarks	-0.01865242
-5.585464	Footsteps	-0.02716262
-3.528989	For	-0.8628905
-4.631607	Forbes	-0.1527163
-5.585464	Force	-0.007537337
-5.108632	Fordham	-0.05227163
-5.585464	Fordingbridge	-0.02735424
-5.28465	Fordingham	-0.04542066
-4.585854	Foreign	-0.2173892
-4.983729	Forest	-0.09974705
-5.585464	Forgery	-0.007537337
-5.585464	Forgive	-0.02582459
-5.585464	Formerly	-0.02735424
-5.585464	Forrester	-0.002777938
-5.585464	Fortescue	-0.02735537
-5.585464	Fortunately	-0.002777938
-5.585464	Fortune	-0.02646194
-5.585464	Found	-0.01930726
-4.886841	Four	-0.07586496
-4.886841	Fournaye	-0.08748589
-4.886841	Fowler	-0.08473414
-4.381751	France	-0.2368467
-5.108632	Francis	-0.07738762
-5.28465	Francisco	-0.0284879
-4.886841	Franco-Midland	-0.1221528
-5.585464	Franco-Prussian	-0.02735086
-4.307121	Frank	-0.3037874
-5.28465	Frankly	-0.0284879
-4.983729	Fraser	-0.07050858
-5.585464	Freebody	-0.002777938
-5.28465	Freemason	-0.0284879
-5.585464	Freemasonry	-0.0249416
-4.108762	French	-0.4216799
-5.585464	Frenchman	-0.02675318
-5.585464	Frequently	-0.007537337
-5.28465	Fresh	-0.05308678
-5.28465	Fresno	-0.05288048
-4.807674	Friday	-0.09630407
-5.28465	Fritz	-0.05205441
-3.793499	From	-0.6488396
-5.28465	G	-0.04356776
-5.28465	GIBRALTAR	-0.007514611
-5.585464	GLOBE	-0.02695626
-5.585464	GO	-0.007537337
-4.585854	GRAPHIC	-0.2071962
-5.585464	GUILT	-0.02735537
-5.28465	Game	-0.04210007
-5.585464	Gang	-0.007537337
-5.108632	Garden	-0.05754697
-5.585464	Gardens	-0.002777938
-5.28465	Gate	-0.02598418
-5.585464	Gazetteer	-0.007537337
-4.740737	Gelder	-0.1496755
-5.28465	Gemmi	-0.02851492
-5.108632	General	-0.07735942
-5.585464	Geneva	-0.007537337
-5.585464	Geneve	-0.02606766
-5.585464	Gentlemen	-0.002777938
-4.243455	George	-0.3487522
-5.28465	Georgia	-0.007514611
-4.154518	German	-0.3686655
-5.585464	German-speaking	-0.02724717
-5.585464	Germans	-0.007537337
-4.682753	Get	-0.175284
-5.28465	Getting	-0.04456646
-5.585464	Gigantic	-0.02734522
-4.439738	Gilchrist	-0.2265772
-5.28465	Gill	-0.0530642
-4.471921	Give	-0.255986
-5.585464	Giving	-0.02734072
-5.28465	Gladstone	-0.05304054
-5.28465	Glancing	-0.05031246
-5.585464	Globe	-0.002777938
-4.983729	Gloria	-0.100321
-5.585464	Gloves	-0.002777938
-5.28465	Go	-0.05152091
-3.793499	God	-0.646901
-3.973103	Godfrey	-0.493275
-4.585854	Godolphin	-0.2171885
-5.585464	Gold	-0.002777938
-5.28465	Golden	-0.0530642
-4.886841	Gone	-0.08157615
-4.054406	Good	-0.4793257
-5.28465	Good-afternoon	-0.0284879
-5.28465	Good-by	-0.02781076
-4.740737	Good-bye	-0.116518
-4.983729	Good-day	-0.06682305
-4.983729	Good-evening	-0.05477482
-5.108632	Good-morning	-0.05276055
-4.983729	Good-night	-0.05406271
-5.28465	Goodge	-0.05288048
-5.585464	Goodwins	-0.01834188
-4.983729	Gordon	-0.07423233
-5.108632	Gorot	-0.05184206
-5.28465	Got	-0.051444
-5.585464	Gothic	-0.02735424
-5.585464	Gottsreich	-0.02735537
-5.28465	Government	-0.0284879
-5.585464	Governor	-0.01865242
-4.06737	Grace	-0.4250858
-5.585464	Gradually	-0.002777938
-5.585464	Graham	-0.01834188
-5.585464	Grand	-0.02731141
-4.544466	Grange	-0.1615771
-4.740737	Grant	-0.1627707
-5.585464	Granting	-0.02147498
-5.585464	Grave	-0.02716262
-4.983729	Gravesend	-0.06996182
-5.585464	Gray	-0.0258913
-4.631607	Great	-0.1998994
-4.983729	Grecian	-0.100046
-5.108632	Greece	-0.04776599
-4.284846	Greek	-0.2989306
-5.585464	Greenwich	-0.007537337
-4.631607	Gregory	-0.1486195
-5.28465	Gregson	-0.0189708
-5.585464	Grenoble	-0.002777938
-5.585464	Gresham	-0.02735537
-5.585464	Grice	-0.02735537
-4.682753	Grimesby	-0.1817286
-5.585464	Grit	-0.02180725
-5.585464	Groat	-0.0258913
-5.585464	Gross	-0.02734297
-4.983729	Grosvenor	-0.1003707
-5.585464	Grove	-0.02732832
-5.28465	Guards	-0.03049712
-5.28465	Guild	-0.04118256
-5.585464	Gustave	-0.02735537
-4.807674	H	-0.08564935
-4.886841	H.	-0.1095569
-5.108632	HAD	-0.05100292
-5.585464	HAMPSTEAD	-0.007537337
-5.585464	HAND	-0.007537337
-5.28465	HAVE	-0.0487115
-5.585464	HE	-0.02700701
-5.28465	HERE	-0.05309241
-5.585464	HIM	-0.007537337
-4.263658	HOLMES	-0.3232199
-5.585464	HOPKINS	-0.007537337
-5.108632	HUNTER	-0.05739833
-4.224151	Ha	-0.3712417
-4.330601	Had	-0.2914506
-5.585464	Hafiz	-0.02508096
-5.585464	Hague	-0.02695626
-4.682753	Half	-0.1665028
-5.28465	Half-past	-0.05253198
-5.585464	Halfway	-0.02668547
-5.585464	Halifax	-0.002777938
-3.869886	Hall	-0.5479361
-5.28465	Hallamshire	-0.05226786
-4.50668	Halloa	-0.2246475
-5.585464	Ham	-0.01834188
-5.108632	Hammersmith	-0.05140749
-4.807674	Hampshire	-0.09104086
-4.807674	Hampstead	-0.09698996
-5.585464	Handsome	-0.0249416
-5.585464	Hankey	-0.0258913
-5.28465	Hanover	-0.05304617
-5.585464	Harden	-0.002777938
-4.631607	Harding	-0.1717971
-5.108632	Hardly	-0.07132699
-4.886841	Hardware	-0.1221494
-4.983729	Hardy	-0.07574811
-5.585464	Hare	-0.02729
-5.585464	Hargreave	-0.002777938
-4.50668	Harker	-0.1829405
-5.28465	Harley	-0.05288048
-4.807674	Harold	-0.137437
-5.585464	Harpooner	-0.0249416
-5.108632	Harris	-0.05025624
-4.284846	Harrison	-0.2930447
-5.108632	Harrow	-0.03178726
-4.983729	Harry	-0.1003323
-4.471921	Has	-0.224054
-4.330601	Hatherley	-0.2857207
-5.108632	Hatty	-0.07732558
-5.585464	Havana	-0.002777938
-3.766347	Have	-0.677223
-4.243455	Having	-0.3829783
-5.585464	Hay	-0.02735198
-4.381751	Hayes	-0.243463
-5.585464	Hayling	-0.002777938
-5.108632	Hayter	-0.03761159
-5.585464	Hayward	-0.002777938
-2.566365	He	-1.765475
-5.585464	Head	-0.02735198
-5.585464	Head-keeper	-0.02730578
-4.740737	Heath	-0.1150824
-4.243455	Heaven	-0.3370663
-5.108632	Heavens	-0.05169144
-5.585464	Heavy	-0.02735086
-5.585464	Hebrew	-0.02735537
-5.108632	Hebron	-0.03178726
-4.983729	Hector	-0.1002985
-5.585464	Heh	-0.0249416
-4.807674	Heidegger	-0.1167633
-5.585464	Heir	-0.01834188
-4.983729	Helen	-0.0746845
-4.983729	Help	-0.0920123
-5.108632	Hence	-0.04259212
-5.108632	Henri	-0.07733347
-4.355423	Henry	-0.2985163
-3.994822	Her	-0.5456409
-5.28465	Hercules	-0.0332473
-5.28465	Herder	-0.02757658
-3.622105	Here	-0.7444119
-5.28465	Hereford	-0.04407775
-5.28465	Herefordshire	-0.03307848
-5.585464	Herr	-0.02734973
-5.585464	Hers	-0.02421235
-5.108632	High	-0.07715312
-5.585464	Highness	-0.01890069
-5.585464	Highway	-0.007537337
-4.50668	Hilda	-0.2193831
-4.740737	Hill	-0.1226077
-5.585464	Hills	-0.0249416
-4.18794	Hilton	-0.3943547
-5.585464	Himalayas	-0.002777938
-3.284865	His	-1.139209
-5.585464	Histon	-0.002777938
-5.28465	Hitherto	-0.0397428
-5.585464	Hof	-0.002777938
-5.28465	Holborn	-0.007514611
-4.886841	Hold	-0.09883427
-4.330601	Holder	-0.2780474
-4.330601	Holdernesse	-0.2759134
-4.439738	Holdhurst	-0.2231927
-5.585464	Holiness	-0.009368807
-5.28465	Holland	-0.007514611
-5.585464	Hollows	-0.007537337
-5.585464	Holly	-0.02646194
-2.39725	Holmes	-1.787538
-5.585464	Holy	-0.02735086
-5.585464	Honoria	-0.02735537
-5.585464	Honour	-0.007537337
-4.740737	Honourable	-0.1626952
-5.585464	Hood	-0.002777938
-5.585464	Hooliganism	-0.02496426
-4.544466	Hope	-0.1894625
-3.699401	Hopkins	-0.6955022
-5.585464	Hopley	-0.02734635
-4.682753	Horace	-0.1558769
-4.471921	Horner	-0.2196501
-5.28465	Horrified	-0.0496712
-4.585854	Horsham	-0.1718428
-4.243455	Hosmer	-0.3584757
-5.585464	Hospital	-0.002777938
-4.585854	Hotel	-0.1617273
-4.409777	House	-0.2392102
-5.585464	Houses	-0.01865242
-3.517708	How	-0.8798852
-4.807674	Howells	-0.09328053
-4.017684	However	-0.4999728
-3.932675	Hudson	-0.5123284
-4.886841	Hugh	-0.1221765
-5.585464	Huguenot	-0.02735424
-4.807674	Hullo	-0.1172973
-4.330601	Hum	-0.3352627
-5.585464	Human	-0.0273024
-5.585464	Hungarian	-0.02720095
-4.170907	Hunter	-0.3649242
-5.585464	Huret	-0.002777938
-4.631607	Hurlstone	-0.1457857
-5.585464	Hurrah	-0.02631963
-4.307121	Huxtable	-0.285389
-5.585464	Hyde	-0.02734184
-1.66661	I	-2.514981
-5.28465	I.	-0.04273529
-5.585464	IDENTITY	-0.01891103
-4.983729	II	-0.08050751
-5.585464	II.	-0.02647662
-4.983729	III	-0.08050751
-5.585464	III.	-0.02647662
-5.585464	IMPORTANT	-0.02735537
-5.28465	IN	-0.05309241
-5.585464	IRENE	-0.02735537
-4.886841	IS	-0.113612
-4.983729	IT	-0.09173013
-5.108632	IV	-0.05751995
-5.585464	IV.	-0.02647662
-5.108632	IX	-0.05751995
-5.585464	IX.	-0.02647662
-5.585464	Identity	-0.02735311
-5.585464	Idiot	-0.02147498
-3.227961	If	-1.075428
-5.108632	Imagine	-0.04986922
-5.585464	Imitated	-0.007537337
-5.585464	Immediately	-0.02732156
-5.28465	Imperial	-0.05309241
-5.28465	Important	-0.03219017
-4.886841	Impossible	-0.09651072
-3.224168	In	-1.126041
-5.585464	Incidentally	-0.0178964
-5.585464	Incredible	-0.02735537
-4.170907	Indeed	-0.3802237
-4.471921	India	-0.20997
-4.307121	Indian	-0.2860672
-5.28465	Indians	-0.02739608
-5.585464	Indirectly	-0.02307463
-5.585464	Inference	-0.02647662
-4.740737	Inn	-0.1078528
-5.585464	Inner	-0.02735198
-5.28465	Inquiries	-0.0491268
-5.585464	Inquiry	-0.02212672
-5.585464	Insensibly	-0.02609817
-5.108632	Inside	-0.07185345
-3.682802	Inspector	-0.6987145
-5.108632	Instead	-0.06863503
-5.585464	Interlaken	-0.002777938
-5.585464	International	-0.002777938
-5.585464	Internationals	-0.007537337
-5.28465	Interpreter	-0.0285018
-4.983729	Into	-0.09765659
-5.585464	Ionides	-0.01865242
-4.381751	Irene	-0.2833895
-5.28465	Iris	-0.03321417
-5.585464	Irish	-0.02735424
-5.585464	Irish-setter	-0.002777938
-3.853496	Is	-0.6037633
-4.983729	Isa	-0.08052628
-5.585464	Islander	-0.02180725
-5.585464	Isle	-0.01865242
-2.520691	It	-1.854213
-4.409777	Italian	-0.258104
-5.28465	Italians	-0.04623999
-5.28465	Italy	-0.03872827
-4.682753	Its	-0.1817795
-5.28465	Ivy	-0.05307438
-4.807674	J	-0.1231563
-5.585464	J.	-0.02735424
-5.585464	J.H.N	-0.007537337
-5.108632	J.P.	-0.05215029
-5.585464	JABEZ	-0.02735537
-5.585464	JANUARY	-0.002777938
-5.585464	JEPHRO	-0.02735537
-5.585464	JULY	-0.002777938
-5.585464	JUNE	-0.002777938
-4.585854	Jabez	-0.2173565
-4.330601	Jack	-0.2742395
-5.585464	Jack-in-office	-0.02631963
-5.28465	Jackson	-0.05053016
-5.108632	Jacobs	-0.0520834
-3.822462	James	-0.61229
-5.108632	Jane	-0.05278518
-5.585464	Janet	-0.02735537
-4.807674	January	-0.0994542
-5.585464	Japan	-0.007537337
-4.886841	Japanese	-0.1222216
-4.983729	Jem	-0.07581723
-5.585464	Jeremiah	-0.02735537
-5.28465	Jeremy	-0.05306308
-5.585464	Jersey	-0.02180725
-5.585464	Jew	-0.0258913
-5.585464	Jewel	-0.02735311
-5.585464	Jezail	-0.02733395
-5.585464	Jingo	-0.02631963
-5.28465	Johann	-0.05067864
-5.28465	Johannesburg	-0.007514611
-3.878319	John	-0.6057166
-5.585464	Johnnie	-0.0178964
-5.585464	Johnson	-0.002777938
-5.28465	Joint	-0.03240533
-4.471921	Jonas	-0.2658353
-4.544466	Jones	-0.1750916
-4.205668	Joseph	-0.3287418
-5.28465	Josiah	-0.05305631
-5.28465	Journal	-0.05276887
-4.50668	Jove	-0.2246475
-5.585464	Jowaki	-0.02735424
-5.585464	Juan	-0.002777938
-5.585464	Jubilee	-0.002777938
-5.108632	Julia	-0.06815936
-5.108632	July	-0.05216774
-5.108632	Jump	-0.04599613
-5.108632	Junction	-0.03178726
-4.631607	June	-0.1637802
-5.585464	Jungle	-0.002777938
-5.585464	Juryman	-0.02721335
-4.080734	Just	-0.4515448
-5.585464	Justice	-0.01865242
-4.983729	K	-0.06865925
-4.409777	K.	-0.2685122
-5.585464	K.G.	-0.002777938
-5.585464	KILLED	-0.02731818
-5.585464	KNEW	-0.02147498
-5.108632	KNOW	-0.06712961
-4.983729	Kate	-0.07857402
-5.585464	Keep	-0.02147498
-5.585464	Kemp	-0.02647662
-5.585464	Kennedy	-0.002777938
-4.807674	Kennington	-0.1339298
-4.631607	Kensington	-0.1336423
-5.585464	Kensington.	-0.02647662
-4.740737	Kent	-0.1168137
-5.28465	Kentish	-0.05299211
-5.585464	Khalifa	-0.02504697
-5.585464	Khartoum	-0.002777938
-5.108632	Kilburn	-0.03178726
-5.585464	Kill	-0.02307463
-5.585464	Kimberley	-0.01890069
-4.544466	Kindly	-0.2330338
-3.973103	King	-0.4873483
-4.807674	Kirwan	-0.08956354
-5.28465	Klan	-0.03074753
-5.28465	Klux	-0.0530642
-5.108632	Knowing	-0.06842577
-5.585464	Known	-0.01890069
-5.28465	Kramm	-0.007514611
-5.108632	Kratides	-0.03178726
-5.585464	Ku	-0.02735424
-5.108632	L	-0.05166873
-5.585464	L.	-0.02735311
-5.585464	L10	-0.02733395
-5.585464	L200	-0.007537337
-5.585464	L300	-0.007537337
-5.585464	L500	-0.007537337
-5.585464	LATER.	-0.02647662
-5.108632	LEAGUE	-0.06778336
-5.585464	LESLIE	-0.02735537
-5.585464	LESTRADE	-0.007537337
-5.585464	LIP	-0.02735198
-5.585464	LOUD	-0.02735198
-5.28465	La	-0.05309241
-5.108632	Laburnum	-0.07737861
-4.983729	Lachine	-0.05459897
-4.041817	Lady	-0.5150545
-5.585464	Lady-day	-0.002777938
-5.585464	Lancashire	-0.01834188
-4.983729	Lancaster	-0.05480053
-4.355423	Lane	-0.2590819
-5.585464	Langham	-0.02720772
-5.585464	Langmere	-0.002777938
-5.28465	Lanner	-0.007514611
-5.108632	Large	-0.05277999
-4.50668	Lascar	-0.2169583
-4.807674	Last	-0.1425132
-5.28465	Lat	-0.0332473
-5.108632	Late	-0.0690994
-4.740737	Latimer	-0.1071527
-5.585464	Lattice-paned	-0.002777938
-5.585464	Lauder	-0.002777938
-4.886841	Leadenhall	-0.1219724
-4.471921	League	-0.1940296
-5.585464	Leaning	-0.02606766
-4.983729	Leatherhead	-0.05223719
-5.108632	Leave	-0.05908235
-5.585464	Leaving	-0.02734748
-5.585464	Lebanon	-0.002777938
-4.544466	Lee	-0.1796011
-5.585464	Left	-0.02354895
-5.585464	Legation	-0.0249416
-5.585464	Legion	-0.01865242
-5.585464	Leone	-0.02700701
-4.807674	Leslie	-0.1429258
-3.430558	Lestrade	-0.9171543
-5.585464	Lesurier	-0.002777938
-3.747042	Let	-0.7027636
-5.585464	Letter	-0.02583703
-5.585464	Leuk	-0.002777938
-5.585464	Leverstoke	-0.002777938
-5.585464	Lewisham	-0.02732945
-5.28465	Lexington	-0.02496582
-5.585464	Lhassa	-0.01834188
-5.585464	Liberal	-0.02508096
-5.585464	Lie	-0.02732156
-5.28465	Lieutenant	-0.04437679
-5.28465	Light	-0.04504428
-5.585464	Light-houses	-0.002777938
-5.28465	Like	-0.04390974
-4.983729	Limited	-0.05477482
-5.585464	Lip	-0.02735311
-4.886841	Listen	-0.08865477
-5.585464	Little	-0.02689873
-4.886841	Liverpool	-0.07642819
-5.585464	Living	-0.02180725
-5.585464	Llama	-0.007537337
-5.585464	Lloyd	-0.0258913
-5.585464	Local	-0.02733057
-4.471921	Lodge	-0.1943508
-5.585464	Logic	-0.0240023
-5.585464	Lombard	-0.02717051
-3.337922	London	-0.9342102
-5.28465	Londoners	-0.02722269
-5.28465	Lone	-0.05305857
-5.28465	Long	-0.03327197
-4.205668	Look	-0.3761471
-4.983729	Looking	-0.09865436
-3.608169	Lord	-0.8143637
-5.585464	Lordship	-0.007537337
-5.585464	Lothman	-0.02735311
-5.585464	Louisiana	-0.002777938
-4.585854	Lower	-0.217422
-5.28465	Lowther	-0.05306308
-4.284846	Lucas	-0.287936
-5.585464	Lucerne	-0.002777938
-5.585464	Lucky	-0.02576465
-5.585464	Lucretia	-0.02735424
-4.983729	Lucy	-0.07225183
-5.108632	Luke	-0.07587391
-5.585464	Luxembourg	-0.01834188
-5.585464	Lyon	-0.02734748
-5.28465	Lyons	-0.04910178
-4.740737	Lysander	-0.1627718
-5.28465	M	-0.02696545
-5.108632	M.	-0.05278518
-5.585464	M.A.	-0.002777938
-4.471921	MAGAZINE	-0.2658499
-5.585464	MAGNUM	-0.02735537
-5.585464	MAN	-0.02735537
-5.585464	MARCH	-0.002777938
-5.585464	MARY	-0.007537337
-5.585464	MAY	-0.002777938
-5.585464	MCFARLANE	-0.02735424
-5.585464	MEET	-0.02735537
-5.585464	MEMOIRS	-0.02732832
-5.585464	MENAGE	-0.0240023
-5.585464	MILVERTON	-0.002777938
-5.585464	MISS	-0.02735311
-5.585464	MORAN	-0.002777938
-5.585464	MORNING	-0.02735537
-4.983729	MR.	-0.1003109
-5.585464	MURDER	-0.02735424
-5.585464	MUST	-0.02557233
-5.108632	MY	-0.07625476
-5.585464	MYSTERY	-0.02690775
-5.28465	MacPherson	-0.007514611
-4.886841	Mackleton	-0.09244335
-5.108632	Madam	-0.05278279
-5.28465	Madame	-0.02851492
-5.585464	Mademoiselle	-0.0258913
-5.585464	Madman	-0.002777938
-5.585464	Madness	-0.002777938
-5.585464	Madrid	-0.002777938
-5.108632	Mafia	-0.03082933
-5.28465	Maggie	-0.02596019
-4.307121	Majesty	-0.2835462
-4.740737	Major	-0.1628203
-5.585464	Major-General	-0.02733508
-5.28465	Make	-0.04501723
-5.585464	Making	-0.02660758
-5.585464	Malay	-0.02735198
-5.585464	Male	-0.02735086
-4.631607	Mall	-0.1518768
-5.585464	Malplaquet	-0.02601679
-4.983729	Man	-0.07288619
-5.585464	Manchester	-0.02717051
-4.682753	Manor	-0.1486894
-5.585464	Mansions	-0.002777938
-4.740737	Many	-0.1626186
-4.471921	Mapleton	-0.2203178
-5.28465	Marbank	-0.0284879
-4.807674	March	-0.1084288
-5.585464	Marengo	-0.002777938
-5.585464	Margate	-0.0272235
-5.585464	Mark	-0.02147498
-4.807674	Marker	-0.1126224
-5.585464	Market	-0.007537337
-5.28465	Married	-0.05205328
-5.585464	Marseilles	-0.002777938
-5.585464	Marsham	-0.002777938
-4.50668	Martin	-0.2106051
-4.094522	Mary	-0.396688
-5.585464	Marylebone	-0.02733734
-4.983729	Master	-0.09861242
-5.585464	Mathematical	-0.02735537
-5.585464	Matheson	-0.002777938
-5.585464	Mathews	-0.002777938
-5.28465	Matters	-0.04896186
-5.585464	Maudsley	-0.002777938
-5.585464	Maupertuis	-0.02629817
-5.585464	Mauritius	-0.007537337
-4.355423	Mawson	-0.3183089
-4.243455	May	-0.3375976
-4.886841	Maybe	-0.09786873
-5.28465	Maynooth	-0.0189708
-4.017684	McCarthy	-0.4355212
-5.108632	McCarthys	-0.07614289
-5.28465	McCauley	-0.02847914
-4.18794	McFarlane	-0.3450725
-5.585464	McLaren	-0.007537337
-5.585464	McQuire	-0.0258913
-5.585464	Meaning	-0.02147498
-4.409777	Meanwhile	-0.2518668
-5.585464	Mecca	-0.002777938
-5.585464	Medical	-0.02735424
-5.585464	Mediterranean	-0.007537337
-4.886841	Meiringen	-0.07082239
-4.307121	Melas	-0.2818803
-5.585464	Melbourne	-0.002777938
-5.585464	Memoirs	-0.02470243
-4.807674	Men	-0.1173705
-5.585464	Mendicant	-0.02735537
-5.585464	Meredith	-0.002777938
-5.585464	Mereer	-0.002777938
-5.585464	Merridew	-0.01865242
-5.585464	Merrow	-0.002777938
-4.50668	Merryweather	-0.2198319
-5.585464	Metropolitan	-0.02733734
-5.585464	Meunier	-0.002777938
-5.585464	Mexico	-0.007537337
-5.585464	Middle	-0.02735537
-5.28465	Middlesex	-0.007514611
-5.585464	Midland	-0.02735537
-5.28465	Midlands	-0.02735663
-4.471921	Might	-0.2358762
-5.28465	Miles	-0.0440789
-4.886841	Millar	-0.07046707
-5.585464	Milner	-0.01834188
-3.973103	Milverton	-0.4808836
-5.585464	Mind	-0.0233329
-5.585464	Minerals	-0.02180725
-4.50668	Minister	-0.1860674
-5.28465	Ministers	-0.0516747
-5.585464	Misfortunes	-0.02700024
-3.536676	Miss	-0.9180716
-5.108632	Missing	-0.05278637
-5.585464	Mission	-0.02682088
-5.585464	Mister	-0.02712316
-5.585464	Mistress	-0.01834188
-4.807674	Mitton	-0.1081517
-4.983729	Mme	-0.08050751
-5.585464	Moffat	-0.007537337
-5.585464	Molesey	-0.02735086
-3.91379	Monday	-0.5201465
-5.108632	Monica	-0.0469142
-5.28465	Monsieur	-0.05309241
-5.108632	Montague	-0.07717231
-5.585464	Montana	-0.002777938
-5.28465	Months	-0.04748264
-5.585464	Montpelier	-0.002777938
-5.28465	Moor	-0.02228967
-5.585464	Moorhouse	-0.002777938
-5.585464	Morally	-0.002777938
-4.123485	Moran	-0.380966
-4.983729	Morcar	-0.07946677
-4.740737	More	-0.1568106
-5.585464	Morgan	-0.009368807
-4.017684	Moriarty	-0.4289204
-5.108632	Morning	-0.07736055
-5.28465	Morris	-0.032644
-4.682753	Morrison	-0.1264252
-4.631607	Morse	-0.1998778
-4.886841	Mortimer	-0.07677934
-4.983729	Morton	-0.07515173
-4.886841	Most	-0.113352
-5.28465	Mother	-0.04620793
-4.983729	Moulton	-0.05477482
-4.50668	Mount-James	-0.1983666
-3.822462	Mr	-0.6584513
-2.679024	Mr.	-1.71742
-4.983729	Mrs	-0.08050751
-3.560588	Mrs.	-0.896522
-5.585464	Munich	-0.009368807
-4.585854	Munro	-0.1612286
-5.108632	Munsters	-0.04925344
-4.740737	Murder	-0.1239351
-5.585464	Murdered	-0.0249416
-5.585464	Murillo	-0.002777938
-4.983729	Murphy	-0.06486487
-5.585464	Murray	-0.002777938
-4.983729	Museum	-0.0748172
-4.154518	Musgrave	-0.3746413
-5.28465	Musgraves	-0.04910974
-5.585464	Music	-0.02729789
-5.585464	Must	-0.0178964
-5.108632	Mutiny	-0.05273747
-3.198506	My	-1.218555
-4.138724	Mycroft	-0.3887789
-5.28465	Myrtles	-0.02758495
-4.886841	Mystery	-0.09482115
-5.28465	N	-0.0284879
-5.28465	N'T	-0.05117695
-5.585464	N.	-0.02735424
-5.585464	NEVILLE	-0.007537337
-5.28465	NN	-0.04225839
-5.585464	NOBLE	-0.02735537
-5.585464	NORTON	-0.002777938
-5.108632	NOT	-0.07719826
-5.585464	NOVEMBER	-0.002777938
-5.585464	NOVO	-0.01834188
-5.585464	Name	-0.009368807
-4.807674	Nancy	-0.1077915
-5.585464	Naples	-0.002777938
-4.409777	Napoleon	-0.204139
-5.28465	Napoleonic	-0.05306762
-5.28465	Napoleons	-0.0332473
-5.585464	Narbonne	-0.01834188
-4.807674	Naturally	-0.09416799
-4.886841	Nature	-0.08931848
-5.108632	Naval	-0.07733572
-5.28465	Nay	-0.0284879
-4.807674	Near	-0.1234144
-5.585464	Nearer	-0.009368807
-4.886841	Nearly	-0.1135677
-5.28465	Ned	-0.04751575
-5.585464	Negro	-0.007537337
-5.108632	Neill	-0.067095
-4.740737	Neither	-0.113746
-4.631607	Neligan	-0.1366446
-5.585464	Nepaul	-0.0271085
-5.585464	Nervous	-0.02733846
-5.585464	Netherland-Sumatra	-0.02734748
-4.224151	Never	-0.3189116
-4.330601	Neville	-0.3328485
-4.544466	New	-0.2338977
-5.108632	Newhaven	-0.03178726
-5.28465	News	-0.0284879
-5.585464	Newton	-0.0258913
-4.807674	Next	-0.1417894
-5.28465	Night	-0.04375663
-5.585464	Nights	-0.002777938
-5.585464	Nihilist	-0.0273441
-5.585464	Nihilists	-0.002777938
-5.585464	Nimes	-0.002777938
-3.116074	No	-1.24974
-5.585464	Noble	-0.02735537
-5.585464	Nonconformist	-0.02734522
-4.330601	None	-0.2817698
-4.682753	Nor	-0.1691027
-5.585464	Norah	-0.02735537
-4.886841	Norbury	-0.07540394
-4.330601	Norfolk	-0.2685086
-5.585464	Norman	-0.02735537
-4.585854	North	-0.1826731
-5.585464	Northern	-0.02735086
-5.108632	Northumberland	-0.07695467
-4.807674	Norton	-0.09107869
-5.108632	Norway	-0.05632544
-5.28465	Norwegian	-0.05306311
-5.108632	Norwich	-0.05116336
-4.307121	Norwood	-0.2813957
-5.585464	Nos	-0.007537337
-3.80056	Not	-0.6264436
-3.942435	Nothing	-0.4923132
-5.585464	Noticed	-0.02719983
-5.585464	Nous	-0.02735537
-5.585464	Nov	-0.007537337
-5.585464	Nova	-0.02735537
-5.585464	November	-0.007537337
-3.337922	Now	-0.982567
-5.585464	Nursed	-0.02619084
-4.983729	O	-0.05477482
-5.585464	OCTOBER	-0.002777938
-4.18794	OF	-0.418947
-5.585464	ONCE	-0.002777938
-5.585464	OPUS	-0.02647662
-5.585464	ORANGE	-0.02735537
-5.585464	OVERTON	-0.007537337
-5.585464	Oakington	-0.02445405
-4.740737	Oakshott	-0.1354453
-5.585464	Oberstein	-0.002777938
-4.983729	Obviously	-0.08165597
-5.585464	Occasionally	-0.02307463
-5.585464	Occurrence	-0.02504697
-5.585464	Ocean	-0.02727647
-5.108632	October	-0.03181421
-5.585464	Odd	-0.002777938
-5.585464	Odessa	-0.02180725
-3.666814	Of	-0.7744909
-5.585464	Off	-0.0178964
-4.585854	Office	-0.1653698
-5.585464	Officer	-0.02180725
-5.585464	Often	-0.02307463
-3.475304	Oh	-0.9454152
-4.409777	Old	-0.2923286
-4.170907	Oldacre	-0.3599665
-3.439766	On	-0.961193
-4.471921	Once	-0.2167929
-3.626851	One	-0.778508
-4.123485	Only	-0.420307
-5.585464	Open	-0.02307463
-5.28465	Opening	-0.03064311
-4.381751	Openshaw	-0.2442272
-5.585464	Opera	-0.01865242
-5.585464	Oporto	-0.007537337
-5.28465	Opposite	-0.0466851
-4.50668	Or	-0.2138626
-5.585464	Orange	-0.02735537
-5.28465	Order	-0.04327278
-5.585464	Ordering	-0.02459811
-5.585464	Oriental	-0.02732269
-5.585464	Orientals	-0.02652517
-5.585464	Origin	-0.01865242
-5.28465	Ormstein	-0.0284879
-5.585464	Oscar	-0.02735537
-5.585464	Oscillation	-0.02601679
-5.28465	Other	-0.05292785
-5.585464	Others	-0.02613434
-5.108632	Otherwise	-0.05766717
-3.766347	Our	-0.72009
-4.682753	Out	-0.1703585
-5.585464	Outrage	-0.007537337
-4.886841	Outside	-0.07279164
-4.983729	Over	-0.0783979
-4.439738	Overton	-0.214727
-5.585464	Owe	-0.02631963
-5.585464	Owns	-0.02682088
-4.409777	Oxford	-0.2754795
-5.585464	Oxfordshire	-0.002777938
-5.108632	P	-0.04327043
-5.28465	P.	-0.05306311
-5.585464	P.C	-0.007537337
-5.585464	PIPS	-0.02716262
-5.585464	PORTIERE	-0.02504697
-5.585464	POST	-0.01890069
-5.585464	Pa	-0.0270837
-5.28465	Pacific	-0.05309016
-4.585854	Paddington	-0.1553331
-5.585464	Paisley	-0.02735424
-5.585464	Palace	-0.002777938
-4.631607	Pall	-0.1999184
-5.585464	Palladio	-0.007537337
-4.886841	Palmer	-0.08652541
-5.585464	Palmer-tyred	-0.002777938
-5.585464	Pals	-0.01865242
-5.585464	Panama	-0.02728887
-5.585464	Pancras	-0.02734522
-5.585464	Paradol	-0.02735537
-5.28465	Paramore	-0.007514611
-4.471921	Paris	-0.2108399
-5.585464	Parisian	-0.02720095
-4.471921	Park	-0.2141799
-4.983729	Parker	-0.07454459
-5.28465	Parliament	-0.029984
-5.28465	Parr	-0.0284879
-5.585464	Pass	-0.002777938
-5.585464	Passing	-0.02668547
-5.585464	Patersons	-0.02180725
-5.585464	Patience	-0.02732381
-5.28465	Patient	-0.04381535
-4.740737	Patrick	-0.1375389
-5.585464	Patterson	-0.02147498
-5.585464	Pattins	-0.007537337
-4.983729	Paul	-0.09787413
-5.585464	Paulo	-0.002777938
-5.585464	Peace	-0.02733057
-5.585464	Peak	-0.02724717
-5.585464	Peculiar	-0.02647662
-5.585464	Peeping	-0.02651388
-5.28465	Peering	-0.0472577
-5.585464	Penang-lawyer	-0.02735311
-5.585464	Pencils	-0.002777938
-5.585464	Pending	-0.009368807
-5.585464	Pennsylvania	-0.002777938
-5.585464	Pentonville	-0.007537337
-5.585464	People	-0.02703634
-5.585464	Perceiving	-0.01930726
-4.409777	Percy	-0.2887985
-5.585464	Perfectly	-0.0261818
-3.994822	Perhaps	-0.4413701
-5.28465	Persia	-0.007514611
-4.983729	Persian	-0.1003245
-5.585464	Personally	-0.0178964
-4.054406	Peter	-0.4264657
-5.585464	Petersfield	-0.007537337
-4.544466	Peterson	-0.1964225
-5.585464	Petrarch	-0.002777938
-5.585464	Petrified	-0.02470243
-5.585464	Petty	-0.02735537
-5.585464	Ph.D.	-0.002777938
-3.983827	Phelps	-0.4774232
-5.28465	Philadelphia	-0.03326254
-5.585464	Philosophy	-0.002777938
-5.585464	Pickwick	-0.0258913
-4.807674	Pietro	-0.1028214
-5.28465	Pince-Nez	-0.0332473
-5.585464	Pink	-0.02733846
-5.585464	Pinkerton	-0.02734973
-4.471921	Pinner	-0.2024545
-5.585464	Pioneers	-0.007537337
-5.585464	Pipes	-0.02629817
-5.585464	Pips	-0.02735311
-4.983729	Pitt	-0.1001407
-4.682753	Place	-0.1320162
-5.585464	Plant	-0.02511154
-5.585464	Plantagenet	-0.02729789
-5.585464	Plate	-0.02735311
-5.585464	Platz	-0.002777938
-5.585464	Play	-0.02734748
-5.28465	Please	-0.0513071
-5.585464	Plumb	-0.02180725
-5.585464	Plural	-0.02631963
-5.585464	Plymouth	-0.02504697
-5.585464	Poe	-0.0258913
-5.108632	Police	-0.05278756
-5.585464	Police-Constable	-0.02735537
-5.585464	Police-constable	-0.02735537
-5.585464	Pollock	-0.02733283
-4.682753	Pompey	-0.1503343
-4.983729	Pondicherry	-0.06990177
-5.28465	Pooh	-0.0274188
-4.585854	Pool	-0.1622894
-4.886841	Poor	-0.1216036
-4.886841	Pope	-0.1198386
-5.585464	Portsdown	-0.0273486
-5.585464	Portsmouth	-0.02726746
-5.585464	Portuguese	-0.02734748
-4.886841	Possibly	-0.05058586
-5.108632	Post	-0.04385151
-5.585464	Posted	-0.02732156
-5.585464	Potter	-0.0258913
-5.585464	Powdered	-0.02733734
-5.585464	Prague	-0.02511154
-3.886919	Pray	-0.5988124
-4.381751	Precisely	-0.2626517
-4.585854	Premier	-0.1867126
-4.544466	Prendergast	-0.1710023
-4.886841	Presently	-0.1172795
-5.585464	President	-0.01834188
-4.983729	Press	-0.07419643
-5.28465	Presuming	-0.04718494
-5.28465	Price	-0.02596019
-5.585464	Prima	-0.02735537
-4.631607	Prime	-0.199915
-5.28465	Prince	-0.04374627
-5.585464	Princess	-0.002777938
-5.585464	Principal	-0.01865242
-5.585464	Pringle	-0.002777938
-4.807674	Priory	-0.1396145
-5.585464	Pritchard	-0.02613434
-5.585464	Private	-0.02735424
-4.886841	Probably	-0.09472571
-5.585464	Problem	-0.02604505
-5.585464	Problems	-0.02682427
-5.585464	Proceed	-0.002777938
-3.830015	Professor	-0.6100733
-5.28465	Promise	-0.04358158
-5.585464	Proosia	-0.002777938
-5.585464	Prosper	-0.007537337
-5.585464	Providence	-0.02727084
-5.28465	Pshaw	-0.0274188
-5.585464	Public	-0.0273441
-5.585464	Pugilist	-0.007537337
-5.108632	Pull	-0.07637676
-5.585464	Pullman	-0.02735537
-5.585464	Punjab	-0.002777938
-5.585464	Purely	-0.02735198
-5.585464	Puritan	-0.02647662
-5.585464	Purple	-0.02733846
-4.983729	Put	-0.08093885
-5.28465	Putting	-0.04829353
-5.28465	Puzzle	-0.04950079
-4.224151	Pycroft	-0.3375545
-4.544466	Pyland	-0.187983
-5.585464	Queen	-0.02735537
-5.585464	Queer	-0.02717051
-4.740737	Quick	-0.1371343
-5.585464	Quiet	-0.002777938
-5.585464	Quincey	-0.0258913
-4.094522	Quite	-0.4483281
-5.585464	R	-0.002777938
-5.28465	R.	-0.04439519
-5.108632	RED-HEADED	-0.07733572
-4.439738	RETURN	-0.280867
-5.108632	ROCK	-0.05275894
-5.585464	RUCASTLE	-0.007537337
-4.886841	Rachel	-0.1212999
-5.108632	Ragged	-0.0773346
-5.585464	Railway	-0.002777938
-5.585464	Rain	-0.02421235
-4.807674	Ralph	-0.1183584
-4.983729	Randall	-0.06795914
-5.28465	Randalls	-0.02596019
-5.28465	Ras	-0.0284879
-5.585464	Rasper	-0.007537337
-5.585464	Ratcliff	-0.02735537
-5.108632	Rather	-0.07688698
-5.28465	Read	-0.04878459
-4.439738	Reading	-0.2071483
-4.886841	Really	-0.09651072
-5.585464	Recently	-0.02332152
-4.983729	Red	-0.1003786
-4.807674	Red-headed	-0.1429518
-5.585464	Regency	-0.007537337
-4.983729	Regent	-0.09872902
-5.108632	Reginald	-0.07730868
-4.807674	Reichenbach	-0.1181301
-5.28465	Reigate	-0.04754314
-5.585464	Relations	-0.02613434
-5.585464	Relieved	-0.002777938
-4.886841	Remember	-0.07191606
-5.585464	Remo	-0.007537337
-5.28465	Republican	-0.05289967
-5.28465	Resident	-0.0530642
-5.585464	Restaurant	-0.002777938
-5.585464	Results	-0.02713782
-5.585464	Retired	-0.02583703
-5.585464	Return	-0.02735311
-5.585464	Returning	-0.01890069
-4.807674	Reuben	-0.1429269
-5.585464	Reuter	-0.0258913
-5.585464	Rhodesia	-0.007537337
-5.585464	Rhodesian	-0.02735311
-5.585464	Rhone	-0.002777938
-5.585464	Rica	-0.002777938
-5.585464	Richard	-0.02733057
-5.585464	Ricoletti	-0.01865242
-5.585464	Riding	-0.02735086
-4.983729	Ridling	-0.100321
-4.682753	Right	-0.1757079
-5.585464	Ripley	-0.002777938
-4.471921	Ritual	-0.2083216
-5.585464	River	-0.02180725
-4.18794	Road	-0.3478923
-5.585464	Roaring	-0.02733621
-5.108632	Robbery	-0.05743137
-4.807674	Robert	-0.1183191
-5.585464	Robinson	-0.002777938
-5.585464	Rockies	-0.002777938
-5.585464	Roman	-0.02735424
-4.682753	Ronald	-0.1571852
-5.585464	Room	-0.002777938
-5.585464	Rooms	-0.02445405
-5.108632	Rosenlaui	-0.03178726
-4.108762	Ross	-0.4065612
-5.585464	Rothiere	-0.002777938
-5.585464	Rotterdam	-0.007537337
-5.585464	Roughly	-0.02735537
-5.108632	Round	-0.07076859
-4.983729	Row	-0.04806013
-4.983729	Royal	-0.1003492
-4.263658	Roylott	-0.3248315
-5.28465	Roylotts	-0.04436238
-4.017684	Rucastle	-0.4400611
-4.983729	Rucastles	-0.09674925
-5.585464	Rue	-0.02735537
-5.585464	Rugby	-0.02734973
-5.585464	Rugger	-0.02734973
-5.585464	Run	-0.02668547
-5.585464	Running	-0.02647436
-5.585464	Rushing	-0.02677124
-5.28465	Russell	-0.05160912
-5.585464	Russia	-0.002777938
-4.439738	Russian	-0.2241443
-5.585464	Russo-German	-0.02735537
-5.28465	Ruston	-0.007514611
-4.50668	Ryder	-0.202845
-5.108632	S	-0.04511912
-5.108632	S.	-0.07014111
-5.585464	SAW	-0.009368807
-5.585464	SCANDAL	-0.02735424
-4.740737	SEA	-0.1627741
-5.585464	SEBASTIAN	-0.002777938
-5.585464	SEPTEMBER	-0.002777938
-4.330601	SHERLOCK	-0.3362759
-5.585464	SIMON	-0.007537337
-5.585464	SIR	-0.02734072
-5.585464	SL.NE	-0.007537337
-5.585464	SLANE	-0.007537337
-5.585464	SLANEY	-0.007537337
-5.585464	SPECKLED	-0.02735537
-5.585464	ST	-0.007537337
-5.585464	STANLEY	-0.02735537
-4.471921	STRAND	-0.2658499
-5.585464	Saddle	-0.01930726
-5.585464	Saffron	-0.0273486
-4.585854	Saltire	-0.1604015
-5.585464	Same	-0.02707693
-5.585464	Samuel	-0.007537337
-4.983729	San	-0.1003786
-5.585464	Sand	-0.007537337
-4.886841	Sandeford	-0.07589443
-5.585464	Sarasate	-0.02735311
-4.439738	Saturday	-0.1896367
-5.585464	Saturdays	-0.007537337
-5.28465	Saunders	-0.0332473
-4.886841	Savannah	-0.04979005
-4.983729	Save	-0.06752151
-5.585464	Saviour	-0.0258913
-4.807674	Saxe-Coburg	-0.1429247
-5.585464	Saxe-Meningen	-0.002777938
-5.28465	Saxon	-0.05308227
-5.108632	Say	-0.06552162
-5.585464	Scala	-0.002777938
-5.585464	Scandal	-0.02180725
-5.108632	Scandinavia	-0.03178726
-4.807674	Scarlet	-0.1183664
-5.585464	Scholarship	-0.007537337
-4.983729	School	-0.05477482
-5.585464	Scot	-0.02631963
-4.983729	Scotch	-0.100152
-5.585464	Scotch-woman	-0.007537337
-5.585464	Scotia	-0.002777938
-4.06737	Scotland	-0.4918789
-4.886841	Scott	-0.08763736
-4.807674	Scott_	-0.0791828
-5.585464	Scoundrel	-0.02631963
-5.585464	Scylla	-0.01834188
-5.585464	Sea	-0.007537337
-5.585464	Seated	-0.02180725
-5.28465	Sebastian	-0.05303378
-4.740737	Second	-0.1323804
-4.585854	Secretary	-0.1799206
-4.381751	See	-0.2808408
-5.108632	Seeing	-0.05324763
-5.585464	Seems	-0.01890069
-5.585464	Seen	-0.009368807
-5.585464	Seizing	-0.02459811
-5.108632	Seldom	-0.07443084
-5.108632	Send	-0.05757282
-5.585464	September	-0.002777938
-4.983729	Sergeant	-0.1002771
-5.28465	Sergius	-0.02596019
-4.807674	Serpentine	-0.1206718
-5.28465	Serpentine-mews	-0.0284879
-5.585464	Serve	-0.02529501
-5.28465	Served	-0.04751722
-5.585464	Set	-0.009368807
-5.108632	Seven	-0.07614397
-4.682753	Several	-0.1522518
-5.585464	Severn	-0.002777938
-5.585464	Shaftesbury	-0.02734973
-4.740737	Shall	-0.1314066
-5.585464	Sharp	-0.02504697
-4.983729	Shaw	-0.05477482
-3.169255	She	-1.191479
-5.585464	Sheeny	-0.02682088
-5.585464	Sheep-marks	-0.02626089
-3.269925	Sherlock	-1.105687
-5.585464	Sherpur	-0.002777938
-5.585464	Shetland	-0.02734522
-5.585464	Shillings	-0.02445405
-5.28465	Shipping	-0.05308339
-5.585464	Sholto	-0.02730127
-5.585464	Sholtos	-0.007537337
-4.983729	Shortly	-0.1000099
-5.585464	Shot	-0.02707242
-4.740737	Should	-0.1437334
-5.585464	Show	-0.02678703
-5.585464	Showing	-0.02147498
-5.108632	Siberia	-0.02129576
-5.585464	Sidelights	-0.02606766
-5.585464	Sierra	-0.02735537
-5.585464	Sigerson	-0.002777938
-5.585464	Sigismond	-0.02735311
-5.108632	Sign	-0.06863503
-5.585464	Sikhs	-0.002777938
-4.807674	Silas	-0.1429348
-4.471921	Silver	-0.2658499
-3.994822	Simon	-0.4558476
-5.585464	Simply	-0.02624846
-4.355423	Simpson	-0.2382396
-4.682753	Since	-0.1722426
-5.585464	Singleford	-0.0258913
-5.585464	Singularity	-0.0240023
-4.094522	Sir	-0.4545923
-4.886841	Sit	-0.1214874
-4.886841	Six	-0.121196
-4.631607	Slaney	-0.1485865
-5.585464	Slater	-0.002777938
-5.585464	Sleepy	-0.02735537
-5.585464	Slipping	-0.02707242
-5.108632	Slowly	-0.0470693
-5.585464	Smack	-0.02631963
-5.585464	Small	-0.002777938
-5.585464	Smart	-0.02718292
-4.154518	Smith	-0.3621276
-5.585464	Smith-Mortimer	-0.02734635
-5.585464	Snake-catcher	-0.0240023
-5.585464	Snapping	-0.02705889
-3.528989	So	-0.8421733
-4.108762	Soames	-0.4065086
-5.585464	Society	-0.002777938
-5.585464	Sold	-0.02637159
-5.28465	Solitary	-0.0530642
-4.094522	Some	-0.4420553
-5.585464	Somebody	-0.02731705
-4.740737	Someone	-0.1524766
-4.740737	Something	-0.1418009
-4.631607	Sometimes	-0.1613749
-5.585464	Somomy	-0.02734522
-5.585464	Son	-0.01865242
-5.585464	Sooner	-0.02675318
-4.983729	Sophy	-0.07950208
-5.108632	Sorry	-0.0688833
-5.585464	Sound	-0.02508096
-4.330601	South	-0.2811596
-4.983729	Southampton	-0.06171036
-5.108632	Southern	-0.0773583
-5.585464	Southerton	-0.0258913
-5.585464	Southsea	-0.007537337
-5.585464	Sovereign	-0.02646871
-5.585464	Spare	-0.02529501
-4.682753	Spaulding	-0.1298601
-5.585464	Speak	-0.02637159
-5.28465	Speaking	-0.05308565
-5.28465	Speckled	-0.0530642
-5.28465	Spence	-0.05305519
-5.585464	Spies	-0.01834188
-5.585464	Splendid	-0.02631963
-4.330601	Square	-0.2863333
-5.585464	Squatted	-0.02606766
-5.28465	St	-0.0332473
-3.651394	St.	-0.8178128
-4.983729	Stain	-0.04674985
-5.585464	Stamford	-0.002777938
-5.108632	Stand	-0.07552534
-5.28465	Standard	-0.007514611
-5.28465	Standing	-0.04623999
-4.154518	Stanley	-0.4398404
-4.740737	Star	-0.1078017
-4.631607	Stark	-0.1657389
-5.585464	Stars	-0.01834188
-5.585464	Starving	-0.007537337
-5.108632	State	-0.07503161
-5.108632	States	-0.05025384
-4.355423	Station	-0.2563291
-4.094522	Staunton	-0.3841992
-5.585464	Stay	-0.02701378
-5.108632	Steiler	-0.05393172
-5.28465	Step	-0.05071716
-4.983729	Stepney	-0.05477482
-5.585464	Stepping	-0.02637159
-5.585464	Stevens	-0.002777938
-5.28465	Stevenson	-0.02496582
-5.108632	Stewart	-0.05276055
-5.585464	Stick	-0.02504697
-4.284846	Still	-0.3200713
-5.28465	Stock	-0.0530642
-5.585464	Stock-Broker	-0.0258913
-4.544466	Stoke	-0.234114
-5.28465	Stolen	-0.007514611
-4.307121	Stoner	-0.275743
-4.886841	Stop	-0.08890737
-4.807674	Stoper	-0.09063011
-4.006103	Straker	-0.463107
-4.886841	Strand	-0.1021927
-5.585464	Strange	-0.002777938
-5.585464	Stranger	-0.0258913
-5.28465	Strasburg	-0.03327433
-4.983729	Streatham	-0.06597525
-3.368411	Street	-0.9072905
-5.585464	Striding	-0.02707242
-5.585464	Stripes	-0.007537337
-5.28465	Strong	-0.05079092
-5.585464	Stroud	-0.0273486
-5.585464	Stuarts	-0.007537337
-5.28465	Students	-0.0332473
-4.807674	Study	-0.1373957
-5.585464	Subtle	-0.02716262
-5.28465	Suburban	-0.0530597
-4.381751	Such	-0.2901216
-4.205668	Suddenly	-0.3518567
-5.585464	Suez	-0.02735537
-5.585464	Summer	-0.02735537
-5.585464	Sunday	-0.0178964
-5.28465	Sunday-school	-0.05280383
-4.983729	Suppose	-0.07656707
-5.585464	Supposing	-0.02147498
-5.585464	Sure	-0.02716262
-4.123485	Surely	-0.3401702
-5.585464	Surprise	-0.02212672
-4.544466	Surrey	-0.1856709
-4.682753	Susan	-0.1263267
-5.28465	Suspicion	-0.04431355
-4.740737	Sussex	-0.1143458
-4.544466	Sutherland	-0.1738644
-5.28465	Sutton	-0.007514611
-5.28465	Swain	-0.02847914
-5.28465	Swan	-0.04972912
-4.682753	Swandam	-0.1817331
-5.585464	Sweet	-0.02724942
-5.28465	Swiftly	-0.03441932
-5.585464	Swindon	-0.002777938
-4.886841	Swiss	-0.1190533
-5.28465	Switzerland	-0.02424504
-4.807674	Sydenham	-0.08828312
-5.585464	Sydney	-0.002777938
-5.28465	Syndicate	-0.0332473
-5.585464	Syria	-0.01834188
-4.983729	T	-0.06625678
-5.585464	T.	-0.002777938
-5.28465	TELEGRAPH	-0.0284879
-5.28465	THAT	-0.05053583
-3.895693	THE	-0.6215824
-5.585464	THIS	-0.02723815
-5.585464	THUMB	-0.02726295
-5.585464	THY	-0.02735537
-5.28465	TIMES	-0.02851015
-4.983729	TO	-0.1003527
-5.585464	TOWERS	-0.002777938
-5.585464	TRUE	-0.02725619
-5.585464	TWISTED	-0.02735537
-5.585464	TWO	-0.02735086
-5.585464	Taciturn	-0.002777938
-5.585464	Tadpole	-0.0201124
-4.439738	Take	-0.2551955
-5.585464	Taking	-0.009368807
-5.585464	Tall	-0.0249416
-4.983729	Tangey	-0.06872472
-5.28465	Tankerville	-0.02850776
-5.585464	Tarleton	-0.02735086
-5.28465	Tarlton	-0.007514611
-4.682753	Tavistock	-0.1300564
-5.585464	Technically	-0.002777938
-4.983729	Teddy	-0.06970428
-5.28465	Telegraph	-0.0189708
-4.471921	Tell	-0.2615011
-4.983729	Temple	-0.04540133
-4.983729	Ten	-0.09929652
-5.585464	Tennessee	-0.002777938
-5.585464	Terai	-0.02733846
-4.807674	Terrace	-0.08666818
-5.28465	Terrible	-0.05203521
-5.585464	Terror	-0.02647662
-5.585464	Terse	-0.01834188
-5.28465	Testament	-0.0284879
-5.585464	Teutonic	-0.02705663
-5.585464	Texas	-0.002777938
-5.108632	Thames	-0.04810802
-3.904647	Thank	-0.6106114
-5.585464	Thanks	-0.01890069
-3.189696	That	-1.112754
-2.511446	The	-1.864691
-5.585464	Theatre	-0.007537337
-4.544466	Their	-0.2336415
-3.072679	Then	-1.196322
-5.585464	Thence	-0.02332152
-5.585464	Theological	-0.02735086
-5.585464	Theorem	-0.002777938
-5.585464	Theories	-0.02629817
-2.918444	There	-1.38955
-4.409777	Therefore	-0.2218674
-5.585464	Therein	-0.02732156
-4.50668	Theresa	-0.1979532
-3.932675	These	-0.558257
-3.39277	They	-1.025071
-5.585464	Thick	-0.0273486
-5.28465	Things	-0.04871947
-4.807674	Think	-0.1338729
-5.28465	Third	-0.02827515
-5.585464	Thirty	-0.02724492
-3.184495	This	-1.156531
-5.585464	Thoreau	-0.0258913
-5.28465	Thorneycroft	-0.05304505
-4.886841	Thorpe	-0.1199326
-4.439738	Those	-0.2509355
-5.108632	Though	-0.06743067
-5.28465	Threadneedle	-0.05288048
-5.585464	Threatens	-0.01890069
-4.330601	Three	-0.3264455
-5.28465	Three-Quarter	-0.0332473
-5.585464	Three-forty	-0.0240023
-4.740737	Through	-0.1364295
-5.585464	Throw	-0.009368807
-5.28465	Thrust	-0.04851225
-5.585464	Thucydides	-0.007537337
-5.585464	Thumb	-0.02735198
-4.807674	Thursday	-0.1332216
-5.28465	Thurston	-0.029984
-5.28465	Thus	-0.05078854
-5.585464	Tibet	-0.002777938
-5.585464	Time	-0.02212672
-5.28465	Times	-0.04384298
-5.585464	Tingling	-0.02470243
-5.585464	Tiptoes	-0.02631963
-5.585464	Tired	-0.02733734
-5.585464	Tired-looking	-0.02675318
-5.585464	Title	-0.01834188
-3.722569	To	-0.7027883
-4.807674	To-day	-0.08453548
-4.740737	To-morrow	-0.1468231
-5.585464	To-night	-0.0178964
-5.28465	Tobacco	-0.04405185
-5.585464	Tobin	-0.002777938
-4.983729	Together	-0.0982549
-4.409777	Toller	-0.2402844
-5.585464	Tollers	-0.02722012
-4.740737	Too	-0.1620036
-5.585464	Torrington	-0.02734184
-5.585464	Tosca	-0.02647662
-4.983729	Tottenham	-0.1003165
-5.585464	Tottering	-0.01834188
-5.585464	Tower	-0.01865242
-5.28465	Towers	-0.02383538
-5.585464	Trafalgar	-0.02733621
-5.585464	Tragic	-0.002777938
-5.585464	Treasury	-0.02720997
-5.108632	Treaty	-0.04370419
-5.585464	Tree	-0.02735537
-5.585464	Tregellis	-0.002777938
-4.740737	Trelawney	-0.1627695
-5.585464	Trepoff	-0.02730127
-4.381751	Trevelyan	-0.2308895
-4.224151	Trevor	-0.3233699
-5.585464	Trincomalee	-0.002777938
-5.28465	Trinity	-0.05306082
-5.585464	Triple	-0.02735537
-5.28465	Trumpington	-0.02442083
-5.585464	Trust	-0.02529501
-5.108632	Try	-0.05937845
-5.28465	Tudor	-0.05180131
-4.330601	Tuesday	-0.279653
-5.585464	Tunbridge	-0.02735537
-5.585464	Turkish	-0.0273486
-5.585464	Turn	-0.02677124
-4.243455	Turner	-0.3273385
-5.108632	Turning	-0.07244167
-5.28465	Tuson	-0.007514611
-4.886841	Tut	-0.09651073
-5.585464	Tut-tut	-0.02631963
-5.585464	Twelve	-0.02727084
-5.585464	Twenty	-0.02675318
-5.585464	Twenty-four	-0.02733734
-5.585464	Twenty-nine	-0.002777938
-5.585464	Twenty-six	-0.02735424
-5.585464	Twenty-two	-0.02735086
-4.740737	Twice	-0.1545327
-5.585464	Twisted	-0.02735537
-4.154518	Two	-0.42737
-5.585464	U.	-0.02735311
-5.585464	U.S.A.	-0.02609139
-5.585464	UNCLE	-0.02721335
-4.740737	UNICORN	-0.1110906
-5.585464	Uffa	-0.002777938
-5.585464	Uncle	-0.02734973
-4.983729	Under	-0.08053552
-5.585464	Under-Secretary	-0.02511154
-5.28465	Underground	-0.04175666
-5.28465	Underneath	-0.03161038
-4.631607	Undoubtedly	-0.1745111
-5.585464	Unemployed	-0.007537337
-5.585464	Unfolding	-0.02307463
-5.108632	Unfortunately	-0.05041273
-5.28465	Union	-0.03325428
-5.585464	United	-0.02735311
-5.585464	Universities	-0.02496426
-4.585854	University	-0.1676043
-4.807674	Unless	-0.1168311
-4.886841	Until	-0.1157008
-4.807674	Up	-0.1344427
-4.740737	Upon	-0.1411705
-5.108632	Upper	-0.07733009
-5.585464	Uppingham	-0.02675318
-5.585464	Uriah	-0.01834188
-5.585464	V	-0.002777938
-4.886841	V.	-0.1199629
-5.585464	VALLEY	-0.02735537
-5.585464	VERY	-0.02730014
-5.108632	VI	-0.05751995
-5.585464	VI.	-0.02647662
-5.108632	VII	-0.05751995
-5.585464	VII.	-0.02647662
-5.108632	VIII	-0.05751995
-5.585464	VIII.	-0.02647662
-5.585464	VIOLET	-0.02735311
-5.585464	Vale	-0.002777938
-4.740737	Valley	-0.1038147
-5.585464	Vamberry	-0.002777938
-5.585464	Vast	-0.02735424
-5.585464	Vegetarian	-0.02735537
-5.585464	Venezuelan	-0.02735537
-5.585464	Venner	-0.02734297
-5.28465	Venucci	-0.0284879
-5.585464	Verdes	-0.02613434
-5.28465	Vere	-0.05281172
-5.28465	Verner	-0.02297988
-5.585464	Vernet	-0.002777938
-3.830015	Very	-0.6246918
-4.807674	Victor	-0.09739824
-4.544466	Victoria	-0.1811007
-5.585464	Villa	-0.0201124
-5.585464	Villain	-0.02631963
-4.807674	Vincent	-0.142963
-5.28465	Violence	-0.04427675
-4.807674	Violet	-0.1183596
-5.585464	Visited	-0.02735424
-5.28465	Vitus	-0.05160127
-5.585464	Voil	-0.02735311
-4.471921	Vol	-0.2460454
-5.585464	Volume	-0.01891103
-4.983729	Von	-0.1003504
-5.585464	Vox	-0.02735537
-5.585464	W.	-0.02735424
-5.28465	WAS	-0.02671405
-5.108632	WE	-0.07271856
-5.585464	WERE	-0.02730127
-5.585464	WESTMINSTER	-0.007537337
-5.585464	WHEN	-0.0178964
-5.585464	WILSON	-0.0201124
-5.585464	WITH	-0.02730127
-4.740737	Wait	-0.1487444
-5.585464	Waldbaum	-0.002777938
-5.108632	Wales	-0.03178726
-5.585464	Walk	-0.02727535
-5.585464	Wallenstein	-0.002777938
-5.585464	Walsall	-0.002777938
-5.28465	Walsham	-0.0284529
-5.585464	Walsingham	-0.02734748
-5.585464	Want	-0.02631963
-5.585464	Wanted	-0.002777938
-4.886841	War	-0.07522944
-5.585464	Warburton	-0.0258913
-5.585464	Ward	-0.02735198
-5.585464	Wardlaw	-0.0258913
-5.585464	Warm	-0.02631963
-5.28465	Warsaw	-0.02758495
-3.973103	Was	-0.5219617
-5.585464	Water	-0.002777938
-5.585464	Waterbeach	-0.002777938
-4.409777	Waterloo	-0.2456063
-2.968896	Watson	-1.347924
-5.28465	Watt	-0.05288048
-2.986013	We	-1.406004
-5.585464	Wedding	-0.02609139
-5.585464	Wedlock	-0.02735086
-4.682753	Wednesday	-0.1307786
-5.585464	Weiss	-0.02734297
-5.585464	Welbeck	-0.02717051
-3.063452	Well	-1.30465
-5.585464	Well-known	-0.02735311
-5.585464	Wellington	-0.02717051
-5.585464	Wells	-0.002777938
-5.28465	Welsh	-0.05303268
-4.544466	Were	-0.2015841
-4.886841	Wessex	-0.1221798
-5.108632	West	-0.07733572
-5.585464	West-End	-0.02731029
-5.585464	West-country	-0.02735311
-5.585464	West-end	-0.007537337
-5.28465	Westaway	-0.04638192
-5.585464	Westbury	-0.02733959
-5.585464	Western	-0.02735537
-5.28465	Westhouse	-0.05305294
-4.807674	Westminster	-0.09685463
-5.585464	Westphail	-0.002777938
-5.585464	Wharf	-0.002777938
-3.050602	What	-1.22653
-4.807674	Whatever	-0.1145109
-3.350367	When	-0.9644403
-3.845527	Where	-0.5939938
-4.983729	Whether	-0.08625075
-4.50668	Which	-0.2276912
-4.886841	While	-0.1119563
-5.585464	Whip	-0.02619423
-4.740737	Whitehall	-0.1170211
-4.682753	Whitney	-0.1287949
-5.585464	Whittington	-0.007537337
-3.861614	Who	-0.6215144
-5.585464	Whoa	-0.002777938
-5.108632	Whoever	-0.07303853
-5.585464	Whole	-0.02731029
-4.983729	Whom	-0.09130519
-5.108632	Whose	-0.04686987
-3.564704	Why	-0.8364658
-5.585464	Wight	-0.007537337
-5.585464	Wigmore	-0.02717051
-4.330601	Wilder	-0.2635732
-5.585464	Wilful	-0.0273486
-5.585464	Wilhelm	-0.02735537
-4.544466	Will	-0.2257433
-4.18794	William	-0.3703223
-5.108632	Williams	-0.0512381
-4.544466	Williamson	-0.1659993
-4.631607	Willoughby	-0.1998981
-5.585464	Willows	-0.02731818
-4.154518	Wilson	-0.378428
-5.585464	Wilton	-0.0273193
-5.585464	Wimpole	-0.02717051
-4.544466	Winchester	-0.174867
-4.284846	Windibank	-0.3127432
-5.108632	Windigate	-0.04240284
-5.585464	Wire	-0.0266437
-3.740793	With	-0.6929184
-4.740737	Within	-0.1274012
-4.740737	Without	-0.1250259
-4.631607	Witness	-0.1998012
-5.28465	Wo	-0.05266961
-4.439738	Woking	-0.2281111
-5.585464	Women	-0.02629817
-4.740737	Wonderful	-0.1617451
-4.740737	Wood	-0.1089119
-5.585464	Wooden-leg	-0.02421235
-5.28465	Woodhouse	-0.05160127
-4.170907	Woodley	-0.3548681
-4.983729	Woodman	-0.09886147
-5.585464	Work	-0.0240023
-5.585464	Working	-0.02470243
-5.585464	Worship	-0.002777938
-5.28465	Worthingdon	-0.05304955
-4.439738	Would	-0.2308964
-5.108632	Wright	-0.04855552
-5.585464	Written	-0.02180725
-4.983729	X	-0.08053454
-5.585464	X.	-0.02647662
-5.108632	XI	-0.05751995
-5.585464	XI.	-0.02647662
-5.28465	XII	-0.0332473
-5.585464	XII.	-0.02647662
-5.585464	XIII.	-0.02647662
-5.108632	XXX	-0.05739231
-4.886841	YOU	-0.09640524
-4.094522	Yard	-0.3965563
-5.108632	Yellow	-0.06836134
-3.16265	Yes	-1.211442
-4.886841	Yesterday	-0.06559663
-4.123485	Yet	-0.3714543
-5.28465	York	-0.05155937
-2.711995	You	-1.635054
-4.886841	Young	-0.1220255
-3.693797	Your	-0.7787683
-4.740737	Yours	-0.1617439
-4.740737	Yoxley	-0.1624189
-5.108632	Zealand	-0.05756338
-5.585464	Zoo	-0.01834188
-5.108632	[	-0.07282361
-4.983729	]	-0.05097129
-4.807674	_Gloria	-0.1429382
-5.28465	_Hotspur_	-0.02851015
-1.715376	``	-2.502799
-1.736048	a	-2.661605
-5.585464	a-lying	-0.02180725
-5.585464	a-stampin	-0.02609139
-5.585464	a-walkin	-0.02609139
-5.585464	a.m.	-0.01891103
-4.983729	aback	-0.07451111
-4.886841	abandon	-0.09520089
-4.983729	abandoned	-0.09201294
-5.585464	abandoning	-0.02660758
-5.585464	abandons	-0.02711301
-4.983729	abduction	-0.05571773
-5.585464	abductor	-0.02212672
-5.585464	aberration	-0.02660081
-5.585464	abetted	-0.02624846
-5.108632	abhorrent	-0.04383549
-5.585464	abhors	-0.02508096
-5.585464	abide	-0.02735537
-5.28465	abilities	-0.02383538
-4.682753	ability	-0.1224806
-5.585464	abjure	-0.02354895
-3.636503	able	-0.7644018
-5.585464	able-bodied	-0.02721673
-5.28465	abnormal	-0.02264156
-5.28465	abnormally	-0.05307212
-5.108632	aboard	-0.03082306
-5.28465	abode	-0.04436238
-5.108632	abominable	-0.0770776
-5.585464	abomination	-0.007537337
-5.585464	abortive	-0.007537337
-5.585464	abound	-0.02180725
-2.909203	about	-1.32139
-3.772977	above	-0.6108345
-5.585464	abrasion	-0.002777938
-5.585464	abreast	-0.01865242
-4.886841	abroad	-0.0729802
-4.807674	abrupt	-0.117043
-4.983729	abruptly	-0.05315336
-5.585464	abruptness	-0.01865242
-5.585464	absconding	-0.02733846
-4.381751	absence	-0.2304531
-4.544466	absent	-0.1720467
-5.585464	absentees	-0.007537337
-4.029583	absolute	-0.5148769
-3.822462	absolutely	-0.6705914
-5.28465	absolved	-0.05154699
-5.585464	absorb	-0.02624168
-4.631607	absorbed	-0.1647213
-5.585464	absorbing	-0.007537337
-5.585464	abstract	-0.02735086
-4.740737	abstracted	-0.1316282
-5.108632	abstruse	-0.06832449
-4.205668	absurd	-0.3274961
-4.886841	absurdly	-0.1221393
-5.28465	abundant	-0.05306987
-5.28465	abuse	-0.05082139
-5.585464	abusive	-0.02735537
-5.28465	abutted	-0.05177762
-4.886841	abyss	-0.07395181
-5.585464	academic	-0.02735537
-5.585464	acceding	-0.01890069
-4.886841	accent	-0.1023392
-5.585464	accentuated	-0.02668998
-4.682753	accept	-0.1405775
-5.585464	acceptable	-0.0273317
-5.28465	acceptance	-0.04436238
-4.886841	accepted	-0.09161864
-5.585464	accepting	-0.002777938
-5.28465	access	-0.04461065
-5.585464	accessories	-0.002777938
-5.28465	accessory	-0.01956284
-4.307121	accident	-0.2797829
-5.108632	accidental	-0.05754108
-5.28465	accidentally	-0.05286472
-5.28465	accidents	-0.02815343
-5.28465	accommodate	-0.04883215
-5.585464	accommodating	-0.02734522
-4.886841	accompanied	-0.1171652
-5.585464	accompaniments	-0.02180725
-4.886841	accompany	-0.1157614
-5.108632	accompanying	-0.07514716
-5.585464	accompli	-0.0249416
-4.740737	accomplice	-0.1271086
-5.28465	accomplish	-0.0303879
-5.108632	accomplished	-0.07555137
-5.585464	accomplishment	-0.007537337
-5.28465	accomplishments	-0.02596019
-5.585464	accord	-0.002777938
-5.585464	accordance	-0.02470243
-4.807674	according	-0.1344892
-5.28465	accordingly	-0.0331717
-3.636503	account	-0.7515535
-5.28465	accountant	-0.02848391
-5.28465	accounted	-0.05082151
-4.631607	accounts	-0.1623321
-5.108632	accumulated	-0.03374739
-5.585464	accumulating	-0.002777938
-5.585464	accumulation	-0.01865242
-5.108632	accuracy	-0.0666609
-5.108632	accurate	-0.05038217
-5.28465	accurately	-0.03505295
-5.108632	accursed	-0.0770652
-5.585464	accusation	-0.0249416
-5.108632	accuse	-0.07092876
-4.740737	accused	-0.1208375
-5.585464	accuser	-0.007537337
-4.409777	accustomed	-0.2319768
-5.585464	acetones	-0.002777938
-5.585464	achieved	-0.02702393
-5.585464	achievements	-0.02626089
-5.28465	acid	-0.02709828
-5.585464	acid-faced	-0.02733959
-5.585464	acid-stained	-0.002777938
-4.682753	acknowledge	-0.153663
-5.585464	acknowledged	-0.02147498
-5.28465	acknowledges	-0.04512349
-4.263658	acquaintance	-0.2986789
-5.585464	acquaintances	-0.02725168
-5.108632	acquainted	-0.07468504
-5.585464	acquiesce	-0.02180725
-5.585464	acquiesced	-0.007537337
-5.28465	acquiescence	-0.007514611
-5.585464	acquire	-0.0261818
-5.108632	acquired	-0.07093488
-5.585464	acquirement	-0.01865242
-5.28465	acquiring	-0.04325318
-5.28465	acquitted	-0.02607173
-5.108632	acres	-0.04843337
-5.585464	acrobat	-0.02675318
-3.503109	across	-0.8232438
-4.243455	act	-0.3082454
-4.224151	acted	-0.3591966
-4.585854	acting	-0.1819056
-3.973103	action	-0.4442197
-5.28465	actionable	-0.026908
-4.631607	actions	-0.1312026
-4.409777	active	-0.2611492
-5.28465	activity	-0.02398363
-5.28465	actor	-0.01849879
-5.108632	actors	-0.06887818
-5.585464	actress	-0.02711978
-5.28465	acts	-0.04206887
-4.807674	actual	-0.1428324
-4.381751	actually	-0.3009722
-5.585464	acumen	-0.0178964
-4.983729	acute	-0.08535946
-5.585464	acutely	-0.02734748
-5.585464	adapt	-0.02711301
-5.585464	adaptable	-0.0273486
-4.983729	adapted	-0.08960573
-4.409777	add	-0.2314131
-4.471921	added	-0.1899951
-5.585464	adder	-0.02631963
-5.585464	addicted	-0.01890069
-5.108632	adding	-0.06160923
-4.740737	addition	-0.1084856
-5.585464	additional	-0.02733057
-3.983827	address	-0.4408864
-4.471921	addressed	-0.1990191
-5.585464	addresses	-0.007537337
-4.983729	addressing	-0.07647146
-5.585464	adds	-0.02147498
-5.28465	adequate	-0.03316226
-5.585464	adhere	-0.01890069
-5.585464	adhesive	-0.002777938
-5.585464	adjective	-0.02496426
-5.585464	adjectives	-0.02613434
-5.585464	adjoining	-0.02728662
-5.108632	adjusted	-0.05141467
-5.585464	administered	-0.02732719
-5.108632	administration	-0.04414723
-4.409777	admirable	-0.2648355
-4.740737	admirably	-0.1427819
-4.544466	admiration	-0.1802476
-5.108632	admire	-0.05541033
-5.585464	admired	-0.02459811
-5.28465	admirer	-0.02416072
-5.28465	admirers	-0.04984381
-5.108632	admiring	-0.05816814
-4.263658	admit	-0.3167321
-5.28465	admits	-0.04880597
-5.585464	admittance	-0.007537337
-4.740737	admitted	-0.144077
-5.585464	admitting	-0.01930726
-5.585464	ado	-0.01890069
-5.585464	adopt	-0.0261818
-5.28465	adopted	-0.04385794
-5.585464	adorn	-0.009368807
-5.28465	adorned	-0.03195835
-5.585464	adrift	-0.002777938
-4.50668	advance	-0.1694939
-4.439738	advanced	-0.2065687
-5.585464	advances	-0.01890069
-5.28465	advancing	-0.05164757
-4.330601	advantage	-0.2599733
-4.807674	advantages	-0.09068885
-5.585464	advent	-0.02212672
-4.224151	adventure	-0.3161788
-4.50668	adventures	-0.1828825
-5.585464	adventuress	-0.002777938
-5.585464	adventurous	-0.02717728
-5.28465	advertise	-0.03074753
-5.108632	advertised	-0.05041455
-4.080734	advertisement	-0.4071311
-4.983729	advertisements	-0.06838274
-5.28465	advertising	-0.05033061
-3.932675	advice	-0.4930283
-4.50668	advise	-0.2229308
-4.983729	advised	-0.05827449
-5.28465	adviser	-0.0189708
-5.585464	advises	-0.007537337
-5.585464	advocate	-0.02697769
-5.585464	affably	-0.007537337
-3.807739	affair	-0.5945859
-5.585464	affaire	-0.02734748
-4.263658	affairs	-0.292304
-5.108632	affect	-0.05661044
-5.585464	affectation	-0.002777938
-4.807674	affected	-0.1102239
-5.585464	affecting	-0.01890069
-4.886841	affection	-0.08458427
-4.886841	affectionate	-0.06648168
-5.585464	affectionately	-0.01834188
-5.585464	affections	-0.02583703
-5.28465	affliction	-0.044225
-5.585464	affluent	-0.0273193
-4.544466	afford	-0.1852046
-5.108632	afforded	-0.06611187
-5.28465	afoot	-0.03074753
-3.904647	afraid	-0.5187219
-5.585464	afresh	-0.007537337
-5.585464	aft	-0.02712203
-3.13719	after	-1.136443
-5.585464	after-hold	-0.007537337
-5.585464	after-taste	-0.01865242
-4.06737	afternoon	-0.3863976
-3.845527	afterwards	-0.5173897
-3.211147	again	-1.0088
-3.381775	against	-0.9706162
-4.041817	age	-0.4409283
-4.983729	aged	-0.1002749
-5.585464	agencies	-0.007537337
-4.886841	agency	-0.08566196
-4.381751	agent	-0.2237319
-4.439738	agents	-0.1971089
-5.585464	aggregate	-0.01890069
-5.28465	aggressive	-0.05306198
-5.585464	aggressively	-0.02728437
-5.585464	agile	-0.002777938
-4.585854	agitated	-0.1695596
-4.381751	agitation	-0.250255
-3.699401	ago	-0.6356326
-5.585464	agonies	-0.0178964
-4.631607	agony	-0.124283
-4.544466	agree	-0.2301729
-5.585464	agreeable	-0.007537337
-4.544466	agreed	-0.1765642
-5.108632	agreement	-0.0734165
-5.585464	agrees	-0.02470243
-5.28465	agricultural	-0.02851253
-5.585464	ah	-0.002777938
-4.886841	ahead	-0.08715006
-4.224151	aid	-0.3330336
-4.886841	aided	-0.09163919
-5.585464	ails	-0.0233329
-5.28465	aim	-0.05300563
-5.108632	aimed	-0.07502958
-5.28465	aimless	-0.05308903
-5.585464	aims	-0.02729
-3.766347	air	-0.6268862
-4.983729	air-gun	-0.06954823
-5.28465	air-guns	-0.03074753
-5.585464	airs	-0.007537337
-5.585464	airy	-0.02699912
-5.585464	aisle	-0.02705325
-5.108632	ajar	-0.05739479
-5.28465	akimbo	-0.0284879
-4.983729	akin	-0.09187086
-4.054406	alarm	-0.4298279
-4.983729	alarmed	-0.0505721
-5.28465	alas	-0.0274188
-4.330601	alert	-0.2992621
-5.585464	alertness	-0.01865242
-5.585464	alias	-0.007537337
-5.585464	alight	-0.02332152
-4.807674	alighted	-0.09344353
-5.585464	alighting	-0.02626089
-5.108632	alike	-0.02913251
-4.18794	alive	-0.3523356
-2.59114	all	-1.544693
-5.585464	all-comprehensive	-0.02734973
-5.108632	all-important	-0.04687108
-5.108632	all-night	-0.07730532
-5.585464	alleging	-0.02147498
-5.28465	alley	-0.02850895
-5.585464	alleys	-0.02180725
-5.585464	alliance	-0.02496426
-5.585464	allied	-0.007537337
-5.585464	allotment	-0.02508096
-4.284846	allow	-0.2912782
-4.807674	allowance	-0.09120695
-4.263658	allowed	-0.2992016
-5.28465	allowing	-0.03351017
-5.28465	allows	-0.04474915
-4.983729	allude	-0.09187086
-4.807674	alluded	-0.0868465
-4.631607	allusion	-0.1914727
-5.108632	allusions	-0.0688833
-5.28465	ally	-0.0284879
-3.932675	almost	-0.5722876
-3.815038	alone	-0.5915095
-3.740793	along	-0.6270462
-4.585854	aloud	-0.1826997
-5.28465	alphabet	-0.0274188
-3.485523	already	-0.8674824
-3.427532	also	-0.8114915
-4.807674	altar	-0.09451514
-5.585464	alter	-0.009368807
-5.585464	alteration	-0.02180725
-5.28465	alterations	-0.02264156
-5.28465	altercation	-0.0330832
-5.108632	altered	-0.05384488
-5.28465	alternate	-0.05294361
-5.28465	alternately	-0.05288952
-5.585464	alternating	-0.02583703
-5.585464	alternation	-0.02717277
-4.409777	alternative	-0.2197024
-5.585464	alternatives	-0.0249416
-4.154518	although	-0.3553114
-4.585854	altogether	-0.1643084
-5.585464	aluminium	-0.02735537
-5.585464	aluminum	-0.02735537
-3.44288	always	-0.8314687
-2.880889	am	-1.363369
-5.585464	amalgam	-0.02496426
-5.585464	amassed	-0.02730127
-5.585464	amassing	-0.02725619
-4.983729	amateur	-0.07442687
-5.28465	amaze	-0.05026482
-4.983729	amazed	-0.08425207
-4.154518	amazement	-0.3731987
-4.740737	amazing	-0.1626322
-5.585464	ambassador	-0.002777938
-4.886841	amber	-0.09327966
-5.585464	ambiguous	-0.002777938
-5.28465	ambition	-0.0189708
-5.585464	ambitions	-0.02613434
-5.585464	ambitious	-0.002777938
-5.585464	ambuscade	-0.007537337
-5.28465	amends	-0.04856236
-5.585464	amethyst	-0.02180725
-5.585464	amiability	-0.007537337
-4.740737	amiable	-0.1309772
-4.330601	amid	-0.3046191
-5.585464	amidst	-0.009368807
-4.807674	amiss	-0.1171325
-5.585464	ammonia	-0.01834188
-5.585464	ammunition	-0.02732607
-5.585464	amnesty	-0.02180725
-3.61741	among	-0.8083708
-5.585464	amongst	-0.009368807
-4.471921	amount	-0.1877419
-5.108632	amounted	-0.04383549
-5.585464	amounts	-0.01890069
-5.28465	ample	-0.04399951
-5.585464	amplifying	-0.02582459
-5.28465	amply	-0.05307663
-5.108632	amuse	-0.07255791
-4.631607	amused	-0.1670359
-4.682753	amusement	-0.1274865
-4.983729	amusing	-0.06599233
-5.585464	amyl	-0.002777938
-2.563469	an	-1.844824
-5.585464	anaemic	-0.02733734
-4.585854	analysis	-0.1509366
-4.983729	analytical	-0.1003211
-5.28465	analyze	-0.04906993
-5.585464	anatomy	-0.02735537
-5.28465	ancestor	-0.007514611
-5.28465	ancestors	-0.02722269
-5.585464	ancestral	-0.02697318
-5.585464	ancestry	-0.01834188
-4.631607	ancient	-0.1910648
-1.687337	and	-2.362109
-5.585464	angel	-0.002777938
-4.307121	anger	-0.2855412
-4.50668	angle	-0.2232507
-5.585464	angles	-0.007537337
-5.585464	angrily	-0.007537337
-4.307121	angry	-0.2789433
-5.585464	anguish	-0.02504697
-5.585464	angular	-0.02731367
-4.50668	animal	-0.2006437
-5.28465	animals	-0.02847675
-5.28465	animated	-0.03323776
-5.585464	animosity	-0.0249416
-5.28465	aniseed	-0.05098789
-4.983729	ankle	-0.09605204
-5.585464	ankle-deep	-0.02470243
-5.108632	ankles	-0.06566174
-5.585464	annals	-0.002777938
-5.108632	announce	-0.07135784
-4.585854	announced	-0.1722152
-4.983729	announcement	-0.0623874
-4.631607	annoyance	-0.1501394
-4.983729	annoyed	-0.06907697
-5.585464	annoying	-0.002777938
-5.585464	annoys	-0.0233329
-5.585464	annual	-0.02732719
-5.585464	anoints	-0.02470243
-5.585464	anomaly	-0.02496426
-3.55247	another	-0.8139297
-3.747042	answer	-0.6088705
-5.585464	answerable	-0.01890069
-3.517708	answered	-0.8219041
-4.740737	answering	-0.1084781
-4.631607	answers	-0.1487678
-5.108632	antagonist	-0.07253057
-5.585464	ante-room	-0.01865242
-5.28465	antecedents	-0.007514611
-5.585464	anteroom	-0.002777938
-5.108632	anticipate	-0.0696068
-5.108632	anticipated	-0.02705717
-5.28465	antics	-0.04436238
-5.585464	antidote	-0.01890069
-5.585464	antiquity	-0.01890069
-5.585464	anxieties	-0.007537337
-4.439738	anxiety	-0.2457052
-4.108762	anxious	-0.4259583
-5.28465	anxiously	-0.04527153
-2.945415	any	-1.405021
-5.28465	anybody	-0.05153788
-4.631607	anyhow	-0.1532532
-3.807739	anyone	-0.5931184
-3.44288	anything	-0.8833382
-4.740737	anywhere	-0.1107825
-4.807674	apart	-0.09573342
-4.631607	apartment	-0.1514561
-5.28465	ape	-0.02803168
-4.983729	aperture	-0.05447875
-4.886841	apiece	-0.1011236
-4.983729	apologies	-0.05230895
-5.585464	apologise	-0.01890069
-4.983729	apologize	-0.0734003
-5.585464	apologized	-0.01890069
-5.585464	apologizing	-0.01890069
-4.544466	apology	-0.162209
-5.585464	apoplexy	-0.007537337
-5.585464	appalled	-0.02504697
-5.585464	apparelled	-0.002777938
-5.108632	apparent	-0.07172184
-4.409777	apparently	-0.2408373
-5.28465	apparition	-0.03085785
-4.471921	appeal	-0.2171702
-4.983729	appealed	-0.09187086
-5.585464	appealing	-0.01890069
-5.108632	appeals	-0.06840562
-3.962638	appear	-0.4971146
-3.904647	appearance	-0.5257006
-5.28465	appearances	-0.02795287
-3.734633	appeared	-0.6437068
-5.585464	appearing	-0.01890069
-3.994822	appears	-0.4802022
-4.983729	appetite	-0.07747204
-5.28465	applause	-0.007514611
-5.108632	apple	-0.02213741
-5.28465	applicant	-0.04542066
-5.108632	application	-0.04274349
-4.807674	applied	-0.08930486
-4.631607	apply	-0.1219139
-5.28465	applying	-0.05006855
-5.108632	appointed	-0.07671207
-4.243455	appointment	-0.288913
-5.585464	appreciable	-0.02735424
-4.807674	appreciate	-0.1189441
-4.983729	appreciated	-0.07354423
-5.585464	apprehended	-0.007537337
-5.585464	apprehension	-0.002777938
-5.585464	apprenticed	-0.01890069
-4.585854	approach	-0.1559069
-4.123485	approached	-0.3663173
-4.682753	approaching	-0.1469337
-5.28465	appropriate	-0.04716289
-5.585464	approve	-0.007537337
-5.108632	approvingly	-0.0568505
-5.585464	apron	-0.007537337
-5.585464	apt	-0.01890069
-5.585464	aptitudes	-0.007537337
-4.886841	aquiline	-0.09708136
-5.585464	arable	-0.02734184
-5.28465	arbitrary	-0.0427953
-5.585464	arc-and-compass	-0.02735537
-5.585464	archaeologist	-0.002777938
-5.28465	arched	-0.0526008
-5.585464	architects	-0.002777938
-5.585464	architectural	-0.02735424
-5.28465	architecture	-0.0442664
-5.585464	archways	-0.01834188
-5.108632	ardent	-0.04423239
-5.585464	arduous	-0.02720546
-2.613694	are	-1.559207
-5.28465	area	-0.04436529
-4.983729	argue	-0.09716192
-5.28465	argued	-0.04718494
-5.585464	argues	-0.009368807
-5.28465	arguing	-0.01442945
-4.585854	argument	-0.1506251
-5.28465	arguments	-0.007514611
-5.108632	aright	-0.04277143
-5.108632	arise	-0.05595761
-5.585464	aristocrat	-0.02147498
-4.740737	aristocratic	-0.1627867
-3.962638	arm	-0.472028
-4.439738	arm-chair	-0.2134299
-4.409777	armchair	-0.2341328
-5.585464	armchairs	-0.007537337
-4.740737	armed	-0.102182
-5.585464	armor	-0.02504697
-5.585464	armory	-0.01865242
-4.108762	arms	-0.3687748
-4.886841	army	-0.0766286
-5.28465	arose	-0.007514611
-4.439738	around	-0.2196583
-4.983729	arouse	-0.07949515
-4.381751	aroused	-0.2540227
-4.682753	arrange	-0.1540763
-4.439738	arranged	-0.2163457
-5.28465	arrangement	-0.0390543
-4.983729	arrangements	-0.05099066
-5.585464	arranges	-0.02147498
-5.585464	arranging	-0.02354895
-5.28465	array	-0.04436238
-5.585464	arrears	-0.01865242
-4.138724	arrest	-0.3346254
-4.154518	arrested	-0.3366474
-4.983729	arresting	-0.07867592
-4.471921	arrival	-0.195258
-4.585854	arrive	-0.1947684
-4.06737	arrived	-0.3885918
-5.585464	arrives	-0.002777938
-5.585464	arriving	-0.02626089
-5.585464	arrows	-0.002777938
-4.439738	art	-0.2386643
-5.585464	arteries	-0.02496426
-5.585464	artery	-0.007537337
-4.631607	article	-0.1363815
-4.50668	articles	-0.1804717
-5.108632	artificial	-0.07734141
-5.28465	artillery	-0.007514611
-4.886841	artist	-0.07298948
-5.28465	artistic	-0.0332473
-5.585464	artists	-0.002777938
-2.281838	as	-1.905281
-5.108632	ascend	-0.03870209
-5.28465	ascendancy	-0.0524812
-4.50668	ascended	-0.1942903
-5.585464	ascending	-0.009368807
-4.886841	ascertain	-0.06757461
-4.807674	ascertained	-0.09117901
-5.108632	ascertaining	-0.07064386
-4.983729	ascetic	-0.07530458
-5.585464	ascetic-looking	-0.002777938
-4.807674	ash	-0.1063321
-4.585854	ashamed	-0.2000699
-5.108632	ashen	-0.07682719
-4.631607	ashes	-0.1427332
-5.585464	ashore	-0.007537337
-5.585464	ashy	-0.02730353
-4.50668	aside	-0.2150795
-3.532815	ask	-0.7837085
-4.983729	askance	-0.08898217
-3.21854	asked	-1.068004
-4.330601	asking	-0.3065959
-5.28465	asks	-0.03092545
-4.439738	asleep	-0.2259021
-5.108632	aspect	-0.03178726
-5.585464	asperities	-0.01865242
-5.28465	asperity	-0.02746542
-5.28465	asphalt	-0.05003224
-5.585464	aspired	-0.01890069
-5.585464	ass	-0.0178964
-5.28465	assailant	-0.007514611
-4.983729	assailants	-0.05350503
-4.983729	assassin	-0.07942639
-4.886841	assault	-0.07836261
