
\data\
ngram 1=15398
ngram 2=111577

\1-grams:
-2.416675	!	-2.196136
-4.174571	&	-0.2158828
-3.152901	'	-0.8757326
-3.52299	''	-1.728431
-4.890518	'16	-0.1365363
-4.890518	'45	-0.1344974
-4.890518	'55	-0.1352788
-4.890518	'60	-0.1352281
-4.890518	'77	-0.1162636
-4.890518	'82	-0.1292568
-4.772944	'83	-0.1934816
-4.772944	'84	-0.1149383
-4.772944	'85	-0.1764325
-4.655835	'87	-0.1151981
-4.772944	'89	-0.1141194
-4.890518	'90	-0.1162636
-4.655835	'95	-0.08904566
-4.890518	'97	-0.1326083
-4.507926	'A	-0.1578856
-4.890518	'About	-0.1312827
-4.890518	'Absolute	-0.1292568
-4.890518	'Absolutely	-0.1187362
-4.890518	'After	-0.1364717
-4.890518	'Ah	-0.6604576
-4.890518	'Alas	-0.1162636
-4.772944	'All	-0.2111737
-4.890518	'Almost	-0.1364756
-4.890518	'American	-0.1365363
-4.890518	'Ample	-0.1187362
-4.772944	'And	-0.2308325
-4.890518	'Answer	-0.1350016
-4.890518	'Any	-0.1364115
-4.890518	'Anybody	-0.136534
-4.890518	'Anything	-0.2608287
-4.890518	'Apoplexy	-0.1187362
-4.772944	'Are	-0.1324729
-4.890518	'Arms	-0.1362692
-4.772944	'Arthur	-0.1348513
-4.890518	'As	-0.136534
-4.890518	'Ask	-0.1336636
-4.890518	'At	-0.260891
-4.890518	'Ay	-0.1162636
-4.890518	'Baron	-0.136538
-4.890518	'Be	-0.1294428
-4.890518	'Because	-0.1362498
-4.890518	'Beddoes	-0.136534
-4.890518	'Bless	-0.134646
-4.890518	'Breckinridge	-0.1162636
-4.890518	'British	-0.136538
-4.772944	'Brunton	-0.1158292
-4.772944	'But	-0.1535674
-4.772944	'By	-0.2574593
-4.890518	'C.P.R	-0.1187362
-4.890518	'COME	-0.1187362
-4.890518	'Can	-0.2112287
-4.890518	'Catullus	-0.1162636
-4.890518	'Certainly	-0.2400789
-4.890518	'Co	-0.1187362
-4.890518	'Colonel	-0.1365363
-4.655835	'Come	-0.2594973
-4.890518	'Company	-0.1187362
-4.397796	'Cooee	-0.3694823
-4.890518	'Crime	-0.1294428
-4.890518	'D'you	-0.1364523
-4.890518	'DEAR	-0.136538
-4.890518	'Danger	-0.1343918
-4.890518	'Dear	-0.259382
-4.890518	'Dearest	-0.1361758
-4.890518	'Death	-0.1162636
-4.890518	'December	-0.136534
-4.890518	'Did	-0.1350446
-4.890518	'Do	-0.3694745
-4.890518	'Done	-0.1348766
-4.890518	'Drive	-0.1360316
-4.890518	'E.B	-0.1187362
-4.890518	'ELSIE	-0.1187362
-4.890518	'Eg	-0.1187362
-4.890518	'Elrige	-0.1352281
-4.772944	'Elsie	-0.09758642
-4.890518	'Encyclopaedia	-0.1162559
-4.890518	'Entirely	-0.1187362
-4.890518	'Fire	-0.1348766
-4.890518	'Five	-0.1364834
-4.507926	'For	-0.1570282
-4.890518	'Found	-0.1331893
-4.772944	'Frisco	-0.2219668
-4.890518	'Fritz	-0.1348766
-4.772944	'From	-0.1312357
-4.890518	'G	-0.1362381
-4.890518	'Gesellschaft	-0.1162636
-4.890518	'Go	-0.1352554
-4.890518	'Gone	-0.1301821
-4.890518	'Good	-0.1348766
-4.890518	'Good-evening	-0.1162636
-4.890518	'H	-0.1187362
-4.890518	'Ha	-0.1162636
-4.890518	'Hampshire	-0.1187362
-4.890518	'Harold	-0.1162636
-4.890518	'Have	-0.5344588
-4.772944	'He	-0.1502677
-4.890518	'Head-keeper	-0.1364717
-4.890518	'Heavy	-0.1365363
-4.772944	'Here	-0.1327303
-4.890518	'His	-0.1356924
-4.890518	'Holdernesse	-0.1162636
-4.890518	'Homer	-0.1162636
-4.890518	'Hosmer	-0.136534
-4.772944	'How	-0.129422
-4.890518	'Hudson	-0.133452
-4.890518	'Hullo	-0.259257
-4.890518	'Huxtable	-0.1352281
-4.890518	'Hyams	-0.1162636
-4.310019	'I	-0.3815403
-4.772944	'If	-0.3849869
-4.890518	'Impossible	-0.1348766
-4.890518	'In	-0.1259056
-4.890518	'Inspector	-0.1364951
-4.655835	'Is	-0.1232693
-4.655835	'It	-0.569829
-4.772944	'J.H.N	-0.2431166
-4.890518	'Jack	-0.1162636
-4.890518	'Jephro	-0.1162636
-4.772944	'K	-0.2431166
-4.890518	'Keep	-0.1354194
-4.890518	'Ku	-0.1365363
-4.890518	'L'homme	-0.1365363
-4.890518	'Lately	-0.1364678
-4.655835	'Let	-0.2291165
-4.890518	'Letters	-0.1162636
-4.507926	'Lone	-0.4394368
-4.890518	'Look	-0.1288471
-4.772944	'Lord	-0.1365267
-4.890518	'Lost	-0.1162636
-4.890518	'MY	-0.1365284
-4.890518	'Made	-0.1354545
-4.890518	'Mawson	-0.1360978
-4.772944	'May	-0.2586704
-4.890518	'Most	-0.1365223
-4.890518	'Mother	-0.1162636
-4.772944	'Mr	-0.518549
-4.890518	'Mrs	-0.1187362
-4.772944	'My	-0.1814661
-4.890518	'Mysterious	-0.136538
-4.890518	'Neither	-0.1346968
-4.772944	'Never	-0.1412165
-4.890518	'Next	-0.1364717
-4.890518	'No	-0.5572796
-4.890518	'Norbury	-0.1362381
-4.890518	'North	-0.1344426
-4.772944	'Not	-0.1966613
-4.890518	'Nothing	-0.1187362
-4.772944	'Now	-0.2569887
-4.890518	'Oct	-0.1187362
-4.890518	'Of	-0.2149811
-4.655835	'Oh	-0.9810658
-4.890518	'Omne	-0.136538
-4.772944	'On	-0.2285093
-4.890518	'One	-0.1279251
-4.890518	'Only	-0.2233897
-4.890518	'Or	-0.2545624
-4.890518	'Over	-0.1312827
-4.890518	'P	-0.1162636
-4.772944	'P.C	-0.2431166
-4.890518	'Papier	-0.1187362
-4.890518	'Perfectly	-0.1187362
-4.772944	'Perhaps	-0.1337715
-4.890518	'Photography	-0.1343918
-4.890518	'Pink	-0.136538
-4.772944	'Pon	-0.3126608
-4.890518	'Pondicherry	-0.1365301
-4.890518	'Pooh	-0.1145167
-4.890518	'Pray	-0.1162636
-4.890518	'Precisely	-0.1747825
-4.890518	'Pretty	-0.1364834
-4.772944	'Put	-0.255663
-4.890518	'Quite	-0.2150544
-4.890518	'Ragged	-0.1365363
-4.890518	'Really	-0.240644
-4.890518	'Remarkable	-0.1337381
-4.890518	'Remember	-0.1162636
-4.890518	'Right	-0.2604471
-4.890518	'Rome	-0.133354
-4.772944	'S	-0.1365324
-4.890518	'See	-0.1326083
-4.890518	'Seven	-0.1301821
-4.890518	'She	-0.135753
-4.890518	'Show	-0.13515
-4.890518	'Singular	-0.136538
-4.890518	'Sir	-0.1162636
-4.772944	'So	-0.23921
-4.890518	'Sold	-0.1301821
-4.772944	'Some	-0.1357611
-4.890518	'Sophy	-0.1348766
-4.890518	'Ss	-0.1187362
-4.890518	'Stand	-0.1344426
-4.890518	'Stolen	-0.1348766
-4.890518	'Such	-0.1162636
-4.890518	'Sumner	-0.1162636
-4.890518	'Surely	-0.1323943
-4.772944	'Tell	-0.4372188
-4.890518	'Ten	-0.1301821
-4.890518	'Thank	-0.2607367
-4.772944	'That	-0.3403574
-4.397796	'The	-0.1577839
-4.772944	'Then	-0.1607201
-4.507926	'There	-0.4144468
-4.890518	'These	-0.1357626
-4.772944	'They	-0.1354526
-4.655835	'This	-0.3326745
-4.890518	'Three	-0.1365363
-4.772944	'To	-0.1364738
-4.890518	'Tragedy	-0.136534
-4.772944	'Trust	-0.259382
-4.890518	'Tut	-0.4191664
-4.890518	'US	-0.1162636
-4.890518	'Under	-0.1312827
-4.890518	'Undoubtedly	-0.1355871
-4.890518	'Until	-0.134646
-4.772944	'Varsity	-0.1151123
-4.890518	'Very	-0.2615491
-4.890518	'Wandsworth	-0.136538
-4.772944	'We	-0.2430821
-4.772944	'Well	-0.9456416
-4.655835	'What	-0.2111009
-4.890518	'Whatever	-0.1351851
-4.772944	'When	-0.1319425
-4.772944	'Where	-0.1781555
-4.890518	'Whereas	-0.1162636
-4.772944	'Which	-0.1340696
-4.772944	'Who	-0.1349823
-4.890518	'Whose	-0.133354
-4.655835	'Why	-0.5535327
-4.890518	'Within	-0.1312827
-4.890518	'Wonderful	-0.1348766
-4.890518	'Yes	-0.8196185
-4.655835	'You	-0.3943869
-4.772944	'Your	-0.1356927
-4.890518	'a	-0.1365145
-4.890518	'actually	-0.1362498
-4.655835	'and	-0.1950319
-4.890518	'are	-0.1301821
-4.655835	'at	-0.2623914
-4.890518	'band	-0.1162636
-4.772944	'bus	-0.1282564
-4.772944	'but	-0.1931068
-4.890518	'can	-0.134646
-4.310019	'd	-0.2364651
-4.890518	'death	-0.134067
-4.890518	'did	-0.1335168
-4.890518	'e	-0.1148851
-4.772944	'em	-0.1152409
-4.890518	'first	-0.1301821
-4.890518	'fly-paper	-0.1362381
-4.772944	'for	-0.1345503
-4.890518	'get	-0.1359809
-4.890518	'has	-0.1360043
-4.890518	'have	-0.134646
-4.890518	'he	-0.133354
-4.890518	'hen-pheasant	-0.1362381
-4.890518	'here	-0.1352281
-4.890518	'his	-0.1363744
-4.655835	'idee	-0.314502
-4.890518	'if	-0.134646
-4.890518	'in	-0.1364523
-4.890518	'is	-0.130859
-4.772944	'it	-0.2121473
-4.890518	'journeys	-0.1363744
-4.890518	'jumping	-0.1331618
-4.890518	'learn	-0.1362381
-4.890518	'lever	-0.1162636
-4.890518	'life	-0.136534
-3.988217	'll	-0.3623095
-4.772944	'm	-0.264929
-4.890518	'maybe	-0.1362381
-4.890518	'my	-0.1362069
-4.890518	'neither	-0.1365363
-4.890518	'never	-0.1187362
-4.890518	'only	-0.1352671
-4.890518	'other	-0.1363861
-4.890518	'please	-0.1187362
-4.890518	'pology	-0.1162636
-4.772944	'quarter	-0.2606185
-4.890518	'r	-0.1173656
-4.397796	're	-0.1754625
-4.890518	'remember	-0.1354194
-2.519346	's	-0.1660409
-4.890518	'seeing	-0.1346968
-4.890518	'sent	-0.1312827
-4.890518	'sever	-0.1162636
-4.890518	'sir	-0.1362381
-4.890518	'suicide	-0.1187362
-4.890518	'supply	-0.1364717
-4.890518	't	-0.1362381
-4.890518	'take	-0.1346968
-4.890518	'that	-0.1445443
-4.655835	'the	-0.127868
-4.890518	'there	-0.2122492
-4.890518	'this	-0.1343918
-4.655835	'to	-0.1614334
-4.772944	'tween-decks	-0.1207411
-4.655835	'twelve	-0.1947896
-4.890518	'un	-0.1362381
-4.071474	've	-0.4082178
-4.772944	'we	-0.1804619
-4.890518	'were	-0.133452
-4.890518	'what	-0.1362381
-4.890518	'when	-0.1337715
-4.890518	'which	-0.1346011
-4.890518	'wilful	-0.1364289
-4.772944	'with	-0.1301447
-4.890518	'would	-0.1361758
-4.890518	'ye	-0.1362908
-4.655835	'you	-0.1479174
-4.027854	(	-0.1837426
-4.071474	)	-0.261186
-4.890518	*****	-0.9165269
-1.340817	,	-0.7718384
-4.890518	-	-0.1364133
-2.327859	--	-0.3669339
-1.396058	.	-3.394899
-4.772944	...	-0.1343195
-4.890518	..E	-0.136538
-4.890518	.ERE	-0.136538
-4.890518	.M	-0.136538
-4.890518	.RE.ARE	-0.1365301
-4.772944	1	-0.1111418
-4.890518	1/2	-0.136534
-4.890518	10	-0.1162636
-4.655835	100	-0.3143735
-4.174571	1000	-0.4895065
-4.890518	10s	-0.1187362
-4.890518	10s.	-0.1162636
-4.890518	10th	-0.1187362
-4.890518	11.10	-0.134067
-4.890518	1100	-0.1364094
-4.890518	117	-0.240644
-4.772944	117th	-0.1364271
-4.655835	11:15	-0.2967003
-4.890518	11:30	-0.1187362
-4.890518	12.22	-0.1301821
-4.772944	120	-0.2607898
-4.655835	126b	-0.2121927
-4.890518	12s	-0.1187362
-4.890518	12th	-0.1187362
-4.772944	131	-0.1129209
-4.890518	13th	-0.1344974
-4.890518	14	-0.1362381
-4.890518	14,000	-0.1364094
-4.890518	140	-0.1364873
-4.890518	14th	-0.1271003
-4.890518	15	-0.2609105
-4.890518	150	-0.1365029
-4.772944	16	-0.1129209
-4.890518	1607	-0.1162636
-4.890518	16A	-0.1162636
-4.890518	17	-0.1364934
-4.890518	1840	-0.1187362
-4.890518	1846	-0.1187362
-4.890518	1855	-0.1162636
-4.890518	1858	-0.1187362
-4.655835	1869	-0.1940666
-4.890518	1870	-0.1350446
-4.890518	1872	-0.1351929
-4.890518	1875	-0.1187362
-4.890518	1878	-0.1162636
-4.890518	1881	-0.1351929
-4.507926	1883	-0.1610525
-4.772944	1884	-0.0953477
-4.890518	1887	-0.1171743
-4.890518	1888	-0.1166042
-4.772944	1890	-0.1964882
-4.772944	1891	-0.240644
-4.655835	1894	-0.1055349
-4.890518	1895	-0.1342901
-4.890518	18th	-0.1187362
-4.890518	1900	-0.1187362
-4.890518	1901	-0.136538
-4.890518	1903	-0.3144669
-4.890518	1904	-0.8373457
-4.890518	19th	-0.1187362
-4.890518	1s.	-0.1162636
-4.772944	1st	-0.131277
-4.507926	2	-0.2128448
-4.890518	2,000	-0.1365363
-4.890518	2.40	-0.1364873
-4.890518	20	-0.1362381
-4.890518	200	-0.1364094
-4.890518	20th	-0.1187362
-4.890518	220	-0.1364094
-4.890518	221	-0.1365262
-4.890518	221B	-0.1162636
-4.890518	226	-0.1365301
-4.655835	22nd	-0.09757842
-4.772944	23d	-0.1079921
-4.890518	23rd	-0.1281709
-4.890518	2473	-0.1187362
-4.890518	249	-0.1162636
-4.890518	24th	-0.1187362
-4.655835	25	-0.2152421
-4.890518	250	-0.1364094
-4.772944	26	-0.1162442
-4.890518	26s	-0.1187362
-4.655835	27	-0.1160879
-4.890518	270	-0.1365363
-4.890518	28	-0.1365195
-4.890518	2nd	-0.1187362
-4.772944	2s	-0.2431166
-4.890518	3	-0.1181053
-4.890518	3.30	-0.136538
-4.890518	3.36	-0.1162636
-4.655835	30	-0.1949692
-4.772944	30,000	-0.1364021
-4.890518	30th	-0.1281709
-4.890518	31	-0.136538
-4.890518	3d	-0.1281709
-4.655835	3rd	-0.0883524
-4.310019	4	-0.3111209
-4.890518	40	-0.1364094
-4.890518	4000	-0.1364094
-4.890518	403	-0.1365262
-4.890518	421	-0.136534
-4.890518	426	-0.1162636
-4.772944	427	-0.2942277
-4.890518	46	-0.1162636
-4.890518	4700	-0.1364094
-4.890518	4:35	-0.1364873
-4.890518	4d	-0.1187362
-4.655835	4th	-0.08744685
-4.890518	5	-0.1187362
-4.890518	50	-0.1365363
-4.890518	50,000	-0.1364094
-4.890518	5:14	-0.134067
-4.890518	5:15	-0.1364133
-4.890518	6	-0.1187362
-4.890518	6.30	-0.1344974
-4.890518	60	-0.1364094
-4.890518	6:30	-0.1352437
-4.890518	6d	-0.1187362
-4.890518	6d.	-0.240644
-4.655835	6th	-0.09756316
-4.890518	7	-0.1365262
-4.890518	700	-0.1364094
-4.890518	750	-0.1364094
-4.890518	7s	-0.1187362
-4.772944	7th	-0.09758642
-4.890518	88	-0.1364094
-4.890518	8d	-0.1187362
-4.890518	8s.	-0.1162636
-4.890518	8th	-0.136534
-4.890518	9	-0.1162636
-4.890518	9.13	-0.1187362
-4.890518	9.50	-0.1162636
-4.890518	90	-0.133354
-4.772944	9th	-0.1187286
-3.199604	:	-0.4288026
-2.507916	;	-0.7128932
-4.310019	</s>
-99	<s>	-1.249512
-2.115373	?	-2.590167
-4.027854	A	-0.2072072
-4.655835	A.	-0.171739
-4.890518	A.E	-0.136538
-4.890518	ABANDON	-0.1365363
-4.890518	ABE	-0.136538
-4.890518	ADLER	-0.1187362
-4.655835	ADVENTURE	-0.3107635
-4.890518	ADVENTURES	-0.1365223
-4.890518	ADVISE	-0.1365301
-4.890518	AFTER	-0.1312827
-4.890518	AGENT	-0.1187362
-4.772944	ALIBI	-0.1154126
-4.772944	AM	-0.2153768
-4.890518	APPLEDORE	-0.136538
-4.890518	APRIL	-0.1162636
-4.890518	ARAT	-0.1162636
-4.890518	ARMSTRONG	-0.1187362
-4.772944	ARTHUR	-0.9835088
-4.890518	AT	-0.136538
-4.890518	AUGUST	-0.1162636
-4.890518	AUGUSTUS	-0.136538
-4.507926	Abbey	-0.5551455
-4.890518	Abbots	-0.1292568
-4.397796	Abe	-0.5036026
-4.772944	Aberdeen	-0.1357163
-4.890518	Abergavenny	-0.1364289
-4.890518	Abernetty	-0.1364445
-4.772944	About	-0.1996861
-4.890518	Above	-0.3058283
-4.890518	Absolute	-0.136538
-4.772944	Absolutely	-0.1803785
-4.890518	Accepting	-0.133452
-4.890518	According	-0.1301821
-4.890518	Accustomed	-0.2581185
-4.890518	Across	-0.1290927
-4.237036	Acton	-0.221843
-4.310019	Adair	-0.1703741
-4.890518	Adams	-0.09758642
-4.890518	Add	-0.1301821
-4.890518	Addleton	-0.1364951
-4.890518	Address	-0.2606496
-4.890518	Adelaide	-0.240644
-4.890518	Adelaide-Southampton	-0.1363687
-4.772944	Adler	-0.2678529
-4.890518	Admirable	-0.1348766
-4.890518	Admiralty	-0.1133235
-4.507926	Adventure	-0.7022995
-4.890518	Affair	-0.1331893
-4.772944	Affairs	-0.09758642
-4.772944	Afghan	-0.1365228
-4.890518	Afghanistan	-0.2401786
-4.890518	Afghans	-0.1187362
-4.655835	Africa	-0.1156946
-4.655835	African	-0.1363788
-4.772944	After	-0.34141
-4.890518	Afterwards	-0.1142527
-4.890518	Again	-0.3704514
-4.772944	Agatha	-0.1344017
-4.772944	Agent	-0.240644
-4.890518	Ages	-0.1187362
-4.890518	Agra	-0.1365184
-4.507926	Ah	-1.24131
-4.890518	Aha	-0.1348766
-4.890518	Air	-0.1292568
-4.890518	Alas	-0.3128406
-4.655835	Albert	-0.2153278
-4.890518	Aldersgate	-0.1351929
-4.310019	Aldershot	-0.134096
-4.071474	Alec	-0.3702543
-4.890518	Alexander	-0.1365223
-4.890518	Alexandria	-0.1187362
-4.890518	Alexandrian	-0.1365145
-4.655835	Alexis	-0.09409624
-4.11997	Alice	-0.09643701
-4.890518	Alicia	-0.136538
-4.890518	Alighting	-0.1331893
-4.772944	All	-0.3303372
-4.890518	Allardyce	-0.1352281
-4.890518	Allegro	-0.09758642
-4.890518	Alliance	-0.1162636
-4.890518	Allow	-0.1350016
-4.890518	Almighty	-0.136538
-4.890518	Almost	-0.1331893
-4.890518	Along	-0.1352437
-4.772944	Aloysius	-0.5363429
-4.890518	Alpha	-0.2003639
-4.890518	Alpine	-0.1365223
-4.507926	Alpine-stock	-0.1309855
-4.772944	Already	-0.0990916
-4.890518	Also	-0.1162636
-4.890518	Altogether	-0.1151632
-4.890518	Always	-0.1187362
-4.890518	Am	-0.1342901
-4.772944	Amateur	-0.1365206
-4.890518	Amazement	-0.1292568
-4.237036	America	-0.2829216
-4.174571	American	-0.17013
-4.890518	Americans	-0.1294428
-4.890518	Amid	-0.2067056
-4.772944	Among	-0.1335503
-4.890518	Amoy	-0.136538
-4.890518	Ample	-0.1187362
-4.655835	An	-0.3088868
-4.890518	Anarchist	-0.1355598
-4.655835	And	-0.5347519
-4.890518	Andaman	-0.136538
-4.890518	Anderson	-0.1364133
-4.890518	Andover	-0.1294428
-4.890518	Anerley	-0.1365363
-4.655835	Angel	-0.2647176
-4.890518	Anglia	-0.1187362
-4.890518	Anglo-Indian	-0.1162636
-4.890518	Anna	-0.2388971
-4.890518	Anne	-0.1363588
-4.397796	Annie	-0.1759002
-4.890518	Annoyed	-0.1331893
-4.772944	Another	-0.1156787
-4.890518	Anstruther	-0.1355598
-4.890518	Answer	-0.1350016
-4.772944	Any	-0.2093756
-4.890518	Anybody	-0.1365223
-4.772944	Anyhow	-0.54024
-4.772944	Anyone	-0.1289601
-4.772944	Anything	-0.3094531
-4.890518	Anyway	-0.1162636
-4.890518	Apache	-0.1365363
-4.890518	Apaches	-0.1162636
-4.890518	Apparently	-0.1162636
-4.772944	Appledore	-0.1951039
-4.890518	Apply	-0.1294371
-4.890518	Appreciation	-0.1281709
-4.655835	April	-0.1364819
-4.890518	Arab	-0.1162636
-4.890518	Arabian	-0.136538
-4.772944	Arcade	-0.2942277
-4.890518	Arcadia	-0.1365184
-4.890518	Archery	-0.1292568
-4.772944	Archie	-0.1162577
-4.890518	Architecture	-0.1292568
-4.772944	Arctic	-0.1364955
-4.772944	Are	-0.7374393
-4.890518	Argentine	-0.1162636
-4.890518	Arizona	-0.1162636
-4.310019	Armitage	-0.1385293
-4.890518	Armour	-0.1292568
-4.772944	Arms	-0.1158169
-4.397796	Armstrong	-0.1599961
-4.772944	Army	-0.1162577
-4.890518	Arnsworth	-0.1365363
-4.772944	Arrest	-0.1327343
-4.890518	Arson	-0.1187362
-4.890518	Art	-0.1294428
-3.62491	Arthur	-0.1414875
-4.772944	Artillery	-0.09758642
-4.655835	As	-0.8434108
-4.772944	Ask	-0.2139435
-4.772944	Assizes	-0.3392013
-4.890518	Assure	-0.13515
-4.890518	Astonishment	-0.1331893
-4.772944	At	-0.5989854
-4.890518	Athene	-0.1343879
-4.397796	Athens	-0.1953447
-4.890518	Atkinson	-0.1365363
-4.772944	Atlanta	-0.1545273
-4.890518	Atlantic	-0.1121127
-4.890518	Attica	-0.1162636
-4.890518	Auckland	-0.1187362
-4.655835	August	-0.1074556
-4.890518	Augustine	-0.1187362
-4.772944	Augustus	-0.3595118
-4.890518	Austerlitz	-0.1162636
-4.310019	Australia	-0.1763808
-4.507926	Australian	-0.133956
-4.890518	Australians	-0.1187362
-4.890518	Author	-0.1281709
-4.890518	Aveling	-0.1162636
-4.655835	Avenue	-0.2231552
-4.890518	Awake	-0.1162636
-4.890518	Away	-0.1351599
-4.890518	Ay	-0.1162636
-4.890518	Aye	-0.1162636
-4.890518	Ayrshires	-0.133201
-4.890518	Azure	-0.1162636
-4.397796	B	-0.1627125
-4.890518	BACHELOR	-0.1364912
-4.890518	BALLARAT	-0.1187362
-4.890518	BAND	-0.1365262
-4.890518	BASS	-0.1365363
-4.890518	BEECHES	-0.1363627
-4.890518	BERYL	-0.136538
-4.890518	BLUE	-0.136538
-4.890518	BOHEMIA	-0.1342901
-4.890518	BOSCOMBE	-0.136538
-4.890518	BOTH	-0.1301821
-4.890518	Bachelor	-0.136534
-4.890518	Back	-0.1336814
-4.890518	Backwater	-0.2113498
-4.772944	Bad	-0.1933629
-4.890518	Bagatelle	-0.1364973
-3.736572	Baker	-0.9638068
-4.772944	Bakers	-0.1088205
-4.890518	Baldwin	-0.1162636
-4.655835	Ballarat	-0.1050018
-4.772944	Balmoral	-0.1993159
-4.890518	Balzac	-0.1362069
-4.890518	Band	-0.1187262
-4.890518	Bangor	-0.1162636
-4.655835	Bank	-0.1672576
-4.890518	Bankers	-0.1362381
-4.027854	Bannister	-0.2952994
-4.772944	Bar	-0.1281652
-4.11997	Barclay	-0.2903655
-4.890518	Barclays	-0.1323197
-4.890518	Barnicot	-0.2159783
-4.890518	Baron	-0.136538
-4.890518	Barons	-0.1281709
-4.890518	Barque	-0.1365301
-4.890518	Barrett	-0.1162636
-4.890518	Barton	-0.1162636
-4.772944	Basil	-0.1740573
-4.890518	Basle	-0.1187362
-4.890518	Bathsheba	-0.133201
-4.772944	Baxter	-0.1115318
-4.890518	Bay	-0.1354935
-4.772944	Bayard	-0.1180728
-4.890518	Bayswater	-0.1365363
-4.772944	Be	-0.1149615
-4.890518	Beacons	-0.1281709
-4.772944	Because	-0.2940084
-4.772944	Becher	-0.1296607
-4.655835	Beckenham	-0.1400774
-4.772944	Beddington	-0.1139923
-4.310019	Beddoes	-0.178771
-4.655835	Beecher	-0.11127
-4.890518	Beeches	-0.218808
-4.772944	Before	-0.1689655
-4.890518	Beg	-0.1365301
-4.890518	Behind	-0.1342139
-4.890518	Being	-0.1356261
-4.890518	Belgrade	-0.1162636
-4.890518	Bellinger	-0.1933629
-4.890518	Belminster	-0.1162636
-4.890518	Bengal	-0.1365363
-4.890518	Bengalore	-0.136538
-4.890518	Bentinck	-0.1363783
-4.890518	Bentley	-0.1352281
-4.071474	Beppo	-0.1420328
-4.507926	Berkshire	-0.111303
-4.890518	Bermondsey	-0.1162636
-4.890518	Bermuda	-0.136538
-4.890518	Bert	-0.136538
-4.890518	Bertillon	-0.1365107
-4.890518	Beryl	-0.2609184
-4.890518	Beside	-0.2750925
-4.772944	Besides	-0.8370135
-4.772944	Better	-0.1361955
-4.772944	Between	-0.2354171
-4.890518	Beverley	-0.1162636
-4.772944	Beyond	-0.2066081
-4.655835	Bhurtee	-0.09409624
-4.890518	Bible	-0.1187362
-4.890518	Biddle	-0.1162636
-4.890518	Bill	-0.1162636
-4.890518	Binomial	-0.136538
-4.890518	Birchmoor	-0.1162636
-4.890518	Birds	-0.1162636
-4.507926	Birmingham	-0.1172287
-4.890518	Bite	-0.1343879
-4.027854	Black	-0.4658227
-4.655835	Blackheath	-0.1989363
-4.890518	Blackwater	-0.1162636
-4.890518	Blandford	-0.1363783
-4.890518	Blaze	-0.1505326
-4.772944	Bless	-0.1293618
-3.831024	Blessington	-0.2348565
-4.890518	Block	-0.1312827
-4.890518	Blood	-0.1187362
-4.890518	Bloomsbury	-0.1331893
-4.655835	Blue	-0.1263222
-4.890518	Blues	-0.1360939
-4.772944	Bob	-0.1950711
-4.772944	Bohemia	-0.2482548
-4.507926	Bohemian	-0.1362249
-4.890518	Bohemianism	-0.1281709
-4.890518	Bond	-0.1363783
-4.397796	Boone	-0.1834816
-4.772944	Boots	-0.2575971
-4.890518	Bordeaux	-0.1162636
-4.890518	Borgia	-0.1365262
-4.890518	Borgias	-0.1187362
-4.890518	Born	-0.2080972
-4.237036	Boscombe	-0.7124325
-4.890518	Boswell	-0.1187362
-4.890518	Botany	-0.1365363
-4.772944	Both	-0.1618846
-4.890518	Bought	-0.1187362
-4.890518	Boulevard	-0.136534
-4.772944	Bow	-0.2607587
-4.890518	Boxer	-0.1365363
-4.772944	Brackenstall	-0.1313919
-4.890518	Brackwell	-0.1162636
-4.772944	Bradshaw	-0.09758642
-4.310019	Bradstreet	-0.2680502
-4.890518	Brambletye	-0.2608988
-4.310019	Breckinridge	-0.1899144
-4.397796	Briarbrae	-0.1594487
-4.655835	Bridge	-0.2739323
-4.890518	Briefly	-0.1157271
-4.772944	Bring	-0.2124491
-4.174571	Briony	-0.8787695
-4.507926	Bristol	-0.1202824
-4.655835	Britain	-0.1524812
-4.772944	Britannica	-0.2431166
-4.071474	British	-0.1613046
-4.310019	Brixton	-0.440377
-4.890518	Broads	-0.08981327
-4.890518	Broken	-0.136538
-4.890518	Brooding	-0.1354584
-4.397796	Brook	-0.740311
-4.890518	Brotherhood	-0.1185843
-4.890518	Brothers	-0.3383005
-4.655835	Brown	-0.2602588
-4.890518	Bruce	-0.136538
-3.831024	Brunton	-0.1963345
-4.772944	Brussels	-0.1252547
-4.890518	Buda-Pesth	-0.1187362
-4.772944	Builder	-0.2967003
-4.890518	Buildings	-0.1162636
-4.890518	Bull	-0.1162636
-4.890518	Bunsen	-0.136538
-4.890518	Bureau	-0.1162636
-4.890518	Burglary	-0.259257
-4.890518	Burnwell	-0.08552328
-4.890518	Busybody	-0.136055
-4.655835	But	-0.6006806
-4.655835	By	-0.5499921
-4.890518	By-the-way	-0.1162636
-4.655835	C	-0.1125983
-4.772944	C.	-0.1343704
-4.890518	C.A.M.	-0.1162636
-4.890518	C.B.	-0.1162636
-4.890518	C.P.R.	-0.1162636
-4.772944	CA	-0.2609184
-4.655835	CAN	-0.1353103
-4.890518	CARBUNCLE	-0.1342901
-4.772944	CASE	-0.1187141
-4.890518	CHARLES	-0.136538
-4.890518	COLONEL	-0.1187362
-4.890518	CONAN	-0.9835088
-4.890518	COPPER	-0.136538
-4.890518	CORONET	-0.1363627
-4.772944	COULD	-0.135636
-4.890518	COUPLE	-0.1343762
-4.507926	Cabinet	-0.1107006
-4.890518	Cabul	-0.1187362
-4.890518	Cairns	-0.09726316
-4.890518	Cal.	-0.1162636
-4.890518	Calcutta	-0.1162636
-4.772944	Calhoun	-0.1127606
-4.655835	California	-0.1125942
-4.890518	Californian	-0.1365363
-4.890518	Cam	-0.1355442
-4.772944	Camberwell	-0.1187304
-4.397796	Cambridge	-0.2116197
-4.890518	Cambridgeshire	-0.1365301
-4.890518	Camden	-0.1365107
-4.772944	Campaign	-0.240644
-4.890518	Campden	-0.1365107
-4.772944	Can	-0.6736913
-4.890518	Canadian	-0.1365363
-4.890518	Canal	-0.1187362
-4.890518	Cannon	-0.1363783
-4.772944	Canterbury	-0.09610881
-4.890518	Cape	-0.1365184
-4.507926	Capital	-0.4874127
-4.890518	Capsules	-0.1330519
-4.071474	Captain	-0.3959851
-4.890518	Capture	-0.1281709
-4.890518	Carbuncle	-0.136534
-4.890518	Card	-0.136534
-4.890518	Cardinal	-0.136538
-4.890518	Carefully	-0.1332462
-4.655835	Carey	-0.2872604
-4.890518	Carlo	-0.1162636
-4.890518	Carlsbad	-0.1187362
-4.772944	Carlton	-0.1162291
-4.890518	Carolinas	-0.1162636
-4.890518	Carried	-0.1360589
-4.071474	Carruthers	-0.3274173
-4.890518	Carstairs	-0.1162636
-4.772944	Carston	-0.1362307
-4.772944	Cartwright	-0.1154126
-4.772944	Case	-0.1275178
-4.890518	Cassel-Felstein	-0.1162636
-4.772944	Castle	-0.115972
-4.890518	Cathcart	-0.1365068
-4.772944	Catherine	-0.2609167
-4.772944	Catholic	-0.1365167
-4.890518	Cattle	-0.1343879
-4.890518	Caunter	-0.1162636
-4.890518	Cavalier	-0.1292568
-4.655835	Cavendish	-0.2406095
-4.890518	Cedars	-0.1104874
-4.890518	Celtic	-0.1363121
-4.890518	Central	-0.2609144
-4.772944	Certainly	-0.6388611
-4.890518	Chair	-0.1331893
-4.890518	Chamber	-0.1162636
-4.890518	Chance	-0.1355325
-4.890518	Chancelleries	-0.1281709
-4.890518	Chapel	-0.1336636
-4.890518	Charasiab	-0.1365029
-4.397796	Charing	-0.837379
-3.951898	Charles	-0.3215809
-4.027854	Charlington	-0.3077807
-4.890518	Charming	-0.136538
-4.890518	Charybdis	-0.1335931
-4.655835	Chatham	-0.1450879
-4.890518	Check	-0.1365068
-4.507926	Chesterfield	-0.1407115
-4.890518	Chesterton	-0.1162636
-4.772944	Chicago	-0.0975291
-4.890518	Chief	-0.1365262
-4.890518	Children	-0.1162636
-4.772944	Chiltern	-0.2609167
-4.397796	China	-0.1235137
-4.772944	Chinese	-0.1365324
-4.655835	Chislehurst	-0.136367
-4.507926	Chiswick	-0.09506316
-4.890518	Christ	-0.1352281
-4.174571	Christmas	-0.1675995
-4.655835	Chronicle	-0.1066432
-4.772944	Chubb	-0.1351755
-4.310019	Church	-0.2125649
-4.890518	Cinnamon	-0.1365029
-4.772944	Circumstantial	-0.2607781
-4.772944	Circus	-0.2431166
-4.507926	City	-0.2424225
-4.890518	Civil	-0.314498
-4.890518	Clair	-0.2898557
-4.655835	Clapham	-0.314502
-4.890518	Clara	-0.1364873
-4.890518	Clark	-0.1365363
-4.772944	Clay	-0.2430129
-4.890518	Clearly	-0.1158251
-4.890518	Clerk	-0.1365363
-4.890518	Close	-0.1310168
-4.890518	Clotilde	-0.136538
-4.655835	Club	-0.1583237
-4.890518	Clubs	-0.1362692
-4.890518	Clue	-0.1301821
-4.772944	Co.	-0.485478
-4.890518	Coarse	-0.1364445
-4.890518	Cobb	-0.1162636
-4.772944	Coburg	-0.2153277
-4.890518	Cock	-0.1694542
-4.890518	Cocksure	-0.1162636
-4.890518	Coldstream	-0.1365363
-4.890518	Collar	-0.1292568
-4.507926	College	-0.1339847
-3.715853	Colonel	-0.4789131
-4.890518	Colonial	-0.1365068
-4.890518	Colonies	-0.1187362
-4.890518	Colonna	-0.1352281
-4.890518	Colony	-0.1281709
-4.772944	Come	-0.4380969
-4.890518	Coming	-0.1343879
-4.890518	Common	-0.1162636
-4.890518	Commons	-0.1162636
-4.507926	Company	-0.3401318
-4.890518	Conan	-0.2609184
-4.890518	Concealment	-0.1360667
-4.890518	Conduit	-0.1363783
-4.890518	Confess	-0.1162636
-4.890518	Conk-Singleton	-0.1365301
-4.890518	Conquest	-0.1294428
-4.772944	Consider	-0.2094409
-4.890518	Considering	-0.1362381
-4.772944	Constable	-0.1365307
-4.890518	Constabulary	-0.1162636
-4.890518	Contents	-0.1362692
-4.890518	Continent	-0.2394782
-4.772944	Continental	-0.1365089
-4.890518	Contralto	-0.1344974
-4.772944	Convinced	-0.2569887
-4.890518	Cooee	-0.1348766
-4.890518	Cook	-0.1162636
-4.655835	Copper	-0.7404708
-4.890518	Coptic	-0.136538
-4.890518	Coram	-0.2343328
-4.772944	Cornelius	-0.1422502
-4.772944	Cornwall	-0.1107496
-4.890518	Coroner	-0.740202
-4.890518	Coronet	-0.1331936
-4.890518	Corporal	-0.1365145
-4.772944	Corporation	-0.3143423
-4.890518	Cosmopolitan	-0.09758031
-4.890518	Costa	-0.136538
-4.772944	Could	-0.3585393
-4.772944	Count	-0.2153238
-4.890518	Countess	-0.2201792
-4.890518	Counties	-0.2609144
-4.890518	County	-0.2525513
-4.507926	Court	-0.2390067
-4.655835	Covent	-0.314502
-4.890518	Coventry	-0.09758642
-4.655835	Coxon	-0.2606244
-4.890518	Crane	-0.136538
-4.890518	Creina	-0.1162636
-4.890518	Creole	-0.1365301
-4.890518	Crewe	-0.1187362
-4.890518	Crime	-0.1343918
-4.890518	Crimea	-0.1292568
-4.772944	Crimean	-0.1357413
-4.890518	Criminal	-0.2431166
-4.890518	Criminals	-0.1348766
-4.772944	Croker	-0.3324988
-4.890518	Crooked	-0.1365301
-4.772944	Crooksbury	-0.2609027
-4.890518	Crosby	-0.1312827
-4.772944	Cross	-0.1567132
-4.890518	Crowder	-0.2942277
-4.772944	Crown	-0.1625488
-4.890518	Crystal	-0.136538
-4.772944	Cubitt	-0.1995879
-4.174571	Cunningham	-0.3063992
-4.655835	Cunninghams	-0.1313248
-4.772944	Cup	-0.1918389
-4.890518	Curse	-0.1312827
-4.772944	Cusack	-0.113223
-4.890518	Cuvier	-0.1359069
-4.890518	Cyclist	-0.2431166
-4.071474	Cyril	-0.3029643
-4.655835	D	-0.1162231
-4.772944	D'you	-0.1362051
-4.890518	D.D.	-0.1162636
-4.890518	DAILY	-0.2609184
-4.890518	DE	-0.136538
-4.655835	DEAR	-0.4394408
-4.890518	DEAREST	-0.136538
-4.890518	DEBUTANTE	-0.1281709
-4.772944	DECEMBER	-0.240644
-4.890518	DEFINITELY	-0.136538
-4.890518	DETOUR	-0.1355325
-4.890518	DID	-0.1342901
-4.890518	DISSOLVED	-0.1187362
-4.890518	DO	-0.1363277
-4.890518	DOES	-0.1365301
-4.890518	DOYLE	-0.6613857
-4.890518	Dacre	-0.1365184
-4.890518	Daily	-0.1365289
-4.890518	Damp	-0.1355598
-4.890518	Dancing	-0.2609144
-4.890518	Dane	-0.1162636
-4.890518	Danger	-0.1348766
-4.890518	Dantzig	-0.1162636
-4.890518	Darjeeling	-0.1187362
-4.772944	Dark	-0.1361879
-4.890518	Darlington	-0.136538
-4.310019	Dartmoor	-0.1596858
-4.890518	Data	-0.1348766
-4.890518	Daubensee	-0.1162636
-4.772944	Daulat	-0.2609184
-4.890518	Davenport	-0.1187362
-4.507926	David	-0.1127222
-4.890518	Davos	-0.136538
-4.655835	Dawson	-0.1253487
-4.890518	Day	-0.1352281
-4.890518	De	-0.136538
-4.772944	Dear	-0.8940466
-4.772944	December	-0.1344877
-4.655835	Deep	-0.314502
-4.890518	Deeply	-0.1337381
-4.890518	Dei	-0.1187362
-4.890518	Dene	-0.3144747
-4.890518	Depend	-0.1340827
-4.397796	Derbyshire	-0.1372769
-4.397796	Desborough	-0.1398886
-4.890518	Describe	-0.133452
-4.890518	Deserted	-0.134646
-4.890518	Desiring	-0.1301821
-4.890518	Detective	-0.259257
-4.772944	Devine	-0.1962117
-4.507926	Devonshire	-0.1123701
-4.890518	Devoy	-0.240644
-4.655835	Did	-0.5956192
-4.890518	Dieppe	-0.1187362
-4.890518	Dinner	-0.133354
-4.772944	Diogenes	-0.5363468
-4.890518	Dirty	-0.133201
-4.772944	Disappearance	-0.1281635
-4.890518	Disease	-0.133201
-4.890518	Disgraceful	-0.1162636
-4.890518	Disregarding	-0.1346968
-4.890518	Division	-0.1162636
-4.772944	Dixon	-0.2942277
-4.772944	Do	-1.017584
-4.890518	Dock	-0.1292568
-4.890518	Dockyard	-0.1162636
-4.655835	Doctor	-0.6477286
-4.890518	Doctors	-0.1362381
-4.890518	Documents	-0.1162636
-4.772944	Does	-0.1652995
-4.890518	Don	-0.136538
-4.890518	Doncaster	-0.133201
-4.890518	Done	-0.1355091
-4.507926	Donnithorpe	-0.1713492
-4.890518	Dook	-0.1160088
-4.507926	Doran	-0.3244686
-4.890518	Dorking	-0.133201
-4.890518	Dovercourt	-0.1177112
-4.890518	Down	-0.1272894
-4.890518	Downing	-0.1363783
-4.890518	Downs	-0.1162636
-4.890518	Doyle	-0.1187222
-4.772944	Dr	-0.421639
-3.485704	Dr.	-0.7758358
-4.890518	Draper	-0.1352281
-4.890518	Draw	-0.1342022
-4.890518	Drink	-0.1352437
-4.890518	Drive	-0.1343879
-4.772944	Drop	-0.1294885
-4.890518	Dubugue	-0.1281709
-4.772944	Duchess	-0.1291229
-4.310019	Duke	-0.3702864
-4.890518	Dulong	-0.1187362
-4.772944	Duncan	-0.6824592
-4.890518	Dundas	-0.1365363
-4.174571	Dundee	-0.2715018
-4.655835	Dunlop	-0.1393263
-4.772944	During	-0.2485999
-4.890518	Dutch	-0.1340614
-4.310019	E	-0.1757808
-4.507926	E.	-0.136488
-4.890518	E.C	-0.1187362
-4.890518	ELRI.ES	-0.1187362
-4.890518	ELSIE	-0.136538
-4.890518	EMPLOYEE	-0.1162636
-4.890518	ENGINEER	-0.1365363
-4.890518	ESTABLISHED	-0.1187362
-4.890518	EVIDENCE	-0.1365301
-4.772944	Each	-0.1855396
-4.772944	Earl	-0.3579321
-4.890518	Early	-0.1261885
-4.890518	Easier	-0.1312827
-4.310019	East	-0.1561217
-4.890518	East-End	-0.1281709
-4.890518	East-end	-0.1162636
-4.655835	Eastern	-0.1364821
-4.890518	Eat	-0.1331618
-4.890518	Echo	-0.1162636
-4.890518	Edgeware	-0.2608832
-4.507926	Edith	-0.1739495
-4.397796	Eduardo	-0.7404395
-4.890518	Educated	-0.136534
-4.655835	Edward	-0.1292691
-4.655835	Effie	-0.1569114
-4.890518	Eglonitz	-0.1344974
-4.890518	Eglow	-0.1162636
-4.890518	Egria	-0.1187362
-4.890518	Egypt	-0.1162636
-4.772944	Eh	-0.1916067
-4.772944	Eight	-0.1279471
-4.890518	Either	-0.2078477
-4.890518	Electrical	-0.1365301
-4.890518	Elementary	-0.1162636
-4.890518	Eley	-0.1352281
-4.772944	Elias	-0.1292295
-4.890518	Elise	-0.1348766
-4.890518	Elizabethan	-0.1365262
-4.655835	Elrige	-0.3131921
-4.11997	Elsie	-0.089257
-4.890518	Embankment	-0.1343918
-4.890518	Embassies	-0.1357626
-4.772944	Embassy	-0.1901818
-4.772944	Emperor	-0.09709881
-4.890518	Empire	-0.1355325
-4.890518	Empty	-0.260891
-4.772944	Encyclopaedia	-0.1361004
-4.890518	End	-0.09744819
-4.890518	Endell	-0.1363783
-4.890518	Engage	-0.1331618
-4.890518	Engaged	-0.1187362
-4.890518	Engineer	-0.1352281
-3.988217	England	-0.3731546
-4.890518	Englischer	-0.136538
-3.805417	English	-0.1624064
-4.237036	Englishman	-0.2017249
-4.890518	Englishmen	-0.1335207
-4.890518	Englishwoman	-0.1294428
-4.890518	Enough	-0.1281709
-4.890518	Enter	-0.1312827
-4.890518	Entirely	-0.2431166
-4.890518	Escott	-0.1344426
-4.890518	Esq	-0.1187362
-4.890518	Esq.	-0.1162636
-4.890518	Etherege	-0.1162636
-4.655835	Eton	-0.2080615
-4.397796	Europe	-0.2875897
-4.174571	European	-0.2713819
-4.772944	Eustace	-0.1888869
-4.890518	Euston	-0.1187362
-4.890518	Eva	-0.1127426
-4.655835	Evans	-0.1874716
-4.772944	Even	-0.3166326
-4.772944	Evening	-0.1365289
-4.890518	Eventually	-0.1162636
-4.772944	Every	-0.1718375
-4.890518	Everybody	-0.1323118
-4.890518	Everything	-0.2102727
-4.890518	Evidence	-0.1281709
-4.772944	Evidently	-0.1757454
-4.890518	Evil	-0.1365301
-4.890518	Ex-President	-0.136538
-4.890518	Exactly	-0.6536873
-4.890518	Examine	-0.13515
-4.890518	Exceedingly	-0.1355871
-4.772944	Excellent	-0.7666422
-4.772944	Except	-0.1326264
-4.890518	Exchange	-0.1365049
-4.772944	Excuse	-0.7900869
-4.890518	Exeter	-0.1162636
-4.890518	Exit	-0.1312827
-4.890518	Experience	-0.1162636
-4.890518	Extremely	-0.1355871
-4.237036	Eyford	-0.1700899
-4.772944	Ezekiah	-0.2608482
-4.890518	F.H.M	-0.1187362
-4.890518	FEBRUARY	-0.1162636
-4.890518	FIANCEE	-0.1344974
-4.890518	FIVE	-0.136538
-4.890518	FRESH	-0.136538
-4.890518	FRIESLAND	-0.1162636
-4.772944	FROM	-0.255663
-4.890518	Faber	-0.1343918
-4.890518	Face	-0.136534
-4.890518	Faces	-0.1301821
-4.890518	Failing	-0.135977
-4.890518	Failure	-0.1162636
-4.772944	Fairbank	-0.1129209
-4.890518	Fall	-0.2967003
-4.772944	Falmouth	-0.11649
-4.890518	Familiar	-0.1337381
-4.890518	Family	-0.1363627
-4.890518	Fancy	-0.1343801
-4.890518	Far	-0.3900812
-4.890518	Fareham	-0.1294428
-4.890518	Farewell	-0.1162636
-4.772944	Farintosh	-0.240644
-4.772944	Farm	-0.177479
-4.890518	Farm-house	-0.1301821
-4.310019	Farnham	-0.2384155
-4.890518	Farquhar	-0.1162636
-4.890518	Farrington	-0.1363783
-4.890518	Fashionable	-0.136538
-4.890518	Fate	-0.1343762
-4.890518	Father	-0.133354
-4.507926	February	-0.1847039
-4.890518	Feeling	-0.1364601
-4.890518	Fenchurch	-0.2607587
-4.772944	Ferguson	-0.1108738
-4.890518	Ferrers	-0.136538
-4.890518	Ferrier	-0.1139923
-4.890518	Few	-0.1279349
-4.890518	Fifty	-0.1364094
-4.772944	Fighting	-0.615532
-4.890518	Filled	-0.1330519
-4.890518	Final	-0.136538
-4.772944	Finally	-0.6359076
-4.890518	Financial	-0.1365363
-4.890518	Find	-0.135864
-4.890518	Finding	-0.2109103
-4.890518	Fine	-0.1365184
-4.890518	Finns	-0.1292568
-4.890518	Fire	-0.5346894
-4.655835	First	-0.3538
-4.237036	Fitzroy	-0.6824514
-4.655835	Five	-0.2686243
-4.890518	Flaubert	-0.1364756
-4.655835	Fleet	-0.3143423
-4.237036	Flora	-0.3372118
-4.890518	Florence	-0.1330519
-4.655835	Florida	-0.09443519
-4.890518	Flowers	-0.1344974
-4.890518	Fly	-0.1336636
-4.890518	Folk	-0.1356924
-4.890518	Follow	-0.1350016
-4.890518	Following	-0.2079388
-4.890518	Fool	-0.1326083
-4.890518	Footmarks	-0.1281709
-4.890518	Footsteps	-0.1361952
-4.655835	For	-0.4399713
-4.237036	Forbes	-0.2734628
-4.890518	Force	-0.1187362
-4.655835	Fordham	-0.1155823
-4.890518	Fordingbridge	-0.1365363
-4.772944	Fordingham	-0.1299866
-4.655835	Foreign	-0.6606553
-4.507926	Forest	-0.2617271
-4.890518	Forgery	-0.1187362
-4.890518	Forgive	-0.1352437
-4.890518	Formerly	-0.1365363
-4.890518	Forrester	-0.1162636
-4.890518	Fortescue	-0.136538
-4.890518	Fortunately	-0.1162636
-4.890518	Fortune	-0.1355325
-4.890518	Found	-0.1331618
-4.772944	Four	-0.14196
-4.772944	Fournaye	-0.2059954
-4.772944	Fowler	-0.1039205
-4.507926	France	-0.2253843
-4.655835	Francis	-0.1365151
-4.890518	Francisco	-0.240644
-4.890518	Franco-Midland	-0.5363508
-4.890518	Franco-Prussian	-0.136534
-3.951898	Frank	-0.1874186
-4.890518	Frankly	-0.240644
-4.772944	Fraser	-0.1655867
-4.890518	Freebody	-0.1162636
-4.890518	Freemason	-0.240644
-4.890518	Freemasonry	-0.133201
-3.918382	French	-0.1563585
-4.890518	Frenchman	-0.1355481
-4.890518	Frequently	-0.1187362
-4.890518	Fresh	-0.1365189
-4.890518	Fresno	-0.2607587
-4.310019	Friday	-0.175091
-4.772944	Fritz	-0.1348669
-4.772944	From	-0.3367182
-4.772944	G	-0.1335325
-4.890518	GIBRALTAR	-0.09758642
-4.890518	GLOBE	-0.1362186
-4.890518	GO	-0.1187362
-4.772944	GRAPHIC	-0.4383646
-4.890518	GUILT	-0.136538
-4.772944	Game	-0.1252347
-4.890518	Gang	-0.1187362
-4.890518	Garden	-0.1975765
-4.890518	Gardens	-0.1162636
-4.890518	Gate	-0.1131715
-4.890518	Gazetteer	-0.1187362
-4.397796	Gelder	-0.4969568
-4.890518	Gemmi	-0.1162577
-4.655835	General	-0.2153689
-4.890518	Geneva	-0.1187362
-4.890518	Geneve	-0.1343879
-4.890518	Gentlemen	-0.1162636
-4.310019	George	-0.4276433
-4.890518	Georgia	-0.09758642
-3.918382	German	-0.2012141
-4.890518	German-speaking	-0.1364172
-4.890518	Germans	-0.1187362
-4.772944	Get	-0.2207463
-4.890518	Getting	-0.1326222
-4.890518	Gigantic	-0.1365068
-4.11997	Gilchrist	-0.361746
-4.890518	Gill	-0.2609184
-4.772944	Give	-0.3395559
-4.890518	Giving	-0.1365029
-4.772944	Gladstone	-0.2608832
-4.890518	Glancing	-0.1326497
-4.890518	Globe	-0.1162636
-4.655835	Gloria	-0.439439
-4.890518	Gloves	-0.1162636
-4.772944	Go	-0.1338381
-3.659037	God	-0.5566604
-3.659037	Godfrey	-0.4147597
-4.174571	Godolphin	-0.837221
-4.890518	Gold	-0.1162636
-4.890518	Golden	-0.2609184
-4.655835	Gone	-0.103954
-4.655835	Good	-0.5486745
-4.890518	Good-afternoon	-0.240644
-4.890518	Good-by	-0.1148483
-4.890518	Good-bye	-0.2886391
-4.772944	Good-day	-0.235782
-4.890518	Good-evening	-0.2237728
-4.890518	Good-morning	-0.2942277
-4.772944	Good-night	-0.1538614
-4.890518	Goodge	-0.2607587
-4.890518	Goodwins	-0.1292568
-4.507926	Gordon	-0.1726031
-4.655835	Gorot	-0.1940503
-4.772944	Got	-0.1349685
-4.890518	Gothic	-0.1365363
-4.890518	Gottsreich	-0.136538
-4.772944	Government	-0.240644
-4.890518	Governor	-0.1281709
-4.507926	Grace	-0.3657813
-4.890518	Gradually	-0.1162636
-4.890518	Graham	-0.1292568
-4.890518	Grand	-0.1365223
-4.772944	Grange	-0.1218711
-4.397796	Grant	-0.6824748
-4.890518	Granting	-0.1326083
-4.890518	Grave	-0.1361952
-4.507926	Gravesend	-0.1088996
-4.890518	Gray	-0.1352281
-4.507926	Great	-0.215889
-4.655835	Grecian	-0.1361531
-4.772944	Greece	-0.1110367
-4.027854	Greek	-0.1270752
-4.890518	Greenwich	-0.1187362
-4.310019	Gregory	-0.3084974
-4.890518	Gregson	-0.1086254
-4.890518	Grenoble	-0.1162636
-4.890518	Gresham	-0.136538
-4.890518	Grice	-0.136538
-4.890518	Grimesby	-0.7404629
-4.890518	Grit	-0.1294428
-4.890518	Groat	-0.1352281
-4.890518	Gross	-0.1365145
-4.655835	Grosvenor	-0.1364547
-4.890518	Grove	-0.1365029
-4.772944	Guards	-0.1150978
-4.890518	Guild	-0.1259612
-4.890518	Gustave	-0.136538
-4.507926	H	-0.09506786
-4.397796	H.	-0.1303287
-4.655835	HAD	-0.1278338
-4.890518	HAMPSTEAD	-0.1187362
-4.890518	HAND	-0.1187362
-4.772944	HAVE	-0.1343704
-4.890518	HE	-0.1361641
-4.890518	HERE	-0.1365324
-4.890518	HIM	-0.1187362
-4.655835	HOLMES	-0.4855341
-4.890518	HOPKINS	-0.1187362
-4.655835	HUNTER	-0.1972965
-4.655835	Ha	-0.8760573
-4.772944	Had	-0.3337877
-4.890518	Hafiz	-0.1337381
-4.890518	Hague	-0.1362186
-4.772944	Half	-0.2153284
-4.772944	Half-past	-0.1359401
-4.890518	Halfway	-0.1355832
-4.890518	Halifax	-0.1162636
-3.887269	Hall	-0.5086015
-4.772944	Hallamshire	-0.1350076
-4.772944	Halloa	-0.7178243
-4.890518	Ham	-0.1292568
-4.655835	Hammersmith	-0.1146254
-4.507926	Hampshire	-0.1271376
-4.397796	Hampstead	-0.1771583
-4.890518	Handsome	-0.133201
-4.890518	Hankey	-0.1352281
-4.890518	Hanover	-0.260891
-4.890518	Harden	-0.1162636
-4.507926	Harding	-0.2898847
-4.890518	Hardly	-0.211154
-4.890518	Hardware	-0.5363429
-4.655835	Hardy	-0.4191664
-4.890518	Hare	-0.1363744
-4.890518	Hargreave	-0.1162636
-4.310019	Harker	-0.1816766
-4.772944	Harley	-0.2607587
-4.655835	Harold	-0.2098277
-4.890518	Harpooner	-0.133201
-4.655835	Harris	-0.1127464
-4.655835	Harrison	-0.1460425
-4.772944	Harrow	-0.1764325
-4.507926	Harry	-0.2626874
-4.772944	Has	-0.1905331
-3.918382	Hatherley	-0.3471422
-4.890518	Hatty	-0.3144942
-4.890518	Havana	-0.1162636
-4.772944	Have	-0.8599142
-4.772944	Having	-0.2219937
-4.890518	Hay	-0.1365301
-4.174571	Hayes	-0.1145568
-4.890518	Hayling	-0.1162636
-4.655835	Hayter	-0.1052232
-4.890518	Hayward	-0.1162636
-4.397796	He	-0.5436672
-4.890518	Head	-0.1365301
-4.890518	Head-keeper	-0.1364717
-4.507926	Heath	-0.160971
-3.951898	Heaven	-0.2702718
-4.772944	Heavens	-0.1933629
-4.890518	Heavy	-0.1365262
-4.890518	Hebrew	-0.136538
-4.655835	Hebron	-0.1764325
-4.890518	Hector	-0.4394017
-4.890518	Heh	-0.133201
-4.397796	Heidegger	-0.2403112
-4.890518	Heir	-0.1292568
-4.507926	Helen	-0.1722551
-4.772944	Help	-0.1878678
-4.890518	Hence	-0.1136089
-4.772944	Henri	-0.3145003
-4.174571	Henry	-0.4179294
-4.655835	Her	-0.1500273
-4.890518	Hercules	-0.2431166
-4.890518	Herder	-0.1155923
-4.772944	Here	-0.5842685
-4.772944	Hereford	-0.1292494
-4.772944	Herefordshire	-0.1185599
-4.890518	Herr	-0.1365262
-4.890518	Hers	-0.1343762
-4.890518	High	-0.3143423
-4.890518	Highness	-0.1301821
-4.890518	Highway	-0.1187362
-4.655835	Hilda	-0.2862764
-4.310019	Hill	-0.1352772
-4.890518	Hills	-0.133201
-4.11997	Hilton	-0.8615896
-4.890518	Himalayas	-0.1162636
-4.397796	His	-0.2548029
-4.890518	Histon	-0.1162636
-4.890518	Hitherto	-0.1321152
-4.890518	Hof	-0.1162636
-4.772944	Holborn	-0.09758642
-4.772944	Hold	-0.2247609
-4.310019	Holder	-0.4669483
-4.11997	Holdernesse	-0.4349438
-4.890518	Holdhurst	-0.2543773
-4.890518	Holiness	-0.1312827
-4.890518	Holland	-0.09758642
-4.890518	Hollows	-0.1187362
-4.890518	Holly	-0.1355325
-2.949054	Holmes	-0.6416597
-4.890518	Holy	-0.136534
-4.890518	Honoria	-0.136538
-4.890518	Honour	-0.1187362
-4.655835	Honourable	-0.3288583
-4.890518	Hood	-0.1162636
-4.890518	Hooliganism	-0.1335931
-4.507926	Hope	-0.2381185
-3.75833	Hopkins	-0.4617946
-4.890518	Hopley	-0.1365262
-4.655835	Horace	-0.4178866
-4.027854	Horner	-0.2335969
-4.890518	Horrified	-0.131072
-4.397796	Horsham	-0.3206022
-4.174571	Hosmer	-0.5518393
-4.890518	Hospital	-0.1162636
-4.237036	Hotel	-0.1545638
-4.11997	House	-0.242485
-4.890518	Houses	-0.1281709
-4.655835	How	-0.4968982
-4.655835	Howells	-0.1740494
-4.772944	However	-0.980961
-3.781236	Hudson	-0.3002412
-4.507926	Hugh	-0.359617
-4.890518	Huguenot	-0.1365363
-4.655835	Hullo	-0.3494291
-4.772944	Hum	-1.090992
-4.890518	Human	-0.1364445
-4.890518	Hungarian	-0.1364639
-4.174571	Hunter	-0.2665367
-4.890518	Huret	-0.1162636
-4.655835	Hurlstone	-0.1415408
-4.890518	Hurrah	-0.1348766
-4.655835	Huxtable	-0.3645543
-4.890518	Hyde	-0.1365262
-2.286049	I	-0.8678159
-4.772944	I.	-0.1322332
-4.890518	IDENTITY	-0.1363627
-4.507926	II	-0.421639
-4.890518	II.	-0.1344974
-4.507926	III	-0.421639
-4.890518	III.	-0.1344974
-4.890518	IMPORTANT	-0.136538
-4.772944	IN	-0.1365324
-4.890518	IRENE	-0.136538
-4.507926	IS	-0.1323261
-4.890518	IT	-0.2573726
-4.655835	IV	-0.2967003
-4.890518	IV.	-0.1344974
-4.655835	IX	-0.2967003
-4.890518	IX.	-0.1344974
-4.890518	Identity	-0.136534
-4.890518	Idiot	-0.1326083
-4.772944	If	-0.6736618
-4.890518	Imagine	-0.1931745
-4.890518	Imitated	-0.1187362
-4.890518	Immediately	-0.1364601
-4.772944	Imperial	-0.1365324
-4.772944	Important	-0.1169993
-4.772944	Impossible	-0.2702479
-4.507926	In	-0.5359478
-4.890518	Incidentally	-0.1342901
-4.890518	Incredible	-0.136538
-4.772944	Indeed	-0.6951718
-4.397796	India	-0.2273111
-4.027854	Indian	-0.15016
-4.772944	Indians	-0.1154453
-4.890518	Indirectly	-0.133452
-4.890518	Inference	-0.1344974
-4.507926	Inn	-0.237454
-4.890518	Inner	-0.1365363
-4.772944	Inquiries	-0.1349724
-4.890518	Inquiry	-0.133354
-4.890518	Insensibly	-0.1352671
-4.890518	Inside	-0.2118766
-3.781236	Inspector	-0.3046003
-4.772944	Instead	-0.306135
-4.890518	Interlaken	-0.1162636
-4.890518	International	-0.1162636
-4.890518	Internationals	-0.1187362
-4.772944	Interpreter	-0.1162559
-4.890518	Into	-0.2603024
-4.890518	Ionides	-0.1281709
-4.11997	Irene	-0.7178728
-4.890518	Iris	-0.1186492
-4.890518	Irish	-0.1365363
-4.890518	Irish-setter	-0.1162636
-4.772944	Is	-0.4928022
-4.507926	Isa	-0.2449004
-4.890518	Islander	-0.1294428
-4.890518	Isle	-0.1281709
-4.174571	It	-1.063838
-4.071474	Italian	-0.1659235
-4.772944	Italians	-0.1272515
-4.772944	Italy	-0.1209308
-4.890518	Its	-0.1362513
-4.772944	Ivy	-0.1365245
-4.310019	J	-0.2957186
-4.890518	J.	-0.1365363
-4.890518	J.H.N	-0.1187362
-4.655835	J.P.	-0.1940666
-4.890518	JABEZ	-0.136538
-4.890518	JANUARY	-0.1162636
-4.890518	JEPHRO	-0.136538
-4.890518	JULY	-0.1162636
-4.890518	JUNE	-0.1162636
-4.655835	Jabez	-0.5932466
-4.174571	Jack	-0.2739018
-4.890518	Jack-in-office	-0.1348766
-4.772944	Jackson	-0.1342413
-4.655835	Jacobs	-0.1936944
-3.59327	James	-0.2881944
-4.655835	Jane	-0.1951021
-4.890518	Janet	-0.136538
-4.655835	January	-0.2252746
-4.890518	Japan	-0.1187362
-4.772944	Japanese	-0.1820573
-4.772944	Jem	-0.1124483
-4.890518	Jeremiah	-0.136538
-4.772944	Jeremy	-0.2609167
-4.890518	Jersey	-0.1294428
-4.890518	Jew	-0.1352281
-4.890518	Jewel	-0.136534
-4.890518	Jezail	-0.1365029
-4.890518	Jingo	-0.1348766
-4.772944	Johann	-0.1331954
-4.772944	Johannesburg	-0.09758642
-3.696077	John	-0.3705763
-4.890518	Johnnie	-0.1342901
-4.890518	Johnson	-0.1162636
-4.890518	Joint	-0.1178494
-4.507926	Jonas	-0.9512929
-4.237036	Jones	-0.1916483
-3.831024	Joseph	-0.2217168
-4.890518	Josiah	-0.2609144
-4.772944	Journal	-0.1359596
-4.655835	Jove	-0.5935108
-4.890518	Jowaki	-0.1365363
-4.890518	Juan	-0.1162636
-4.890518	Jubilee	-0.1162636
-4.772944	Julia	-0.2079151
-4.655835	July	-0.1137238
-4.890518	Jump	-0.1075263
-4.890518	Junction	-0.1764325
-4.237036	June	-0.2462454
-4.890518	Jungle	-0.1162636
-4.890518	Juryman	-0.1362692
-4.655835	Just	-0.176644
-4.890518	Justice	-0.1281709
-4.655835	K	-0.1065496
-4.310019	K.	-0.4155491
-4.890518	K.G.	-0.1162636
-4.890518	KILLED	-0.1364795
-4.890518	KNEW	-0.1326083
-4.772944	KNOW	-0.1293917
-4.507926	Kate	-0.1148363
-4.890518	Keep	-0.1326083
-4.890518	Kemp	-0.1344974
-4.890518	Kennedy	-0.1162636
-4.507926	Kennington	-0.431493
-4.397796	Kensington	-0.1665574
-4.890518	Kensington.	-0.1344974
-4.655835	Kent	-0.2897612
-4.890518	Kentish	-0.136392
-4.890518	Khalifa	-0.1331893
-4.890518	Khartoum	-0.1162636
-4.890518	Kilburn	-0.1764325
-4.890518	Kill	-0.133452
-4.890518	Kimberley	-0.1301821
-4.772944	Kindly	-0.1553532
-3.988217	King	-0.3721505
-4.890518	Kirwan	-0.1279133
-4.890518	Klan	-0.1152532
-4.772944	Klux	-0.2609184
-4.890518	Knowing	-0.1290869
-4.890518	Known	-0.1301821
-4.890518	Kramm	-0.09758642
-4.655835	Kratides	-0.1764325
-4.890518	Ku	-0.1365363
-4.655835	L	-0.1942914
-4.890518	L.	-0.136534
-4.890518	L10	-0.1365029
-4.890518	L200	-0.1187362
-4.890518	L300	-0.1187362
-4.890518	L500	-0.1187362
-4.890518	LATER.	-0.1344974
-4.890518	LEAGUE	-0.1340007
-4.890518	LESLIE	-0.136538
-4.890518	LESTRADE	-0.1187362
-4.890518	LIP	-0.1365301
-4.890518	LOUD	-0.136534
-4.772944	La	-0.1365324
-4.655835	Laburnum	-0.1365228
-4.655835	Lachine	-0.1548386
-3.918382	Lady	-0.6025733
-4.890518	Lady-day	-0.1162636
-4.890518	Lancashire	-0.1292568
-4.655835	Lancaster	-0.1553329
-4.507926	Lane	-0.2507244
-4.890518	Langham	-0.1361329
-4.890518	Langmere	-0.1162636
-4.772944	Lanner	-0.09758642
-4.890518	Large	-0.1162092
-4.310019	Lascar	-0.210132
-4.772944	Last	-0.1737291
-4.772944	Lat	-0.2431166
-4.772944	Late	-0.1257
-4.655835	Latimer	-0.1569717
-4.890518	Lattice-paned	-0.1162636
-4.890518	Lauder	-0.1162636
-4.507926	Leadenhall	-0.536191
-4.655835	League	-0.1906206
-4.890518	Leaning	-0.1343879
-4.655835	Leatherhead	-0.1516685
-4.772944	Leave	-0.1310504
-4.890518	Leaving	-0.1365184
-4.890518	Lebanon	-0.1162636
-4.397796	Lee	-0.3582441
-4.890518	Left	-0.1343801
-4.890518	Legation	-0.133201
-4.890518	Legion	-0.1281709
-4.890518	Leone	-0.1361641
-4.772944	Leslie	-0.6155202
-3.510202	Lestrade	-0.4951641
-4.890518	Lesurier	-0.1162636
-4.772944	Let	-0.8124342
-4.890518	Letter	-0.134067
-4.890518	Leuk	-0.1162636
-4.890518	Leverstoke	-0.1162636
-4.890518	Lewisham	-0.1364912
-4.890518	Lexington	-0.1140087
-4.890518	Lhassa	-0.1292568
-4.890518	Liberal	-0.1337381
-4.890518	Lie	-0.1365068
-4.772944	Lieutenant	-0.1281611
-4.772944	Light	-0.1331562
-4.890518	Light-houses	-0.1162636
-4.890518	Like	-0.1320641
-4.890518	Limited	-0.2237728
-4.890518	Lip	-0.136534
-4.772944	Listen	-0.332692
-4.890518	Little	-0.136129
-4.772944	Liverpool	-0.195251
-4.890518	Living	-0.1294428
-4.890518	Llama	-0.1187362
-4.890518	Lloyd	-0.1352281
-4.890518	Local	-0.136499
-4.655835	Lodge	-0.2903063
-4.890518	Logic	-0.1343918
-4.890518	Lombard	-0.1363783
-3.36215	London	-0.3804466
-4.772944	Londoners	-0.1148401
-4.890518	Lone	-0.2609144
-4.772944	Long	-0.1187262
-4.772944	Look	-0.5845147
-4.890518	Looking	-0.1917102
-3.510202	Lord	-0.6251798
-4.890518	Lordship	-0.1187362
-4.890518	Lothman	-0.136534
-4.890518	Louisiana	-0.1162636
-4.397796	Lower	-0.3245793
-4.890518	Lowther	-0.2609167
-4.071474	Lucas	-0.1453673
-4.890518	Lucerne	-0.1162636
-4.890518	Lucky	-0.1356729
-4.890518	Lucretia	-0.1365363
-4.507926	Lucy	-0.1717554
-4.890518	Luke	-0.3131921
-4.890518	Luxembourg	-0.1292568
-4.890518	Lyon	-0.136534
-4.890518	Lyons	-0.1327165
-4.772944	Lysander	-0.6824771
-4.772944	M	-0.1148851
-4.655835	M.	-0.1951021
-4.890518	M.A.	-0.1162636
-4.890518	MAGAZINE	-0.9513241
-4.890518	MAGNUM	-0.136538
-4.890518	MAN	-0.136538
-4.890518	MARCH	-0.1162636
-4.890518	MARY	-0.1187362
-4.890518	MAY	-0.1162636
-4.890518	MCFARLANE	-0.1365363
-4.890518	MEET	-0.136538
-4.890518	MEMOIRS	-0.1365223
-4.890518	MENAGE	-0.1343918
-4.890518	MILVERTON	-0.1162636
-4.890518	MISS	-0.136534
-4.890518	MORAN	-0.1162636
-4.890518	MORNING	-0.136538
-4.890518	MR.	-0.260907
-4.890518	MURDER	-0.1365363
-4.890518	MUST	-0.1361758
-4.772944	MY	-0.2146069
-4.890518	MYSTERY	-0.1365301
-4.772944	MacPherson	-0.09758642
-4.655835	Mackleton	-0.1550885
-4.890518	Madam	-0.1950915
-4.772944	Madame	-0.1162577
-4.890518	Mademoiselle	-0.1352281
-4.890518	Madman	-0.1162636
-4.890518	Madness	-0.1162636
-4.890518	Madrid	-0.1162636
-4.890518	Mafia	-0.09688564
-4.890518	Maggie	-0.1127606
-4.507926	Majesty	-0.1999239
-4.237036	Major	-0.3290376
-4.890518	Major-General	-0.1365301
-4.890518	Make	-0.2575422
-4.890518	Making	-0.1357626
-4.890518	Malay	-0.1365301
-4.890518	Male	-0.1365262
-4.890518	Mall	-0.4476346
-4.890518	Malplaquet	-0.1340827
-4.507926	Man	-0.1703427
-4.890518	Manchester	-0.1363783
-4.507926	Manor	-0.3183022
-4.890518	Mansions	-0.1162636
-4.772944	Many	-0.2027075
-4.397796	Mapleton	-0.3679985
-4.890518	Marbank	-0.240644
-4.507926	March	-0.1938155
-4.890518	Marengo	-0.1162636
-4.890518	Margate	-0.1363627
-4.890518	Mark	-0.1326083
-4.890518	Marker	-0.1910715
-4.890518	Market	-0.1187362
-4.772944	Married	-0.134863
-4.890518	Marseilles	-0.1162636
-4.890518	Marsham	-0.1162636
-4.655835	Martin	-0.2794797
-3.858237	Mary	-0.187287
-4.890518	Marylebone	-0.1365301
-4.507926	Master	-0.1359326
-4.890518	Mathematical	-0.136538
-4.890518	Matheson	-0.1162636
-4.890518	Mathews	-0.1162636
-4.890518	Matters	-0.1343939
-4.890518	Maudsley	-0.1162636
-4.890518	Maupertuis	-0.1357626
-4.890518	Mauritius	-0.1187362
-4.174571	Mawson	-0.6660169
-4.310019	May	-0.3015513
-4.772944	Maybe	-0.226659
-4.772944	Maynooth	-0.1086254
-3.831024	McCarthy	-0.2567564
-4.772944	McCarthys	-0.2140239
-4.772944	McCauley	-0.1161761
-3.988217	McFarlane	-0.2243698
-4.890518	McLaren	-0.1187362
-4.890518	McQuire	-0.1352281
-4.890518	Meaning	-0.1326083
-4.890518	Meanwhile	-0.47283
-4.890518	Mecca	-0.1162636
-4.890518	Medical	-0.1365363
-4.890518	Mediterranean	-0.1187362
-4.507926	Meiringen	-0.1919416
-4.655835	Melas	-0.3364186
-4.890518	Melbourne	-0.1162636
-4.890518	Memoirs	-0.1330519
-4.655835	Men	-0.1907577
-4.890518	Mendicant	-0.136538
-4.890518	Meredith	-0.1162636
-4.890518	Mereer	-0.1162636
-4.890518	Merridew	-0.1281709
-4.890518	Merrow	-0.1162636
-4.772944	Merryweather	-0.3154781
-4.890518	Metropolitan	-0.1365029
-4.890518	Meunier	-0.1162636
-4.890518	Mexico	-0.1187362
-4.890518	Middle	-0.136538
-4.890518	Middlesex	-0.09758642
-4.890518	Midland	-0.136538
-4.890518	Midlands	-0.1152327
-4.890518	Might	-0.6412716
-4.772944	Miles	-0.1292511
-4.890518	Millar	-0.1876586
-4.890518	Milner	-0.1292568
-3.677162	Milverton	-0.2708096
-4.890518	Mind	-0.134646
-4.890518	Minerals	-0.1294428
-4.507926	Minister	-0.11954
-4.890518	Ministers	-0.1342804
-4.890518	Misfortunes	-0.1362692
-3.36215	Miss	-0.578852
-4.772944	Missing	-0.1951039
-4.890518	Mission	-0.1355091
-4.890518	Mister	-0.1363744
-4.890518	Mistress	-0.1292568
-4.397796	Mitton	-0.1882728
-4.507926	Mme	-0.421639
-4.890518	Moffat	-0.1187362
-4.890518	Molesey	-0.1365301
-3.781236	Monday	-0.4252465
-4.890518	Monica	-0.1876666
-4.890518	Monsieur	-0.1365324
-4.772944	Montague	-0.2152148
-4.890518	Montana	-0.1162636
-4.772944	Months	-0.1292946
-4.890518	Montpelier	-0.1162636
-4.890518	Moor	-0.1121393
-4.890518	Moorhouse	-0.1162636
-4.890518	Morally	-0.1162636
-4.071474	Moran	-0.2216814
-4.890518	Morcar	-0.185205
-4.772944	More	-0.3726087
-4.890518	Morgan	-0.1312827
-3.831024	Moriarty	-0.2055004
-4.772944	Morning	-0.2153728
-4.890518	Morris	-0.117699
-4.772944	Morrison	-0.1797598
-4.237036	Morse	-0.791557
-4.397796	Mortimer	-0.1547487
-4.655835	Morton	-0.1729425
-4.772944	Most	-0.2244838
-4.890518	Mother	-0.1331756
-4.507926	Moulton	-0.2237728
-4.890518	Mount-James	-0.3264669
-4.310019	Mr	-1.583007
-3.016309	Mr.	-0.7829822
-4.655835	Mrs	-0.421639
-3.419548	Mrs.	-0.5712715
-4.890518	Munich	-0.1312827
-4.655835	Munro	-0.1333368
-4.890518	Munsters	-0.1139658
-4.507926	Murder	-0.1685562
-4.890518	Murdered	-0.133201
-4.890518	Murillo	-0.1162636
-4.890518	Murphy	-0.1640788
-4.890518	Murray	-0.1162636
-4.655835	Museum	-0.1717307
-3.918382	Musgrave	-0.3651553
-4.772944	Musgraves	-0.1335521
-4.890518	Music	-0.1364873
-4.890518	Must	-0.1342901
-4.890518	Mutiny	-0.1949732
-4.772944	My	-0.4316871
-3.951898	Mycroft	-0.3037904
-4.890518	Myrtles	-0.1141194
-4.507926	Mystery	-0.2104314
-4.772944	N	-0.240644
-4.890518	N'T	-0.1360532
-4.890518	N.	-0.1365363
-4.890518	NEVILLE	-0.1187362
-4.772944	NN	-0.1288828
-4.890518	NOBLE	-0.136538
-4.890518	NORTON	-0.1162636
-4.772944	NOT	-0.1362345
-4.890518	NOVEMBER	-0.1162636
-4.890518	NOVO	-0.1292568
-4.890518	Name	-0.1312827
-4.310019	Nancy	-0.1444424
-4.890518	Naples	-0.1162636
-4.397796	Napoleon	-0.1863215
-4.772944	Napoleonic	-0.1364934
-4.890518	Napoleons	-0.2431166
-4.890518	Narbonne	-0.1292568
-4.772944	Naturally	-0.1751124
-4.655835	Nature	-0.1101775
-4.655835	Naval	-0.314502
-4.890518	Nay	-0.240644
-4.655835	Near	-0.2098412
-4.890518	Nearer	-0.1312827
-4.772944	Nearly	-0.1780484
-4.772944	Ned	-0.1294133
-4.890518	Negro	-0.1187362
-4.772944	Neill	-0.1266567
-4.772944	Neither	-0.1402915
-4.397796	Neligan	-0.1074487
-4.890518	Nepaul	-0.1362965
-4.890518	Nervous	-0.1365107
-4.890518	Netherland-Sumatra	-0.1365301
-4.772944	Never	-0.2034301
-4.11997	Neville	-0.7884148
-4.397796	New	-0.2236732
-4.772944	Newhaven	-0.1764325
-4.772944	News	-0.240644
-4.890518	Newton	-0.1352281
-4.772944	Next	-0.2156281
-4.890518	Night	-0.1286886
-4.890518	Nights	-0.1162636
-4.890518	Nihilist	-0.1365107
-4.890518	Nihilists	-0.1162636
-4.890518	Nimes	-0.1162636
-4.237036	No	-0.7873186
-4.890518	Noble	-0.136538
-4.890518	Nonconformist	-0.1365262
-4.772944	None	-0.3516194
-4.772944	Nor	-0.1550837
-4.890518	Norah	-0.136538
-4.655835	Norbury	-0.1931332
-4.174571	Norfolk	-0.2068997
-4.890518	Norman	-0.136538
-4.655835	North	-0.2023978
-4.890518	Northern	-0.1365301
-4.655835	Northumberland	-0.2150668
-4.772944	Norton	-0.1733578
-4.655835	Norway	-0.1162068
-4.772944	Norwegian	-0.1364699
-4.655835	Norwich	-0.1137853
-4.027854	Norwood	-0.2779803
-4.890518	Nos	-0.1187362
-4.772944	Not	-0.3098687
-4.655835	Nothing	-0.2099419
-4.890518	Noticed	-0.1362459
-4.890518	Nous	-0.136538
-4.890518	Nov	-0.1187362
-4.890518	Nova	-0.136538
-4.890518	November	-0.1187362
-4.655835	Now	-0.7424446
-4.890518	Nursed	-0.1352827
-4.772944	O	-0.2237728
-4.890518	OCTOBER	-0.1162636
-4.310019	OF	-0.7225332
-4.890518	ONCE	-0.1162636
-4.890518	OPUS	-0.1344974
-4.890518	ORANGE	-0.136538
-4.890518	OVERTON	-0.1187362
-4.890518	Oakington	-0.1357548
-4.655835	Oakshott	-0.259341
-4.890518	Oberstein	-0.1162636
-4.772944	Obviously	-0.1881995
-4.890518	Occasionally	-0.133452
-4.890518	Occurrence	-0.1331893
-4.890518	Ocean	-0.1363861
-4.655835	October	-0.09758031
-4.890518	Odd	-0.1162636
-4.890518	Odessa	-0.1294428
-4.655835	Of	-0.7399285
-4.890518	Off	-0.1342901
-4.772944	Office	-0.3497072
-4.890518	Officer	-0.1294428
-4.890518	Often	-0.133452
-4.507926	Oh	-1.380445
-4.655835	Old	-0.309419
-4.071474	Oldacre	-0.2365195
-4.397796	On	-0.6347952
-4.772944	Once	-0.2120135
-4.507926	One	-0.3920756
-4.655835	Only	-0.2535302
-4.890518	Open	-0.133452
-4.890518	Opening	-0.1281532
-4.174571	Openshaw	-0.1233463
-4.890518	Opera	-0.1281709
-4.890518	Oporto	-0.1187362
-4.890518	Opposite	-0.1320838
-4.772944	Or	-0.146132
-4.890518	Orange	-0.136538
-4.890518	Order	-0.1271003
-4.890518	Ordering	-0.1346968
-4.890518	Oriental	-0.1365068
-4.890518	Orientals	-0.1356924
-4.890518	Origin	-0.1281709
-4.772944	Ormstein	-0.240644
-4.890518	Oscar	-0.136538
-4.890518	Oscillation	-0.1340827
-4.772944	Other	-0.1362207
-4.890518	Others	-0.1351851
-4.890518	Otherwise	-0.1296251
-4.772944	Our	-0.2622897
-4.890518	Out	-0.4281759
-4.890518	Outrage	-0.1187362
-4.890518	Outside	-0.2038552
-4.890518	Over	-0.255279
-4.310019	Overton	-0.2292385
-4.890518	Owe	-0.1348766
-4.890518	Owns	-0.1355091
-3.988217	Oxford	-0.5177115
-4.890518	Oxfordshire	-0.1162636
-4.655835	P	-0.1086195
-4.772944	P.	-0.1364817
-4.890518	P.C	-0.1187362
-4.890518	PIPS	-0.136534
-4.890518	PORTIERE	-0.1331893
-4.890518	POST	-0.1301821
-4.890518	Pa	-0.1363199
-4.772944	Pacific	-0.1365284
-4.397796	Paddington	-0.1262901
-4.890518	Paisley	-0.1365363
-4.890518	Palace	-0.1162636
-4.310019	Pall	-0.7916233
-4.890518	Palladio	-0.1187362
-4.655835	Palmer	-0.1527835
-4.890518	Palmer-tyred	-0.1162636
-4.890518	Pals	-0.1281709
-4.890518	Panama	-0.1364484
-4.890518	Pancras	-0.1365184
-4.890518	Paradol	-0.136538
-4.772944	Paramore	-0.09758642
-4.237036	Paris	-0.1388617
-4.890518	Parisian	-0.1364639
-4.397796	Park	-0.3918505
-4.507926	Parker	-0.171747
-4.772944	Parliament	-0.1164778
-4.890518	Parr	-0.240644
-4.890518	Pass	-0.1162636
-4.890518	Passing	-0.1355832
-4.890518	Patersons	-0.1294428
-4.890518	Patience	-0.1365068
-4.890518	Patient	-0.1292431
-4.237036	Patrick	-0.307937
-4.890518	Patterson	-0.1326083
-4.890518	Pattins	-0.1187362
-4.507926	Paul	-0.1912989
-4.890518	Paulo	-0.1162636
-4.890518	Peace	-0.1364873
-4.890518	Peak	-0.1364172
-4.890518	Peculiar	-0.1344974
-4.890518	Peeping	-0.1352554
-4.890518	Peering	-0.1287996
-4.890518	Penang-lawyer	-0.136534
-4.890518	Pencils	-0.1162636
-4.890518	Pending	-0.1312827
-4.890518	Pennsylvania	-0.1162636
-4.890518	Pentonville	-0.1187362
-4.890518	People	-0.1363861
-4.890518	Perceiving	-0.1331618
-4.027854	Percy	-0.3773818
-4.890518	Perfectly	-0.1355871
-4.772944	Perhaps	-0.3518859
-4.772944	Persia	-0.09758642
-4.655835	Persian	-0.2626702
-4.890518	Personally	-0.1342901
-3.831024	Peter	-0.550159
-4.890518	Petersfield	-0.1187362
-4.310019	Peterson	-0.3031034
-4.890518	Petrarch	-0.1162636
-4.890518	Petrified	-0.1330519
-4.890518	Petty	-0.136538
-4.890518	Ph.D.	-0.1162636
-3.988217	Phelps	-0.3469723
-4.772944	Philadelphia	-0.1186978
-4.890518	Philosophy	-0.1162636
-4.890518	Pickwick	-0.1352281
-4.310019	Pietro	-0.1039965
-4.890518	Pince-Nez	-0.2431166
-4.890518	Pink	-0.1365029
-4.890518	Pinkerton	-0.1365223
-4.237036	Pinner	-0.2386961
-4.890518	Pioneers	-0.1187362
-4.890518	Pipes	-0.1357626
-4.890518	Pips	-0.136534
-4.507926	Pitt	-0.439281
-4.655835	Place	-0.1813155
-4.890518	Plant	-0.1336636
-4.890518	Plantagenet	-0.1364523
-4.890518	Plate	-0.136534
-4.890518	Platz	-0.1162636
-4.890518	Play	-0.1365145
-4.890518	Please	-0.1361661
-4.890518	Plumb	-0.1294428
-4.890518	Plural	-0.1348766
-4.890518	Plymouth	-0.1331893
-4.890518	Poe	-0.1352281
-4.655835	Police	-0.1951039
-4.890518	Police-Constable	-0.136538
-4.890518	Police-constable	-0.136538
-4.890518	Pollock	-0.1364873
-4.237036	Pompey	-0.1363003
-4.655835	Pondicherry	-0.2332008
-4.890518	Pooh	-0.1145167
-4.890518	Pool	-0.2798318
-4.890518	Poor	-0.1358801
-4.397796	Pope	-0.356272
-4.890518	Portsdown	-0.1365223
-4.890518	Portsmouth	-0.1364133
-4.890518	Portuguese	-0.1365184
-4.772944	Possibly	-0.08870249
-4.772944	Post	-0.1095878
-4.890518	Posted	-0.1364484
-4.890518	Potter	-0.1352281
-4.890518	Powdered	-0.1365145
-4.890518	Prague	-0.1336636
-4.772944	Pray	-0.3662379
-4.890518	Precisely	-0.6031876
-4.655835	Premier	-0.1537449
-4.237036	Prendergast	-0.147527
-4.890518	Presently	-0.2902228
-4.890518	President	-0.1292568
-4.655835	Press	-0.17255
-4.772944	Presuming	-0.2569887
-4.772944	Price	-0.1127606
-4.890518	Prima	-0.136538
-4.772944	Prime	-0.7916154
-4.772944	Prince	-0.1278753
-4.890518	Princess	-0.1162636
-4.890518	Principal	-0.1281709
-4.890518	Pringle	-0.1162636
-4.772944	Priory	-0.3692986
-4.890518	Pritchard	-0.1351851
-4.890518	Private	-0.1365363
-4.890518	Probably	-0.1715008
-4.890518	Problem	-0.1365145
-4.890518	Problems	-0.1360939
-4.890518	Proceed	-0.1162636
-3.805417	Professor	-0.4427011
-4.890518	Promise	-0.1284904
-4.890518	Proosia	-0.1162636
-4.890518	Prosper	-0.1187362
-4.890518	Providence	-0.1364172
-4.890518	Pshaw	-0.1145167
-4.890518	Public	-0.1365107
-4.890518	Pugilist	-0.1187362
-4.772944	Pull	-0.213924
-4.890518	Pullman	-0.136538
-4.890518	Punjab	-0.1162636
-4.890518	Purely	-0.136534
-4.890518	Puritan	-0.1344974
-4.890518	Purple	-0.1365029
-4.772944	Put	-0.1865978
-4.890518	Putting	-0.1329638
-4.772944	Puzzle	-0.1337088
-4.310019	Pycroft	-0.3704566
-4.890518	Pyland	-0.2930211
-4.890518	Queen	-0.136538
-4.890518	Queer	-0.1363783
-4.772944	Quick	-0.4837411
-4.890518	Quiet	-0.1162636
-4.890518	Quincey	-0.1352281
-4.890518	Quite	-0.7920317
-4.890518	R	-0.1162636
-4.772944	R.	-0.1361895
-4.890518	RED-HEADED	-0.314502
-4.890518	RETURN	-0.9834931
-4.772944	ROCK	-0.1950875
-4.890518	RUCASTLE	-0.1187362
-4.397796	Rachel	-0.3575841
-4.772944	Ragged	-0.3145003
-4.890518	Railway	-0.1162636
-4.890518	Rain	-0.1343762
-4.310019	Ralph	-0.2932049
-4.507926	Randall	-0.1119543
-4.772944	Randalls	-0.1127606
-4.890518	Ras	-0.240644
-4.890518	Rasper	-0.1187362
-4.890518	Ratcliff	-0.136538
-4.772944	Rather	-0.13572
-4.772944	Read	-0.2578323
-4.071474	Reading	-0.2712813
-4.890518	Really	-0.2702479
-4.890518	Recently	-0.1350446
-4.772944	Red	-0.1364509
-4.772944	Red-headed	-0.3714368
-4.890518	Regency	-0.1187362
-4.655835	Regent	-0.1928075
-4.890518	Reginald	-0.3144552
-4.772944	Reichenbach	-0.1958202
-4.772944	Reigate	-0.1294354
-4.890518	Relations	-0.1351851
-4.890518	Relieved	-0.1162636
-4.772944	Remember	-0.1518496
-4.890518	Remo	-0.1187362
-4.772944	Republican	-0.1364621
-4.772944	Resident	-0.2609184
-4.890518	Restaurant	-0.1162636
-4.890518	Results	-0.1360589
-4.890518	Retired	-0.134067
-4.890518	Return	-0.136534
-4.890518	Returning	-0.1301821
-4.655835	Reuben	-0.6155086
-4.890518	Reuter	-0.1352281
-4.890518	Rhodesia	-0.1187362
-4.890518	Rhodesian	-0.136534
-4.890518	Rhone	-0.1162636
-4.890518	Rica	-0.1162636
-4.890518	Richard	-0.1364795
-4.890518	Ricoletti	-0.1281709
-4.890518	Riding	-0.1365363
-4.507926	Ridling	-0.439439
-4.655835	Right	-0.1857039
-4.890518	Ripley	-0.1162636
-4.772944	Ritual	-0.1797935
-4.890518	River	-0.1294428
-4.027854	Road	-0.5806273
-4.890518	Roaring	-0.1365145
-4.655835	Robbery	-0.1973777
-4.655835	Robert	-0.2417823
-4.890518	Robinson	-0.1162636
-4.890518	Rockies	-0.1162636
-4.890518	Roman	-0.1365363
-4.397796	Ronald	-0.5434576
-4.890518	Room	-0.1162636
-4.890518	Rooms	-0.1357548
-4.772944	Rosenlaui	-0.1764325
-4.237036	Ross	-0.352365
-4.890518	Rothiere	-0.1162636
-4.890518	Rotterdam	-0.1187362
-4.890518	Roughly	-0.136538
-4.890518	Round	-0.1317869
-4.772944	Row	-0.08866108
-4.655835	Royal	-0.262717
-4.507926	Roylott	-0.2718911
-4.890518	Roylotts	-0.2525513
-4.237036	Rucastle	-0.190278
-4.772944	Rucastles	-0.1326932
-4.890518	Rue	-0.136538
-4.890518	Rugby	-0.1365223
-4.890518	Rugger	-0.1365223
-4.890518	Run	-0.1355832
-4.890518	Running	-0.1353296
-4.890518	Rushing	-0.1354584
-4.772944	Russell	-0.135195
-4.890518	Russia	-0.1162636
-4.310019	Russian	-0.1375827
-4.890518	Russo-German	-0.136538
-4.890518	Ruston	-0.09758642
-4.310019	Ryder	-0.1972932
-4.772944	S	-0.1949732
-4.655835	S.	-0.1363863
-4.890518	SAW	-0.1312827
-4.890518	SCANDAL	-0.1365363
-4.655835	SEA	-0.6824788
-4.890518	SEBASTIAN	-0.1162636
-4.890518	SEPTEMBER	-0.1162636
-4.772944	SHERLOCK	-1.092649
-4.890518	SIMON	-0.1187362
-4.890518	SIR	-0.1365363
-4.890518	SL.NE	-0.1187362
-4.890518	SLANE	-0.1187362
-4.890518	SLANEY	-0.1187362
-4.890518	SPECKLED	-0.136538
-4.890518	ST	-0.1187362
-4.890518	STANLEY	-0.136538
-4.890518	STRAND	-0.9513241
-4.890518	Saddle	-0.1331618
-4.890518	Saffron	-0.1365223
-4.772944	Saltire	-0.1336117
-4.890518	Same	-0.1362731
-4.890518	Samuel	-0.1187362
-4.507926	San	-0.1942794
-4.890518	Sand	-0.1187362
-4.890518	Sandeford	-0.1939542
-4.890518	Sarasate	-0.136534
-4.027854	Saturday	-0.1271628
-4.890518	Saturdays	-0.1187362
-4.772944	Saunders	-0.2431166
-4.507926	Savannah	-0.1330355
-4.772944	Save	-0.1635026
-4.890518	Saviour	-0.1352281
-4.507926	Saxe-Coburg	-0.6155047
-4.890518	Saxe-Meningen	-0.1162636
-4.772944	Saxon	-0.1365072
-4.890518	Say	-0.125073
-4.890518	Scala	-0.1162636
-4.890518	Scandal	-0.1294428
-4.890518	Scandinavia	-0.1764325
-4.890518	Scarlet	-0.5952576
-4.890518	Scholarship	-0.1187362
-4.890518	School	-0.2237728
-4.890518	Scot	-0.1348766
-4.655835	Scotch	-0.1940456
-4.890518	Scotch-woman	-0.1187362
-4.890518	Scotia	-0.1162636
-3.951898	Scotland	-1.04955
-4.772944	Scott	-0.1544335
-4.890518	Scott_	-0.1693937
-4.890518	Scoundrel	-0.1348766
-4.890518	Scylla	-0.1292568
-4.890518	Sea	-0.1187362
-4.890518	Seated	-0.1294428
-4.890518	Sebastian	-0.2608871
-4.772944	Second	-0.3013448
-4.397796	Secretary	-0.1241116
-4.772944	See	-0.3486151
-4.772944	Seeing	-0.2061453
-4.890518	Seems	-0.1301821
-4.890518	Seen	-0.1312827
-4.890518	Seizing	-0.1346968
-4.890518	Seldom	-0.2145173
-4.772944	Send	-0.1295657
-4.890518	September	-0.1162636
-4.507926	Sergeant	-0.1941468
-4.890518	Sergius	-0.1127606
-4.655835	Serpentine	-0.1951624
-4.772944	Serpentine-mews	-0.240644
-4.890518	Serve	-0.1350016
-4.772944	Served	-0.2538232
-4.890518	Set	-0.1312827
-4.890518	Seven	-0.1346345
-4.772944	Several	-0.1672086
-4.890518	Severn	-0.1162636
-4.890518	Shaftesbury	-0.136534
-4.772944	Shall	-0.2746168
-4.890518	Sharp	-0.1331893
-4.772944	Shaw	-0.2237728
-4.655835	She	-0.3718956
-4.890518	Sheeny	-0.1355091
-4.890518	Sheep-marks	-0.1354935
-3.409439	Sherlock	-1.326471
-4.890518	Sherpur	-0.1162636
-4.890518	Shetland	-0.1365223
-4.890518	Shillings	-0.1357548
-4.772944	Shipping	-0.1365228
-4.890518	Sholto	-0.1364289
-4.890518	Sholtos	-0.1187362
-4.772944	Shortly	-0.4388876
-4.890518	Shot	-0.1359108
-4.772944	Should	-0.2750694
-4.890518	Show	-0.1357743
-4.890518	Showing	-0.1326083
-4.772944	Siberia	-0.09512082
-4.890518	Sidelights	-0.1343879
-4.890518	Sierra	-0.136538
-4.890518	Sigerson	-0.1162636
-4.890518	Sigismond	-0.136534
-4.890518	Sign	-0.306135
-4.890518	Sikhs	-0.1162636
-4.310019	Silas	-0.615528
-4.071474	Silver	-0.9513241
-4.772944	Simon	-0.2540258
-4.890518	Simply	-0.1344426
-4.11997	Simpson	-0.1023941
-4.772944	Since	-0.1578233
-4.890518	Singleford	-0.1352281
-4.890518	Singularity	-0.1343918
-3.805417	Sir	-0.4318339
-4.772944	Sit	-0.535396
-4.655835	Six	-0.180591
-4.507926	Slaney	-0.2704691
-4.890518	Slater	-0.1162636
-4.890518	Sleepy	-0.136538
-4.890518	Slipping	-0.1359108
-4.890518	Slowly	-0.1220049
-4.890518	Smack	-0.1348766
-4.890518	Small	-0.1162636
-4.890518	Smart	-0.1363432
-4.174571	Smith	-0.2574041
-4.890518	Smith-Mortimer	-0.1365145
-4.890518	Snake-catcher	-0.1343918
-4.890518	Snapping	-0.1359809
-4.655835	So	-0.4069684
-4.071474	Soames	-0.317721
-4.890518	Society	-0.1162636
-4.890518	Sold	-0.1351344
-4.890518	Solitary	-0.2609184
-4.655835	Some	-0.2055778
-4.890518	Somebody	-0.1364717
-4.772944	Someone	-0.1930868
-4.772944	Something	-0.147959
-4.772944	Sometimes	-0.2332556
-4.890518	Somomy	-0.1365145
-4.890518	Son	-0.1281709
-4.890518	Sooner	-0.1355481
-4.507926	Sophy	-0.1169834
-4.772944	Sorry	-0.3081461
-4.890518	Sound	-0.1337381
-4.174571	South	-0.2652006
-4.655835	Southampton	-0.113203
-4.772944	Southern	-0.2153666
-4.890518	Southerton	-0.1352281
-4.890518	Southsea	-0.1187362
-4.890518	Sovereign	-0.135903
-4.890518	Spare	-0.1350016
-4.507926	Spaulding	-0.1198065
-4.890518	Speak	-0.1351344
-4.772944	Speaking	-0.1365205
-4.890518	Speckled	-0.2609184
-4.890518	Spence	-0.2609144
-4.890518	Spies	-0.1292568
-4.890518	Splendid	-0.1348766
-4.11997	Square	-0.3496089
-4.890518	Squatted	-0.1343879
-4.772944	St	-0.2431166
-3.887269	St.	-0.8027253
-4.890518	Stain	-0.1551965
-4.890518	Stamford	-0.1162636
-4.890518	Stand	-0.1331228
-4.772944	Standard	-0.09758642
-4.890518	Standing	-0.1272515
-3.951898	Stanley	-1.268674
-4.655835	Star	-0.2023724
-4.772944	Stark	-0.107993
-4.890518	Stars	-0.1292568
-4.890518	Starving	-0.1187362
-4.772944	State	-0.1334875
-4.772944	States	-0.1127423
-4.027854	Station	-0.3603359
-4.174571	Staunton	-0.2046578
-4.890518	Stay	-0.1361173
-4.655835	Steiler	-0.1279887
-4.890518	Step	-0.1339516
-4.772944	Stepney	-0.2237728
-4.890518	Stepping	-0.1351344
-4.890518	Stevens	-0.1162636
-4.772944	Stevenson	-0.1140087
-4.772944	Stewart	-0.2942277
-4.890518	Stick	-0.1331893
-4.772944	Still	-0.4999468
-4.772944	Stock	-0.2609184
-4.890518	Stock-Broker	-0.1352281
-4.507926	Stoke	-0.8787422
-4.890518	Stolen	-0.09758642
-4.507926	Stoner	-0.2949581
-4.772944	Stop	-0.122327
-4.890518	Stoper	-0.1729106
-3.918382	Straker	-0.2520905
-4.772944	Strand	-0.2163977
-4.890518	Strange	-0.1162636
-4.890518	Stranger	-0.1352281
-4.772944	Strasburg	-0.1187304
-4.655835	Streatham	-0.1081149
-3.419548	Street	-0.4509097
-4.890518	Striding	-0.1359108
-4.890518	Stripes	-0.1187362
-4.890518	Strong	-0.2581185
-4.890518	Stroud	-0.136534
-4.890518	Stuarts	-0.1187362
-4.890518	Students	-0.2431166
-4.507926	Study	-0.6084369
-4.890518	Subtle	-0.1361952
-4.890518	Suburban	-0.2609144
-4.772944	Such	-0.3508884
-4.772944	Suddenly	-0.460888
-4.890518	Suez	-0.136538
-4.890518	Summer	-0.136538
-4.890518	Sunday	-0.1342901
-4.772944	Sunday-school	-0.1361895
-4.890518	Suppose	-0.1846561
-4.890518	Supposing	-0.1326083
-4.890518	Sure	-0.1361952
-4.655835	Surely	-0.2109993
-4.890518	Surprise	-0.133354
-4.310019	Surrey	-0.1346805
-4.237036	Susan	-0.1260085
-4.890518	Suspicion	-0.12805
-4.397796	Sussex	-0.1613061
-4.772944	Sutherland	-0.2228539
-4.772944	Sutton	-0.09758642
-4.890518	Swain	-0.1161761
-4.890518	Swan	-0.1343665
-4.397796	Swandam	-0.7404629
-4.890518	Sweet	-0.1364094
-4.890518	Swiftly	-0.1269651
-4.890518	Swindon	-0.1162636
-4.655835	Swiss	-0.134242
-4.772944	Switzerland	-0.1146928
-4.655835	Sydenham	-0.1725453
-4.890518	Sydney	-0.1162636
-4.890518	Syndicate	-0.2431166
-4.890518	Syria	-0.1292568
-4.507926	T	-0.1663702
-4.890518	T.	-0.1162636
-4.890518	TELEGRAPH	-0.240644
-4.772944	THAT	-0.1330148
-4.027854	THE	-0.5048727
-4.890518	THIS	-0.1364601
-4.890518	THUMB	-0.136534
-4.890518	THY	-0.136538
-4.890518	TIMES	-0.1162454
-4.507926	TO	-0.1364861
-4.890518	TOWERS	-0.1162636
-4.890518	TRUE	-0.1363861
-4.890518	TWISTED	-0.136538
-4.890518	TWO	-0.1365262
-4.890518	Taciturn	-0.1162636
-4.890518	Tadpole	-0.1364133
-4.772944	Take	-0.2668343
-4.890518	Taking	-0.1312827
-4.890518	Tall	-0.133201
-4.772944	Tangey	-0.1115258
-4.890518	Tankerville	-0.1162536
-4.890518	Tarleton	-0.1365262
-4.890518	Tarlton	-0.09758642
-4.237036	Tavistock	-0.1802806
-4.890518	Technically	-0.1162636
-4.655835	Teddy	-0.1104814
-4.772944	Telegraph	-0.1086254
-4.772944	Tell	-0.4349574
-4.772944	Temple	-0.1483756
-4.772944	Ten	-0.1934726
-4.890518	Tennessee	-0.1162636
-4.890518	Terai	-0.136499
-4.655835	Terrace	-0.1680338
-4.772944	Terrible	-0.1348122
-4.890518	Terror	-0.1344974
-4.890518	Terse	-0.1292568
-4.772944	Testament	-0.240644
-4.890518	Teutonic	-0.1362381
-4.890518	Texas	-0.1162636
-4.890518	Thames	-0.1899879
-4.772944	Thank	-1.03881
-4.890518	Thanks	-0.1301821
-4.507926	That	-0.6071435
-3.918382	The	-0.3178488
-4.890518	Theatre	-0.1187362
-4.772944	Their	-0.1356495
-4.655835	Then	-0.6432361
-4.890518	Thence	-0.1350446
-4.890518	Theological	-0.1365301
-4.890518	Theorem	-0.1162636
-4.890518	Theories	-0.1357626
-4.772944	There	-1.040181
-4.890518	Therefore	-0.2148317
-4.890518	Therein	-0.1364678
-4.237036	Theresa	-0.1717622
-4.772944	These	-0.2478643
-4.772944	They	-0.4383394
-4.890518	Thick	-0.1365262
-4.890518	Things	-0.1330109
-4.772944	Think	-0.3046896
-4.772944	Third	-0.115972
-4.890518	Thirty	-0.1363783
-4.655835	This	-0.3443671
-4.890518	Thoreau	-0.1352281
-4.772944	Thorneycroft	-0.2609144
-4.772944	Thorpe	-0.3567464
-4.772944	Those	-0.4125206
-4.890518	Though	-0.1338284
-4.772944	Threadneedle	-0.2607587
-4.890518	Threatens	-0.1301821
-4.655835	Three	-0.1766904
-4.890518	Three-Quarter	-0.2431166
-4.890518	Three-forty	-0.1343918
-4.772944	Through	-0.4970839
-4.890518	Throw	-0.1312827
-4.890518	Thrust	-0.1328853
-4.890518	Thucydides	-0.1187362
-4.890518	Thumb	-0.136534
-4.507926	Thursday	-0.2074399
-4.772944	Thurston	-0.1164778
-4.890518	Thus	-0.133697
-4.890518	Tibet	-0.1162636
-4.890518	Time	-0.133354
-4.890518	Times	-0.1288788
-4.890518	Tingling	-0.1330519
-4.890518	Tiptoes	-0.1348766
-4.890518	Tired	-0.1365068
-4.890518	Tired-looking	-0.1355481
-4.890518	Title	-0.1292568
-4.655835	To	-0.2689464
-4.772944	To-day	-0.1425877
-4.772944	To-morrow	-0.2351786
-4.890518	To-night	-0.1342901
-4.772944	Tobacco	-0.2536372
-4.890518	Tobin	-0.1162636
-4.890518	Together	-0.2595403
-4.11997	Toller	-0.1511047
-4.890518	Tollers	-0.1363627
-4.772944	Too	-0.2827035
-4.890518	Torrington	-0.136534
-4.890518	Tosca	-0.1344974
-4.507926	Tottenham	-0.4394329
-4.890518	Tottering	-0.1292568
-4.890518	Tower	-0.1281709
-4.890518	Towers	-0.1111418
-4.890518	Trafalgar	-0.1365107
-4.890518	Tragic	-0.1162636
-4.890518	Treasury	-0.1361524
-4.890518	Treaty	-0.1160722
-4.890518	Tree	-0.136538
-4.890518	Tregellis	-0.1162636
-4.655835	Trelawney	-0.6824709
-4.890518	Trepoff	-0.1364289
-4.507926	Trevelyan	-0.1431526
-3.887269	Trevor	-0.1657892
-4.890518	Trincomalee	-0.1162636
-4.772944	Trinity	-0.2609105
-4.890518	Triple	-0.136538
-4.772944	Trumpington	-0.1121064
-4.890518	Trust	-0.1350016
-4.772944	Try	-0.2101231
-4.772944	Tudor	-0.1343743
-4.174571	Tuesday	-0.30141
-4.890518	Tunbridge	-0.136538
-4.890518	Turkish	-0.1365184
-4.890518	Turn	-0.1354584
-4.071474	Turner	-0.3518279
-4.890518	Turning	-0.1325772
-4.890518	Tuson	-0.09758642
-4.772944	Tut	-0.3376131
-4.890518	Tut-tut	-0.1348766
-4.890518	Twelve	-0.1364172
-4.890518	Twenty	-0.1355481
-4.890518	Twenty-four	-0.1365068
-4.890518	Twenty-nine	-0.1162636
-4.890518	Twenty-six	-0.1365363
-4.890518	Twenty-two	-0.136534
-4.890518	Twice	-0.1639592
-4.890518	Twisted	-0.136538
-4.772944	Two	-0.2348279
-4.890518	U.	-0.136534
-4.890518	U.S.A.	-0.1362381
-4.890518	UNCLE	-0.1362692
-4.890518	UNICORN	-0.3337867
-4.890518	Uffa	-0.1162636
-4.890518	Uncle	-0.1365223
-4.772944	Under	-0.1294848
-4.890518	Under-Secretary	-0.1336636
-4.890518	Underground	-0.1264037
-4.772944	Underneath	-0.1291046
-4.772944	Undoubtedly	-0.414984
-4.890518	Unemployed	-0.1187362
-4.890518	Unfolding	-0.133452
-4.772944	Unfortunately	-0.1920916
-4.890518	Union	-0.1187059
-4.890518	United	-0.1365363
-4.890518	Universities	-0.1335931
-4.310019	University	-0.1385218
-4.772944	Unless	-0.1267507
-4.890518	Until	-0.1784568
-4.772944	Up	-0.4322682
-4.772944	Upon	-0.3212527
-4.655835	Upper	-0.3144903
-4.890518	Uppingham	-0.1355481
-4.890518	Uriah	-0.1292568
-4.890518	V	-0.1162636
-4.397796	V.	-0.1799677
-4.890518	VALLEY	-0.136538
-4.890518	VERY	-0.1364523
-4.655835	VI	-0.2967003
-4.890518	VI.	-0.1344974
-4.655835	VII	-0.2967003
-4.890518	VII.	-0.1344974
-4.655835	VIII	-0.2967003
-4.890518	VIII.	-0.1344974
-4.890518	VIOLET	-0.136534
-4.890518	Vale	-0.1162636
-4.655835	Valley	-0.0859127
-4.890518	Vamberry	-0.1162636
-4.890518	Vast	-0.1365363
-4.890518	Vegetarian	-0.136538
-4.890518	Venezuelan	-0.136538
-4.890518	Venner	-0.1365145
-4.772944	Venucci	-0.240644
-4.890518	Verdes	-0.1351851
-4.772944	Vere	-0.1363219
-4.772944	Verner	-0.1129209
-4.890518	Vernet	-0.1162636
-4.507926	Very	-0.3814764
-4.397796	Victor	-0.1763136
-4.310019	Victoria	-0.1749333
-4.890518	Villa	-0.1364133
-4.890518	Villain	-0.1348766
-4.397796	Vincent	-0.4388021
-4.890518	Violence	-0.1279706
-4.890518	Violet	-0.2932294
-4.890518	Visited	-0.1365363
-4.890518	Vitus	-0.2596085
-4.890518	Voil	-0.136534
-4.890518	Vol	-0.9335223
-4.890518	Volume	-0.1363627
-4.655835	Von	-0.2609128
-4.890518	Vox	-0.136538
-4.890518	W.	-0.1365363
-4.772944	WAS	-0.1278595
-4.772944	WE	-0.1341769
-4.890518	WERE	-0.1364873
-4.890518	WESTMINSTER	-0.1187362
-4.890518	WHEN	-0.1342901
-4.890518	WILSON	-0.1364133
-4.890518	WITH	-0.1365029
-4.772944	Wait	-0.369378
-4.890518	Waldbaum	-0.1162636
-4.655835	Wales	-0.1764325
-4.890518	Walk	-0.136351
-4.890518	Wallenstein	-0.1162636
-4.890518	Walsall	-0.1162636
-4.890518	Walsham	-0.1161026
-4.890518	Walsingham	-0.1365184
-4.890518	Want	-0.1348766
-4.890518	Wanted	-0.1162636
-4.655835	War	-0.1950976
-4.890518	Warburton	-0.1352281
-4.890518	Ward	-0.136534
-4.890518	Wardlaw	-0.1352281
-4.890518	Warm	-0.1348766
-4.772944	Warsaw	-0.1141194
-4.772944	Was	-0.4785338
-4.890518	Water	-0.1162636
-4.890518	Waterbeach	-0.1162636
-4.071474	Waterloo	-0.2923608
-3.858237	Watson	-1.122217
-4.890518	Watt	-0.2607587
-4.507926	We	-0.6314681
-4.890518	Wedding	-0.1362381
-4.890518	Wedlock	-0.1365262
-4.310019	Wednesday	-0.1519249
-4.890518	Weiss	-0.1365145
-4.890518	Welbeck	-0.1363783
-4.310019	Well	-1.712526
-4.890518	Well-known	-0.1365363
-4.890518	Wellington	-0.1363783
-4.890518	Wells	-0.1162636
-4.772944	Welsh	-0.1364426
-4.772944	Were	-0.2616371
-4.772944	Wessex	-0.359627
-4.890518	West	-0.314502
-4.890518	West-End	-0.1364523
-4.890518	West-country	-0.136534
-4.890518	West-end	-0.1187362
-4.772944	Westaway	-0.1320287
-4.890518	Westbury	-0.1365107
-4.890518	Western	-0.136538
-4.772944	Westhouse	-0.2608949
-4.507926	Westminster	-0.1764164
-4.890518	Westphail	-0.1162636
-4.890518	Wharf	-0.1162636
-4.507926	What	-0.5320609
-4.772944	Whatever	-0.1248516
-4.655835	When	-0.5540887
-4.655835	Where	-0.4513803
-4.890518	Whether	-0.1885704
-4.772944	Which	-0.1350058
-4.890518	While	-0.1769469
-4.890518	Whip	-0.1354194
-4.397796	Whitehall	-0.2440455
-4.310019	Whitney	-0.2559002
-4.890518	Whittington	-0.1187362
-4.772944	Who	-0.3558349
-4.890518	Whoa	-0.1162636
-4.890518	Whoever	-0.1333386
-4.890518	Whole	-0.1364717
-4.772944	Whom	-0.1899407
-4.772944	Whose	-0.1127258
-4.772944	Why	-0.7615589
-4.890518	Wight	-0.1187362
-4.890518	Wigmore	-0.1363783
-4.507926	Wilder	-0.2306432
-4.890518	Wilful	-0.1365301
-4.890518	Wilhelm	-0.136538
-4.772944	Will	-0.4745425
-3.831024	William	-0.261886
-4.890518	Williams	-0.1937312
-4.310019	Williamson	-0.1442061
-4.310019	Willoughby	-0.7915999
-4.890518	Willows	-0.1364756
-4.237036	Wilson	-0.3524063
-4.890518	Wilton	-0.1365145
-4.890518	Wimpole	-0.1363783
-4.237036	Winchester	-0.197389
-4.507926	Windibank	-0.2791698
-4.772944	Windigate	-0.1052399
-4.890518	Wire	-0.1359147
-4.772944	With	-0.3919583
-4.890518	Within	-0.1217662
-4.772944	Without	-0.1772511
-4.890518	Witness	-0.6145973
-4.890518	Wo	-0.2608404
-4.174571	Woking	-0.1360407
-4.890518	Women	-0.1357626
-4.890518	Wonderful	-0.6808174
-4.397796	Wood	-0.1962644
-4.890518	Wooden-leg	-0.1343762
-4.890518	Woodhouse	-0.2596085
-3.887269	Woodley	-0.2082294
-4.655835	Woodman	-0.4381309
-4.890518	Work	-0.1343918
-4.890518	Working	-0.1330519
-4.890518	Worship	-0.1162636
-4.772944	Worthingdon	-0.2609066
-4.772944	Would	-0.2380156
-4.890518	Wright	-0.112586
-4.890518	Written	-0.1294428
-4.655835	X	-0.2449168
-4.890518	X.	-0.1344974
-4.655835	XI	-0.2967003
-4.890518	XI.	-0.1344974
-4.772944	XII	-0.2431166
-4.890518	XII.	-0.1344974
-4.890518	XIII.	-0.1344974
-4.655835	XXX	-0.1184079
-4.507926	YOU	-0.1153537
-4.890518	Yard	-0.3514178
-4.772944	Yellow	-0.1292097
-4.772944	Yes	-1.642009
-4.772944	Yesterday	-0.092708
-4.772944	Yet	-0.2330572
-4.890518	York	-0.1352341
-4.507926	You	-0.7029524
-4.890518	Young	-0.1361685
-4.772944	Your	-0.1839033
-4.772944	Yours	-0.5049797
-4.397796	Yoxley	-0.5054957
-4.890518	Zealand	-0.1187001
-4.890518	Zoo	-0.1292568
-4.655835	[	-0.2122845
-4.655835	]	-0.173988
-4.655835	_Gloria	-0.615532
-4.772944	_Hotspur_	-0.1162454
-3.380453	``	-0.8871105
-2.110326	a	-0.4432551
-4.890518	a-lying	-0.1294428
-4.890518	a-stampin	-0.1362381
-4.890518	a-walkin	-0.1362381
-4.890518	a.m.	-0.1363627
-4.772944	aback	-0.1715051
-4.507926	abandon	-0.1712096
-4.507926	abandoned	-0.130816
-4.890518	abandoning	-0.1357626
-4.890518	abandons	-0.1359965
-4.507926	abduction	-0.09787615
-4.890518	abductor	-0.133354
-4.890518	aberration	-0.1361719
-4.890518	abetted	-0.1344426
-4.655835	abhorrent	-0.1884418
-4.890518	abhors	-0.1337381
-4.890518	abide	-0.136538
-4.890518	abilities	-0.1111418
-4.397796	ability	-0.1748219
-4.890518	abjure	-0.1343801
-3.887269	able	-1.0952
-4.890518	able-bodied	-0.1363121
-4.772944	abnormal	-0.1088205
-4.772944	abnormally	-0.1364816
-4.772944	aboard	-0.1070433
-4.772944	abode	-0.2525513
-4.655835	abominable	-0.1362812
-4.890518	abomination	-0.1187362
-4.890518	abortive	-0.1187362
-4.890518	abound	-0.1294428
-2.623568	about	-0.4943874
-3.36215	above	-0.3890343
-4.890518	abrasion	-0.1162636
-4.890518	abreast	-0.1281709
-4.397796	abroad	-0.1383846
-4.310019	abrupt	-0.114853
-4.655835	abruptly	-0.09469472
-4.890518	abruptness	-0.1281709
-4.890518	absconding	-0.1365223
-3.988217	absence	-0.2202396
-4.237036	absent	-0.1506279
-4.890518	absentees	-0.1187362
-3.831024	absolute	-0.1797355
-3.677162	absolutely	-0.174613
-4.772944	absolved	-0.2584474
-4.890518	absorb	-0.1354545
-4.174571	absorbed	-0.2223659
-4.890518	absorbing	-0.1187362
-4.890518	abstract	-0.1365262
-4.237036	abstracted	-0.1095777
-4.772944	abstruse	-0.3072209
-3.918382	absurd	-0.1352453
-4.507926	absurdly	-0.2342434
-4.772944	abundant	-0.1364933
-4.772944	abuse	-0.1333129
-4.890518	abusive	-0.136538
-4.772944	abutted	-0.2587683
-4.507926	abyss	-0.1917742
-4.890518	academic	-0.136538
-4.890518	acceding	-0.1301821
-4.507926	accent	-0.518549
-4.890518	accentuated	-0.1351929
-4.310019	accept	-0.1418997
-4.890518	acceptable	-0.1365068
-4.890518	acceptance	-0.2525513
-4.507926	accepted	-0.1120842
-4.890518	accepting	-0.1162636
-4.772944	access	-0.2545624
-4.890518	accessories	-0.1162636
-4.890518	accessory	-0.1095956
-3.988217	accident	-0.2393031
-4.655835	accidental	-0.1975643
-4.772944	accidentally	-0.1360337
-4.772944	accidents	-0.1158169
-4.772944	accommodate	-0.1342335
-4.890518	accommodating	-0.1365184
-4.397796	accompanied	-0.2291598
-4.890518	accompaniments	-0.1294428
-4.655835	accompany	-0.1771714
-4.772944	accompanying	-0.1347323
-4.890518	accompli	-0.133201
-4.507926	accomplice	-0.2532213
-4.772944	accomplish	-0.1168119
-4.655835	accomplished	-0.1342279
-4.890518	accomplishment	-0.1187362
-4.772944	accomplishments	-0.1127606
-4.890518	accord	-0.1162636
-4.890518	accordance	-0.1330519
-4.655835	according	-0.6091761
-4.772944	accordingly	-0.1185599
-3.4405	account	-0.7124916
-4.890518	accountant	-0.1161842
-4.890518	accounted	-0.258044
-4.11997	accounts	-0.155415
-4.655835	accumulated	-0.1107187
-4.890518	accumulating	-0.1162636
-4.890518	accumulation	-0.1281709
-4.655835	accuracy	-0.1239325
-4.655835	accurate	-0.1132641
-4.772944	accurately	-0.131202
-4.772944	accursed	-0.1362111
-4.890518	accusation	-0.133201
-4.655835	accuse	-0.1312751
-4.397796	accused	-0.1657762
-4.890518	accuser	-0.1187362
-4.11997	accustomed	-0.4153598
-4.890518	acetones	-0.1162636
-4.890518	achieved	-0.1361251
-4.890518	achievements	-0.1355598
-4.772944	acid	-0.1136847
-4.890518	acid-faced	-0.1365223
-4.890518	acid-stained	-0.1162636
-4.310019	acknowledge	-0.4270543
-4.890518	acknowledged	-0.1326083
-4.772944	acknowledges	-0.1310522
-3.918382	acquaintance	-0.277558
-4.890518	acquaintances	-0.1362537
-4.772944	acquainted	-0.311016
-4.890518	acquiesce	-0.1294428
-4.890518	acquiesced	-0.1187362
-4.772944	acquiescence	-0.09758642
-4.890518	acquire	-0.1355871
-4.655835	acquired	-0.2112758
-4.890518	acquirement	-0.1281709
-4.772944	acquiring	-0.1270606
-4.772944	acquitted	-0.1127483
-4.772944	acres	-0.1888557
-4.890518	acrobat	-0.1355481
-3.126073	across	-0.693014
-3.988217	act	-0.2188423
-3.918382	acted	-0.2246029
-4.11997	acting	-0.1994721
-3.75833	action	-0.2196382
-4.772944	actionable	-0.1136683
-4.310019	actions	-0.1286259
-3.988217	active	-0.1878532
-4.772944	activity	-0.1130236
-4.772944	actor	-0.1139021
-4.772944	actors	-0.2074872
-4.890518	actress	-0.1361329
-4.772944	acts	-0.1253106
-4.655835	actual	-0.1361824
-4.071474	actually	-0.170831
-4.890518	acumen	-0.1342901
-4.772944	acute	-0.1251791
-4.890518	acutely	-0.1365145
-4.890518	adapt	-0.1359965
-4.890518	adaptable	-0.1365223
-4.507926	adapted	-0.1849187
-4.397796	add	-0.2298613
-4.174571	added	-0.1656789
-4.890518	adder	-0.1348766
-4.890518	addicted	-0.1301821
-4.655835	adding	-0.1239806
-4.507926	addition	-0.1637965
-4.890518	additional	-0.136499
-3.831024	address	-0.288667
-4.237036	addressed	-0.2051127
-4.890518	addresses	-0.1187362
-4.507926	addressing	-0.1162784
-4.890518	adds	-0.1326083
-4.772944	adequate	-0.1186005
-4.890518	adhere	-0.1301821
-4.890518	adhesive	-0.1162636
-4.890518	adjective	-0.1335931
-4.890518	adjectives	-0.1351851
-4.890518	adjoining	-0.1364445
-4.655835	adjusted	-0.1146254
-4.890518	administered	-0.1364795
-4.655835	administration	-0.1084159
-4.174571	admirable	-0.1375841
-4.310019	admirably	-0.2238034
-4.11997	admiration	-0.2057626
-4.655835	admire	-0.2079388
-4.890518	admired	-0.1346968
-4.772944	admirer	-0.1100096
-4.772944	admirers	-0.1323432
-4.655835	admiring	-0.2089908
-4.174571	admit	-0.3352529
-4.772944	admits	-0.1334305
-4.890518	admittance	-0.1187362
-4.237036	admitted	-0.1526844
-4.890518	admitting	-0.1331618
-4.890518	ado	-0.1301821
-4.890518	adopt	-0.1355871
-4.772944	adopted	-0.1318911
-4.890518	adorn	-0.1312827
-4.772944	adorned	-0.1174062
-4.890518	adrift	-0.1162636
-4.11997	advance	-0.1033326
-4.071474	advanced	-0.1014618
-4.890518	advances	-0.1301821
-4.772944	advancing	-0.1339399
-4.027854	advantage	-0.2854371
-4.507926	advantages	-0.1263213
-4.890518	advent	-0.133354
-3.951898	adventure	-0.2778365
-4.237036	adventures	-0.2025605
-4.890518	adventuress	-0.1162636
-4.890518	adventurous	-0.1363549
-4.890518	advertise	-0.1152532
-4.772944	advertised	-0.1131861
-3.887269	advertisement	-0.2978832
-4.655835	advertisements	-0.1099892
-4.772944	advertising	-0.1346793
-3.736572	advice	-0.3446695
-4.237036	advise	-0.3495083
-4.507926	advised	-0.1094012
-4.772944	adviser	-0.1086254
-4.890518	advises	-0.1187362
-4.890518	advocate	-0.1359576
-4.890518	affably	-0.1187362
-3.677162	affair	-0.2851773
-4.890518	affaire	-0.1365184
-3.988217	affairs	-0.2241189
-4.772944	affect	-0.1287304
-4.890518	affectation	-0.1162636
-4.310019	affected	-0.1920731
-4.890518	affecting	-0.1301821
-4.397796	affection	-0.1483046
-4.397796	affectionate	-0.08940591
-4.890518	affectionately	-0.1292568
-4.890518	affections	-0.134067
-4.772944	affliction	-0.1278912
-4.890518	affluent	-0.1364795
-4.174571	afford	-0.2133224
-4.655835	afforded	-0.1294827
-4.772944	afoot	-0.1152532
-3.988217	afraid	-0.5315934
-4.890518	afresh	-0.1187362
-4.890518	aft	-0.1363666
-2.89083	after	-0.4207864
-4.890518	after-hold	-0.1187362
-4.890518	after-taste	-0.1281709
-3.951898	afternoon	-0.2390235
-3.473954	afterwards	-0.183677
-2.959564	again	-0.4541094
-2.981381	against	-0.6232333
-3.918382	age	-0.4660651
-4.772944	aged	-0.1362756
-4.890518	agencies	-0.1187362
-4.397796	agency	-0.2020447
-4.027854	agent	-0.1226798
-4.027854	agents	-0.1982016
-4.890518	aggregate	-0.1301821
-4.890518	aggressive	-0.1364622
-4.890518	aggressively	-0.1363977
-4.890518	agile	-0.1162636
-4.11997	agitated	-0.1388456
-4.027854	agitation	-0.3864395
-3.918382	ago	-0.4338251
-4.890518	agonies	-0.1342901
-4.397796	agony	-0.191171
-4.397796	agree	-0.6960902
-4.890518	agreeable	-0.1187362
-4.071474	agreed	-0.2828819
-4.772944	agreement	-0.2097249
-4.890518	agrees	-0.1330519
-4.772944	agricultural	-0.1162536
-4.890518	ah	-0.1162636
-4.397796	ahead	-0.2043093
-3.988217	aid	-0.3144317
-4.655835	aided	-0.1197939
-4.890518	ails	-0.134646
-4.772944	aim	-0.1364076
-4.890518	aimed	-0.3111533
-4.772944	aimless	-0.1365284
-4.890518	aims	-0.1364639
-3.578275	air	-0.5255072
-4.655835	air-gun	-0.1066997
-4.772944	air-guns	-0.1152532
-4.890518	airs	-0.1187362
-4.890518	airy	-0.1361835
-4.890518	aisle	-0.1360316
-4.772944	ajar	-0.1971748
-4.772944	akimbo	-0.240644
-4.655835	akin	-0.4330848
-4.11997	alarm	-0.2555156
-4.507926	alarmed	-0.1529719
-4.890518	alas	-0.1145167
-4.174571	alert	-0.2641257
-4.890518	alertness	-0.1281709
-4.890518	alias	-0.1187362
-4.890518	alight	-0.1350446
-4.397796	alighted	-0.1703834
-4.890518	alighting	-0.1354935
-4.655835	alike	-0.09392883
-3.831024	alive	-0.3115829
-2.601248	all	-0.37307
-4.890518	all-comprehensive	-0.1365301
-4.772944	all-important	-0.1113833
-4.772944	all-night	-0.2152927
-4.890518	alleging	-0.1326083
-4.772944	alley	-0.1162413
-4.890518	alleys	-0.1294428
-4.890518	alliance	-0.1335931
-4.890518	allied	-0.1187362
-4.890518	allotment	-0.1337381
-4.071474	allow	-0.1878561
-4.397796	allowance	-0.1719931
-3.918382	allowed	-0.2378711
-4.772944	allowing	-0.1299669
-4.772944	allows	-0.1315408
-4.655835	allude	-0.4330848
-4.397796	alluded	-0.168601
-4.237036	allusion	-0.7852674
-4.655835	allusions	-0.3081461
-4.772944	ally	-0.240644
-3.641638	almost	-0.2223556
-3.409439	alone	-0.3458141
-3.409439	along	-0.3699618
-4.237036	aloud	-0.2924046
-4.772944	alphabet	-0.1145167
-3.608802	already	-0.1492286
-3.199604	also	-0.2629781
-4.890518	altar	-0.1313574
-4.890518	alter	-0.1312827
-4.890518	alteration	-0.1294428
-4.772944	alterations	-0.1088205
-4.772944	altercation	-0.1182596
-4.655835	altered	-0.1143387
-4.772944	alternate	-0.2607626
-4.772944	alternately	-0.1363826
-4.890518	alternating	-0.134067
-4.890518	alternation	-0.1360862
-4.237036	alternative	-0.1905946
-4.890518	alternatives	-0.133201
-4.397796	although	-0.1972301
-4.071474	altogether	-0.1361367
-4.890518	aluminium	-0.136538
-4.890518	aluminum	-0.136538
-3.380453	always	-0.1602514
-4.174571	am	-0.4213631
-4.890518	amalgam	-0.1335931
-4.890518	amassed	-0.1364795
-4.890518	amassing	-0.1364601
-4.507926	amateur	-0.1146113
-4.772944	amaze	-0.1343782
-4.507926	amazed	-0.1240228
-3.988217	amazement	-0.3954631
-4.310019	amazing	-0.1681213
-4.890518	ambassador	-0.1162636
-4.397796	amber	-0.207849
-4.890518	ambiguous	-0.1162636
-4.772944	ambition	-0.1086254
-4.890518	ambitions	-0.1351851
-4.890518	ambitious	-0.1162636
-4.890518	ambuscade	-0.1187362
-4.772944	amends	-0.1308393
-4.890518	amethyst	-0.1294428
-4.890518	amiability	-0.1187362
-4.237036	amiable	-0.1076185
-3.951898	amid	-0.5347824
-4.890518	amidst	-0.1312827
-4.397796	amiss	-0.1908486
-4.890518	ammonia	-0.1292568
-4.890518	ammunition	-0.1364756
-4.890518	amnesty	-0.1294428
-3.175625	among	-0.7541522
-4.890518	amongst	-0.1312827
-4.11997	amount	-0.3079464
-4.655835	amounted	-0.1884418
-4.890518	amounts	-0.1301821
-4.772944	ample	-0.1291085
-4.890518	amplifying	-0.1352437
-4.772944	amply	-0.1365051
-4.890518	amuse	-0.1334601
-4.237036	amused	-0.1312167
-4.310019	amusement	-0.2104566
-4.507926	amusing	-0.1086589
-4.890518	amyl	-0.1162636
-2.675649	an	-0.4434063
-4.890518	anaemic	-0.1364912
-4.310019	analysis	-0.2666527
-4.655835	analytical	-0.1363768
-4.772944	analyze	-0.1334149
-4.890518	anatomy	-0.136538
-4.772944	ancestor	-0.09758642
-4.772944	ancestors	-0.1148401
-4.890518	ancestral	-0.1363588
-4.890518	ancestry	-0.1292568
-4.507926	ancient	-0.1291123
-1.778888	and	-0.3126241
-4.890518	angel	-0.1162636
-4.11997	anger	-0.279366
-4.310019	angle	-0.3748894
-4.890518	angles	-0.1187362
-4.890518	angrily	-0.1187362
-4.027854	angry	-0.1631744
-4.890518	anguish	-0.1331893
-4.890518	angular	-0.136499
-4.027854	animal	-0.1102833
-4.772944	animals	-0.1162005
-4.772944	animated	-0.1186573
-4.890518	animosity	-0.133201
-4.772944	aniseed	-0.1329755
-4.655835	ankle	-0.1308672
-4.890518	ankle-deep	-0.1330519
-4.655835	ankles	-0.1256761
-4.890518	annals	-0.1162636
-4.890518	announce	-0.2112641
-4.11997	announced	-0.1863949
-4.655835	announcement	-0.1039644
-4.310019	annoyance	-0.2681722
-4.507926	annoyed	-0.1684961
-4.890518	annoying	-0.1162636
-4.890518	annoys	-0.134646
-4.890518	annual	-0.136499
-4.890518	anoints	-0.1330519
-4.890518	anomaly	-0.1335931
-3.231569	another	-0.1926116
-3.677162	answer	-0.3741999
-4.890518	answerable	-0.1301821
-3.608802	answered	-0.6159589
-4.310019	answering	-0.1348736
-4.507926	answers	-0.1129693
-4.772944	antagonist	-0.1321763
-4.890518	ante-room	-0.1281709
-4.772944	antecedents	-0.09758642
-4.890518	anteroom	-0.1162636
-4.772944	anticipate	-0.1308809
-4.655835	anticipated	-0.09420353
-4.772944	antics	-0.2525513
-4.890518	antidote	-0.1301821
-4.890518	antiquity	-0.1301821
-4.890518	anxieties	-0.1187362
-4.071474	anxiety	-0.295674
-3.858237	anxious	-0.498211
-4.772944	anxiously	-0.1265152
-2.884818	any	-0.271808
-4.772944	anybody	-0.1351326
-4.772944	anyhow	-0.3525327
-3.52299	anyone	-0.2124805
-3.164114	anything	-0.344641
-4.237036	anywhere	-0.1556568
-4.507926	apart	-0.2204602
-4.397796	apartment	-0.3088539
-4.772944	ape	-0.1154739
-4.890518	aperture	-0.1549707
-4.655835	apiece	-0.3408767
-4.772944	apologies	-0.1521877
-4.890518	apologise	-0.1301821
-4.655835	apologize	-0.2394318
-4.890518	apologized	-0.1301821
-4.890518	apologizing	-0.1301821
-4.310019	apology	-0.1670943
-4.890518	apoplexy	-0.1187362
-4.890518	appalled	-0.1331893
-4.890518	apparelled	-0.1162636
-4.655835	apparent	-0.129269
-4.174571	apparently	-0.1325167
-4.772944	apparition	-0.1152409
-4.071474	appeal	-0.2541253
-4.655835	appealed	-0.4330848
-4.890518	appealing	-0.1301821
-4.655835	appeals	-0.2084137
-3.781236	appear	-0.489227
-3.641638	appearance	-0.450906
-4.772944	appearances	-0.1157924
-3.4405	appeared	-0.4543293
-4.890518	appearing	-0.1301821
-3.805417	appears	-0.5719993
-4.507926	appetite	-0.1722592
-4.772944	applause	-0.09758642
-4.655835	apple	-0.08841966
-4.772944	applicant	-0.1299866
-4.655835	application	-0.1078217
-4.310019	applied	-0.09900674
-4.397796	apply	-0.2233009
-4.772944	applying	-0.1325554
-4.772944	appointed	-0.1361121
-4.027854	appointment	-0.202811
-4.890518	appreciable	-0.1365363
-4.397796	appreciate	-0.1644883
-4.507926	appreciated	-0.1234576
-4.890518	apprehended	-0.1187362
-4.890518	apprehension	-0.1162636
-4.890518	apprenticed	-0.1301821
-4.237036	approach	-0.2208897
-4.027854	approached	-0.3015365
-4.174571	approaching	-0.1350942
-4.772944	appropriate	-0.1325083
-4.890518	approve	-0.1187362
-4.655835	approvingly	-0.1961751
-4.890518	apron	-0.1187362
-4.890518	apt	-0.1301821
-4.890518	aptitudes	-0.1187362
-4.655835	aquiline	-0.2120612
-4.890518	arable	-0.1365068
-4.772944	arbitrary	-0.1279587
-4.890518	arc-and-compass	-0.136538
-4.890518	archaeologist	-0.1162636
-4.772944	arched	-0.136283
-4.890518	architects	-0.1162636
-4.890518	architectural	-0.1365363
-4.772944	architecture	-0.1278714
-4.890518	archways	-0.1292568
-4.655835	ardent	-0.1125942
-4.890518	arduous	-0.1363432
-2.745537	are	-0.2762588
-4.772944	area	-0.1280937
-4.772944	argue	-0.2563894
-4.890518	argued	-0.2569887
-4.890518	argues	-0.1312827
-4.772944	arguing	-0.1132537
-4.071474	argument	-0.1483469
-4.772944	arguments	-0.09758642
-4.772944	aright	-0.1927482
-4.655835	arise	-0.1950018
-4.890518	aristocrat	-0.1326083
-4.310019	aristocratic	-0.136204
-3.858237	arm	-0.2808412
-4.507926	arm-chair	-0.2209274
-4.310019	armchair	-0.2812151
-4.890518	armchairs	-0.1187362
-4.397796	armed	-0.08295043
-4.890518	armor	-0.1331893
-4.890518	armory	-0.1281709
-4.071474	arms	-0.1345047
-4.397796	army	-0.09750205
-4.772944	arose	-0.09758642
-3.951898	around	-0.266986
-4.507926	arouse	-0.1871165
-3.988217	aroused	-0.2689441
-4.397796	arrange	-0.1494392
-3.988217	arranged	-0.1790689
-4.772944	arrangement	-0.124919
-4.507926	arrangements	-0.09349726
-4.890518	arranges	-0.1326083
-4.890518	arranging	-0.1343801
-4.772944	array	-0.2525513
-4.890518	arrears	-0.1281709
-4.071474	arrest	-0.2079957
-3.858237	arrested	-0.2171759
-4.507926	arresting	-0.1282884
-4.397796	arrival	-0.2108549
-4.174571	arrive	-0.239638
-3.696077	arrived	-0.2530259
-4.890518	arrives	-0.1162636
-4.890518	arriving	-0.1354935
-4.890518	arrows	-0.1162636
-4.174571	art	-0.2890142
-4.890518	arteries	-0.1335931
-4.890518	artery	-0.1187362
-4.174571	article	-0.1315002
-4.071474	articles	-0.1754369
-4.655835	artificial	-0.1364528
-4.772944	artillery	-0.09758642
-4.655835	artist	-0.09479984
-4.772944	artistic	-0.2431166
-4.890518	artists	-0.1162636
-2.191169	as	-0.6677874
-4.772944	ascend	-0.1920998
-4.772944	ascendancy	-0.2598388
-4.071474	ascended	-0.3050149
-4.890518	ascending	-0.1312827
-4.772944	ascertain	-0.09323297
-4.397796	ascertained	-0.1838476
-4.655835	ascertaining	-0.1317712
-4.655835	ascetic	-0.1734615
-4.890518	ascetic-looking	-0.1162636
-4.507926	ash	-0.1407966
-4.174571	ashamed	-0.645811
-4.890518	ashen	-0.2147395
-4.310019	ashes	-0.195456
-4.890518	ashore	-0.1187362
-4.890518	ashy	-0.1364523
-4.071474	aside	-0.1961473
-3.608802	ask	-0.4076918
-4.507926	askance	-0.2520319
-3.677162	asked	-0.6395048
-3.858237	asking	-0.1807936
-4.772944	asks	-0.1157353
-4.027854	asleep	-0.386658
-4.655835	aspect	-0.1764325
-4.890518	asperities	-0.1281709
-4.772944	asperity	-0.1113357
-4.772944	asphalt	-0.1322332
-4.890518	aspired	-0.1301821
-4.890518	ass	-0.1342901
-4.772944	assailant	-0.09758642
-4.890518	assailants	-0.09561952
-4.655835	assassin	-0.1162375
-4.397796	assault	-0.09896201
-4.772944	assaulted	-0.1316471
-4.890518	assaults	-0.1162636
-4.772944	assembled	-0.128855
-4.655835	assent	-0.1159906
-4.890518	assented	-0.09758642
-4.655835	assert	-0.2092712
-4.772944	asserted	-0.1324729
-4.890518	assertion	-0.1326083
-4.890518	assiduous	-0.1294428
-4.890518	assiduously	-0.1330519
-4.655835	assist	-0.1283024
-3.951898	assistance	-0.3945028
-4.027854	assistant	-0.1157537
-4.890518	assistants	-0.1162636
-4.890518	assisted	-0.1312827
-4.655835	assisting	-0.107751
-4.890518	assizes	-0.1331893
-4.237036	associate	-0.1176789
-4.071474	associated	-0.3729273
-4.655835	associates	-0.1117791
-4.890518	associating	-0.13515
-4.890518	association	-0.1330519
-4.655835	associations	-0.1901818
-4.890518	assortment	-0.1348766
-4.655835	assume	-0.1732736
-4.507926	assumed	-0.1336496
-4.890518	assuming	-0.2431166
-4.507926	assurance	-0.1380177
-4.310019	assure	-0.7096444
-3.831024	assured	-0.2298587
-4.890518	assuredly	-0.1364406
-4.507926	assures	-0.4379044
-4.772944	assuring	-0.1345112
-4.890518	asthmatic	-0.1162636
-4.890518	astir	-0.1162636
-4.890518	astonish	-0.1350016
-4.071474	astonished	-0.145511
-4.772944	astonishing	-0.1159435
-4.890518	astonishingly	-0.1360745
-3.887269	astonishment	-0.3730754
-4.890518	astounding	-0.1352671
-4.772944	astrachan	-0.1364543
-4.890518	astrakhan	-0.1351851
-4.890518	astray	-0.1187362
-4.890518	astronomers	-0.1357548
-4.890518	astronomy	-0.1162636
-4.890518	astute	-0.2575422
-4.772944	astuteness	-0.1187181
-4.890518	asunder	-0.1187362
-4.890518	asylum	-0.1162636
-2.113852	at	-0.8013206
-4.890518	atavism	-0.1292568
-4.655835	ate	-0.1707045
-4.772944	athlete	-0.11474
-4.890518	athletes	-0.1292568
-4.655835	athletic	-0.1939247
-4.310019	atmosphere	-0.2354174
-4.890518	atoms	-0.1361173
-4.890518	atone	-0.1336636
-4.890518	atonement	-0.1336636
-4.890518	atones	-0.1336636
-4.027854	attached	-0.590054
-4.890518	attaches	-0.1355871
-3.951898	attack	-0.1635976
-4.507926	attacked	-0.2159608
-4.397796	attacks	-0.1212288
-4.772944	attain	-0.1863759
-4.397796	attained	-0.1085449
-4.890518	attainments	-0.1187362
-3.831024	attempt	-0.4569429
-4.071474	attempted	-0.1607579
-4.772944	attempting	-0.2545624
-4.397796	attempts	-0.1519424
-4.655835	attend	-0.2523748
-4.507926	attendant	-0.1108036
-4.772944	attended	-0.1266387
-4.772944	attends	-0.1298048
-3.473954	attention	-0.4084101
-4.397796	attentions	-0.1330748
-4.890518	attentive	-0.1352788
-4.890518	attic	-0.1948957
-4.772944	attics	-0.09758642
-4.772944	attire	-0.240644
-4.772944	attired	-0.1289224
-4.174571	attitude	-0.09160955
-4.890518	attract	-0.1312532
-4.174571	attracted	-0.184629
-4.890518	attraction	-0.1301821
