
\data\
ngram 1=15398
ngram 2=111577

\1-grams:
-2.622733	!	-0.8098922
-4.506511	&	-0.0327977
-2.536444	'	-0.6555499
-1.781573	''	-1.393895
-5.581732	'16	-0.002837467
-5.581732	'45	-0.001960161
-5.581732	'55	-0.002001924
-5.581732	'60	-0.001375058
-5.581732	'77	0.02172975
-5.581732	'82	0.006171616
-5.107487	'83	0.01753068
-5.282857	'84	0.01979472
-5.107487	'85	0.03712584
-5.107487	'87	0.01389866
-5.282857	'89	0.01983892
-5.581732	'90	0.02172975
-4.886216	'95	0.04780372
-5.581732	'97	0.003039667
-4.585619	'A	-0.02662693
-5.581732	'About	0.01514136
-5.581732	'Absolute	0.006171616
-5.581732	'Absolutely	0.01697215
-5.581732	'After	-0.002786771
-4.439616	'Ah	-0.01218565
-5.581732	'Alas	0.02172975
-5.107487	'All	-0.002326841
-5.581732	'Almost	-0.002818316
-5.581732	'American	-0.00283634
-5.581732	'Ample	0.01697215
-4.205661	'And	-0.008696347
-5.581732	'Answer	-0.000778978
-5.282857	'Any	-0.005574606
-5.581732	'Anybody	-0.00283634
-5.282857	'Anything	-0.005541903
-5.581732	'Apoplexy	0.01697215
-5.282857	'Are	0.00220253
-5.581732	'Arms	-0.002696631
-5.282857	'Arthur	-0.004610187
-5.581732	'As	-0.002835214
-5.581732	'Ask	-0.0005955782
-5.282857	'At	-0.005527255
-5.581732	'Ay	0.02172975
-5.581732	'Baron	-0.002838593
-5.581732	'Be	0.002707514
-5.581732	'Because	-0.002725929
-5.581732	'Beddoes	-0.00283634
-5.581732	'Bless	0.001182423
-5.581732	'Breckinridge	0.02172975
-5.581732	'British	-0.002838593
-5.282857	'Brunton	0.01939236
-4.506511	'But	0.02610646
-4.982909	'By	0.006800271
-5.581732	'C.P.R	0.01697215
-5.581732	'COME	0.01697215
-5.107487	'Can	0.005130822
-5.581732	'Catullus	0.02172975
-4.982909	'Certainly	0.01554956
-5.581732	'Co	0.01697215
-5.581732	'Colonel	-0.002831834
-4.740335	'Come	0.007582894
-5.581732	'Company	0.01697215
-4.807179	'Cooee	-0.01435467
-5.581732	'Crime	0.002707514
-5.581732	'D'you	-0.002767618
-5.581732	'DEAR	-0.002838593
-5.581732	'Danger	0.0005132586
-5.282857	'Dear	-0.003572417
-5.581732	'Dearest	-0.001946615
-5.581732	'Death	0.02172975
-5.581732	'December	-0.00283634
-5.581732	'Did	0.001193793
-4.807179	'Do	-0.01223628
-5.581732	'Done	-0.001803232
-5.581732	'Drive	-0.002536586
-5.581732	'E.B	0.01697215
-5.581732	'ELSIE	0.01697215
-5.581732	'Eg	0.01697215
-5.581732	'Elrige	-0.001375058
-5.282857	'Elsie	0.03990142
-5.282857	'Encyclopaedia	0.0189105
-5.581732	'Entirely	0.01697215
-5.581732	'Fire	-0.001803232
-5.581732	'Five	-0.002760858
-4.682421	'For	-0.001805883
-5.581732	'Found	-0.0005310311
-4.982909	'Frisco	0.03436788
-5.581732	'Fritz	-0.001803232
-5.107487	'From	0.00954177
-5.581732	'G	-0.001575075
-5.581732	'Gesellschaft	0.02172975
-5.581732	'Go	-0.001997409
-5.581732	'Gone	0.00561302
-5.581732	'Good	-0.001803232
-5.581732	'Good-evening	0.02172975
-5.581732	'H	0.01697215
-5.581732	'Ha	0.02172975
-5.581732	'Hampshire	0.01697215
-5.581732	'Harold	0.02172975
-4.886216	'Have	-0.009885116
-4.544266	'He	-0.02198421
-5.581732	'Head-keeper	-0.002789024
-5.581732	'Heavy	-0.002837467
-5.107487	'Here	-0.002438433
-5.581732	'His	-0.002008696
-5.581732	'Holdernesse	0.02172975
-5.581732	'Homer	0.02172975
-5.581732	'Hosmer	-0.002816063
-4.682421	'How	-0.0146102
-5.581732	'Hudson	0.001440596
-5.282857	'Hullo	-0.00459667
-5.581732	'Huxtable	-0.001375058
-5.581732	'Hyams	0.02172975
-3.51047	'I	-0.2251837
-4.631329	'If	-0.006141735
-5.581732	'Impossible	-0.001803232
-4.982909	'In	0.01814173
-5.581732	'Inspector	-0.002809303
-4.807179	'Is	0.003464907
-3.952484	'It	-0.09299603
-5.282857	'J.H.N	0.01417871
-5.581732	'Jack	0.02172975
-5.581732	'Jephro	0.02172975
-5.282857	'K	0.01417871
-5.581732	'Keep	-0.001677873
-5.581732	'Ku	-0.002837467
-5.581732	'L'homme	-0.002837467
-5.581732	'Lately	-0.002792404
-4.886216	'Let	-0.006826413
-5.581732	'Letters	0.02172975
-4.982909	'Lone	-0.01115882
-5.282857	'Look	0.0002694177
-5.282857	'Lord	-0.005652343
-5.581732	'Lost	0.02172975
-5.282857	'MY	-0.005655723
-5.581732	'Made	-0.001725311
-5.581732	'Mawson	-0.002280617
-5.282857	'May	0.003823501
-5.581732	'Most	-0.002831834
-5.581732	'Mother	0.02172975
-4.886216	'Mr	0.005904607
-5.581732	'Mrs	0.01697215
-4.585619	'My	-0.02684928
-5.581732	'Mysterious	-0.002838593
-5.581732	'Neither	-8.232798e-05
-4.886216	'Never	0.03291042
-5.581732	'Next	-0.002786771
-4.33054	'No	-0.02161075
-5.581732	'Norbury	-0.001575075
-5.581732	'North	-0.001732087
-4.740335	'Not	-0.01338999
-5.581732	'Nothing	0.01697215
-5.282857	'Now	0.0002462282
-5.581732	'Oct	0.01697215
-5.107487	'Of	-0.007930851
-4.243433	'Oh	-0.03239256
-5.581732	'Omne	-0.002838593
-4.886216	'On	0.005133095
-5.107487	'One	0.0004461436
-4.886216	'Only	0.001221478
-5.282857	'Or	0.002819581
-5.581732	'Over	0.01514136
-5.581732	'P	0.02172975
-5.282857	'P.C	0.01417871
-5.581732	'Papier	0.01697215
-5.581732	'Perfectly	0.01697215
-5.282857	'Perhaps	-3.310433e-05
-5.581732	'Photography	0.0005132586
-5.581732	'Pink	-0.002838593
-5.107487	'Pon	-0.005651354
-5.581732	'Pondicherry	-0.002835214
-5.282857	'Pooh	0.02000501
-5.581732	'Pray	0.02172975
-4.982909	'Precisely	0.01062271
-5.581732	'Pretty	-0.002812683
-5.282857	'Put	0.01234793
-4.807179	'Quite	-0.01507646
-5.581732	'Ragged	-0.002835214
-5.282857	'Really	0.01893631
-5.581732	'Remarkable	-0.0005650043
-5.581732	'Remember	0.02172975
-5.282857	'Right	-0.005366096
-5.581732	'Rome	0.002388159
-5.282857	'S	-0.005659102
-5.581732	'See	0.003039667
-5.581732	'Seven	0.00561302
-5.282857	'She	-0.004971391
-5.581732	'Show	-0.00132306
-5.581732	'Singular	-0.002838593
-5.581732	'Sir	0.02172975
-4.982909	'So	0.01790532
-5.581732	'Sold	0.00561302
-4.982909	'Some	-0.01035256
-5.581732	'Sophy	-0.001803232
-5.581732	'Ss	0.01697215
-5.581732	'Stand	-0.001732087
-5.581732	'Stolen	-0.001803232
-5.581732	'Such	0.02172975
-5.581732	'Sumner	0.02172975
-5.282857	'Surely	-0.0002749683
-4.807179	'Tell	-0.014563
-5.581732	'Ten	0.00561302
-4.982909	'Thank	-0.00710226
-4.33054	'That	-0.03171342
-4.123506	'The	-0.07351711
-4.506511	'Then	0.0292987
-4.439616	'There	-0.007644644
-5.581732	'These	-0.001781776
-5.282857	'They	-0.004240773
-4.585619	'This	0.006586995
-5.581732	'Three	-0.002837467
-5.282857	'To	-0.005628686
-5.581732	'Tragedy	-0.002832961
-5.282857	'Trust	-0.003572417
-4.982909	'Tut	0.01340276
-5.581732	'US	0.02172975
-5.581732	'Under	0.01514136
-5.581732	'Undoubtedly	-0.001665449
-5.581732	'Until	0.001182423
-5.107487	'Varsity	0.01728727
-4.807179	'Very	-0.01602414
-5.581732	'Wandsworth	-0.002838593
-4.544266	'We	-0.02078099
-4.154529	'Well	-0.04487662
-4.108788	'What	-0.03623711
-5.581732	'Whatever	-0.001618005
-4.982909	'When	-0.003294495
-4.544266	'Where	-0.0009774007
-5.581732	'Whereas	0.02172975
-5.107487	'Which	-0.004701018
-5.107487	'Who	-0.006717814
-5.581732	'Whose	0.002388159
-4.33054	'Why	-0.01346362
-5.581732	'Within	0.01514136
-5.581732	'Wonderful	-0.001803232
-4.263628	'Yes	-0.01002109
-3.753481	'You	-0.147499
-5.107487	'Your	-0.007311204
-5.581732	'a	-0.002829581
-5.581732	'actually	-0.002718041
-4.471776	'and	0.005381968
-5.581732	'are	0.00561302
-4.982909	'at	-0.009824045
-5.581732	'band	0.02172975
-5.282857	'bus	0.004468182
-4.740335	'but	0.01516605
-5.581732	'can	0.001182423
-4.243433	'd	-0.03700745
-5.581732	'death	-0.001320799
-5.282857	'did	-0.0004665409
-5.282857	'e	0.02045818
-5.282857	'em	0.01656726
-5.581732	'first	0.00561302
-5.581732	'fly-paper	-0.001575075
-5.282857	'for	-0.001568714
-5.581732	'get	-0.002542222
-5.581732	'has	-0.001822427
-5.581732	'have	0.001182423
-5.581732	'he	0.002388159
-5.581732	'hen-pheasant	-0.001575075
-5.581732	'here	-0.001375058
-5.581732	'his	-0.002627886
-5.107487	'idee	-0.008405366
-5.581732	'if	0.001182423
-5.581732	'in	-0.002761984
-5.282857	'is	0.01326828
-5.107487	'it	-0.003189682
-5.581732	'journeys	-0.002648173
-5.581732	'jumping	0.005206592
-5.581732	'learn	-0.001575075
-5.581732	'lever	0.02172975
-5.581732	'life	-0.00283634
-3.384629	'll	-0.2932708
-4.243433	'm	-0.04752764
-5.581732	'maybe	-0.001575075
-5.581732	'my	-0.002331371
-5.581732	'neither	-0.002837467
-5.581732	'never	0.01697215
-5.581732	'only	-0.001581854
-5.581732	'other	-0.002760858
-5.581732	'please	0.01697215
-5.581732	'pology	0.02172975
-5.282857	'quarter	-0.004368514
-5.282857	'r	0.01568366
-4.284807	're	-0.02265255
-5.581732	'remember	-0.001677873
-2.472776	's	-0.7258052
-5.581732	'seeing	-8.232798e-05
-5.581732	'sent	0.01514136
-5.581732	'sever	0.02172975
-5.581732	'sir	-0.001575075
-5.581732	'suicide	0.01697215
-5.581732	'supply	-0.00280367
-5.581732	't	-0.001575075
-5.581732	'take	-8.232798e-05
-4.682421	'that	0.02069029
-4.807179	'the	-0.007634915
-5.107487	'there	-0.003980256
-5.581732	'this	0.0005132586
-4.886216	'to	0.01195185
-5.282857	'tween-decks	0.0122352
-5.107487	'twelve	0.01747089
-5.581732	'un	-0.001575075
-3.773073	've	-0.1339788
-4.886216	'we	-0.009770697
-5.581732	'were	0.001440596
-5.581732	'what	-0.001575075
-5.282857	'when	-3.310433e-05
-5.282857	'which	-0.003239402
-5.581732	'wilful	-0.002784518
-5.282857	'with	0.01353076
-5.581732	'would	-0.001056194
-5.282857	'ye	-0.004855161
-4.471776	'you	-0.02364694
-4.544266	(	-0.002682589
-4.544266	)	0.01834332
-4.506511	*****	-0.03256648
-1.259615	,	-1.815105
-5.581732	-	0.004401747
-2.693954	--	-0.4995636
-1.350727	.	-2.01932
-5.282857	...	-0.002272048
-5.581732	..E	-0.002838593
-5.581732	.ERE	-0.002838593
-5.581732	.M	-0.002838593
-5.581732	.RE.ARE	-0.002835214
-5.282857	1	0.02358705
-5.581732	1/2	-0.00283634
-5.581732	10	0.02172975
-5.107487	100	-0.00832763
-4.631329	1000	-0.02466715
-5.581732	10s	0.01697215
-5.581732	10s.	0.02172975
-5.581732	10th	0.01697215
-5.581732	11.10	-0.001320799
-5.581732	1100	-0.002758604
-5.282857	117	0.01893631
-5.282857	117th	-0.005605027
-5.107487	11:15	0.01140312
-5.581732	11:30	0.01697215
-5.581732	12.22	0.00561302
-5.282857	120	-0.005552043
-5.107487	126b	-0.003205644
-5.581732	12s	0.01697215
-5.581732	12th	0.01697215
-5.282857	131	0.02444222
-5.581732	13th	-0.001960161
-5.581732	14	-0.001575075
-5.581732	14,000	-0.002758604
-5.581732	140	-0.002799164
-5.282857	14th	0.004156963
-5.282857	15	-0.005625273
-5.581732	150	-0.00280029
-5.282857	16	0.02444222
-5.581732	1607	0.02172975
-5.581732	16A	0.02172975
-5.282857	17	-0.00561404
-5.581732	1840	0.01697215
-5.581732	1846	0.01697215
-5.581732	1855	0.02172975
-5.581732	1858	0.01697215
-5.107487	1869	0.01677075
-5.581732	1870	0.001193793
-5.581732	1872	-0.002173448
-5.581732	1875	0.01697215
-5.581732	1878	0.02172975
-5.581732	1881	-0.002173448
-4.740335	1883	0.03168975
-5.107487	1884	0.0380746
-5.282857	1887	0.01837321
-5.282857	1888	0.01507117
-5.107487	1890	0.01252132
-5.282857	1891	0.01893631
-4.982909	1894	0.03395381
-5.581732	1895	0.00661694
-5.581732	18th	0.01697215
-5.581732	1900	0.01697215
-5.581732	1901	-0.002838593
-5.107487	1903	-0.008353543
-4.585619	1904	-0.02730128
-5.581732	19th	0.01697215
-5.581732	1s.	0.02172975
-5.282857	1st	0.0123209
-4.886216	2	0.009443912
-5.581732	2,000	-0.002837467
-5.581732	2.40	-0.002817189
-5.581732	20	-0.001575075
-5.581732	200	-0.002758604
-5.581732	20th	0.01697215
-5.581732	220	-0.002758604
-5.581732	221	-0.002831834
-5.581732	221B	0.02172975
-5.581732	226	-0.002835214
-5.107487	22nd	0.03710014
-5.107487	23d	0.02475855
-5.581732	23rd	0.005861196
-5.581732	2473	0.01697215
-5.581732	249	0.02172975
-5.581732	24th	0.01697215
-5.107487	25	-0.008347941
-5.581732	250	-0.002758604
-4.982909	26	0.01332293
-5.581732	26s	0.01697215
-4.682421	27	0.00243837
-5.581732	270	-0.002837467
-4.982909	28	-0.01124567
-5.581732	2nd	0.01697215
-5.282857	2s	0.01417871
-5.282857	3	0.01466962
-5.581732	3.30	-0.002838593
-5.581732	3.36	0.02172975
-5.107487	30	0.01621836
-5.282857	30,000	-0.005577987
-5.581732	30th	0.005861196
-5.581732	31	-0.002838593
-5.581732	3d	0.005861196
-4.982909	3rd	0.04409182
-4.740335	4	0.0005045217
-5.581732	40	-0.002758604
-5.581732	4000	-0.002758604
-5.581732	403	-0.002830708
-5.581732	421	-0.00283634
-5.581732	426	0.02172975
-5.107487	427	0.01616072
-5.581732	46	0.02172975
-5.581732	4700	-0.002758604
-5.581732	4:35	-0.002802544
-5.581732	4d	0.01697215
-4.982909	4th	0.04579318
-5.581732	5	0.01697215
-5.581732	50	-0.002837467
-5.581732	50,000	-0.002758604
-5.581732	5:14	-0.001320799
-5.581732	5:15	-0.002750717
-5.581732	6	0.01697215
-5.581732	6.30	-0.001960161
-5.581732	60	-0.002758604
-5.581732	6:30	-0.001308365
-5.581732	6d	0.01697215
-5.282857	6d.	0.01893631
-5.107487	6th	0.03714769
-5.581732	7	-0.002834087
-5.581732	700	-0.002758604
-5.581732	750	-0.002758604
-5.581732	7s	0.01697215
-5.282857	7th	0.03990142
-5.581732	88	-0.002758604
-5.581732	8d	0.01697215
-5.581732	8s.	0.02172975
-5.581732	8th	-0.00283634
-5.581732	9	0.02172975
-5.581732	9.13	0.01697215
-5.581732	9.50	0.02172975
-5.581732	90	0.002388159
-5.282857	9th	0.01415287
-3.482216	:	-0.1720485
-2.814459	;	-0.5292951
-1.279864	</s>
-99	<s>	-1.982758
-2.256247	?	-1.139324
-3.062294	A	-0.4358963
-4.982909	A.	0.01667422
-5.581732	A.E	-0.002838593
-5.581732	ABANDON	-0.002837467
-5.581732	ABE	-0.002838593
-5.581732	ADLER	0.01697215
-4.506511	ADVENTURE	-0.02328357
-5.581732	ADVENTURES	-0.002811556
-5.581732	ADVISE	-0.002834087
-5.581732	AFTER	0.01514136
-5.581732	AGENT	0.01697215
-5.282857	ALIBI	0.01962395
-5.107487	AM	-0.008431311
-5.581732	APPLEDORE	-0.002838593
-5.581732	APRIL	0.02172975
-5.581732	ARAT	0.02172975
-5.581732	ARMSTRONG	0.01697215
-4.439616	ARTHUR	-0.03780803
-5.581732	AT	-0.002838593
-5.581732	AUGUST	0.02172975
-5.581732	AUGUSTUS	-0.002838593
-4.544266	Abbey	-0.003920767
-5.581732	Abbots	0.006171616
-4.740335	Abe	-0.01600203
-5.282857	Aberdeen	-0.004824688
-5.581732	Abergavenny	-0.002784518
-5.581732	Abernetty	-0.002770998
-4.381662	About	-0.01437621
-4.807179	Above	0.003732489
-5.581732	Absolute	-0.002838593
-4.740335	Absolutely	0.005127987
-5.581732	Accepting	0.001440596
-5.581732	According	0.00561302
-5.282857	Accustomed	-0.003358443
-5.282857	Across	0.01628753
-4.409673	Acton	0.01770241
-4.439616	Adair	0.02337838
-5.282857	Adams	0.03990142
-5.581732	Add	0.00561302
-5.581732	Addleton	-0.00280367
-5.282857	Address	-0.00549007
-5.282857	Adelaide	0.01893631
-5.282857	Adelaide-Southampton	-0.005550945
-4.409673	Adler	0.01171454
-5.581732	Admirable	-0.001803232
-5.282857	Admiralty	0.0213156
-3.895769	Adventure	-0.101942
-5.581732	Affair	-0.0005310311
-5.282857	Affairs	0.03990142
-5.282857	Afghan	-0.005654597
-4.982909	Afghanistan	0.01670122
-5.581732	Afghans	0.01697215
-4.740335	Africa	0.0363183
-4.886216	African	-0.0139412
-4.205661	After	-0.03263095
-5.107487	Afterwards	0.02134635
-4.18794	Again	0.02295247
-5.282857	Agatha	-0.004691485
-5.282857	Agent	0.01893631
-5.581732	Ages	0.01697215
-5.581732	Agra	-0.002830708
-3.682909	Ah	-0.1560837
-5.581732	Aha	-0.001803232
-5.581732	Air	0.006171616
-5.107487	Alas	-0.007372257
-5.107487	Albert	-0.00840878
-5.581732	Aldersgate	-0.002173448
-4.631329	Aldershot	0.03816573
-4.307072	Alec	0.004385896
-5.581732	Alexander	-0.002819442
-5.581732	Alexandria	0.01697215
-5.581732	Alexandrian	-0.002829581
-5.107487	Alexis	0.04290767
-4.506511	Alice	0.05122571
-5.581732	Alicia	-0.002838593
-5.581732	Alighting	-0.0005310311
-3.815128	All	-0.07346892
-5.581732	Allardyce	-0.001375058
-5.282857	Allegro	0.03990142
-5.581732	Alliance	0.02172975
-5.581732	Allow	-0.000778978
-5.581732	Almighty	-0.002838593
-5.581732	Almost	-0.0005310311
-5.581732	Along	-0.001308365
-4.886216	Aloysius	-0.01389374
-4.740335	Alpha	0.027507
-5.581732	Alpine	-0.002832961
-4.982909	Alpine-stock	-0.005418731
-4.807179	Already	0.05392092
-5.581732	Also	0.02172975
-5.282857	Altogether	0.02006716
-5.581732	Always	0.01697215
-5.581732	Am	0.00661694
-5.282857	Amateur	-0.005654597
-5.581732	Amazement	0.006171616
-4.284807	America	0.01267652
-4.284807	American	0.008254267
-5.581732	Americans	0.002707514
-5.107487	Amid	0.01793389
-5.107487	Among	-0.004665791
-5.581732	Amoy	-0.002838593
-5.581732	Ample	0.01697215
-3.942502	An	-0.1085803
-5.581732	Anarchist	-0.00174451
-2.996093	And	-0.3557355
-5.581732	Andaman	-0.002838593
-5.581732	Anderson	0.004401747
-5.581732	Andover	0.002707514
-5.581732	Anerley	-0.002837467
-4.263628	Angel	-0.001176096
-5.581732	Anglia	0.01697215
-5.581732	Anglo-Indian	0.02172975
-4.982909	Anna	0.01447146
-5.581732	Anne	-0.002456541
-4.886216	Annie	-0.001669397
-5.581732	Annoyed	-0.0005310311
-4.807179	Another	0.008157991
-5.581732	Anstruther	-0.00174451
-5.581732	Answer	-0.000778978
-4.381662	Any	-0.04230478
-5.581732	Anybody	-0.002828455
-4.682421	Anyhow	0.007045355
-5.107487	Anyone	-0.002471557
-4.631329	Anything	-0.02158557
-5.581732	Anyway	0.02172975
-5.581732	Apache	-0.002837467
-5.581732	Apaches	0.02172975
-5.581732	Apparently	0.02172975
-5.107487	Appledore	0.01613491
-5.282857	Apply	-0.0001129801
-5.581732	Appreciation	0.005861196
-4.740335	April	0.01744849
-5.581732	Arab	0.02172975
-5.581732	Arabian	-0.002838593
-5.107487	Arcade	0.01616072
-5.581732	Arcadia	-0.002831834
-5.581732	Archery	0.006171616
-5.282857	Archie	0.01890931
-5.581732	Architecture	0.006171616
-5.282857	Arctic	-0.005645584
-4.506511	Are	-0.02811693
-5.581732	Argentine	0.02172975
-5.581732	Arizona	0.02172975
-4.807179	Armitage	0.02952805
-5.581732	Armour	0.006171616
-5.282857	Arms	0.01927065
-4.35535	Armstrong	0.0254437
-5.282857	Army	0.01890931
-5.581732	Arnsworth	-0.002837467
-5.107487	Arrest	-0.002072763
-5.581732	Arson	0.01697215
-5.581732	Art	0.002707514
-4.067408	Arthur	0.00658875
-5.282857	Artillery	0.03990142
-3.259697	As	-0.3014756
-5.107487	Ask	-0.006880716
-4.740335	Assizes	0.02760047
-5.581732	Assure	-0.00132306
-5.581732	Astonishment	-0.0005310311
-3.455688	At	-0.2243559
-5.581732	Athene	-0.001551349
-4.886216	Athens	0.03177181
-5.581732	Atkinson	-0.002837467
-4.982909	Atlanta	0.0355424
-5.107487	Atlantic	0.02232476
-5.581732	Attica	0.02172975
-5.581732	Auckland	0.01697215
-5.107487	August	0.02534021
-5.581732	Augustine	0.01697215
-4.886216	Augustus	-0.0138566
-5.581732	Austerlitz	0.02172975
-4.585619	Australia	0.04079701
-4.982909	Australian	-0.00966003
-5.581732	Australians	0.01697215
-5.581732	Author	0.005861196
-5.581732	Aveling	0.02172975
-4.807179	Avenue	0.02888076
-5.581732	Awake	0.02172975
-5.282857	Away	-0.003562129
-5.581732	Ay	0.02172975
-5.581732	Aye	0.02172975
-5.581732	Ayrshires	-0.0004256952
-5.581732	Azure	0.02172975
-4.740335	B	0.02778262
-5.581732	BACHELOR	-0.001500503
-5.581732	BALLARAT	0.01697215
-5.581732	BAND	-0.002681981
-5.581732	BASS	-0.00283634
-5.581732	BEECHES	0.005602682
-5.581732	BERYL	-0.002838593
-5.581732	BLUE	-0.002838593
-5.581732	BOHEMIA	0.00661694
-5.581732	BOSCOMBE	-0.002838593
-5.581732	BOTH	0.00561302
-5.581732	Bachelor	-0.00283634
-5.282857	Back	0.00430217
-4.886216	Backwater	0.01216425
-5.107487	Bad	0.01722942
-5.282857	Bagatelle	-0.005632066
-3.688372	Baker	-0.1225965
-5.282857	Bakers	0.02478041
-5.581732	Baldwin	0.02172975
-4.886216	Ballarat	0.02310275
-4.740335	Balmoral	0.02876512
-5.581732	Balzac	-0.002547859
-5.282857	Band	0.01415405
-5.581732	Bangor	0.02172975
-4.807179	Bank	0.03852426
-5.581732	Bankers	-0.001575075
-4.224137	Bannister	0.004688945
-5.282857	Bar	0.00304071
-4.054447	Barclay	-0.006362878
-5.282857	Barclays	-0.00163239
-4.631329	Barnicot	0.01511341
-5.581732	Baron	-0.002838593
-5.581732	Barons	0.005861196
-5.581732	Barque	-0.002835214
-5.581732	Barrett	0.02172975
-5.581732	Barton	0.02172975
-4.982909	Basil	0.009852215
-5.581732	Basle	0.01697215
-5.581732	Bathsheba	-0.0004256952
-5.107487	Baxter	0.02320841
-5.581732	Bay	-0.00174451
-5.282857	Bayard	0.01519407
-5.581732	Bayswater	-0.002837467
-4.740335	Be	0.01670829
-5.581732	Beacons	0.005861196
-4.067408	Because	0.0004273355
-5.107487	Becher	0.004500995
-4.886216	Beckenham	0.03410805
-5.282857	Beddington	0.02223476
-4.544266	Beddoes	0.02063725
-4.982909	Beecher	0.01764178
-4.682421	Beeches	0.027741
-4.544266	Before	0.0001755748
-5.581732	Beg	-0.002834087
-5.282857	Behind	-0.003305099
-5.581732	Being	-0.001651893
-5.581732	Belgrade	0.02172975
-5.107487	Bellinger	0.01722942
-5.581732	Belminster	0.02172975
-5.581732	Bengal	-0.002837467
-5.581732	Bengalore	-0.002838593
-5.581732	Bentinck	-0.002653808
-5.581732	Bentley	-0.001375058
-4.506511	Beppo	0.02900635
-4.982909	Berkshire	0.01439594
-5.581732	Bermondsey	0.02172975
-5.581732	Bermuda	-0.002838593
-5.581732	Bert	-0.002838593
-5.581732	Bertillon	-0.002827328
-5.282857	Beryl	-0.005630906
-4.740335	Beside	0.001770584
-4.205661	Besides	-0.0176814
-5.107487	Better	-0.008093241
-4.631329	Between	0.003480809
-5.581732	Beverley	0.02172975
-4.807179	Beyond	0.007856626
-5.107487	Bhurtee	0.04290767
-5.581732	Bible	0.01697215
-5.581732	Biddle	0.02172975
-5.581732	Bill	0.02172975
-5.581732	Binomial	-0.002838593
-5.581732	Birchmoor	0.02172975
-5.581732	Birds	0.02172975
-4.585619	Birmingham	0.04480951
-5.581732	Bite	-0.001551349
-4.381662	Black	-0.0430175
-4.740335	Blackheath	0.02920967
-5.581732	Blackwater	0.02172975
-5.581732	Blandford	-0.002653808
-4.471776	Blaze	0.0382307
-5.282857	Bless	0.01651272
-4.154529	Blessington	0.006281778
-5.581732	Block	0.01514136
-5.581732	Blood	0.01697215
-5.581732	Bloomsbury	-0.0005310311
-5.107487	Blue	0.002838665
-5.581732	Blues	-0.002307687
-5.107487	Bob	0.01616948
-4.544266	Bohemia	0.03186369
-4.982909	Bohemian	-0.01098988
-5.581732	Bohemianism	0.005861196
-5.581732	Bond	-0.002653808
-4.682421	Boone	0.02794322
-4.982909	Boots	-0.005643103
-5.581732	Bordeaux	0.02172975
-5.581732	Borgia	-0.002822822
-5.581732	Borgias	0.01697215
-5.107487	Born	-0.002687708
-4.409673	Boscombe	-0.04041074
-5.581732	Boswell	0.01697215
-5.581732	Botany	-0.002837467
-4.409673	Both	0.002159305
-5.581732	Bought	0.01697215
-5.581732	Boulevard	-0.002835214
-5.282857	Bow	-0.005447247
-5.581732	Boxer	-0.002837467
-4.409673	Brackenstall	0.03975472
-5.581732	Brackwell	0.02172975
-5.282857	Bradshaw	0.03990142
-4.506511	Bradstreet	0.02008346
-5.282857	Brambletye	-0.005621893
-4.807179	Breckinridge	0.01354534
-4.740335	Briarbrae	0.03303386
-4.631329	Bridge	0.02083098
-5.282857	Briefly	0.01944368
-5.107487	Bring	-0.004852315
-4.544266	Briony	-0.02998241
-4.807179	Bristol	0.04415138
-4.807179	Britain	0.007965535
-5.282857	Britannica	0.01417871
-4.33054	British	-0.0482978
-4.544266	Brixton	0.0155406
-5.107487	Broads	0.04326284
-5.581732	Broken	-0.002838593
-5.581732	Brooding	-0.002254673
-4.682421	Brook	-0.02184075
-5.282857	Brotherhood	0.0143628
-4.886216	Brothers	0.01158035
-4.631329	Brown	0.04024958
-5.581732	Bruce	-0.002838593
-4.224137	Brunton	0.0409037
-5.282857	Brussels	0.009353491
-5.581732	Buda-Pesth	0.01697215
-5.107487	Builder	0.01140312
-5.581732	Buildings	0.02172975
-5.581732	Bull	0.02172975
-5.581732	Bunsen	-0.002838593
-5.581732	Bureau	0.02172975
-5.282857	Burglary	-0.00459667
-4.740335	Burnwell	0.04176199
-5.581732	Busybody	-0.001096913
-2.86259	But	-0.4587471
-3.672187	By	-0.1387725
-5.581732	By-the-way	0.02172975
-5.107487	C	0.02299399
-5.282857	C.	-0.001930181
-5.581732	C.A.M.	0.02172975
-5.581732	C.B.	0.02172975
-5.581732	C.P.R.	0.02172975
-5.282857	CA	-0.005630906
-5.107487	CAN	-0.005205244
-5.581732	CARBUNCLE	0.00661694
-5.282857	CASE	0.01417999
-5.581732	CHARLES	-0.002838593
-5.581732	COLONEL	0.01697215
-4.439616	CONAN	-0.03780803
-5.581732	COPPER	-0.002838593
-5.581732	CORONET	0.005602682
-5.282857	COULD	-0.001814271
-5.581732	COUPLE	0.0003032917
-4.807179	Cabinet	0.01549001
-5.581732	Cabul	0.01697215
-4.982909	Cairns	0.0344291
-5.581732	Cal.	0.02172975
-5.581732	Calcutta	0.02172975
-5.282857	Calhoun	0.02146306
-5.107487	California	0.01891595
-5.581732	Californian	-0.002837467
-5.581732	Cam	-0.002305431
-5.282857	Camberwell	0.01415169
-4.506511	Cambridge	0.02607514
-5.581732	Cambridgeshire	-0.002835214
-5.581732	Camden	-0.002822822
-5.282857	Campaign	0.01893631
-5.581732	Campden	-0.002822822
-4.263628	Can	-0.03599699
-5.581732	Canadian	-0.002837467
-5.581732	Canal	0.01697215
-5.581732	Cannon	-0.002653808
-5.107487	Canterbury	0.03783767
-5.581732	Cape	-0.002830708
-4.682421	Capital	-0.01198528
-5.581732	Capsules	-0.0001866138
-4.35535	Captain	-0.0257185
-5.581732	Capture	0.005861196
-5.581732	Carbuncle	-0.00283634
-5.581732	Card	-0.002831834
-5.581732	Cardinal	-0.002838593
-5.282857	Carefully	-0.001634663
-4.205661	Carey	-0.001445219
-5.581732	Carlo	0.02172975
-5.581732	Carlsbad	0.01697215
-5.282857	Carlton	0.01892599
-5.581732	Carolinas	0.02172975
-5.581732	Carried	-0.002588438
-4.094552	Carruthers	-0.003214277
-5.581732	Carstairs	0.02172975
-5.282857	Carston	-0.004394452
-5.282857	Cartwright	0.01962395
-5.282857	Case	0.003944999
-5.581732	Cassel-Felstein	0.02172975
-5.282857	Castle	0.01909889
-5.581732	Cathcart	-0.002805924
-5.282857	Catherine	-0.005629779
-5.282857	Catholic	-0.005652343
-5.581732	Cattle	-0.001551349
-5.581732	Caunter	0.02172975
-5.581732	Cavalier	0.006171616
-4.982909	Cavendish	0.01339602
-5.107487	Cedars	0.02222923
-5.581732	Celtic	-0.002616616
-5.282857	Central	-0.005628652
-4.054447	Certainly	-0.004306689
-5.581732	Chair	-0.0005310311
-5.581732	Chamber	0.02172975
-5.581732	Chance	-0.001945486
-5.581732	Chancelleries	0.005861196
-5.581732	Chapel	-0.0005955782
-5.581732	Charasiab	-0.002827328
-4.585619	Charing	-0.02734296
-4.263628	Charles	-0.01634045
-4.439616	Charlington	-0.01272444
-5.581732	Charming	-0.002838593
-5.581732	Charybdis	-0.0004483501
-4.807179	Chatham	0.01513254
-5.581732	Check	-0.002804797
-4.886216	Chesterfield	0.03307611
-5.581732	Chesterton	0.02172975
-5.107487	Chicago	0.03713017
-5.581732	Chief	-0.002828455
-5.581732	Children	0.02172975
-5.282857	Chiltern	-0.005620767
-4.807179	China	0.041585
-5.282857	Chinese	-0.005659102
-5.107487	Chislehurst	-0.008355861
-4.982909	Chiswick	0.03810382
-5.581732	Christ	-0.001375058
-4.585619	Christmas	0.01906672
-5.107487	Chronicle	0.02845402
-5.282857	Chubb	-0.004161653
-4.740335	Church	0.01456642
-5.581732	Cinnamon	-0.002827328
-5.282857	Circumstantial	-0.005554297
-5.282857	Circus	0.01417871
-4.170913	City	0.02352968
-5.107487	Civil	-0.008403113
-4.154529	Clair	0.003286056
-5.107487	Clapham	-0.008405366
-5.581732	Clara	-0.00274283
-5.581732	Clark	-0.002837467
-4.740335	Clay	0.0277719
-5.282857	Clearly	0.01925991
-5.581732	Clerk	-0.002835214
-5.282857	Close	-0.002057419
-5.581732	Clotilde	-0.002838593
-4.740335	Club	0.03573465
-5.581732	Clubs	-0.002696631
-5.581732	Clue	0.00561302
-4.740335	Co.	0.005291272
-5.581732	Coarse	-0.002795784
-5.581732	Cobb	0.02172975
-5.107487	Coburg	-0.008406526
-4.807179	Cock	0.03825441
-5.581732	Cocksure	0.02172975
-5.581732	Coldstream	-0.002837467
-5.581732	Collar	0.006171616
-4.886216	College	0.04124635
-3.499658	Colonel	-0.1731583
-5.581732	Colonial	-0.002823949
-5.581732	Colonies	0.01697215
-5.581732	Colonna	-0.001375058
-5.581732	Colony	0.005861196
-3.773073	Come	-0.0883375
-5.581732	Coming	-0.001551349
-5.581732	Common	0.02172975
-5.581732	Commons	0.02172975
-4.682421	Company	0.0334994
-5.282857	Conan	-0.005630906
-5.581732	Concealment	-0.002572658
-5.581732	Conduit	-0.002653808
-5.581732	Confess	0.02172975
-5.581732	Conk-Singleton	-0.002835214
-5.581732	Conquest	0.002707514
-5.107487	Consider	0.01034328
-5.581732	Considering	-0.002524185
-5.282857	Constable	-0.005657976
-5.581732	Constabulary	0.02172975
-5.581732	Contents	-0.002696631
-4.982909	Continent	0.0113943
-5.282857	Continental	-0.005645584
-5.581732	Contralto	-0.001960161
-5.282857	Convinced	0.0002462282
-5.581732	Cooee	-0.001803232
-5.581732	Cook	0.02172975
-4.682421	Copper	-0.02201766
-5.581732	Coptic	-0.002838593
-4.631329	Coram	0.02825757
-4.886216	Cornelius	0.03255039
-5.282857	Cornwall	0.03795905
-4.682421	Coroner	-0.02188358
-5.282857	Coronet	-0.003245065
-5.581732	Corporal	-0.002820569
-5.107487	Corporation	-0.008222833
-5.107487	Cosmopolitan	0.03709889
-5.581732	Costa	-0.002838593
-4.35535	Could	-0.02423305
-5.107487	Count	-0.008402021
-4.585619	Countess	0.02495697
-5.282857	Counties	-0.0056264
-5.282857	County	0.003067757
-4.631329	Court	0.02105185
-5.107487	Covent	-0.008405366
-5.282857	Coventry	0.03990142
-4.807179	Coxon	-0.01506975
-5.581732	Crane	-0.002838593
-5.581732	Creina	0.02172975
-5.581732	Creole	-0.002835214
-5.581732	Crewe	0.01697215
-5.581732	Crime	0.0005132586
-5.581732	Crimea	0.006171616
-5.282857	Crimean	-0.004541299
-5.282857	Criminal	0.01417871
-5.581732	Criminals	-0.001803232
-4.807179	Croker	0.02890395
-5.581732	Crooked	-0.002835214
-5.282857	Crooksbury	-0.005625273
-5.581732	Crosby	0.01514136
-4.506511	Cross	0.03631863
-5.107487	Crowder	0.01616072
-4.886216	Crown	0.006915574
-5.581732	Crystal	-0.002838593
-4.205661	Cubitt	0.02441136
-4.094552	Cunningham	0.0008284226
-4.807179	Cunninghams	0.03369591
-4.886216	Cup	0.03257608
-5.581732	Curse	0.01514136
-5.107487	Cusack	0.01791646
-5.581732	Cuvier	-0.001842752
-5.282857	Cyclist	0.01417871
-4.585619	Cyril	-0.00297014
-5.107487	D	0.01611863
-5.282857	D'you	-0.004454326
-5.581732	D.D.	0.02172975
-5.282857	DAILY	-0.005630906
-5.581732	DE	-0.002838593
-4.982909	DEAR	-0.0111622
-5.581732	DEAREST	-0.002838593
-5.581732	DEBUTANTE	0.005861196
-5.282857	DECEMBER	0.01893631
-5.581732	DEFINITELY	-0.002838593
-5.581732	DETOUR	-0.001945486
-5.581732	DID	0.00661694
-5.581732	DISSOLVED	0.01697215
-5.581732	DO	-0.002300919
-5.581732	DOES	-0.002835214
-4.439616	DOYLE	-0.008164007
-5.581732	Dacre	-0.002828455
-5.282857	Daily	-0.00565685
-5.581732	Damp	-0.00174451
-5.282857	Dancing	-0.0056264
-5.581732	Dane	0.02172975
-5.581732	Danger	-0.001803232
-5.581732	Dantzig	0.02172975
-5.581732	Darjeeling	0.01697215
-5.282857	Dark	-0.005465301
-5.581732	Darlington	-0.002838593
-4.631329	Dartmoor	0.002731757
-5.581732	Data	-0.001803232
-5.581732	Daubensee	0.02172975
-5.282857	Daulat	-0.005630906
-5.581732	Davenport	0.01697215
-4.982909	David	0.0158863
-5.581732	Davos	-0.002838593
-5.107487	Dawson	0.004821449
-5.581732	Day	-0.001375058
-5.581732	De	-0.002838593
-4.33054	Dear	-0.02132252
-5.282857	December	-0.00477841
-5.107487	Deep	-0.008405366
-5.581732	Deeply	-0.0005650043
-5.581732	Dei	0.01697215
-5.107487	Dene	-0.008391848
-5.581732	Depend	-0.001500503
-4.886216	Derbyshire	0.04092025
-4.886216	Desborough	0.03435352
-5.581732	Describe	0.001440596
-5.581732	Deserted	0.001182423
-5.581732	Desiring	0.00561302
-5.282857	Detective	-0.00459667
-5.107487	Devine	0.01290807
-4.982909	Devonshire	0.01622939
-5.282857	Devoy	0.01893631
-3.845612	Did	-0.09150416
-5.581732	Dieppe	0.01697215
-5.581732	Dinner	0.002388159
-4.886216	Diogenes	-0.01389937
-5.581732	Dirty	-0.0004256952
-5.282857	Disappearance	0.003041859
-5.581732	Disease	-0.0004256952
-5.581732	Disgraceful	0.02172975
-5.581732	Disregarding	-8.232798e-05
-5.581732	Division	0.02172975
-5.107487	Dixon	0.01616072
-3.603737	Do	-0.1938325
-5.581732	Dock	0.006171616
-5.581732	Dockyard	0.02172975
-4.18794	Doctor	-0.01818484
-5.581732	Doctors	-0.001575075
-5.581732	Documents	0.02172975
-4.807179	Does	-0.003155906
-5.581732	Don	-0.002838593
-5.581732	Doncaster	-0.0004256952
-5.581732	Done	-0.002304303
-4.982909	Donnithorpe	0.01705157
-5.282857	Dook	0.0192289
-4.506511	Doran	0.01859269
-5.581732	Dorking	-0.0004256952
-5.282857	Dovercourt	0.01529691
-5.107487	Down	0.01231937
-5.581732	Downing	-0.002653808
-5.581732	Downs	0.02172975
-5.282857	Doyle	0.01420829
-4.982909	Dr	0.008645163
-3.58601	Dr.	-0.217137
-5.581732	Draper	-0.001375058
-5.282857	Draw	-0.003615328
-5.581732	Drink	-0.001308365
-5.581732	Drive	-0.001551349
-5.282857	Drop	0.00455698
-5.581732	Dubugue	0.005861196
-4.682421	Duchess	0.01951437
-3.983885	Duke	-0.04583139
-5.581732	Dulong	0.01697215
-4.740335	Duncan	-0.01930324
-5.581732	Dundas	-0.002837467
-4.631329	Dundee	0.02555125
-4.886216	Dunlop	0.03452732
-4.506511	During	-0.003221372
-5.282857	Dutch	-0.004141305
-4.740335	E	0.02369132
-4.982909	E.	-0.009665683
-5.581732	E.C	0.01697215
-5.581732	ELRI.ES	0.01697215
-5.581732	ELSIE	-0.002838593
-5.581732	EMPLOYEE	0.02172975
-5.581732	ENGINEER	-0.002837467
-5.581732	ESTABLISHED	0.01697215
-5.581732	EVIDENCE	-0.002835214
-4.682421	Each	-0.01196318
-4.682421	Earl	0.01173203
-5.282857	Early	0.008787125
-5.581732	Easier	0.01514136
-4.807179	East	0.003303137
-5.581732	East-End	0.005861196
-5.581732	East-end	0.02172975
-4.982909	Eastern	-0.0112299
-5.581732	Eat	0.005206592
-5.581732	Echo	0.02172975
-5.282857	Edgeware	-0.005604995
-4.982909	Edith	0.01338094
-4.682421	Eduardo	-0.02200414
-5.581732	Educated	-0.00283634
-5.107487	Edward	-0.002728466
-4.886216	Effie	0.01470261
-5.581732	Eglonitz	-0.001960161
-5.581732	Eglow	0.02172975
-5.581732	Egria	0.01697215
-5.581732	Egypt	0.02172975
-5.107487	Eh	0.01868747
-4.982909	Eight	-0.002413601
-5.107487	Either	0.01940512
-5.581732	Electrical	-0.002830708
-5.581732	Elementary	0.02172975
-5.581732	Eley	-0.001375058
-5.107487	Elias	0.0005565425
-5.581732	Elise	-0.001803232
-5.581732	Elizabethan	-0.002827328
-5.107487	Elrige	-0.006944084
-4.585619	Elsie	0.02624335
-5.581732	Embankment	0.0005132586
-5.581732	Embassies	-0.001781776
-5.107487	Embassy	0.01718282
-5.107487	Emperor	0.03768229
-5.581732	Empire	-0.001945486
-5.282857	Empty	-0.005616261
-5.107487	Encyclopaedia	6.455928e-05
-5.107487	End	0.03718022
-5.581732	Endell	-0.002653808
-5.581732	Engage	0.005206592
-5.581732	Engaged	0.01697215
-5.581732	Engineer	-0.001375058
-3.793592	England	-0.03485452
-5.581732	Englischer	-0.002838593
-4.108788	English	-0.04060017
-4.631329	Englishman	0.02824738
-5.282857	Englishmen	-0.001681278
-5.581732	Englishwoman	0.002707514
-5.581732	Enough	0.005861196
-5.581732	Enter	0.01514136
-5.282857	Entirely	0.01417871
-5.581732	Escott	-0.001732087
-5.581732	Esq	0.01697215
-5.581732	Esq.	0.02172975
-5.581732	Etherege	0.02172975
-5.107487	Eton	0.0005870443
-4.33054	Europe	0.02833074
-4.409673	European	-0.04054737
-4.585619	Eustace	-0.002386047
-5.581732	Euston	0.01697215
-4.886216	Eva	0.02086918
-5.107487	Evans	0.02567416
-4.138741	Even	-0.02984023
-5.282857	Evening	-0.00565685
-5.581732	Eventually	0.02172975
-4.33054	Every	-0.04550203
-5.282857	Everybody	0.0001084283
-5.107487	Everything	-0.002674009
-5.581732	Evidence	0.005861196
-4.740335	Evidently	0.02683293
-5.581732	Evil	-0.002737196
-5.581732	Ex-President	-0.002838593
-4.094552	Exactly	-0.03008405
-5.581732	Examine	-0.00132306
-5.581732	Exceedingly	-0.001665449
-4.138741	Excellent	-0.02593421
-4.982909	Except	-0.007695071
-5.282857	Exchange	-0.005641078
-4.631329	Excuse	-0.02263901
-5.581732	Exeter	0.02172975
-5.581732	Exit	0.01514136
-5.581732	Experience	0.02172975
-5.581732	Extremely	-0.001665449
-4.631329	Eyford	0.02588335
-5.282857	Ezekiah	-0.00554641
-5.581732	F.H.M	0.01697215
-5.581732	FEBRUARY	0.02172975
-5.581732	FIANCEE	-0.001960161
-5.581732	FIVE	-0.002838593
-5.581732	FRESH	-0.002838593
-5.581732	FRIESLAND	0.02172975
-5.282857	FROM	0.01234793
-5.581732	Faber	0.0005132586
-5.581732	Face	-0.00283634
-5.581732	Faces	0.00561302
-5.581732	Failing	-0.002347161
-5.581732	Failure	0.02172975
-5.282857	Fairbank	0.02444222
-5.107487	Fall	0.01140312
-5.282857	Falmouth	0.01549911
-5.581732	Familiar	-0.0005650043
-5.581732	Family	-0.002670712
-5.581732	Fancy	0.0009664509
-4.631329	Far	-0.02286515
-5.581732	Fareham	0.002707514
-5.581732	Farewell	0.02172975
-5.282857	Farintosh	0.01893631
-4.682421	Farm	0.03496924
-5.581732	Farm-house	0.00561302
-4.631329	Farnham	0.02153977
-5.581732	Farquhar	0.02172975
-5.581732	Farrington	-0.002653808
-5.581732	Fashionable	-0.002838593
-5.581732	Fate	0.0003032917
-5.581732	Father	0.002388159
-4.982909	February	0.00421292
-5.581732	Feeling	-0.002690997
-5.282857	Fenchurch	-0.005447247
-4.982909	Ferguson	0.01813811
-5.581732	Ferrers	-0.002838593
-5.282857	Ferrier	0.02223476
-5.282857	Few	0.003182097
-5.581732	Fifty	-0.002758604
-4.807179	Fighting	-0.01662387
-5.581732	Filled	-0.0001866138
-5.581732	Final	-0.002838593
-4.284807	Finally	-0.01364497
-5.581732	Financial	-0.002837467
-5.581732	Find	-0.002073024
-5.107487	Finding	-0.001526382
-5.581732	Fine	-0.002829581
-5.581732	Finns	0.006171616
-4.886216	Fire	-0.01287077
-4.682421	First	0.01805764
-4.740335	Fitzroy	-0.01931788
-4.544266	Five	-0.02076315
-5.581732	Flaubert	-0.002784518
-5.107487	Fleet	-0.008222833
-4.682421	Flora	-0.01576347
-5.581732	Florence	-0.0001866138
-5.107487	Florida	0.03959072
-5.581732	Flowers	-0.001960161
-5.581732	Fly	-0.0005955782
-5.581732	Folk	-0.002008696
-5.581732	Follow	-0.000778978
-5.107487	Following	0.01351194
-5.581732	Fool	0.003039667
-5.581732	Footmarks	0.005861196
-5.581732	Footsteps	-0.002645919
-3.529111	For	-0.1790762
-4.631329	Forbes	0.02249458
-5.581732	Force	0.01697215
-5.107487	Fordham	0.01664944
-5.581732	Fordingbridge	-0.002837467
-5.282857	Fordingham	0.002009865
-4.585619	Foreign	-0.02737116
-4.982909	Forest	-0.01058729
-5.581732	Forgery	0.01697215
-5.581732	Forgive	-0.001308365
-5.581732	Formerly	-0.002837467
-5.581732	Forrester	0.02172975
-5.581732	Fortescue	-0.002838593
-5.581732	Fortunately	0.02172975
-5.581732	Fortune	-0.001945486
-5.581732	Found	0.005206592
-4.886216	Four	0.03236861
-4.886216	Fournaye	0.02075227
-4.886216	Fowler	0.02350294
-4.381662	France	0.02964077
-5.107487	Francis	-0.008457259
-5.282857	Francisco	0.01893631
-4.886216	Franco-Midland	-0.01390163
-5.581732	Franco-Prussian	-0.002834087
-4.307072	Frank	-0.005254738
-5.282857	Frankly	0.01893631
-4.982909	Fraser	0.01864028
-5.581732	Freebody	0.02172975
-5.282857	Freemason	0.01893631
-5.581732	Freemasonry	-0.0004256952
-4.108788	French	-0.02941801
-5.581732	Frenchman	-0.002236624
-5.581732	Frequently	0.01697215
-5.282857	Fresh	-0.00565347
-5.282857	Fresno	-0.005447247
-4.807179	Friday	0.02999257
-5.282857	Fritz	-0.00462148
-3.793592	From	-0.09452884
-5.282857	G	0.003862084
-5.282857	GIBRALTAR	0.03990142
-5.581732	GLOBE	-0.002439629
-5.581732	GO	0.01697215
-4.585619	GRAPHIC	-0.01718185
-5.581732	GUILT	-0.002838593
-5.282857	Game	0.005329236
-5.581732	Gang	0.01697215
-5.107487	Garden	0.0113761
-5.581732	Gardens	0.02172975
-5.282857	Gate	0.02143908
-5.581732	Gazetteer	0.01697215
-4.740335	Gelder	-0.006235409
-5.282857	Gemmi	0.01890931
-5.107487	General	-0.008429058
-5.581732	Geneva	0.01697215
-5.581732	Geneve	-0.001551349
-5.581732	Gentlemen	0.02172975
-4.243433	George	-0.02136783
-5.282857	Georgia	0.03990142
-4.154529	German	0.001035228
-5.581732	German-speaking	-0.002730436
-5.581732	Germans	0.01697215
-4.682421	Get	-0.01556071
-5.282857	Getting	0.002863755
-5.581732	Gigantic	-0.002828455
-4.439616	Gilchrist	0.0164733
-5.282857	Gill	-0.005630906
-4.471776	Give	-0.0253556
-5.581732	Giving	-0.002823949
-5.282857	Gladstone	-0.005607248
-5.282857	Glancing	-0.002880156
-5.581732	Globe	0.02172975
-4.982909	Gloria	-0.01116107
-5.581732	Gloves	0.02172975
-5.282857	Go	-0.00408817
-3.793592	God	-0.09259114
-3.973164	Godfrey	-0.03201426
-4.585619	Godolphin	-0.02717057
-5.581732	Gold	0.02172975
-5.282857	Golden	-0.005630906
-4.886216	Gone	0.02665969
-4.054447	Good	-0.05972364
-5.282857	Good-afternoon	0.01893631
-5.282857	Good-by	0.0196132
-4.740335	Good-bye	0.02690939
-4.982909	Good-day	0.02232439
-4.982909	Good-evening	0.03436788
-5.107487	Good-morning	0.01616072
-4.982909	Good-night	0.03507971
-5.282857	Goodge	-0.005447247
-5.581732	Goodwins	0.006171616
-4.982909	Gordon	0.01491797
-5.107487	Gorot	0.01707887
-5.282857	Got	-0.004011284
-5.581732	Gothic	-0.002837467
-5.581732	Gottsreich	-0.002838593
-5.282857	Government	0.01893631
-5.581732	Governor	0.005861196
-4.067408	Grace	-0.01206752
-5.581732	Gradually	0.02172975
-5.581732	Graham	0.006171616
-5.581732	Grand	-0.002794658
-4.544266	Grange	0.04254413
-4.740335	Grant	-0.01932577
-5.581732	Granting	0.003039667
-5.581732	Grave	-0.002645919
-4.982909	Gravesend	0.01918684
-5.581732	Gray	-0.001375058
-4.631329	Great	-0.02467063
-4.982909	Grecian	-0.01088617
-5.107487	Greece	0.02115335
-4.284807	Greek	0.009537268
-5.581732	Greenwich	0.01697215
-4.631329	Gregory	0.02658974
-5.282857	Gregson	0.02844975
-5.581732	Grenoble	0.02172975
-5.581732	Gresham	-0.002838593
-5.581732	Grice	-0.002838593
-4.682421	Grimesby	-0.02200301
-5.581732	Grit	0.002707514
-5.581732	Groat	-0.001375058
-5.581732	Gross	-0.002826201
-4.982909	Grosvenor	-0.01121075
-5.581732	Grove	-0.002811556
-5.282857	Guards	0.01692785
-5.282857	Guild	0.006246412
-5.581732	Gustave	-0.002838593
-4.807179	H	0.04064298
-4.886216	H.	-0.001310348
-5.107487	HAD	0.01791766
-5.581732	HAMPSTEAD	0.01697215
-5.581732	HAND	0.01697215
-5.282857	HAVE	-0.001279778
-5.581732	HE	-0.002490365
-5.282857	HERE	-0.005659102
-5.581732	HIM	0.01697215
-4.263628	HOLMES	-0.005137131
-5.581732	HOPKINS	0.01697215
-5.107487	HUNTER	0.01152469
-4.224137	Ha	-0.03485357
-4.33054	Had	-0.00321278
-5.581732	Hafiz	-0.0005650043
-5.581732	Hague	-0.002439629
-4.682421	Half	-0.006782812
-5.282857	Half-past	-0.005098869
-5.581732	Halfway	-0.002168935
-5.581732	Halifax	0.02172975
-3.869967	Hall	-0.03313696
-5.282857	Hallamshire	-0.004834846
-4.506511	Halloa	-0.006983513
-5.581732	Ham	0.006171616
-5.107487	Hammersmith	0.01751325
-4.807179	Hampshire	0.03525367
-4.807179	Hampstead	0.02930695
-5.581732	Handsome	-0.0004256952
-5.581732	Hankey	-0.001375058
-5.282857	Hanover	-0.005612881
-5.581732	Harden	0.02172975
-4.631329	Harding	0.003421245
-5.107487	Hardly	-0.00239881
-4.886216	Hardware	-0.01389825
-4.982909	Hardy	0.01340276
-5.581732	Hare	-0.002773251
-5.581732	Hargreave	0.02172975
-4.506511	Harker	0.03470674
-5.282857	Harley	-0.005447247
-4.807179	Harold	-0.01112464
-5.581732	Harpooner	-0.0004256952
-5.107487	Harris	0.01866407
-4.284807	Harrison	0.01542067
-5.107487	Harrow	0.03712584
-4.982909	Harry	-0.01117237
-4.471776	Has	0.006564219
-4.33054	Hatherley	0.002514835
-5.107487	Hatty	-0.008395228
-5.581732	Havana	0.02172975
-3.766444	Have	-0.1089955
-4.243433	Having	-0.05558109
-5.581732	Hay	-0.002835214
-4.381662	Hayes	0.02302716
-5.581732	Hayling	0.02172975
-5.107487	Hayter	0.03130381
-5.581732	Hayward	0.02172975
-2.566518	He	-0.8187975
-5.581732	Head	-0.002835214
-5.581732	Head-keeper	-0.002789024
-4.740335	Heath	0.02834439
-4.243433	Heaven	-0.009686518
-5.107487	Heavens	0.01722942
-5.581732	Heavy	-0.002834087
-5.581732	Hebrew	-0.002838593
-5.107487	Hebron	0.03712584
-4.982909	Hector	-0.01113854
-5.581732	Heh	-0.0004256952
-4.807179	Heidegger	0.009541385
-5.581732	Heir	0.006171616
-4.982909	Helen	0.01446597
-4.982909	Help	-0.002855353
-5.107487	Hence	0.02632522
-5.107487	Henri	-0.008403113
-4.35535	Henry	-0.02094046
-3.994878	Her	-0.09555682
-5.282857	Hercules	0.01417871
-5.282857	Herder	0.01984728
-3.622219	Here	-0.1043419
-5.282857	Hereford	0.00335228
-5.282857	Herefordshire	0.01434746
-5.581732	Herr	-0.002832961
-5.581732	Hers	0.0003032917
-5.107487	High	-0.008222833
-5.581732	Highness	0.00561302
-5.581732	Highway	0.01697215
-4.506511	Hilda	-0.001721185
-4.740335	Hill	0.02082209
-5.581732	Hills	-0.0004256952
-4.18794	Hilton	-0.04079488
-5.581732	Himalayas	0.02172975
-3.285002	His	-0.3549387
-5.581732	Histon	0.02172975
-5.282857	Hitherto	0.007685638
-5.581732	Hof	0.02172975
-5.282857	Holborn	0.03990142
-4.886216	Hold	0.009408246
-4.33054	Holder	0.01018502
-4.33054	Holdernesse	0.01231807
-4.439616	Holdhurst	0.01985638
-5.581732	Holiness	0.01514136
-5.282857	Holland	0.03990142
-5.581732	Hollows	0.01697215
-5.581732	Holly	-0.001945486
-2.397403	Holmes	-0.8246115
-5.581732	Holy	-0.002834087
-5.581732	Honoria	-0.002838593
-5.581732	Honour	0.01697215
-4.740335	Honourable	-0.01925034
-5.581732	Hood	0.02172975
-5.581732	Hooliganism	-0.0004483501
-4.544266	Hope	0.01467022
-3.699507	Hopkins	-0.09343264
-5.581732	Hopley	-0.002829581
-4.682421	Horace	0.003839118
-4.471776	Horner	0.01096635
-5.282857	Horrified	-0.002239122
-4.585619	Horsham	0.01815798
-4.243433	Hosmer	-0.0310875
-5.581732	Hospital	0.02172975
-4.585619	Hotel	0.02826936
-4.409673	House	0.01578943
-5.581732	Houses	0.005861196
-3.517831	How	-0.1909491
-4.807179	Howells	0.0330149
-4.017735	However	-0.06164341
-3.932745	Hudson	-0.0301327
-4.886216	Hugh	-0.01392532
-5.581732	Huguenot	-0.002837467
-4.807179	Hullo	0.009007532
-4.33054	Hum	-0.04700829
-5.581732	Human	-0.002785644
-5.581732	Hungarian	-0.002684235
-4.170913	Hunter	-0.003180504
-5.581732	Huret	0.02172975
-4.631329	Hurlstone	0.02942233
-5.581732	Hurrah	-0.001803232
-4.307072	Huxtable	0.01313618
-5.581732	Hyde	-0.002825075
-1.666766	I	-1.522253
-5.282857	I.	0.004694245
-5.581732	IDENTITY	0.005602682
-4.982909	II	0.008645163
-5.581732	II.	-0.001960161
-4.982909	III	0.008645163
-5.581732	III.	-0.001960161
-5.581732	IMPORTANT	-0.002838593
-5.282857	IN	-0.005659102
-5.581732	IRENE	-0.002838593
-4.886216	IS	-0.005363965
-4.982909	IT	-0.00257328
-5.107487	IV	0.01140312
-5.581732	IV.	-0.001960161
-5.107487	IX	0.01140312
-5.581732	IX.	-0.001960161
-5.581732	Identity	-0.00283634
-5.581732	Idiot	0.003039667
-3.2281	If	-0.2711937
-5.107487	Imagine	0.01905095
-5.581732	Imitated	0.01697215
-5.581732	Immediately	-0.002804797
-5.282857	Imperial	-0.005659102
-5.282857	Important	0.01523544
-4.886216	Impossible	0.0117309
-3.224307	In	-0.3204985
-5.581732	Incidentally	0.00661694
-5.581732	Incredible	-0.002838593
-4.170913	Indeed	-0.01847371
-4.471776	India	0.02064259
-4.307072	Indian	0.01245823
-5.282857	Indians	0.02002771
-5.581732	Indirectly	0.001440596
-5.581732	Inference	-0.001960161
-4.740335	Inn	0.03557103
-5.581732	Inner	-0.002835214
-5.282857	Inquiries	-0.001694919
-5.581732	Inquiry	0.002388159
-5.581732	Insensibly	-0.001581854
-5.107487	Inside	-0.002925077
-3.682909	Inspector	-0.08837728
-5.107487	Instead	0.0002921699
-5.581732	Interlaken	0.02172975
-5.581732	International	0.02172975
-5.581732	Internationals	0.01697215
-5.282857	Interpreter	0.01892242
-4.982909	Into	-0.008497591
-5.581732	Ionides	0.005861196
-4.381662	Irene	-0.01688328
-5.282857	Iris	0.01421183
-5.581732	Irish	-0.002837467
-5.581732	Irish-setter	0.02172975
-3.85358	Is	-0.08044245
-4.982909	Isa	0.008626397
-5.581732	Islander	0.002707514
-5.581732	Isle	0.005861196
-2.520844	It	-0.9025467
-4.409673	Italian	-0.003096834
-5.282857	Italians	0.001190837
-5.282857	Italy	0.008699788
-4.682421	Its	-0.02205396
-5.282857	Ivy	-0.005641078
-4.807179	J	0.003150782
-5.581732	J.	-0.002837467
-5.581732	J.H.N	0.01697215
-5.107487	J.P.	0.01677075
-5.581732	JABEZ	-0.002838593
-5.581732	JANUARY	0.02172975
-5.581732	JEPHRO	-0.002838593
-5.581732	JULY	0.02172975
-5.581732	JUNE	0.02172975
-4.585619	Jabez	-0.02733849
-4.33054	Jack	0.0139913
-5.581732	Jack-in-office	-0.001803232
-5.282857	Jackson	-0.003097779
-5.107487	Jacobs	0.01683761
-3.822551	James	-0.07291174
-5.107487	Jane	0.0161361
-5.581732	Janet	-0.002838593
-4.807179	January	0.02684372
-5.581732	Japan	0.01697215
-4.886216	Japanese	-0.01397046
-4.982909	Jem	0.01333366
-5.581732	Jeremiah	-0.002838593
-5.282857	Jeremy	-0.005629779
-5.581732	Jersey	0.002707514
-5.581732	Jew	-0.001375058
-5.581732	Jewel	-0.00283634
-5.581732	Jezail	-0.002817189
-5.581732	Jingo	-0.001803232
-5.282857	Johann	-0.003246198
-5.282857	Johannesburg	0.03990142
-3.878398	John	-0.09526919
-5.581732	Johnnie	0.00661694
-5.581732	Johnson	0.02172975
-5.282857	Joint	0.01502036
-4.471776	Jonas	-0.03520125
-4.544266	Jones	0.02903529
-4.205661	Joseph	0.01634319
-5.282857	Josiah	-0.00562302
-5.282857	Journal	-0.005335676
-4.506511	Jove	-0.006983517
-5.581732	Jowaki	-0.002837467
-5.581732	Juan	0.02172975
-5.581732	Jubilee	0.02172975
-5.107487	Julia	0.0007676557
-5.107487	July	0.0167533
-5.107487	Jump	0.02292254
-5.107487	Junction	0.03712584
-4.631329	June	0.01143504
-5.581732	Jungle	0.02172975
-5.581732	Juryman	-0.002696631
-4.080768	Just	-0.04525062
-5.581732	Justice	0.005861196
-4.982909	K	0.02048891
-4.409673	K.	-0.01350101
-5.581732	K.G.	0.02172975
-5.581732	KILLED	-0.002801417
-5.581732	KNEW	0.003039667
-5.107487	KNOW	0.00179702
-4.982909	Kate	0.01057793
-5.581732	Keep	0.003039667
-5.581732	Kemp	-0.001960161
-5.581732	Kennedy	0.02172975
-4.807179	Kennington	-0.007618737
-4.631329	Kensington	0.04156079
-5.581732	Kensington.	-0.001960161
-4.740335	Kent	0.02661373
-5.282857	Kentish	-0.005558832
-5.581732	Khalifa	-0.0005310311
-5.581732	Khartoum	0.02172975
-5.107487	Kilburn	0.03712584
-5.581732	Kill	0.001440596
-5.581732	Kimberley	0.00561302
-4.544266	Kindly	-0.02888458
-3.973164	King	-0.02609015
-4.807179	Kirwan	0.03673039
-5.282857	Klan	0.01667754
-5.282857	Klux	-0.005630906
-5.107487	Knowing	0.0005013403
-5.581732	Known	0.00561302
-5.282857	Kramm	0.03990142
-5.107487	Kratides	0.03712584
-5.581732	Ku	-0.002837467
-5.107487	L	0.01725212
-5.581732	L.	-0.00283634
-5.581732	L10	-0.002817189
-5.581732	L200	0.01697215
-5.581732	L300	0.01697215
-5.581732	L500	0.01697215
-5.581732	LATER.	-0.001960161
-5.107487	LEAGUE	0.001143513
-5.581732	LESLIE	-0.002838593
-5.581732	LESTRADE	0.01697215
-5.581732	LIP	-0.002835214
-5.581732	LOUD	-0.002835214
-5.282857	La	-0.005659102
-5.107487	Laburnum	-0.008448247
-4.982909	Lachine	0.03454366
-4.041862	Lady	-0.08904266
-5.581732	Lady-day	0.02172975
-5.581732	Lancashire	0.006171616
-4.982909	Lancaster	0.03434218
-4.35535	Lane	0.01847818
-5.581732	Langham	-0.002690997
-5.581732	Langmere	0.02172975
-5.282857	Lanner	0.03990142
-5.107487	Large	0.01614128
-4.506511	Lascar	0.0007026345
-4.807179	Last	-0.01619899
-5.282857	Lat	0.01417871
-5.107487	Late	-0.0001720367
-4.740335	Latimer	0.03627094
-5.581732	Lattice-paned	0.02172975
-5.581732	Lauder	0.02172975
-4.886216	Leadenhall	-0.01372135
-4.471776	League	0.03657632
-5.581732	Leaning	-0.001551349
-4.982909	Leatherhead	0.0369045
-5.107487	Leave	0.009841291
-5.581732	Leaving	-0.002830708
-5.581732	Lebanon	0.02172975
-4.544266	Lee	0.02452759
-5.581732	Left	0.0009664509
-5.581732	Legation	-0.0004256952
-5.581732	Legion	0.005861196
-5.581732	Leone	-0.002490365
-4.807179	Leslie	-0.01661148
-3.430687	Lestrade	-0.1901583
-5.581732	Lesurier	0.02172975
-3.747142	Let	-0.1246966
-5.581732	Letter	-0.001320799
-5.581732	Leuk	0.02172975
-5.581732	Leverstoke	0.02172975
-5.581732	Lewisham	-0.002812683
-5.282857	Lexington	0.02245705
-5.581732	Lhassa	0.006171616
-5.581732	Liberal	-0.0005650043
-5.581732	Lie	-0.002804797
-5.282857	Lieutenant	0.003053353
-5.282857	Light	0.002386104
-5.581732	Light-houses	0.02172975
-5.282857	Like	0.003520232
-4.982909	Limited	0.03436788
-5.581732	Lip	-0.00283634
-4.886216	Listen	0.01958384
-5.581732	Little	-0.00238212
-4.886216	Liverpool	0.0318056
-5.581732	Living	0.002707514
-5.581732	Llama	0.01697215
-5.581732	Lloyd	-0.001375058
-5.581732	Local	-0.00281381
-4.471776	Lodge	0.03625527
-5.581732	Logic	0.0005132586
-5.581732	Lombard	-0.002653808
-3.338056	London	-0.1698712
-5.282857	Londoners	0.02020104
-5.282857	Lone	-0.005625273
-5.282857	Long	0.01415405
-4.205661	Look	-0.03104267
-4.982909	Looking	-0.009494999
-3.608284	Lord	-0.1675689
-5.581732	Lordship	0.01697215
-5.581732	Lothman	-0.00283634
-5.581732	Louisiana	0.02172975
-4.585619	Lower	-0.0274039
-5.282857	Lowther	-0.005629779
-4.284807	Lucas	0.02052725
-5.581732	Lucerne	0.02172975
-5.581732	Lucky	-0.001248445
-5.581732	Lucretia	-0.002837467
-4.982909	Lucy	0.0168977
-5.107487	Luke	-0.006944084
-5.581732	Luxembourg	0.006171616
-5.581732	Lyon	-0.002830708
-5.282857	Lyons	-0.001669908
-4.740335	Lysander	-0.01932689
-5.282857	M	0.02045818
-5.107487	M.	0.0161361
-5.581732	M.A.	0.02172975
-4.471776	MAGAZINE	-0.03521589
-5.581732	MAGNUM	-0.002838593
-5.581732	MAN	-0.002838593
-5.581732	MARCH	0.02172975
-5.581732	MARY	0.01697215
-5.581732	MAY	0.02172975
-5.581732	MCFARLANE	-0.002837467
-5.581732	MEET	-0.002838593
-5.581732	MEMOIRS	-0.002811556
-5.581732	MENAGE	0.0005132586
-5.581732	MILVERTON	0.02172975
-5.581732	MISS	-0.00283634
-5.581732	MORAN	0.02172975
-5.581732	MORNING	-0.002838593
-4.982909	MR.	-0.01115097
-5.581732	MURDER	-0.002837467
-5.581732	MUST	-0.001056194
-5.107487	MY	-0.007324792
-5.581732	MYSTERY	-0.002391142
-5.282857	MacPherson	0.03990142
-4.886216	Mackleton	0.01579672
-5.107487	Madam	0.01613849
-5.282857	Madame	0.01890931
-5.581732	Mademoiselle	-0.001375058
-5.581732	Madman	0.02172975
-5.581732	Madness	0.02172975
-5.581732	Madrid	0.02172975
-5.107487	Mafia	0.03808337
-5.282857	Maggie	0.02146306
-4.307072	Majesty	0.01497816
-4.740335	Major	-0.0193754
-5.581732	Major-General	-0.002818316
-5.282857	Make	0.002413154
-5.581732	Making	-0.00209108
-5.581732	Malay	-0.002835214
-5.581732	Male	-0.002834087
-4.631329	Mall	0.02333369
-5.581732	Malplaquet	-0.001500503
-4.982909	Man	0.01626359
-5.581732	Manchester	-0.002653808
-4.682421	Manor	0.0110239
-5.581732	Mansions	0.02172975
-4.740335	Many	-0.01917375
-4.471776	Mapleton	0.01029895
-5.282857	Marbank	0.01893631
-4.807179	March	0.01787259
-5.581732	Marengo	0.02172975
-5.581732	Margate	-0.002706773
-5.581732	Mark	0.003039667
-4.807179	Marker	0.01368063
-5.581732	Market	0.01697215
-5.282857	Married	-0.00462035
-5.581732	Marseilles	0.02172975
-5.581732	Marsham	0.02172975
-4.506511	Martin	0.007053375
-4.094552	Mary	0.002668068
-5.581732	Marylebone	-0.002820569
-4.982909	Master	-0.009453074
-5.581732	Mathematical	-0.002838593
-5.581732	Matheson	0.02172975
-5.581732	Mathews	0.02172975
-5.282857	Matters	-0.001530047
-5.581732	Maudsley	0.02172975
-5.581732	Maupertuis	-0.001781776
-5.581732	Mauritius	0.01697215
-4.35535	Mawson	-0.04072572
-4.243433	May	-0.0102177
-4.886216	Maybe	0.01037342
-5.282857	Maynooth	0.02844975
-4.017735	McCarthy	0.002781287
-5.107487	McCarthys	-0.007212969
-5.282857	McCauley	0.01894507
-4.18794	McFarlane	0.008467384
-5.581732	McLaren	0.01697215
-5.581732	McQuire	-0.001375058
-5.581732	Meaning	0.003039667
-4.409673	Meanwhile	0.003137868
-5.581732	Mecca	0.02172975
-5.581732	Medical	-0.002837467
-5.581732	Mediterranean	0.01697215
-4.886216	Meiringen	0.03740916
-4.307072	Melas	0.01664335
-5.581732	Melbourne	0.02172975
-5.581732	Memoirs	-0.0001866138
-4.807179	Men	0.008934407
-5.581732	Mendicant	-0.002838593
-5.581732	Meredith	0.02172975
-5.581732	Mereer	0.02172975
-5.581732	Merridew	0.005861196
-5.581732	Merrow	0.02172975
-4.506511	Merryweather	-0.002169857
-5.581732	Metropolitan	-0.002820569
-5.581732	Meunier	0.02172975
-5.581732	Mexico	0.01697215
-5.581732	Middle	-0.002838593
-5.282857	Middlesex	0.03990142
-5.581732	Midland	-0.002838593
-5.282857	Midlands	0.02006716
-4.471776	Might	-0.005253375
-5.282857	Miles	0.00335113
-4.886216	Millar	0.03776433
-5.581732	Milner	0.006171616
-3.973164	Milverton	-0.01962822
-5.581732	Mind	0.001182423
-5.581732	Minerals	0.002707514
-4.506511	Minister	0.03158118
-5.282857	Ministers	-0.004241903
-5.581732	Misfortunes	-0.0024836
-3.536797	Miss	-0.2377448
-5.107487	Missing	0.01613491
-5.581732	Mission	-0.002304303
-5.581732	Mister	-0.002606472
-5.581732	Mistress	0.006171616
-4.807179	Mitton	0.0181496
-4.982909	Mme	0.008645163
-5.581732	Moffat	0.01697215
-5.581732	Molesey	-0.002834087
-3.913863	Monday	-0.02814893
-5.107487	Monica	0.02200482
-5.282857	Monsieur	-0.005659102
-5.107487	Montague	-0.008242015
-5.581732	Montana	0.02172975
-5.282857	Months	-5.136244e-05
-5.581732	Montpelier	0.02172975
-5.282857	Moor	0.02513217
-5.581732	Moorhouse	0.02172975
-5.581732	Morally	0.02172975
-4.123506	Moran	0.00397671
-4.982909	Morcar	0.00968551
-4.740335	More	-0.01336786
-5.581732	Morgan	0.01514136
-4.017735	Moriarty	0.009379104
-5.107487	Morning	-0.008430184
-5.282857	Morris	0.01478178
-4.682421	Morrison	0.03327916
-4.631329	Morse	-0.02464906
-4.886216	Mortimer	0.03145459
-4.982909	Morton	0.01399892
-4.886216	Most	-0.005104111
-5.282857	Mother	0.001222882
-4.982909	Moulton	0.03436788
-4.506511	Mount-James	0.01928701
-3.822551	Mr	-0.1190546
-2.679175	Mr.	-0.7850519
-4.982909	Mrs	0.008645163
-3.560707	Mrs.	-0.2272374
-5.581732	Munich	0.01514136
-4.585619	Munro	0.02876794
-5.107487	Munsters	0.01966648
-4.740335	Murder	0.01949524
-5.581732	Murdered	-0.0004256952
-5.581732	Murillo	0.02172975
-4.982909	Murphy	0.02428181
-5.581732	Murray	0.02172975
-4.982909	Museum	0.01433333
-4.154529	Musgrave	-0.004938073
-5.282857	Musgraves	-0.001677867
-5.581732	Music	-0.002781138
-5.581732	Must	0.00661694
-5.107487	Mutiny	0.01618379
-3.198646	My	-0.4044431
-4.138741	Mycroft	-0.01134256
-5.282857	Myrtles	0.01983892
-4.886216	Mystery	0.01341984
-5.282857	N	0.01893631
-5.282857	N'T	-0.003744336
-5.581732	N.	-0.002837467
-5.581732	NEVILLE	0.01697215
-5.282857	NN	0.005170978
-5.581732	NOBLE	-0.002838593
-5.581732	NORTON	0.02172975
-5.107487	NOT	-0.008267962
-5.581732	NOVEMBER	0.02172975
-5.581732	NOVO	0.006171616
-5.581732	Name	0.01514136
-4.807179	Nancy	0.01850973
-5.581732	Naples	0.02172975
-4.409673	Napoleon	0.05084566
-5.282857	Napoleonic	-0.005634319
-5.282857	Napoleons	0.01417871
-5.581732	Narbonne	0.006171616
-4.807179	Naturally	0.0321278
-4.886216	Nature	0.01892038
-5.107487	Naval	-0.008405366
-5.282857	Nay	0.01893631
-4.807179	Near	0.002892705
-5.581732	Nearer	0.01514136
-4.886216	Nearly	-0.005319674
-5.282857	Ned	-8.445466e-05
-5.581732	Negro	0.01697215
-5.107487	Neill	0.001831624
-4.740335	Neither	0.02968025
-4.631329	Neligan	0.03855972
-5.581732	Nepaul	-0.00259182
-5.581732	Nervous	-0.002821696
-5.581732	Netherland-Sumatra	-0.002830708
-4.224137	Never	0.01745539
-4.33054	Neville	-0.04459491
-4.544266	New	-0.02974815
-5.107487	Newhaven	0.03712584
-5.282857	News	0.01893631
-5.581732	Newton	-0.001375058
-4.807179	Next	-0.01547544
-5.282857	Night	0.003673283
-5.581732	Nights	0.02172975
-5.581732	Nihilist	-0.002827328
-5.581732	Nihilists	0.02172975
-5.581732	Nimes	0.02172975
-3.116217	No	-0.4100611
-5.581732	Noble	-0.002838593
-5.581732	Nonconformist	-0.002828455
-4.33054	None	0.006464154
-4.682421	Nor	-0.009381758
-5.581732	Norah	-0.002838593
-4.886216	Norbury	0.03282945
-4.33054	Norfolk	0.01971989
-5.581732	Norman	-0.002838593
-4.585619	North	0.007331938
-5.581732	Northern	-0.002834087
-5.107487	Northumberland	-0.008024449
-4.807179	Norton	0.03521585
-5.107487	Norway	0.01259716
-5.282857	Norwegian	-0.005629812
-5.107487	Norwich	0.01775729
-4.307072	Norwood	0.0171278
-5.581732	Nos	0.01697215
-3.800653	Not	-0.07577223
-3.942502	Nothing	-0.01518582
-5.581732	Noticed	-0.002683108
-5.581732	Nous	-0.002838593
-5.581732	Nov	0.01697215
-5.581732	Nova	-0.002838593
-5.581732	November	0.01697215
-3.338056	Now	-0.2182042
-5.581732	Nursed	-0.001674485
-4.982909	O	0.03436788
-5.581732	OCTOBER	0.02172975
-4.18794	OF	-0.06537805
-5.581732	ONCE	0.02172975
-5.581732	OPUS	-0.001960161
-5.581732	ORANGE	-0.002838593
-5.581732	OVERTON	0.01697215
-5.581732	Oakington	6.167311e-05
-4.740335	Oakshott	0.007989468
-5.581732	Oberstein	0.02172975
-4.982909	Obviously	0.007497131
-5.581732	Occasionally	0.001440596
-5.581732	Occurrence	-0.0005310311
-5.581732	Ocean	-0.002759731
-5.107487	October	0.03709889
-5.581732	Odd	0.02172975
-5.581732	Odessa	0.002707514
-3.666923	Of	-0.156214
-5.581732	Off	0.00661694
-4.585619	Office	0.0246284
-5.581732	Officer	0.002707514
-5.581732	Often	0.001440596
-3.47543	Oh	-0.2376074
-4.409673	Old	-0.03730856
-4.170913	Oldacre	0.001775168
-3.439895	On	-0.2380695
-4.471776	Once	0.01382243
-3.626965	One	-0.1407149
-4.123506	Only	-0.03534812
-5.581732	Open	0.001440596
-5.282857	Opening	0.01678191
-4.381662	Openshaw	0.02226338
-5.581732	Opera	0.005861196
-5.581732	Oporto	0.01697215
-5.282857	Opposite	0.0007458893
-4.506511	Or	0.0037972
-5.581732	Orange	-0.002838593
-5.282857	Order	0.004156963
-5.581732	Ordering	-8.232798e-05
-5.581732	Oriental	-0.002805924
-5.581732	Orientals	-0.002008696
-5.581732	Origin	0.005861196
-5.282857	Ormstein	0.01893631
-5.581732	Oscar	-0.002838593
-5.581732	Oscillation	-0.001500503
-5.282857	Other	-0.005494602
-5.581732	Others	-0.001618005
-5.107487	Otherwise	0.01125594
-3.766444	Our	-0.1518463
-4.682421	Out	-0.01063702
-5.581732	Outrage	0.01697215
-4.886216	Outside	0.03544069
-4.982909	Over	0.01075398
-4.439616	Overton	0.02831863
-5.581732	Owe	-0.001803232
-5.581732	Owns	-0.002304303
-4.409673	Oxford	-0.02046568
-5.581732	Oxfordshire	0.02172975
-5.107487	P	0.02564718
-5.282857	P.	-0.005629812
-5.581732	P.C	0.01697215
-5.581732	PIPS	-0.002645919
-5.581732	PORTIERE	-0.0005310311
-5.581732	POST	0.00561302
-5.581732	Pa	-0.002567022
-5.282857	Pacific	-0.00565685
-4.585619	Paddington	0.03466101
-5.581732	Paisley	-0.002837467
-5.581732	Palace	0.02172975
-4.631329	Pall	-0.02468961
-5.581732	Palladio	0.01697215
-4.886216	Palmer	0.02171237
-5.581732	Palmer-tyred	0.02172975
-5.581732	Pals	0.005861196
-5.581732	Panama	-0.002772125
-5.581732	Pancras	-0.002828455
-5.581732	Paradol	-0.002838593
-5.282857	Paramore	0.03990142
-4.471776	Paris	0.01977303
-5.581732	Parisian	-0.002684235
-4.471776	Park	0.01643443
-4.982909	Parker	0.01460582
-5.282857	Parliament	0.01744078
-5.282857	Parr	0.01893631
-5.581732	Pass	0.02172975
-5.581732	Passing	-0.002168935
-5.581732	Patersons	0.002707514
-5.581732	Patience	-0.00280705
-5.282857	Patient	0.003614588
-4.740335	Patrick	0.00589665
-5.581732	Patterson	0.003039667
-5.581732	Pattins	0.01697215
-4.982909	Paul	-0.008715048
-5.581732	Paulo	0.02172975
-5.581732	Peace	-0.00281381
-5.581732	Peak	-0.002730436
-5.581732	Peculiar	-0.001960161
-5.581732	Peeping	-0.001997409
-5.282857	Peering	0.0001735012
-5.581732	Penang-lawyer	-0.00283634
-5.581732	Pencils	0.02172975
-5.581732	Pending	0.01514136
-5.581732	Pennsylvania	0.02172975
-5.581732	Pentonville	0.01697215
-5.581732	People	-0.002519676
-5.581732	Perceiving	0.005206592
-4.409673	Percy	-0.03377975
-5.581732	Perfectly	-0.001665449
-3.994878	Perhaps	0.00867147
-5.282857	Persia	0.03990142
-4.982909	Persian	-0.01116449
-5.581732	Personally	0.00661694
-4.054447	Peter	-0.006885156
-5.581732	Petersfield	0.01697215
-4.544266	Peterson	0.007712968
-5.581732	Petrarch	0.02172975
-5.581732	Petrified	-0.0001866138
-5.581732	Petty	-0.002838593
-5.581732	Ph.D.	0.02172975
-3.983885	Phelps	-0.02170247
-5.282857	Philadelphia	0.01416348
-5.581732	Philosophy	0.02172975
-5.581732	Pickwick	-0.001375058
-4.807179	Pietro	0.02347782
-5.282857	Pince-Nez	0.01417871
-5.581732	Pink	-0.002821696
-5.581732	Pinkerton	-0.002832961
-4.471776	Pinner	0.02815494
-5.581732	Pioneers	0.01697215
-5.581732	Pipes	-0.001781776
-5.581732	Pips	-0.00283634
-4.982909	Pitt	-0.01098079
-4.682421	Place	0.02769046
-5.581732	Plant	-0.0005955782
-5.581732	Plantagenet	-0.002781138
-5.581732	Plate	-0.00283634
-5.581732	Platz	0.02172975
-5.581732	Play	-0.002830708
-5.282857	Please	-0.003874437
-5.581732	Plumb	0.002707514
-5.581732	Plural	-0.001803232
-5.581732	Plymouth	-0.0005310311
-5.581732	Poe	-0.001375058
-5.107487	Police	0.01613372
-5.581732	Police-Constable	-0.002838593
-5.581732	Police-constable	-0.002838593
-5.581732	Pollock	-0.002816063
-4.682421	Pompey	0.009379538
-4.982909	Pondicherry	0.01924687
-5.282857	Pooh	0.02000501
-4.585619	Pool	0.02770759
-4.886216	Poor	-0.01335266
-4.886216	Pope	-0.01158826
-5.581732	Portsdown	-0.002831834
-5.581732	Portsmouth	-0.002750717
-5.581732	Portuguese	-0.002830708
-4.886216	Possibly	0.0576373
-5.107487	Post	0.02506632
-5.581732	Posted	-0.002804797
-5.581732	Potter	-0.001375058
-5.581732	Powdered	-0.002820569
-5.581732	Prague	-0.0005955782
-3.886997	Pray	-0.09283178
-4.381662	Precisely	0.003846377
-4.585619	Premier	0.003294045
-4.544266	Prendergast	0.03312293
-4.886216	Presently	-0.009030122
-5.581732	President	0.006171616
-4.982909	Press	0.01495386
-5.282857	Presuming	0.0002462282
-5.282857	Price	0.02146306
-5.581732	Prima	-0.002838593
-4.631329	Prime	-0.02468623
-5.282857	Prince	0.003683643
-5.581732	Princess	0.02172975
-5.581732	Principal	0.005861196
-5.581732	Pringle	0.02172975
-4.807179	Priory	-0.01330131
-5.581732	Pritchard	-0.001618005
-5.581732	Private	-0.002837467
-4.886216	Probably	0.01351524
-5.581732	Problem	-0.001528752
-5.581732	Problems	-0.002307687
-5.581732	Proceed	0.02172975
-3.830103	Professor	-0.07459751
-5.282857	Promise	0.003848268
-5.581732	Proosia	0.02172975
-5.581732	Prosper	0.01697215
-5.581732	Providence	-0.002754097
-5.282857	Pshaw	0.02000501
-5.581732	Public	-0.002827328
-5.581732	Pugilist	0.01697215
-5.107487	Pull	-0.007446749
-5.581732	Pullman	-0.002838593
-5.581732	Punjab	0.02172975
-5.581732	Purely	-0.002835214
-5.581732	Puritan	-0.001960161
-5.581732	Purple	-0.002821696
-4.982909	Put	0.008213977
-5.282857	Putting	-0.0008619595
-5.282857	Puzzle	-0.002068777
-4.224137	Pycroft	-0.001179788
-4.544266	Pyland	0.01614909
-5.581732	Queen	-0.002838593
-5.581732	Queer	-0.002653808
-4.740335	Quick	0.006301135
-5.581732	Quiet	0.02172975
-5.581732	Quincey	-0.001375058
-4.094552	Quite	-0.04895097
-5.581732	R	0.02172975
-5.282857	R.	0.003034964
-5.107487	RED-HEADED	-0.008405366
-4.439616	RETURN	-0.03779564
-5.107487	ROCK	0.01616233
-5.581732	RUCASTLE	0.01697215
-4.886216	Rachel	-0.01304913
-5.107487	Ragged	-0.00840424
-5.581732	Railway	0.02172975
-5.581732	Rain	0.0003032917
-4.807179	Ralph	0.007946819
-4.982909	Randall	0.02118874
-5.282857	Randalls	0.02146306
-5.282857	Ras	0.01893631
-5.581732	Rasper	0.01697215
-5.581732	Ratcliff	-0.002838593
-5.107487	Rather	-0.007956796
-5.282857	Read	-0.001352842
-4.439616	Reading	0.0358941
-4.886216	Really	0.0117309
-5.581732	Recently	0.001193793
-4.982909	Red	-0.01121864
-4.807179	Red-headed	-0.01663743
-5.581732	Regency	0.01697215
-4.982909	Regent	-0.009569638
-5.107487	Reginald	-0.008378329
-4.807179	Reichenbach	0.008175027
-5.282857	Reigate	-0.0001118393
-5.581732	Relations	-0.001618005
-5.581732	Relieved	0.02172975
-4.886216	Remember	0.03631591
-5.581732	Remo	0.01697215
-5.282857	Republican	-0.005466428
-5.282857	Resident	-0.005630906
-5.581732	Restaurant	0.02172975
-5.581732	Results	-0.002621124
-5.581732	Retired	-0.001320799
-5.581732	Return	-0.00283634
-5.581732	Returning	0.00561302
-4.807179	Reuben	-0.0166126
-5.581732	Reuter	-0.001375058
-5.581732	Rhodesia	0.01697215
-5.581732	Rhodesian	-0.00283634
-5.581732	Rhone	0.02172975
-5.581732	Rica	0.02172975
-5.581732	Richard	-0.00281381
-5.581732	Ricoletti	0.005861196
-5.581732	Riding	-0.002834087
-4.982909	Ridling	-0.01116107
-4.682421	Right	-0.01598445
-5.581732	Ripley	0.02172975
-4.471776	Ritual	0.02229029
-5.581732	River	0.002707514
-4.18794	Road	0.005648755
-5.581732	Roaring	-0.002819442
-5.107487	Robbery	0.01149167
-4.807179	Robert	0.007986164
-5.581732	Robinson	0.02172975
-5.581732	Rockies	0.02172975
-5.581732	Roman	-0.002837467
-4.682421	Ronald	0.002531292
-5.581732	Room	0.02172975
-5.581732	Rooms	6.167311e-05
-5.107487	Rosenlaui	0.03712584
-4.108788	Ross	-0.01430544
-5.581732	Rothiere	0.02172975
-5.581732	Rotterdam	0.01697215
-5.581732	Roughly	-0.002838593
-5.107487	Round	-0.001840632
-4.982909	Row	0.04107988
-4.982909	Royal	-0.01118927
-4.263628	Roylott	-0.006748028
-5.282857	Roylotts	0.003067757
-4.017735	Rucastle	-0.001756556
-4.982909	Rucastles	-0.00759057
-5.581732	Rue	-0.002838593
-5.581732	Rugby	-0.002832961
-5.581732	Rugger	-0.002832961
-5.581732	Run	-0.002168935
-5.581732	Running	-0.001957903
-5.581732	Rushing	-0.002254673
-5.282857	Russell	-0.004176348
-5.581732	Russia	0.02172975
-4.439616	Russian	0.01890522
-5.581732	Russo-German	-0.002838593
-5.282857	Ruston	0.03990142
-4.506511	Ryder	0.01481042
-5.107487	S	0.02379922
-5.107487	S.	-0.001213368
-5.581732	SAW	0.01514136
-5.581732	SCANDAL	-0.002837467
-4.740335	SEA	-0.01932915
-5.581732	SEBASTIAN	0.02172975
-5.581732	SEPTEMBER	0.02172975
-4.33054	SHERLOCK	-0.04802112
-5.581732	SIMON	0.01697215
-5.581732	SIR	-0.002823949
-5.581732	SL.NE	0.01697215
-5.581732	SLANE	0.01697215
-5.581732	SLANEY	0.01697215
-5.581732	SPECKLED	-0.002838593
-5.581732	ST	0.01697215
-5.581732	STANLEY	-0.002838593
-4.471776	STRAND	-0.03521589
-5.581732	Saddle	0.005206592
-5.581732	Saffron	-0.002831834
-4.585619	Saltire	0.02959465
-5.581732	Same	-0.002560258
-5.581732	Samuel	0.01697215
-4.982909	San	-0.0112186
-5.581732	Sand	0.01697215
-4.886216	Sandeford	0.03233916
-5.581732	Sarasate	-0.00283634
-4.439616	Saturday	0.0533981
-5.581732	Saturdays	0.01697215
-5.282857	Saunders	0.01417871
-4.886216	Savannah	0.05843278
-4.982909	Save	0.0216262
-5.581732	Saviour	-0.001375058
-4.807179	Saxe-Coburg	-0.01661035
-5.581732	Saxe-Meningen	0.02172975
-5.282857	Saxon	-0.005648964
-5.107487	Say	0.003404416
-5.581732	Scala	0.02172975
-5.581732	Scandal	0.002707514
-5.107487	Scandinavia	0.03712584
-4.807179	Scarlet	0.007938839
-5.581732	Scholarship	0.01697215
-4.982909	School	0.03436788
-5.581732	Scot	-0.001803232
-4.982909	Scotch	-0.01099211
-5.581732	Scotch-woman	0.01697215
-5.581732	Scotia	0.02172975
-4.067408	Scotland	-0.07883438
-4.886216	Scott	0.02060084
-4.807179	Scott_	0.04710685
-5.581732	Scoundrel	-0.001803232
-5.581732	Scylla	0.006171616
-5.581732	Sea	0.01697215
-5.581732	Seated	0.002707514
-5.282857	Sebastian	-0.005600489
-4.740335	Second	0.01105317
-4.585619	Secretary	0.01008338
-4.381662	See	-0.01433559
-5.107487	Seeing	0.01567382
-5.581732	Seems	0.00561302
-5.581732	Seen	0.01514136
-5.581732	Seizing	-8.232798e-05
-5.107487	Seldom	-0.005501527
-5.107487	Send	0.01135026
-5.581732	September	0.02172975
-4.982909	Sergeant	-0.0111172
-5.282857	Sergius	0.02146306
-4.807179	Serpentine	0.005634341
-5.282857	Serpentine-mews	0.01893631
-5.581732	Serve	-0.000778978
-5.282857	Served	-8.592429e-05
-5.581732	Set	0.01514136
-5.107487	Seven	-0.007214057
-4.682421	Several	0.007462883
-5.581732	Severn	0.02172975
-5.581732	Shaftesbury	-0.002832961
-4.740335	Shall	0.01202661
-5.581732	Sharp	-0.0005310311
-4.982909	Shaw	0.03436788
-3.169396	She	-0.3679866
-5.581732	Sheeny	-0.002304303
-5.581732	Sheep-marks	-0.00174451
-3.270062	Sherlock	-0.3160498
-5.581732	Sherpur	0.02172975
-5.581732	Shetland	-0.002828455
-5.581732	Shillings	6.167311e-05
-5.282857	Shipping	-0.005650091
-5.581732	Sholto	-0.002784518
-5.581732	Sholtos	0.01697215
-4.982909	Shortly	-0.01085004
-5.581732	Shot	-0.002555749
-4.740335	Should	-0.0002954435
-5.581732	Show	-0.002270465
-5.581732	Showing	0.003039667
-5.107487	Siberia	0.04761309
-5.581732	Sidelights	-0.001551349
-5.581732	Sierra	-0.002838593
-5.581732	Sigerson	0.02172975
-5.581732	Sigismond	-0.00283634
-5.107487	Sign	0.0002921699
-5.581732	Sikhs	0.02172975
-4.807179	Silas	-0.01662049
-4.471776	Silver	-0.03521589
-3.994878	Simon	-0.005799472
-5.581732	Simply	-0.001732087
-4.35535	Simpson	0.0393117
-4.682421	Since	-0.01252042
-5.581732	Singleford	-0.001375058
-5.581732	Singularity	0.0005132586
-4.094552	Sir	-0.05521281
-4.886216	Sit	-0.01323648
-4.886216	Six	-0.01294521
-4.631329	Slaney	0.0266227
-5.581732	Slater	0.02172975
-5.581732	Sleepy	-0.002838593
-5.581732	Slipping	-0.002555749
-5.107487	Slowly	0.02184977
-5.581732	Smack	-0.001803232
-5.581732	Small	0.02172975
-5.581732	Smart	-0.002666204
-4.154529	Smith	0.007570311
-5.581732	Smith-Mortimer	-0.002829581
-5.581732	Snake-catcher	0.0005132586
-5.581732	Snapping	-0.002542222
-3.529111	So	-0.1583676
-4.108788	Soames	-0.01425283
-5.581732	Society	0.02172975
-5.581732	Sold	-0.001855171
-5.282857	Solitary	-0.005630906
-4.094552	Some	-0.04268064
-5.581732	Somebody	-0.00280029
-4.740335	Someone	-0.009035388
-4.740335	Something	0.001636302
-4.631329	Sometimes	0.01383936
-5.581732	Somomy	-0.002828455
-5.581732	Son	0.005861196
-5.581732	Sooner	-0.002236624
-4.982909	Sophy	0.009650218
-5.107487	Sorry	4.399382e-05
-5.581732	Sound	-0.0005650043
-4.33054	South	0.007074062
-4.982909	Southampton	0.02743509
-5.107487	Southern	-0.008427931
-5.581732	Southerton	-0.001375058
-5.581732	Southsea	0.01697215
-5.581732	Sovereign	-0.001952259
-5.581732	Spare	-0.000778978
-4.682421	Spaulding	0.02984566
-5.581732	Speak	-0.001855171
-5.282857	Speaking	-0.005652343
-5.282857	Speckled	-0.005630906
-5.282857	Spence	-0.005621893
-5.581732	Spies	0.006171616
-5.581732	Splendid	-0.001803232
-4.33054	Square	0.001902442
-5.581732	Squatted	-0.001551349
-5.282857	St	0.01417871
-3.651505	St.	-0.1919449
-4.982909	Stain	0.04238961
-5.581732	Stamford	0.02172975
-5.107487	Stand	-0.006595645
-5.282857	Standard	0.03990142
-5.282857	Standing	0.001190837
-4.154529	Stanley	-0.07011192
-4.740335	Star	0.03562217
-4.631329	Stark	0.00947706
-5.581732	Stars	0.006171616
-5.581732	Starving	0.01697215
-5.107487	State	-0.006102092
-5.107487	States	0.01866646
-4.35535	Station	0.02122992
-4.094552	Staunton	0.01515132
-5.581732	Stay	-0.002497129
-5.107487	Steiler	0.01498998
-5.282857	Step	-0.003284712
-4.982909	Stepney	0.03436788
-5.581732	Stepping	-0.001855171
-5.581732	Stevens	0.02172975
-5.282857	Stevenson	0.02245705
-5.107487	Stewart	0.01616072
-5.581732	Stick	-0.0005310311
-4.284807	Still	-0.01159485
-5.282857	Stock	-0.005630906
-5.581732	Stock-Broker	-0.001375058
-4.544266	Stoke	-0.02996439
-5.282857	Stolen	0.03990142
-4.307072	Stoner	0.02277807
-4.886216	Stop	0.01933134
-4.807179	Stoper	0.03566425
-4.006156	Straker	-0.01885378
-4.886216	Strand	0.006051057
-5.581732	Strange	0.02172975
-5.581732	Stranger	-0.001375058
-5.282857	Strasburg	0.01415169
-4.982909	Streatham	0.02317186
-3.368543	Street	-0.1548812
-5.581732	Striding	-0.002555749
-5.581732	Stripes	0.01697215
-5.282857	Strong	-0.003358443
-5.581732	Stroud	-0.002831834
-5.581732	Stuarts	0.01697215
-5.282857	Students	0.01417871
-4.807179	Study	-0.01108339
-5.581732	Subtle	-0.002645919
-5.282857	Suburban	-0.0056264
-4.381662	Such	-0.02361284
-4.205661	Suddenly	-0.006761886
-5.581732	Suez	-0.002838593
-5.581732	Summer	-0.002838593
-5.581732	Sunday	0.00661694
-5.282857	Sunday-school	-0.005370622
-4.982909	Suppose	0.01258412
-5.581732	Supposing	0.003039667
-5.581732	Sure	-0.002645919
-4.123506	Surely	0.04475402
-5.581732	Surprise	0.002388159
-4.544266	Surrey	0.01846026
-4.682421	Susan	0.03337763
-5.282857	Suspicion	0.00311657
-4.740335	Sussex	0.02908068
-4.544266	Sutherland	0.03026192
-5.282857	Sutton	0.03990142
-5.282857	Swain	0.01894507
-5.282857	Swan	-0.002297024
-4.682421	Swandam	-0.02200752
-5.581732	Sweet	-0.002732689
-5.282857	Swiftly	0.01300713
-5.581732	Swindon	0.02172975
-4.886216	Swiss	-0.01080329
-5.282857	Switzerland	0.02317755
-4.807179	Sydenham	0.03801028
-5.581732	Sydney	0.02172975
-5.282857	Syndicate	0.01417871
-5.581732	Syria	0.006171616
-4.982909	T	0.02289044
-5.581732	T.	0.02172975
-5.282857	TELEGRAPH	0.01893631
-5.282857	THAT	-0.003103444
-3.895769	THE	-0.1201485
-5.581732	THIS	-0.002721421
-5.581732	THUMB	-0.00274621
-5.581732	THY	-0.002838593
-5.282857	TIMES	0.01891407
-4.982909	TO	-0.01119272
-5.581732	TOWERS	0.02172975
-5.581732	TRUE	-0.00273945
-5.581732	TWISTED	-0.002838593
-5.581732	TWO	-0.002834087
-5.581732	Taciturn	0.02172975
-5.581732	Tadpole	0.004401747
-4.439616	Take	-0.01213372
-5.581732	Taking	0.01514136
-5.581732	Tall	-0.0004256952
-4.982909	Tangey	0.02042347
-5.282857	Tankerville	0.01891646
-5.581732	Tarleton	-0.002834087
-5.282857	Tarlton	0.03990142
-4.682421	Tavistock	0.02964944
-5.581732	Technically	0.02172975
-4.982909	Teddy	0.01944428
-5.282857	Telegraph	0.02844975
-4.471776	Tell	-0.03086868
-4.982909	Temple	0.04373759
-4.982909	Ten	-0.01013693
-5.581732	Tennessee	0.02172975
-5.581732	Terai	-0.002821696
-4.807179	Terrace	0.03962456
-5.282857	Terrible	-0.004602283
-5.581732	Terror	-0.001960161
-5.581732	Terse	0.006171616
-5.282857	Testament	0.01893631
-5.581732	Teutonic	-0.002539968
-5.581732	Texas	0.02172975
-5.107487	Thames	0.02081146
-3.904722	Thank	-0.1138311
-5.581732	Thanks	0.00561302
-3.189837	That	-0.2958207
-2.511599	The	-0.9120747
-5.581732	Theatre	0.01697215
-4.544266	Their	-0.02949212
-3.072823	Then	-0.3443407
-5.581732	Thence	0.001193793
-5.581732	Theological	-0.002834087
-5.581732	Theorem	0.02172975
-5.581732	Theories	-0.001781776
-2.918591	There	-0.4996619
-4.409673	Therefore	0.03312495
-5.581732	Therein	-0.002804797
-4.506511	Theresa	0.0197002
-3.932745	These	-0.07604229
-3.392901	They	-0.2823954
-5.581732	Thick	-0.002831834
-5.282857	Things	-0.001287743
-4.807179	Think	-0.007561812
-5.282857	Third	0.01914898
-5.581732	Thirty	-0.002728182
-3.184636	This	-0.3379016
-5.581732	Thoreau	-0.001375058
-5.282857	Thorneycroft	-0.005611754
-4.886216	Thorpe	-0.01168226
-4.439616	Those	-0.007875282
-5.107487	Though	0.001496077
-5.282857	Threadneedle	-0.005447247
-5.581732	Threatens	0.00561302
-4.33054	Three	-0.03819431
-5.282857	Three-Quarter	0.01417871
-5.581732	Three-forty	0.0005132586
-4.740335	Through	0.00700561
-5.581732	Throw	0.01514136
-5.282857	Thrust	-0.001080594
-5.581732	Thucydides	0.01697215
-5.581732	Thumb	-0.002835214
-4.807179	Thursday	-0.006910739
-5.282857	Thurston	0.01744078
-5.282857	Thus	-0.003356064
-5.581732	Tibet	0.02172975
-5.581732	Time	0.002388159
-5.282857	Times	0.003586969
-5.581732	Tingling	-0.0001866138
-5.581732	Tiptoes	-0.001803232
-5.581732	Tired	-0.002820569
-5.581732	Tired-looking	-0.002236624
-5.581732	Title	0.006171616
-3.722671	To	-0.1123407
-4.807179	To-day	0.04175639
-4.740335	To-morrow	-0.003384052
-5.581732	To-night	0.00661694
-5.282857	Tobacco	0.003378177
-5.581732	Tobin	0.02172975
-4.982909	Together	-0.009095675
-4.409673	Toller	0.01471563
-5.581732	Tollers	-0.002703392
-4.740335	Too	-0.018559
-5.581732	Torrington	-0.002825075
-5.581732	Tosca	-0.001960161
-4.982909	Tottenham	-0.01115657
-5.581732	Tottering	0.006171616
-5.581732	Tower	0.005861196
-5.282857	Towers	0.02358705
-5.581732	Trafalgar	-0.002819442
-5.581732	Tragic	0.02172975
-5.581732	Treasury	-0.00269325
-5.107487	Treaty	0.02521359
-5.581732	Tree	-0.002838593
-5.581732	Tregellis	0.02172975
-4.740335	Trelawney	-0.01932464
-5.581732	Trepoff	-0.002784518
-4.381662	Trevelyan	0.03559539
-4.224137	Trevor	0.01299895
-5.581732	Trincomalee	0.02172975
-5.282857	Trinity	-0.005627526
-5.581732	Triple	-0.002838593
-5.282857	Trumpington	0.02300183
-5.581732	Trust	-0.000778978
-5.107487	Try	0.009545314
-5.282857	Tudor	-0.004368465
-4.33054	Tuesday	0.0085801
-5.581732	Tunbridge	-0.002838593
-5.581732	Turkish	-0.002831834
-5.581732	Turn	-0.002254673
-4.243433	Turner	3.730133e-05
-5.107487	Turning	-0.003513094
-5.282857	Tuson	0.03990142
-4.886216	Tut	0.0117309
-5.581732	Tut-tut	-0.001803232
-5.581732	Twelve	-0.002754097
-5.581732	Twenty	-0.002236624
-5.581732	Twenty-four	-0.002820569
-5.581732	Twenty-nine	0.02172975
-5.581732	Twenty-six	-0.002837467
-5.581732	Twenty-two	-0.002834087
-4.740335	Twice	-0.01109077
-5.581732	Twisted	-0.002838593
-4.154529	Two	-0.05764598
-5.581732	U.	-0.00283634
-5.581732	U.S.A.	-0.001575075
-5.581732	UNCLE	-0.002696631
-4.740335	UNICORN	0.03233456
-5.581732	Uffa	0.02172975
-5.581732	Uncle	-0.002832961
-4.982909	Under	0.00861716
-5.581732	Under-Secretary	-0.0005955782
-5.282857	Underground	0.005672515
-5.282857	Underneath	0.01581502
-4.631329	Undoubtedly	0.0007082913
-5.581732	Unemployed	0.01697215
-5.581732	Unfolding	0.001440596
-5.107487	Unfortunately	0.01850764
-5.282857	Union	0.01417174
-5.581732	United	-0.00283634
-5.581732	Universities	-0.0004483501
-4.585619	University	0.02239481
-4.807179	Unless	0.009473532
-4.886216	Until	-0.007451981
-4.807179	Up	-0.008131419
-4.740335	Upon	0.002266442
-5.107487	Upper	-0.008399733
-5.581732	Uppingham	-0.002236624
-5.581732	Uriah	0.006171616
-5.581732	V	0.02172975
-4.886216	V.	-0.01171261
-5.581732	VALLEY	-0.002838593
-5.581732	VERY	-0.002783391
-5.107487	VI	0.01140312
-5.581732	VI.	-0.001960161
-5.107487	VII	0.01140312
-5.581732	VII.	-0.001960161
-5.107487	VIII	0.01140312
-5.581732	VIII.	-0.001960161
-5.581732	VIOLET	-0.00283634
-5.581732	Vale	0.02172975
-4.740335	Valley	0.03960755
-5.581732	Vamberry	0.02172975
-5.581732	Vast	-0.002837467
-5.581732	Vegetarian	-0.002838593
-5.581732	Venezuelan	-0.002838593
-5.581732	Venner	-0.002826201
-5.282857	Venucci	0.01893631
-5.581732	Verdes	-0.001618005
-5.282857	Vere	-0.005378512
-5.282857	Verner	0.02444222
-5.581732	Vernet	0.02172975
-3.830103	Very	-0.0892101
-4.807179	Victor	0.02889885
-4.544266	Victoria	0.0230286
-5.581732	Villa	0.004401747
-5.581732	Villain	-0.001803232
-4.807179	Vincent	-0.01664869
-5.282857	Violence	0.003153355
-4.807179	Violet	0.007945627
-5.581732	Visited	-0.002837467
-5.282857	Vitus	-0.004168496
-5.581732	Voil	-0.00283634
-4.471776	Vol	-0.01541867
-5.581732	Volume	0.005602682
-4.982909	Von	-0.0111904
-5.581732	Vox	-0.002838593
-5.581732	W.	-0.002837467
-5.282857	WAS	0.02070948
-5.107487	WE	-0.003789882
-5.581732	WERE	-0.002784518
-5.581732	WESTMINSTER	0.01697215
-5.581732	WHEN	0.00661694
-5.581732	WILSON	0.004401747
-5.581732	WITH	-0.002784518
-4.740335	Wait	-0.005304661
-5.581732	Waldbaum	0.02172975
-5.107487	Wales	0.03712584
-5.581732	Walk	-0.002758604
-5.581732	Wallenstein	0.02172975
-5.581732	Walsall	0.02172975
-5.282857	Walsham	0.0189713
-5.581732	Walsingham	-0.002830708
-5.581732	Want	-0.001803232
-5.581732	Wanted	0.02172975
-4.886216	War	0.03300388
-5.581732	Warburton	-0.001375058
-5.581732	Ward	-0.002835214
-5.581732	Wardlaw	-0.001375058
-5.581732	Warm	-0.001803232
-5.282857	Warsaw	0.01983892
-3.973164	Was	-0.06068932
-5.581732	Water	0.02172975
-5.581732	Waterbeach	0.02172975
-4.409673	Waterloo	0.009395905
-2.969043	Watson	-0.4694299
-5.282857	Watt	-0.005447247
-2.98616	We	-0.5315605
-5.581732	Wedding	-0.001575075
-5.581732	Wedlock	-0.002834087
-4.682421	Wednesday	0.02892755
-5.581732	Weiss	-0.002826201
-5.581732	Welbeck	-0.002653808
-3.063596	Well	-0.4500966
-5.581732	Well-known	-0.00283634
-5.581732	Wellington	-0.002653808
-5.581732	Wells	0.02172975
-5.282857	Welsh	-0.005599394
-4.544266	Were	0.002553316
-4.886216	Wessex	-0.0139287
-5.107487	West	-0.008405366
-5.581732	West-End	-0.002793531
-5.581732	West-country	-0.00283634
-5.581732	West-end	0.01697215
-5.282857	Westaway	0.001048953
-5.581732	Westbury	-0.002822822
-5.581732	Western	-0.002838593
-5.282857	Westhouse	-0.00561964
-4.807179	Westminster	0.02944224
-5.581732	Westphail	0.02172975
-5.581732	Wharf	0.02172975
-3.050747	What	-0.3685552
-4.807179	Whatever	0.01179289
-3.3505	When	-0.2049052
-3.845612	Where	-0.06654928
-4.982909	Whether	0.002904065
-4.506511	Which	-0.01002608
-4.886216	While	-0.003708933
-5.581732	Whip	-0.001677873
-4.740335	Whitehall	0.02640647
-4.682421	Whitney	0.03091048
-5.581732	Whittington	0.01697215
-3.861696	Who	-0.1023944
-5.581732	Whoa	0.02172975
-5.107487	Whoever	-0.004109737
-5.581732	Whole	-0.002793531
-4.982909	Whom	-0.002148503
-5.107487	Whose	0.02204913
-3.564823	Why	-0.1691213
-5.581732	Wight	0.01697215
-5.581732	Wigmore	-0.002653808
-4.33054	Wilder	0.02465316
-5.581732	Wilful	-0.002831834
-5.581732	Wilhelm	-0.002838593
-4.544266	Will	-0.02159676
-4.18794	William	-0.01677197
-5.107487	Williams	0.01768259
-4.544266	Williamson	0.03812374
-4.631329	Willoughby	-0.02466934
-5.581732	Willows	-0.002801417
-4.154529	Wilson	-0.008723181
-5.581732	Wilton	-0.002802544
-5.581732	Wimpole	-0.002653808
-4.544266	Winchester	0.02925978
-4.284807	Windibank	-0.004269689
-5.107487	Windigate	0.02651443
-5.581732	Wire	-0.002127188
-3.740894	With	-0.1116852
-4.740335	Within	0.01603047
-4.740335	Without	0.0184049
-4.631329	Witness	-0.02457247
-5.282857	Wo	-0.00523645
-4.439616	Woking	0.01494007
-5.581732	Women	-0.001781776
-4.740335	Wonderful	-0.01830054
-4.740335	Wood	0.03451239
-5.581732	Wooden-leg	0.0003032917
-5.282857	Woodhouse	-0.004168496
-4.170913	Woodley	0.006871313
-4.982909	Woodman	-0.009702042
-5.581732	Work	0.0005132586
-5.581732	Working	-0.0001866138
-5.581732	Worship	0.02172975
-5.282857	Worthingdon	-0.005616261
-4.439616	Would	0.01215589
-5.107487	Wright	0.02036413
-5.581732	Written	0.002707514
-4.982909	X	0.008618143
-5.581732	X.	-0.001960161
-5.107487	XI	0.01140312
-5.581732	XI.	-0.001960161
-5.282857	XII	0.01417871
-5.581732	XII.	-0.001960161
-5.581732	XIII.	-0.001960161
-5.107487	XXX	0.0115307
-4.886216	YOU	0.01183636
-4.094552	Yard	0.002799653
-5.107487	Yellow	0.000565744
-3.162791	Yes	-0.3858703
-4.886216	Yesterday	0.04263279
-4.123506	Yet	0.01348419
-5.282857	York	-0.004126609
-2.712146	You	-0.7075185
-4.886216	Young	-0.01377442
-3.693903	Your	-0.1738686
-4.740335	Yours	-0.01829938
-4.740335	Yoxley	-0.01897416
-5.107487	Zealand	0.01135969
-5.581732	Zoo	0.006171616
-5.107487	[	-0.003894887
-4.982909	]	0.03816988
-4.807179	_Gloria	-0.01662387
-5.282857	_Hotspur_	0.01891407
-1.715532	``	-1.510895
-1.736204	a	-1.670015
-5.581732	a-lying	0.002707514
-5.581732	a-stampin	-0.001575075
-5.581732	a-walkin	-0.001575075
-5.581732	a.m.	0.005602682
-4.982909	aback	0.0146393
-4.886216	abandon	0.01304023
-4.982909	abandoned	-0.002855994
-5.581732	abandoning	-0.00209108
-5.581732	abandons	-0.002596328
-4.982909	abduction	0.03342535
-5.581732	abductor	0.002388159
-5.581732	aberration	-0.002084309
-5.581732	abetted	-0.001732087
-5.107487	abhorrent	0.02508235
-5.581732	abhors	-0.0005650043
-5.581732	abide	-0.002838593
-5.282857	abilities	0.02358705
-4.682421	ability	0.03722221
-5.581732	abjure	0.0009664509
-3.636615	able	-0.1312924
-5.581732	able-bodied	-0.002700011
-5.282857	abnormal	0.02478041
-5.282857	abnormally	-0.005638825
-5.107487	aboard	0.03808964
-5.282857	abode	0.003067757
-5.107487	abominable	-0.008147355
-5.581732	abomination	0.01697215
-5.581732	abortive	0.01697215
-5.581732	abound	0.002707514
-2.909351	about	-0.4295542
-3.773073	above	-0.04602284
-5.581732	abrasion	0.02172975
-5.581732	abreast	0.005861196
-4.886216	abroad	0.03525222
-4.807179	abrupt	0.009261774
-4.982909	abruptly	0.03598869
-5.581732	abruptness	0.005861196
-5.581732	absconding	-0.002821696
-4.381662	absence	0.03603157
-4.544266	absent	0.03207893
-5.581732	absentees	0.01697215
-4.029631	absolute	-0.08262731
-3.822551	absolutely	-0.1311903
-5.282857	absolved	-0.004114238
-5.581732	absorb	-0.001725311
-4.631329	absorbed	0.01049428
-5.581732	absorbing	0.01697215
-5.581732	abstract	-0.002834087
-4.740335	abstracted	0.01180516
-5.107487	abstruse	0.0006025899
-4.205661	absurd	0.01758838
-4.886216	absurdly	-0.01388818
-5.282857	abundant	-0.005636572
-5.282857	abuse	-0.003388905
-5.581732	abusive	-0.002838593
-5.282857	abutted	-0.004344788
-4.886216	abyss	0.034281
-5.581732	academic	-0.002838593
-5.581732	acceding	0.00561302
-4.886216	accent	0.005904607
-5.581732	accentuated	-0.002173448
-4.682421	accept	0.0191326
-5.581732	acceptable	-0.002814936
-5.282857	acceptance	0.003067757
-4.886216	accepted	0.01662112
-5.581732	accepting	0.02172975
-5.282857	access	0.002819581
-5.581732	accessories	0.02172975
-5.282857	accessory	0.02785794
-4.307072	accident	0.01873995
-5.107487	accidental	0.011382
-5.282857	accidentally	-0.005431489
-5.282857	accidents	0.01927065
-5.282857	accommodate	-0.001400381
-5.581732	accommodating	-0.002828455
-4.886216	accompanied	-0.008915884
-5.581732	accompaniments	0.002707514
-4.886216	accompany	-0.007512585
-5.107487	accompanying	-0.006217606
-5.581732	accompli	-0.0004256952
-4.740335	accomplice	0.01632296
-5.282857	accomplish	0.01703703
-5.107487	accomplished	-0.006621665
-5.581732	accomplishment	0.01697215
-5.282857	accomplishments	0.02146306
-5.581732	accord	0.02172975
-5.581732	accordance	-0.0001866138
-4.807179	according	-0.00817789
-5.282857	accordingly	0.01425428
-3.636615	account	-0.1184497
-5.282857	accountant	0.0189403
-5.282857	accounted	-0.003389017
-4.631329	accounts	0.01288254
-5.107487	accumulated	0.03516648
-5.581732	accumulating	0.02172975
-5.581732	accumulation	0.005861196
-5.107487	accuracy	0.002265566
-5.107487	accurate	0.01853818
-5.282857	accurately	0.01237374
-5.107487	accursed	-0.008134955
-5.581732	accusation	-0.0004256952
-5.107487	accuse	-0.002000735
-4.740335	accused	0.02259164
-5.581732	accuser	0.01697215
-4.409673	accustomed	0.02301981
-5.581732	acetones	0.02172975
-5.581732	achieved	-0.002507275
-5.581732	achievements	-0.00174451
-5.282857	acid	0.02032541
-5.581732	acid-faced	-0.002822822
-5.581732	acid-stained	0.02172975
-4.682421	acknowledge	0.006052164
-5.581732	acknowledged	0.003039667
-5.282857	acknowledges	0.002306928
-4.263628	acquaintance	0.01939366
-5.581732	acquaintances	-0.002734943
-5.107487	acquainted	-0.00575564
-5.581732	acquiesce	0.002707514
-5.581732	acquiesced	0.01697215
-5.282857	acquiescence	0.03990142
-5.581732	acquire	-0.001665449
-5.107487	acquired	-0.002006833
-5.581732	acquirement	0.005861196
-5.282857	acquiring	0.004176551
-5.282857	acquitted	0.02135156
-5.107487	acres	0.02048624
-5.581732	acrobat	-0.002236624
-3.503232	across	-0.127776
-4.243433	act	0.0191224
-4.224137	acted	-0.02281311
-4.585619	acting	0.008099124
-3.973164	action	0.01701904
-5.282857	actionable	0.02051561
-4.631329	actions	0.04399939
-4.409673	active	-0.006140891
-5.282857	activity	0.02343887
-5.282857	actor	0.02892158
-5.107487	actors	4.910771e-05
-5.581732	actress	-0.002603091
-5.282857	acts	0.005360432
-4.807179	actual	-0.0165181
-4.381662	actually	-0.0344594
-5.581732	acumen	0.00661694
-4.982909	acute	0.003795029
-5.581732	acutely	-0.002830708
-5.581732	adapt	-0.002596328
-5.581732	adaptable	-0.002831834
-4.982909	adapted	-0.0004496658
-4.409673	add	0.02358326
-4.471776	added	0.04060914
-5.581732	adder	-0.001803232
-5.581732	addicted	0.00561302
-5.107487	adding	0.007315358
-4.740335	addition	0.03493848
-5.581732	additional	-0.00281381
-3.983885	address	0.01481788
-4.471776	addressed	0.03158893
-5.581732	addresses	0.01697215
-4.982909	addressing	0.01267969
-5.581732	adds	0.003039667
-5.282857	adequate	0.01426372
-5.581732	adhere	0.00561302
-5.581732	adhesive	0.02172975
-5.581732	adjective	-0.0004483501
-5.581732	adjectives	-0.001618005
-5.581732	adjoining	-0.002769871
-5.107487	adjusted	0.01750607
-5.581732	administered	-0.00281043
-5.107487	administration	0.02477071
-4.409673	admirable	-0.009825701
-4.740335	admirably	0.000655612
-4.544266	admiration	0.02388141
-5.107487	admire	0.01351194
-5.581732	admired	-8.232798e-05
-5.282857	admirer	0.02326183
-5.282857	admirers	-0.00241167
-5.107487	admiring	0.01075517
-4.263628	admit	0.001348026
-5.282857	admits	-0.001374213
-5.581732	admittance	0.01697215
-4.740335	admitted	-0.000638999
-5.581732	admitting	0.005206592
-5.581732	ado	0.00561302
-5.581732	adopt	-0.001665449
-5.282857	adopted	0.003572012
-5.581732	adorn	0.01514136
-5.282857	adorned	0.01546718
-5.581732	adrift	0.02172975
-4.506511	advance	0.04814764
-4.439616	advanced	0.03647344
-5.581732	advances	0.00561302
-5.282857	advancing	-0.004214778
-4.33054	advantage	0.02825147
-4.807179	advantages	0.03560554
-5.581732	advent	0.002388159
-4.224137	adventure	0.02018693
-4.506511	adventures	0.03476465
-5.581732	adventuress	0.02172975
-5.581732	adventurous	-0.00266057
-5.282857	advertise	0.01667754
-5.107487	advertised	0.01850581
-4.080768	advertisement	-0.0008552298
-4.982909	advertisements	0.02076531
-5.282857	advertising	-0.002898295
-3.932745	advice	-0.01084115
-4.506511	advise	-0.005267587
-4.982909	advised	0.03086961
-5.282857	adviser	0.02844975
-5.581732	advises	0.01697215
-5.581732	advocate	-0.002461051
-5.581732	affably	0.01697215
-3.80783	affair	-0.04762307
-5.581732	affaire	-0.002830708
-4.263628	affairs	0.02576583
-5.107487	affect	0.01231228
-5.581732	affectation	0.02172975
-4.807179	affected	0.0160782
-5.581732	affecting	0.00561302
-4.886216	affection	0.02365275
-4.886216	affectionate	0.0417481
-5.581732	affectionately	0.006171616
-5.581732	affections	-0.001320799
-5.282857	affliction	0.00320509
-5.581732	affluent	-0.002802544
-4.544266	afford	0.01892642
-5.107487	afforded	0.002814387
-5.282857	afoot	0.01667754
-3.904722	afraid	-0.02197874
-5.581732	afresh	0.01697215
-5.581732	aft	-0.002605345
-3.137332	after	-0.3030925
-5.581732	after-hold	0.01697215
-5.581732	after-taste	0.005861196
-4.067408	afternoon	0.02660345
-3.845612	afterwards	0.01001984
-3.211287	again	-0.1989541
-3.381907	against	-0.2235162
-4.041862	age	-0.0149455
-4.982909	aged	-0.01111498
-5.581732	agencies	0.01697215
-4.886216	agency	0.02257547
-4.381662	agent	0.04274991
-4.439616	agents	0.04592914
-5.581732	aggregate	0.00561302
-5.282857	aggressive	-0.005628686
-5.581732	aggressively	-0.002767618
-5.581732	agile	0.02172975
-4.585619	agitated	0.02044031
-4.381662	agitation	0.01623803
-3.699507	ago	-0.03359096
-5.581732	agonies	0.00661694
-4.631329	agony	0.050916
-4.544266	agree	-0.02602472
-5.581732	agreeable	0.01697215
-4.544266	agreed	0.02756325
-5.107487	agreement	-0.00448756
-5.581732	agrees	-0.0001866138
-5.282857	agricultural	0.01891169
-5.581732	ah	0.02172975
-4.886216	ahead	0.02108797
-4.224137	aid	0.003339373
-4.886216	aided	0.01660057
-5.581732	ails	0.001182423
-5.282857	aim	-0.005572353
-5.107487	aimed	-0.006100057
-5.282857	aimless	-0.005655723
-5.581732	aims	-0.002773251
-3.766444	air	-0.05868009
-4.982909	air-gun	0.01960027
-5.282857	air-guns	0.01667754
-5.581732	airs	0.01697215
-5.581732	airy	-0.002482473
-5.581732	aisle	-0.002536586
-5.107487	ajar	0.01152823
-5.282857	akimbo	0.01893631
-4.982909	akin	-0.002713964
-4.054447	alarm	-0.01024585
-4.982909	alarmed	0.03856892
-5.282857	alas	0.02000501
-4.33054	alert	-0.01102119
-5.581732	alertness	0.005861196
-5.581732	alias	0.01697215
-5.581732	alight	0.001193793
-4.807179	alighted	0.03285198
-5.581732	alighting	-0.00174451
-5.107487	alike	0.03977951
-4.18794	alive	0.001207441
-2.591292	all	-0.6010087
-5.581732	all-comprehensive	-0.002832961
-5.107487	all-important	0.02204792
-5.107487	all-night	-0.008374982
-5.581732	alleging	0.003039667
-5.282857	alley	0.01891527
-5.581732	alleys	0.002707514
-5.581732	alliance	-0.0004483501
-5.581732	allied	0.01697215
-5.581732	allotment	-0.0005650043
-4.284807	allow	0.0171865
-4.807179	allowance	0.03508764
-4.263628	allowed	0.01887123
-5.282857	allowing	0.01391594
-5.282857	allows	0.002681128
-4.982909	allude	-0.002713964
-4.807179	alluded	0.03944633
-4.631329	allusion	-0.01624701
-5.107487	allusions	4.399382e-05
-5.282857	ally	0.01893631
-3.932745	almost	-0.09006754
-3.815128	alone	-0.04830946
-3.740894	along	-0.04584172
-4.585619	aloud	0.007305358
-5.282857	alphabet	0.02000501
-3.485649	already	-0.1641919
-3.427661	also	-0.08327745
-4.807179	altar	0.03178078
-5.581732	alter	0.01514136
-5.581732	alteration	0.002707514
-5.282857	alterations	0.02478041
-5.282857	altercation	0.01434274
-5.107487	altered	0.01507679
-5.282857	alternate	-0.005510353
-5.282857	alternately	-0.005456285
-5.581732	alternating	-0.001320799
-5.581732	alternation	-0.002656062
-4.409673	alternative	0.03528905
-5.581732	alternatives	-0.0004256952
-4.154529	although	0.01438358
-4.585619	altogether	0.02568937
-5.581732	aluminium	-0.002838593
-5.581732	aluminum	-0.002838593
-3.443008	always	-0.1097275
-2.881037	am	-0.465622
-5.581732	amalgam	-0.0004483501
-5.581732	amassed	-0.002784518
-5.581732	amassing	-0.00273945
-4.982909	amateur	0.0147235
-5.282857	amaze	-0.002832536
-4.982909	amazed	0.00490201
-4.154529	amazement	-0.003496088
-4.740335	amazing	-0.01918731
-5.581732	ambassador	0.02172975
-4.886216	amber	0.01496073
-5.581732	ambiguous	0.02172975
-5.282857	ambition	0.02844975
-5.581732	ambitions	-0.001618005
-5.581732	ambitious	0.02172975
-5.581732	ambuscade	0.01697215
-5.282857	amends	-0.001130683
-5.581732	amethyst	0.002707514
-5.581732	amiability	0.01697215
-4.740335	amiable	0.0124558
-4.33054	amid	-0.01637617
-5.581732	amidst	0.01514136
-4.807179	amiss	0.009172283
-5.581732	ammonia	0.006171616
-5.581732	ammunition	-0.002809303
-5.581732	amnesty	0.002707514
-3.617524	among	-0.1660124
-5.581732	amongst	0.01514136
-4.471776	amount	0.04286135
-5.107487	amounted	0.02508235
-5.581732	amounts	0.00561302
-5.282857	ample	0.003430496
-5.581732	amplifying	-0.001308365
-5.282857	amply	-0.005643331
-5.107487	amuse	-0.003629298
-4.631329	amused	0.008180624
-4.682421	amusement	0.03221832
-4.982909	amusing	0.02315479
-5.581732	amyl	0.02172975
-2.563621	an	-0.8977892
-5.581732	anaemic	-0.002820569
-4.585619	analysis	0.03905566
-4.982909	analytical	-0.01116118
-5.282857	analyze	-0.001638075
-5.581732	anatomy	-0.002838593
-5.282857	ancestor	0.03990142
-5.282857	ancestors	0.02020104
-5.581732	ancestral	-0.002456541
-5.581732	ancestry	0.006171616
-4.631329	ancient	-0.01583928
-1.687492	and	-1.369825
-5.581732	angel	0.02172975
-4.307072	anger	0.012984
-4.506511	angle	-0.005587282
-5.581732	angles	0.01697215
-5.581732	angrily	0.01697215
-4.307072	angry	0.01957916
-5.581732	anguish	-0.0005310311
-5.581732	angular	-0.002796911
-4.506511	animal	0.01701085
-5.282857	animals	0.01894745
-5.282857	animated	0.01418824
-5.581732	animosity	-0.0004256952
-5.282857	aniseed	-0.003555337
-4.982909	ankle	-0.006893622
-5.581732	ankle-deep	-0.0001866138
-5.107487	ankles	0.003264355
-5.581732	annals	0.02172975
-5.107487	announce	-0.00242965
-4.585619	announced	0.01778569
-4.982909	announcement	0.02675832
-4.631329	annoyance	0.02507044
-4.982909	annoyed	0.02007135
-5.581732	annoying	0.02172975
-5.581732	annoys	0.001182423
-5.581732	annual	-0.00281043
-5.581732	anoints	-0.0001866138
-5.581732	anomaly	-0.0004483501
-3.55259	another	-0.1409129
-3.747142	answer	-0.03084445
-5.581732	answerable	0.00561302
-3.517831	answered	-0.1329932
-4.740335	answering	0.03494603
-4.631329	answers	0.02644142
-5.107487	antagonist	-0.003601959
-5.581732	ante-room	0.005861196
-5.282857	antecedents	0.03990142
-5.581732	anteroom	0.02172975
-5.107487	anticipate	-0.0006792527
-5.107487	anticipated	0.04185401
-5.282857	antics	0.003067757
-5.581732	antidote	0.00561302
-5.581732	antiquity	0.00561302
-5.581732	anxieties	0.01697215
-4.439616	anxiety	-0.002647091
-4.108788	anxious	-0.03369469
-5.282857	anxiously	0.002158944
-2.945562	any	-0.5210901
-5.282857	anybody	-0.004105129
-4.631329	anyhow	0.02195792
-3.80783	anyone	-0.04615618
-3.443008	anything	-0.1615711
-4.740335	anywhere	0.03264251
-4.807179	apart	0.03056302
-4.631329	apartment	0.0237542
-5.282857	ape	0.01939236
-4.982909	aperture	0.03466383
-4.886216	apiece	0.007119754
-4.982909	apologies	0.03683276
-5.581732	apologise	0.00561302
-4.982909	apologize	0.01574969
-5.581732	apologized	0.00561302
-5.581732	apologizing	0.00561302
-4.544266	apology	0.04191246
-5.581732	apoplexy	0.01697215
-5.581732	appalled	-0.0005310311
-5.581732	apparelled	0.02172975
-5.107487	apparent	-0.002793525
-4.409673	apparently	0.014163
-5.282857	apparition	0.01656726
-4.471776	appeal	0.01344533
-4.982909	appealed	-0.002713964
-5.581732	appealing	0.00561302
-5.107487	appeals	0.0005214922
-3.962701	appear	-0.03044418
-3.904722	appearance	-0.02895421
-5.282857	appearances	0.01947113
-3.734734	appeared	-0.05937563
-5.581732	appearing	0.00561302
-3.994878	appears	-0.03014351
-4.982909	appetite	0.01167949
-5.282857	applause	0.03990142
-5.107487	apple	0.04677178
-5.282857	applicant	0.002009865
-5.107487	application	0.02617392
-4.807179	applied	0.03698896
-4.631329	apply	0.05328412
-5.282857	applying	-0.002636334
-5.107487	appointed	-0.007781949
-4.243433	appointment	0.03844628
-5.581732	appreciable	-0.002837467
-4.807179	appreciate	0.007361382
-4.982909	appreciated	0.01560579
-5.581732	apprehended	0.01697215
-5.581732	apprehension	0.02172975
-5.581732	apprenticed	0.00561302
-4.585619	approach	0.03408737
-4.123506	approached	0.01861895
-4.682421	approaching	0.01277882
-5.282857	appropriate	0.0002682758
-5.581732	approve	0.01697215
-5.107487	approvingly	0.01207232
-5.581732	apron	0.01697215
-5.581732	apt	0.00561302
-5.581732	aptitudes	0.01697215
-4.886216	aquiline	0.01116048
-5.581732	arable	-0.002825075
-5.282857	arbitrary	0.004634257
-5.581732	arc-and-compass	-0.002838593
-5.581732	archaeologist	0.02172975
-5.282857	arched	-0.005167669
-5.581732	architects	0.02172975
-5.581732	architectural	-0.002837467
-5.282857	architecture	0.003163702
-5.581732	archways	0.006171616
-5.107487	ardent	0.02468559
-5.581732	arduous	-0.002688743
-2.613846	are	-0.6182529
-5.282857	area	0.003064846
-4.982909	argue	-0.008003095
-5.282857	argued	0.0002462282
-5.581732	argues	0.01514136
-5.282857	arguing	0.03298932
-4.585619	argument	0.03936704
-5.282857	arguments	0.03990142
-5.107487	aright	0.02614599
-5.107487	arise	0.01296487
-5.581732	aristocrat	0.003039667
-4.740335	aristocratic	-0.01934174
-3.962701	arm	-0.005368598
-4.439616	arm-chair	0.02961516
-4.409673	armchair	0.02086471
-5.581732	armchairs	0.01697215
-4.740335	armed	0.04123955
-5.581732	armor	-0.0005310311
-5.581732	armory	0.005861196
-4.108788	arms	0.02346457
-4.886216	army	0.03160528
-5.282857	arose	0.03990142
-4.439616	around	0.02338938
-4.982909	arouse	0.009657142
-4.381662	aroused	0.01247195
-4.682421	arrange	0.005638981
-4.439616	arranged	0.02670063
-5.282857	arrangement	0.008373886
-4.982909	arrangements	0.03815052
-5.581732	arranges	0.003039667
-5.581732	arranging	0.0009664509
-5.282857	array	0.003067757
-5.581732	arrears	0.005861196
-4.138741	arrest	0.04278701
-4.154529	arrested	0.03303924
-4.982909	arresting	0.01047606
-4.471776	arrival	0.03534849
-4.585619	arrive	-0.004758742
-4.067408	arrived	0.0244103
-5.581732	arrives	0.02172975
-5.581732	arriving	-0.00174451
-5.581732	arrows	0.02172975
-4.439616	art	0.004391108
-5.581732	arteries	-0.0004483501
-5.581732	artery	0.01697215
-4.631329	article	0.03882266
-4.506511	articles	0.03717451
-5.107487	artificial	-0.008411069
-5.282857	artillery	0.03990142
-4.886216	artist	0.03524294
-5.282857	artistic	0.01417871
-5.581732	artists	0.02172975
-2.281992	as	-0.9340674
-5.107487	ascend	0.03021374
-5.282857	ascendancy	-0.005048112
-4.506511	ascended	0.0233617
-5.581732	ascending	0.01514136
-4.886216	ascertain	0.04065562
