
\data\
ngram 1=15398
ngram 2=111577
ngram 3=35881

\1-grams:
-2.416675	!	-1.97173
-4.174571	&	-0.1273192
-3.152901	'	-0.0448973
-3.52299	''	-0.08710708
-4.890518	'16	-0.1273601
-4.890518	'45	-0.1253212
-4.890518	'55	-0.1261026
-4.890518	'60	-0.1260519
-4.890518	'77	-0.1070874
-4.890518	'82	-0.1200806
-4.772944	'83	-0.1749097
-4.772944	'84	-0.1057621
-4.772944	'85	-0.08841025
-4.655835	'87	-0.1060219
-4.772944	'89	-0.1049432
-4.890518	'90	-0.1070874
-4.655835	'95	-0.07986949
-4.890518	'97	-0.1234321
-4.507926	'A	-0.1265212
-4.890518	'About	-0.1221065
-4.890518	'Absolute	-0.1200806
-4.890518	'Absolutely	-0.10956
-4.890518	'After	-0.1272955
-4.890518	'Ah	-0.1053406
-4.890518	'Alas	-0.1070874
-4.772944	'All	-0.1231514
-4.890518	'Almost	-0.1272994
-4.890518	'American	-0.1273601
-4.890518	'Ample	-0.10956
-4.772944	'And	-0.1208832
-4.890518	'Answer	-0.1258254
-4.890518	'Any	-0.1272353
-4.890518	'Anybody	-0.1273578
-4.890518	'Anything	-0.1272722
-4.890518	'Apoplexy	-0.10956
-4.772944	'Are	-0.1232968
-4.890518	'Arms	-0.127093
-4.772944	'Arthur	-0.1256751
-4.890518	'As	-0.1273578
-4.890518	'Ask	-0.1244874
-4.890518	'At	-0.1273345
-4.890518	'Ay	-0.1070874
-4.890518	'Baron	-0.1273618
-4.890518	'Be	-0.1202666
-4.890518	'Because	-0.1270736
-4.890518	'Beddoes	-0.1273578
-4.890518	'Bless	-0.1254698
-4.890518	'Breckinridge	-0.1070874
-4.890518	'British	-0.1273618
-4.772944	'Brunton	-0.106653
-4.772944	'But	-0.08663864
-4.772944	'By	-0.1220968
-4.890518	'C.P.R	-0.10956
-4.890518	'COME	-0.10956
-4.890518	'Can	-0.1232064
-4.890518	'Catullus	-0.1070874
-4.890518	'Certainly	-0.1065224
-4.890518	'Co	-0.10956
-4.890518	'Colonel	-0.1273601
-4.655835	'Come	-0.1034449
-4.890518	'Company	-0.10956
-4.397796	'Cooee	-0.2682134
-4.890518	'Crime	-0.1202666
-4.890518	'D'you	-0.1272761
-4.890518	'DEAR	-0.1273618
-4.890518	'Danger	-0.1252156
-4.890518	'Dear	-0.1258254
-4.890518	'Dearest	-0.1269996
-4.890518	'Death	-0.1070874
-4.890518	'December	-0.1273578
-4.890518	'Did	-0.1258684
-4.890518	'Do	-0.1253859
-4.890518	'Done	-0.1257004
-4.890518	'Drive	-0.1268554
-4.890518	'E.B	-0.10956
-4.890518	'ELSIE	-0.10956
-4.890518	'Eg	-0.10956
-4.890518	'Elrige	-0.1260519
-4.772944	'Elsie	-0.08841025
-4.890518	'Encyclopaedia	-0.1070798
-4.890518	'Entirely	-0.10956
-4.890518	'Fire	-0.1257004
-4.890518	'Five	-0.1273072
-4.507926	'For	-0.1446958
-4.890518	'Found	-0.1240131
-4.772944	'Frisco	-0.1578606
-4.890518	'Fritz	-0.1257004
-4.772944	'From	-0.1220594
-4.890518	'G	-0.1270619
-4.890518	'Gesellschaft	-0.1070874
-4.890518	'Go	-0.1260792
-4.890518	'Gone	-0.1210059
-4.890518	'Good	-0.1257004
-4.890518	'Good-evening	-0.1070874
-4.890518	'H	-0.10956
-4.890518	'Ha	-0.1070874
-4.890518	'Hampshire	-0.10956
-4.890518	'Harold	-0.1070874
-4.890518	'Have	-0.1254698
-4.772944	'He	-0.120968
-4.890518	'Head-keeper	-0.1272955
-4.890518	'Heavy	-0.1273601
-4.772944	'Here	-0.1235541
-4.890518	'His	-0.1265162
-4.890518	'Holdernesse	-0.1070874
-4.890518	'Homer	-0.1070874
-4.890518	'Hosmer	-0.1273578
-4.772944	'How	-0.1202459
-4.890518	'Hudson	-0.1242758
-4.890518	'Hullo	-0.1257004
-4.890518	'Huxtable	-0.1260519
-4.890518	'Hyams	-0.1070874
-4.310019	'I	-0.1789645
-4.772944	'If	-0.1601146
-4.890518	'Impossible	-0.1257004
-4.890518	'In	-0.1167294
-4.890518	'Inspector	-0.1273189
-4.655835	'Is	-0.1140931
-4.655835	'It	-0.1700445
-4.772944	'J.H.N	-0.2183997
-4.890518	'Jack	-0.1070874
-4.890518	'Jephro	-0.1070874
-4.772944	'K	-0.2183997
-4.890518	'Keep	-0.1262432
-4.890518	'Ku	-0.1273601
-4.890518	'L'homme	-0.1273601
-4.890518	'Lately	-0.1272916
-4.655835	'Let	-0.1731141
-4.890518	'Letters	-0.1070874
-4.507926	'Lone	-0.4193426
-4.890518	'Look	-0.1196709
-4.772944	'Lord	-0.1273505
-4.890518	'Lost	-0.1070874
-4.890518	'MY	-0.1273522
-4.890518	'Made	-0.1262783
-4.890518	'Mawson	-0.1269216
-4.772944	'May	-0.2339536
-4.890518	'Most	-0.1273461
-4.890518	'Mother	-0.1070874
-4.772944	'Mr	-0.2183997
-4.890518	'Mrs	-0.10956
-4.772944	'My	-0.1267187
-4.890518	'Mysterious	-0.1273618
-4.890518	'Neither	-0.1255206
-4.772944	'Never	-0.1267935
-4.890518	'Next	-0.1272955
-4.890518	'No	-0.105298
-4.890518	'Norbury	-0.1270619
-4.890518	'North	-0.1252664
-4.772944	'Not	-0.1532533
-4.890518	'Nothing	-0.10956
-4.772944	'Now	-0.2322718
-4.890518	'Oct	-0.10956
-4.890518	'Of	-0.1269588
-4.655835	'Oh	-0.2242283
-4.890518	'Omne	-0.1273618
-4.772944	'On	-0.1725069
-4.890518	'One	-0.1187489
-4.890518	'Only	-0.1163681
-4.890518	'Or	-0.1210059
-4.890518	'Over	-0.1221065
-4.890518	'P	-0.1070874
-4.772944	'P.C	-0.2183997
-4.890518	'Papier	-0.10956
-4.890518	'Perfectly	-0.10956
-4.772944	'Perhaps	-0.1245953
-4.890518	'Photography	-0.1252156
-4.890518	'Pink	-0.1273618
-4.772944	'Pon	-0.2343603
-4.890518	'Pondicherry	-0.1273539
-4.890518	'Pooh	-0.1053406
-4.890518	'Pray	-0.1070874
-4.890518	'Precisely	-0.1078538
-4.890518	'Pretty	-0.1273072
-4.772944	'Put	-0.2309462
-4.890518	'Quite	-0.1259488
-4.890518	'Ragged	-0.1273601
-4.890518	'Really	-0.1070874
-4.890518	'Remarkable	-0.1245619
-4.890518	'Remember	-0.1070874
-4.890518	'Right	-0.1268905
-4.890518	'Rome	-0.1241778
-4.772944	'S	-0.1273562
-4.890518	'See	-0.1234321
-4.890518	'Seven	-0.1210059
-4.890518	'She	-0.1265768
-4.890518	'Show	-0.1259738
-4.890518	'Singular	-0.1273618
-4.890518	'Sir	-0.1070874
-4.772944	'So	-0.1038475
-4.890518	'Sold	-0.1210059
-4.772944	'Some	-0.1265849
-4.890518	'Sophy	-0.1257004
-4.890518	'Ss	-0.10956
-4.890518	'Stand	-0.1252664
-4.890518	'Stolen	-0.1257004
-4.890518	'Such	-0.1070874
-4.890518	'Sumner	-0.1070874
-4.890518	'Surely	-0.1232182
-4.772944	'Tell	-0.125765
-4.890518	'Ten	-0.1210059
-4.890518	'Thank	-0.1253742
-4.772944	'That	-0.1570984
-4.397796	'The	-0.1469457
-4.772944	'Then	-0.1134858
-4.507926	'There	-0.1868005
-4.890518	'These	-0.1265864
-4.772944	'They	-0.1262765
-4.655835	'This	-0.1343646
-4.890518	'Three	-0.1273601
-4.772944	'To	-0.1272976
-4.890518	'Tragedy	-0.1273578
-4.772944	'Trust	-0.2346651
-4.890518	'Tut	-0.1070874
-4.890518	'US	-0.1070874
-4.890518	'Under	-0.1221065
-4.890518	'Undoubtedly	-0.1264109
-4.890518	'Until	-0.1254698
-4.772944	'Varsity	-0.1059361
-4.890518	'Very	-0.1267894
-4.890518	'Wandsworth	-0.1273618
-4.772944	'We	-0.1666361
-4.772944	'Well	-0.1572455
-4.655835	'What	-0.1225844
-4.890518	'Whatever	-0.1260089
-4.772944	'When	-0.1227663
-4.772944	'Where	-0.1275136
-4.890518	'Whereas	-0.1070874
-4.772944	'Which	-0.1248934
-4.772944	'Who	-0.1258061
-4.890518	'Whose	-0.1241778
-4.655835	'Why	-0.1603738
-4.890518	'Within	-0.1221065
-4.890518	'Wonderful	-0.1257004
-4.890518	'Yes	-0.08841025
-4.655835	'You	-0.1649309
-4.772944	'Your	-0.1265165
-4.890518	'a	-0.1273383
-4.890518	'actually	-0.1270736
-4.655835	'and	-0.1136097
-4.890518	'are	-0.1210059
-4.655835	'at	-0.1964793
-4.890518	'band	-0.1070874
-4.772944	'bus	-0.1190802
-4.772944	'but	-0.1163605
-4.890518	'can	-0.1254698
-4.310019	'd	-0.1710168
-4.890518	'death	-0.1248908
-4.890518	'did	-0.1243406
-4.890518	'e	-0.1057089
-4.772944	'em	-0.1060647
-4.890518	'first	-0.1210059
-4.890518	'fly-paper	-0.1270619
-4.772944	'for	-0.1253742
-4.890518	'get	-0.1268047
-4.890518	'has	-0.1268281
-4.890518	'have	-0.1254698
-4.890518	'he	-0.1241778
-4.890518	'hen-pheasant	-0.1270619
-4.890518	'here	-0.1260519
-4.890518	'his	-0.1271982
-4.655835	'idee	-0.2944079
-4.890518	'if	-0.1254698
-4.890518	'in	-0.1272761
-4.890518	'is	-0.1216829
-4.772944	'it	-0.1935754
-4.890518	'journeys	-0.1271982
-4.890518	'jumping	-0.1239856
-4.890518	'learn	-0.1270619
-4.890518	'lever	-0.1070874
-4.890518	'life	-0.1273578
-3.988217	'll	-0.2006485
-4.772944	'm	-0.1170876
-4.890518	'maybe	-0.1270619
-4.890518	'my	-0.1270307
-4.890518	'neither	-0.1273601
-4.890518	'never	-0.10956
-4.890518	'only	-0.1260909
-4.890518	'other	-0.1272099
-4.890518	'please	-0.10956
-4.890518	'pology	-0.1070874
-4.772944	'quarter	-0.2359016
-4.890518	'r	-0.1081894
-4.397796	're	-0.1318783
-4.890518	'remember	-0.1262432
-2.519346	's	-0.06350447
-4.890518	'seeing	-0.1255206
-4.890518	'sent	-0.1221065
-4.890518	'sever	-0.1070874
-4.890518	'sir	-0.1270619
-4.890518	'suicide	-0.10956
-4.890518	'supply	-0.1272955
-4.890518	't	-0.1270619
-4.890518	'take	-0.1255206
-4.890518	'that	-0.1074511
-4.655835	'the	-0.1186918
-4.890518	'there	-0.1242269
-4.890518	'this	-0.1252156
-4.655835	'to	-0.106686
-4.772944	'tween-decks	-0.1115649
-4.655835	'twelve	-0.1762177
-4.890518	'un	-0.1270619
-4.071474	've	-0.2176546
-4.772944	'we	-0.1257145
-4.890518	'were	-0.1242758
-4.890518	'what	-0.1270619
-4.890518	'when	-0.1245953
-4.890518	'which	-0.125425
-4.890518	'wilful	-0.1272527
-4.772944	'with	-0.1209685
-4.890518	'would	-0.1269996
-4.890518	'ye	-0.1271146
-4.655835	'you	-0.121775
-4.027854	(	-0.1697705
-4.071474	)	-0.2459428
-4.890518	*****	-0.1273267
-1.340817	,	-0.5967583
-4.890518	-	-0.1272371
-2.327859	--	-0.3141375
-1.396058	.	-2.93405
-4.772944	...	-0.1251434
-4.890518	..E	-0.1273618
-4.890518	.ERE	-0.1273618
-4.890518	.M	-0.1273618
-4.890518	.RE.ARE	-0.1273539
-4.772944	1	-0.1019656
-4.890518	1/2	-0.1273578
-4.890518	10	-0.1070874
-4.655835	100	-0.2942793
-4.174571	1000	-0.4236963
-4.890518	10s	-0.10956
-4.890518	10s.	-0.1070874
-4.890518	10th	-0.10956
-4.890518	11.10	-0.1248908
-4.890518	1100	-0.1272332
-4.890518	117	-0.1070874
-4.772944	117th	-0.1272509
-4.655835	11:15	-0.2766061
-4.890518	11:30	-0.10956
-4.890518	12.22	-0.1210059
-4.772944	120	-0.2360729
-4.655835	126b	-0.1936208
-4.890518	12s	-0.10956
-4.890518	12th	-0.10956
-4.772944	131	-0.1037447
-4.890518	13th	-0.1253212
-4.890518	14	-0.1270619
-4.890518	14,000	-0.1272332
-4.890518	140	-0.1273111
-4.890518	14th	-0.1179242
-4.890518	15	-0.1273539
-4.890518	150	-0.1273267
-4.772944	16	-0.1037447
-4.890518	1607	-0.1070874
-4.890518	16A	-0.1070874
-4.890518	17	-0.1273172
-4.890518	1840	-0.10956
-4.890518	1846	-0.10956
-4.890518	1855	-0.1070874
-4.890518	1858	-0.10956
-4.655835	1869	-0.1754947
-4.890518	1870	-0.1258684
-4.890518	1872	-0.1260168
-4.890518	1875	-0.10956
-4.890518	1878	-0.1070874
-4.890518	1881	-0.1260168
-4.507926	1883	-0.1482169
-4.772944	1884	-0.08617149
-4.890518	1887	-0.1079981
-4.890518	1888	-0.107428
-4.772944	1890	-0.1084659
-4.772944	1891	-0.2159271
-4.655835	1894	-0.09635871
-4.890518	1895	-0.1251139
-4.890518	18th	-0.10956
-4.890518	1900	-0.10956
-4.890518	1901	-0.1273618
-4.890518	1903	-0.1273267
-4.890518	1904	-0.1273267
-4.890518	19th	-0.10956
-4.890518	1s.	-0.1070874
-4.772944	1st	-0.1221008
-4.507926	2	-0.1919575
-4.890518	2,000	-0.1273601
-4.890518	2.40	-0.1273111
-4.890518	20	-0.1270619
-4.890518	200	-0.1272332
-4.890518	20th	-0.10956
-4.890518	220	-0.1272332
-4.890518	221	-0.12735
-4.890518	221B	-0.1070874
-4.890518	226	-0.1273539
-4.655835	22nd	-0.08840221
-4.772944	23d	-0.09881593
-4.890518	23rd	-0.1189947
-4.890518	2473	-0.10956
-4.890518	249	-0.1070874
-4.890518	24th	-0.10956
-4.655835	25	-0.1966701
-4.890518	250	-0.1272332
-4.772944	26	-0.107068
-4.890518	26s	-0.10956
-4.655835	27	-0.1069117
-4.890518	270	-0.1273601
-4.890518	28	-0.1273433
-4.890518	2nd	-0.10956
-4.772944	2s	-0.2183997
-4.890518	3	-0.1089291
-4.890518	3.30	-0.1273618
-4.890518	3.36	-0.1070874
-4.655835	30	-0.1763972
-4.772944	30,000	-0.1272259
-4.890518	30th	-0.1189947
-4.890518	31	-0.1273618
-4.890518	3d	-0.1189947
-4.655835	3rd	-0.07917621
-4.310019	4	-0.2809595
-4.890518	40	-0.1272332
-4.890518	4000	-0.1272332
-4.890518	403	-0.12735
-4.890518	421	-0.1273578
-4.890518	426	-0.1070874
-4.772944	427	-0.2159271
-4.890518	46	-0.1070874
-4.890518	4700	-0.1272332
-4.890518	4:35	-0.1273111
-4.890518	4d	-0.10956
-4.655835	4th	-0.07827065
-4.890518	5	-0.10956
-4.890518	50	-0.1273601
-4.890518	50,000	-0.1272332
-4.890518	5:14	-0.1248908
-4.890518	5:15	-0.1272371
-4.890518	6	-0.10956
-4.890518	6.30	-0.1253212
-4.890518	60	-0.1272332
-4.890518	6:30	-0.1260675
-4.890518	6d	-0.10956
-4.890518	6d.	-0.1070874
-4.655835	6th	-0.08838695
-4.890518	7	-0.12735
-4.890518	700	-0.1272332
-4.890518	750	-0.1272332
-4.890518	7s	-0.10956
-4.772944	7th	-0.08841025
-4.890518	88	-0.1272332
-4.890518	8d	-0.10956
-4.890518	8s.	-0.1070874
-4.890518	8th	-0.1273578
-4.890518	9	-0.1070874
-4.890518	9.13	-0.10956
-4.890518	9.50	-0.1070874
-4.890518	90	-0.1241778
-4.772944	9th	-0.1095524
-3.199604	:	-0.3468788
-2.507916	;	-0.6134928
-4.310019	</s>
-99	<s>	-1.232792
-2.115373	?	-2.262588
-4.027854	A	-0.08307271
-4.655835	A.	-0.1558294
-4.890518	A.E	-0.1273618
-4.890518	ABANDON	-0.1273601
-4.890518	ABE	-0.1273618
-4.890518	ADLER	-0.10956
-4.655835	ADVENTURE	-0.1250286
-4.890518	ADVENTURES	-0.1273461
-4.890518	ADVISE	-0.1273539
-4.890518	AFTER	-0.1221065
-4.890518	AGENT	-0.10956
-4.772944	ALIBI	-0.1062364
-4.772944	AM	-0.1273545
-4.890518	APPLEDORE	-0.1273618
-4.890518	APRIL	-0.1070874
-4.890518	ARAT	-0.1070874
-4.890518	ARMSTRONG	-0.10956
-4.772944	ARTHUR	-0.2362015
-4.890518	AT	-0.1273618
-4.890518	AUGUST	-0.1070874
-4.890518	AUGUSTUS	-0.1273618
-4.507926	Abbey	-0.1980651
-4.890518	Abbots	-0.1200806
-4.397796	Abe	-0.3409998
-4.772944	Aberdeen	-0.1265401
-4.890518	Abergavenny	-0.1272527
-4.890518	Abernetty	-0.1272683
-4.772944	About	-0.1325812
-4.890518	Above	-0.1196255
-4.890518	Absolute	-0.1273618
-4.772944	Absolutely	-0.1036321
-4.890518	Accepting	-0.1242758
-4.890518	According	-0.1210059
-4.890518	Accustomed	-0.1245619
-4.890518	Across	-0.1199165
-4.237036	Acton	-0.16647
-4.310019	Adair	-0.1116902
-4.890518	Adams	-0.08841025
-4.890518	Add	-0.1210059
-4.890518	Addleton	-0.1273189
-4.890518	Address	-0.127093
-4.890518	Adelaide	-0.1070874
-4.890518	Adelaide-Southampton	-0.1271925
-4.772944	Adler	-0.1067661
-4.890518	Admirable	-0.1257004
-4.890518	Admiralty	-0.1041473
-4.507926	Adventure	-0.1316526
-4.890518	Affair	-0.1240131
-4.772944	Affairs	-0.08841025
-4.772944	Afghan	-0.1273466
-4.890518	Afghanistan	-0.1048161
-4.890518	Afghans	-0.10956
-4.655835	Africa	-0.0744627
-4.655835	African	-0.1272026
-4.772944	After	-0.1280022
-4.890518	Afterwards	-0.1050765
-4.890518	Again	-0.07654433
-4.772944	Agatha	-0.1252255
-4.772944	Agent	-0.2159271
-4.890518	Ages	-0.10956
-4.890518	Agra	-0.1273422
-4.507926	Ah	-0.2877816
-4.890518	Aha	-0.1257004
-4.890518	Air	-0.1200806
-4.890518	Alas	-0.1257004
-4.655835	Albert	-0.1967559
-4.890518	Aldersgate	-0.1260168
-4.310019	Aldershot	-0.119022
-4.071474	Alec	-0.2990958
-4.890518	Alexander	-0.1273461
-4.890518	Alexandria	-0.10956
-4.890518	Alexandrian	-0.1273383
-4.655835	Alexis	-0.08492003
-4.11997	Alice	-0.08519968
-4.890518	Alicia	-0.1273618
-4.890518	Alighting	-0.1240131
-4.772944	All	-0.1128288
-4.890518	Allardyce	-0.1260519
-4.890518	Allegro	-0.08841025
-4.890518	Alliance	-0.1070874
-4.890518	Allow	-0.1258254
-4.890518	Almighty	-0.1273618
-4.890518	Almost	-0.1240131
-4.890518	Along	-0.1260675
-4.772944	Aloysius	-0.2361936
-4.890518	Alpha	-0.08690926
-4.890518	Alpine	-0.1273461
-4.507926	Alpine-stock	-0.1218093
-4.772944	Already	-0.08991544
-4.890518	Also	-0.1070874
-4.890518	Altogether	-0.1059871
-4.890518	Always	-0.10956
-4.890518	Am	-0.1251139
-4.772944	Amateur	-0.1273445
-4.890518	Amazement	-0.1200806
-4.237036	America	-0.1870784
-4.174571	American	-0.1123869
-4.890518	Americans	-0.1202666
-4.890518	Amid	-0.1186833
-4.772944	Among	-0.124374
-4.890518	Amoy	-0.1273618
-4.890518	Ample	-0.10956
-4.655835	An	-0.1398875
-4.890518	Anarchist	-0.1263836
-4.655835	And	-0.04990071
-4.890518	Andaman	-0.1273618
-4.890518	Anderson	-0.1272371
-4.890518	Andover	-0.1202666
-4.890518	Anerley	-0.1273601
-4.655835	Angel	-0.09499793
-4.890518	Anglia	-0.10956
-4.890518	Anglo-Indian	-0.1070874
-4.890518	Anna	-0.1053406
-4.890518	Anne	-0.1271826
-4.397796	Annie	-0.1614773
-4.890518	Annoyed	-0.1240131
-4.772944	Another	-0.1065025
-4.890518	Anstruther	-0.1263836
-4.890518	Answer	-0.1258254
-4.772944	Any	-0.1570036
-4.890518	Anybody	-0.1273461
-4.772944	Anyhow	-0.1732978
-4.772944	Anyone	-0.1197839
-4.772944	Anything	-0.1569007
-4.890518	Anyway	-0.1070874
-4.890518	Apache	-0.1273601
-4.890518	Apaches	-0.1070874
-4.890518	Apparently	-0.1070874
-4.772944	Appledore	-0.1070816
-4.890518	Apply	-0.120261
-4.890518	Appreciation	-0.1189947
-4.655835	April	-0.09524992
-4.890518	Arab	-0.1070874
-4.890518	Arabian	-0.1273618
-4.772944	Arcade	-0.2159271
-4.890518	Arcadia	-0.1273422
-4.890518	Archery	-0.1200806
-4.772944	Archie	-0.1070816
-4.890518	Architecture	-0.1200806
-4.772944	Arctic	-0.1273194
-4.772944	Are	-0.1944059
-4.890518	Argentine	-0.1070874
-4.890518	Arizona	-0.1070874
-4.310019	Armitage	-0.1250553
-4.890518	Armour	-0.1200806
-4.772944	Arms	-0.1066408
-4.397796	Armstrong	-0.1118856
-4.772944	Army	-0.1070816
-4.890518	Arnsworth	-0.1273601
-4.772944	Arrest	-0.1235581
-4.890518	Arson	-0.10956
-4.890518	Art	-0.1202666
-3.62491	Arthur	-0.1087787
-4.772944	Artillery	-0.08841025
-4.655835	As	-0.1488347
-4.772944	Ask	-0.1259212
-4.772944	Assizes	-0.1370708
-4.890518	Assure	-0.1259738
-4.890518	Astonishment	-0.1240131
-4.772944	At	-0.1381663
-4.890518	Athene	-0.1252117
-4.397796	Athens	-0.180687
-4.890518	Atkinson	-0.1273601
-4.772944	Atlanta	-0.08759853
-4.890518	Atlantic	-0.1029365
-4.890518	Attica	-0.1070874
-4.890518	Auckland	-0.10956
-4.655835	August	-0.09827937
-4.890518	Augustine	-0.10956
-4.772944	Augustus	-0.1272392
-4.890518	Austerlitz	-0.1070874
-4.310019	Australia	-0.1428602
-4.507926	Australian	-0.1247798
-4.890518	Australians	-0.10956
-4.890518	Author	-0.1189947
-4.890518	Aveling	-0.1070874
-4.655835	Avenue	-0.1731756
-4.890518	Awake	-0.1070874
-4.890518	Away	-0.1259837
-4.890518	Ay	-0.1070874
-4.890518	Aye	-0.1070874
-4.890518	Ayrshires	-0.1240248
-4.890518	Azure	-0.1070874
-4.397796	B	-0.1202072
-4.890518	BACHELOR	-0.127315
-4.890518	BALLARAT	-0.10956
-4.890518	BAND	-0.12735
-4.890518	BASS	-0.1273601
-4.890518	BEECHES	-0.1271865
-4.890518	BERYL	-0.1273618
-4.890518	BLUE	-0.1273618
-4.890518	BOHEMIA	-0.1251139
-4.890518	BOSCOMBE	-0.1273618
-4.890518	BOTH	-0.1210059
-4.890518	Bachelor	-0.1273578
-4.890518	Back	-0.1245052
-4.890518	Backwater	-0.1056825
-4.772944	Bad	-0.1053406
-4.890518	Bagatelle	-0.1273211
-3.736572	Baker	-0.4932862
-4.772944	Bakers	-0.0996443
-4.890518	Baldwin	-0.1070874
-4.655835	Ballarat	-0.09582564
-4.772944	Balmoral	-0.1261858
-4.890518	Balzac	-0.1270307
-4.890518	Band	-0.1095501
-4.890518	Bangor	-0.1070874
-4.655835	Bank	-0.1195598
-4.890518	Bankers	-0.1270619
-4.027854	Bannister	-0.1483467
-4.772944	Bar	-0.1189891
-4.11997	Barclay	-0.2066785
-4.890518	Barclays	-0.1231435
-4.890518	Barnicot	-0.09712335
-4.890518	Baron	-0.1273618
-4.890518	Barons	-0.1189947
-4.890518	Barque	-0.1273539
-4.890518	Barrett	-0.1070874
-4.890518	Barton	-0.1070874
-4.772944	Basil	-0.1581476
-4.890518	Basle	-0.10956
-4.890518	Bathsheba	-0.1240248
-4.772944	Baxter	-0.1023555
-4.890518	Bay	-0.1263173
-4.772944	Bayard	-0.1088967
-4.890518	Bayswater	-0.1273601
-4.772944	Be	-0.1057853
-4.890518	Beacons	-0.1189947
-4.772944	Because	-0.1110678
-4.772944	Becher	-0.1204845
-4.655835	Beckenham	-0.1256544
-4.772944	Beddington	-0.1048161
-4.310019	Beddoes	-0.167153
-4.655835	Beecher	-0.1020938
-4.890518	Beeches	-0.08406971
-4.772944	Before	-0.1377172
-4.890518	Beg	-0.1273539
-4.890518	Behind	-0.1250377
-4.890518	Being	-0.1264499
-4.890518	Belgrade	-0.1070874
-4.890518	Bellinger	-0.1053406
-4.890518	Belminster	-0.1070874
-4.890518	Bengal	-0.1273601
-4.890518	Bengalore	-0.1273618
-4.890518	Bentinck	-0.1272021
-4.890518	Bentley	-0.1260519
-4.071474	Beppo	-0.1285155
-4.507926	Berkshire	-0.1021268
-4.890518	Bermondsey	-0.1070874
-4.890518	Bermuda	-0.1273618
-4.890518	Bert	-0.1273618
-4.890518	Bertillon	-0.1273345
-4.890518	Beryl	-0.1273618
-4.890518	Beside	-0.1193758
-4.772944	Besides	-0.1849739
-4.772944	Better	-0.1270193
-4.772944	Between	-0.1165622
-4.890518	Beverley	-0.1070874
-4.772944	Beyond	-0.1578271
-4.655835	Bhurtee	-0.08492003
-4.890518	Bible	-0.10956
-4.890518	Biddle	-0.1070874
-4.890518	Bill	-0.1070874
-4.890518	Binomial	-0.1273618
-4.890518	Birchmoor	-0.1070874
-4.890518	Birds	-0.1070874
-4.507926	Birmingham	-0.08442011
-4.890518	Bite	-0.1252117
-4.027854	Black	-0.3925876
-4.655835	Blackheath	-0.1539476
-4.890518	Blackwater	-0.1070874
-4.890518	Blandford	-0.1272021
-4.890518	Blaze	-0.06861833
-4.772944	Bless	-0.1201857
-3.831024	Blessington	-0.176136
-4.890518	Block	-0.1221065
-4.890518	Blood	-0.10956
-4.890518	Bloomsbury	-0.1240131
-4.655835	Blue	-0.117146
-4.890518	Blues	-0.1269177
-4.772944	Bob	-0.1764992
-4.772944	Bohemia	-0.1007766
-4.507926	Bohemian	-0.1270487
-4.890518	Bohemianism	-0.1189947
-4.890518	Bond	-0.1272021
-4.397796	Boone	-0.1425052
-4.772944	Boots	-0.191685
-4.890518	Bordeaux	-0.1070874
-4.890518	Borgia	-0.12735
-4.890518	Borgias	-0.10956
-4.890518	Born	-0.1200749
-4.237036	Boscombe	-0.4704896
-4.890518	Boswell	-0.10956
-4.890518	Botany	-0.1273601
-4.772944	Both	-0.1351523
-4.890518	Bought	-0.10956
-4.890518	Boulevard	-0.1273578
-4.772944	Bow	-0.2360418
-4.890518	Boxer	-0.1273601
-4.772944	Brackenstall	-0.09059032
-4.890518	Brackwell	-0.1070874
-4.772944	Bradshaw	-0.08841025
-4.310019	Bradstreet	-0.1328665
-4.890518	Brambletye	-0.1273422
-4.310019	Breckinridge	-0.1763494
-4.397796	Briarbrae	-0.1169434
-4.655835	Bridge	-0.1853289
-4.890518	Briefly	-0.1065509
-4.772944	Bring	-0.1244268
-4.174571	Briony	-0.7203726
-4.507926	Bristol	-0.1068084
-4.655835	Britain	-0.1056688
-4.772944	Britannica	-0.2183997
-4.071474	British	-0.1385615
-4.310019	Brixton	-0.3761044
-4.890518	Broads	-0.08063706
-4.890518	Broken	-0.1273618
-4.890518	Brooding	-0.1262822
-4.397796	Brook	-0.5160969
-4.890518	Brotherhood	-0.1094081
-4.890518	Brothers	-0.106028
-4.655835	Brown	-0.1382788
-4.890518	Bruce	-0.1273618
-3.831024	Brunton	-0.1751497
-4.772944	Brussels	-0.1160785
-4.890518	Buda-Pesth	-0.10956
-4.772944	Builder	-0.2183997
-4.890518	Buildings	-0.1070874
-4.890518	Bull	-0.1070874
-4.890518	Bunsen	-0.1273618
-4.890518	Bureau	-0.1070874
-4.890518	Burglary	-0.1257004
-4.890518	Burnwell	-0.07634707
-4.890518	Busybody	-0.1268788
-4.655835	But	-0.05228049
-4.655835	By	-0.1583112
-4.890518	By-the-way	-0.1070874
-4.655835	C	-0.1034221
-4.772944	C.	-0.1251942
-4.890518	C.A.M.	-0.1070874
-4.890518	C.B.	-0.1070874
-4.890518	C.P.R.	-0.1070874
-4.772944	CA	-0.2362015
-4.655835	CAN	-0.1261341
-4.890518	CARBUNCLE	-0.1251139
-4.772944	CASE	-0.1095379
-4.890518	CHARLES	-0.1273618
-4.890518	COLONEL	-0.10956
-4.890518	CONAN	-0.1273618
-4.890518	COPPER	-0.1273618
-4.890518	CORONET	-0.1271865
-4.772944	COULD	-0.1264598
-4.890518	COUPLE	-0.1252
-4.507926	Cabinet	-0.1015244
-4.890518	Cabul	-0.10956
-4.890518	Cairns	-0.08808696
-4.890518	Cal.	-0.1070874
-4.890518	Calcutta	-0.1070874
-4.772944	Calhoun	-0.1035844
-4.655835	California	-0.103418
-4.890518	Californian	-0.1273601
-4.890518	Cam	-0.126368
-4.772944	Camberwell	-0.1095542
-4.397796	Cambridge	-0.1422387
-4.890518	Cambridgeshire	-0.1273539
-4.890518	Camden	-0.1273345
-4.772944	Campaign	-0.2159271
-4.890518	Campden	-0.1273345
-4.772944	Can	-0.159524
-4.890518	Canadian	-0.1273601
-4.890518	Canal	-0.10956
-4.890518	Cannon	-0.1272021
-4.772944	Canterbury	-0.0869326
-4.890518	Cape	-0.1273422
-4.507926	Capital	-0.2272251
-4.890518	Capsules	-0.1238758
-4.071474	Captain	-0.270006
-4.890518	Capture	-0.1189947
-4.890518	Carbuncle	-0.1273578
-4.890518	Card	-0.1273578
-4.890518	Cardinal	-0.1273618
-4.890518	Carefully	-0.1240701
-4.655835	Carey	-0.1040091
-4.890518	Carlo	-0.1070874
-4.890518	Carlsbad	-0.10956
-4.772944	Carlton	-0.1070529
-4.890518	Carolinas	-0.1070874
-4.890518	Carried	-0.1268827
-4.071474	Carruthers	-0.1508025
-4.890518	Carstairs	-0.1070874
-4.772944	Carston	-0.1270546
-4.772944	Cartwright	-0.1062364
-4.772944	Case	-0.1183417
-4.890518	Cassel-Felstein	-0.1070874
-4.772944	Castle	-0.1067959
-4.890518	Cathcart	-0.1273306
-4.772944	Catherine	-0.2361998
-4.772944	Catholic	-0.1273406
-4.890518	Cattle	-0.1252117
-4.890518	Caunter	-0.1070874
-4.890518	Cavalier	-0.1200806
-4.655835	Cavendish	-0.2158926
-4.890518	Cedars	-0.1013112
-4.890518	Celtic	-0.1271359
-4.890518	Central	-0.1273578
-4.772944	Certainly	-0.1258554
-4.890518	Chair	-0.1240131
-4.890518	Chamber	-0.1070874
-4.890518	Chance	-0.1263563
-4.890518	Chancelleries	-0.1189947
-4.890518	Chapel	-0.1244874
-4.890518	Charasiab	-0.1273267
-4.397796	Charing	-0.5162549
-3.951898	Charles	-0.2319388
-4.027854	Charlington	-0.2615451
-4.890518	Charming	-0.1273618
-4.890518	Charybdis	-0.1244169
-4.655835	Chatham	-0.1316139
-4.890518	Check	-0.1273306
-4.507926	Chesterfield	-0.08596405
-4.890518	Chesterton	-0.1070874
-4.772944	Chicago	-0.08835289
-4.890518	Chief	-0.12735
-4.890518	Children	-0.1070874
-4.772944	Chiltern	-0.2361998
-4.397796	China	-0.1100397
-4.772944	Chinese	-0.1273562
-4.655835	Chislehurst	-0.1271908
-4.507926	Chiswick	-0.08588697
-4.890518	Christ	-0.1260519
-4.174571	Christmas	-0.1325463
-4.655835	Chronicle	-0.09746703
-4.772944	Chubb	-0.1259993
-4.310019	Church	-0.1675763
-4.890518	Cinnamon	-0.1273267
-4.772944	Circumstantial	-0.2360612
-4.772944	Circus	-0.2183997
-4.507926	City	-0.04860064
-4.890518	Civil	-0.1273578
-4.890518	Clair	-0.06594358
-4.655835	Clapham	-0.2944079
-4.890518	Clara	-0.1273111
-4.890518	Clark	-0.1273601
-4.772944	Clay	-0.08696053
-4.890518	Clearly	-0.1066489
-4.890518	Clerk	-0.1273601
-4.890518	Close	-0.1218406
-4.890518	Clotilde	-0.1273618
-4.655835	Club	-0.1158184
-4.890518	Clubs	-0.127093
-4.890518	Clue	-0.1210059
-4.772944	Co.	-0.1765278
-4.890518	Coarse	-0.1272683
-4.890518	Cobb	-0.1070874
-4.772944	Coburg	-0.1273054
-4.890518	Cock	-0.08143188
-4.890518	Cocksure	-0.1070874
-4.890518	Coldstream	-0.1273601
-4.890518	Collar	-0.1200806
-4.507926	College	-0.1195618
-3.715853	Colonel	-0.2091138
-4.890518	Colonial	-0.1273306
-4.890518	Colonies	-0.10956
-4.890518	Colonna	-0.1260519
-4.890518	Colony	-0.1189947
-4.772944	Come	-0.11383
-4.890518	Coming	-0.1252117
-4.890518	Common	-0.1070874
-4.890518	Commons	-0.1070874
-4.507926	Company	-0.1652134
-4.890518	Conan	-0.1273618
-4.890518	Concealment	-0.1268905
-4.890518	Conduit	-0.1272021
-4.890518	Confess	-0.1070874
-4.890518	Conk-Singleton	-0.1273539
-4.890518	Conquest	-0.1202666
-4.772944	Consider	-0.1214186
-4.890518	Considering	-0.1270619
-4.772944	Constable	-0.1273545
-4.890518	Constabulary	-0.1070874
-4.890518	Contents	-0.127093
-4.890518	Continent	-0.1059216
-4.772944	Continental	-0.1273328
-4.890518	Contralto	-0.1253212
-4.772944	Convinced	-0.2322718
-4.890518	Cooee	-0.1257004
-4.890518	Cook	-0.1070874
-4.655835	Copper	-0.2944079
-4.890518	Coptic	-0.1273618
-4.890518	Coram	-0.08338111
-4.772944	Cornelius	-0.08750272
-4.772944	Cornwall	-0.1015734
-4.890518	Coroner	-0.127093
-4.890518	Coronet	-0.1240175
-4.890518	Corporal	-0.1273383
-4.772944	Corporation	-0.2360418
-4.890518	Cosmopolitan	-0.0884041
-4.890518	Costa	-0.1273618
-4.772944	Could	-0.1406468
-4.772944	Count	-0.1273015
-4.890518	Countess	-0.08567752
-4.890518	Counties	-0.1273578
-4.890518	County	-0.1189947
-4.507926	Court	-0.1213934
-4.655835	Covent	-0.2944079
-4.890518	Coventry	-0.08841025
-4.655835	Coxon	-0.1768839
-4.890518	Crane	-0.1273618
-4.890518	Creina	-0.1070874
-4.890518	Creole	-0.1273539
-4.890518	Crewe	-0.10956
-4.890518	Crime	-0.1252156
-4.890518	Crimea	-0.1200806
-4.772944	Crimean	-0.1265651
-4.890518	Criminal	-0.10956
-4.890518	Criminals	-0.1257004
-4.772944	Croker	-0.1578606
-4.890518	Crooked	-0.1273539
-4.772944	Crooksbury	-0.2361858
-4.890518	Crosby	-0.1221065
-4.772944	Cross	-0.1079323
-4.890518	Crowder	-0.1070874
-4.772944	Crown	-0.1078013
-4.890518	Crystal	-0.1273618
-4.772944	Cubitt	-0.08970372
-4.174571	Cunningham	-0.1920205
-4.655835	Cunninghams	-0.08451243
-4.772944	Cup	-0.1371907
-4.890518	Curse	-0.1221065
-4.772944	Cusack	-0.1040468
-4.890518	Cuvier	-0.1267307
-4.890518	Cyclist	-0.10956
-4.071474	Cyril	-0.2867943
-4.655835	D	-0.1070469
-4.772944	D'you	-0.1270289
-4.890518	D.D.	-0.1070874
-4.890518	DAILY	-0.1273618
-4.890518	DE	-0.1273618
-4.655835	DEAR	-0.2944079
-4.890518	DEAREST	-0.1273618
-4.890518	DEBUTANTE	-0.1189947
-4.772944	DECEMBER	-0.2159271
-4.890518	DEFINITELY	-0.1273618
-4.890518	DETOUR	-0.1263563
-4.890518	DID	-0.1251139
-4.890518	DISSOLVED	-0.10956
-4.890518	DO	-0.1271515
-4.890518	DOES	-0.1273539
-4.890518	DOYLE	-0.1072061
-4.890518	Dacre	-0.1273422
-4.890518	Daily	-0.1273528
-4.890518	Damp	-0.1263836
-4.890518	Dancing	-0.1273578
-4.890518	Dane	-0.1070874
-4.890518	Danger	-0.1257004
-4.890518	Dantzig	-0.1070874
-4.890518	Darjeeling	-0.10956
-4.772944	Dark	-0.1270117
-4.890518	Darlington	-0.1273618
-4.310019	Dartmoor	-0.1243274
-4.890518	Data	-0.1257004
-4.890518	Daubensee	-0.1070874
-4.772944	Daulat	-0.2362015
-4.890518	Davenport	-0.10956
-4.507926	David	-0.103546
-4.890518	Davos	-0.1273618
-4.655835	Dawson	-0.1161725
-4.890518	Day	-0.1260519
-4.890518	De	-0.1273618
-4.772944	Dear	-0.1749219
-4.772944	December	-0.1253116
-4.655835	Deep	-0.2944079
-4.890518	Deeply	-0.1245619
-4.890518	Dei	-0.10956
-4.890518	Dene	-0.1273345
-4.890518	Depend	-0.1249065
-4.397796	Derbyshire	-0.122854
-4.397796	Desborough	-0.1254657
-4.890518	Describe	-0.1242758
-4.890518	Deserted	-0.1254698
-4.890518	Desiring	-0.1210059
-4.890518	Detective	-0.1257004
-4.772944	Devine	-0.1081894
-4.507926	Devonshire	-0.1031939
-4.890518	Devoy	-0.1070874
-4.655835	Did	-0.2057181
-4.890518	Dieppe	-0.10956
-4.890518	Dinner	-0.1241778
-4.772944	Diogenes	-0.2361975
-4.890518	Dirty	-0.1240248
-4.772944	Disappearance	-0.1189873
-4.890518	Disease	-0.1240248
-4.890518	Disgraceful	-0.1070874
-4.890518	Disregarding	-0.1255206
-4.890518	Division	-0.1070874
-4.772944	Dixon	-0.2159271
-4.772944	Do	-0.1778851
-4.890518	Dock	-0.1200806
-4.890518	Dockyard	-0.1070874
-4.655835	Doctor	-0.1179797
-4.890518	Doctors	-0.1270619
-4.890518	Documents	-0.1070874
-4.772944	Does	-0.1184871
-4.890518	Don	-0.1273618
-4.890518	Doncaster	-0.1240248
-4.890518	Done	-0.1263329
-4.507926	Donnithorpe	-0.1554396
-4.890518	Dook	-0.1068326
-4.507926	Doran	-0.1448255
-4.890518	Dorking	-0.1240248
-4.890518	Dovercourt	-0.108535
-4.890518	Down	-0.1181132
-4.890518	Downing	-0.1272021
-4.890518	Downs	-0.1070874
-4.890518	Doyle	-0.109546
-4.772944	Dr	-0.2183997
-3.485704	Dr.	-0.5699286
-4.890518	Draper	-0.1260519
-4.890518	Draw	-0.125026
-4.890518	Drink	-0.1260675
-4.890518	Drive	-0.1252117
-4.772944	Drop	-0.1203123
-4.890518	Dubugue	-0.1189947
-4.772944	Duchess	-0.1167906
-4.310019	Duke	-0.1554711
-4.890518	Dulong	-0.10956
-4.772944	Duncan	-0.2361819
-4.890518	Dundas	-0.1273601
-4.174571	Dundee	-0.255027
-4.655835	Dunlop	-0.1249034
-4.772944	During	-0.1422564
-4.890518	Dutch	-0.1248852
-4.310019	E	-0.1332755
-4.507926	E.	-0.1273118
-4.890518	E.C	-0.10956
-4.890518	ELRI.ES	-0.10956
-4.890518	ELSIE	-0.1273618
-4.890518	EMPLOYEE	-0.1070874
-4.890518	ENGINEER	-0.1273601
-4.890518	ESTABLISHED	-0.10956
-4.890518	EVIDENCE	-0.1273539
-4.772944	Each	-0.1178372
-4.772944	Earl	-0.1492527
-4.890518	Early	-0.1170123
-4.890518	Easier	-0.1221065
-4.310019	East	-0.1426478
-4.890518	East-End	-0.1189947
-4.890518	East-end	-0.1070874
-4.655835	Eastern	-0.1273059
-4.890518	Eat	-0.1239856
-4.890518	Echo	-0.1070874
-4.890518	Edgeware	-0.1273267
-4.507926	Edith	-0.1580399
-4.397796	Eduardo	-0.5162254
-4.890518	Educated	-0.1273578
-4.655835	Edward	-0.1200929
-4.655835	Effie	-0.1021639
-4.890518	Eglonitz	-0.1253212
-4.890518	Eglow	-0.1070874
-4.890518	Egria	-0.10956
-4.890518	Egypt	-0.1070874
-4.772944	Eh	-0.1035844
-4.772944	Eight	-0.1187709
-4.890518	Either	-0.1198254
-4.890518	Electrical	-0.1273539
-4.890518	Elementary	-0.1070874
-4.890518	Eley	-0.1260519
-4.772944	Elias	-0.1200533
-4.890518	Elise	-0.1257004
-4.890518	Elizabethan	-0.12735
-4.655835	Elrige	-0.293098
-4.11997	Elsie	-0.08008084
-4.890518	Embankment	-0.1252156
-4.890518	Embassies	-0.1265864
-4.772944	Embassy	-0.1021595
-4.772944	Emperor	-0.0879226
-4.890518	Empire	-0.1263563
-4.890518	Empty	-0.1273345
-4.772944	Encyclopaedia	-0.1269242
-4.890518	End	-0.08827198
-4.890518	Endell	-0.1272021
-4.890518	Engage	-0.1239856
-4.890518	Engaged	-0.10956
-4.890518	Engineer	-0.1260519
-3.988217	England	-0.1268668
-4.890518	Englischer	-0.1273618
-3.805417	English	-0.1449741
-4.237036	Englishman	-0.1667387
-4.890518	Englishmen	-0.1243445
-4.890518	Englishwoman	-0.1202666
-4.890518	Enough	-0.1189947
-4.890518	Enter	-0.1221065
-4.890518	Entirely	-0.10956
-4.890518	Escott	-0.1252664
-4.890518	Esq	-0.10956
-4.890518	Esq.	-0.1070874
-4.890518	Etherege	-0.1070874
-4.655835	Eton	-0.1894896
-4.397796	Europe	-0.1153654
-4.174571	European	-0.1450339
-4.772944	Eustace	-0.1094254
-4.890518	Euston	-0.10956
-4.890518	Eva	-0.1035665
-4.655835	Evans	-0.1688996
-4.772944	Even	-0.1168149
-4.772944	Evening	-0.1273528
-4.890518	Eventually	-0.1070874
-4.772944	Every	-0.136901
-4.890518	Everybody	-0.1231356
-4.890518	Everything	-0.1222504
-4.890518	Evidence	-0.1189947
-4.772944	Evidently	-0.1323375
-4.890518	Evil	-0.1273539
-4.890518	Ex-President	-0.1273618
-4.890518	Exactly	-0.08178684
-4.890518	Examine	-0.1259738
-4.890518	Exceedingly	-0.1264109
-4.772944	Excellent	-0.1376056
-4.772944	Except	-0.1234502
-4.890518	Exchange	-0.1273288
-4.772944	Excuse	-0.2346651
-4.890518	Exeter	-0.1070874
-4.890518	Exit	-0.1221065
-4.890518	Experience	-0.1070874
-4.890518	Extremely	-0.1264109
-4.237036	Eyford	-0.1548466
-4.772944	Ezekiah	-0.2361313
-4.890518	F.H.M	-0.10956
-4.890518	FEBRUARY	-0.1070874
-4.890518	FIANCEE	-0.1253212
-4.890518	FIVE	-0.1273618
-4.890518	FRESH	-0.1273618
-4.890518	FRIESLAND	-0.1070874
-4.772944	FROM	-0.2309462
-4.890518	Faber	-0.1252156
-4.890518	Face	-0.1273578
-4.890518	Faces	-0.1210059
-4.890518	Failing	-0.1268008
-4.890518	Failure	-0.1070874
-4.772944	Fairbank	-0.1037447
-4.890518	Fall	-0.10956
-4.772944	Falmouth	-0.1073139
-4.890518	Familiar	-0.1245619
-4.890518	Family	-0.1271865
-4.890518	Fancy	-0.1252039
-4.890518	Far	-0.1241349
-4.890518	Fareham	-0.1202666
-4.890518	Farewell	-0.1070874
-4.772944	Farintosh	-0.2159271
-4.772944	Farm	-0.1110183
-4.890518	Farm-house	-0.1210059
-4.310019	Farnham	-0.1784073
-4.890518	Farquhar	-0.1070874
-4.890518	Farrington	-0.1272021
-4.890518	Fashionable	-0.1273618
-4.890518	Fate	-0.1252
-4.890518	Father	-0.1241778
-4.507926	February	-0.1687943
-4.890518	Feeling	-0.1272839
-4.890518	Fenchurch	-0.1272021
-4.772944	Ferguson	-0.1016976
-4.890518	Ferrers	-0.1273618
-4.890518	Ferrier	-0.1048161
-4.890518	Few	-0.1187587
-4.890518	Fifty	-0.1272332
-4.772944	Fighting	-0.2362015
-4.890518	Filled	-0.1238758
-4.890518	Final	-0.1273618
-4.772944	Finally	-0.1429296
-4.890518	Financial	-0.1273601
-4.890518	Find	-0.1266878
-4.890518	Finding	-0.122888
-4.890518	Fine	-0.1273422
-4.890518	Finns	-0.1200806
-4.890518	Fire	-0.1257004
-4.655835	First	-0.1451207
-4.237036	Fitzroy	-0.6623573
-4.655835	Five	-0.1486263
-4.890518	Flaubert	-0.1272994
-4.655835	Fleet	-0.2942482
-4.237036	Flora	-0.2656548
-4.890518	Florence	-0.1238758
-4.655835	Florida	-0.08525898
-4.890518	Flowers	-0.1253212
-4.890518	Fly	-0.1244874
-4.890518	Folk	-0.1265162
-4.890518	Follow	-0.1258254
-4.890518	Following	-0.1199165
-4.890518	Fool	-0.1234321
-4.890518	Footmarks	-0.1189947
-4.890518	Footsteps	-0.127019
-4.655835	For	-0.1357143
-4.237036	Forbes	-0.2058355
-4.890518	Force	-0.10956
-4.655835	Fordham	-0.1064061
-4.890518	Fordingbridge	-0.1273601
-4.772944	Fordingham	-0.1208105
-4.655835	Foreign	-0.1968031
-4.507926	Forest	-0.2452523
-4.890518	Forgery	-0.10956
-4.890518	Forgive	-0.1260675
-4.890518	Formerly	-0.1273601
-4.890518	Forrester	-0.1070874
-4.890518	Fortescue	-0.1273618
-4.890518	Fortunately	-0.1070874
-4.890518	Fortune	-0.1263563
-4.890518	Found	-0.1239856
-4.772944	Four	-0.0872125
-4.772944	Fournaye	-0.149993
-4.772944	Fowler	-0.09474431
-4.507926	France	-0.1232276
-4.655835	Francis	-0.1273388
-4.890518	Francisco	-0.1070874
-4.890518	Franco-Midland	-0.1273618
-4.890518	Franco-Prussian	-0.1273578
-3.951898	Frank	-0.1504049
-4.890518	Frankly	-0.1070874
-4.772944	Fraser	-0.1496771
-4.890518	Freebody	-0.1070874
-4.890518	Freemason	-0.1070874
-4.890518	Freemasonry	-0.1240248
-3.918382	French	-0.1279793
-4.890518	Frenchman	-0.1263719
-4.890518	Frequently	-0.10956
-4.890518	Fresh	-0.1273427
-4.890518	Fresno	-0.1272021
-4.310019	Friday	-0.161526
-4.772944	Fritz	-0.1256908
-4.772944	From	-0.1252676
-4.772944	G	-0.1243563
-4.890518	GIBRALTAR	-0.08841025
-4.890518	GLOBE	-0.1270424
-4.890518	GO	-0.10956
-4.772944	GRAPHIC	-0.1776799
-4.890518	GUILT	-0.1273618
-4.772944	Game	-0.1160585
-4.890518	Gang	-0.10956
-4.890518	Garden	-0.1095542
-4.890518	Gardens	-0.1070874
-4.890518	Gate	-0.1039954
-4.890518	Gazetteer	-0.10956
-4.397796	Gelder	-0.334354
-4.890518	Gemmi	-0.1070816
-4.655835	General	-0.196797
-4.890518	Geneva	-0.10956
-4.890518	Geneve	-0.1252117
-4.890518	Gentlemen	-0.1070874
-4.310019	George	-0.1618098
-4.890518	Georgia	-0.08841025
-3.918382	German	-0.1700548
-4.890518	German-speaking	-0.127241
-4.890518	Germans	-0.10956
-4.772944	Get	-0.1797698
-4.890518	Getting	-0.123446
-4.890518	Gigantic	-0.1273306
-4.11997	Gilchrist	-0.2417674
-4.890518	Gill	-0.1273618
-4.772944	Give	-0.1776235
-4.890518	Giving	-0.1273267
-4.772944	Gladstone	-0.2361664
-4.890518	Glancing	-0.1234735
-4.890518	Globe	-0.1070874
-4.655835	Gloria	-0.2944062
-4.890518	Gloves	-0.1070874
-4.772944	Go	-0.1246619
-3.659037	God	-0.2887192
-3.659037	Godfrey	-0.3040505
-4.174571	Godolphin	-0.7202169
-4.890518	Gold	-0.1070874
-4.890518	Golden	-0.1273618
-4.655835	Gone	-0.09477788
-4.655835	Good	-0.1762838
-4.890518	Good-afternoon	-0.1070874
-4.890518	Good-by	-0.1056721
-4.890518	Good-bye	-0.0869326
-4.772944	Good-day	-0.1698698
-4.890518	Good-evening	-0.08841025
-4.890518	Good-morning	-0.1070874
-4.772944	Good-night	-0.0869326
-4.890518	Goodge	-0.1272021
-4.890518	Goodwins	-0.1200806
-4.507926	Gordon	-0.1566934
-4.655835	Gorot	-0.1754783
-4.772944	Got	-0.1257923
-4.890518	Gothic	-0.1273601
-4.890518	Gottsreich	-0.1273618
-4.772944	Government	-0.2159271
-4.890518	Governor	-0.1189947
-4.507926	Grace	-0.09412268
-4.890518	Gradually	-0.1070874
-4.890518	Graham	-0.1200806
-4.890518	Grand	-0.1273461
-4.772944	Grange	-0.09116424
-4.397796	Grant	-0.5162526
-4.890518	Granting	-0.1234321
-4.890518	Grave	-0.127019
-4.507926	Gravesend	-0.09972341
-4.890518	Gray	-0.1260519
-4.507926	Great	-0.178164
-4.655835	Grecian	-0.1269769
-4.772944	Greece	-0.1018605
-4.027854	Greek	-0.09426665
-4.890518	Greenwich	-0.10956
-4.310019	Gregory	-0.1819217
-4.890518	Gregson	-0.09944926
-4.890518	Grenoble	-0.1070874
-4.890518	Gresham	-0.1273618
-4.890518	Grice	-0.1273618
-4.890518	Grimesby	-0.1273539
-4.890518	Grit	-0.1202666
-4.890518	Groat	-0.1260519
-4.890518	Gross	-0.1273383
-4.655835	Grosvenor	-0.1272785
-4.890518	Grove	-0.1273267
-4.772944	Guards	-0.1059216
-4.890518	Guild	-0.116785
-4.890518	Gustave	-0.1273618
-4.507926	H	-0.08589169
-4.397796	H.	-0.1211525
-4.655835	HAD	-0.1186576
-4.890518	HAMPSTEAD	-0.10956
-4.890518	HAND	-0.10956
-4.772944	HAVE	-0.1251942
-4.890518	HE	-0.1269879
-4.890518	HERE	-0.1273562
-4.890518	HIM	-0.10956
-4.655835	HOLMES	-0.1344327
-4.890518	HOPKINS	-0.10956
-4.655835	HUNTER	-0.1787246
-4.655835	Ha	-0.2141802
-4.772944	Had	-0.129746
-4.890518	Hafiz	-0.1245619
-4.890518	Hague	-0.1270424
-4.772944	Half	-0.1488677
-4.772944	Half-past	-0.126764
-4.890518	Halfway	-0.126407
-4.890518	Halifax	-0.1070874
-3.887269	Hall	-0.23364
-4.772944	Hallamshire	-0.1258314
-4.772944	Halloa	-0.1747909
-4.890518	Ham	-0.1200806
-4.655835	Hammersmith	-0.1054492
-4.507926	Hampshire	-0.08032519
-4.397796	Hampstead	-0.1635933
-4.890518	Handsome	-0.1240248
-4.890518	Hankey	-0.1260519
-4.890518	Hanover	-0.1273345
-4.890518	Harden	-0.1070874
-4.507926	Harding	-0.1679046
-4.890518	Hardly	-0.1231317
-4.890518	Hardware	-0.1273539
-4.655835	Hardy	-0.2741335
-4.890518	Hare	-0.1271982
-4.890518	Hargreave	-0.1070874
-4.310019	Harker	-0.1359088
-4.772944	Harley	-0.2360418
-4.655835	Harold	-0.1218054
-4.890518	Harpooner	-0.1240248
-4.655835	Harris	-0.1035702
-4.655835	Harrison	-0.09070486
-4.772944	Harrow	-0.1578606
-4.507926	Harry	-0.2462126
-4.772944	Has	-0.1456108
-3.918382	Hatherley	-0.2824246
-4.890518	Hatty	-0.1273539
-4.890518	Havana	-0.1070874
-4.772944	Have	-0.143542
-4.772944	Having	-0.149898
-4.890518	Hay	-0.1273539
-4.174571	Hayes	-0.09013253
-4.890518	Hayling	-0.1070874
-4.655835	Hayter	-0.09604699
-4.890518	Hayward	-0.1070874
-4.397796	He	-0.08485795
-4.890518	Head	-0.1273539
-4.890518	Head-keeper	-0.1272955
-4.507926	Heath	-0.1481354
-3.951898	Heaven	-0.170193
-4.772944	Heavens	-0.1747909
-4.890518	Heavy	-0.12735
-4.890518	Hebrew	-0.1273618
-4.655835	Hebron	-0.1578606
-4.890518	Hector	-0.1273228
-4.890518	Heh	-0.1240248
-4.397796	Heidegger	-0.221064
-4.890518	Heir	-0.1200806
-4.507926	Helen	-0.1563455
-4.772944	Help	-0.1719581
-4.890518	Hence	-0.1044327
-4.772944	Henri	-0.2361998
-4.174571	Henry	-0.2495675
-4.655835	Her	-0.1289758
-4.890518	Hercules	-0.10956
-4.890518	Herder	-0.1064162
-4.772944	Here	-0.1287513
-4.772944	Hereford	-0.1200732
-4.772944	Herefordshire	-0.1093838
-4.890518	Herr	-0.12735
-4.890518	Hers	-0.1252
-4.890518	High	-0.1272021
-4.890518	Highness	-0.1210059
-4.890518	Highway	-0.10956
-4.655835	Hilda	-0.1007512
-4.310019	Hill	-0.1224615
-4.890518	Hills	-0.1240248
-4.11997	Hilton	-0.5004351
-4.890518	Himalayas	-0.1070874
-4.397796	His	-0.126232
-4.890518	Histon	-0.1070874
-4.890518	Hitherto	-0.1229391
-4.890518	Hof	-0.1070874
-4.772944	Holborn	-0.08841025
-4.772944	Hold	-0.1687584
-4.310019	Holder	-0.1935344
-4.11997	Holdernesse	-0.3138767
-4.890518	Holdhurst	-0.07609747
-4.890518	Holiness	-0.1221065
-4.890518	Holland	-0.08841025
-4.890518	Hollows	-0.10956
-4.890518	Holly	-0.1263563
-2.949054	Holmes	-0.1696589
-4.890518	Holy	-0.1273578
-4.890518	Honoria	-0.1273618
-4.890518	Honour	-0.10956
-4.655835	Honourable	-0.1781709
-4.890518	Hood	-0.1070874
-4.890518	Hooliganism	-0.1244169
-4.507926	Hope	-0.1390457
-3.75833	Hopkins	-0.2386623
-4.890518	Hopley	-0.12735
-4.655835	Horace	-0.106745
-4.027854	Horner	-0.1848627
-4.890518	Horrified	-0.1218958
-4.397796	Horsham	-0.15778
-4.174571	Hosmer	-0.197494
-4.890518	Hospital	-0.1070874
-4.237036	Hotel	-0.1195105
-4.11997	House	-0.1337431
-4.890518	Houses	-0.1189947
-4.655835	How	-0.1498421
-4.655835	Howells	-0.1252684
-4.772944	However	-0.1421295
-3.781236	Hudson	-0.2063712
-4.507926	Hugh	-0.2462322
-4.890518	Huguenot	-0.1273601
-4.655835	Hullo	-0.2141802
-4.772944	Hum	-0.2345401
-4.890518	Human	-0.1272683
-4.890518	Hungarian	-0.1272877
-4.174571	Hunter	-0.1445307
-4.890518	Huret	-0.1070874
-4.655835	Hurlstone	-0.08142151
-4.890518	Hurrah	-0.1257004
-4.655835	Huxtable	-0.1196075
-4.890518	Hyde	-0.12735
-2.286049	I	-0.4142089
-4.772944	I.	-0.123057
-4.890518	IDENTITY	-0.1271865
-4.507926	II	-0.4015449
-4.890518	II.	-0.1253212
-4.507926	III	-0.4015449
-4.890518	III.	-0.1253212
-4.890518	IMPORTANT	-0.1273618
-4.772944	IN	-0.1273562
-4.890518	IRENE	-0.1273618
-4.507926	IS	-0.1231499
-4.890518	IT	-0.1220101
-4.655835	IV	-0.2766061
-4.890518	IV.	-0.1253212
-4.655835	IX	-0.2766061
-4.890518	IX.	-0.1253212
-4.890518	Identity	-0.1273578
-4.890518	Idiot	-0.1234321
-4.772944	If	-0.1142752
-4.890518	Imagine	-0.1051522
-4.890518	Imitated	-0.10956
-4.890518	Immediately	-0.1272839
-4.772944	Imperial	-0.1273562
-4.772944	Important	-0.1078231
-4.772944	Impossible	-0.1747909
-4.507926	In	-0.1048095
-4.890518	Incidentally	-0.1251139
-4.890518	Incredible	-0.1273618
-4.772944	Indeed	-0.1232379
-4.397796	India	-0.1407884
-4.027854	Indian	-0.1150216
-4.772944	Indians	-0.1062691
-4.890518	Indirectly	-0.1242758
-4.890518	Inference	-0.1253212
-4.507926	Inn	-0.1569422
-4.890518	Inner	-0.1273601
-4.772944	Inquiries	-0.1257962
-4.890518	Inquiry	-0.1241778
-4.890518	Insensibly	-0.1260909
-4.890518	Inside	-0.1238543
-3.781236	Inspector	-0.1601901
-4.772944	Instead	-0.2278344
-4.890518	Interlaken	-0.1070874
-4.890518	International	-0.1070874
-4.890518	Internationals	-0.10956
-4.772944	Interpreter	-0.1070798
-4.890518	Into	-0.1249399
-4.890518	Ionides	-0.1189947
-4.11997	Irene	-0.5404878
-4.890518	Iris	-0.109473
-4.890518	Irish	-0.1273601
-4.890518	Irish-setter	-0.1070874
-4.772944	Is	-0.1589051
-4.507926	Isa	-0.2284256
-4.890518	Islander	-0.1202666
-4.890518	Isle	-0.1189947
-4.174571	It	-0.1573629
-4.071474	Italian	-0.09431179
-4.772944	Italians	-0.1180753
-4.772944	Italy	-0.1117546
-4.890518	Its	-0.1270751
-4.772944	Ivy	-0.1273483
-4.310019	J	-0.2810608
-4.890518	J.	-0.1273601
-4.890518	J.H.N	-0.10956
-4.655835	J.P.	-0.1754947
-4.890518	JABEZ	-0.1273618
-4.890518	JANUARY	-0.1070874
-4.890518	JEPHRO	-0.1273618
-4.890518	JULY	-0.1070874
-4.890518	JUNE	-0.1070874
-4.655835	Jabez	-0.1967597
-4.174571	Jack	-0.1060735
-4.890518	Jack-in-office	-0.1257004
-4.772944	Jackson	-0.1250651
-4.655835	Jacobs	-0.1751225
-3.59327	James	-0.1662312
-4.655835	Jane	-0.1765301
-4.890518	Janet	-0.1273618
-4.655835	January	-0.175295
-4.890518	Japan	-0.10956
-4.772944	Japanese	-0.1273098
-4.772944	Jem	-0.1032721
-4.890518	Jeremiah	-0.1273618
-4.772944	Jeremy	-0.2361998
-4.890518	Jersey	-0.1202666
-4.890518	Jew	-0.1260519
-4.890518	Jewel	-0.1273578
-4.890518	Jezail	-0.1273267
-4.890518	Jingo	-0.1257004
-4.772944	Johann	-0.1240192
-4.772944	Johannesburg	-0.08841025
-3.696077	John	-0.2856224
-4.890518	Johnnie	-0.1251139
-4.890518	Johnson	-0.1070874
-4.890518	Joint	-0.1086732
-4.507926	Jonas	-0.4193154
-4.237036	Jones	-0.1357224
-3.831024	Joseph	-0.1491915
-4.890518	Josiah	-0.1273578
-4.772944	Journal	-0.1267835
-4.655835	Jove	-0.2242283
-4.890518	Jowaki	-0.1273601
-4.890518	Juan	-0.1070874
-4.890518	Jubilee	-0.1070874
-4.772944	Julia	-0.1198927
-4.655835	July	-0.1045476
-4.890518	Jump	-0.09835012
-4.890518	Junction	-0.08841025
-4.237036	June	-0.1541164
-4.890518	Jungle	-0.1070874
-4.890518	Juryman	-0.127093
-4.655835	Just	-0.1169315
-4.890518	Justice	-0.1189947
-4.655835	K	-0.09737336
-4.310019	K.	-0.2986472
-4.890518	K.G.	-0.1070874
-4.890518	KILLED	-0.1273033
-4.890518	KNEW	-0.1234321
-4.772944	KNOW	-0.1202155
-4.507926	Kate	-0.1056601
-4.890518	Keep	-0.1234321
-4.890518	Kemp	-0.1253212
-4.890518	Kennedy	-0.1070874
-4.507926	Kennington	-0.238927
-4.397796	Kensington	-0.1288324
-4.890518	Kensington.	-0.1253212
-4.655835	Kent	-0.1728348
-4.890518	Kentish	-0.1272159
-4.890518	Khalifa	-0.1240131
-4.890518	Khartoum	-0.1070874
-4.890518	Kilburn	-0.08841025
-4.890518	Kill	-0.1242758
-4.890518	Kimberley	-0.1210059
-4.772944	Kindly	-0.1260535
-3.988217	King	-0.1996418
-4.890518	Kirwan	-0.08110093
-4.890518	Klan	-0.106077
-4.772944	Klux	-0.2362015
-4.890518	Knowing	-0.1199107
-4.890518	Known	-0.1210059
-4.890518	Kramm	-0.08841025
-4.655835	Kratides	-0.1578606
-4.890518	Ku	-0.1273601
-4.655835	L	-0.1757195
-4.890518	L.	-0.1273578
-4.890518	L10	-0.1273267
-4.890518	L200	-0.10956
-4.890518	L300	-0.10956
-4.890518	L500	-0.10956
-4.890518	LATER.	-0.1253212
-4.890518	LEAGUE	-0.1248245
-4.890518	LESLIE	-0.1273618
-4.890518	LESTRADE	-0.10956
-4.890518	LIP	-0.1273539
-4.890518	LOUD	-0.1273578
-4.772944	La	-0.1273562
-4.655835	Laburnum	-0.1273466
-4.655835	Lachine	-0.138929
-3.918382	Lady	-0.3844532
-4.890518	Lady-day	-0.1070874
-4.890518	Lancashire	-0.1200806
-4.655835	Lancaster	-0.0884041
-4.507926	Lane	-0.1438504
-4.890518	Langham	-0.1269567
-4.890518	Langmere	-0.1070874
-4.772944	Lanner	-0.08841025
-4.890518	Large	-0.107033
-4.310019	Lascar	-0.1583713
-4.772944	Last	-0.1269167
-4.772944	Lat	-0.2183997
-4.772944	Late	-0.1165238
-4.655835	Latimer	-0.1135638
-4.890518	Lattice-paned	-0.1070874
-4.890518	Lauder	-0.1070874
-4.507926	Leadenhall	-0.4191869
-4.655835	League	-0.08923377
-4.890518	Leaning	-0.1252117
-4.655835	Leatherhead	-0.1357589
-4.772944	Leave	-0.1218742
-4.890518	Leaving	-0.1273422
-4.890518	Lebanon	-0.1070874
-4.397796	Lee	-0.2034666
-4.890518	Left	-0.1252039
-4.890518	Legation	-0.1240248
-4.890518	Legion	-0.1189947
-4.890518	Leone	-0.1269879
-4.772944	Leslie	-0.2361897
-3.510202	Lestrade	-0.2254112
-4.890518	Lesurier	-0.1070874
-4.772944	Let	-0.1431936
-4.890518	Letter	-0.1248908
-4.890518	Leuk	-0.1070874
-4.890518	Leverstoke	-0.1070874
-4.890518	Lewisham	-0.127315
-4.890518	Lexington	-0.1048325
-4.890518	Lhassa	-0.1200806
-4.890518	Liberal	-0.1245619
-4.890518	Lie	-0.1273306
-4.772944	Lieutenant	-0.118985
-4.772944	Light	-0.12398
-4.890518	Light-houses	-0.1070874
-4.890518	Like	-0.122888
-4.890518	Limited	-0.08841025
-4.890518	Lip	-0.1273578
-4.772944	Listen	-0.1698698
-4.890518	Little	-0.1269528
-4.772944	Liverpool	-0.08822939
-4.890518	Living	-0.1202666
-4.890518	Llama	-0.10956
-4.890518	Lloyd	-0.1260519
-4.890518	Local	-0.1273228
-4.655835	Lodge	-0.1247297
-4.890518	Logic	-0.1252156
-4.890518	Lombard	-0.1272021
-3.36215	London	-0.1553298
-4.772944	Londoners	-0.1056639
-4.890518	Lone	-0.1273578
-4.772944	Long	-0.1095501
-4.772944	Look	-0.1483011
-4.890518	Looking	-0.1247815
-3.510202	Lord	-0.486605
-4.890518	Lordship	-0.10956
-4.890518	Lothman	-0.1273578
-4.890518	Louisiana	-0.1070874
-4.397796	Lower	-0.2188136
-4.890518	Lowther	-0.1273601
-4.071474	Lucas	-0.09882715
-4.890518	Lucerne	-0.1070874
-4.890518	Lucky	-0.1264967
-4.890518	Lucretia	-0.1273601
-4.507926	Lucy	-0.1558457
-4.890518	Luke	-0.1260519
-4.890518	Luxembourg	-0.1200806
-4.890518	Lyon	-0.1273578
-4.890518	Lyons	-0.1235403
-4.772944	Lysander	-0.2361998
-4.772944	M	-0.1057089
-4.655835	M.	-0.1765301
-4.890518	M.A.	-0.1070874
-4.890518	MAGAZINE	-0.1273618
-4.890518	MAGNUM	-0.1273618
-4.890518	MAN	-0.1273618
-4.890518	MARCH	-0.1070874
-4.890518	MARY	-0.10956
-4.890518	MAY	-0.1070874
-4.890518	MCFARLANE	-0.1273601
-4.890518	MEET	-0.1273618
-4.890518	MEMOIRS	-0.1273461
-4.890518	MENAGE	-0.1252156
-4.890518	MILVERTON	-0.1070874
-4.890518	MISS	-0.1273578
-4.890518	MORAN	-0.1070874
-4.890518	MORNING	-0.1273618
-4.890518	MR.	-0.1273505
-4.890518	MURDER	-0.1273601
-4.890518	MUST	-0.1269996
-4.772944	MY	-0.1265846
-4.890518	MYSTERY	-0.1273539
-4.772944	MacPherson	-0.08841025
-4.655835	Mackleton	-0.1406656
-4.890518	Madam	-0.1070692
-4.772944	Madame	-0.1070816
-4.890518	Mademoiselle	-0.1260519
-4.890518	Madman	-0.1070874
-4.890518	Madness	-0.1070874
-4.890518	Madrid	-0.1070874
-4.890518	Mafia	-0.08770943
-4.890518	Maggie	-0.1035844
-4.507926	Majesty	-0.1033271
-4.237036	Major	-0.3097904
-4.890518	Major-General	-0.1273539
-4.890518	Make	-0.1239856
-4.890518	Making	-0.1265864
-4.890518	Malay	-0.1273539
-4.890518	Male	-0.12735
-4.890518	Mall	-0.08534045
-4.890518	Malplaquet	-0.1249065
-4.507926	Man	-0.154433
-4.890518	Manchester	-0.1272021
-4.507926	Manor	-0.1958724
-4.890518	Mansions	-0.1070874
-4.772944	Many	-0.1602022
-4.397796	Mapleton	-0.1578226
-4.890518	Marbank	-0.1070874
-4.507926	March	-0.1802505
-4.890518	Marengo	-0.1070874
-4.890518	Margate	-0.1271865
-4.890518	Mark	-0.1234321
-4.890518	Marker	-0.1019659
-4.890518	Market	-0.10956
-4.772944	Married	-0.1256869
-4.890518	Marseilles	-0.1070874
-4.890518	Marsham	-0.1070874
-4.655835	Martin	-0.1185056
-3.858237	Mary	-0.1088524
-4.890518	Marylebone	-0.1273539
-4.507926	Master	-0.1267564
-4.890518	Mathematical	-0.1273618
-4.890518	Matheson	-0.1070874
-4.890518	Mathews	-0.1070874
-4.890518	Matters	-0.1252177
-4.890518	Maudsley	-0.1070874
-4.890518	Maupertuis	-0.1265864
-4.890518	Mauritius	-0.10956
-4.174571	Mawson	-0.415468
-4.310019	May	-0.1097892
-4.772944	Maybe	-0.1196374
-4.772944	Maynooth	-0.09944926
-3.831024	McCarthy	-0.1248893
-4.772944	McCarthys	-0.195452
-4.772944	McCauley	-0.1069999
-3.988217	McFarlane	-0.1545671
-4.890518	McLaren	-0.10956
-4.890518	McQuire	-0.1260519
-4.890518	Meaning	-0.1234321
-4.890518	Meanwhile	-0.0994537
-4.890518	Mecca	-0.1070874
-4.890518	Medical	-0.1273601
-4.890518	Mediterranean	-0.10956
-4.507926	Meiringen	-0.1359392
-4.655835	Melas	-0.0694019
-4.890518	Melbourne	-0.1070874
-4.890518	Memoirs	-0.1238758
-4.655835	Men	-0.1419767
-4.890518	Mendicant	-0.1273618
-4.890518	Meredith	-0.1070874
-4.890518	Mereer	-0.1070874
-4.890518	Merridew	-0.1189947
-4.890518	Merrow	-0.1070874
-4.772944	Merryweather	-0.1302114
-4.890518	Metropolitan	-0.1273267
-4.890518	Meunier	-0.1070874
-4.890518	Mexico	-0.10956
-4.890518	Middle	-0.1273618
-4.890518	Middlesex	-0.08841025
-4.890518	Midland	-0.1273618
-4.890518	Midlands	-0.1060566
-4.890518	Might	-0.1192767
-4.772944	Miles	-0.120075
-4.890518	Millar	-0.08063706
-4.890518	Milner	-0.1200806
-3.677162	Milverton	-0.2016408
-4.890518	Mind	-0.1254698
-4.890518	Minerals	-0.1202666
-4.507926	Minister	-0.09059429
-4.890518	Ministers	-0.1251043
-4.890518	Misfortunes	-0.127093
-3.36215	Miss	-0.4812238
-4.772944	Missing	-0.1070816
-4.890518	Mission	-0.1263329
-4.890518	Mister	-0.1271982
-4.890518	Mistress	-0.1200806
-4.397796	Mitton	-0.1394918
-4.507926	Mme	-0.4015449
-4.890518	Moffat	-0.10956
-4.890518	Molesey	-0.1273539
-3.781236	Monday	-0.316301
-4.890518	Monica	-0.0996443
-4.890518	Monsieur	-0.1273562
-4.772944	Montague	-0.1271925
-4.890518	Montana	-0.1070874
-4.772944	Months	-0.1201184
-4.890518	Montpelier	-0.1070874
-4.890518	Moor	-0.1029632
-4.890518	Moorhouse	-0.1070874
-4.890518	Morally	-0.1070874
-4.071474	Moran	-0.1495204
-4.890518	Morcar	-0.1182762
-4.772944	More	-0.1704782
-4.890518	Morgan	-0.1221065
-3.831024	Moriarty	-0.123452
-4.772944	Morning	-0.1273505
-4.890518	Morris	-0.1085228
-4.772944	Morrison	-0.07996067
-4.237036	Morse	-0.6623184
-4.397796	Mortimer	-0.1403258
-4.655835	Morton	-0.1060138
-4.772944	Most	-0.1188164
-4.890518	Mother	-0.1239995
-4.507926	Moulton	-0.207298
-4.890518	Mount-James	-0.08237837
-4.310019	Mr	-0.5776361
-3.016309	Mr.	-0.4579673
-4.655835	Mrs	-0.2766061
-3.419548	Mrs.	-0.484384
-4.890518	Munich	-0.1221065
-4.655835	Munro	-0.1189139
-4.890518	Munsters	-0.1047896
-4.507926	Murder	-0.1251482
-4.890518	Murdered	-0.1240248
-4.890518	Murillo	-0.1070874
-4.890518	Murphy	-0.09715001
-4.890518	Murray	-0.1070874
-4.655835	Museum	-0.155821
-3.918382	Musgrave	-0.1884996
-4.772944	Musgraves	-0.1243759
-4.890518	Music	-0.1273111
-4.890518	Must	-0.1251139
-4.890518	Mutiny	-0.1069509
-4.772944	My	-0.1413366
-3.951898	Mycroft	-0.2237934
-4.890518	Myrtles	-0.1049432
-4.507926	Mystery	-0.1544289
-4.772944	N	-0.2159271
-4.890518	N'T	-0.126877
-4.890518	N.	-0.1273601
-4.890518	NEVILLE	-0.10956
-4.772944	NN	-0.1197066
-4.890518	NOBLE	-0.1273618
-4.890518	NORTON	-0.1070874
-4.772944	NOT	-0.1270583
-4.890518	NOVEMBER	-0.1070874
-4.890518	NOVO	-0.1200806
-4.890518	Name	-0.1221065
-4.310019	Nancy	-0.1309685
-4.890518	Naples	-0.1070874
-4.397796	Napoleon	-0.09762964
-4.772944	Napoleonic	-0.1273172
-4.890518	Napoleons	-0.10956
-4.890518	Narbonne	-0.1200806
-4.772944	Naturally	-0.1263314
-4.655835	Nature	-0.1010014
-4.655835	Naval	-0.2944079
-4.890518	Nay	-0.1070874
-4.655835	Near	-0.1207357
-4.890518	Nearer	-0.1221065
-4.772944	Nearly	-0.123301
-4.772944	Ned	-0.1202371
-4.890518	Negro	-0.10956
-4.772944	Neill	-0.1174805
-4.772944	Neither	-0.1274757
-4.397796	Neligan	-0.09548641
-4.890518	Nepaul	-0.1271203
-4.890518	Nervous	-0.1273345
-4.890518	Netherland-Sumatra	-0.1273539
-4.772944	Never	-0.07534485
-4.11997	Neville	-0.5184846
-4.397796	New	-0.1721629
-4.772944	Newhaven	-0.1578606
-4.772944	News	-0.2159271
-4.890518	Newton	-0.1260519
-4.772944	Next	-0.1265225
-4.890518	Night	-0.1195124
-4.890518	Nights	-0.1070874
-4.890518	Nihilist	-0.1273345
-4.890518	Nihilists	-0.1070874
-4.890518	Nimes	-0.1070874
-4.237036	No	-0.1346273
-4.890518	Noble	-0.1273618
-4.890518	Nonconformist	-0.12735
-4.772944	None	-0.08642256
-4.772944	Nor	-0.1179905
-4.890518	Norah	-0.1273618
-4.655835	Norbury	-0.1371307
-4.174571	Norfolk	-0.1573093
-4.890518	Norman	-0.1273618
-4.655835	North	-0.12447
-4.890518	Northern	-0.1273539
-4.655835	Northumberland	-0.1964949
-4.772944	Norton	-0.08425229
-4.655835	Norway	-0.1070306
-4.772944	Norwegian	-0.1272937
-4.655835	Norwich	-0.1046091
-4.027854	Norwood	-0.2068843
-4.890518	Nos	-0.10956
-4.772944	Not	-0.122201
-4.655835	Nothing	-0.08514402
-4.890518	Noticed	-0.1270697
-4.890518	Nous	-0.1273618
-4.890518	Nov	-0.10956
-4.890518	Nova	-0.1273618
-4.890518	November	-0.10956
-4.655835	Now	-0.1058834
-4.890518	Nursed	-0.1261065
-4.772944	O	-0.08841025
-4.890518	OCTOBER	-0.1070874
-4.310019	OF	-0.2028487
-4.890518	ONCE	-0.1070874
-4.890518	OPUS	-0.1253212
-4.890518	ORANGE	-0.1273618
-4.890518	OVERTON	-0.10956
-4.890518	Oakington	-0.1265786
-4.655835	Oakshott	-0.1788291
-4.890518	Oberstein	-0.1070874
-4.772944	Obviously	-0.1722898
-4.890518	Occasionally	-0.1242758
-4.890518	Occurrence	-0.1240131
-4.890518	Ocean	-0.1272099
-4.655835	October	-0.0884041
-4.890518	Odd	-0.1070874
-4.890518	Odessa	-0.1202666
-4.655835	Of	-0.1350335
-4.890518	Off	-0.1251139
-4.772944	Office	-0.1206908
-4.890518	Officer	-0.1202666
-4.890518	Often	-0.1242758
-4.507926	Oh	-0.2394894
-4.655835	Old	-0.1239454
-4.071474	Oldacre	-0.1508072
-4.397796	On	-0.1383682
-4.772944	Once	-0.08868781
-4.507926	One	-0.1128882
-4.655835	Only	-0.132049
-4.890518	Open	-0.1242758
-4.890518	Opening	-0.118977
-4.174571	Openshaw	-0.09768098
-4.890518	Opera	-0.1189947
-4.890518	Oporto	-0.10956
-4.890518	Opposite	-0.1229076
-4.772944	Or	-0.0988274
-4.890518	Orange	-0.1273618
-4.890518	Order	-0.1179242
-4.890518	Ordering	-0.1255206
-4.890518	Oriental	-0.1273306
-4.890518	Orientals	-0.1265162
-4.890518	Origin	-0.1189947
-4.772944	Ormstein	-0.2159271
-4.890518	Oscar	-0.1273618
-4.890518	Oscillation	-0.1249065
-4.772944	Other	-0.1270445
-4.890518	Others	-0.1260089
-4.890518	Otherwise	-0.1204489
-4.772944	Our	-0.1362714
-4.890518	Out	-0.1170343
-4.890518	Outrage	-0.10956
-4.890518	Outside	-0.0981878
-4.890518	Over	-0.1199165
-4.310019	Overton	-0.146213
-4.890518	Owe	-0.1257004
-4.890518	Owns	-0.1263329
-3.988217	Oxford	-0.4752008
-4.890518	Oxfordshire	-0.1070874
-4.655835	P	-0.09944327
-4.772944	P.	-0.1273055
-4.890518	P.C	-0.10956
-4.890518	PIPS	-0.1273578
-4.890518	PORTIERE	-0.1240131
-4.890518	POST	-0.1210059
-4.890518	Pa	-0.1271437
-4.772944	Pacific	-0.1273522
-4.397796	Paddington	-0.1118672
-4.890518	Paisley	-0.1273601
-4.890518	Palace	-0.1070874
-4.310019	Pall	-0.5954379
-4.890518	Palladio	-0.10956
-4.655835	Palmer	-0.09803599
-4.890518	Palmer-tyred	-0.1070874
-4.890518	Pals	-0.1189947
-4.890518	Panama	-0.1272722
-4.890518	Pancras	-0.1273422
-4.890518	Paradol	-0.1273618
-4.772944	Paramore	-0.08841025
-4.237036	Paris	-0.1257203
-4.890518	Parisian	-0.1272877
-4.397796	Park	-0.2231094
-4.507926	Parker	-0.1558374
-4.772944	Parliament	-0.1073017
-4.890518	Parr	-0.1070874
-4.890518	Pass	-0.1070874
-4.890518	Passing	-0.126407
-4.890518	Patersons	-0.1202666
-4.890518	Patience	-0.1273306
-4.890518	Patient	-0.1200669
-4.237036	Patrick	-0.2886898
-4.890518	Patterson	-0.1234321
-4.890518	Pattins	-0.10956
-4.507926	Paul	-0.1753893
-4.890518	Paulo	-0.1070874
-4.890518	Peace	-0.1273111
-4.890518	Peak	-0.127241
-4.890518	Peculiar	-0.1253212
-4.890518	Peeping	-0.1260792
-4.890518	Peering	-0.1196234
-4.890518	Penang-lawyer	-0.1273578
-4.890518	Pencils	-0.1070874
-4.890518	Pending	-0.1221065
-4.890518	Pennsylvania	-0.1070874
-4.890518	Pentonville	-0.10956
-4.890518	People	-0.1272099
-4.890518	Perceiving	-0.1239856
-4.027854	Percy	-0.2633775
-4.890518	Perfectly	-0.1264109
-4.772944	Perhaps	-0.1053461
-4.772944	Persia	-0.08841025
-4.655835	Persian	-0.196758
-4.890518	Personally	-0.1251139
-3.831024	Peter	-0.4245813
-4.890518	Petersfield	-0.10956
-4.310019	Peterson	-0.2036392
-4.890518	Petrarch	-0.1070874
-4.890518	Petrified	-0.1238758
-4.890518	Petty	-0.1273618
-4.890518	Ph.D.	-0.1070874
-3.988217	Phelps	-0.2227567
-4.772944	Philadelphia	-0.1095217
-4.890518	Philosophy	-0.1070874
-4.890518	Pickwick	-0.1260519
-4.310019	Pietro	-0.09482034
-4.890518	Pince-Nez	-0.10956
-4.890518	Pink	-0.1273267
-4.890518	Pinkerton	-0.1273461
-4.237036	Pinner	-0.1898831
-4.890518	Pioneers	-0.10956
-4.890518	Pipes	-0.1265864
-4.890518	Pips	-0.1273578
-4.507926	Pitt	-0.4191869
-4.655835	Place	-0.1148548
-4.890518	Plant	-0.1244874
-4.890518	Plantagenet	-0.1272761
-4.890518	Plate	-0.1273578
-4.890518	Platz	-0.1070874
-4.890518	Play	-0.1273383
-4.890518	Please	-0.12699
-4.890518	Plumb	-0.1202666
-4.890518	Plural	-0.1257004
-4.890518	Plymouth	-0.1240131
-4.890518	Poe	-0.1260519
-4.655835	Police	-0.176532
-4.890518	Police-Constable	-0.1273618
-4.890518	Police-constable	-0.1273618
-4.890518	Pollock	-0.1273111
-4.237036	Pompey	-0.1239679
-4.655835	Pondicherry	-0.208484
-4.890518	Pooh	-0.1053406
-4.890518	Pool	-0.08254671
-4.890518	Poor	-0.1267039
-4.397796	Pope	-0.3397972
-4.890518	Portsdown	-0.1273461
-4.890518	Portsmouth	-0.1272371
-4.890518	Portuguese	-0.1273422
-4.772944	Possibly	-0.07952633
-4.772944	Post	-0.1004116
-4.890518	Posted	-0.1272722
-4.890518	Potter	-0.1260519
-4.890518	Powdered	-0.1273383
-4.890518	Prague	-0.1244874
-4.772944	Pray	-0.1654026
-4.890518	Precisely	-0.08736387
-4.655835	Premier	-0.1209363
-4.237036	Prendergast	-0.1309151
-4.890518	Presently	-0.1253155
-4.890518	President	-0.1200806
-4.655835	Press	-0.1056212
-4.772944	Presuming	-0.2322718
-4.772944	Price	-0.1035844
-4.890518	Prima	-0.1273618
-4.772944	Prime	-0.2361936
-4.772944	Prince	-0.1186992
-4.890518	Princess	-0.1070874
-4.890518	Principal	-0.1189947
-4.890518	Pringle	-0.1070874
-4.772944	Priory	-0.1946604
-4.890518	Pritchard	-0.1260089
-4.890518	Private	-0.1273601
-4.890518	Probably	-0.1167534
-4.890518	Problem	-0.1273383
-4.890518	Problems	-0.1269177
-4.890518	Proceed	-0.1070874
-3.805417	Professor	-0.2850982
-4.890518	Promise	-0.1193142
-4.890518	Proosia	-0.1070874
-4.890518	Prosper	-0.10956
-4.890518	Providence	-0.127241
-4.890518	Pshaw	-0.1053406
-4.890518	Public	-0.1273345
-4.890518	Pugilist	-0.10956
-4.772944	Pull	-0.1953521
-4.890518	Pullman	-0.1273618
-4.890518	Punjab	-0.1070874
-4.890518	Purely	-0.1273578
-4.890518	Puritan	-0.1253212
-4.890518	Purple	-0.1273267
-4.772944	Put	-0.1706882
-4.890518	Putting	-0.1237876
-4.772944	Puzzle	-0.1245326
-4.310019	Pycroft	-0.1719844
-4.890518	Pyland	-0.08725569
-4.890518	Queen	-0.1273618
-4.890518	Queer	-0.1272021
-4.772944	Quick	-0.1747909
-4.890518	Quiet	-0.1070874
-4.890518	Quincey	-0.1260519
-4.890518	Quite	-0.1039609
-4.890518	R	-0.1070874
-4.772944	R.	-0.1270134
-4.890518	RED-HEADED	-0.1273618
-4.890518	RETURN	-0.1273461
-4.772944	ROCK	-0.1070652
-4.890518	RUCASTLE	-0.10956
-4.397796	Rachel	-0.3411093
-4.772944	Ragged	-0.2361998
-4.890518	Railway	-0.1070874
-4.890518	Rain	-0.1252
-4.310019	Ralph	-0.2785472
-4.507926	Randall	-0.1027781
-4.772944	Randalls	-0.1035844
-4.890518	Ras	-0.1070874
-4.890518	Rasper	-0.10956
-4.890518	Ratcliff	-0.1273618
-4.772944	Rather	-0.1265438
-4.772944	Read	-0.2331155
-4.071474	Reading	-0.1902836
-4.890518	Really	-0.1053406
-4.890518	Recently	-0.1258684
-4.772944	Red	-0.1272748
-4.772944	Red-headed	-0.1967986
-4.890518	Regency	-0.10956
-4.655835	Regent	-0.1258787
-4.890518	Reginald	-0.127315
-4.772944	Reichenbach	-0.1067146
-4.772944	Reigate	-0.1202592
-4.890518	Relations	-0.1260089
-4.890518	Relieved	-0.1070874
-4.772944	Remember	-0.09710218
-4.890518	Remo	-0.10956
-4.772944	Republican	-0.127286
-4.772944	Resident	-0.2362015
-4.890518	Restaurant	-0.1070874
-4.890518	Results	-0.1268827
-4.890518	Retired	-0.1248908
-4.890518	Return	-0.1273578
-4.890518	Returning	-0.1210059
-4.655835	Reuben	-0.2943844
-4.890518	Reuter	-0.1260519
-4.890518	Rhodesia	-0.10956
-4.890518	Rhodesian	-0.1273578
-4.890518	Rhone	-0.1070874
-4.890518	Rica	-0.1070874
-4.890518	Richard	-0.1273033
-4.890518	Ricoletti	-0.1189947
-4.890518	Riding	-0.1273601
-4.507926	Ridling	-0.4193449
-4.655835	Right	-0.1187752
-4.890518	Ripley	-0.1070874
-4.772944	Ritual	-0.09728146
-4.890518	River	-0.1202666
-4.027854	Road	-0.3721495
-4.890518	Roaring	-0.1273383
-4.655835	Robbery	-0.1788057
-4.655835	Robert	-0.1070226
-4.890518	Robinson	-0.1070874
-4.890518	Rockies	-0.1070874
-4.890518	Roman	-0.1273601
-4.397796	Ronald	-0.3228629
-4.890518	Room	-0.1070874
-4.890518	Rooms	-0.1265786
-4.772944	Rosenlaui	-0.08841025
-4.237036	Ross	-0.1700567
-4.890518	Rothiere	-0.1070874
-4.890518	Rotterdam	-0.10956
-4.890518	Roughly	-0.1273618
-4.890518	Round	-0.1226107
-4.772944	Row	-0.07948489
-4.655835	Royal	-0.1968049
-4.507926	Roylott	-0.1145056
-4.890518	Roylotts	-0.1189947
-4.237036	Rucastle	-0.1207324
-4.772944	Rucastles	-0.123517
-4.890518	Rue	-0.1273618
-4.890518	Rugby	-0.1273461
-4.890518	Rugger	-0.1273461
-4.890518	Run	-0.126407
-4.890518	Running	-0.1261534
-4.890518	Rushing	-0.1262822
-4.772944	Russell	-0.1260189
-4.890518	Russia	-0.1070874
-4.310019	Russian	-0.1100706
-4.890518	Russo-German	-0.1273618
-4.890518	Ruston	-0.08841025
-4.310019	Ryder	-0.1266787
-4.772944	S	-0.1069509
-4.655835	S.	-0.1272101
-4.890518	SAW	-0.1221065
-4.890518	SCANDAL	-0.1273601
-4.655835	SEA	-0.2944079
-4.890518	SEBASTIAN	-0.1070874
-4.890518	SEPTEMBER	-0.1070874
-4.772944	SHERLOCK	-0.2361975
-4.890518	SIMON	-0.10956
-4.890518	SIR	-0.1273601
-4.890518	SL.NE	-0.10956
-4.890518	SLANE	-0.10956
-4.890518	SLANEY	-0.10956
-4.890518	SPECKLED	-0.1273618
-4.890518	ST	-0.10956
-4.890518	STANLEY	-0.1273618
-4.890518	STRAND	-0.1273618
-4.890518	Saddle	-0.1239856
-4.890518	Saffron	-0.1273461
-4.772944	Saltire	-0.07826257
-4.890518	Same	-0.127097
-4.890518	Samuel	-0.10956
-4.507926	San	-0.1783698
-4.890518	Sand	-0.10956
-4.890518	Sandeford	-0.0869326
-4.890518	Sarasate	-0.1273578
-4.027854	Saturday	-0.101778
-4.890518	Saturdays	-0.10956
-4.772944	Saunders	-0.2183997
-4.507926	Savannah	-0.1186126
-4.772944	Save	-0.1475929
-4.890518	Saviour	-0.1260519
-4.507926	Saxe-Coburg	-0.4193193
-4.890518	Saxe-Meningen	-0.1070874
-4.772944	Saxon	-0.127331
-4.890518	Say	-0.1158968
-4.890518	Scala	-0.1070874
-4.890518	Scandal	-0.1202666
-4.890518	Scandinavia	-0.08841025
-4.890518	Scarlet	-0.1070874
-4.890518	Scholarship	-0.10956
-4.890518	School	-0.08841025
-4.890518	Scot	-0.1257004
-4.655835	Scotch	-0.1271168
-4.890518	Scotch-woman	-0.10956
-4.890518	Scotia	-0.1070874
-3.951898	Scotland	-0.6625065
-4.772944	Scott	-0.09968607
-4.890518	Scott_	-0.08028816
-4.890518	Scoundrel	-0.1257004
-4.890518	Scylla	-0.1200806
-4.890518	Sea	-0.10956
-4.890518	Seated	-0.1202666
-4.890518	Sebastian	-0.1273306
-4.772944	Second	-0.1506575
-4.397796	Secretary	-0.1124417
-4.772944	See	-0.1748975
-4.772944	Seeing	-0.1875734
-4.890518	Seems	-0.1210059
-4.890518	Seen	-0.1221065
-4.890518	Seizing	-0.1255206
-4.890518	Seldom	-0.1264949
-4.772944	Send	-0.1203895
-4.890518	September	-0.1070874
-4.507926	Sergeant	-0.1782372
-4.890518	Sergius	-0.1035844
-4.655835	Serpentine	-0.1463814
-4.772944	Serpentine-mews	-0.2159271
-4.890518	Serve	-0.1258254
-4.772944	Served	-0.2291063
-4.890518	Set	-0.1221065
-4.890518	Seven	-0.1254583
-4.772944	Several	-0.09950623
-4.890518	Severn	-0.1070874
-4.890518	Shaftesbury	-0.1273578
-4.772944	Shall	-0.158889
-4.890518	Sharp	-0.1240131
-4.772944	Shaw	-0.1578606
-4.655835	She	-0.09401112
-4.890518	Sheeny	-0.1263329
-4.890518	Sheep-marks	-0.1263173
-3.409439	Sherlock	-0.7785921
-4.890518	Sherpur	-0.1070874
-4.890518	Shetland	-0.1273461
-4.890518	Shillings	-0.1265786
-4.772944	Shipping	-0.1273466
-4.890518	Sholto	-0.1272527
-4.890518	Sholtos	-0.10956
-4.772944	Shortly	-0.2356483
-4.890518	Shot	-0.1267346
-4.772944	Should	-0.1593415
-4.890518	Show	-0.1265981
-4.890518	Showing	-0.1234321
-4.772944	Siberia	-0.08594461
-4.890518	Sidelights	-0.1252117
-4.890518	Sierra	-0.1273618
-4.890518	Sigerson	-0.1070874
-4.890518	Sigismond	-0.1273578
-4.890518	Sign	-0.1189947
-4.890518	Sikhs	-0.1070874
-4.310019	Silas	-0.5954339
-4.071474	Silver	-0.8172867
-4.772944	Simon	-0.06018485
-4.890518	Simply	-0.1252664
-4.11997	Simpson	-0.06594354
-4.772944	Since	-0.1207301
-4.890518	Singleford	-0.1260519
-4.890518	Singularity	-0.1252156
-3.805417	Sir	-0.3528109
-4.772944	Sit	-0.2352467
-4.655835	Six	-0.1258435
-4.507926	Slaney	-0.1251825
-4.890518	Slater	-0.1070874
-4.890518	Sleepy	-0.1273618
-4.890518	Slipping	-0.1267346
-4.890518	Slowly	-0.1128287
-4.890518	Smack	-0.1257004
-4.890518	Small	-0.1070874
-4.890518	Smart	-0.127167
-4.174571	Smith	-0.1920703
-4.890518	Smith-Mortimer	-0.1273383
-4.890518	Snake-catcher	-0.1252156
-4.890518	Snapping	-0.1268047
-4.655835	So	-0.1108067
-4.071474	Soames	-0.1752224
-4.890518	Society	-0.1070874
-4.890518	Sold	-0.1259582
-4.890518	Solitary	-0.1273618
-4.655835	Some	-0.1030659
-4.890518	Somebody	-0.1272955
-4.772944	Someone	-0.1163405
-4.772944	Something	-0.1067271
-4.772944	Sometimes	-0.1479788
-4.890518	Somomy	-0.1273383
-4.890518	Son	-0.1189947
-4.890518	Sooner	-0.1263719
-4.507926	Sophy	-0.1078072
-4.772944	Sorry	-0.2298456
-4.890518	Sound	-0.1245619
-4.174571	South	-0.1516225
-4.655835	Southampton	-0.1040268
-4.772944	Southern	-0.1273443
-4.890518	Southerton	-0.1260519
-4.890518	Southsea	-0.10956
-4.890518	Sovereign	-0.1267268
-4.890518	Spare	-0.1258254
-4.507926	Spaulding	-0.1074741
-4.890518	Speak	-0.1259582
-4.772944	Speaking	-0.1273443
-4.890518	Speckled	-0.1273618
-4.890518	Spence	-0.1273578
-4.890518	Spies	-0.1200806
-4.890518	Splendid	-0.1257004
-4.11997	Square	-0.2483259
-4.890518	Squatted	-0.1252117
-4.772944	St	-0.2183997
-3.887269	St.	-0.2854085
-4.890518	Stain	-0.08826771
-4.890518	Stamford	-0.1070874
-4.890518	Stand	-0.1239466
-4.772944	Standard	-0.08841025
-4.890518	Standing	-0.1180753
-3.951898	Stanley	-0.9311599
-4.655835	Star	-0.128258
-4.772944	Stark	-0.09881683
-4.890518	Stars	-0.1200806
-4.890518	Starving	-0.10956
-4.772944	State	-0.1243113
-4.772944	States	-0.103566
-4.027854	Station	-0.3199561
-4.174571	Staunton	-0.1180109
-4.890518	Stay	-0.1269411
-4.655835	Steiler	-0.1188124
-4.890518	Step	-0.1247755
-4.772944	Stepney	-0.1578606
-4.890518	Stepping	-0.1259582
-4.890518	Stevens	-0.1070874
-4.772944	Stevenson	-0.1048325
-4.772944	Stewart	-0.2159271
-4.890518	Stick	-0.1240131
-4.772944	Still	-0.117124
-4.772944	Stock	-0.2362015
-4.890518	Stock-Broker	-0.1260519
-4.507926	Stoke	-0.4193154
-4.890518	Stolen	-0.08841025
-4.507926	Stoner	-0.138366
-4.772944	Stop	-0.1131508
-4.890518	Stoper	-0.08380501
-3.918382	Straker	-0.1874695
-4.772944	Strand	-0.1093761
-4.890518	Strange	-0.1070874
-4.890518	Stranger	-0.1260519
-4.772944	Strasburg	-0.1095542
-4.655835	Streatham	-0.0989387
-3.419548	Street	-0.2678719
-4.890518	Striding	-0.1267346
-4.890518	Stripes	-0.10956
-4.890518	Strong	-0.1245619
-4.890518	Stroud	-0.1273578
-4.890518	Stuarts	-0.10956
-4.890518	Students	-0.10956
-4.507926	Study	-0.4122515
-4.890518	Subtle	-0.127019
-4.890518	Suburban	-0.1273578
-4.772944	Such	-0.1393775
-4.772944	Suddenly	-0.1139962
-4.890518	Suez	-0.1273618
-4.890518	Summer	-0.1273618
-4.890518	Sunday	-0.1251139
-4.772944	Sunday-school	-0.1270134
-4.890518	Suppose	-0.1177273
-4.890518	Supposing	-0.1234321
-4.890518	Sure	-0.127019
-4.655835	Surely	-0.1093947
-4.890518	Surprise	-0.1241778
-4.310019	Surrey	-0.1039736
-4.237036	Susan	-0.1136762
-4.890518	Suspicion	-0.1188739
-4.397796	Sussex	-0.1484706
-4.772944	Sutherland	-0.0751173
-4.772944	Sutton	-0.08841025
-4.890518	Swain	-0.1069999
-4.890518	Swan	-0.1251903
-4.397796	Swandam	-0.5162488
-4.890518	Sweet	-0.1272332
-4.890518	Swiftly	-0.1177889
-4.890518	Swindon	-0.1070874
-4.655835	Swiss	-0.1250659
-4.772944	Switzerland	-0.1055166
-4.655835	Sydenham	-0.1248476
-4.890518	Sydney	-0.1070874
-4.890518	Syndicate	-0.10956
-4.890518	Syria	-0.1200806
-4.507926	T	-0.1504606
-4.890518	T.	-0.1070874
-4.890518	TELEGRAPH	-0.1070874
-4.772944	THAT	-0.1238386
-4.027854	THE	-0.1762701
-4.890518	THIS	-0.1272839
-4.890518	THUMB	-0.1273578
-4.890518	THY	-0.1273618
-4.890518	TIMES	-0.1070692
-4.507926	TO	-0.1273099
-4.890518	TOWERS	-0.1070874
-4.890518	TRUE	-0.1272099
-4.890518	TWISTED	-0.1273618
-4.890518	TWO	-0.12735
-4.890518	Taciturn	-0.1070874
-4.890518	Tadpole	-0.1272371
-4.772944	Take	-0.1327208
-4.890518	Taking	-0.1221065
-4.890518	Tall	-0.1240248
-4.772944	Tangey	-0.1023496
-4.890518	Tankerville	-0.1070774
-4.890518	Tarleton	-0.12735
-4.890518	Tarlton	-0.08841025
-4.237036	Tavistock	-0.1393041
-4.890518	Technically	-0.1070874
-4.655835	Teddy	-0.1013052
-4.772944	Telegraph	-0.09944926
-4.772944	Tell	-0.1640536
-4.772944	Temple	-0.132466
-4.772944	Ten	-0.177563
-4.890518	Tennessee	-0.1070874
-4.890518	Terai	-0.1273228
-4.655835	Terrace	-0.1192528
-4.772944	Terrible	-0.1256361
-4.890518	Terror	-0.1253212
-4.890518	Terse	-0.1200806
-4.772944	Testament	-0.2159271
-4.890518	Teutonic	-0.1270619
-4.890518	Texas	-0.1070874
-4.890518	Thames	-0.1019656
-4.772944	Thank	-0.1947466
-4.890518	Thanks	-0.1210059
-4.507926	That	-0.08242582
-3.918382	The	-0.1136415
-4.890518	Theatre	-0.10956
-4.772944	Their	-0.1264733
-4.655835	Then	-0.06104919
-4.890518	Thence	-0.1258684
-4.890518	Theological	-0.1273539
-4.890518	Theorem	-0.1070874
-4.890518	Theories	-0.1265864
-4.772944	There	-0.1251559
-4.890518	Therefore	-0.08968458
-4.890518	Therein	-0.1272916
-4.237036	Theresa	-0.1423771
-4.772944	These	-0.1154766
-4.772944	They	-0.1335368
-4.890518	Thick	-0.12735
-4.890518	Things	-0.1238347
-4.772944	Think	-0.169506
-4.772944	Third	-0.1067959
-4.890518	Thirty	-0.1272021
-4.655835	This	-0.08836684
-4.890518	Thoreau	-0.1260519
-4.772944	Thorneycroft	-0.2361975
-4.772944	Thorpe	-0.1939242
-4.772944	Those	-0.1345837
-4.890518	Though	-0.1246522
-4.772944	Threadneedle	-0.2360418
-4.890518	Threatens	-0.1210059
-4.655835	Three	-0.1409937
-4.890518	Three-Quarter	-0.10956
-4.890518	Three-forty	-0.1252156
-4.772944	Through	-0.1881337
-4.890518	Throw	-0.1221065
-4.890518	Thrust	-0.1237091
-4.890518	Thucydides	-0.10956
-4.890518	Thumb	-0.1273578
-4.507926	Thursday	-0.188868
-4.772944	Thurston	-0.1073017
-4.890518	Thus	-0.1245209
-4.890518	Tibet	-0.1070874
-4.890518	Time	-0.1241778
-4.890518	Times	-0.1197026
-4.890518	Tingling	-0.1238758
-4.890518	Tiptoes	-0.1257004
-4.890518	Tired	-0.1273306
-4.890518	Tired-looking	-0.1263719
-4.890518	Title	-0.1200806
-4.655835	To	-0.112194
-4.772944	To-day	-0.1291137
-4.772944	To-morrow	-0.1610642
-4.890518	To-night	-0.1251139
-4.772944	Tobacco	-0.2289203
-4.890518	Tobin	-0.1070874
-4.890518	Together	-0.1259837
-4.11997	Toller	-0.1102738
-4.890518	Tollers	-0.1271865
-4.772944	Too	-0.1669757
-4.890518	Torrington	-0.1273578
-4.890518	Tosca	-0.1253212
-4.507926	Tottenham	-0.4193388
-4.890518	Tottering	-0.1200806
-4.890518	Tower	-0.1189947
-4.890518	Towers	-0.1019656
-4.890518	Trafalgar	-0.1273345
-4.890518	Tragic	-0.1070874
-4.890518	Treasury	-0.1269762
-4.890518	Treaty	-0.106896
-4.890518	Tree	-0.1273618
-4.890518	Tregellis	-0.1070874
-4.655835	Trelawney	-0.2944
-4.890518	Trepoff	-0.1272527
-4.507926	Trevelyan	-0.08839156
-3.887269	Trevor	-0.1529607
-4.890518	Trincomalee	-0.1070874
-4.772944	Trinity	-0.2361936
-4.890518	Triple	-0.1273618
-4.772944	Trumpington	-0.1029302
-4.890518	Trust	-0.1258254
-4.772944	Try	-0.1915512
-4.772944	Tudor	-0.1251982
-4.174571	Tuesday	-0.1940826
-4.890518	Tunbridge	-0.1273618
-4.890518	Turkish	-0.1273422
-4.890518	Turn	-0.1262822
-4.071474	Turner	-0.1967768
-4.890518	Turning	-0.123401
-4.890518	Tuson	-0.08841025
-4.772944	Tut	-0.1747909
-4.890518	Tut-tut	-0.1257004
-4.890518	Twelve	-0.127241
-4.890518	Twenty	-0.1263719
-4.890518	Twenty-four	-0.1273306
-4.890518	Twenty-nine	-0.1070874
-4.890518	Twenty-six	-0.1273601
-4.890518	Twenty-two	-0.1273578
-4.890518	Twice	-0.1227272
-4.890518	Twisted	-0.1273618
-4.772944	Two	-0.152731
-4.890518	U.	-0.1273578
-4.890518	U.S.A.	-0.1270619
-4.890518	UNCLE	-0.127093
-4.890518	UNICORN	-0.08063706
-4.890518	Uffa	-0.1070874
-4.890518	Uncle	-0.1273461
-4.772944	Under	-0.1203086
-4.890518	Under-Secretary	-0.1244874
-4.890518	Underground	-0.1172275
-4.772944	Underneath	-0.1199284
-4.772944	Undoubtedly	-0.1041331
-4.890518	Unemployed	-0.10956
-4.890518	Unfolding	-0.1242758
-4.772944	Unfortunately	-0.1040693
-4.890518	Union	-0.1095298
-4.890518	United	-0.1273601
-4.890518	Universities	-0.1244169
-4.310019	University	-0.08317263
-4.772944	Unless	-0.1175746
-4.890518	Until	-0.1237094
-4.772944	Up	-0.1902648
-4.772944	Upon	-0.2043264
-4.655835	Upper	-0.2943961
-4.890518	Uppingham	-0.1263719
-4.890518	Uriah	-0.1200806
-4.890518	V	-0.1070874
-4.397796	V.	-0.1655448
-4.890518	VALLEY	-0.1273618
-4.890518	VERY	-0.1272761
-4.655835	VI	-0.2766061
-4.890518	VI.	-0.1253212
-4.655835	VII	-0.2766061
-4.890518	VII.	-0.1253212
-4.655835	VIII	-0.2766061
-4.890518	VIII.	-0.1253212
-4.890518	VIOLET	-0.1273578
-4.890518	Vale	-0.1070874
-4.655835	Valley	-0.07673649
-4.890518	Vamberry	-0.1070874
-4.890518	Vast	-0.1273601
-4.890518	Vegetarian	-0.1273618
-4.890518	Venezuelan	-0.1273618
-4.890518	Venner	-0.1273383
-4.772944	Venucci	-0.2159271
-4.890518	Verdes	-0.1260089
-4.772944	Vere	-0.1271458
-4.772944	Verner	-0.1037447
-4.890518	Vernet	-0.1070874
-4.507926	Very	-0.1192908
-4.397796	Victor	-0.1577417
-4.310019	Victoria	-0.1403616
-4.890518	Villa	-0.1272371
-4.890518	Villain	-0.1257004
-4.397796	Vincent	-0.3431461
-4.890518	Violence	-0.1187945
-4.890518	Violet	-0.1070265
-4.890518	Visited	-0.1273601
-4.890518	Vitus	-0.1260519
-4.890518	Voil	-0.1273578
-4.890518	Vol	-0.10956
-4.890518	Volume	-0.1271865
-4.655835	Von	-0.1968066
-4.890518	Vox	-0.1273618
-4.890518	W.	-0.1273601
-4.772944	WAS	-0.1186833
-4.772944	WE	-0.1250007
-4.890518	WERE	-0.1273111
-4.890518	WESTMINSTER	-0.10956
-4.890518	WHEN	-0.1251139
-4.890518	WILSON	-0.1272371
-4.890518	WITH	-0.1273267
-4.772944	Wait	-0.1672475
-4.890518	Waldbaum	-0.1070874
-4.655835	Wales	-0.1578606
-4.890518	Walk	-0.1271748
-4.890518	Wallenstein	-0.1070874
-4.890518	Walsall	-0.1070874
-4.890518	Walsham	-0.1069265
-4.890518	Walsingham	-0.1273422
-4.890518	Want	-0.1257004
-4.890518	Wanted	-0.1070874
-4.655835	War	-0.08807603
-4.890518	Warburton	-0.1260519
-4.890518	Ward	-0.1273578
-4.890518	Wardlaw	-0.1260519
-4.890518	Warm	-0.1257004
-4.772944	Warsaw	-0.1049432
-4.772944	Was	-0.1589545
-4.890518	Water	-0.1070874
-4.890518	Waterbeach	-0.1070874
-4.071474	Waterloo	-0.1992361
-3.858237	Watson	-0.248546
-4.890518	Watt	-0.1272021
-4.507926	We	-0.1429502
-4.890518	Wedding	-0.1270619
-4.890518	Wedlock	-0.12735
-4.310019	Wednesday	-0.1396109
-4.890518	Weiss	-0.1273383
-4.890518	Welbeck	-0.1272021
-4.310019	Well	-0.2556474
-4.890518	Well-known	-0.1273601
-4.890518	Wellington	-0.1272021
-4.890518	Wells	-0.1070874
-4.772944	Welsh	-0.1272665
-4.772944	Were	-0.1423166
-4.772944	Wessex	-0.1273545
-4.890518	West	-0.1273618
-4.890518	West-End	-0.1272761
-4.890518	West-country	-0.1273578
-4.890518	West-end	-0.10956
-4.772944	Westaway	-0.1228526
-4.890518	Westbury	-0.1273345
-4.890518	Western	-0.1273618
-4.772944	Westhouse	-0.236178
-4.507926	Westminster	-0.1628514
-4.890518	Westphail	-0.1070874
-4.890518	Wharf	-0.1070874
-4.507926	What	-0.1042768
-4.772944	Whatever	-0.1156754
-4.655835	When	-0.08553435
-4.655835	Where	-0.1386018
-4.890518	Whether	-0.1216416
-4.772944	Which	-0.1237685
-4.890518	While	-0.1221995
-4.890518	Whip	-0.1262432
-4.397796	Whitehall	-0.2304804
-4.310019	Whitney	-0.1804771
-4.890518	Whittington	-0.10956
-4.772944	Who	-0.1464766
-4.890518	Whoa	-0.1070874
-4.890518	Whoever	-0.1241624
-4.890518	Whole	-0.1272955
-4.772944	Whom	-0.1230119
-4.772944	Whose	-0.1035496
-4.772944	Why	-0.1413128
-4.890518	Wight	-0.10956
-4.890518	Wigmore	-0.1272021
-4.507926	Wilder	-0.1086735
-4.890518	Wilful	-0.1273539
-4.890518	Wilhelm	-0.1273618
-4.772944	Will	-0.1625201
-3.831024	William	-0.2225119
-4.890518	Williams	-0.1057089
-4.310019	Williamson	-0.1147866
-4.310019	Willoughby	-0.5954145
-4.890518	Willows	-0.1272994
-4.237036	Wilson	-0.1906889
-4.890518	Wilton	-0.1273383
-4.890518	Wimpole	-0.1272021
-4.237036	Winchester	-0.1646506
-4.507926	Windibank	-0.1285494
-4.772944	Windigate	-0.09606373
-4.890518	Wire	-0.1267385
-4.772944	With	-0.1240893
-4.890518	Within	-0.11259
-4.772944	Without	-0.1005048
-4.890518	Witness	-0.1270523
-4.890518	Wo	-0.1272839
-4.174571	Woking	-0.1106559
-4.890518	Women	-0.1265864
-4.890518	Wonderful	-0.1257004
-4.397796	Wood	-0.157366
-4.890518	Wooden-leg	-0.1252
-4.890518	Woodhouse	-0.1260519
-3.887269	Woodley	-0.1785526
-4.655835	Woodman	-0.293098
-4.890518	Work	-0.1252156
-4.890518	Working	-0.1238758
-4.890518	Worship	-0.1070874
-4.772944	Worthingdon	-0.2361897
-4.772944	Would	-0.1233189
-4.890518	Wright	-0.1034098
-4.890518	Written	-0.1202666
-4.655835	X	-0.228442
-4.890518	X.	-0.1253212
-4.655835	XI	-0.2766061
-4.890518	XI.	-0.1253212
-4.772944	XII	-0.2183997
-4.890518	XII.	-0.1253212
-4.890518	XIII.	-0.1253212
-4.655835	XXX	-0.1092317
-4.507926	YOU	-0.1061776
-4.890518	Yard	-0.05453247
-4.772944	Yellow	-0.1200335
-4.772944	Yes	-0.123587
-4.772944	Yesterday	-0.08353183
-4.772944	Yet	-0.07281239
-4.890518	York	-0.1260579
-4.507926	You	-0.1289672
-4.890518	Young	-0.1269923
-4.772944	Your	-0.1329227
-4.772944	Yours	-0.1960295
-4.397796	Yoxley	-0.3428929
-4.890518	Zealand	-0.1095239
-4.890518	Zoo	-0.1200806
-4.655835	[	-0.1937126
-4.655835	]	-0.1070593
-4.655835	_Gloria	-0.2944079
-4.772944	_Hotspur_	-0.1070692
-3.380453	``	-0.03459819
-2.110326	a	-0.3190412
-4.890518	a-lying	-0.1202666
-4.890518	a-stampin	-0.1270619
-4.890518	a-walkin	-0.1270619
-4.890518	a.m.	-0.1271865
-4.772944	aback	-0.1045763
-4.507926	abandon	-0.1164621
-4.507926	abandoned	-0.1216398
-4.890518	abandoning	-0.1265864
-4.890518	abandons	-0.1268203
-4.507926	abduction	-0.08869996
-4.890518	abductor	-0.1241778
-4.890518	aberration	-0.1269957
-4.890518	abetted	-0.1252664
-4.655835	abhorrent	-0.1698698
-4.890518	abhors	-0.1245619
-4.890518	abide	-0.1273618
-4.890518	abilities	-0.1019656
-4.397796	ability	-0.1586518
-4.890518	abjure	-0.1252039
-3.887269	able	-0.4825621
-4.890518	able-bodied	-0.1271359
-4.772944	abnormal	-0.0996443
-4.772944	abnormally	-0.1273054
-4.772944	aboard	-0.09786714
-4.772944	abode	-0.2278344
-4.655835	abominable	-0.127105
-4.890518	abomination	-0.10956
-4.890518	abortive	-0.10956
-4.890518	abound	-0.1202666
-2.623568	about	-0.3987043
-3.36215	above	-0.2917576
-4.890518	abrasion	-0.1070874
-4.890518	abreast	-0.1189947
-4.397796	abroad	-0.1239617
-4.310019	abrupt	-0.1056768
-4.655835	abruptly	-0.08551852
-4.890518	abruptness	-0.1189947
-4.890518	absconding	-0.1273461
-3.988217	absence	-0.1491064
-4.237036	absent	-0.1366559
-4.890518	absentees	-0.10956
-3.831024	absolute	-0.1558165
-3.677162	absolutely	-0.1574354
-4.772944	absolved	-0.2337305
-4.890518	absorb	-0.1262783
-4.174571	absorbed	-0.2100518
-4.890518	absorbing	-0.10956
-4.890518	abstract	-0.12735
-4.237036	abstracted	-0.1004015
-4.772944	abstruse	-0.2289203
-3.918382	absurd	-0.07724643
-4.507926	absurdly	-0.2195857
-4.772944	abundant	-0.1273171
-4.772944	abuse	-0.1241368
-4.890518	abusive	-0.1273618
-4.772944	abutted	-0.2340514
-4.507926	abyss	-0.1357718
-4.890518	academic	-0.1273618
-4.890518	acceding	-0.1210059
-4.507926	accent	-0.4015449
-4.890518	accentuated	-0.1260168
-4.310019	accept	-0.1295674
-4.890518	acceptable	-0.1273306
-4.890518	acceptance	-0.1189947
-4.507926	accepted	-0.102908
-4.890518	accepting	-0.1070874
-4.772944	access	-0.2298456
-4.890518	accessories	-0.1070874
-4.890518	accessory	-0.1004195
-3.988217	accident	-0.2183673
-4.655835	accidental	-0.1789923
-4.772944	accidentally	-0.1268575
-4.772944	accidents	-0.1066408
-4.772944	accommodate	-0.1250573
-4.890518	accommodating	-0.1273422
-4.397796	accompanied	-0.2145022
-4.890518	accompaniments	-0.1202666
-4.655835	accompany	-0.1627485
-4.772944	accompanying	-0.1255561
-4.890518	accompli	-0.1240248
-4.507926	accomplice	-0.1727095
-4.772944	accomplish	-0.1076358
-4.655835	accomplished	-0.1250517
-4.890518	accomplishment	-0.10956
-4.772944	accomplishments	-0.1035844
-4.890518	accord	-0.1070874
-4.890518	accordance	-0.1238758
-4.655835	according	-0.288052
-4.772944	accordingly	-0.1093838
-3.4405	account	-0.506349
-4.890518	accountant	-0.1070081
-4.890518	accounted	-0.1244874
-4.11997	accounts	-0.1434923
-4.655835	accumulated	-0.1015425
-4.890518	accumulating	-0.1070874
-4.890518	accumulation	-0.1189947
-4.655835	accuracy	-0.1147563
-4.655835	accurate	-0.1040879
-4.772944	accurately	-0.1220258
-4.772944	accursed	-0.1270349
-4.890518	accusation	-0.1240248
-4.655835	accuse	-0.1220988
-4.397796	accused	-0.1223683
-4.890518	accuser	-0.10956
-4.11997	accustomed	-0.2683472
-4.890518	acetones	-0.1070874
-4.890518	achieved	-0.1269489
-4.890518	achievements	-0.1263836
-4.772944	acid	-0.1045085
-4.890518	acid-faced	-0.1273461
-4.890518	acid-stained	-0.1070874
-4.310019	acknowledge	-0.2874579
-4.890518	acknowledged	-0.1234321
-4.772944	acknowledges	-0.1218761
-3.918382	acquaintance	-0.1963736
-4.890518	acquaintances	-0.1270775
-4.772944	acquainted	-0.2327154
-4.890518	acquiesce	-0.1202666
-4.890518	acquiesced	-0.10956
-4.772944	acquiescence	-0.08841025
-4.890518	acquire	-0.1264109
-4.655835	acquired	-0.1927039
-4.890518	acquirement	-0.1189947
-4.772944	acquiring	-0.1178844
-4.772944	acquitted	-0.1035721
-4.772944	acres	-0.1008334
-4.890518	acrobat	-0.1263719
-3.126073	across	-0.6015163
-3.988217	act	-0.1761637
-3.918382	acted	-0.1920487
-4.11997	acting	-0.1816836
-3.75833	action	-0.1561336
-4.772944	actionable	-0.1044921
-4.310019	actions	-0.1135518
-3.988217	active	-0.1603238
-4.772944	activity	-0.1038475
-4.772944	actor	-0.1047259
-4.772944	actors	-0.1889152
-4.890518	actress	-0.1269567
-4.772944	acts	-0.1161344
-4.655835	actual	-0.1270062
-4.071474	actually	-0.1187028
-4.890518	acumen	-0.1251139
-4.772944	acute	-0.1160029
-4.890518	acutely	-0.1273383
-4.890518	adapt	-0.1268203
-4.890518	adaptable	-0.1273461
-4.507926	adapted	-0.1690091
-4.397796	add	-0.107398
-4.174571	added	-0.09997246
-4.890518	adder	-0.1257004
-4.890518	addicted	-0.1210059
-4.655835	adding	-0.1148044
-4.507926	addition	-0.1212912
-4.890518	additional	-0.1273228
-3.831024	address	-0.2003733
-4.237036	addressed	-0.1732839
-4.890518	addresses	-0.10956
-4.507926	addressing	-0.1071023
-4.890518	adds	-0.1234321
-4.772944	adequate	-0.1094243
-4.890518	adhere	-0.1210059
-4.890518	adhesive	-0.1070874
-4.890518	adjective	-0.1244169
-4.890518	adjectives	-0.1260089
-4.890518	adjoining	-0.1272683
-4.655835	adjusted	-0.1054492
-4.890518	administered	-0.1273033
-4.655835	administration	-0.09923971
-4.174571	admirable	-0.1125402
-4.310019	admirably	-0.1788148
-4.11997	admiration	-0.1886683
-4.655835	admire	-0.1893669
-4.890518	admired	-0.1255206
-4.772944	admirer	-0.1008334
-4.772944	admirers	-0.1231671
-4.655835	admiring	-0.1904189
-4.174571	admit	-0.2022181
-4.772944	admits	-0.1242544
-4.890518	admittance	-0.10956
-4.237036	admitted	-0.1398686
-4.890518	admitting	-0.1239856
-4.890518	ado	-0.1210059
-4.890518	adopt	-0.1264109
-4.772944	adopted	-0.1227149
-4.890518	adorn	-0.1221065
-4.772944	adorned	-0.1082301
-4.890518	adrift	-0.1070874
-4.11997	advance	-0.07438691
-4.071474	advanced	-0.08864604
-4.890518	advances	-0.1210059
-4.772944	advancing	-0.1247637
-4.027854	advantage	-0.1631255
-4.507926	advantages	-0.1128474
-4.890518	advent	-0.1241778
-3.951898	adventure	-0.1726906
-4.237036	adventures	-0.1331795
-4.890518	adventuress	-0.1070874
-4.890518	adventurous	-0.1271787
-4.890518	advertise	-0.106077
-4.772944	advertised	-0.1040099
-3.887269	advertisement	-0.221813
-4.655835	advertisements	-0.100813
-4.772944	advertising	-0.1255032
-3.736572	advice	-0.243448
-4.237036	advise	-0.2824218
-4.507926	advised	-0.100225
-4.772944	adviser	-0.09944926
-4.890518	advises	-0.10956
-4.890518	advocate	-0.1267814
-4.890518	affably	-0.10956
-3.677162	affair	-0.2250388
-4.890518	affaire	-0.1273422
-3.988217	affairs	-0.1754073
-4.772944	affect	-0.1195542
-4.890518	affectation	-0.1070874
-4.310019	affected	-0.1785081
-4.890518	affecting	-0.1210059
-4.397796	affection	-0.1338817
-4.397796	affectionate	-0.08022974
-4.890518	affectionately	-0.1200806
-4.890518	affections	-0.1248908
-4.772944	affliction	-0.1187151
-4.890518	affluent	-0.1273033
-4.174571	afford	-0.1573965
-4.655835	afforded	-0.1203065
-4.772944	afoot	-0.106077
-3.988217	afraid	-0.2178391
-4.890518	afresh	-0.10956
-4.890518	aft	-0.1271904
-2.89083	after	-0.3415248
-4.890518	after-hold	-0.10956
-4.890518	after-taste	-0.1189947
-3.951898	afternoon	-0.1137405
-3.473954	afterwards	-0.1603692
-2.959564	again	-0.3706676
-2.981381	against	-0.5534382
-3.918382	age	-0.2787109
-4.772944	aged	-0.1270994
-4.890518	agencies	-0.10956
-4.397796	agency	-0.1811575
-4.027854	agent	-0.1085627
-4.027854	agents	-0.1802262
-4.890518	aggregate	-0.1210059
-4.890518	aggressive	-0.1272861
-4.890518	aggressively	-0.1272216
-4.890518	agile	-0.1070874
-4.11997	agitated	-0.1244227
-4.027854	agitation	-0.3410293
-3.918382	ago	-0.2214109
-4.890518	agonies	-0.1251139
-4.397796	agony	-0.1321516
-4.397796	agree	-0.4163739
-4.890518	agreeable	-0.10956
-4.071474	agreed	-0.2638761
-4.772944	agreement	-0.1217026
-4.890518	agrees	-0.1238758
-4.772944	agricultural	-0.1070774
-4.890518	ah	-0.1070874
-4.397796	ahead	-0.1896516
-3.988217	aid	-0.1191705
-4.655835	aided	-0.1106177
-4.890518	ails	-0.1254698
-4.772944	aim	-0.1272314
-4.890518	aimed	-0.1240131
-4.772944	aimless	-0.1273522
-4.890518	aims	-0.1272877
-3.578275	air	-0.3438987
-4.655835	air-gun	-0.09752348
-4.772944	air-guns	-0.106077
-4.890518	airs	-0.10956
-4.890518	airy	-0.1270074
-4.890518	aisle	-0.1268554
-4.772944	ajar	-0.1091525
-4.772944	akimbo	-0.2159271
-4.655835	akin	-0.288052
-4.11997	alarm	-0.1806963
-4.507926	alarmed	-0.1370623
-4.890518	alas	-0.1053406
-4.174571	alert	-0.222723
-4.890518	alertness	-0.1189947
-4.890518	alias	-0.10956
-4.890518	alight	-0.1258684
-4.397796	alighted	-0.1518115
-4.890518	alighting	-0.1263173
-4.655835	alike	-0.08475262
-3.831024	alive	-0.2490207
-2.601248	all	-0.2308082
-4.890518	all-comprehensive	-0.1273539
-4.772944	all-important	-0.1022071
-4.772944	all-night	-0.1272704
-4.890518	alleging	-0.1234321
-4.772944	alley	-0.1070652
-4.890518	alleys	-0.1202666
-4.890518	alliance	-0.1244169
-4.890518	allied	-0.10956
-4.890518	allotment	-0.1245619
-4.071474	allow	-0.1520773
-4.397796	allowance	-0.1232121
-3.918382	allowed	-0.1571349
-4.772944	allowing	-0.1207907
-4.772944	allows	-0.1223646
-4.655835	allude	-0.288052
-4.397796	alluded	-0.1500291
-4.237036	allusion	-0.6560287
-4.655835	allusions	-0.288052
-4.772944	ally	-0.2159271
-3.641638	almost	-0.1977494
-3.409439	alone	-0.3072544
-3.409439	along	-0.2875823
-4.237036	aloud	-0.2651598
-4.772944	alphabet	-0.1053406
-3.608802	already	-0.09860059
-3.199604	also	-0.1968494
-4.890518	altar	-0.084545
-4.890518	alter	-0.1221065
-4.890518	alteration	-0.1202666
-4.772944	alterations	-0.0996443
-4.772944	altercation	-0.1090834
-4.655835	altered	-0.1051625
-4.772944	alternate	-0.2360457
-4.772944	alternately	-0.1272065
-4.890518	alternating	-0.1248908
-4.890518	alternation	-0.12691
-4.237036	alternative	-0.1346872
-4.890518	alternatives	-0.1240248
-4.397796	although	-0.1002157
-4.071474	altogether	-0.1217138
-4.890518	aluminium	-0.1273618
-4.890518	aluminum	-0.1273618
-3.380453	always	-0.08320481
-4.174571	am	-0.0170089
-4.890518	amalgam	-0.1244169
-4.890518	amassed	-0.1273033
-4.890518	amassing	-0.1272839
-4.507926	amateur	-0.1054351
-4.772944	amaze	-0.1252021
-4.507926	amazed	-0.1148466
-3.988217	amazement	-0.2684778
-4.310019	amazing	-0.1553055
-4.890518	ambassador	-0.1070874
-4.397796	amber	-0.1931913
-4.890518	ambiguous	-0.1070874
-4.772944	ambition	-0.09944926
-4.890518	ambitions	-0.1260089
-4.890518	ambitious	-0.1070874
-4.890518	ambuscade	-0.10956
-4.772944	amends	-0.1216632
-4.890518	amethyst	-0.1202666
-4.890518	amiability	-0.10956
-4.237036	amiable	-0.09844224
-3.951898	amid	-0.4418042
-4.890518	amidst	-0.1221065
-4.397796	amiss	-0.1772836
-4.890518	ammonia	-0.1200806
-4.890518	ammunition	-0.1272994
-4.890518	amnesty	-0.1202666
-3.175625	among	-0.6808159
-4.890518	amongst	-0.1221065
-4.11997	amount	-0.2201525
-4.655835	amounted	-0.1698698
-4.890518	amounts	-0.1210059
-4.772944	ample	-0.1199323
-4.890518	amplifying	-0.1260675
-4.772944	amply	-0.1273289
-4.890518	amuse	-0.1242839
-4.237036	amused	-0.1192544
-4.310019	amusement	-0.1684194
-4.507926	amusing	-0.09948274
-4.890518	amyl	-0.1070874
-2.675649	an	-0.3156687
-4.890518	anaemic	-0.127315
-4.310019	analysis	-0.2047252
-4.655835	analytical	-0.1272006
-4.772944	analyze	-0.1242387
-4.890518	anatomy	-0.1273618
-4.772944	ancestor	-0.08841025
-4.772944	ancestors	-0.1056639
-4.890518	ancestral	-0.1271826
-4.890518	ancestry	-0.1200806
-4.507926	ancient	-0.1199361
-1.778888	and	-0.02630523
-4.890518	angel	-0.1070874
-4.11997	anger	-0.1900747
-4.310019	angle	-0.1578218
-4.890518	angles	-0.10956
-4.890518	angrily	-0.10956
-4.027854	angry	-0.1245375
-4.890518	anguish	-0.1240131
-4.890518	angular	-0.1273228
-4.027854	animal	-0.09904601
-4.772944	animals	-0.1070244
-4.772944	animated	-0.1094811
-4.890518	animosity	-0.1240248
-4.772944	aniseed	-0.1237994
-4.655835	ankle	-0.121691
-4.890518	ankle-deep	-0.1238758
-4.655835	ankles	-0.1164999
-4.890518	annals	-0.1070874
-4.890518	announce	-0.1232418
-4.11997	announced	-0.1551699
-4.655835	announcement	-0.09478822
-4.310019	annoyance	-0.2553366
-4.507926	annoyed	-0.1525865
-4.890518	annoying	-0.1070874
-4.890518	annoys	-0.1254698
-4.890518	annual	-0.1273228
-4.890518	anoints	-0.1238758
-4.890518	anomaly	-0.1244169
-3.231569	another	-0.1496759
-3.677162	answer	-0.213669
-4.890518	answerable	-0.1210059
-3.608802	answered	-0.25664
-4.310019	answering	-0.1220578
-4.507926	answers	-0.07906809
-4.772944	antagonist	-0.1230001
-4.890518	ante-room	-0.1189947
-4.772944	antecedents	-0.08841025
-4.890518	anteroom	-0.1070874
-4.772944	anticipate	-0.1217047
-4.655835	anticipated	-0.08502732
-4.772944	antics	-0.2278344
-4.890518	antidote	-0.1210059
-4.890518	antiquity	-0.1210059
-4.890518	anxieties	-0.10956
-4.071474	anxiety	-0.1793207
-3.858237	anxious	-0.3048143
-4.772944	anxiously	-0.117339
-2.884818	any	-0.2003167
-4.772944	anybody	-0.1259564
-4.772944	anyhow	-0.1376056
-3.52299	anyone	-0.1655032
-3.164114	anything	-0.2815668
-4.237036	anywhere	-0.1386357
-4.507926	apart	-0.1367196
-4.397796	apartment	-0.2670487
-4.772944	ape	-0.1062977
-4.890518	aperture	-0.08804193
-4.655835	apiece	-0.2274919
-4.772944	apologies	-0.1362781
-4.890518	apologise	-0.1210059
-4.655835	apologize	-0.1735197
-4.890518	apologized	-0.1210059
-4.890518	apologizing	-0.1210059
-4.310019	apology	-0.1325226
-4.890518	apoplexy	-0.10956
-4.890518	appalled	-0.1240131
-4.890518	apparelled	-0.1070874
-4.655835	apparent	-0.1200928
-4.174571	apparently	-0.1070859
-4.772944	apparition	-0.1060647
-4.071474	appeal	-0.2425073
-4.655835	appealed	-0.288052
-4.890518	appealing	-0.1210059
-4.655835	appeals	-0.1898418
-3.781236	appear	-0.3535424
-3.641638	appearance	-0.3218655
-4.772944	appearances	-0.1066163
-3.4405	appeared	-0.3579902
-4.890518	appearing	-0.1210059
-3.805417	appears	-0.4182932
-4.507926	appetite	-0.1563496
-4.772944	applause	-0.08841025
-4.655835	apple	-0.07924345
-4.772944	applicant	-0.1208105
-4.655835	application	-0.09864546
-4.310019	applied	-0.08983058
-4.397796	apply	-0.1559783
-4.772944	applying	-0.1233793
-4.772944	appointed	-0.1269359
-4.027854	appointment	-0.137856
-4.890518	appreciable	-0.1273601
-4.397796	appreciate	-0.1510143
-4.507926	appreciated	-0.1142814
-4.890518	apprehended	-0.10956
-4.890518	apprehension	-0.1070874
-4.890518	apprenticed	-0.1210059
-4.237036	approach	-0.159889
-4.027854	approached	-0.161307
-4.174571	approaching	-0.1227619
-4.772944	appropriate	-0.1233321
-4.890518	approve	-0.10956
-4.655835	approvingly	-0.1776031
-4.890518	apron	-0.10956
-4.890518	apt	-0.1210059
-4.890518	aptitudes	-0.10956
-4.655835	aquiline	-0.1911739
-4.890518	arable	-0.1273306
-4.772944	arbitrary	-0.1187826
-4.890518	arc-and-compass	-0.1273618
-4.890518	archaeologist	-0.1070874
-4.772944	arched	-0.1271068
-4.890518	architects	-0.1070874
-4.890518	architectural	-0.1273601
-4.772944	architecture	-0.1186952
-4.890518	archways	-0.1200806
-4.655835	ardent	-0.103418
-4.890518	arduous	-0.127167
-2.745537	are	-0.1278084
-4.772944	area	-0.1189175
-4.772944	argue	-0.1922833
-4.890518	argued	-0.1234321
-4.890518	argues	-0.1221065
-4.772944	arguing	-0.1040775
-4.071474	argument	-0.1308691
-4.772944	arguments	-0.08841025
-4.772944	aright	-0.1047259
-4.655835	arise	-0.1764299
-4.890518	aristocrat	-0.1234321
-4.310019	aristocratic	-0.1270278
-3.858237	arm	-0.1956423
-4.507926	arm-chair	-0.1413943
-4.310019	armchair	-0.1349558
-4.890518	armchairs	-0.10956
-4.397796	armed	-0.07377422
-4.890518	armor	-0.1240131
-4.890518	armory	-0.1189947
-4.071474	arms	-0.0703566
-4.397796	army	-0.08832588
-4.772944	arose	-0.08841025
-3.951898	around	-0.2480944
-4.507926	arouse	-0.1712069
-3.988217	aroused	-0.1787933
-4.397796	arrange	-0.1371068
-3.988217	arranged	-0.1337429
-4.772944	arrangement	-0.1157428
-4.507926	arrangements	-0.08432107
-4.890518	arranges	-0.1234321
-4.890518	arranging	-0.1252039
-4.772944	array	-0.2278344
-4.890518	arrears	-0.1189947
-4.071474	arrest	-0.09181762
-3.858237	arrested	-0.1992813
-4.507926	arresting	-0.1191122
-4.397796	arrival	-0.109805
-4.174571	arrive	-0.2243948
-3.696077	arrived	-0.2252642
-4.890518	arrives	-0.1070874
-4.890518	arriving	-0.1263173
-4.890518	arrows	-0.1070874
-4.174571	art	-0.1940791
-4.890518	arteries	-0.1244169
-4.890518	artery	-0.10956
-4.174571	article	-0.1164262
-4.071474	articles	-0.1565454
-4.655835	artificial	-0.1272766
-4.772944	artillery	-0.08841025
-4.655835	artist	-0.08562367
-4.772944	artistic	-0.2183997
-4.890518	artists	-0.1070874
-2.191169	as	-0.4816323
-4.772944	ascend	-0.1040775
-4.772944	ascendancy	-0.2351219
-4.071474	ascended	-0.2076923
-4.890518	ascending	-0.1221065
-4.772944	ascertain	-0.08405681
-4.397796	ascertained	-0.1702826
-4.655835	ascertaining	-0.122595
-4.655835	ascetic	-0.1575519
-4.890518	ascetic-looking	-0.1070874
-4.507926	ash	-0.1273226
-4.174571	ashamed	-0.5324262
-4.890518	ashen	-0.1267172
-4.310019	ashes	-0.1050173
-4.890518	ashore	-0.10956
-4.890518	ashy	-0.1272761
-4.071474	aside	-0.1635525
-3.608802	ask	-0.2492276
-4.507926	askance	-0.2355571
-3.677162	asked	-0.1746734
-3.858237	asking	-0.1672609
-4.772944	asks	-0.1065591
-4.027854	asleep	-0.3042742
-4.655835	aspect	-0.1578606
-4.890518	asperities	-0.1189947
-4.772944	asperity	-0.1021595
-4.772944	asphalt	-0.123057
-4.890518	aspired	-0.1210059
-4.890518	ass	-0.1251139
-4.772944	assailant	-0.08841025
-4.890518	assailants	-0.08644333
-4.655835	assassin	-0.1070613
-4.397796	assault	-0.08978584
-4.772944	assaulted	-0.1224709
-4.890518	assaults	-0.1070874
-4.772944	assembled	-0.1196789
-4.655835	assent	-0.1068144
-4.890518	assented	-0.08841025
-4.655835	assert	-0.1906992
-4.772944	asserted	-0.1232968
-4.890518	assertion	-0.1234321
-4.890518	assiduous	-0.1202666
-4.890518	assiduously	-0.1238758
-4.655835	assist	-0.1191262
-3.951898	assistance	-0.2831922
-4.027854	assistant	-0.09149
-4.890518	assistants	-0.1070874
-4.890518	assisted	-0.1221065
-4.655835	assisting	-0.09857477
-4.890518	assizes	-0.1240131
-4.237036	associate	-0.1053465
-4.071474	associated	-0.2640947
-4.655835	associates	-0.1026029
-4.890518	associating	-0.1259738
-4.890518	association	-0.1238758
-4.655835	associations	-0.1716099
-4.890518	assortment	-0.1257004
-4.655835	assume	-0.157364
-4.507926	assumed	-0.1192267
-4.890518	assuming	-0.10956
-4.507926	assurance	-0.1245437
-4.310019	assure	-0.1364899
-3.831024	assured	-0.1702694
-4.890518	assuredly	-0.1272644
-4.507926	assures	-0.4178102
-4.772944	assuring	-0.1253351
-4.890518	asthmatic	-0.1070874
-4.890518	astir	-0.1070874
-4.890518	astonish	-0.1258254
-4.071474	astonished	-0.1288991
-4.772944	astonishing	-0.1067673
-4.890518	astonishingly	-0.1268983
-3.887269	astonishment	-0.206227
-4.890518	astounding	-0.1260909
-4.772944	astrachan	-0.1272782
-4.890518	astrakhan	-0.1260089
-4.890518	astray	-0.10956
-4.890518	astronomers	-0.1265786
-4.890518	astronomy	-0.1070874
-4.890518	astute	-0.1239856
-4.772944	astuteness	-0.109542
-4.890518	asunder	-0.10956
-4.890518	asylum	-0.1070874
-2.113852	at	-0.6525652
-4.890518	atavism	-0.1200806
-4.655835	ate	-0.1547948
-4.772944	athlete	-0.1055638
-4.890518	athletes	-0.1200806
-4.655835	athletic	-0.1269959
-4.310019	atmosphere	-0.2161702
-4.890518	atoms	-0.1269411
-4.890518	atone	-0.1244874
-4.890518	atonement	-0.1244874
-4.890518	atones	-0.1244874
-4.027854	attached	-0.5376078
-4.890518	attaches	-0.1264109
-3.951898	attack	-0.1390569
-4.507926	attacked	-0.1719566
-4.397796	attacks	-0.07441637
-4.772944	attain	-0.1194471
-4.397796	attained	-0.09936874
-4.890518	attainments	-0.10956
-3.831024	attempt	-0.3107843
-4.071474	attempted	-0.1462246
-4.772944	attempting	-0.2298456
-4.397796	attempts	-0.1384685
-4.655835	attend	-0.1864627
-4.507926	attendant	-0.1016274
-4.772944	attended	-0.1174625
-4.772944	attends	-0.1206287
-3.473954	attention	-0.3075764
-4.397796	attentions	-0.1186519
-4.890518	attentive	-0.1261026
-4.890518	attic	-0.1068734
-4.772944	attics	-0.08841025
-4.772944	attire	-0.2159271
-4.772944	attired	-0.1197462
-4.174571	attitude	-0.08017647
-4.890518	attract	-0.1220771
-4.174571	attracted	-0.1687194
-4.890518	attraction	-0.1210059
