
\data\
ngram 1=15398

\1-grams:
-2.622733	!
-4.506511	&
-2.536444	'
-1.781573	''
-5.581732	'16
-5.581732	'45
-5.581732	'55
-5.581732	'60
-5.581732	'77
-5.581732	'82
-5.107487	'83
-5.282857	'84
-5.107487	'85
-5.107487	'87
-5.282857	'89
-5.581732	'90
-4.886216	'95
-5.581732	'97
-4.585619	'A
-5.581732	'About
-5.581732	'Absolute
-5.581732	'Absolutely
-5.581732	'After
-4.439616	'Ah
-5.581732	'Alas
-5.107487	'All
-5.581732	'Almost
-5.581732	'American
-5.581732	'Ample
-4.205661	'And
-5.581732	'Answer
-5.282857	'Any
-5.581732	'Anybody
-5.282857	'Anything
-5.581732	'Apoplexy
-5.282857	'Are
-5.581732	'Arms
-5.282857	'Arthur
-5.581732	'As
-5.581732	'Ask
-5.282857	'At
-5.581732	'Ay
-5.581732	'Baron
-5.581732	'Be
-5.581732	'Because
-5.581732	'Beddoes
-5.581732	'Bless
-5.581732	'Breckinridge
-5.581732	'British
-5.282857	'Brunton
-4.506511	'But
-4.982909	'By
-5.581732	'C.P.R
-5.581732	'COME
-5.107487	'Can
-5.581732	'Catullus
-4.982909	'Certainly
-5.581732	'Co
-5.581732	'Colonel
-4.740335	'Come
-5.581732	'Company
-4.807179	'Cooee
-5.581732	'Crime
-5.581732	'D'you
-5.581732	'DEAR
-5.581732	'Danger
-5.282857	'Dear
-5.581732	'Dearest
-5.581732	'Death
-5.581732	'December
-5.581732	'Did
-4.807179	'Do
-5.581732	'Done
-5.581732	'Drive
-5.581732	'E.B
-5.581732	'ELSIE
-5.581732	'Eg
-5.581732	'Elrige
-5.282857	'Elsie
-5.282857	'Encyclopaedia
-5.581732	'Entirely
-5.581732	'Fire
-5.581732	'Five
-4.682421	'For
-5.581732	'Found
-4.982909	'Frisco
-5.581732	'Fritz
-5.107487	'From
-5.581732	'G
-5.581732	'Gesellschaft
-5.581732	'Go
-5.581732	'Gone
-5.581732	'Good
-5.581732	'Good-evening
-5.581732	'H
-5.581732	'Ha
-5.581732	'Hampshire
-5.581732	'Harold
-4.886216	'Have
-4.544266	'He
-5.581732	'Head-keeper
-5.581732	'Heavy
-5.107487	'Here
-5.581732	'His
-5.581732	'Holdernesse
-5.581732	'Homer
-5.581732	'Hosmer
-4.682421	'How
-5.581732	'Hudson
-5.282857	'Hullo
-5.581732	'Huxtable
-5.581732	'Hyams
-3.51047	'I
-4.631329	'If
-5.581732	'Impossible
-4.982909	'In
-5.581732	'Inspector
-4.807179	'Is
-3.952484	'It
-5.282857	'J.H.N
-5.581732	'Jack
-5.581732	'Jephro
-5.282857	'K
-5.581732	'Keep
-5.581732	'Ku
-5.581732	'L'homme
-5.581732	'Lately
-4.886216	'Let
-5.581732	'Letters
-4.982909	'Lone
-5.282857	'Look
-5.282857	'Lord
-5.581732	'Lost
-5.282857	'MY
-5.581732	'Made
-5.581732	'Mawson
-5.282857	'May
-5.581732	'Most
-5.581732	'Mother
-4.886216	'Mr
-5.581732	'Mrs
-4.585619	'My
-5.581732	'Mysterious
-5.581732	'Neither
-4.886216	'Never
-5.581732	'Next
-4.33054	'No
-5.581732	'Norbury
-5.581732	'North
-4.740335	'Not
-5.581732	'Nothing
-5.282857	'Now
-5.581732	'Oct
-5.107487	'Of
-4.243433	'Oh
-5.581732	'Omne
-4.886216	'On
-5.107487	'One
-4.886216	'Only
-5.282857	'Or
-5.581732	'Over
-5.581732	'P
-5.282857	'P.C
-5.581732	'Papier
-5.581732	'Perfectly
-5.282857	'Perhaps
-5.581732	'Photography
-5.581732	'Pink
-5.107487	'Pon
-5.581732	'Pondicherry
-5.282857	'Pooh
-5.581732	'Pray
-4.982909	'Precisely
-5.581732	'Pretty
-5.282857	'Put
-4.807179	'Quite
-5.581732	'Ragged
-5.282857	'Really
-5.581732	'Remarkable
-5.581732	'Remember
-5.282857	'Right
-5.581732	'Rome
-5.282857	'S
-5.581732	'See
-5.581732	'Seven
-5.282857	'She
-5.581732	'Show
-5.581732	'Singular
-5.581732	'Sir
-4.982909	'So
-5.581732	'Sold
-4.982909	'Some
-5.581732	'Sophy
-5.581732	'Ss
-5.581732	'Stand
-5.581732	'Stolen
-5.581732	'Such
-5.581732	'Sumner
-5.282857	'Surely
-4.807179	'Tell
-5.581732	'Ten
-4.982909	'Thank
-4.33054	'That
-4.123506	'The
-4.506511	'Then
-4.439616	'There
-5.581732	'These
-5.282857	'They
-4.585619	'This
-5.581732	'Three
-5.282857	'To
-5.581732	'Tragedy
-5.282857	'Trust
-4.982909	'Tut
-5.581732	'US
-5.581732	'Under
-5.581732	'Undoubtedly
-5.581732	'Until
-5.107487	'Varsity
-4.807179	'Very
-5.581732	'Wandsworth
-4.544266	'We
-4.154529	'Well
-4.108788	'What
-5.581732	'Whatever
-4.982909	'When
-4.544266	'Where
-5.581732	'Whereas
-5.107487	'Which
-5.107487	'Who
-5.581732	'Whose
-4.33054	'Why
-5.581732	'Within
-5.581732	'Wonderful
-4.263628	'Yes
-3.753481	'You
-5.107487	'Your
-5.581732	'a
-5.581732	'actually
-4.471776	'and
-5.581732	'are
-4.982909	'at
-5.581732	'band
-5.282857	'bus
-4.740335	'but
-5.581732	'can
-4.243433	'd
-5.581732	'death
-5.282857	'did
-5.282857	'e
-5.282857	'em
-5.581732	'first
-5.581732	'fly-paper
-5.282857	'for
-5.581732	'get
-5.581732	'has
-5.581732	'have
-5.581732	'he
-5.581732	'hen-pheasant
-5.581732	'here
-5.581732	'his
-5.107487	'idee
-5.581732	'if
-5.581732	'in
-5.282857	'is
-5.107487	'it
-5.581732	'journeys
-5.581732	'jumping
-5.581732	'learn
-5.581732	'lever
-5.581732	'life
-3.384629	'll
-4.243433	'm
-5.581732	'maybe
-5.581732	'my
-5.581732	'neither
-5.581732	'never
-5.581732	'only
-5.581732	'other
-5.581732	'please
-5.581732	'pology
-5.282857	'quarter
-5.282857	'r
-4.284807	're
-5.581732	'remember
-2.472776	's
-5.581732	'seeing
-5.581732	'sent
-5.581732	'sever
-5.581732	'sir
-5.581732	'suicide
-5.581732	'supply
-5.581732	't
-5.581732	'take
-4.682421	'that
-4.807179	'the
-5.107487	'there
-5.581732	'this
-4.886216	'to
-5.282857	'tween-decks
-5.107487	'twelve
-5.581732	'un
-3.773073	've
-4.886216	'we
-5.581732	'were
-5.581732	'what
-5.282857	'when
-5.282857	'which
-5.581732	'wilful
-5.282857	'with
-5.581732	'would
-5.282857	'ye
-4.471776	'you
-4.544266	(
-4.544266	)
-4.506511	*****
-1.259615	,
-5.581732	-
-2.693954	--
-1.350727	.
-5.282857	...
-5.581732	..E
-5.581732	.ERE
-5.581732	.M
-5.581732	.RE.ARE
-5.282857	1
-5.581732	1/2
-5.581732	10
-5.107487	100
-4.631329	1000
-5.581732	10s
-5.581732	10s.
-5.581732	10th
-5.581732	11.10
-5.581732	1100
-5.282857	117
-5.282857	117th
-5.107487	11:15
-5.581732	11:30
-5.581732	12.22
-5.282857	120
-5.107487	126b
-5.581732	12s
-5.581732	12th
-5.282857	131
-5.581732	13th
-5.581732	14
-5.581732	14,000
-5.581732	140
-5.282857	14th
-5.282857	15
-5.581732	150
-5.282857	16
-5.581732	1607
-5.581732	16A
-5.282857	17
-5.581732	1840
-5.581732	1846
-5.581732	1855
-5.581732	1858
-5.107487	1869
-5.581732	1870
-5.581732	1872
-5.581732	1875
-5.581732	1878
-5.581732	1881
-4.740335	1883
-5.107487	1884
-5.282857	1887
-5.282857	1888
-5.107487	1890
-5.282857	1891
-4.982909	1894
-5.581732	1895
-5.581732	18th
-5.581732	1900
-5.581732	1901
-5.107487	1903
-4.585619	1904
-5.581732	19th
-5.581732	1s.
-5.282857	1st
-4.886216	2
-5.581732	2,000
-5.581732	2.40
-5.581732	20
-5.581732	200
-5.581732	20th
-5.581732	220
-5.581732	221
-5.581732	221B
-5.581732	226
-5.107487	22nd
-5.107487	23d
-5.581732	23rd
-5.581732	2473
-5.581732	249
-5.581732	24th
-5.107487	25
-5.581732	250
-4.982909	26
-5.581732	26s
-4.682421	27
-5.581732	270
-4.982909	28
-5.581732	2nd
-5.282857	2s
-5.282857	3
-5.581732	3.30
-5.581732	3.36
-5.107487	30
-5.282857	30,000
-5.581732	30th
-5.581732	31
-5.581732	3d
-4.982909	3rd
-4.740335	4
-5.581732	40
-5.581732	4000
-5.581732	403
-5.581732	421
-5.581732	426
-5.107487	427
-5.581732	46
-5.581732	4700
-5.581732	4:35
-5.581732	4d
-4.982909	4th
-5.581732	5
-5.581732	50
-5.581732	50,000
-5.581732	5:14
-5.581732	5:15
-5.581732	6
-5.581732	6.30
-5.581732	60
-5.581732	6:30
-5.581732	6d
-5.282857	6d.
-5.107487	6th
-5.581732	7
-5.581732	700
-5.581732	750
-5.581732	7s
-5.282857	7th
-5.581732	88
-5.581732	8d
-5.581732	8s.
-5.581732	8th
-5.581732	9
-5.581732	9.13
-5.581732	9.50
-5.581732	90
-5.282857	9th
-3.482216	:
-2.814459	;
-1.279864	</s>
-99	<s>
-2.256247	?
-3.062294	A
-4.982909	A.
-5.581732	A.E
-5.581732	ABANDON
-5.581732	ABE
-5.581732	ADLER
-4.506511	ADVENTURE
-5.581732	ADVENTURES
-5.581732	ADVISE
-5.581732	AFTER
-5.581732	AGENT
-5.282857	ALIBI
-5.107487	AM
-5.581732	APPLEDORE
-5.581732	APRIL
-5.581732	ARAT
-5.581732	ARMSTRONG
-4.439616	ARTHUR
-5.581732	AT
-5.581732	AUGUST
-5.581732	AUGUSTUS
-4.544266	Abbey
-5.581732	Abbots
-4.740335	Abe
-5.282857	Aberdeen
-5.581732	Abergavenny
-5.581732	Abernetty
-4.381662	About
-4.807179	Above
-5.581732	Absolute
-4.740335	Absolutely
-5.581732	Accepting
-5.581732	According
-5.282857	Accustomed
-5.282857	Across
-4.409673	Acton
-4.439616	Adair
-5.282857	Adams
-5.581732	Add
-5.581732	Addleton
-5.282857	Address
-5.282857	Adelaide
-5.282857	Adelaide-Southampton
-4.409673	Adler
-5.581732	Admirable
-5.282857	Admiralty
-3.895769	Adventure
-5.581732	Affair
-5.282857	Affairs
-5.282857	Afghan
-4.982909	Afghanistan
-5.581732	Afghans
-4.740335	Africa
-4.886216	African
-4.205661	After
-5.107487	Afterwards
-4.18794	Again
-5.282857	Agatha
-5.282857	Agent
-5.581732	Ages
-5.581732	Agra
-3.682909	Ah
-5.581732	Aha
-5.581732	Air
-5.107487	Alas
-5.107487	Albert
-5.581732	Aldersgate
-4.631329	Aldershot
-4.307072	Alec
-5.581732	Alexander
-5.581732	Alexandria
-5.581732	Alexandrian
-5.107487	Alexis
-4.506511	Alice
-5.581732	Alicia
-5.581732	Alighting
-3.815128	All
-5.581732	Allardyce
-5.282857	Allegro
-5.581732	Alliance
-5.581732	Allow
-5.581732	Almighty
-5.581732	Almost
-5.581732	Along
-4.886216	Aloysius
-4.740335	Alpha
-5.581732	Alpine
-4.982909	Alpine-stock
-4.807179	Already
-5.581732	Also
-5.282857	Altogether
-5.581732	Always
-5.581732	Am
-5.282857	Amateur
-5.581732	Amazement
-4.284807	America
-4.284807	American
-5.581732	Americans
-5.107487	Amid
-5.107487	Among
-5.581732	Amoy
-5.581732	Ample
-3.942502	An
-5.581732	Anarchist
-2.996093	And
-5.581732	Andaman
-5.581732	Anderson
-5.581732	Andover
-5.581732	Anerley
-4.263628	Angel
-5.581732	Anglia
-5.581732	Anglo-Indian
-4.982909	Anna
-5.581732	Anne
-4.886216	Annie
-5.581732	Annoyed
-4.807179	Another
-5.581732	Anstruther
-5.581732	Answer
-4.381662	Any
-5.581732	Anybody
-4.682421	Anyhow
-5.107487	Anyone
-4.631329	Anything
-5.581732	Anyway
-5.581732	Apache
-5.581732	Apaches
-5.581732	Apparently
-5.107487	Appledore
-5.282857	Apply
-5.581732	Appreciation
-4.740335	April
-5.581732	Arab
-5.581732	Arabian
-5.107487	Arcade
-5.581732	Arcadia
-5.581732	Archery
-5.282857	Archie
-5.581732	Architecture
-5.282857	Arctic
-4.506511	Are
-5.581732	Argentine
-5.581732	Arizona
-4.807179	Armitage
-5.581732	Armour
-5.282857	Arms
-4.35535	Armstrong
-5.282857	Army
-5.581732	Arnsworth
-5.107487	Arrest
-5.581732	Arson
-5.581732	Art
-4.067408	Arthur
-5.282857	Artillery
-3.259697	As
-5.107487	Ask
-4.740335	Assizes
-5.581732	Assure
-5.581732	Astonishment
-3.455688	At
-5.581732	Athene
-4.886216	Athens
-5.581732	Atkinson
-4.982909	Atlanta
-5.107487	Atlantic
-5.581732	Attica
-5.581732	Auckland
-5.107487	August
-5.581732	Augustine
-4.886216	Augustus
-5.581732	Austerlitz
-4.585619	Australia
-4.982909	Australian
-5.581732	Australians
-5.581732	Author
-5.581732	Aveling
-4.807179	Avenue
-5.581732	Awake
-5.282857	Away
-5.581732	Ay
-5.581732	Aye
-5.581732	Ayrshires
-5.581732	Azure
-4.740335	B
-5.581732	BACHELOR
-5.581732	BALLARAT
-5.581732	BAND
-5.581732	BASS
-5.581732	BEECHES
-5.581732	BERYL
-5.581732	BLUE
-5.581732	BOHEMIA
-5.581732	BOSCOMBE
-5.581732	BOTH
-5.581732	Bachelor
-5.282857	Back
-4.886216	Backwater
-5.107487	Bad
-5.282857	Bagatelle
-3.688372	Baker
-5.282857	Bakers
-5.581732	Baldwin
-4.886216	Ballarat
-4.740335	Balmoral
-5.581732	Balzac
-5.282857	Band
-5.581732	Bangor
-4.807179	Bank
-5.581732	Bankers
-4.224137	Bannister
-5.282857	Bar
-4.054447	Barclay
-5.282857	Barclays
-4.631329	Barnicot
-5.581732	Baron
-5.581732	Barons
-5.581732	Barque
-5.581732	Barrett
-5.581732	Barton
-4.982909	Basil
-5.581732	Basle
-5.581732	Bathsheba
-5.107487	Baxter
-5.581732	Bay
-5.282857	Bayard
-5.581732	Bayswater
-4.740335	Be
-5.581732	Beacons
-4.067408	Because
-5.107487	Becher
-4.886216	Beckenham
-5.282857	Beddington
-4.544266	Beddoes
-4.982909	Beecher
-4.682421	Beeches
-4.544266	Before
-5.581732	Beg
-5.282857	Behind
-5.581732	Being
-5.581732	Belgrade
-5.107487	Bellinger
-5.581732	Belminster
-5.581732	Bengal
-5.581732	Bengalore
-5.581732	Bentinck
-5.581732	Bentley
-4.506511	Beppo
-4.982909	Berkshire
-5.581732	Bermondsey
-5.581732	Bermuda
-5.581732	Bert
-5.581732	Bertillon
-5.282857	Beryl
-4.740335	Beside
-4.205661	Besides
-5.107487	Better
-4.631329	Between
-5.581732	Beverley
-4.807179	Beyond
-5.107487	Bhurtee
-5.581732	Bible
-5.581732	Biddle
-5.581732	Bill
-5.581732	Binomial
-5.581732	Birchmoor
-5.581732	Birds
-4.585619	Birmingham
-5.581732	Bite
-4.381662	Black
-4.740335	Blackheath
-5.581732	Blackwater
-5.581732	Blandford
-4.471776	Blaze
-5.282857	Bless
-4.154529	Blessington
-5.581732	Block
-5.581732	Blood
-5.581732	Bloomsbury
-5.107487	Blue
-5.581732	Blues
-5.107487	Bob
-4.544266	Bohemia
-4.982909	Bohemian
-5.581732	Bohemianism
-5.581732	Bond
-4.682421	Boone
-4.982909	Boots
-5.581732	Bordeaux
-5.581732	Borgia
-5.581732	Borgias
-5.107487	Born
-4.409673	Boscombe
-5.581732	Boswell
-5.581732	Botany
-4.409673	Both
-5.581732	Bought
-5.581732	Boulevard
-5.282857	Bow
-5.581732	Boxer
-4.409673	Brackenstall
-5.581732	Brackwell
-5.282857	Bradshaw
-4.506511	Bradstreet
-5.282857	Brambletye
-4.807179	Breckinridge
-4.740335	Briarbrae
-4.631329	Bridge
-5.282857	Briefly
-5.107487	Bring
-4.544266	Briony
-4.807179	Bristol
-4.807179	Britain
-5.282857	Britannica
-4.33054	British
-4.544266	Brixton
-5.107487	Broads
-5.581732	Broken
-5.581732	Brooding
-4.682421	Brook
-5.282857	Brotherhood
-4.886216	Brothers
-4.631329	Brown
-5.581732	Bruce
-4.224137	Brunton
-5.282857	Brussels
-5.581732	Buda-Pesth
-5.107487	Builder
-5.581732	Buildings
-5.581732	Bull
-5.581732	Bunsen
-5.581732	Bureau
-5.282857	Burglary
-4.740335	Burnwell
-5.581732	Busybody
-2.86259	But
-3.672187	By
-5.581732	By-the-way
-5.107487	C
-5.282857	C.
-5.581732	C.A.M.
-5.581732	C.B.
-5.581732	C.P.R.
-5.282857	CA
-5.107487	CAN
-5.581732	CARBUNCLE
-5.282857	CASE
-5.581732	CHARLES
-5.581732	COLONEL
-4.439616	CONAN
-5.581732	COPPER
-5.581732	CORONET
-5.282857	COULD
-5.581732	COUPLE
-4.807179	Cabinet
-5.581732	Cabul
-4.982909	Cairns
-5.581732	Cal.
-5.581732	Calcutta
-5.282857	Calhoun
-5.107487	California
-5.581732	Californian
-5.581732	Cam
-5.282857	Camberwell
-4.506511	Cambridge
-5.581732	Cambridgeshire
-5.581732	Camden
-5.282857	Campaign
-5.581732	Campden
-4.263628	Can
-5.581732	Canadian
-5.581732	Canal
-5.581732	Cannon
-5.107487	Canterbury
-5.581732	Cape
-4.682421	Capital
-5.581732	Capsules
-4.35535	Captain
-5.581732	Capture
-5.581732	Carbuncle
-5.581732	Card
-5.581732	Cardinal
-5.282857	Carefully
-4.205661	Carey
-5.581732	Carlo
-5.581732	Carlsbad
-5.282857	Carlton
-5.581732	Carolinas
-5.581732	Carried
-4.094552	Carruthers
-5.581732	Carstairs
-5.282857	Carston
-5.282857	Cartwright
-5.282857	Case
-5.581732	Cassel-Felstein
-5.282857	Castle
-5.581732	Cathcart
-5.282857	Catherine
-5.282857	Catholic
-5.581732	Cattle
-5.581732	Caunter
-5.581732	Cavalier
-4.982909	Cavendish
-5.107487	Cedars
-5.581732	Celtic
-5.282857	Central
-4.054447	Certainly
-5.581732	Chair
-5.581732	Chamber
-5.581732	Chance
-5.581732	Chancelleries
-5.581732	Chapel
-5.581732	Charasiab
-4.585619	Charing
-4.263628	Charles
-4.439616	Charlington
-5.581732	Charming
-5.581732	Charybdis
-4.807179	Chatham
-5.581732	Check
-4.886216	Chesterfield
-5.581732	Chesterton
-5.107487	Chicago
-5.581732	Chief
-5.581732	Children
-5.282857	Chiltern
-4.807179	China
-5.282857	Chinese
-5.107487	Chislehurst
-4.982909	Chiswick
-5.581732	Christ
-4.585619	Christmas
-5.107487	Chronicle
-5.282857	Chubb
-4.740335	Church
-5.581732	Cinnamon
-5.282857	Circumstantial
-5.282857	Circus
-4.170913	City
-5.107487	Civil
-4.154529	Clair
-5.107487	Clapham
-5.581732	Clara
-5.581732	Clark
-4.740335	Clay
-5.282857	Clearly
-5.581732	Clerk
-5.282857	Close
-5.581732	Clotilde
-4.740335	Club
-5.581732	Clubs
-5.581732	Clue
-4.740335	Co.
-5.581732	Coarse
-5.581732	Cobb
-5.107487	Coburg
-4.807179	Cock
-5.581732	Cocksure
-5.581732	Coldstream
-5.581732	Collar
-4.886216	College
-3.499658	Colonel
-5.581732	Colonial
-5.581732	Colonies
-5.581732	Colonna
-5.581732	Colony
-3.773073	Come
-5.581732	Coming
-5.581732	Common
-5.581732	Commons
-4.682421	Company
-5.282857	Conan
-5.581732	Concealment
-5.581732	Conduit
-5.581732	Confess
-5.581732	Conk-Singleton
-5.581732	Conquest
-5.107487	Consider
-5.581732	Considering
-5.282857	Constable
-5.581732	Constabulary
-5.581732	Contents
-4.982909	Continent
-5.282857	Continental
-5.581732	Contralto
-5.282857	Convinced
-5.581732	Cooee
-5.581732	Cook
-4.682421	Copper
-5.581732	Coptic
-4.631329	Coram
-4.886216	Cornelius
-5.282857	Cornwall
-4.682421	Coroner
-5.282857	Coronet
-5.581732	Corporal
-5.107487	Corporation
-5.107487	Cosmopolitan
-5.581732	Costa
-4.35535	Could
-5.107487	Count
-4.585619	Countess
-5.282857	Counties
-5.282857	County
-4.631329	Court
-5.107487	Covent
-5.282857	Coventry
-4.807179	Coxon
-5.581732	Crane
-5.581732	Creina
-5.581732	Creole
-5.581732	Crewe
-5.581732	Crime
-5.581732	Crimea
-5.282857	Crimean
-5.282857	Criminal
-5.581732	Criminals
-4.807179	Croker
-5.581732	Crooked
-5.282857	Crooksbury
-5.581732	Crosby
-4.506511	Cross
-5.107487	Crowder
-4.886216	Crown
-5.581732	Crystal
-4.205661	Cubitt
-4.094552	Cunningham
-4.807179	Cunninghams
-4.886216	Cup
-5.581732	Curse
-5.107487	Cusack
-5.581732	Cuvier
-5.282857	Cyclist
-4.585619	Cyril
-5.107487	D
-5.282857	D'you
-5.581732	D.D.
-5.282857	DAILY
-5.581732	DE
-4.982909	DEAR
-5.581732	DEAREST
-5.581732	DEBUTANTE
-5.282857	DECEMBER
-5.581732	DEFINITELY
-5.581732	DETOUR
-5.581732	DID
-5.581732	DISSOLVED
-5.581732	DO
-5.581732	DOES
-4.439616	DOYLE
-5.581732	Dacre
-5.282857	Daily
-5.581732	Damp
-5.282857	Dancing
-5.581732	Dane
-5.581732	Danger
-5.581732	Dantzig
-5.581732	Darjeeling
-5.282857	Dark
-5.581732	Darlington
-4.631329	Dartmoor
-5.581732	Data
-5.581732	Daubensee
-5.282857	Daulat
-5.581732	Davenport
-4.982909	David
-5.581732	Davos
-5.107487	Dawson
-5.581732	Day
-5.581732	De
-4.33054	Dear
-5.282857	December
-5.107487	Deep
-5.581732	Deeply
-5.581732	Dei
-5.107487	Dene
-5.581732	Depend
-4.886216	Derbyshire
-4.886216	Desborough
-5.581732	Describe
-5.581732	Deserted
-5.581732	Desiring
-5.282857	Detective
-5.107487	Devine
-4.982909	Devonshire
-5.282857	Devoy
-3.845612	Did
-5.581732	Dieppe
-5.581732	Dinner
-4.886216	Diogenes
-5.581732	Dirty
-5.282857	Disappearance
-5.581732	Disease
-5.581732	Disgraceful
-5.581732	Disregarding
-5.581732	Division
-5.107487	Dixon
-3.603737	Do
-5.581732	Dock
-5.581732	Dockyard
-4.18794	Doctor
-5.581732	Doctors
-5.581732	Documents
-4.807179	Does
-5.581732	Don
-5.581732	Doncaster
-5.581732	Done
-4.982909	Donnithorpe
-5.282857	Dook
-4.506511	Doran
-5.581732	Dorking
-5.282857	Dovercourt
-5.107487	Down
-5.581732	Downing
-5.581732	Downs
-5.282857	Doyle
-4.982909	Dr
-3.58601	Dr.
-5.581732	Draper
-5.282857	Draw
-5.581732	Drink
-5.581732	Drive
-5.282857	Drop
-5.581732	Dubugue
-4.682421	Duchess
-3.983885	Duke
-5.581732	Dulong
-4.740335	Duncan
-5.581732	Dundas
-4.631329	Dundee
-4.886216	Dunlop
-4.506511	During
-5.282857	Dutch
-4.740335	E
-4.982909	E.
-5.581732	E.C
-5.581732	ELRI.ES
-5.581732	ELSIE
-5.581732	EMPLOYEE
-5.581732	ENGINEER
-5.581732	ESTABLISHED
-5.581732	EVIDENCE
-4.682421	Each
-4.682421	Earl
-5.282857	Early
-5.581732	Easier
-4.807179	East
-5.581732	East-End
-5.581732	East-end
-4.982909	Eastern
-5.581732	Eat
-5.581732	Echo
-5.282857	Edgeware
-4.982909	Edith
-4.682421	Eduardo
-5.581732	Educated
-5.107487	Edward
-4.886216	Effie
-5.581732	Eglonitz
-5.581732	Eglow
-5.581732	Egria
-5.581732	Egypt
-5.107487	Eh
-4.982909	Eight
-5.107487	Either
-5.581732	Electrical
-5.581732	Elementary
-5.581732	Eley
-5.107487	Elias
-5.581732	Elise
-5.581732	Elizabethan
-5.107487	Elrige
-4.585619	Elsie
-5.581732	Embankment
-5.581732	Embassies
-5.107487	Embassy
-5.107487	Emperor
-5.581732	Empire
-5.282857	Empty
-5.107487	Encyclopaedia
-5.107487	End
-5.581732	Endell
-5.581732	Engage
-5.581732	Engaged
-5.581732	Engineer
-3.793592	England
-5.581732	Englischer
-4.108788	English
-4.631329	Englishman
-5.282857	Englishmen
-5.581732	Englishwoman
-5.581732	Enough
-5.581732	Enter
-5.282857	Entirely
-5.581732	Escott
-5.581732	Esq
-5.581732	Esq.
-5.581732	Etherege
-5.107487	Eton
-4.33054	Europe
-4.409673	European
-4.585619	Eustace
-5.581732	Euston
-4.886216	Eva
-5.107487	Evans
-4.138741	Even
-5.282857	Evening
-5.581732	Eventually
-4.33054	Every
-5.282857	Everybody
-5.107487	Everything
-5.581732	Evidence
-4.740335	Evidently
-5.581732	Evil
-5.581732	Ex-President
-4.094552	Exactly
-5.581732	Examine
-5.581732	Exceedingly
-4.138741	Excellent
-4.982909	Except
-5.282857	Exchange
-4.631329	Excuse
-5.581732	Exeter
-5.581732	Exit
-5.581732	Experience
-5.581732	Extremely
-4.631329	Eyford
-5.282857	Ezekiah
-5.581732	F.H.M
-5.581732	FEBRUARY
-5.581732	FIANCEE
-5.581732	FIVE
-5.581732	FRESH
-5.581732	FRIESLAND
-5.282857	FROM
-5.581732	Faber
-5.581732	Face
-5.581732	Faces
-5.581732	Failing
-5.581732	Failure
-5.282857	Fairbank
-5.107487	Fall
-5.282857	Falmouth
-5.581732	Familiar
-5.581732	Family
-5.581732	Fancy
-4.631329	Far
-5.581732	Fareham
-5.581732	Farewell
-5.282857	Farintosh
-4.682421	Farm
-5.581732	Farm-house
-4.631329	Farnham
-5.581732	Farquhar
-5.581732	Farrington
-5.581732	Fashionable
-5.581732	Fate
-5.581732	Father
-4.982909	February
-5.581732	Feeling
-5.282857	Fenchurch
-4.982909	Ferguson
-5.581732	Ferrers
-5.282857	Ferrier
-5.282857	Few
-5.581732	Fifty
-4.807179	Fighting
-5.581732	Filled
-5.581732	Final
-4.284807	Finally
-5.581732	Financial
-5.581732	Find
-5.107487	Finding
-5.581732	Fine
-5.581732	Finns
-4.886216	Fire
-4.682421	First
-4.740335	Fitzroy
-4.544266	Five
-5.581732	Flaubert
-5.107487	Fleet
-4.682421	Flora
-5.581732	Florence
-5.107487	Florida
-5.581732	Flowers
-5.581732	Fly
-5.581732	Folk
-5.581732	Follow
-5.107487	Following
-5.581732	Fool
-5.581732	Footmarks
-5.581732	Footsteps
-3.529111	For
-4.631329	Forbes
-5.581732	Force
-5.107487	Fordham
-5.581732	Fordingbridge
-5.282857	Fordingham
-4.585619	Foreign
-4.982909	Forest
-5.581732	Forgery
-5.581732	Forgive
-5.581732	Formerly
-5.581732	Forrester
-5.581732	Fortescue
-5.581732	Fortunately
-5.581732	Fortune
-5.581732	Found
-4.886216	Four
-4.886216	Fournaye
-4.886216	Fowler
-4.381662	France
-5.107487	Francis
-5.282857	Francisco
-4.886216	Franco-Midland
-5.581732	Franco-Prussian
-4.307072	Frank
-5.282857	Frankly
-4.982909	Fraser
-5.581732	Freebody
-5.282857	Freemason
-5.581732	Freemasonry
-4.108788	French
-5.581732	Frenchman
-5.581732	Frequently
-5.282857	Fresh
-5.282857	Fresno
-4.807179	Friday
-5.282857	Fritz
-3.793592	From
-5.282857	G
-5.282857	GIBRALTAR
-5.581732	GLOBE
-5.581732	GO
-4.585619	GRAPHIC
-5.581732	GUILT
-5.282857	Game
-5.581732	Gang
-5.107487	Garden
-5.581732	Gardens
-5.282857	Gate
-5.581732	Gazetteer
-4.740335	Gelder
-5.282857	Gemmi
-5.107487	General
-5.581732	Geneva
-5.581732	Geneve
-5.581732	Gentlemen
-4.243433	George
-5.282857	Georgia
-4.154529	German
-5.581732	German-speaking
-5.581732	Germans
-4.682421	Get
-5.282857	Getting
-5.581732	Gigantic
-4.439616	Gilchrist
-5.282857	Gill
-4.471776	Give
-5.581732	Giving
-5.282857	Gladstone
-5.282857	Glancing
-5.581732	Globe
-4.982909	Gloria
-5.581732	Gloves
-5.282857	Go
-3.793592	God
-3.973164	Godfrey
-4.585619	Godolphin
-5.581732	Gold
-5.282857	Golden
-4.886216	Gone
-4.054447	Good
-5.282857	Good-afternoon
-5.282857	Good-by
-4.740335	Good-bye
-4.982909	Good-day
-4.982909	Good-evening
-5.107487	Good-morning
-4.982909	Good-night
-5.282857	Goodge
-5.581732	Goodwins
-4.982909	Gordon
-5.107487	Gorot
-5.282857	Got
-5.581732	Gothic
-5.581732	Gottsreich
-5.282857	Government
-5.581732	Governor
-4.067408	Grace
-5.581732	Gradually
-5.581732	Graham
-5.581732	Grand
-4.544266	Grange
-4.740335	Grant
-5.581732	Granting
-5.581732	Grave
-4.982909	Gravesend
-5.581732	Gray
-4.631329	Great
-4.982909	Grecian
-5.107487	Greece
-4.284807	Greek
-5.581732	Greenwich
-4.631329	Gregory
-5.282857	Gregson
-5.581732	Grenoble
-5.581732	Gresham
-5.581732	Grice
-4.682421	Grimesby
-5.581732	Grit
-5.581732	Groat
-5.581732	Gross
-4.982909	Grosvenor
-5.581732	Grove
-5.282857	Guards
-5.282857	Guild
-5.581732	Gustave
-4.807179	H
-4.886216	H.
-5.107487	HAD
-5.581732	HAMPSTEAD
-5.581732	HAND
-5.282857	HAVE
-5.581732	HE
-5.282857	HERE
-5.581732	HIM
-4.263628	HOLMES
-5.581732	HOPKINS
-5.107487	HUNTER
-4.224137	Ha
-4.33054	Had
-5.581732	Hafiz
-5.581732	Hague
-4.682421	Half
-5.282857	Half-past
-5.581732	Halfway
-5.581732	Halifax
-3.869967	Hall
-5.282857	Hallamshire
-4.506511	Halloa
-5.581732	Ham
-5.107487	Hammersmith
-4.807179	Hampshire
-4.807179	Hampstead
-5.581732	Handsome
-5.581732	Hankey
-5.282857	Hanover
-5.581732	Harden
-4.631329	Harding
-5.107487	Hardly
-4.886216	Hardware
-4.982909	Hardy
-5.581732	Hare
-5.581732	Hargreave
-4.506511	Harker
-5.282857	Harley
-4.807179	Harold
-5.581732	Harpooner
-5.107487	Harris
-4.284807	Harrison
-5.107487	Harrow
-4.982909	Harry
-4.471776	Has
-4.33054	Hatherley
-5.107487	Hatty
-5.581732	Havana
-3.766444	Have
-4.243433	Having
-5.581732	Hay
-4.381662	Hayes
-5.581732	Hayling
-5.107487	Hayter
-5.581732	Hayward
-2.566518	He
-5.581732	Head
-5.581732	Head-keeper
-4.740335	Heath
-4.243433	Heaven
-5.107487	Heavens
-5.581732	Heavy
-5.581732	Hebrew
-5.107487	Hebron
-4.982909	Hector
-5.581732	Heh
-4.807179	Heidegger
-5.581732	Heir
-4.982909	Helen
-4.982909	Help
-5.107487	Hence
-5.107487	Henri
-4.35535	Henry
-3.994878	Her
-5.282857	Hercules
-5.282857	Herder
-3.622219	Here
-5.282857	Hereford
-5.282857	Herefordshire
-5.581732	Herr
-5.581732	Hers
-5.107487	High
-5.581732	Highness
-5.581732	Highway
-4.506511	Hilda
-4.740335	Hill
-5.581732	Hills
-4.18794	Hilton
-5.581732	Himalayas
-3.285002	His
-5.581732	Histon
-5.282857	Hitherto
-5.581732	Hof
-5.282857	Holborn
-4.886216	Hold
-4.33054	Holder
-4.33054	Holdernesse
-4.439616	Holdhurst
-5.581732	Holiness
-5.282857	Holland
-5.581732	Hollows
-5.581732	Holly
-2.397403	Holmes
-5.581732	Holy
-5.581732	Honoria
-5.581732	Honour
-4.740335	Honourable
-5.581732	Hood
-5.581732	Hooliganism
-4.544266	Hope
-3.699507	Hopkins
-5.581732	Hopley
-4.682421	Horace
-4.471776	Horner
-5.282857	Horrified
-4.585619	Horsham
-4.243433	Hosmer
-5.581732	Hospital
-4.585619	Hotel
-4.409673	House
-5.581732	Houses
-3.517831	How
-4.807179	Howells
-4.017735	However
-3.932745	Hudson
-4.886216	Hugh
-5.581732	Huguenot
-4.807179	Hullo
-4.33054	Hum
-5.581732	Human
-5.581732	Hungarian
-4.170913	Hunter
-5.581732	Huret
-4.631329	Hurlstone
-5.581732	Hurrah
-4.307072	Huxtable
-5.581732	Hyde
-1.666766	I
-5.282857	I.
-5.581732	IDENTITY
-4.982909	II
-5.581732	II.
-4.982909	III
-5.581732	III.
-5.581732	IMPORTANT
-5.282857	IN
-5.581732	IRENE
-4.886216	IS
-4.982909	IT
-5.107487	IV
-5.581732	IV.
-5.107487	IX
-5.581732	IX.
-5.581732	Identity
-5.581732	Idiot
-3.2281	If
-5.107487	Imagine
-5.581732	Imitated
-5.581732	Immediately
-5.282857	Imperial
-5.282857	Important
-4.886216	Impossible
-3.224307	In
-5.581732	Incidentally
-5.581732	Incredible
-4.170913	Indeed
-4.471776	India
-4.307072	Indian
-5.282857	Indians
-5.581732	Indirectly
-5.581732	Inference
-4.740335	Inn
-5.581732	Inner
-5.282857	Inquiries
-5.581732	Inquiry
-5.581732	Insensibly
-5.107487	Inside
-3.682909	Inspector
-5.107487	Instead
-5.581732	Interlaken
-5.581732	International
-5.581732	Internationals
-5.282857	Interpreter
-4.982909	Into
-5.581732	Ionides
-4.381662	Irene
-5.282857	Iris
-5.581732	Irish
-5.581732	Irish-setter
-3.85358	Is
-4.982909	Isa
-5.581732	Islander
-5.581732	Isle
-2.520844	It
-4.409673	Italian
-5.282857	Italians
-5.282857	Italy
-4.682421	Its
-5.282857	Ivy
-4.807179	J
-5.581732	J.
-5.581732	J.H.N
-5.107487	J.P.
-5.581732	JABEZ
-5.581732	JANUARY
-5.581732	JEPHRO
-5.581732	JULY
-5.581732	JUNE
-4.585619	Jabez
-4.33054	Jack
-5.581732	Jack-in-office
-5.282857	Jackson
-5.107487	Jacobs
-3.822551	James
-5.107487	Jane
-5.581732	Janet
-4.807179	January
-5.581732	Japan
-4.886216	Japanese
-4.982909	Jem
-5.581732	Jeremiah
-5.282857	Jeremy
-5.581732	Jersey
-5.581732	Jew
-5.581732	Jewel
-5.581732	Jezail
-5.581732	Jingo
-5.282857	Johann
-5.282857	Johannesburg
-3.878398	John
-5.581732	Johnnie
-5.581732	Johnson
-5.282857	Joint
-4.471776	Jonas
-4.544266	Jones
-4.205661	Joseph
-5.282857	Josiah
-5.282857	Journal
-4.506511	Jove
-5.581732	Jowaki
-5.581732	Juan
-5.581732	Jubilee
-5.107487	Julia
-5.107487	July
-5.107487	Jump
-5.107487	Junction
-4.631329	June
-5.581732	Jungle
-5.581732	Juryman
-4.080768	Just
-5.581732	Justice
-4.982909	K
-4.409673	K.
-5.581732	K.G.
-5.581732	KILLED
-5.581732	KNEW
-5.107487	KNOW
-4.982909	Kate
-5.581732	Keep
-5.581732	Kemp
-5.581732	Kennedy
-4.807179	Kennington
-4.631329	Kensington
-5.581732	Kensington.
-4.740335	Kent
-5.282857	Kentish
-5.581732	Khalifa
-5.581732	Khartoum
-5.107487	Kilburn
-5.581732	Kill
-5.581732	Kimberley
-4.544266	Kindly
-3.973164	King
-4.807179	Kirwan
-5.282857	Klan
-5.282857	Klux
-5.107487	Knowing
-5.581732	Known
-5.282857	Kramm
-5.107487	Kratides
-5.581732	Ku
-5.107487	L
-5.581732	L.
-5.581732	L10
-5.581732	L200
-5.581732	L300
-5.581732	L500
-5.581732	LATER.
-5.107487	LEAGUE
-5.581732	LESLIE
-5.581732	LESTRADE
-5.581732	LIP
-5.581732	LOUD
-5.282857	La
-5.107487	Laburnum
-4.982909	Lachine
-4.041862	Lady
-5.581732	Lady-day
-5.581732	Lancashire
-4.982909	Lancaster
-4.35535	Lane
-5.581732	Langham
-5.581732	Langmere
-5.282857	Lanner
-5.107487	Large
-4.506511	Lascar
-4.807179	Last
-5.282857	Lat
-5.107487	Late
-4.740335	Latimer
-5.581732	Lattice-paned
-5.581732	Lauder
-4.886216	Leadenhall
-4.471776	League
-5.581732	Leaning
-4.982909	Leatherhead
-5.107487	Leave
-5.581732	Leaving
-5.581732	Lebanon
-4.544266	Lee
-5.581732	Left
-5.581732	Legation
-5.581732	Legion
-5.581732	Leone
-4.807179	Leslie
-3.430687	Lestrade
-5.581732	Lesurier
-3.747142	Let
-5.581732	Letter
-5.581732	Leuk
-5.581732	Leverstoke
-5.581732	Lewisham
-5.282857	Lexington
-5.581732	Lhassa
-5.581732	Liberal
-5.581732	Lie
-5.282857	Lieutenant
-5.282857	Light
-5.581732	Light-houses
-5.282857	Like
-4.982909	Limited
-5.581732	Lip
-4.886216	Listen
-5.581732	Little
-4.886216	Liverpool
-5.581732	Living
-5.581732	Llama
-5.581732	Lloyd
-5.581732	Local
-4.471776	Lodge
-5.581732	Logic
-5.581732	Lombard
-3.338056	London
-5.282857	Londoners
-5.282857	Lone
-5.282857	Long
-4.205661	Look
-4.982909	Looking
-3.608284	Lord
-5.581732	Lordship
-5.581732	Lothman
-5.581732	Louisiana
-4.585619	Lower
-5.282857	Lowther
-4.284807	Lucas
-5.581732	Lucerne
-5.581732	Lucky
-5.581732	Lucretia
-4.982909	Lucy
-5.107487	Luke
-5.581732	Luxembourg
-5.581732	Lyon
-5.282857	Lyons
-4.740335	Lysander
-5.282857	M
-5.107487	M.
-5.581732	M.A.
-4.471776	MAGAZINE
-5.581732	MAGNUM
-5.581732	MAN
-5.581732	MARCH
-5.581732	MARY
-5.581732	MAY
-5.581732	MCFARLANE
-5.581732	MEET
-5.581732	MEMOIRS
-5.581732	MENAGE
-5.581732	MILVERTON
-5.581732	MISS
-5.581732	MORAN
-5.581732	MORNING
-4.982909	MR.
-5.581732	MURDER
-5.581732	MUST
-5.107487	MY
-5.581732	MYSTERY
-5.282857	MacPherson
-4.886216	Mackleton
-5.107487	Madam
-5.282857	Madame
-5.581732	Mademoiselle
-5.581732	Madman
-5.581732	Madness
-5.581732	Madrid
-5.107487	Mafia
-5.282857	Maggie
-4.307072	Majesty
-4.740335	Major
-5.581732	Major-General
-5.282857	Make
-5.581732	Making
-5.581732	Malay
-5.581732	Male
-4.631329	Mall
-5.581732	Malplaquet
-4.982909	Man
-5.581732	Manchester
-4.682421	Manor
-5.581732	Mansions
-4.740335	Many
-4.471776	Mapleton
-5.282857	Marbank
-4.807179	March
-5.581732	Marengo
-5.581732	Margate
-5.581732	Mark
-4.807179	Marker
-5.581732	Market
-5.282857	Married
-5.581732	Marseilles
-5.581732	Marsham
-4.506511	Martin
-4.094552	Mary
-5.581732	Marylebone
-4.982909	Master
-5.581732	Mathematical
-5.581732	Matheson
-5.581732	Mathews
-5.282857	Matters
-5.581732	Maudsley
-5.581732	Maupertuis
-5.581732	Mauritius
-4.35535	Mawson
-4.243433	May
-4.886216	Maybe
-5.282857	Maynooth
-4.017735	McCarthy
-5.107487	McCarthys
-5.282857	McCauley
-4.18794	McFarlane
-5.581732	McLaren
-5.581732	McQuire
-5.581732	Meaning
-4.409673	Meanwhile
-5.581732	Mecca
-5.581732	Medical
-5.581732	Mediterranean
-4.886216	Meiringen
-4.307072	Melas
-5.581732	Melbourne
-5.581732	Memoirs
-4.807179	Men
-5.581732	Mendicant
-5.581732	Meredith
-5.581732	Mereer
-5.581732	Merridew
-5.581732	Merrow
-4.506511	Merryweather
-5.581732	Metropolitan
-5.581732	Meunier
-5.581732	Mexico
-5.581732	Middle
-5.282857	Middlesex
-5.581732	Midland
-5.282857	Midlands
-4.471776	Might
-5.282857	Miles
-4.886216	Millar
-5.581732	Milner
-3.973164	Milverton
-5.581732	Mind
-5.581732	Minerals
-4.506511	Minister
-5.282857	Ministers
-5.581732	Misfortunes
-3.536797	Miss
-5.107487	Missing
-5.581732	Mission
-5.581732	Mister
-5.581732	Mistress
-4.807179	Mitton
-4.982909	Mme
-5.581732	Moffat
-5.581732	Molesey
-3.913863	Monday
-5.107487	Monica
-5.282857	Monsieur
-5.107487	Montague
-5.581732	Montana
-5.282857	Months
-5.581732	Montpelier
-5.282857	Moor
-5.581732	Moorhouse
-5.581732	Morally
-4.123506	Moran
-4.982909	Morcar
-4.740335	More
-5.581732	Morgan
-4.017735	Moriarty
-5.107487	Morning
-5.282857	Morris
-4.682421	Morrison
-4.631329	Morse
-4.886216	Mortimer
-4.982909	Morton
-4.886216	Most
-5.282857	Mother
-4.982909	Moulton
-4.506511	Mount-James
-3.822551	Mr
-2.679175	Mr.
-4.982909	Mrs
-3.560707	Mrs.
-5.581732	Munich
-4.585619	Munro
-5.107487	Munsters
-4.740335	Murder
-5.581732	Murdered
-5.581732	Murillo
-4.982909	Murphy
-5.581732	Murray
-4.982909	Museum
-4.154529	Musgrave
-5.282857	Musgraves
-5.581732	Music
-5.581732	Must
-5.107487	Mutiny
-3.198646	My
-4.138741	Mycroft
-5.282857	Myrtles
-4.886216	Mystery
-5.282857	N
-5.282857	N'T
-5.581732	N.
-5.581732	NEVILLE
-5.282857	NN
-5.581732	NOBLE
-5.581732	NORTON
-5.107487	NOT
-5.581732	NOVEMBER
-5.581732	NOVO
-5.581732	Name
-4.807179	Nancy
-5.581732	Naples
-4.409673	Napoleon
-5.282857	Napoleonic
-5.282857	Napoleons
-5.581732	Narbonne
-4.807179	Naturally
-4.886216	Nature
-5.107487	Naval
-5.282857	Nay
-4.807179	Near
-5.581732	Nearer
-4.886216	Nearly
-5.282857	Ned
-5.581732	Negro
-5.107487	Neill
-4.740335	Neither
-4.631329	Neligan
-5.581732	Nepaul
-5.581732	Nervous
-5.581732	Netherland-Sumatra
-4.224137	Never
-4.33054	Neville
-4.544266	New
-5.107487	Newhaven
-5.282857	News
-5.581732	Newton
-4.807179	Next
-5.282857	Night
-5.581732	Nights
-5.581732	Nihilist
-5.581732	Nihilists
-5.581732	Nimes
-3.116217	No
-5.581732	Noble
-5.581732	Nonconformist
-4.33054	None
-4.682421	Nor
-5.581732	Norah
-4.886216	Norbury
-4.33054	Norfolk
-5.581732	Norman
-4.585619	North
-5.581732	Northern
-5.107487	Northumberland
-4.807179	Norton
-5.107487	Norway
-5.282857	Norwegian
-5.107487	Norwich
-4.307072	Norwood
-5.581732	Nos
-3.800653	Not
-3.942502	Nothing
-5.581732	Noticed
-5.581732	Nous
-5.581732	Nov
-5.581732	Nova
-5.581732	November
-3.338056	Now
-5.581732	Nursed
-4.982909	O
-5.581732	OCTOBER
-4.18794	OF
-5.581732	ONCE
-5.581732	OPUS
-5.581732	ORANGE
-5.581732	OVERTON
-5.581732	Oakington
-4.740335	Oakshott
-5.581732	Oberstein
-4.982909	Obviously
-5.581732	Occasionally
-5.581732	Occurrence
-5.581732	Ocean
-5.107487	October
-5.581732	Odd
-5.581732	Odessa
-3.666923	Of
-5.581732	Off
-4.585619	Office
-5.581732	Officer
-5.581732	Often
-3.47543	Oh
-4.409673	Old
-4.170913	Oldacre
-3.439895	On
-4.471776	Once
-3.626965	One
-4.123506	Only
-5.581732	Open
-5.282857	Opening
-4.381662	Openshaw
-5.581732	Opera
-5.581732	Oporto
-5.282857	Opposite
-4.506511	Or
-5.581732	Orange
-5.282857	Order
-5.581732	Ordering
-5.581732	Oriental
-5.581732	Orientals
-5.581732	Origin
-5.282857	Ormstein
-5.581732	Oscar
-5.581732	Oscillation
-5.282857	Other
-5.581732	Others
-5.107487	Otherwise
-3.766444	Our
-4.682421	Out
-5.581732	Outrage
-4.886216	Outside
-4.982909	Over
-4.439616	Overton
-5.581732	Owe
-5.581732	Owns
-4.409673	Oxford
-5.581732	Oxfordshire
-5.107487	P
-5.282857	P.
-5.581732	P.C
-5.581732	PIPS
-5.581732	PORTIERE
-5.581732	POST
-5.581732	Pa
-5.282857	Pacific
-4.585619	Paddington
-5.581732	Paisley
-5.581732	Palace
-4.631329	Pall
-5.581732	Palladio
-4.886216	Palmer
-5.581732	Palmer-tyred
-5.581732	Pals
-5.581732	Panama
-5.581732	Pancras
-5.581732	Paradol
-5.282857	Paramore
-4.471776	Paris
-5.581732	Parisian
-4.471776	Park
-4.982909	Parker
-5.282857	Parliament
-5.282857	Parr
-5.581732	Pass
-5.581732	Passing
-5.581732	Patersons
-5.581732	Patience
-5.282857	Patient
-4.740335	Patrick
-5.581732	Patterson
-5.581732	Pattins
-4.982909	Paul
-5.581732	Paulo
-5.581732	Peace
-5.581732	Peak
-5.581732	Peculiar
-5.581732	Peeping
-5.282857	Peering
-5.581732	Penang-lawyer
-5.581732	Pencils
-5.581732	Pending
-5.581732	Pennsylvania
-5.581732	Pentonville
-5.581732	People
-5.581732	Perceiving
-4.409673	Percy
-5.581732	Perfectly
-3.994878	Perhaps
-5.282857	Persia
-4.982909	Persian
-5.581732	Personally
-4.054447	Peter
-5.581732	Petersfield
-4.544266	Peterson
-5.581732	Petrarch
-5.581732	Petrified
-5.581732	Petty
-5.581732	Ph.D.
-3.983885	Phelps
-5.282857	Philadelphia
-5.581732	Philosophy
-5.581732	Pickwick
-4.807179	Pietro
-5.282857	Pince-Nez
-5.581732	Pink
-5.581732	Pinkerton
-4.471776	Pinner
-5.581732	Pioneers
-5.581732	Pipes
-5.581732	Pips
-4.982909	Pitt
-4.682421	Place
-5.581732	Plant
-5.581732	Plantagenet
-5.581732	Plate
-5.581732	Platz
-5.581732	Play
-5.282857	Please
-5.581732	Plumb
-5.581732	Plural
-5.581732	Plymouth
-5.581732	Poe
-5.107487	Police
-5.581732	Police-Constable
-5.581732	Police-constable
-5.581732	Pollock
-4.682421	Pompey
-4.982909	Pondicherry
-5.282857	Pooh
-4.585619	Pool
-4.886216	Poor
-4.886216	Pope
-5.581732	Portsdown
-5.581732	Portsmouth
-5.581732	Portuguese
-4.886216	Possibly
-5.107487	Post
-5.581732	Posted
-5.581732	Potter
-5.581732	Powdered
-5.581732	Prague
-3.886997	Pray
-4.381662	Precisely
-4.585619	Premier
-4.544266	Prendergast
-4.886216	Presently
-5.581732	President
-4.982909	Press
-5.282857	Presuming
-5.282857	Price
-5.581732	Prima
-4.631329	Prime
-5.282857	Prince
-5.581732	Princess
-5.581732	Principal
-5.581732	Pringle
-4.807179	Priory
-5.581732	Pritchard
-5.581732	Private
-4.886216	Probably
-5.581732	Problem
-5.581732	Problems
-5.581732	Proceed
-3.830103	Professor
-5.282857	Promise
-5.581732	Proosia
-5.581732	Prosper
-5.581732	Providence
-5.282857	Pshaw
-5.581732	Public
-5.581732	Pugilist
-5.107487	Pull
-5.581732	Pullman
-5.581732	Punjab
-5.581732	Purely
-5.581732	Puritan
-5.581732	Purple
-4.982909	Put
-5.282857	Putting
-5.282857	Puzzle
-4.224137	Pycroft
-4.544266	Pyland
-5.581732	Queen
-5.581732	Queer
-4.740335	Quick
-5.581732	Quiet
-5.581732	Quincey
-4.094552	Quite
-5.581732	R
-5.282857	R.
-5.107487	RED-HEADED
-4.439616	RETURN
-5.107487	ROCK
-5.581732	RUCASTLE
-4.886216	Rachel
-5.107487	Ragged
-5.581732	Railway
-5.581732	Rain
-4.807179	Ralph
-4.982909	Randall
-5.282857	Randalls
-5.282857	Ras
-5.581732	Rasper
-5.581732	Ratcliff
-5.107487	Rather
-5.282857	Read
-4.439616	Reading
-4.886216	Really
-5.581732	Recently
-4.982909	Red
-4.807179	Red-headed
-5.581732	Regency
-4.982909	Regent
-5.107487	Reginald
-4.807179	Reichenbach
-5.282857	Reigate
-5.581732	Relations
-5.581732	Relieved
-4.886216	Remember
-5.581732	Remo
-5.282857	Republican
-5.282857	Resident
-5.581732	Restaurant
-5.581732	Results
-5.581732	Retired
-5.581732	Return
-5.581732	Returning
-4.807179	Reuben
-5.581732	Reuter
-5.581732	Rhodesia
-5.581732	Rhodesian
-5.581732	Rhone
-5.581732	Rica
-5.581732	Richard
-5.581732	Ricoletti
-5.581732	Riding
-4.982909	Ridling
-4.682421	Right
-5.581732	Ripley
-4.471776	Ritual
-5.581732	River
-4.18794	Road
-5.581732	Roaring
-5.107487	Robbery
-4.807179	Robert
-5.581732	Robinson
-5.581732	Rockies
-5.581732	Roman
-4.682421	Ronald
-5.581732	Room
-5.581732	Rooms
-5.107487	Rosenlaui
-4.108788	Ross
-5.581732	Rothiere
-5.581732	Rotterdam
-5.581732	Roughly
-5.107487	Round
-4.982909	Row
-4.982909	Royal
-4.263628	Roylott
-5.282857	Roylotts
-4.017735	Rucastle
-4.982909	Rucastles
-5.581732	Rue
-5.581732	Rugby
-5.581732	Rugger
-5.581732	Run
-5.581732	Running
-5.581732	Rushing
-5.282857	Russell
-5.581732	Russia
-4.439616	Russian
-5.581732	Russo-German
-5.282857	Ruston
-4.506511	Ryder
-5.107487	S
-5.107487	S.
-5.581732	SAW
-5.581732	SCANDAL
-4.740335	SEA
-5.581732	SEBASTIAN
-5.581732	SEPTEMBER
-4.33054	SHERLOCK
-5.581732	SIMON
-5.581732	SIR
-5.581732	SL.NE
-5.581732	SLANE
-5.581732	SLANEY
-5.581732	SPECKLED
-5.581732	ST
-5.581732	STANLEY
-4.471776	STRAND
-5.581732	Saddle
-5.581732	Saffron
-4.585619	Saltire
-5.581732	Same
-5.581732	Samuel
-4.982909	San
-5.581732	Sand
-4.886216	Sandeford
-5.581732	Sarasate
-4.439616	Saturday
-5.581732	Saturdays
-5.282857	Saunders
-4.886216	Savannah
-4.982909	Save
-5.581732	Saviour
-4.807179	Saxe-Coburg
-5.581732	Saxe-Meningen
-5.282857	Saxon
-5.107487	Say
-5.581732	Scala
-5.581732	Scandal
-5.107487	Scandinavia
-4.807179	Scarlet
-5.581732	Scholarship
-4.982909	School
-5.581732	Scot
-4.982909	Scotch
-5.581732	Scotch-woman
-5.581732	Scotia
-4.067408	Scotland
-4.886216	Scott
-4.807179	Scott_
-5.581732	Scoundrel
-5.581732	Scylla
-5.581732	Sea
-5.581732	Seated
-5.282857	Sebastian
-4.740335	Second
-4.585619	Secretary
-4.381662	See
-5.107487	Seeing
-5.581732	Seems
-5.581732	Seen
-5.581732	Seizing
-5.107487	Seldom
-5.107487	Send
-5.581732	September
-4.982909	Sergeant
-5.282857	Sergius
-4.807179	Serpentine
-5.282857	Serpentine-mews
-5.581732	Serve
-5.282857	Served
-5.581732	Set
-5.107487	Seven
-4.682421	Several
-5.581732	Severn
-5.581732	Shaftesbury
-4.740335	Shall
-5.581732	Sharp
-4.982909	Shaw
-3.169396	She
-5.581732	Sheeny
-5.581732	Sheep-marks
-3.270062	Sherlock
-5.581732	Sherpur
-5.581732	Shetland
-5.581732	Shillings
-5.282857	Shipping
-5.581732	Sholto
-5.581732	Sholtos
-4.982909	Shortly
-5.581732	Shot
-4.740335	Should
-5.581732	Show
-5.581732	Showing
-5.107487	Siberia
-5.581732	Sidelights
-5.581732	Sierra
-5.581732	Sigerson
-5.581732	Sigismond
-5.107487	Sign
-5.581732	Sikhs
-4.807179	Silas
-4.471776	Silver
-3.994878	Simon
-5.581732	Simply
-4.35535	Simpson
-4.682421	Since
-5.581732	Singleford
-5.581732	Singularity
-4.094552	Sir
-4.886216	Sit
-4.886216	Six
-4.631329	Slaney
-5.581732	Slater
-5.581732	Sleepy
-5.581732	Slipping
-5.107487	Slowly
-5.581732	Smack
-5.581732	Small
-5.581732	Smart
-4.154529	Smith
-5.581732	Smith-Mortimer
-5.581732	Snake-catcher
-5.581732	Snapping
-3.529111	So
-4.108788	Soames
-5.581732	Society
-5.581732	Sold
-5.282857	Solitary
-4.094552	Some
-5.581732	Somebody
-4.740335	Someone
-4.740335	Something
-4.631329	Sometimes
-5.581732	Somomy
-5.581732	Son
-5.581732	Sooner
-4.982909	Sophy
-5.107487	Sorry
-5.581732	Sound
-4.33054	South
-4.982909	Southampton
-5.107487	Southern
-5.581732	Southerton
-5.581732	Southsea
-5.581732	Sovereign
-5.581732	Spare
-4.682421	Spaulding
-5.581732	Speak
-5.282857	Speaking
-5.282857	Speckled
-5.282857	Spence
-5.581732	Spies
-5.581732	Splendid
-4.33054	Square
-5.581732	Squatted
-5.282857	St
-3.651505	St.
-4.982909	Stain
-5.581732	Stamford
-5.107487	Stand
-5.282857	Standard
-5.282857	Standing
-4.154529	Stanley
-4.740335	Star
-4.631329	Stark
-5.581732	Stars
-5.581732	Starving
-5.107487	State
-5.107487	States
-4.35535	Station
-4.094552	Staunton
-5.581732	Stay
-5.107487	Steiler
-5.282857	Step
-4.982909	Stepney
-5.581732	Stepping
-5.581732	Stevens
-5.282857	Stevenson
-5.107487	Stewart
-5.581732	Stick
-4.284807	Still
-5.282857	Stock
-5.581732	Stock-Broker
-4.544266	Stoke
-5.282857	Stolen
-4.307072	Stoner
-4.886216	Stop
-4.807179	Stoper
-4.006156	Straker
-4.886216	Strand
-5.581732	Strange
-5.581732	Stranger
-5.282857	Strasburg
-4.982909	Streatham
-3.368543	Street
-5.581732	Striding
-5.581732	Stripes
-5.282857	Strong
-5.581732	Stroud
-5.581732	Stuarts
-5.282857	Students
-4.807179	Study
-5.581732	Subtle
-5.282857	Suburban
-4.381662	Such
-4.205661	Suddenly
-5.581732	Suez
-5.581732	Summer
-5.581732	Sunday
-5.282857	Sunday-school
-4.982909	Suppose
-5.581732	Supposing
-5.581732	Sure
-4.123506	Surely
-5.581732	Surprise
-4.544266	Surrey
-4.682421	Susan
-5.282857	Suspicion
-4.740335	Sussex
-4.544266	Sutherland
-5.282857	Sutton
-5.282857	Swain
-5.282857	Swan
-4.682421	Swandam
-5.581732	Sweet
-5.282857	Swiftly
-5.581732	Swindon
-4.886216	Swiss
-5.282857	Switzerland
-4.807179	Sydenham
-5.581732	Sydney
-5.282857	Syndicate
-5.581732	Syria
-4.982909	T
-5.581732	T.
-5.282857	TELEGRAPH
-5.282857	THAT
-3.895769	THE
-5.581732	THIS
-5.581732	THUMB
-5.581732	THY
-5.282857	TIMES
-4.982909	TO
-5.581732	TOWERS
-5.581732	TRUE
-5.581732	TWISTED
-5.581732	TWO
-5.581732	Taciturn
-5.581732	Tadpole
-4.439616	Take
-5.581732	Taking
-5.581732	Tall
-4.982909	Tangey
-5.282857	Tankerville
-5.581732	Tarleton
-5.282857	Tarlton
-4.682421	Tavistock
-5.581732	Technically
-4.982909	Teddy
-5.282857	Telegraph
-4.471776	Tell
-4.982909	Temple
-4.982909	Ten
-5.581732	Tennessee
-5.581732	Terai
-4.807179	Terrace
-5.282857	Terrible
-5.581732	Terror
-5.581732	Terse
-5.282857	Testament
-5.581732	Teutonic
-5.581732	Texas
-5.107487	Thames
-3.904722	Thank
-5.581732	Thanks
-3.189837	That
-2.511599	The
-5.581732	Theatre
-4.544266	Their
-3.072823	Then
-5.581732	Thence
-5.581732	Theological
-5.581732	Theorem
-5.581732	Theories
-2.918591	There
-4.409673	Therefore
-5.581732	Therein
-4.506511	Theresa
-3.932745	These
-3.392901	They
-5.581732	Thick
-5.282857	Things
-4.807179	Think
-5.282857	Third
-5.581732	Thirty
-3.184636	This
-5.581732	Thoreau
-5.282857	Thorneycroft
-4.886216	Thorpe
-4.439616	Those
-5.107487	Though
-5.282857	Threadneedle
-5.581732	Threatens
-4.33054	Three
-5.282857	Three-Quarter
-5.581732	Three-forty
-4.740335	Through
-5.581732	Throw
-5.282857	Thrust
-5.581732	Thucydides
-5.581732	Thumb
-4.807179	Thursday
-5.282857	Thurston
-5.282857	Thus
-5.581732	Tibet
-5.581732	Time
-5.282857	Times
-5.581732	Tingling
-5.581732	Tiptoes
-5.581732	Tired
-5.581732	Tired-looking
-5.581732	Title
-3.722671	To
-4.807179	To-day
-4.740335	To-morrow
-5.581732	To-night
-5.282857	Tobacco
-5.581732	Tobin
-4.982909	Together
-4.409673	Toller
-5.581732	Tollers
-4.740335	Too
-5.581732	Torrington
-5.581732	Tosca
-4.982909	Tottenham
-5.581732	Tottering
-5.581732	Tower
-5.282857	Towers
-5.581732	Trafalgar
-5.581732	Tragic
-5.581732	Treasury
-5.107487	Treaty
-5.581732	Tree
-5.581732	Tregellis
-4.740335	Trelawney
-5.581732	Trepoff
-4.381662	Trevelyan
-4.224137	Trevor
-5.581732	Trincomalee
-5.282857	Trinity
-5.581732	Triple
-5.282857	Trumpington
-5.581732	Trust
-5.107487	Try
-5.282857	Tudor
-4.33054	Tuesday
-5.581732	Tunbridge
-5.581732	Turkish
-5.581732	Turn
-4.243433	Turner
-5.107487	Turning
-5.282857	Tuson
-4.886216	Tut
-5.581732	Tut-tut
-5.581732	Twelve
-5.581732	Twenty
-5.581732	Twenty-four
-5.581732	Twenty-nine
-5.581732	Twenty-six
-5.581732	Twenty-two
-4.740335	Twice
-5.581732	Twisted
-4.154529	Two
-5.581732	U.
-5.581732	U.S.A.
-5.581732	UNCLE
-4.740335	UNICORN
-5.581732	Uffa
-5.581732	Uncle
-4.982909	Under
-5.581732	Under-Secretary
-5.282857	Underground
-5.282857	Underneath
-4.631329	Undoubtedly
-5.581732	Unemployed
-5.581732	Unfolding
-5.107487	Unfortunately
-5.282857	Union
-5.581732	United
-5.581732	Universities
-4.585619	University
-4.807179	Unless
-4.886216	Until
-4.807179	Up
-4.740335	Upon
-5.107487	Upper
-5.581732	Uppingham
-5.581732	Uriah
-5.581732	V
-4.886216	V.
-5.581732	VALLEY
-5.581732	VERY
-5.107487	VI
-5.581732	VI.
-5.107487	VII
-5.581732	VII.
-5.107487	VIII
-5.581732	VIII.
-5.581732	VIOLET
-5.581732	Vale
-4.740335	Valley
-5.581732	Vamberry
-5.581732	Vast
-5.581732	Vegetarian
-5.581732	Venezuelan
-5.581732	Venner
-5.282857	Venucci
-5.581732	Verdes
-5.282857	Vere
-5.282857	Verner
-5.581732	Vernet
-3.830103	Very
-4.807179	Victor
-4.544266	Victoria
-5.581732	Villa
-5.581732	Villain
-4.807179	Vincent
-5.282857	Violence
-4.807179	Violet
-5.581732	Visited
-5.282857	Vitus
-5.581732	Voilà
-4.471776	Vol
-5.581732	Volume
-4.982909	Von
-5.581732	Vox
-5.581732	W.
-5.282857	WAS
-5.107487	WE
-5.581732	WERE
-5.581732	WESTMINSTER
-5.581732	WHEN
-5.581732	WILSON
-5.581732	WITH
-4.740335	Wait
-5.581732	Waldbaum
-5.107487	Wales
-5.581732	Walk
-5.581732	Wallenstein
-5.581732	Walsall
-5.282857	Walsham
-5.581732	Walsingham
-5.581732	Want
-5.581732	Wanted
-4.886216	War
-5.581732	Warburton
-5.581732	Ward
-5.581732	Wardlaw
-5.581732	Warm
-5.282857	Warsaw
-3.973164	Was
-5.581732	Water
-5.581732	Waterbeach
-4.409673	Waterloo
-2.969043	Watson
-5.282857	Watt
-2.98616	We
-5.581732	Wedding
-5.581732	Wedlock
-4.682421	Wednesday
-5.581732	Weiss
-5.581732	Welbeck
-3.063596	Well
-5.581732	Well-known
-5.581732	Wellington
-5.581732	Wells
-5.282857	Welsh
-4.544266	Were
-4.886216	Wessex
-5.107487	West
-5.581732	West-End
-5.581732	West-country
-5.581732	West-end
-5.282857	Westaway
-5.581732	Westbury
-5.581732	Western
-5.282857	Westhouse
-4.807179	Westminster
-5.581732	Westphail
-5.581732	Wharf
-3.050747	What
-4.807179	Whatever
-3.3505	When
-3.845612	Where
-4.982909	Whether
-4.506511	Which
-4.886216	While
-5.581732	Whip
-4.740335	Whitehall
-4.682421	Whitney
-5.581732	Whittington
-3.861696	Who
-5.581732	Whoa
-5.107487	Whoever
-5.581732	Whole
-4.982909	Whom
-5.107487	Whose
-3.564823	Why
-5.581732	Wight
-5.581732	Wigmore
-4.33054	Wilder
-5.581732	Wilful
-5.581732	Wilhelm
-4.544266	Will
-4.18794	William
-5.107487	Williams
-4.544266	Williamson
-4.631329	Willoughby
-5.581732	Willows
-4.154529	Wilson
-5.581732	Wilton
-5.581732	Wimpole
-4.544266	Winchester
-4.284807	Windibank
-5.107487	Windigate
-5.581732	Wire
-3.740894	With
-4.740335	Within
-4.740335	Without
-4.631329	Witness
-5.282857	Wo
-4.439616	Woking
-5.581732	Women
-4.740335	Wonderful
-4.740335	Wood
-5.581732	Wooden-leg
-5.282857	Woodhouse
-4.170913	Woodley
-4.982909	Woodman
-5.581732	Work
-5.581732	Working
-5.581732	Worship
-5.282857	Worthingdon
-4.439616	Would
-5.107487	Wright
-5.581732	Written
-4.982909	X
-5.581732	X.
-5.107487	XI
-5.581732	XI.
-5.282857	XII
-5.581732	XII.
-5.581732	XIII.
-5.107487	XXX
-4.886216	YOU
-4.094552	Yard
-5.107487	Yellow
-3.162791	Yes
-4.886216	Yesterday
-4.123506	Yet
-5.282857	York
-2.712146	You
-4.886216	Young
-3.693903	Your
-4.740335	Yours
-4.740335	Yoxley
-5.107487	Zealand
-5.581732	Zoo
-5.107487	[
-4.982909	]
-4.807179	_Gloria
-5.282857	_Hotspur_
-1.715532	``
-1.736204	a
-5.581732	a-lying
-5.581732	a-stampin
-5.581732	a-walkin
-5.581732	a.m.
-4.982909	aback
-4.886216	abandon
-4.982909	abandoned
-5.581732	abandoning
-5.581732	abandons
-4.982909	abduction
-5.581732	abductor
-5.581732	aberration
-5.581732	abetted
-5.107487	abhorrent
-5.581732	abhors
-5.581732	abide
-5.282857	abilities
-4.682421	ability
-5.581732	abjure
-3.636615	able
-5.581732	able-bodied
-5.282857	abnormal
-5.282857	abnormally
-5.107487	aboard
-5.282857	abode
-5.107487	abominable
-5.581732	abomination
-5.581732	abortive
-5.581732	abound
-2.909351	about
-3.773073	above
-5.581732	abrasion
-5.581732	abreast
-4.886216	abroad
-4.807179	abrupt
-4.982909	abruptly
-5.581732	abruptness
-5.581732	absconding
-4.381662	absence
-4.544266	absent
-5.581732	absentees
-4.029631	absolute
-3.822551	absolutely
-5.282857	absolved
-5.581732	absorb
-4.631329	absorbed
-5.581732	absorbing
-5.581732	abstract
-4.740335	abstracted
-5.107487	abstruse
-4.205661	absurd
-4.886216	absurdly
-5.282857	abundant
-5.282857	abuse
-5.581732	abusive
-5.282857	abutted
-4.886216	abyss
-5.581732	academic
-5.581732	acceding
-4.886216	accent
-5.581732	accentuated
-4.682421	accept
-5.581732	acceptable
-5.282857	acceptance
-4.886216	accepted
-5.581732	accepting
-5.282857	access
-5.581732	accessories
-5.282857	accessory
-4.307072	accident
-5.107487	accidental
-5.282857	accidentally
-5.282857	accidents
-5.282857	accommodate
-5.581732	accommodating
-4.886216	accompanied
-5.581732	accompaniments
-4.886216	accompany
-5.107487	accompanying
-5.581732	accompli
-4.740335	accomplice
-5.282857	accomplish
-5.107487	accomplished
-5.581732	accomplishment
-5.282857	accomplishments
-5.581732	accord
-5.581732	accordance
-4.807179	according
-5.282857	accordingly
-3.636615	account
-5.282857	accountant
-5.282857	accounted
-4.631329	accounts
-5.107487	accumulated
-5.581732	accumulating
-5.581732	accumulation
-5.107487	accuracy
-5.107487	accurate
-5.282857	accurately
-5.107487	accursed
-5.581732	accusation
-5.107487	accuse
-4.740335	accused
-5.581732	accuser
-4.409673	accustomed
-5.581732	acetones
-5.581732	achieved
-5.581732	achievements
-5.282857	acid
-5.581732	acid-faced
-5.581732	acid-stained
-4.682421	acknowledge
-5.581732	acknowledged
-5.282857	acknowledges
-4.263628	acquaintance
-5.581732	acquaintances
-5.107487	acquainted
-5.581732	acquiesce
-5.581732	acquiesced
-5.282857	acquiescence
-5.581732	acquire
-5.107487	acquired
-5.581732	acquirement
-5.282857	acquiring
-5.282857	acquitted
-5.107487	acres
-5.581732	acrobat
-3.503232	across
-4.243433	act
-4.224137	acted
-4.585619	acting
-3.973164	action
-5.282857	actionable
-4.631329	actions
-4.409673	active
-5.282857	activity
-5.282857	actor
-5.107487	actors
-5.581732	actress
-5.282857	acts
-4.807179	actual
-4.381662	actually
-5.581732	acumen
-4.982909	acute
-5.581732	acutely
-5.581732	adapt
-5.581732	adaptable
-4.982909	adapted
-4.409673	add
-4.471776	added
-5.581732	adder
-5.581732	addicted
-5.107487	adding
-4.740335	addition
-5.581732	additional
-3.983885	address
-4.471776	addressed
-5.581732	addresses
-4.982909	addressing
-5.581732	adds
-5.282857	adequate
-5.581732	adhere
-5.581732	adhesive
-5.581732	adjective
-5.581732	adjectives
-5.581732	adjoining
-5.107487	adjusted
-5.581732	administered
-5.107487	administration
-4.409673	admirable
-4.740335	admirably
-4.544266	admiration
-5.107487	admire
-5.581732	admired
-5.282857	admirer
-5.282857	admirers
-5.107487	admiring
-4.263628	admit
-5.282857	admits
-5.581732	admittance
-4.740335	admitted
-5.581732	admitting
-5.581732	ado
-5.581732	adopt
-5.282857	adopted
-5.581732	adorn
-5.282857	adorned
-5.581732	adrift
-4.506511	advance
-4.439616	advanced
-5.581732	advances
-5.282857	advancing
-4.33054	advantage
-4.807179	advantages
-5.581732	advent
-4.224137	adventure
-4.506511	adventures
-5.581732	adventuress
-5.581732	adventurous
-5.282857	advertise
-5.107487	advertised
-4.080768	advertisement
-4.982909	advertisements
-5.282857	advertising
-3.932745	advice
-4.506511	advise
-4.982909	advised
-5.282857	adviser
-5.581732	advises
-5.581732	advocate
-5.581732	affably
-3.80783	affair
-5.581732	affaire
-4.263628	affairs
-5.107487	affect
-5.581732	affectation
-4.807179	affected
-5.581732	affecting
-4.886216	affection
-4.886216	affectionate
-5.581732	affectionately
-5.581732	affections
-5.282857	affliction
-5.581732	affluent
-4.544266	afford
-5.107487	afforded
-5.282857	afoot
-3.904722	afraid
-5.581732	afresh
-5.581732	aft
-3.137332	after
-5.581732	after-hold
-5.581732	after-taste
-4.067408	afternoon
-3.845612	afterwards
-3.211287	again
-3.381907	against
-4.041862	age
-4.982909	aged
-5.581732	agencies
-4.886216	agency
-4.381662	agent
-4.439616	agents
-5.581732	aggregate
-5.282857	aggressive
-5.581732	aggressively
-5.581732	agile
-4.585619	agitated
-4.381662	agitation
-3.699507	ago
-5.581732	agonies
-4.631329	agony
-4.544266	agree
-5.581732	agreeable
-4.544266	agreed
-5.107487	agreement
-5.581732	agrees
-5.282857	agricultural
-5.581732	ah
-4.886216	ahead
-4.224137	aid
-4.886216	aided
-5.581732	ails
-5.282857	aim
-5.107487	aimed
-5.282857	aimless
-5.581732	aims
-3.766444	air
-4.982909	air-gun
-5.282857	air-guns
-5.581732	airs
-5.581732	airy
-5.581732	aisle
-5.107487	ajar
-5.282857	akimbo
-4.982909	akin
-4.054447	alarm
-4.982909	alarmed
-5.282857	alas
-4.33054	alert
-5.581732	alertness
-5.581732	alias
-5.581732	alight
-4.807179	alighted
-5.581732	alighting
-5.107487	alike
-4.18794	alive
-2.591292	all
-5.581732	all-comprehensive
-5.107487	all-important
-5.107487	all-night
-5.581732	alleging
-5.282857	alley
-5.581732	alleys
-5.581732	alliance
-5.581732	allied
-5.581732	allotment
-4.284807	allow
-4.807179	allowance
-4.263628	allowed
-5.282857	allowing
-5.282857	allows
-4.982909	allude
-4.807179	alluded
-4.631329	allusion
-5.107487	allusions
-5.282857	ally
-3.932745	almost
-3.815128	alone
-3.740894	along
-4.585619	aloud
-5.282857	alphabet
-3.485649	already
-3.427661	also
-4.807179	altar
-5.581732	alter
-5.581732	alteration
-5.282857	alterations
-5.282857	altercation
-5.107487	altered
-5.282857	alternate
-5.282857	alternately
-5.581732	alternating
-5.581732	alternation
-4.409673	alternative
-5.581732	alternatives
-4.154529	although
-4.585619	altogether
-5.581732	aluminium
-5.581732	aluminum
-3.443008	always
-2.881037	am
-5.581732	amalgam
-5.581732	amassed
-5.581732	amassing
-4.982909	amateur
-5.282857	amaze
-4.982909	amazed
-4.154529	amazement
-4.740335	amazing
-5.581732	ambassador
-4.886216	amber
-5.581732	ambiguous
-5.282857	ambition
-5.581732	ambitions
-5.581732	ambitious
-5.581732	ambuscade
-5.282857	amends
-5.581732	amethyst
-5.581732	amiability
-4.740335	amiable
-4.33054	amid
-5.581732	amidst
-4.807179	amiss
-5.581732	ammonia
-5.581732	ammunition
-5.581732	amnesty
-3.617524	among
-5.581732	amongst
-4.471776	amount
-5.107487	amounted
-5.581732	amounts
-5.282857	ample
-5.581732	amplifying
-5.282857	amply
-5.107487	amuse
-4.631329	amused
-4.682421	amusement
-4.982909	amusing
-5.581732	amyl
-2.563621	an
-5.581732	anaemic
-4.585619	analysis
-4.982909	analytical
-5.282857	analyze
-5.581732	anatomy
-5.282857	ancestor
-5.282857	ancestors
-5.581732	ancestral
-5.581732	ancestry
-4.631329	ancient
-1.687492	and
-5.581732	angel
-4.307072	anger
-4.506511	angle
-5.581732	angles
-5.581732	angrily
-4.307072	angry
-5.581732	anguish
-5.581732	angular
-4.506511	animal
-5.282857	animals
-5.282857	animated
-5.581732	animosity
-5.282857	aniseed
-4.982909	ankle
-5.581732	ankle-deep
-5.107487	ankles
-5.581732	annals
-5.107487	announce
-4.585619	announced
-4.982909	announcement
-4.631329	annoyance
-4.982909	annoyed
-5.581732	annoying
-5.581732	annoys
-5.581732	annual
-5.581732	anoints
-5.581732	anomaly
-3.55259	another
-3.747142	answer
-5.581732	answerable
-3.517831	answered
-4.740335	answering
-4.631329	answers
-5.107487	antagonist
-5.581732	ante-room
-5.282857	antecedents
-5.581732	anteroom
-5.107487	anticipate
-5.107487	anticipated
-5.282857	antics
-5.581732	antidote
-5.581732	antiquity
-5.581732	anxieties
-4.439616	anxiety
-4.108788	anxious
-5.282857	anxiously
-2.945562	any
-5.282857	anybody
-4.631329	anyhow
-3.80783	anyone
-3.443008	anything
-4.740335	anywhere
-4.807179	apart
-4.631329	apartment
-5.282857	ape
-4.982909	aperture
-4.886216	apiece
-4.982909	apologies
-5.581732	apologise
-4.982909	apologize
-5.581732	apologized
-5.581732	apologizing
-4.544266	apology
-5.581732	apoplexy
-5.581732	appalled
-5.581732	apparelled
-5.107487	apparent
-4.409673	apparently
-5.282857	apparition
-4.471776	appeal
-4.982909	appealed
-5.581732	appealing
-5.107487	appeals
-3.962701	appear
-3.904722	appearance
-5.282857	appearances
-3.734734	appeared
-5.581732	appearing
-3.994878	appears
-4.982909	appetite
-5.282857	applause
-5.107487	apple
-5.282857	applicant
-5.107487	application
-4.807179	applied
-4.631329	apply
-5.282857	applying
-5.107487	appointed
-4.243433	appointment
-5.581732	appreciable
-4.807179	appreciate
-4.982909	appreciated
-5.581732	apprehended
-5.581732	apprehension
-5.581732	apprenticed
-4.585619	approach
-4.123506	approached
-4.682421	approaching
-5.282857	appropriate
-5.581732	approve
-5.107487	approvingly
-5.581732	apron
-5.581732	apt
-5.581732	aptitudes
-4.886216	aquiline
-5.581732	arable
-5.282857	arbitrary
-5.581732	arc-and-compass
-5.581732	archaeologist
-5.282857	arched
-5.581732	architects
-5.581732	architectural
-5.282857	architecture
-5.581732	archways
-5.107487	ardent
-5.581732	arduous
-2.613846	are
-5.282857	area
-4.982909	argue
-5.282857	argued
-5.581732	argues
-5.282857	arguing
-4.585619	argument
-5.282857	arguments
-5.107487	aright
-5.107487	arise
-5.581732	aristocrat
-4.740335	aristocratic
-3.962701	arm
-4.439616	arm-chair
-4.409673	armchair
-5.581732	armchairs
-4.740335	armed
-5.581732	armor
-5.581732	armory
-4.108788	arms
-4.886216	army
-5.282857	arose
-4.439616	around
-4.982909	arouse
-4.381662	aroused
-4.682421	arrange
-4.439616	arranged
-5.282857	arrangement
-4.982909	arrangements
-5.581732	arranges
-5.581732	arranging
-5.282857	array
-5.581732	arrears
-4.138741	arrest
-4.154529	arrested
-4.982909	arresting
-4.471776	arrival
-4.585619	arrive
-4.067408	arrived
-5.581732	arrives
-5.581732	arriving
-5.581732	arrows
-4.439616	art
-5.581732	arteries
-5.581732	artery
-4.631329	article
-4.506511	articles
-5.107487	artificial
-5.282857	artillery
-4.886216	artist
-5.282857	artistic
-5.581732	artists
-2.281992	as
-5.107487	ascend
-5.282857	ascendancy
-4.506511	ascended
-5.581732	ascending
-4.886216	ascertain
-4.807179	ascertained
-5.107487	ascertaining
-4.982909	ascetic
-5.581732	ascetic-looking
-4.807179	ash
-4.585619	ashamed
-5.107487	ashen
-4.631329	ashes
-5.581732	ashore
-5.581732	ashy
-4.506511	aside
-3.532937	ask
-4.982909	askance
-3.218679	asked
-4.33054	asking
-5.282857	asks
-4.439616	asleep
-5.107487	aspect
-5.581732	asperities
-5.282857	asperity
-5.282857	asphalt
-5.581732	aspired
-5.581732	ass
-5.282857	assailant
-4.982909	assailants
-4.982909	assassin
-4.886216	assault
-5.282857	assaulted
-5.581732	assaults
-5.282857	assembled
-5.107487	assent
-5.282857	assented
-5.107487	assert
-5.282857	asserted
-5.581732	assertion
-5.581732	assiduous
-5.581732	assiduously
-4.886216	assist
-4.170913	assistance
-4.307072	assistant
-5.581732	assistants
-5.581732	assisted
-5.107487	assisting
-5.581732	assizes
-4.682421	associate
-4.409673	associated
-5.107487	associates
-5.581732	associating
-5.581732	association
-5.107487	associations
-5.581732	assortment
-4.982909	assume
-4.886216	assumed
-5.282857	assuming
-4.807179	assurance
-4.094552	assure
-4.284807	assured
-5.581732	assuredly
-4.982909	assures
-5.282857	assuring
-5.581732	asthmatic
-5.581732	astir
-5.581732	astonish
-4.544266	astonished
-5.282857	astonishing
-5.581732	astonishingly
-4.029631	astonishment
-5.581732	astounding
-5.282857	astrachan
-5.581732	astrakhan
-5.581732	astray
-5.581732	astronomers
-5.581732	astronomy
-5.282857	astute
-5.282857	astuteness
-5.581732	asunder
-5.581732	asylum
-2.275571	at
-5.581732	atavism
-4.982909	ate
-5.107487	athlete
-5.581732	athletes
-4.982909	athletic
-4.807179	atmosphere
-5.581732	atoms
-5.581732	atone
-5.581732	atonement
-5.581732	atones
-4.506511	attached
-5.581732	attaches
-4.409673	attack
-4.740335	attacked
-4.807179	attacks
-4.982909	attain
-4.886216	attained
-5.581732	attainments
-4.041862	attempt
-4.585619	attempted
-5.282857	attempting
-4.807179	attempts
-4.982909	attend
-4.982909	attendant
-5.282857	attended
-5.282857	attends
-3.608284	attention
-4.886216	attentions
-5.581732	attentive
-5.107487	attic
-5.282857	attics
-5.282857	attire
-5.282857	attired
-4.544266	attitude
-5.282857	attract
-4.682421	attracted
-5.581732	attraction
-5.107487	attractions
-5.581732	attractive
-5.581732	attracts
-5.581732	attribute
-5.282857	attributed
-5.282857	audacity
-5.282857	audible
-5.282857	audience
-5.581732	audits
-5.581732	august
-4.982909	aunt
-4.886216	austere
-5.581732	austerity
-5.581732	authenticity
-5.107487	author
-5.581732	authoritative
-4.807179	authorities
-5.107487	authority
-5.581732	autograph
-4.807179	autumn
-5.282857	autumnal
-4.982909	avail
-5.581732	available
-5.581732	availed
-5.107487	avenge
-5.282857	avenged
-5.581732	avenger
-4.682421	avenue
-4.886216	average
-4.740335	averse
-5.107487	aversion
-5.107487	avert
-5.581732	averted
-5.581732	aviary
-5.581732	avidity
-4.35535	avoid
-4.982909	avoided
-5.581732	avoiding
-5.107487	await
-4.982909	awaited
-4.740335	awaiting
-4.807179	awaits
-4.740335	awake
-4.682421	awakened
-3.895769	aware
-3.164433	away
-4.682421	awful
-5.581732	awhile
-4.807179	awkward
-5.107487	awoke
-5.282857	awry
-5.581732	axiom
-5.282857	ay
-5.581732	babbled
-4.886216	baboon
-5.107487	baby
-5.581732	baccy-pouch
-4.471776	bachelor
-5.581732	bachelors
-2.965907	back
-5.581732	back-hander
-5.282857	backed
-5.581732	backgammon
-5.581732	background
-5.581732	backs
-4.682421	backward
-4.740335	backwards
-5.581732	backwater
-3.983885	bad
-5.581732	baddish
-4.886216	bade
-5.581732	badge
-4.506511	badly
-5.581732	badly-fitting
-4.807179	baffled
-4.224137	bag
-5.581732	baggage
-5.282857	baggy
-5.581732	bags
-5.581732	bail
-5.282857	bait
-5.581732	baited
-5.581732	baits
-5.581732	baize
-4.807179	balance
-5.282857	balanced
-5.282857	balancing
-5.107487	bald
-5.581732	baldly
-5.581732	baldness
-5.581732	baleful
-4.585619	ball
-5.581732	balls
-5.581732	balmy
-5.581732	balustraded
-4.409673	band
-5.107487	bandage
-5.581732	bandaged
-5.581732	bandages
-4.886216	bands
-5.581732	bandy
-5.282857	bang
-5.581732	banged
-5.581732	banish
-4.409673	bank
-5.282857	bank-book
-5.581732	bank-notes
-5.581732	banked
-4.381662	banker
-5.107487	bankers
-4.982909	banking
-5.581732	banking-house
-5.107487	banks
-4.439616	bar
-5.581732	barbaric
-5.581732	barbed-headed
-5.581732	barber
-4.631329	bare
-5.282857	bare-headed
-5.581732	bared
-4.886216	bargain
-5.581732	bargained
-5.581732	baritsu
-4.807179	bark
-5.282857	barked
-5.107487	barmaid
-5.581732	barometer
-5.581732	barometric
-5.581732	baronet
-5.282857	barque
-5.581732	barracks
-4.544266	barred
-5.581732	barred-tailed
-4.682421	barrel
-5.581732	barrels
-5.581732	barren
-5.581732	barricade
-5.581732	barricaded
-5.581732	barrier
-5.282857	barrow
-4.886216	bars
-5.581732	baryta
-4.982909	base
-5.581732	based
-5.581732	basement
-5.581732	bashful
-5.107487	basin
-4.807179	basis
-5.107487	basket
-5.107487	basket-chair
-5.581732	basketful
-5.581732	basking
-5.581732	batch
-5.581732	bath
-5.282857	bath-chair
-5.581732	bath-sponge
-5.581732	bathing
-5.581732	bathroom
-5.581732	battalion
-4.982909	battered
-5.581732	battery
-5.282857	battle
-5.581732	battle-axe
-5.581732	battle-signals
-5.581732	bawl
-5.581732	bawling
-4.982909	bay
-5.581732	baying
-5.581732	bayonets
-2.387394	be
-5.282857	beads
-5.581732	beagle
-5.581732	beam
-5.282857	beamed
-5.581732	beams
-5.581732	bean
-4.263628	bear
-4.154529	beard
-4.807179	bearded
-4.18794	bearing
-5.581732	bearings
-4.807179	bears
-5.581732	bearskin
-4.585619	beast
-5.282857	beasts
-4.471776	beat
-4.682421	beaten
-4.886216	beating
-4.982909	beats
-5.282857	beauties
-4.067408	beautiful
-4.982909	beautifully
-4.439616	beauty
-3.822551	became
-3.932745	because
-5.581732	beckoned
-5.282857	beckoning
-4.080768	become
-4.471776	becomes
-4.982909	becoming
-3.590374	bed
-5.581732	bed-chamber
-5.581732	bedraggled
-3.734734	bedroom
-4.682421	bedrooms
-4.982909	beds
-5.107487	bedside
-5.581732	bedtime
-5.581732	bee
-5.581732	bee-farming
-5.581732	beech
-4.982909	beeches
-5.107487	beef
-2.511599	been
-4.982909	beer
-4.886216	bees-wing
-5.107487	beetle
-5.581732	beetle-ridden
-4.886216	befall
-5.282857	befallen
-5.581732	befell
-5.282857	befits
-2.910266	before
-5.581732	before-breakfast
-5.581732	beforehand
-4.094552	beg
-3.773073	began
-5.581732	beget
-4.807179	beggar
-5.282857	beggarly
-5.581732	beggarman
-5.581732	beggary
-4.506511	begged
-4.982909	begging
-4.263628	begin
-4.307072	beginning
-5.581732	beginnings
-4.982909	begins
-4.35535	begun
-5.107487	behalf
-5.581732	behaving
-5.581732	behaviour
-3.472077	behind
-5.581732	behold
-5.581732	beige
-3.424656	being
-5.581732	beings
-5.107487	belated
-5.581732	belied
-4.544266	belief
-3.626965	believe
-4.585619	believed
-5.282857	believes
-5.107487	believing
-3.837788	bell
-4.886216	bell-pull
-4.544266	bell-rope
-5.581732	bell-ropes
-5.581732	belle
-5.581732	bellow
-5.581732	bellowed
-5.581732	belly
-5.282857	belong
-4.740335	belonged
-5.107487	belonging
-5.581732	belongings
-4.740335	belongs
-5.581732	beloved
-4.307072	below
-5.107487	belt
-5.282857	bench
-5.107487	bend
-4.682421	bending
-4.243433	beneath
-4.982909	benefactor
-4.886216	benefit
-5.581732	benevolence
-5.581732	benevolent
-4.205661	bent
-5.581732	bequeathed
-5.581732	bequest
-5.581732	bereavement
-5.107487	berth
-5.282857	berths
-5.581732	beryl
-4.982909	beryls
-5.581732	beseeching
-3.822551	beside
-4.506511	besides
-3.617524	best
-5.581732	bestirred
-5.581732	bestow
-4.982909	bet
-5.581732	betaken
-5.581732	betokened
-5.107487	betray
-5.581732	betrayal
-4.682421	betrayed
-5.581732	betraying
-5.581732	betrothal
-5.282857	bets
-3.544621	better
-5.581732	better-dressed
-5.581732	better-lined
-4.807179	betting
-5.581732	betting-book
-3.373839	between
-5.107487	bewildered
-4.886216	bewilderment
-4.094552	beyond
-5.581732	biassed
-5.581732	biblical
-5.581732	bibliophile
-3.994878	bicycle
-5.581732	bicycled
-5.282857	bicycles
-5.581732	bicycling
-5.581732	bicyclist
-5.581732	bid
-5.581732	bidding
-5.581732	bids
-4.263628	big
-5.282857	bigger
-5.581732	bijou
-5.581732	bile-shot
-5.581732	bilious
-4.585619	bill
-4.807179	billet
-5.282857	billets
-5.581732	billiard
-5.581732	billiard-cue
-5.581732	billiard-marker
-4.982909	billiard-room
-5.107487	billiards
-4.982909	bills
-5.581732	billycock
-5.282857	bind
-5.282857	binding
-5.282857	biographer
-5.282857	biographies
-5.581732	biography
-4.123506	bird
-4.631329	birds
-4.886216	birth
-5.581732	birthday
-5.581732	biscuit
-5.282857	biscuits
-5.581732	bisulphate
-4.170913	bit
-5.282857	bite
-5.581732	biting
-5.581732	bits
-4.982909	bitten
-4.409673	bitter
-4.807179	bitterly
-4.982909	bitterness
-4.807179	bizarre
-3.536797	black
-5.581732	black-bearded
-5.581732	black-board
-5.581732	black-eyed
-5.581732	black-guard
-5.581732	black-haired
-5.581732	black-letter
-5.581732	blacker
-4.886216	blackest
-5.107487	blackguard
-5.581732	blackish
-5.107487	blackmail
-5.581732	blackmailed
-5.581732	blackmailer
-5.581732	blackmailers
-5.282857	blackmailing
-5.581732	blackness
-5.581732	blacksmith
-5.282857	blackthorn
-4.807179	blade
-4.439616	blame
-5.282857	blanche
-4.982909	blanched
-5.581732	bland
-5.282857	blandest
-4.982909	blandly
-4.807179	blank
-5.581732	blankly
-5.282857	blanks
-5.282857	blast
-5.581732	blasted
-4.886216	blaze
-5.581732	blazed
-5.581732	blazes
-4.807179	blazing
-5.581732	blazonings
-5.282857	bleak
-5.581732	bleat
-5.581732	bled
-4.982909	bleeding
-5.282857	blend
-5.581732	blended
-4.544266	bless
-5.107487	blessed
-5.581732	blessing
-4.631329	blew
-4.123506	blind
-5.581732	blindness
-4.631329	blinds
-5.282857	blinked
-5.107487	blinking
-5.581732	bloc
-4.682421	block
-5.581732	blockaded
-4.982909	blocked
-5.282857	blocks
-5.282857	blond
-5.282857	blonde
-3.869967	blood
-5.581732	blood-bespattered
-5.581732	blood-hound
-5.581732	blood-relatives
-4.982909	blood-stain
-4.982909	blood-stains
-5.107487	bloodless
-5.282857	bloodstains
-5.581732	bloodthirsty
-5.282857	bloody
-5.581732	bloom
-5.581732	blossoms
-5.581732	blot
-5.282857	blotches
-5.581732	blotted
-5.581732	blotting-pad
-5.107487	blotting-paper
-3.913863	blow
-4.807179	blowing
-4.682421	blown
-4.982909	blows
-5.282857	bludgeon
-5.581732	bludgeon-man
-5.581732	bludgeons
-3.952484	blue
-5.107487	blue-eyed
-5.581732	blue-gray
-5.581732	blue-lipped
-5.581732	blue-tinted
-5.581732	blue-veined
-5.581732	bluebottles
-5.581732	bluff
-5.581732	bluish
-4.982909	blunder
-5.581732	blundering
-5.581732	blunders
-4.807179	blunt
-5.581732	bluntly
-5.282857	blur
-4.982909	blurred
-5.581732	blurs
-5.581732	blurted
-5.282857	blush
-5.581732	blushed
-5.282857	bluster
-5.581732	boa
-4.544266	board
-5.581732	board-schools
-5.581732	boarding-house
-5.282857	boarding-school
-5.581732	boarding-schools
-4.807179	boards
-5.581732	boasted
-5.581732	boasting
-4.409673	boat
-5.581732	bob
-5.581732	boded
-5.581732	bodes
-4.982909	bodies
-5.581732	bodily
-3.786644	body
-5.581732	bog
-5.581732	boggling
-5.581732	boggy
-5.282857	boil
-4.886216	boiling
-5.282857	boisterous
-4.740335	bold
-5.581732	boldly
-4.886216	bolt
-4.807179	bolted
-5.581732	bolts
-5.581732	bona-fide
-5.282857	bond
-5.282857	bonds
-4.740335	bone
-5.107487	bones
-4.807179	bonnet
-5.581732	bonniest
-5.282857	bonny
-5.581732	bony
-4.154529	book
-5.581732	book-collector
-5.581732	book-making
-4.807179	bookcase
-5.581732	booked
-4.170913	books
-5.581732	bookshop
-5.581732	bookworm
-5.107487	boomed
-5.581732	booming
-4.982909	boot
-5.581732	boot-lace
-5.581732	boot-slitting
-5.581732	booted
-5.581732	bootlaces
-5.581732	bootmarks
-4.154529	boots
-5.282857	booty
-4.740335	border
-5.282857	bordered
-5.581732	bordering
-4.982909	borders
-4.307072	bore
-5.107487	bored
-5.107487	born
-4.740335	borne
-5.282857	borrow
-5.107487	borrowed
-4.682421	bosom
-5.282857	boss
-3.47543	both
-5.282857	bother
-5.107487	bothered
-5.581732	bothers
-4.439616	bottle
-5.107487	bottles
-4.080768	bottom
-4.471776	bought
-5.581732	boulder
-5.581732	boulders
-4.170913	bound
-5.581732	boundary
-4.982909	bounded
-5.581732	bounds
-5.107487	bouquet
-4.982909	bow
-5.282857	bow-window
-4.18794	bowed
-5.107487	bowing
-5.581732	bowl
-5.581732	bowl-shaped
-5.581732	bowlder
-5.581732	bowling
-5.581732	bowls
-3.861696	box
-5.581732	box-room
-5.282857	boxed
-5.581732	boxer
-5.581732	boxers
-4.886216	boxes
-5.107487	boxing
-3.740894	boy
-5.581732	boyish
-4.631329	boys
-5.107487	brace
-5.107487	braced
-5.581732	bracelets
-5.581732	braces
-5.282857	bracing
-4.982909	bracket
-4.307072	brain
-5.581732	brain-attic
-4.807179	brain-fever
-4.506511	brains
-5.581732	bramble-covered
-5.581732	brambles
-4.631329	branch
-4.740335	branches
-5.282857	branching
-5.581732	brand
-5.581732	branded
-4.33054	brandy
-5.581732	brandy-bottle
-4.585619	brass
-5.581732	brass-bound
-5.581732	brassy
-5.282857	bravado
-4.886216	brave
-5.282857	braved
-5.581732	bravery
-5.581732	braving
-5.581732	brawl
-5.581732	brawls
-5.581732	brawny
-5.107487	brazen
-5.282857	brazier
-4.982909	breach
-5.581732	breaches
-5.581732	bread
-5.581732	bread-crumbs
-5.107487	breadth
-4.006156	break
-3.904722	breakfast
-5.581732	breakfast-room
-4.886216	breakfast-table
-5.581732	breakfast-time
-5.282857	breakfasted
-5.581732	breakfasts
-4.307072	breaking
-5.282857	breaks
-4.35535	breast
-5.581732	breast-pocket
-5.581732	breastpin
-4.243433	breath
-5.107487	breathe
-4.886216	breathed
-4.585619	breathing
-5.581732	breathless
-5.581732	breathlessly
-5.107487	bred
-5.581732	breech
-5.581732	breech-block
-5.581732	breeches
-5.581732	breeding
-5.581732	breeze
-5.581732	brewer
-5.581732	brewing
-5.581732	briar
-5.581732	bribe
-4.682421	brick
-5.581732	brickish
-4.807179	bricks
-5.581732	bridal
-4.631329	bride
-4.631329	bridegroom
-4.982909	bridge
-5.581732	bridle
-5.107487	brief
-5.581732	briefly
-5.581732	brier
-5.581732	brier-root
-5.581732	brig
-4.138741	bright
-5.581732	bright-looking
-5.581732	brightened
-4.886216	brighter
-4.982909	brightest
-4.682421	brightly
-5.282857	brightness
-4.33054	brilliant
-5.107487	brilliantly
-5.581732	brim
-5.581732	brimmed
-5.282857	brims
-5.581732	brindled
-3.722671	bring
-4.585619	bringing
-5.107487	brings
-5.107487	brink
-4.682421	brisk
-5.581732	briskest
-5.107487	briskly
-5.581732	bristle
-5.107487	bristled
-4.982909	bristling
-4.029631	broad
-5.581732	broad-beamed
-5.107487	broad-brimmed
-5.581732	broad-pointed
-5.282857	broad-shouldered
-4.886216	broadened
-5.282857	broader
-5.581732	broadest
-5.581732	broadish
-3.952484	broke
-3.942502	broken
-5.581732	broken-backed
-5.581732	broken-hearted
-5.282857	broker
-4.982909	brokers
-5.581732	bronze-colored
-5.581732	brooch
-4.886216	brooding
-3.837788	brother
-5.581732	brother-in-law
-5.282857	brothers
-4.35535	brougham
-3.492597	brought
-4.307072	brow
-5.581732	brow-beaten
-5.581732	browbeat
-4.205661	brown
-5.581732	brownish
-5.581732	browns
-4.506511	brows
-5.107487	bruise
-4.886216	brushed
-5.581732	brushes
-4.886216	brutal
-5.581732	brutality
-4.740335	brute
-5.581732	bucket
-5.581732	buckets
-5.581732	buckles
-5.581732	budding
-5.282857	budge
-5.581732	budges
-5.581732	buffalo
-5.282857	buffet
-4.982909	build
-4.886216	builder
-4.170913	building
-5.282857	buildings
-4.585619	built
-5.581732	bulge
-5.581732	bulk
-4.740335	bulky
-4.982909	bull
-5.581732	bull-dog
-5.107487	bulldog
-4.284807	bullet
-5.581732	bullet-pocks
-5.107487	bullets
-5.282857	bullion
-4.807179	bully
-5.282857	bullying
-5.581732	bulwark
-5.581732	bumping
-5.581732	bunch
-4.506511	bundle
-5.282857	bundled
-4.886216	bundles
-5.581732	bungler
-5.282857	bunk
-5.282857	burden
-4.205661	bureau
-4.381662	burglar
-4.471776	burglars
-4.682421	burglary
-5.282857	burgle
-5.107487	burgled
-5.581732	burgling
-4.35535	buried
-5.107487	burly
-5.282857	burn
-4.381662	burned
-5.581732	burner
-4.439616	burning
-5.581732	burnished
-5.581732	burns
-5.581732	burr
-5.282857	burrow
-5.282857	burrowing
-4.080768	burst
-5.581732	burying
-4.982909	bush
-4.439616	bushes
-5.107487	bushy
-5.282857	busied
-5.581732	busier
-5.581732	busiest
-5.581732	busily
-3.381907	business
-5.581732	businesslike
-5.581732	busses
-4.080768	bust
-5.107487	bustled
-4.886216	bustling
-4.224137	busts
-4.18794	busy
-5.581732	busybody
-2.475124	but
-5.107487	butcher
-4.138741	butler
-4.886216	butt
-5.282857	butt-end
-5.581732	butted
-5.581732	butter
-5.581732	butter-dish
-5.581732	butter-dishes
-4.982909	buttoned
-5.282857	buttoning
-4.807179	buttons
-4.409673	buy
-5.282857	buying
-5.581732	buzz
-5.581732	buzzed
-5.581732	buzzing
-2.593938	by
-5.581732	byways
-5.282857	c'est
-3.962701	ca
-3.837788	cab
-5.581732	cab-stand
-5.282857	cabby
-4.506511	cabin
-4.807179	cabinet
-4.886216	cable
-5.581732	cabled
-5.581732	cablegram
-4.682421	cabman
-5.107487	cabs
-5.282857	cadaverous
-5.581732	cadet
-5.581732	café
-5.282857	cage
-5.581732	caged
-5.581732	cake
-5.581732	calamity
-5.107487	calculated
-4.982909	calculation
-5.282857	calculations
-5.581732	caldron
-5.581732	calf
-3.656584	call
-3.766444	called
-4.544266	calling
-5.581732	callosities
-5.581732	callous
-4.982909	calls
-4.807179	calm
-5.581732	calmer
-4.886216	calmly
-5.581732	caltrops
-5.581732	calves
-2.942591	came
-5.581732	camel
-5.282857	camera
-4.807179	camp
-5.581732	camp-bed
-4.982909	campaign
-5.282857	campaigner
-5.581732	camped
-2.759972	can
-5.581732	canary
-5.581732	canary-trainer
-5.581732	candelabra
-5.581732	candid
-5.107487	candidate
-4.35535	candle
-5.581732	candle-end
-5.581732	candle-light
-4.886216	candles
-5.581732	candlesticks
-4.982909	cane
-5.581732	canine
-5.581732	canteen
-5.581732	canteens
-5.581732	cantered
-5.581732	cantering
-5.581732	canters
-5.581732	cantonments
-5.581732	canvas
-4.381662	cap
-4.307072	capable
-5.581732	capacities
-4.982909	capacity
-4.506511	capital
-5.581732	capricious
-5.581732	caps
-4.631329	captain
-5.282857	captive
-4.982909	capture
-4.982909	captured
-5.581732	car
-5.107487	carafe
-5.581732	caraffe
-5.581732	caravan
-5.581732	carbolised
-4.886216	carbuncle
-5.581732	carcass
-4.18794	card
-5.282857	card-case
-5.107487	cardboard
-5.581732	cardinal
-4.506511	cards
-3.932745	care
-5.581732	care-taker
-4.682421	cared
-4.080768	career
-4.307072	careful
-4.029631	carefully
-5.581732	carefully-guarded
-5.107487	careless
-4.982909	carelessly
-5.581732	carelessness
-5.282857	cares
-5.581732	caress
-5.282857	caressing
-5.581732	careworn
-5.581732	cargo
-5.581732	caricature
-5.581732	carnivorous
-5.581732	carotid
-5.581732	carpenter
-4.067408	carpet
-5.282857	carpet-bag
-5.581732	carpet-bags
-5.282857	carpets
-3.766444	carriage
-5.581732	carriage-building
-5.581732	carriage-sweep
-5.282857	carriages
-3.786644	carried
-4.982909	carries
-4.170913	carry
-4.35535	carrying
-5.581732	carrée
-4.982909	cart
-5.282857	carte
-5.282857	cartridge
-5.282857	cartridges
-5.581732	carts
-5.581732	carve
-5.107487	carved
-5.581732	carving
-5.581732	cascade
-3.064903	case
-5.581732	case-book
-5.581732	caseful
-3.740894	cases
-5.581732	cash
-5.581732	cashbox
-5.581732	cashed
-5.282857	cashier
-5.581732	cask
-5.581732	casket
-5.581732	casks
-5.581732	cassock
-4.381662	cast
-5.282857	cast-off
-5.581732	caste
-5.282857	casting
-4.886216	casts
-5.581732	casual
-5.581732	casually
-4.631329	cat
-5.107487	catalepsy
-5.282857	cataleptic
-5.282857	cataract
-4.682421	catastrophe
-4.138741	catch
-5.581732	catches
-5.282857	catching
-5.581732	catchy
-5.581732	catechism
-5.581732	category
-5.581732	cathedral
-5.581732	catlike
-5.282857	cattle
-3.85358	caught
-3.942502	cause
-3.962701	caused
-4.807179	causes
-5.581732	causeway
-4.982909	causing
-4.982909	caution
-5.581732	cautioning
-5.107487	cautious
-5.581732	cautiously
-5.581732	cavalier
-5.581732	cavalry
-5.581732	cave
-5.581732	caved
-5.581732	cavity
-4.982909	cease
-4.35535	ceased
-5.581732	ceaseless
-5.581732	ceases
-5.581732	ceasing
-4.471776	ceiling
-5.107487	celebrated
-5.581732	celebrities
-5.581732	celebrity
-4.982909	cell
-4.284807	cellar
-4.982909	cells
-5.581732	cemented
-5.107487	cent
-5.581732	center
-5.581732	centers
-4.35535	central
-3.973164	centre
-5.107487	centuries
-4.585619	century
-4.740335	ceremony
-3.728661	certain
-3.472077	certainly
-5.581732	certainties
-4.544266	certainty
-5.107487	certificate
-5.581732	certificates
-5.107487	chaff
-5.581732	chaff-cutting
-5.282857	chaffed
-5.581732	chaffering
-5.282857	chagrin
-5.581732	chagrined
-4.205661	chain
-5.282857	chained
-5.581732	chains
-3.401334	chair
-5.282857	chairman
-4.544266	chairs
-4.682421	chalk
-5.581732	chalk-pit
-5.581732	chalk-pits
-5.581732	chalky
-5.581732	challenge
-5.581732	challenged
-4.154529	chamber
-4.740335	chambers
-5.581732	chamois
-5.581732	champion
-5.581732	champions
-3.710934	chance
-4.982909	chanced
-5.107487	chances
-4.041862	change
-4.439616	changed
-4.982909	changes
-5.107487	changing
-5.581732	channel
-5.282857	channels
-4.682421	chap
-5.581732	chapel
-4.807179	chaplain
-5.581732	chaps
-5.282857	chapter
-3.85358	character
-5.581732	characterises
-4.682421	characteristic
-4.886216	characteristics
-5.581732	characterized
-4.886216	characters
-4.982909	charcoal
-4.054447	charge
-4.982909	charged
-5.581732	charges
-5.581732	charging
-5.581732	charing
-5.581732	charitable
-5.282857	charity
-4.982909	charm
-5.581732	charmed
-4.439616	charming
-4.807179	charred
-4.807179	chart
-5.581732	chart-like
-5.581732	charters
-5.581732	charts
-5.581732	charwomen
-4.886216	chase
-5.282857	chased
-5.107487	chasing
-4.886216	chasm
-5.581732	chastened
-4.982909	chat
-5.581732	chatted
-5.581732	chattering
-4.982909	chatting
-5.107487	cheap
-5.282857	cheating
-4.631329	check
-5.581732	check-book
-5.282857	checking
-5.581732	checkmate
-4.982909	cheek
-5.581732	cheekbones
-4.243433	cheeks
-5.282857	cheer
-5.107487	cheerful
-5.282857	cheerfully
-4.886216	cheerily
-5.581732	cheeriness
-5.581732	cheerless
-4.807179	cheery
-4.807179	cheetah
-4.585619	chemical
-5.282857	chemicals
-5.581732	chemist
-5.282857	chemistry
-4.886216	cheque
-5.107487	cheque-book
-4.982909	cheques
-5.581732	cherished
-5.581732	cherry-wood
-4.471776	chest
-5.282857	chestnut
-5.282857	chestnuts
-5.581732	chevron
-5.581732	chevy
-5.581732	chewing
-5.282857	chicken
-4.740335	chief
-5.581732	chiffon
-3.895769	child
-5.581732	childbed
-4.807179	childish
-4.263628	children
-4.585619	chill
-5.581732	chimed
-5.282857	chimes
-5.107487	chimney
-4.982909	chimneys
-5.581732	chimpanzee
-4.170913	chin
-5.581732	china
-5.581732	chinchilla
-5.107487	chink
-5.282857	chins
-5.282857	chip
-5.581732	chips
-5.282857	chisel
-5.581732	chiseled
-5.282857	chivalrous
-4.982909	choice
-5.581732	choke
-4.886216	choked
-4.982909	choking
-4.585619	choose
-5.581732	chooses
-5.107487	choosing
-4.807179	chose
-4.682421	chosen
-5.581732	chronic
-4.886216	chronicle
-5.581732	chronicled
-5.282857	chronicler
-5.581732	chronicles
-5.581732	chucked
-5.107487	chuckle
-4.381662	chuckled
-5.282857	chuckling
-5.581732	chummy
-5.581732	chums
-5.581732	chunks
-4.471776	church
-5.581732	church-clock
-5.581732	churches
-5.581732	churlish
-4.205661	cigar
-5.282857	cigar-case
-5.581732	cigar-end
-5.581732	cigar-ends
-4.982909	cigar-holder
-5.581732	cigar-shaped
-4.243433	cigarette
-5.282857	cigarette-box
-5.581732	cigarette-case
-5.581732	cigarette-ends
-4.631329	cigarettes
-4.682421	cigars
-5.581732	cinder
-5.107487	cipher
-5.581732	ciphers
-4.307072	circle
-4.982909	circles
-5.581732	circular
-5.581732	circulated
-5.581732	circulation
-5.581732	circumlocution
-5.581732	circumspect
-5.581732	circumstance
-4.067408	circumstances
-5.282857	circumstantial
-5.107487	citizens
-4.409673	city
-5.282857	civil
-5.581732	civilian
-5.282857	civilians
-5.581732	civilisation
-5.581732	civilised
-5.581732	civilization
-5.282857	civilly
-4.409673	clad
-4.284807	claim
-5.581732	claim-jumping
-5.581732	claimed
-5.581732	claiming
-5.107487	clambered
-5.581732	clambering
-5.581732	clamor
-5.282857	clamped
-4.740335	clang
-5.282857	clanging
-5.581732	clank
-5.581732	clanking
-4.585619	clapped
-5.282857	clapping
-5.581732	claret
-5.581732	claret-coloured
-5.581732	clasp
-5.581732	clasp-knife
-4.740335	clasped
-5.282857	clasping
-5.581732	claspings
-4.585619	class
-5.282857	classes
-5.282857	classic
-5.581732	classical
-5.581732	classified
-5.581732	classifying
-4.807179	clatter
-4.886216	clattered
-5.581732	claw
-5.282857	clawed
-5.282857	clawing
-5.282857	claws
-4.439616	clay
-5.581732	clay-colored
-4.439616	clean
-5.581732	clean-cut
-4.631329	clean-shaven
-5.107487	cleaned
-5.581732	cleaners
-5.581732	cleanly
-3.395694	clear
-5.282857	clear-cut
-4.094552	cleared
-4.886216	clearer
-5.581732	clearest
-4.506511	clearing
-4.029631	clearly
-5.282857	clearness
-5.282857	clears
-5.282857	cleaver
-4.682421	clenched
-4.585619	clergyman
-5.581732	clerical
-4.506511	clerk
-4.682421	clerks
-4.381662	clever
-5.581732	cleverest
-5.581732	cleverly
-4.982909	cleverness
-4.886216	click
-5.581732	clicked
-3.710934	client
-4.886216	clients
-4.982909	cliff
-5.581732	cliffs
-5.581732	climate
-5.107487	climb
-4.982909	climbed
-5.282857	climbing
-5.581732	climbs
-5.107487	clinched
-5.282857	cling
-5.581732	clings
-5.282857	clink
-5.581732	clinked
-5.581732	clinking
-5.581732	clippers
-5.282857	clips
-4.585619	cloak
-4.631329	clock
-3.759914	close
-5.581732	close-fitting
-3.85358	closed
-4.544266	closely
-5.282857	closer
-4.585619	closing
-4.439616	cloth
-4.170913	clothes
-4.982909	clothing
-5.282857	clotted
-4.682421	cloud
-5.581732	cloud-wreaths
-5.107487	clouded
-5.282857	cloudless
-4.740335	clouds
-5.581732	cloven
-4.33054	club
-5.581732	club-foot
-5.282857	clubbed
-4.982909	clubs
-3.861696	clue
-4.682421	clues
-4.886216	clump
-4.886216	clumps
-5.581732	clumsily
-5.581732	clumsiness
-5.282857	clumsy
-5.282857	clung
-5.107487	cluster
-4.682421	clutched
-5.107487	clutches
-4.886216	clutching
-4.807179	co-operation
-5.282857	coach
-5.581732	coach-house
-4.284807	coachman
-5.581732	coal
-5.107487	coal-black
-5.581732	coal-scuttle
-5.581732	coal-tar
-4.740335	coarse
-5.581732	coarse-faced
-5.581732	coarsely
-4.682421	coast
-5.581732	coaster
-4.067408	coat
-5.282857	coat-of-arms
-5.282857	coat-pocket
-5.581732	coat-sleeve
-5.581732	coat-tails
-5.581732	coated
-5.107487	coats
-5.581732	coax
-5.107487	coaxing
-5.581732	cobbler
-5.581732	cobras
-5.581732	cobwebby
-5.581732	cobwebs
-4.982909	cocaine
-5.581732	cock-a-doodle
-5.581732	cock-and-bull
-4.682421	cocked
-5.107487	cocking
-5.581732	cockneys
-5.581732	cockroaches
-5.282857	cocksure
-5.581732	cocktail
-5.581732	cocoa
-4.982909	cocoanut
-5.581732	code
-5.581732	codes
-5.581732	coerced
-5.581732	coeur
-4.307072	coffee
-5.581732	coffee-cup
-5.581732	coffin
-5.581732	coherent
-5.581732	coherently
-4.982909	coil
-5.581732	coiled
-5.581732	coin
-5.581732	coincided
-4.585619	coincidence
-5.581732	coincidences
-5.581732	coincident
-5.581732	coiners
-4.886216	coins
-3.878398	cold
-5.282857	cold-blooded
-5.581732	colder
-4.807179	coldly
-5.581732	coldness
-5.581732	colds
-5.581732	collapse
-4.807179	collapsed
-4.439616	collar
-5.581732	collar-ends
-4.585619	colleague
-5.581732	colleagues
-5.107487	collect
-5.107487	collected
-5.282857	collecting
-4.544266	collection
-5.581732	collector
-4.471776	college
-4.439616	colonel
-5.581732	colonials
-5.107487	colonies
-5.282857	colony
-4.807179	color
-5.282857	color-sergeant
-5.581732	colored
-5.282857	colors
-5.282857	colossal
-4.094552	colour
-5.107487	coloured
-5.282857	colouring
-5.282857	colourless
-4.585619	column
-4.982909	columns
-4.682421	combination
-5.581732	combinations
-5.581732	combine
-5.282857	combined
-2.947554	come
-5.581732	come.
-5.107487	comely
-3.994878	comes
-5.581732	comet
-5.282857	comfort
-4.631329	comfortable
-5.282857	comfortable-looking
-4.807179	comfortably
-5.581732	comforted
-5.107487	comic
-5.107487	comical
-3.666923	coming
-4.544266	command
-4.886216	commanded
-5.581732	commanding
-5.107487	commands
-5.581732	commemorated
-4.886216	commence
-5.581732	commenced
-4.982909	commencement
-4.982909	commend
-4.982909	comment
-5.581732	commented
-5.581732	commenting
-5.581732	comments
-5.581732	commerce
-5.581732	commercial
-5.581732	commiserating
-4.544266	commission
-4.982909	commissionaire
-5.107487	commissioned
-4.471776	commissionnaire
-5.581732	commissions
-4.982909	commit
-5.581732	commits
-4.094552	committed
-5.581732	committee
-4.094552	common
-5.581732	common-looking
-5.581732	common-place
-5.581732	common-sense
-5.581732	commonly
-4.381662	commonplace
-5.282857	commonplaces
-4.585619	communicate
-4.807179	communicated
-5.581732	communicating
-4.886216	communication
-5.107487	communicative
-4.982909	community
-5.581732	commuting
-5.107487	companies
-3.617524	companion
-4.807179	companions
-4.017735	company
-4.982909	comparatively
-4.886216	compare
-4.740335	compared
-5.107487	comparing
-5.282857	comparison
-5.581732	compartments
-5.282857	compass
-5.581732	compasses
-5.581732	compel
-4.33054	compelled
-5.581732	compensated
-5.282857	compete
-5.581732	competence
-5.581732	competent
-5.581732	competition
-5.581732	complacent
-4.982909	complain
-5.107487	complained
-4.740335	complaint
-3.904722	complete
-4.631329	completed
-4.35535	completely
-4.585619	complex
-4.886216	complexion
-5.282857	compliance
-4.982909	complicated
-5.581732	complicates
-5.282857	complication
-5.581732	complications
-5.107487	compliment
-5.581732	complimentary
-5.581732	complimented
-5.581732	complimenting
-5.282857	compliments
-5.107487	comply
-5.581732	compose
-4.807179	composed
-5.581732	composer
-5.581732	composition
-5.581732	compositor
-5.107487	composure
-5.581732	compound
-5.107487	compress
-4.886216	compressed
-4.982909	compromise
-5.581732	compromised
-5.282857	compromising
-4.982909	compunction
-4.740335	comrade
-5.282857	comrades
-5.581732	comradeship
-5.581732	concave
-4.284807	conceal
-4.35535	concealed
-5.282857	concealing
-4.982909	concealment
-5.581732	conceit
-4.631329	conceivable
-5.107487	conceivably
-4.982909	conceive
-5.581732	conceived
-5.581732	conceives
-4.982909	concentrate
-4.886216	concentrated
-5.581732	concentrating
-4.982909	concentration
-5.107487	conception
-4.886216	concern
-4.307072	concerned
-4.982909	concerning
-5.282857	concerns
-5.581732	concert
-5.581732	concerts
-5.282857	concise
-5.581732	concisely
-4.682421	concluded
-5.581732	concluding
-4.080768	conclusion
-4.471776	conclusions
-4.982909	conclusive
-5.282857	conclusively
-5.581732	concocted
-5.282857	concoction
-5.581732	concussion
-4.982909	condemned
-5.581732	condense
-5.581732	condensed
-5.581732	condensing
-5.282857	condescend
-5.581732	condescended
-4.471776	condition
-4.682421	conditions
-5.581732	condoned
-5.581732	conducive
-4.205661	conduct
-4.807179	conducted
-5.581732	conducting
-5.581732	conductor
-5.581732	confectioner
-5.282857	confederacy
-4.471776	confederate
-5.581732	confederates
-5.581732	confer
-3.904722	confess
-4.585619	confessed
-5.282857	confessing
-4.439616	confession
-5.107487	confidant
-4.886216	confide
-5.282857	confided
-3.994878	confidence
-4.982909	confident
-5.107487	confidential
-5.282857	confidentially
-4.982909	confine
-4.807179	confined
-5.581732	confining
-4.807179	confirm
-4.982909	confirmed
-5.581732	conflagration
-5.581732	conflicting
-5.581732	confound
-5.581732	confounded
-5.581732	confounding
-4.807179	confronted
-4.807179	confused
-5.107487	confusion
-4.807179	congenial
-5.581732	congested
-5.581732	congrat
-4.506511	congratulate
-5.581732	congratulated
-5.581732	congratulation
-5.581732	congratulatory
-5.581732	conical
-4.585619	conjecture
-4.631329	conjectured
-5.581732	conjunction
-5.581732	conjure
-5.282857	conjurer
-5.581732	conjuring
-4.807179	connect
-4.224137	connected
-4.094552	connection
-5.581732	connivance
-5.282857	connoisseur
-4.740335	conscience
-4.471776	conscious
-4.631329	consciousness
-5.107487	consent
-5.282857	consented
-4.807179	consequence
-4.807179	consequences
-5.581732	consequential
-5.581732	conservative
-5.581732	conservatory
-4.307072	consider
-3.895769	considerable
-4.506511	considerably
-5.282857	considerate
-4.544266	consideration
-5.581732	considerations
-4.682421	considered
-4.982909	considering
-5.581732	consigned
-5.581732	consist
-4.807179	consisted
-4.886216	consists
-5.107487	consolation
-5.581732	consoled
-5.581732	consolidated
-5.581732	consoling
-5.282857	conspicuous
-5.581732	conspicuously
-5.107487	conspiracy
-5.282857	conspirators
-5.581732	conspire
-5.581732	conspiring
-4.243433	constable
-4.544266	constables
-5.282857	constabulary
-5.581732	constancy
-5.282857	constant
-5.581732	constantly
-5.581732	consternation
-5.107487	constitution
-5.581732	constitutional
-5.107487	constraint
-5.282857	construct
-5.107487	constructed
-5.282857	construction
-4.471776	consult
-5.282857	consultant
-4.886216	consultation
-5.282857	consultations
-4.886216	consulted
-4.886216	consulting
-4.544266	consulting-room
-5.581732	consults
-5.581732	consume
-4.807179	consumed
-5.282857	consuming
-5.107487	consumption
-4.740335	contact
-4.982909	contain
-4.439616	contained
-4.631329	containing
-5.107487	contains
-5.581732	contemplating
-5.107487	contemplation
-5.581732	contemplative
-5.581732	contempt
-5.581732	contemptuous
-4.886216	content
-5.282857	contented
-4.33054	contents
-5.282857	contest
-5.581732	continents
-5.581732	continual
-4.544266	continually
-5.581732	continuation
-4.284807	continue
-3.994878	continued
-5.581732	continues
-5.581732	continuing
-5.282857	continuous
-5.282857	continuously
-5.581732	contortion
-5.581732	contortions
-5.107487	contracted
-4.886216	contraction
-5.581732	contractor
-5.581732	contradict
-4.205661	contrary
-4.585619	contrast
-5.581732	contributed
-5.581732	contrition
-5.282857	contrived
-4.886216	control
-5.282857	controlled
-5.581732	conundrum
-5.581732	conundrums
-5.581732	convalescent
-4.886216	convenience
-4.807179	convenient
-5.282857	conveniently
-5.107487	conventional
-5.581732	conventionalities
-5.581732	conventions
-5.581732	conversant
-4.080768	conversation
-5.581732	converse
-5.581732	conversed
-5.581732	conversing
-5.107487	convey
-4.585619	conveyed
-5.581732	conveying
-5.581732	conveys
-4.886216	convict
-5.581732	convict-ships
-5.581732	convicted
-4.544266	conviction
-4.886216	convicts
-4.886216	convince
-3.952484	convinced
-4.886216	convincing
-5.581732	convoy
-5.581732	convulse
-4.886216	convulsed
-5.581732	convulsing
-5.282857	convulsion
-4.740335	convulsive
-5.581732	convulsively
-4.807179	cook
-5.581732	cooking
-4.631329	cool
-5.581732	coolest
-5.107487	coolly
-5.282857	coolness
-5.581732	cooped
-5.282857	cooperation
-5.581732	cope
-4.807179	copied
-5.581732	copier
-5.581732	coping
-5.581732	copious
-4.807179	copper
-5.282857	coppers
-4.263628	copy
-4.982909	copying
-5.581732	coquettish
-4.439616	cord
-5.581732	cordiality
-5.107487	cordially
-5.581732	cords
-4.807179	cork
-5.581732	cork-screw
-5.581732	corn-chandler
-3.693903	corner
-4.682421	corners
-4.544266	coroner
-4.18794	coronet
-5.581732	corporal
-5.581732	corps
-5.581732	corpse
-5.581732	corpulent
-4.094552	correct
-5.581732	corrected
-5.282857	correctly
-4.740335	correspond
-5.282857	corresponded
-4.982909	correspondence
-4.982909	correspondent
-5.581732	correspondents
-4.886216	corresponding
-5.282857	corresponds
-4.170913	corridor
-5.581732	corridor-lamp
-4.886216	corridors
-5.107487	corroborate
-5.581732	corroborated
-5.581732	corroborates
-5.107487	corroboration
-5.581732	corroborative
-5.581732	cosey
-4.631329	cost
-5.581732	coster
-5.581732	costs
-4.886216	costume
-5.581732	cosy
-4.108788	cottage
-5.282857	cottages
-5.581732	cotton
-4.544266	couch
-5.581732	couched
-5.581732	cough
-5.282857	coughing
-2.639596	could
-4.807179	counsel
-5.581732	counsellor
-5.282857	count
-4.886216	countenance
-5.581732	countenances
-4.982909	counter
-5.581732	counterfeited
-5.282857	counterfoil
-5.282857	counterfoils
-5.581732	counties
-5.581732	counting
-4.982909	countries
-5.581732	countrified
-3.599237	country
-5.581732	country-house
-5.581732	country-houses
-4.982909	country-side
-5.581732	country-town
-5.581732	country-trip
-5.581732	countryman
-5.107487	countryside
-5.581732	counts
-4.33054	county
-5.581732	coup-de-maitre
-4.154529	couple
-5.581732	coupled
-5.581732	couples
-4.471776	courage
-3.295997	course
-5.581732	courses
-4.471776	court
-5.581732	court-martial
-5.581732	court-yard
-5.282857	courteous
-4.807179	courtesy
-5.581732	courting
-5.282857	courtly
-5.282857	courts
-5.107487	courtyard
-4.807179	cousin
-5.581732	cousins
-4.263628	cover
-4.138741	covered
-5.107487	covering
-5.282857	covers
-5.282857	cow
-5.581732	cow-tracks
-4.886216	coward
-5.581732	cowardly
-5.581732	cowed
-5.581732	cowered
-5.581732	cowering
-4.982909	cows
-5.581732	crab
-5.581732	crabbed
-4.631329	crack
-4.807179	cracked
-5.581732	crackle
-5.282857	crackled
-4.982909	crackling
-5.282857	cracks
-5.581732	cracksman
-5.282857	craft
-5.282857	crafty
-5.581732	craggy
-5.581732	cram
-5.581732	crammed
-5.282857	craned
-4.886216	crash
-5.581732	crashing
-5.107487	crate
-5.282857	crates
-4.631329	cravat
-5.107487	cravats
-5.581732	craved
-5.107487	crawl
-4.807179	crawled
-5.282857	crawling
-5.581732	crazed
-5.282857	crazy
-5.282857	creak
-5.581732	creaked
-4.886216	creaking
-5.581732	cream
-5.581732	creaming
-5.581732	creamy
-4.982909	creases
-5.581732	created
-5.581732	creation
-4.054447	creature
-5.282857	creatures
-4.409673	credit
-5.581732	creditable
-5.581732	credited
-5.282857	creditor
-5.107487	creditors
-5.107487	creeping
-4.585619	crept
-5.581732	crest
-5.581732	crevice
-4.740335	crew
-5.107487	crib
-5.581732	cribs
-5.581732	cricket
-5.581732	cricket-cap
-3.193339	cried
-4.807179	cries
-3.532937	crime
-4.631329	crimes
-3.85358	criminal
-4.631329	criminals
-4.740335	crimson
-5.581732	cringe
-5.581732	cringed
-5.282857	cringing
-5.107487	crinkled
-4.807179	cripple
-5.107487	crippled
-4.682421	crisis
-4.886216	crisp
-5.581732	crisply
-5.581732	criss-crossed
-5.282857	critical
-5.581732	critically
-5.581732	criticism
-5.581732	croaked
-5.581732	croaking
-5.282857	crockery
-5.581732	crocodile-skin
-5.282857	crocuses
-5.581732	crony
-5.581732	crook
-5.581732	crooks
-4.585619	crop
-5.581732	cropper
-4.585619	cross
-5.581732	cross-bars
-5.581732	cross-country
-5.581732	cross-examination
-5.581732	cross-examine
-5.581732	cross-examined
-5.581732	cross-indexing
-5.282857	cross-legged
-5.282857	cross-purposes
-5.282857	cross-questioned
-5.581732	cross-questioning
-4.33054	crossed
-4.982909	crossing
-5.581732	crosspiece
-4.740335	crouched
-4.682421	crouching
-4.544266	crowd
-4.807179	crowded
-5.581732	crowds
-4.682421	crown
-5.581732	crowning
-5.282857	crucial
-5.581732	crude
-5.581732	crudest
-4.886216	cruel
-5.107487	cruelly
-4.807179	cruelty
-5.581732	cruet-stand
-5.581732	crumbling
-5.581732	crumbly
-4.740335	crumpled
-5.581732	crush
-4.740335	crushed
-4.982909	crushing
-5.581732	crust
-5.581732	crusted
-5.581732	crutch
-5.581732	crux
-3.895769	cry
-5.107487	crying
-5.282857	crystal
-5.581732	crystallised
-5.581732	crystals
-5.581732	cub
-5.581732	cubic
-5.581732	cuddled
-5.581732	cudgel
-5.282857	cudgelled
-5.581732	cue
-5.282857	cuff
-5.581732	cuffs
-5.581732	cuisine
-5.581732	culminate
-5.581732	culminated
-5.581732	culminating
-5.282857	culpable
-4.886216	culprit
-5.581732	cultivated
-5.581732	culture
-5.581732	cultured
-5.581732	cumbrous
-5.581732	cumulative
-4.284807	cunning
-5.282857	cunningly
-4.506511	cup
-4.585619	cupboard
-5.581732	curative
-5.282857	curb
-5.282857	cure
-5.581732	cured
-5.282857	curiosities
-4.263628	curiosity
-3.878398	curious
-4.682421	curiously
-4.631329	curled
-5.581732	curlew
-4.982909	curling
-5.581732	curling-tongs
-5.581732	curly-brimmed
-5.581732	current
-5.581732	currently
-5.581732	currents
-4.807179	curried
-5.282857	curry
-4.982909	curse
-5.107487	cursed
-5.581732	curses
-5.282857	cursing
-5.107487	curt
-4.33054	curtain
-4.740335	curtains
-5.282857	curtly
-4.439616	curve
-4.807179	curved
-5.282857	curves
-4.982909	curving
-5.107487	cushion
-5.581732	cushioned
-4.982909	cushions
-4.807179	custody
-4.544266	custom
-5.282857	customary
-4.982909	customer
-3.747142	cut
-5.581732	cut-and-dried
-5.581732	cut-throats
-5.581732	cutlets
-5.107487	cuts
-5.107487	cutting
-5.282857	cuttings
-4.982909	cycle
-5.581732	cycling
-4.506511	cyclist
-4.886216	cylinder
-5.282857	cylinders
-5.282857	cynical
-5.581732	célèbres
-5.107487	d
-5.581732	d'Albert
-5.581732	d'you
-5.581732	dabbled
-5.581732	dabbling
-4.585619	dad
-5.282857	dagger
-5.581732	dailies
-4.807179	daily
-5.581732	daintiest
-5.581732	daintily
-4.982909	dainty
-5.581732	damage
-5.581732	damaged
-5.581732	damned
-4.982909	damning
-4.807179	damp
-5.107487	dance
-5.581732	danced
-4.439616	dancing
-5.581732	dandled
-5.581732	dandy
-3.962701	danger
-5.581732	danger-signals
-3.904722	dangerous
-5.581732	dangerously
-4.886216	dangers
-5.581732	dangled
-4.982909	dangling
-5.282857	dank
-5.581732	danseuse
